net
{
}
node guess_colorIg1pp1pc1I
{
	states = ("false" "true" );
	position = (0 0);
	label = "guess_colorIg1pp1pc1I";
}
node guess_colorIg8pp3pc1I
{
	states = ("false" "true" );
	position = (100 -100);
	label = "guess_colorIg8pp3pc1I";
}
node guess_colorIg4pp1pc1I
{
	states = ("false" "true" );
	position = (200 -200);
	label = "guess_colorIg4pp1pc1I";
}
node guess_colorIg3pp1pc1I
{
	states = ("false" "true" );
	position = (300 -300);
	label = "guess_colorIg3pp1pc1I";
}
node guess_colorIg3pp2pc1I
{
	states = ("false" "true" );
	position = (400 -400);
	label = "guess_colorIg3pp2pc1I";
}
node guess_colorIg1pp2pc1I
{
	states = ("false" "true" );
	position = (500 -500);
	label = "guess_colorIg1pp2pc1I";
}
node guess_colorIg5pp2pc1I
{
	states = ("false" "true" );
	position = (600 -600);
	label = "guess_colorIg5pp2pc1I";
}
node guess_colorIg7pp1pc1I
{
	states = ("false" "true" );
	position = (700 -700);
	label = "guess_colorIg7pp1pc1I";
}
node true_colorIp3pc1I
{
	states = ("false" "true" );
	position = (800 -800);
	label = "true_colorIp3pc1I";
}
node guess_colorIg7pp3pc1I
{
	states = ("false" "true" );
	position = (1780 -1780);
	label = "guess_colorIg7pp3pc1I";
}
node guess_colorIg7pp2pc1I
{
	states = ("false" "true" );
	position = (1990 -1990);
	label = "guess_colorIg7pp2pc1I";
}
node guess_colorIg5pp3pc1I
{
	states = ("false" "true" );
	position = (2200 -2200);
	label = "guess_colorIg5pp3pc1I";
}
node guess_colorIg6pp3pc1I
{
	states = ("false" "true" );
	position = (2410 -2410);
	label = "guess_colorIg6pp3pc1I";
}
node true_colorIp1pc1I
{
	states = ("false" "true" );
	position = (2620 -2620);
	label = "true_colorIp1pc1I";
}
node guess_colorIg5pp1pc1I
{
	states = ("false" "true" );
	position = (4430 -4430);
	label = "guess_colorIg5pp1pc1I";
}
node guess_colorIg2pp2pc1I
{
	states = ("false" "true" );
	position = (4870 -4870);
	label = "guess_colorIg2pp2pc1I";
}
node guess_colorIg2pp3pc1I
{
	states = ("false" "true" );
	position = (5190 -5190);
	label = "guess_colorIg2pp3pc1I";
}
node guess_colorIg1pp3pc1I
{
	states = ("false" "true" );
	position = (5510 -5510);
	label = "guess_colorIg1pp3pc1I";
}
node guess_colorIg6pp2pc1I
{
	states = ("false" "true" );
	position = (5850 -5850);
	label = "guess_colorIg6pp2pc1I";
}
node guess_colorIg8pp1pc1I
{
	states = ("false" "true" );
	position = (6170 -6170);
	label = "guess_colorIg8pp1pc1I";
}
node guess_colorIg4pp3pc1I
{
	states = ("false" "true" );
	position = (6560 -6560);
	label = "guess_colorIg4pp3pc1I";
}
node guess_colorIg2pp1pc1I
{
	states = ("false" "true" );
	position = (6880 -6880);
	label = "guess_colorIg2pp1pc1I";
}
node guess_colorIg6pp1pc1I
{
	states = ("false" "true" );
	position = (7320 -7320);
	label = "guess_colorIg6pp1pc1I";
}
node guess_colorIg4pp2pc1I
{
	states = ("false" "true" );
	position = (7760 -7760);
	label = "guess_colorIg4pp2pc1I";
}
node guess_colorIg3pp3pc1I
{
	states = ("false" "true" );
	position = (8130 -8130);
	label = "guess_colorIg3pp3pc1I";
}
node guess_colorIg8pp2pc1I
{
	states = ("false" "true" );
	position = (8470 -8470);
	label = "guess_colorIg8pp2pc1I";
}
node true_colorIp2pc1I
{
	states = ("false" "true" );
	position = (8840 -8840);
	label = "true_colorIp2pc1I";
}
potential ( matchIg2pp2pp1I_CC1_CC0_pf0I4I | true_colorIp1pc5I guess_colorIg2pp2pc5I )
{
	data = (((	1.0	0.0	)
		(	1.0	0.0	))
		((	1.0	0.0	)
		(	0.0	1.0	)));
}
potential ( makeswhiteIg2pp1pp1I | or_matchIg2pp1pp3I_makeswhiteIg2pp2pp1I_CC1_CC0 )
{
	data = ((	1.0	0.0	)
		(	0.0	1.0	));
}
potential ( or_matchIg5pp1pp2I_CC1_CC0_pf0I3I_matchIg5pp1pp2I_CC1_CC0 | or_matchIg5pp1pp2I_CC1_CC0_pf0I2I_matchIg5pp1pp2I_CC1_CC0 matchIg5pp1pp2I_CC1_CC0_pf0I3I )
{
	data = (((	1.0	0.0	)
		(	0.0	1.0	))
		((	0.0	1.0	)
		(	0.0	1.0	)));
}
potential ( matchIg8pp1pp2I_CC1_CC0_pf0I1I | true_colorIp2pc2I guess_colorIg8pp1pc2I )
{
	data = (((	1.0	0.0	)
		(	1.0	0.0	))
		((	1.0	0.0	)
		(	0.0	1.0	)));
}
potential ( or_guess_colorIg7pp2pc2I_guess_colorIg7pp2pc6I_CC1_CC0 | guess_colorIg7pp2pc1I guess_colorIg7pp2pc2I )
{
	data = (((	1.0	0.0	)
		(	0.0	1.0	))
		((	0.0	1.0	)
		(	0.0	1.0	)));
}
potential ( makeswhiteIg8pp1pp2I | makeswhiteIg8pp1pp2I_CC1 )
{
	data = ((	1.0	0.0	)
		(	0.0	1.0	));
}
potential ( or_makesblackIg8pp1pp3I_blackIg8pp1I_CC1 | or_makesblackIg8pp1pp2I_blackIg8pp1I_CC1 makesblackIg8pp1pp3I )
{
	data = (((	1.0	0.0	)
		(	0.0	1.0	))
		((	0.0	1.0	)
		(	0.0	1.0	)));
}
potential ( or_makeswhiteIg5pp2pp3I_makeswhiteIg5pp3pp3I_CC1_CC1_CC0 | makeswhiteIg5pp1pp3I makeswhiteIg5pp2pp3I )
{
	data = (((	1.0	0.0	)
		(	0.0	1.0	))
		((	0.0	1.0	)
		(	0.0	1.0	)));
}
potential ( makeswhiteIg7pp3pp1I_CC1 | or_matchIg7pp1pp3I_makeswhiteIg7pp2pp1I_CC1_CC0 or_makeswhiteIg7pp2pp1I_makeswhiteIg7pp3pp1I_CC1_CC1_CC0 )
{
	data = (((	1.0	0.0	)
		(	1.0	0.0	))
		((	0.0	1.0	)
		(	1.0	0.0	)));
}
potential ( makesblackIg6pp2pp3I_CC1 | or_makesblackIg6pp3pp3I_CC1_CC0_pf0I5I_makesblackIg6pp3pp3I_CC1_CC0 makesblackIg6pp2pp3I_CC1_CC1 )
{
	data = (((	1.0	0.0	)
		(	1.0	0.0	))
		((	1.0	0.0	)
		(	0.0	1.0	)));
}
potential ( or_makesblackIg8pp3pp2I_CC1_CC0_pf0I2I_makesblackIg8pp3pp2I_CC1_CC0 | or_makesblackIg8pp3pp2I_CC1_CC0_pf0I1I_makesblackIg8pp3pp2I_CC1_CC0 makesblackIg8pp3pp2I_CC1_CC0_pf0I2I )
{
	data = (((	1.0	0.0	)
		(	0.0	1.0	))
		((	0.0	1.0	)
		(	0.0	1.0	)));
}
potential ( matchIg2pp2pp3I_CC1_CC0_pf0I0I | true_colorIp3pc1I guess_colorIg2pp2pc1I )
{
	data = (((	1.0	0.0	)
		(	1.0	0.0	))
		((	1.0	0.0	)
		(	0.0	1.0	)));
}
potential ( makesblackIg5pp1pp1I | or_makesblackIg5pp3pp1I_CC1_CC0_pf0I5I_makesblackIg5pp3pp1I_CC1_CC0 )
{
	data = ((	1.0	0.0	)
		(	0.0	1.0	));
}
potential ( guess_colorIg3pp3pc2I | guess_colorIg3pp3pc1I )
{
	data = ((	0.8	0.2	)
		(	1.0	0.0	));
}
potential ( makesblackIg2pp3pp2I | makesblackIg2pp3pp2I_CC1 )
{
	data = ((	1.0	0.0	)
		(	0.0	1.0	));
}
potential ( matchIg4pp2pp1I_CC1_CC0_pf0I2I | true_colorIp1pc3I guess_colorIg4pp2pc3I )
{
	data = (((	1.0	0.0	)
		(	1.0	0.0	))
		((	1.0	0.0	)
		(	0.0	1.0	)));
}
potential ( guess_colorIg8pp1pc6I | or_guess_colorIg8pp1pc5I_guess_colorIg8pp1pc6I_CC1_CC0 )
{
	data = ((	0.0	1.0	)
		(	1.0	0.0	));
}
potential ( makeswhiteIg4pp3pp2I_CC1 | or_matchIg4pp2pp3I_makeswhiteIg4pp1pp2I_CC1_CC0 makeswhiteIg4pp3pp2I_CC1_CC1 )
{
	data = (((	1.0	0.0	)
		(	1.0	0.0	))
		((	1.0	0.0	)
		(	0.0	1.0	)));
}
potential ( guess_colorIg2pp2pc4I | or_guess_colorIg2pp2pc3I_guess_colorIg2pp2pc6I_CC1_CC0 )
{
	data = ((	0.6666666666666667	0.3333333333333333	)
		(	1.0	0.0	));
}
potential ( matchIg3pp3pp2I_CC1_CC0_pf0I0I | true_colorIp2pc1I guess_colorIg3pp3pc1I )
{
	data = (((	1.0	0.0	)
		(	1.0	0.0	))
		((	1.0	0.0	)
		(	0.0	1.0	)));
}
potential ( guess_colorIg7pp1pc5I | or_guess_colorIg7pp1pc4I_guess_colorIg7pp1pc6I_CC1_CC0 )
{
	data = ((	0.5	0.5	)
		(	1.0	0.0	));
}
potential ( matchIg1pp3pp2I_CC1 | or_matchIg1pp3pp2I_CC1_CC0_pf0I5I_matchIg1pp3pp2I_CC1_CC0 matchIg1pp3pp2I_CC1_CC1 )
{
	data = (((	1.0	0.0	)
		(	1.0	0.0	))
		((	1.0	0.0	)
		(	0.0	1.0	)));
}
potential ( or_makesblackIg7pp3pp3I_CC1_CC0_pf0I2I_makesblackIg7pp3pp3I_CC1_CC0 | or_makesblackIg7pp3pp3I_CC1_CC0_pf0I1I_makesblackIg7pp3pp3I_CC1_CC0 makesblackIg7pp3pp3I_CC1_CC0_pf0I2I )
{
	data = (((	1.0	0.0	)
		(	0.0	1.0	))
		((	0.0	1.0	)
		(	0.0	1.0	)));
}
potential ( or_matchIg7pp2pp1I_CC1_CC0_pf0I1I_matchIg7pp2pp1I_CC1_CC0 | matchIg7pp2pp1I_CC1_CC0_pf0I0I matchIg7pp2pp1I_CC1_CC0_pf0I1I )
{
	data = (((	1.0	0.0	)
		(	0.0	1.0	))
		((	0.0	1.0	)
		(	0.0	1.0	)));
}
potential ( makesblackIg4pp1pp3I_CC1 | or_makesblackIg4pp3pp3I_CC1_CC0_pf0I5I_makesblackIg4pp3pp3I_CC1_CC0 or_makesblackIg4pp1pp2I_blackIg4pp1I_CC1 )
{
	data = (((	1.0	0.0	)
		(	1.0	0.0	))
		((	0.0	1.0	)
		(	1.0	0.0	)));
}
potential ( matchIg3pp1pp2I_CC1_CC0_pf0I4I | true_colorIp2pc5I guess_colorIg3pp1pc5I )
{
	data = (((	1.0	0.0	)
		(	1.0	0.0	))
		((	1.0	0.0	)
		(	0.0	1.0	)));
}
potential ( matchIg1pp1pp3I_CC1_CC0_pf0I0I | true_colorIp3pc1I guess_colorIg1pp1pc1I )
{
	data = (((	1.0	0.0	)
		(	1.0	0.0	))
		((	1.0	0.0	)
		(	0.0	1.0	)));
}
potential ( matchIg3pp3pp2I_CC1_CC0_pf0I1I | true_colorIp2pc2I guess_colorIg3pp3pc2I )
{
	data = (((	1.0	0.0	)
		(	1.0	0.0	))
		((	1.0	0.0	)
		(	0.0	1.0	)));
}
potential ( or_matchIg3pp2pp1I_CC1_CC0_pf0I5I_matchIg3pp2pp1I_CC1_CC0 | or_matchIg3pp2pp1I_CC1_CC0_pf0I4I_matchIg3pp2pp1I_CC1_CC0 matchIg3pp2pp1I_CC1_CC0_pf0I5I )
{
	data = (((	1.0	0.0	)
		(	0.0	1.0	))
		((	0.0	1.0	)
		(	0.0	1.0	)));
}
potential ( or_makesblackIg5pp3pp3I_CC1_CC0_pf0I1I_makesblackIg5pp3pp3I_CC1_CC0 | makesblackIg5pp3pp3I_CC1_CC0_pf0I0I makesblackIg5pp3pp3I_CC1_CC0_pf0I1I )
{
	data = (((	1.0	0.0	)
		(	0.0	1.0	))
		((	0.0	1.0	)
		(	0.0	1.0	)));
}
potential ( guess_colorIg8pp2pc1I | )
{
	data = (	0.8333333333333334	0.16666666666666666	);
}
potential ( makeswhiteIg6pp2pp3I_CC1_CC1 | makeswhiteIg6pp1pp3I or_makeswhiteIg6pp2pp2I_makeswhiteIg6pp2pp3I_CC1_CC1_CC2_CC0 )
{
	data = (((	0.0	1.0	)
		(	1.0	0.0	))
		((	1.0	0.0	)
		(	1.0	0.0	)));
}
potential ( makeswhiteIg3pp3pp1I | makeswhiteIg3pp3pp1I_CC1 )
{
	data = ((	1.0	0.0	)
		(	0.0	1.0	));
}
potential ( or_makesblackIg6pp3pp1I_CC1_CC0_pf0I3I_makesblackIg6pp3pp1I_CC1_CC0 | or_makesblackIg6pp3pp1I_CC1_CC0_pf0I2I_makesblackIg6pp3pp1I_CC1_CC0 makesblackIg6pp3pp1I_CC1_CC0_pf0I3I )
{
	data = (((	1.0	0.0	)
		(	0.0	1.0	))
		((	0.0	1.0	)
		(	0.0	1.0	)));
}
potential ( makesblackIg8pp3pp2I_CC1_CC0_pf0I3I | true_colorIp2pc4I guess_colorIg8pp2pc4I )
{
	data = (((	1.0	0.0	)
		(	1.0	0.0	))
		((	1.0	0.0	)
		(	0.0	1.0	)));
}
potential ( or_guess_colorIg3pp1pc5I_guess_colorIg3pp1pc6I_CC1_CC0 | or_guess_colorIg3pp1pc4I_guess_colorIg3pp1pc6I_CC1_CC0 guess_colorIg3pp1pc5I )
{
	data = (((	1.0	0.0	)
		(	0.0	1.0	))
		((	0.0	1.0	)
		(	0.0	1.0	)));
}
potential ( makesblackIg3pp2pp2I | makesblackIg3pp2pp2I_CC1 )
{
	data = ((	1.0	0.0	)
		(	0.0	1.0	));
}
potential ( makeswhiteIg8pp2pp3I_CC1 | or_matchIg8pp3pp3I_makeswhiteIg8pp2pp3I_CC1_CC0 makeswhiteIg8pp2pp3I_CC1_CC1 )
{
	data = (((	1.0	0.0	)
		(	1.0	0.0	))
		((	1.0	0.0	)
		(	0.0	1.0	)));
}
potential ( or_guess_colorIg6pp2pc2I_guess_colorIg6pp2pc6I_CC1_CC0 | guess_colorIg6pp2pc1I guess_colorIg6pp2pc2I )
{
	data = (((	1.0	0.0	)
		(	0.0	1.0	))
		((	0.0	1.0	)
		(	0.0	1.0	)));
}
potential ( makeswhiteIg5pp3pp2I_CC1 | or_matchIg5pp2pp3I_makeswhiteIg5pp1pp2I_CC1_CC0 makeswhiteIg5pp3pp2I_CC1_CC1 )
{
	data = (((	1.0	0.0	)
		(	1.0	0.0	))
		((	1.0	0.0	)
		(	0.0	1.0	)));
}
potential ( or_matchIg7pp1pp3I_CC1_CC0_pf0I5I_matchIg7pp1pp3I_CC1_CC0 | or_matchIg7pp1pp3I_CC1_CC0_pf0I4I_matchIg7pp1pp3I_CC1_CC0 matchIg7pp1pp3I_CC1_CC0_pf0I5I )
{
	data = (((	1.0	0.0	)
		(	0.0	1.0	))
		((	0.0	1.0	)
		(	0.0	1.0	)));
}
potential ( makeswhiteIg3pp2pp2I | makeswhiteIg3pp2pp2I_CC1 )
{
	data = ((	1.0	0.0	)
		(	0.0	1.0	));
}
potential ( guess_colorIg1pp3pc5I | or_guess_colorIg1pp3pc4I_guess_colorIg1pp3pc6I_CC1_CC0 )
{
	data = ((	0.5	0.5	)
		(	1.0	0.0	));
}
potential ( guess_colorIg5pp1pc4I | or_guess_colorIg5pp1pc3I_guess_colorIg5pp1pc4I_CC1_CC0 )
{
	data = ((	0.6666666666666667	0.3333333333333333	)
		(	1.0	0.0	));
}
potential ( makeswhiteIg2pp1pp3I_CC1 | or_matchIg2pp3pp3I_makeswhiteIg2pp2pp3I_CC1_CC0 or_makeswhiteIg2pp1pp2I_whiteIg2pp1I_CC1 )
{
	data = (((	1.0	0.0	)
		(	1.0	0.0	))
		((	0.0	1.0	)
		(	1.0	0.0	)));
}
potential ( matchIg6pp2pp2I_CC1_CC1 | matchIg6pp1pp2I matchIg6pp2pp1I )
{
	data = (((	0.0	1.0	)
		(	1.0	0.0	))
		((	1.0	0.0	)
		(	1.0	0.0	)));
}
potential ( makesblackIg6pp3pp1I_CC1_CC0_pf0I0I | true_colorIp1pc1I guess_colorIg6pp1pc1I )
{
	data = (((	1.0	0.0	)
		(	1.0	0.0	))
		((	1.0	0.0	)
		(	0.0	1.0	)));
}
potential ( or_matchIg8pp2pp3I_CC1_CC0_pf0I5I_matchIg8pp2pp3I_CC1_CC0 | or_matchIg8pp2pp3I_CC1_CC0_pf0I4I_matchIg8pp2pp3I_CC1_CC0 matchIg8pp2pp3I_CC1_CC0_pf0I5I )
{
	data = (((	1.0	0.0	)
		(	0.0	1.0	))
		((	0.0	1.0	)
		(	0.0	1.0	)));
}
potential ( or_matchIg3pp3pp1I_CC1_CC0_pf0I2I_matchIg3pp3pp1I_CC1_CC0 | or_matchIg3pp3pp1I_CC1_CC0_pf0I1I_matchIg3pp3pp1I_CC1_CC0 matchIg3pp3pp1I_CC1_CC0_pf0I2I )
{
	data = (((	1.0	0.0	)
		(	0.0	1.0	))
		((	0.0	1.0	)
		(	0.0	1.0	)));
}
potential ( or_matchIg8pp2pp3I_matchIg8pp3pp3I_CC1_CC1_CC0 | matchIg8pp1pp3I matchIg8pp2pp3I )
{
	data = (((	1.0	0.0	)
		(	0.0	1.0	))
		((	0.0	1.0	)
		(	0.0	1.0	)));
}
potential ( matchIg4pp2pp3I_CC1_CC1 | matchIg4pp1pp3I or_matchIg4pp2pp2I_makeswhiteIg4pp1pp2I_CC1_CC0 )
{
	data = (((	0.0	1.0	)
		(	1.0	0.0	))
		((	1.0	0.0	)
		(	1.0	0.0	)));
}
potential ( or_guess_colorIg3pp1pc2I_guess_colorIg3pp1pc5I_CC1_CC0 | guess_colorIg3pp1pc1I guess_colorIg3pp1pc2I )
{
	data = (((	1.0	0.0	)
		(	0.0	1.0	))
		((	0.0	1.0	)
		(	0.0	1.0	)));
}
potential ( matchIg1pp3pp2I_CC1_CC0_pf0I5I | true_colorIp2pc6I guess_colorIg1pp3pc6I )
{
	data = (((	1.0	0.0	)
		(	1.0	0.0	))
		((	1.0	0.0	)
		(	0.0	1.0	)));
}
potential ( or_makesblackIg5pp3pp3I_CC1_CC0_pf0I4I_makesblackIg5pp3pp3I_CC1_CC0 | or_makesblackIg5pp3pp3I_CC1_CC0_pf0I3I_makesblackIg5pp3pp3I_CC1_CC0 makesblackIg5pp3pp3I_CC1_CC0_pf0I4I )
{
	data = (((	1.0	0.0	)
		(	0.0	1.0	))
		((	0.0	1.0	)
		(	0.0	1.0	)));
}
potential ( guess_colorIg4pp1pc4I | or_guess_colorIg4pp1pc3I_guess_colorIg4pp1pc4I_CC1_CC0 )
{
	data = ((	0.6666666666666667	0.3333333333333333	)
		(	1.0	0.0	));
}
potential ( or_matchIg3pp1pp2I_CC1_CC0_pf0I3I_matchIg3pp1pp2I_CC1_CC0 | or_matchIg3pp1pp2I_CC1_CC0_pf0I2I_matchIg3pp1pp2I_CC1_CC0 matchIg3pp1pp2I_CC1_CC0_pf0I3I )
{
	data = (((	1.0	0.0	)
		(	0.0	1.0	))
		((	0.0	1.0	)
		(	0.0	1.0	)));
}
potential ( or_makesblackIg5pp3pp2I_CC1_CC0_pf0I1I_makesblackIg5pp3pp2I_CC1_CC0 | makesblackIg5pp3pp2I_CC1_CC0_pf0I0I makesblackIg5pp3pp2I_CC1_CC0_pf0I1I )
{
	data = (((	1.0	0.0	)
		(	0.0	1.0	))
		((	0.0	1.0	)
		(	0.0	1.0	)));
}
potential ( guess_colorIg7pp1pc1I | )
{
	data = (	0.8333333333333334	0.16666666666666666	);
}
potential ( matchIg8pp3pp2I_CC1_CC0_pf0I2I | true_colorIp2pc3I guess_colorIg8pp3pc3I )
{
	data = (((	1.0	0.0	)
		(	1.0	0.0	))
		((	1.0	0.0	)
		(	0.0	1.0	)));
}
potential ( or_matchIg8pp2pp1I_CC1_CC0_pf0I3I_matchIg8pp2pp1I_CC1_CC0 | or_matchIg8pp2pp1I_CC1_CC0_pf0I2I_matchIg8pp2pp1I_CC1_CC0 matchIg8pp2pp1I_CC1_CC0_pf0I3I )
{
	data = (((	1.0	0.0	)
		(	0.0	1.0	))
		((	0.0	1.0	)
		(	0.0	1.0	)));
}
potential ( matchIg3pp2pp1I_CC1_CC0_pf0I3I | true_colorIp1pc4I guess_colorIg3pp2pc4I )
{
	data = (((	1.0	0.0	)
		(	1.0	0.0	))
		((	1.0	0.0	)
		(	0.0	1.0	)));
}
potential ( makeswhiteIg8pp3pp1I_CC1 | or_matchIg8pp1pp3I_makeswhiteIg8pp3pp1I_CC1_CC0 or_makeswhiteIg8pp2pp1I_makeswhiteIg8pp3pp1I_CC1_CC1_CC0 )
{
	data = (((	1.0	0.0	)
		(	1.0	0.0	))
		((	0.0	1.0	)
		(	1.0	0.0	)));
}
potential ( makesblackIg3pp3pp1I_CC1_CC0_pf0I3I | true_colorIp1pc4I guess_colorIg3pp1pc4I )
{
	data = (((	1.0	0.0	)
		(	1.0	0.0	))
		((	1.0	0.0	)
		(	0.0	1.0	)));
}
potential ( matchIg7pp3pp1I_CC1_CC0_pf0I2I | true_colorIp1pc3I guess_colorIg7pp3pc3I )
{
	data = (((	1.0	0.0	)
		(	1.0	0.0	))
		((	1.0	0.0	)
		(	0.0	1.0	)));
}
potential ( guess_colorIg8pp2pc5I | or_guess_colorIg8pp2pc4I_guess_colorIg8pp2pc6I_CC1_CC0 )
{
	data = ((	0.5	0.5	)
		(	1.0	0.0	));
}
potential ( or_makesblackIg3pp3pp3I_CC1_CC0_pf0I2I_makesblackIg3pp3pp3I_CC1_CC0 | or_makesblackIg3pp3pp3I_CC1_CC0_pf0I1I_makesblackIg3pp3pp3I_CC1_CC0 makesblackIg3pp3pp3I_CC1_CC0_pf0I2I )
{
	data = (((	1.0	0.0	)
		(	0.0	1.0	))
		((	0.0	1.0	)
		(	0.0	1.0	)));
}
potential ( or_matchIg2pp2pp1I_matchIg2pp3pp1I_CC1_CC1_CC0 | matchIg2pp1pp1I matchIg2pp2pp1I )
{
	data = (((	1.0	0.0	)
		(	0.0	1.0	))
		((	0.0	1.0	)
		(	0.0	1.0	)));
}
potential ( or_makesblackIg2pp3pp3I_CC1_CC0_pf0I1I_makesblackIg2pp3pp3I_CC1_CC0 | makesblackIg2pp3pp3I_CC1_CC0_pf0I0I makesblackIg2pp3pp3I_CC1_CC0_pf0I1I )
{
	data = (((	1.0	0.0	)
		(	0.0	1.0	))
		((	0.0	1.0	)
		(	0.0	1.0	)));
}
potential ( makesblackIg1pp3pp2I_CC1_CC1 | or_makesblackIg1pp2pp2I_makesblackIg1pp3pp2I_CC1_CC1_CC0 makesblackIg1pp3pp1I )
{
	data = (((	0.0	1.0	)
		(	1.0	0.0	))
		((	1.0	0.0	)
		(	1.0	0.0	)));
}
potential ( makesblackIg7pp1pp2I | makesblackIg7pp1pp2I_CC1 )
{
	data = ((	1.0	0.0	)
		(	0.0	1.0	));
}
potential ( makeswhiteIg8pp2pp3I_CC1_CC1 | makeswhiteIg8pp1pp3I or_makeswhiteIg8pp2pp2I_makeswhiteIg8pp2pp3I_CC1_CC1_CC2_CC0 )
{
	data = (((	0.0	1.0	)
		(	1.0	0.0	))
		((	1.0	0.0	)
		(	1.0	0.0	)));
}
potential ( or_makesblackIg6pp2pp3I_makesblackIg6pp3pp3I_CC1_CC1_CC0 | makesblackIg6pp1pp3I makesblackIg6pp2pp3I )
{
	data = (((	1.0	0.0	)
		(	0.0	1.0	))
		((	0.0	1.0	)
		(	0.0	1.0	)));
}
potential ( or_matchIg3pp2pp1I_CC1_CC0_pf0I3I_matchIg3pp2pp1I_CC1_CC0 | or_matchIg3pp2pp1I_CC1_CC0_pf0I2I_matchIg3pp2pp1I_CC1_CC0 matchIg3pp2pp1I_CC1_CC0_pf0I3I )
{
	data = (((	1.0	0.0	)
		(	0.0	1.0	))
		((	0.0	1.0	)
		(	0.0	1.0	)));
}
potential ( makesblackIg2pp3pp1I_CC1 | or_makesblackIg2pp3pp1I_CC1_CC0_pf0I5I_makesblackIg2pp3pp1I_CC1_CC0 or_makesblackIg2pp2pp1I_makesblackIg2pp3pp1I_CC1_CC1_CC0 )
{
	data = (((	1.0	0.0	)
		(	1.0	0.0	))
		((	0.0	1.0	)
		(	1.0	0.0	)));
}
potential ( or_guess_colorIg2pp1pc5I_guess_colorIg2pp1pc6I_CC1_CC0 | or_guess_colorIg2pp1pc4I_guess_colorIg2pp1pc6I_CC1_CC0 guess_colorIg2pp1pc5I )
{
	data = (((	1.0	0.0	)
		(	0.0	1.0	))
		((	0.0	1.0	)
		(	0.0	1.0	)));
}
potential ( makeswhiteIg7pp1pp3I_CC1 | or_matchIg7pp3pp3I_makeswhiteIg7pp2pp3I_CC1_CC0 or_makeswhiteIg7pp1pp2I_whiteIg7pp1I_CC1 )
{
	data = (((	1.0	0.0	)
		(	1.0	0.0	))
		((	0.0	1.0	)
		(	1.0	0.0	)));
}
potential ( or_makesblackIg1pp3pp3I_CC1_CC0_pf0I2I_makesblackIg1pp3pp3I_CC1_CC0 | or_makesblackIg1pp3pp3I_CC1_CC0_pf0I1I_makesblackIg1pp3pp3I_CC1_CC0 makesblackIg1pp3pp3I_CC1_CC0_pf0I2I )
{
	data = (((	1.0	0.0	)
		(	0.0	1.0	))
		((	0.0	1.0	)
		(	0.0	1.0	)));
}
potential ( or_matchIg7pp1pp3I_CC1_CC0_pf0I3I_matchIg7pp1pp3I_CC1_CC0 | or_matchIg7pp1pp3I_CC1_CC0_pf0I2I_matchIg7pp1pp3I_CC1_CC0 matchIg7pp1pp3I_CC1_CC0_pf0I3I )
{
	data = (((	1.0	0.0	)
		(	0.0	1.0	))
		((	0.0	1.0	)
		(	0.0	1.0	)));
}
potential ( makeswhiteIg8pp2pp2I_CC1 | or_matchIg8pp2pp3I_makeswhiteIg8pp1pp2I_CC1_CC0 makeswhiteIg8pp2pp2I_CC1_CC1 )
{
	data = (((	1.0	0.0	)
		(	1.0	0.0	))
		((	1.0	0.0	)
		(	0.0	1.0	)));
}
potential ( matchIg8pp3pp3I_CC1 | or_makesblackIg8pp3pp3I_CC1_CC0_pf0I5I_makesblackIg8pp3pp3I_CC1_CC0 matchIg8pp3pp3I_CC1_CC1 )
{
	data = (((	1.0	0.0	)
		(	1.0	0.0	))
		((	1.0	0.0	)
		(	0.0	1.0	)));
}
potential ( or_guess_colorIg5pp2pc4I_guess_colorIg5pp2pc6I_CC1_CC0 | or_guess_colorIg5pp2pc3I_guess_colorIg5pp2pc6I_CC1_CC0 guess_colorIg5pp2pc4I )
{
	data = (((	1.0	0.0	)
		(	0.0	1.0	))
		((	0.0	1.0	)
		(	0.0	1.0	)));
}
potential ( or_matchIg1pp1pp3I_CC1_CC0_pf0I1I_matchIg1pp1pp3I_CC1_CC0 | matchIg1pp1pp3I_CC1_CC0_pf0I0I matchIg1pp1pp3I_CC1_CC0_pf0I1I )
{
	data = (((	1.0	0.0	)
		(	0.0	1.0	))
		((	0.0	1.0	)
		(	0.0	1.0	)));
}
potential ( makesblackIg8pp2pp2I_CC1_CC1 | makesblackIg8pp1pp2I makesblackIg8pp2pp1I )
{
	data = (((	0.0	1.0	)
		(	1.0	0.0	))
		((	1.0	0.0	)
		(	1.0	0.0	)));
}
potential ( guess_colorIg8pp3pc4I | or_guess_colorIg8pp3pc3I_guess_colorIg8pp3pc4I_CC1_CC0 )
{
	data = ((	0.6666666666666667	0.3333333333333333	)
		(	1.0	0.0	));
}
potential ( or_makesblackIg7pp3pp2I_makesblackIg7pp3pp3I_CC1_CC1_CC2_CC0 | makesblackIg7pp3pp1I makesblackIg7pp3pp2I )
{
	data = (((	1.0	0.0	)
		(	0.0	1.0	))
		((	0.0	1.0	)
		(	0.0	1.0	)));
}
potential ( makesblackIg6pp2pp3I_CC1_CC1 | makesblackIg6pp1pp3I or_makesblackIg6pp2pp2I_makesblackIg6pp2pp3I_CC1_CC1_CC2_CC0 )
{
	data = (((	0.0	1.0	)
		(	1.0	0.0	))
		((	1.0	0.0	)
		(	1.0	0.0	)));
}
potential ( guess_colorIg4pp2pc4I | or_guess_colorIg4pp2pc3I_guess_colorIg4pp2pc6I_CC1_CC0 )
{
	data = ((	0.6666666666666667	0.3333333333333333	)
		(	1.0	0.0	));
}
potential ( matchIg6pp2pp3I_CC1_CC0_pf0I2I | true_colorIp3pc3I guess_colorIg6pp2pc3I )
{
	data = (((	1.0	0.0	)
		(	1.0	0.0	))
		((	1.0	0.0	)
		(	0.0	1.0	)));
}
potential ( or_matchIg6pp2pp3I_CC1_CC0_pf0I2I_matchIg6pp2pp3I_CC1_CC0 | or_matchIg6pp2pp3I_CC1_CC0_pf0I1I_matchIg6pp2pp3I_CC1_CC0 matchIg6pp2pp3I_CC1_CC0_pf0I2I )
{
	data = (((	1.0	0.0	)
		(	0.0	1.0	))
		((	0.0	1.0	)
		(	0.0	1.0	)));
}
potential ( matchIg2pp1pp3I_CC1_CC0_pf0I0I | true_colorIp3pc1I guess_colorIg2pp1pc1I )
{
	data = (((	1.0	0.0	)
		(	1.0	0.0	))
		((	1.0	0.0	)
		(	0.0	1.0	)));
}
potential ( or_makesblackIg5pp3pp1I_CC1_CC0_pf0I2I_makesblackIg5pp3pp1I_CC1_CC0 | or_makesblackIg5pp3pp1I_CC1_CC0_pf0I1I_makesblackIg5pp3pp1I_CC1_CC0 makesblackIg5pp3pp1I_CC1_CC0_pf0I2I )
{
	data = (((	1.0	0.0	)
		(	0.0	1.0	))
		((	0.0	1.0	)
		(	0.0	1.0	)));
}
potential ( guess_colorIg8pp3pc5I | or_guess_colorIg8pp3pc4I_guess_colorIg8pp3pc6I_CC1_CC0 )
{
	data = ((	0.5	0.5	)
		(	1.0	0.0	));
}
potential ( makesblackIg3pp3pp2I_CC1_CC0_pf0I4I | true_colorIp2pc5I guess_colorIg3pp2pc5I )
{
	data = (((	1.0	0.0	)
		(	1.0	0.0	))
		((	1.0	0.0	)
		(	0.0	1.0	)));
}
potential ( or_guess_colorIg1pp2pc5I_guess_colorIg1pp2pc6I_CC1_CC0 | or_guess_colorIg1pp2pc4I_guess_colorIg1pp2pc6I_CC1_CC0 guess_colorIg1pp2pc5I )
{
	data = (((	1.0	0.0	)
		(	0.0	1.0	))
		((	0.0	1.0	)
		(	0.0	1.0	)));
}
potential ( or_matchIg5pp1pp3I_CC1_CC0_pf0I4I_matchIg5pp1pp3I_CC1_CC0 | or_matchIg5pp1pp3I_CC1_CC0_pf0I3I_matchIg5pp1pp3I_CC1_CC0 matchIg5pp1pp3I_CC1_CC0_pf0I4I )
{
	data = (((	1.0	0.0	)
		(	0.0	1.0	))
		((	0.0	1.0	)
		(	0.0	1.0	)));
}
potential ( matchIg6pp3pp2I_CC1_CC0_pf0I1I | true_colorIp2pc2I guess_colorIg6pp3pc2I )
{
	data = (((	1.0	0.0	)
		(	1.0	0.0	))
		((	1.0	0.0	)
		(	0.0	1.0	)));
}
potential ( whiteIg8pp1I | or_makeswhiteIg8pp1pp3I_whiteIg8pp1I_CC1 )
{
	data = ((	1.0	0.0	)
		(	0.0	1.0	));
}
potential ( guess_colorIg4pp3pc5I | or_guess_colorIg4pp3pc4I_guess_colorIg4pp3pc6I_CC1_CC0 )
{
	data = ((	0.5	0.5	)
		(	1.0	0.0	));
}
potential ( makeswhiteIg6pp2pp2I | makeswhiteIg6pp2pp2I_CC1 )
{
	data = ((	1.0	0.0	)
		(	0.0	1.0	));
}
potential ( or_makesblackIg3pp3pp2I_CC1_CC0_pf0I5I_makesblackIg3pp3pp2I_CC1_CC0 | or_makesblackIg3pp3pp2I_CC1_CC0_pf0I4I_makesblackIg3pp3pp2I_CC1_CC0 makesblackIg3pp3pp2I_CC1_CC0_pf0I5I )
{
	data = (((	1.0	0.0	)
		(	0.0	1.0	))
		((	0.0	1.0	)
		(	0.0	1.0	)));
}
potential ( or_matchIg4pp3pp1I_CC1_CC0_pf0I2I_matchIg4pp3pp1I_CC1_CC0 | or_matchIg4pp3pp1I_CC1_CC0_pf0I1I_matchIg4pp3pp1I_CC1_CC0 matchIg4pp3pp1I_CC1_CC0_pf0I2I )
{
	data = (((	1.0	0.0	)
		(	0.0	1.0	))
		((	0.0	1.0	)
		(	0.0	1.0	)));
}
potential ( makesblackIg6pp2pp1I_CC1 | or_makesblackIg6pp3pp1I_CC1_CC0_pf0I5I_makesblackIg6pp3pp1I_CC1_CC0 makesblackIg6pp1pp1I )
{
	data = (((	1.0	0.0	)
		(	1.0	0.0	))
		((	0.0	1.0	)
		(	1.0	0.0	)));
}
potential ( makesblackIg5pp1pp3I | makesblackIg5pp1pp3I_CC1 )
{
	data = ((	1.0	0.0	)
		(	0.0	1.0	));
}
potential ( guess_colorIg8pp1pc3I | or_guess_colorIg8pp1pc2I_guess_colorIg8pp1pc5I_CC1_CC0 )
{
	data = ((	0.75	0.25	)
		(	1.0	0.0	));
}
potential ( matchIg1pp1pp2I_CC1_CC0_pf0I0I | true_colorIp2pc1I guess_colorIg1pp1pc1I )
{
	data = (((	1.0	0.0	)
		(	1.0	0.0	))
		((	1.0	0.0	)
		(	0.0	1.0	)));
}
potential ( makesblackIg7pp3pp1I_CC1_CC0_pf0I2I | true_colorIp1pc3I guess_colorIg7pp1pc3I )
{
	data = (((	1.0	0.0	)
		(	1.0	0.0	))
		((	1.0	0.0	)
		(	0.0	1.0	)));
}
potential ( makesblackIg2pp3pp3I_CC1 | or_makesblackIg2pp3pp3I_CC1_CC0_pf0I5I_makesblackIg2pp3pp3I_CC1_CC0 makesblackIg2pp3pp3I_CC1_CC1 )
{
	data = (((	1.0	0.0	)
		(	1.0	0.0	))
		((	1.0	0.0	)
		(	0.0	1.0	)));
}
potential ( or_true_colorIp1pc5I_true_colorIp1pc6I_CC1_CC0 | or_true_colorIp1pc4I_true_colorIp1pc6I_CC1_CC0 true_colorIp1pc5I )
{
	data = (((	1.0	0.0	)
		(	0.0	1.0	))
		((	0.0	1.0	)
		(	0.0	1.0	)));
}
potential ( matchIg8pp2pp3I_CC1 | or_matchIg8pp2pp3I_CC1_CC0_pf0I5I_matchIg8pp2pp3I_CC1_CC0 matchIg8pp2pp3I_CC1_CC1 )
{
	data = (((	1.0	0.0	)
		(	1.0	0.0	))
		((	1.0	0.0	)
		(	0.0	1.0	)));
}
potential ( or_makeswhiteIg8pp3pp2I_makeswhiteIg8pp3pp3I_CC1_CC1_CC2_CC0 | makeswhiteIg8pp3pp1I makeswhiteIg8pp3pp2I )
{
	data = (((	1.0	0.0	)
		(	0.0	1.0	))
		((	0.0	1.0	)
		(	0.0	1.0	)));
}
potential ( or_matchIg6pp2pp1I_matchIg6pp3pp1I_CC1_CC1_CC0 | matchIg6pp1pp1I matchIg6pp2pp1I )
{
	data = (((	1.0	0.0	)
		(	0.0	1.0	))
		((	0.0	1.0	)
		(	0.0	1.0	)));
}
potential ( guess_colorIg7pp3pc4I | or_guess_colorIg7pp3pc3I_guess_colorIg7pp3pc4I_CC1_CC0 )
{
	data = ((	0.6666666666666667	0.3333333333333333	)
		(	1.0	0.0	));
}
potential ( or_matchIg8pp1pp3I_CC1_CC0_pf0I2I_matchIg8pp1pp3I_CC1_CC0 | or_matchIg8pp1pp3I_CC1_CC0_pf0I1I_matchIg8pp1pp3I_CC1_CC0 matchIg8pp1pp3I_CC1_CC0_pf0I2I )
{
	data = (((	1.0	0.0	)
		(	0.0	1.0	))
		((	0.0	1.0	)
		(	0.0	1.0	)));
}
potential ( makeswhiteIg2pp2pp3I | makeswhiteIg2pp2pp3I_CC1 )
{
	data = ((	1.0	0.0	)
		(	0.0	1.0	));
}
potential ( makesblackIg8pp3pp2I_CC1_CC0_pf0I2I | true_colorIp2pc3I guess_colorIg8pp2pc3I )
{
	data = (((	1.0	0.0	)
		(	1.0	0.0	))
		((	1.0	0.0	)
		(	0.0	1.0	)));
}
potential ( or_guess_colorIg1pp1pc4I_guess_colorIg1pp1pc6I_CC1_CC0 | or_guess_colorIg1pp1pc3I_guess_colorIg1pp1pc4I_CC1_CC0 guess_colorIg1pp1pc4I )
{
	data = (((	1.0	0.0	)
		(	0.0	1.0	))
		((	0.0	1.0	)
		(	0.0	1.0	)));
}
potential ( or_matchIg3pp3pp2I_makeswhiteIg3pp1pp3I_CC1_CC0 | matchIg3pp3pp1I matchIg3pp3pp2I )
{
	data = (((	1.0	0.0	)
		(	0.0	1.0	))
		((	0.0	1.0	)
		(	0.0	1.0	)));
}
potential ( matchIg7pp2pp3I_CC1_CC0_pf0I3I | true_colorIp3pc4I guess_colorIg7pp2pc4I )
{
	data = (((	1.0	0.0	)
		(	1.0	0.0	))
		((	1.0	0.0	)
		(	0.0	1.0	)));
}
potential ( whiteIg7pp2I | or_makeswhiteIg7pp2pp3I_whiteIg7pp2I_CC1 )
{
	data = ((	1.0	0.0	)
		(	0.0	1.0	));
}
potential ( makeswhiteIg5pp1pp3I_CC1 | or_matchIg5pp3pp3I_makeswhiteIg5pp2pp3I_CC1_CC0 or_makeswhiteIg5pp1pp2I_whiteIg5pp1I_CC1 )
{
	data = (((	1.0	0.0	)
		(	1.0	0.0	))
		((	0.0	1.0	)
		(	1.0	0.0	)));
}
potential ( guess_colorIg7pp3pc5I | or_guess_colorIg7pp3pc4I_guess_colorIg7pp3pc6I_CC1_CC0 )
{
	data = ((	0.5	0.5	)
		(	1.0	0.0	));
}
potential ( or_matchIg3pp1pp3I_makeswhiteIg3pp2pp1I_CC1_CC0 | or_matchIg3pp1pp2I_makeswhiteIg3pp2pp1I_CC1_CC0 matchIg3pp1pp3I )
{
	data = (((	1.0	0.0	)
		(	0.0	1.0	))
		((	0.0	1.0	)
		(	0.0	1.0	)));
}
potential ( makeswhiteIg6pp3pp1I | makeswhiteIg6pp3pp1I_CC1 )
{
	data = ((	1.0	0.0	)
		(	0.0	1.0	));
}
potential ( guess_colorIg7pp1pc4I | or_guess_colorIg7pp1pc3I_guess_colorIg7pp1pc4I_CC1_CC0 )
{
	data = ((	0.6666666666666667	0.3333333333333333	)
		(	1.0	0.0	));
}
potential ( or_matchIg4pp1pp2I_makeswhiteIg4pp2pp1I_CC1_CC0 | matchIg4pp1pp1I matchIg4pp1pp2I )
{
	data = (((	1.0	0.0	)
		(	0.0	1.0	))
		((	0.0	1.0	)
		(	0.0	1.0	)));
}
potential ( makesblackIg1pp3pp2I_CC1_CC0_pf0I1I | true_colorIp2pc2I guess_colorIg1pp2pc2I )
{
	data = (((	1.0	0.0	)
		(	1.0	0.0	))
		((	1.0	0.0	)
		(	0.0	1.0	)));
}
potential ( matchIg6pp3pp3I_CC1 | or_makesblackIg6pp3pp3I_CC1_CC0_pf0I5I_makesblackIg6pp3pp3I_CC1_CC0 matchIg6pp3pp3I_CC1_CC1 )
{
	data = (((	1.0	0.0	)
		(	1.0	0.0	))
		((	1.0	0.0	)
		(	0.0	1.0	)));
}
potential ( makesblackIg2pp3pp2I_CC1_CC0_pf0I3I | true_colorIp2pc4I guess_colorIg2pp2pc4I )
{
	data = (((	1.0	0.0	)
		(	1.0	0.0	))
		((	1.0	0.0	)
		(	0.0	1.0	)));
}
potential ( matchIg3pp2pp3I_CC1_CC0_pf0I5I | true_colorIp3pc6I guess_colorIg3pp2pc6I )
{
	data = (((	1.0	0.0	)
		(	1.0	0.0	))
		((	1.0	0.0	)
		(	0.0	1.0	)));
}
potential ( or_guess_colorIg8pp3pc2I_guess_colorIg8pp3pc5I_CC1_CC0 | guess_colorIg8pp3pc1I guess_colorIg8pp3pc2I )
{
	data = (((	1.0	0.0	)
		(	0.0	1.0	))
		((	0.0	1.0	)
		(	0.0	1.0	)));
}
potential ( makeswhiteIg7pp3pp3I_CC1 | or_matchIg7pp3pp3I_makeswhiteIg7pp2pp3I_CC1_CC0 makeswhiteIg7pp3pp3I_CC1_CC1 )
{
	data = (((	1.0	0.0	)
		(	1.0	0.0	))
		((	1.0	0.0	)
		(	0.0	1.0	)));
}
potential ( or_matchIg1pp2pp3I_makeswhiteIg1pp1pp2I_CC1_CC0 | or_matchIg1pp2pp2I_makeswhiteIg1pp1pp2I_CC1_CC0 matchIg1pp2pp3I )
{
	data = (((	1.0	0.0	)
		(	0.0	1.0	))
		((	0.0	1.0	)
		(	0.0	1.0	)));
}
potential ( matchIg5pp3pp1I_CC1_CC0_pf0I0I | true_colorIp1pc1I guess_colorIg5pp3pc1I )
{
	data = (((	1.0	0.0	)
		(	1.0	0.0	))
		((	1.0	0.0	)
		(	0.0	1.0	)));
}
potential ( makeswhiteIg3pp2pp3I_CC1 | or_matchIg3pp3pp3I_makeswhiteIg3pp2pp3I_CC1_CC0 makeswhiteIg3pp2pp3I_CC1_CC1 )
{
	data = (((	1.0	0.0	)
		(	1.0	0.0	))
		((	1.0	0.0	)
		(	0.0	1.0	)));
}
potential ( matchIg3pp3pp2I_CC1_CC0_pf0I3I | true_colorIp2pc4I guess_colorIg3pp3pc4I )
{
	data = (((	1.0	0.0	)
		(	1.0	0.0	))
		((	1.0	0.0	)
		(	0.0	1.0	)));
}
potential ( or_matchIg3pp2pp3I_CC1_CC0_pf0I4I_matchIg3pp2pp3I_CC1_CC0 | or_matchIg3pp2pp3I_CC1_CC0_pf0I3I_matchIg3pp2pp3I_CC1_CC0 matchIg3pp2pp3I_CC1_CC0_pf0I4I )
{
	data = (((	1.0	0.0	)
		(	0.0	1.0	))
		((	0.0	1.0	)
		(	0.0	1.0	)));
}
potential ( matchIg6pp3pp1I_CC1_CC0_pf0I4I | true_colorIp1pc5I guess_colorIg6pp3pc5I )
{
	data = (((	1.0	0.0	)
		(	1.0	0.0	))
		((	1.0	0.0	)
		(	0.0	1.0	)));
}
potential ( or_matchIg6pp2pp3I_CC1_CC0_pf0I4I_matchIg6pp2pp3I_CC1_CC0 | or_matchIg6pp2pp3I_CC1_CC0_pf0I3I_matchIg6pp2pp3I_CC1_CC0 matchIg6pp2pp3I_CC1_CC0_pf0I4I )
{
	data = (((	1.0	0.0	)
		(	0.0	1.0	))
		((	0.0	1.0	)
		(	0.0	1.0	)));
}
potential ( or_makesblackIg8pp3pp2I_CC1_CC0_pf0I1I_makesblackIg8pp3pp2I_CC1_CC0 | makesblackIg8pp3pp2I_CC1_CC0_pf0I0I makesblackIg8pp3pp2I_CC1_CC0_pf0I1I )
{
	data = (((	1.0	0.0	)
		(	0.0	1.0	))
		((	0.0	1.0	)
		(	0.0	1.0	)));
}
potential ( or_matchIg2pp3pp3I_makeswhiteIg2pp2pp3I_CC1_CC0 | or_matchIg2pp3pp2I_makeswhiteIg2pp1pp3I_CC1_CC0 matchIg2pp3pp3I )
{
	data = (((	1.0	0.0	)
		(	0.0	1.0	))
		((	0.0	1.0	)
		(	0.0	1.0	)));
}
potential ( true_colorIp3pc3I | or_true_colorIp3pc2I_true_colorIp3pc4I_CC1_CC0 )
{
	data = ((	0.75	0.25	)
		(	1.0	0.0	));
}
potential ( or_matchIg3pp1pp2I_CC1_CC0_pf0I2I_matchIg3pp1pp2I_CC1_CC0 | or_matchIg3pp1pp2I_CC1_CC0_pf0I1I_matchIg3pp1pp2I_CC1_CC0 matchIg3pp1pp2I_CC1_CC0_pf0I2I )
{
	data = (((	1.0	0.0	)
		(	0.0	1.0	))
		((	0.0	1.0	)
		(	0.0	1.0	)));
}
potential ( or_matchIg5pp3pp1I_CC1_CC0_pf0I3I_matchIg5pp3pp1I_CC1_CC0 | or_matchIg5pp3pp1I_CC1_CC0_pf0I2I_matchIg5pp3pp1I_CC1_CC0 matchIg5pp3pp1I_CC1_CC0_pf0I3I )
{
	data = (((	1.0	0.0	)
		(	0.0	1.0	))
		((	0.0	1.0	)
		(	0.0	1.0	)));
}
potential ( makeswhiteIg5pp1pp3I | makeswhiteIg5pp1pp3I_CC1 )
{
	data = ((	1.0	0.0	)
		(	0.0	1.0	));
}
potential ( or_matchIg2pp3pp2I_CC1_CC0_pf0I1I_matchIg2pp3pp2I_CC1_CC0 | matchIg2pp3pp2I_CC1_CC0_pf0I0I matchIg2pp3pp2I_CC1_CC0_pf0I1I )
{
	data = (((	1.0	0.0	)
		(	0.0	1.0	))
		((	0.0	1.0	)
		(	0.0	1.0	)));
}
potential ( matchIg5pp3pp1I_CC1_CC0_pf0I4I | true_colorIp1pc5I guess_colorIg5pp3pc5I )
{
	data = (((	1.0	0.0	)
		(	1.0	0.0	))
		((	1.0	0.0	)
		(	0.0	1.0	)));
}
potential ( or_makesblackIg5pp2pp3I_blackIg5pp2I_CC1 | makesblackIg5pp2pp2I makesblackIg5pp2pp3I )
{
	data = (((	1.0	0.0	)
		(	0.0	1.0	))
		((	0.0	1.0	)
		(	0.0	1.0	)));
}
potential ( makesblackIg6pp3pp2I_CC1_CC0_pf0I3I | true_colorIp2pc4I guess_colorIg6pp2pc4I )
{
	data = (((	1.0	0.0	)
		(	1.0	0.0	))
		((	1.0	0.0	)
		(	0.0	1.0	)));
}
potential ( matchIg7pp2pp1I_CC1_CC0_pf0I2I | true_colorIp1pc3I guess_colorIg7pp2pc3I )
{
	data = (((	1.0	0.0	)
		(	1.0	0.0	))
		((	1.0	0.0	)
		(	0.0	1.0	)));
}
potential ( matchIg2pp2pp1I_CC1_CC0_pf0I0I | true_colorIp1pc1I guess_colorIg2pp2pc1I )
{
	data = (((	1.0	0.0	)
		(	1.0	0.0	))
		((	1.0	0.0	)
		(	0.0	1.0	)));
}
potential ( matchIg4pp3pp2I | matchIg4pp3pp2I_CC1 )
{
	data = ((	1.0	0.0	)
		(	0.0	1.0	));
}
potential ( makesblackIg2pp2pp3I | makesblackIg2pp2pp3I_CC1 )
{
	data = ((	1.0	0.0	)
		(	0.0	1.0	));
}
potential ( makesblackIg7pp3pp2I_CC1 | or_makesblackIg7pp3pp2I_CC1_CC0_pf0I5I_makesblackIg7pp3pp2I_CC1_CC0 makesblackIg7pp3pp2I_CC1_CC1 )
{
	data = (((	1.0	0.0	)
		(	1.0	0.0	))
		((	1.0	0.0	)
		(	0.0	1.0	)));
}
potential ( or_matchIg7pp2pp2I_matchIg7pp3pp2I_CC1_CC1_CC0 | matchIg7pp1pp2I matchIg7pp2pp2I )
{
	data = (((	1.0	0.0	)
		(	0.0	1.0	))
		((	0.0	1.0	)
		(	0.0	1.0	)));
}
potential ( makesblackIg3pp2pp2I_CC1 | or_makesblackIg3pp3pp2I_CC1_CC0_pf0I5I_makesblackIg3pp3pp2I_CC1_CC0 makesblackIg3pp2pp2I_CC1_CC1 )
{
	data = (((	1.0	0.0	)
		(	1.0	0.0	))
		((	1.0	0.0	)
		(	0.0	1.0	)));
}
potential ( makeswhiteIg6pp3pp3I_CC1 | or_matchIg6pp3pp3I_makeswhiteIg6pp2pp3I_CC1_CC0 makeswhiteIg6pp3pp3I_CC1_CC1 )
{
	data = (((	1.0	0.0	)
		(	1.0	0.0	))
		((	1.0	0.0	)
		(	0.0	1.0	)));
}
potential ( or_matchIg8pp1pp3I_CC1_CC0_pf0I5I_matchIg8pp1pp3I_CC1_CC0 | or_matchIg8pp1pp3I_CC1_CC0_pf0I4I_matchIg8pp1pp3I_CC1_CC0 matchIg8pp1pp3I_CC1_CC0_pf0I5I )
{
	data = (((	1.0	0.0	)
		(	0.0	1.0	))
		((	0.0	1.0	)
		(	0.0	1.0	)));
}
potential ( matchIg7pp1pp2I_CC1 | or_matchIg7pp1pp2I_CC1_CC0_pf0I5I_matchIg7pp1pp2I_CC1_CC0 matchIg7pp1pp1I )
{
	data = (((	1.0	0.0	)
		(	1.0	0.0	))
		((	0.0	1.0	)
		(	1.0	0.0	)));
}
potential ( makesblackIg5pp3pp2I_CC1_CC0_pf0I4I | true_colorIp2pc5I guess_colorIg5pp2pc5I )
{
	data = (((	1.0	0.0	)
		(	1.0	0.0	))
		((	1.0	0.0	)
		(	0.0	1.0	)));
}
potential ( or_matchIg2pp2pp1I_CC1_CC0_pf0I2I_matchIg2pp2pp1I_CC1_CC0 | or_matchIg2pp2pp1I_CC1_CC0_pf0I1I_matchIg2pp2pp1I_CC1_CC0 matchIg2pp2pp1I_CC1_CC0_pf0I2I )
{
	data = (((	1.0	0.0	)
		(	0.0	1.0	))
		((	0.0	1.0	)
		(	0.0	1.0	)));
}
potential ( matchIg1pp2pp1I_CC1_CC0_pf0I2I | true_colorIp1pc3I guess_colorIg1pp2pc3I )
{
	data = (((	1.0	0.0	)
		(	1.0	0.0	))
		((	1.0	0.0	)
		(	0.0	1.0	)));
}
potential ( makesblackIg6pp3pp3I_CC1 | or_makesblackIg6pp3pp3I_CC1_CC0_pf0I5I_makesblackIg6pp3pp3I_CC1_CC0 makesblackIg6pp3pp3I_CC1_CC1 )
{
	data = (((	1.0	0.0	)
		(	1.0	0.0	))
		((	1.0	0.0	)
		(	0.0	1.0	)));
}
potential ( matchIg1pp2pp3I | matchIg1pp2pp3I_CC1 )
{
	data = ((	1.0	0.0	)
		(	0.0	1.0	));
}
potential ( guess_colorIg5pp1pc3I | or_guess_colorIg5pp1pc2I_guess_colorIg5pp1pc5I_CC1_CC0 )
{
	data = ((	0.75	0.25	)
		(	1.0	0.0	));
}
potential ( makeswhiteIg4pp3pp2I_CC1_CC1 | or_makeswhiteIg4pp2pp2I_makeswhiteIg4pp3pp2I_CC1_CC1_CC0 makeswhiteIg4pp3pp1I )
{
	data = (((	0.0	1.0	)
		(	1.0	0.0	))
		((	1.0	0.0	)
		(	1.0	0.0	)));
}
potential ( or_makeswhiteIg6pp2pp1I_makeswhiteIg6pp3pp1I_CC1_CC1_CC0 | makeswhiteIg6pp1pp1I makeswhiteIg6pp2pp1I )
{
	data = (((	1.0	0.0	)
		(	0.0	1.0	))
		((	0.0	1.0	)
		(	0.0	1.0	)));
}
potential ( or_matchIg5pp1pp2I_CC1_CC0_pf0I1I_matchIg5pp1pp2I_CC1_CC0 | matchIg5pp1pp2I_CC1_CC0_pf0I0I matchIg5pp1pp2I_CC1_CC0_pf0I1I )
{
	data = (((	1.0	0.0	)
		(	0.0	1.0	))
		((	0.0	1.0	)
		(	0.0	1.0	)));
}
potential ( makesblackIg6pp3pp1I | makesblackIg6pp3pp1I_CC1 )
{
	data = ((	1.0	0.0	)
		(	0.0	1.0	));
}
potential ( guess_colorIg3pp2pc1I | )
{
	data = (	0.8333333333333334	0.16666666666666666	);
}
potential ( makesblackIg8pp3pp2I_CC1 | or_makesblackIg8pp3pp2I_CC1_CC0_pf0I5I_makesblackIg8pp3pp2I_CC1_CC0 makesblackIg8pp3pp2I_CC1_CC1 )
{
	data = (((	1.0	0.0	)
		(	1.0	0.0	))
		((	1.0	0.0	)
		(	0.0	1.0	)));
}
potential ( or_makesblackIg2pp3pp2I_CC1_CC0_pf0I3I_makesblackIg2pp3pp2I_CC1_CC0 | or_makesblackIg2pp3pp2I_CC1_CC0_pf0I2I_makesblackIg2pp3pp2I_CC1_CC0 makesblackIg2pp3pp2I_CC1_CC0_pf0I3I )
{
	data = (((	1.0	0.0	)
		(	0.0	1.0	))
		((	0.0	1.0	)
		(	0.0	1.0	)));
}
potential ( matchIg8pp1pp3I_CC1_CC0_pf0I5I | true_colorIp3pc6I guess_colorIg8pp1pc6I )
{
	data = (((	1.0	0.0	)
		(	1.0	0.0	))
		((	1.0	0.0	)
		(	0.0	1.0	)));
}
potential ( or_matchIg5pp2pp3I_makeswhiteIg5pp1pp2I_CC1_CC0 | or_matchIg5pp2pp2I_makeswhiteIg5pp1pp2I_CC1_CC0 matchIg5pp2pp3I )
{
	data = (((	1.0	0.0	)
		(	0.0	1.0	))
		((	0.0	1.0	)
		(	0.0	1.0	)));
}
potential ( makeswhiteIg1pp1pp3I_CC1 | or_matchIg1pp3pp3I_makeswhiteIg1pp2pp3I_CC1_CC0 or_makeswhiteIg1pp1pp2I_whiteIg1pp1I_CC1 )
{
	data = (((	1.0	0.0	)
		(	1.0	0.0	))
		((	0.0	1.0	)
		(	1.0	0.0	)));
}
potential ( matchIg1pp3pp1I_CC1_CC0_pf0I4I | true_colorIp1pc5I guess_colorIg1pp3pc5I )
{
	data = (((	1.0	0.0	)
		(	1.0	0.0	))
		((	1.0	0.0	)
		(	0.0	1.0	)));
}
potential ( makesblackIg8pp1pp1I | or_makesblackIg8pp3pp1I_CC1_CC0_pf0I5I_makesblackIg8pp3pp1I_CC1_CC0 )
{
	data = ((	1.0	0.0	)
		(	0.0	1.0	));
}
potential ( or_matchIg5pp2pp3I_CC1_CC0_pf0I2I_matchIg5pp2pp3I_CC1_CC0 | or_matchIg5pp2pp3I_CC1_CC0_pf0I1I_matchIg5pp2pp3I_CC1_CC0 matchIg5pp2pp3I_CC1_CC0_pf0I2I )
{
	data = (((	1.0	0.0	)
		(	0.0	1.0	))
		((	0.0	1.0	)
		(	0.0	1.0	)));
}
potential ( matchIg7pp1pp3I_CC1_CC0_pf0I0I | true_colorIp3pc1I guess_colorIg7pp1pc1I )
{
	data = (((	1.0	0.0	)
		(	1.0	0.0	))
		((	1.0	0.0	)
		(	0.0	1.0	)));
}
potential ( makesblackIg7pp1pp3I | makesblackIg7pp1pp3I_CC1 )
{
	data = ((	1.0	0.0	)
		(	0.0	1.0	));
}
potential ( or_makesblackIg5pp3pp1I_CC1_CC0_pf0I5I_makesblackIg5pp3pp1I_CC1_CC0 | or_makesblackIg5pp3pp1I_CC1_CC0_pf0I4I_makesblackIg5pp3pp1I_CC1_CC0 makesblackIg5pp3pp1I_CC1_CC0_pf0I5I )
{
	data = (((	1.0	0.0	)
		(	0.0	1.0	))
		((	0.0	1.0	)
		(	0.0	1.0	)));
}
potential ( matchIg6pp2pp1I_CC1 | or_matchIg6pp2pp1I_CC1_CC0_pf0I5I_matchIg6pp2pp1I_CC1_CC0 matchIg6pp1pp1I )
{
	data = (((	1.0	0.0	)
		(	1.0	0.0	))
		((	0.0	1.0	)
		(	1.0	0.0	)));
}
potential ( matchIg8pp3pp2I | matchIg8pp3pp2I_CC1 )
{
	data = ((	1.0	0.0	)
		(	0.0	1.0	));
}
potential ( matchIg5pp2pp3I_CC1_CC0_pf0I4I | true_colorIp3pc5I guess_colorIg5pp2pc5I )
{
	data = (((	1.0	0.0	)
		(	1.0	0.0	))
		((	1.0	0.0	)
		(	0.0	1.0	)));
}
potential ( or_matchIg2pp1pp2I_makeswhiteIg2pp2pp1I_CC1_CC0 | matchIg2pp1pp1I matchIg2pp1pp2I )
{
	data = (((	1.0	0.0	)
		(	0.0	1.0	))
		((	0.0	1.0	)
		(	0.0	1.0	)));
}
potential ( matchIg1pp3pp2I_CC1_CC1 | or_matchIg1pp2pp2I_matchIg1pp3pp2I_CC1_CC1_CC0 matchIg1pp3pp1I )
{
	data = (((	0.0	1.0	)
		(	1.0	0.0	))
		((	1.0	0.0	)
		(	1.0	0.0	)));
}
potential ( or_matchIg2pp1pp2I_CC1_CC0_pf0I1I_matchIg2pp1pp2I_CC1_CC0 | matchIg2pp1pp2I_CC1_CC0_pf0I0I matchIg2pp1pp2I_CC1_CC0_pf0I1I )
{
	data = (((	1.0	0.0	)
		(	0.0	1.0	))
		((	0.0	1.0	)
		(	0.0	1.0	)));
}
potential ( or_matchIg5pp2pp2I_matchIg5pp3pp2I_CC1_CC1_CC0 | matchIg5pp1pp2I matchIg5pp2pp2I )
{
	data = (((	1.0	0.0	)
		(	0.0	1.0	))
		((	0.0	1.0	)
		(	0.0	1.0	)));
}
potential ( or_makesblackIg4pp3pp1I_CC1_CC0_pf0I5I_makesblackIg4pp3pp1I_CC1_CC0 | or_makesblackIg4pp3pp1I_CC1_CC0_pf0I4I_makesblackIg4pp3pp1I_CC1_CC0 makesblackIg4pp3pp1I_CC1_CC0_pf0I5I )
{
	data = (((	1.0	0.0	)
		(	0.0	1.0	))
		((	0.0	1.0	)
		(	0.0	1.0	)));
}
potential ( or_matchIg8pp2pp3I_makeswhiteIg8pp1pp2I_CC1_CC0 | or_matchIg8pp2pp2I_makeswhiteIg8pp1pp2I_CC1_CC0 matchIg8pp2pp3I )
{
	data = (((	1.0	0.0	)
		(	0.0	1.0	))
		((	0.0	1.0	)
		(	0.0	1.0	)));
}
potential ( makesblackIg7pp3pp3I_CC1_CC0_pf0I2I | true_colorIp3pc3I guess_colorIg7pp3pc3I )
{
	data = (((	1.0	0.0	)
		(	1.0	0.0	))
		((	1.0	0.0	)
		(	0.0	1.0	)));
}
potential ( matchIg2pp3pp2I_CC1_CC0_pf0I3I | true_colorIp2pc4I guess_colorIg2pp3pc4I )
{
	data = (((	1.0	0.0	)
		(	1.0	0.0	))
		((	1.0	0.0	)
		(	0.0	1.0	)));
}
potential ( or_matchIg3pp2pp1I_matchIg3pp3pp1I_CC1_CC1_CC0 | matchIg3pp1pp1I matchIg3pp2pp1I )
{
	data = (((	1.0	0.0	)
		(	0.0	1.0	))
		((	0.0	1.0	)
		(	0.0	1.0	)));
}
potential ( matchIg7pp2pp3I_CC1_CC1 | matchIg7pp1pp3I or_matchIg7pp2pp2I_makeswhiteIg7pp1pp2I_CC1_CC0 )
{
	data = (((	0.0	1.0	)
		(	1.0	0.0	))
		((	1.0	0.0	)
		(	1.0	0.0	)));
}
potential ( makeswhiteIg7pp3pp1I | makeswhiteIg7pp3pp1I_CC1 )
{
	data = ((	1.0	0.0	)
		(	0.0	1.0	));
}
potential ( or_guess_colorIg3pp1pc3I_guess_colorIg3pp1pc4I_CC1_CC0 | or_guess_colorIg3pp1pc2I_guess_colorIg3pp1pc5I_CC1_CC0 guess_colorIg3pp1pc3I )
{
	data = (((	1.0	0.0	)
		(	0.0	1.0	))
		((	0.0	1.0	)
		(	0.0	1.0	)));
}
potential ( makesblackIg7pp2pp2I_CC1_CC1 | makesblackIg7pp1pp2I makesblackIg7pp2pp1I )
{
	data = (((	0.0	1.0	)
		(	1.0	0.0	))
		((	1.0	0.0	)
		(	1.0	0.0	)));
}
potential ( guess_colorIg3pp3pc4I | or_guess_colorIg3pp3pc3I_guess_colorIg3pp3pc4I_CC1_CC0 )
{
	data = ((	0.6666666666666667	0.3333333333333333	)
		(	1.0	0.0	));
}
potential ( makeswhiteIg4pp3pp3I | makeswhiteIg4pp3pp3I_CC1 )
{
	data = ((	1.0	0.0	)
		(	0.0	1.0	));
}
potential ( makesblackIg3pp3pp3I_CC1 | or_makesblackIg3pp3pp3I_CC1_CC0_pf0I5I_makesblackIg3pp3pp3I_CC1_CC0 makesblackIg3pp3pp3I_CC1_CC1 )
{
	data = (((	1.0	0.0	)
		(	1.0	0.0	))
		((	1.0	0.0	)
		(	0.0	1.0	)));
}
potential ( matchIg1pp3pp2I_CC1_CC0_pf0I2I | true_colorIp2pc3I guess_colorIg1pp3pc3I )
{
	data = (((	1.0	0.0	)
		(	1.0	0.0	))
		((	1.0	0.0	)
		(	0.0	1.0	)));
}
potential ( or_guess_colorIg6pp1pc3I_guess_colorIg6pp1pc4I_CC1_CC0 | or_guess_colorIg6pp1pc2I_guess_colorIg6pp1pc5I_CC1_CC0 guess_colorIg6pp1pc3I )
{
	data = (((	1.0	0.0	)
		(	0.0	1.0	))
		((	0.0	1.0	)
		(	0.0	1.0	)));
}
potential ( matchIg7pp2pp2I_CC1_CC1 | matchIg7pp1pp2I matchIg7pp2pp1I )
{
	data = (((	0.0	1.0	)
		(	1.0	0.0	))
		((	1.0	0.0	)
		(	1.0	0.0	)));
}
potential ( or_matchIg7pp2pp3I_CC1_CC0_pf0I3I_matchIg7pp2pp3I_CC1_CC0 | or_matchIg7pp2pp3I_CC1_CC0_pf0I2I_matchIg7pp2pp3I_CC1_CC0 matchIg7pp2pp3I_CC1_CC0_pf0I3I )
{
	data = (((	1.0	0.0	)
		(	0.0	1.0	))
		((	0.0	1.0	)
		(	0.0	1.0	)));
}
potential ( or_matchIg6pp3pp2I_CC1_CC0_pf0I3I_matchIg6pp3pp2I_CC1_CC0 | or_matchIg6pp3pp2I_CC1_CC0_pf0I2I_matchIg6pp3pp2I_CC1_CC0 matchIg6pp3pp2I_CC1_CC0_pf0I3I )
{
	data = (((	1.0	0.0	)
		(	0.0	1.0	))
		((	0.0	1.0	)
		(	0.0	1.0	)));
}
potential ( matchIg8pp1pp2I_CC1_CC0_pf0I5I | true_colorIp2pc6I guess_colorIg8pp1pc6I )
{
	data = (((	1.0	0.0	)
		(	1.0	0.0	))
		((	1.0	0.0	)
		(	0.0	1.0	)));
}
potential ( makesblackIg1pp3pp1I | makesblackIg1pp3pp1I_CC1 )
{
	data = ((	1.0	0.0	)
		(	0.0	1.0	));
}
potential ( matchIg1pp3pp1I_CC1 | or_matchIg1pp3pp1I_CC1_CC0_pf0I5I_matchIg1pp3pp1I_CC1_CC0 or_matchIg1pp2pp1I_matchIg1pp3pp1I_CC1_CC1_CC0 )
{
	data = (((	1.0	0.0	)
		(	1.0	0.0	))
		((	0.0	1.0	)
		(	1.0	0.0	)));
}
potential ( or_makesblackIg4pp1pp2I_blackIg4pp1I_CC1 | makesblackIg4pp1pp1I makesblackIg4pp1pp2I )
{
	data = (((	1.0	0.0	)
		(	0.0	1.0	))
		((	0.0	1.0	)
		(	0.0	1.0	)));
}
potential ( matchIg2pp1pp3I_CC1 | or_matchIg2pp1pp3I_CC1_CC0_pf0I5I_matchIg2pp1pp3I_CC1_CC0 or_matchIg2pp1pp2I_makeswhiteIg2pp2pp1I_CC1_CC0 )
{
	data = (((	1.0	0.0	)
		(	1.0	0.0	))
		((	0.0	1.0	)
		(	1.0	0.0	)));
}
potential ( matchIg1pp2pp3I_CC1_CC0_pf0I1I | true_colorIp3pc2I guess_colorIg1pp2pc2I )
{
	data = (((	1.0	0.0	)
		(	1.0	0.0	))
		((	1.0	0.0	)
		(	0.0	1.0	)));
}
potential ( matchIg1pp2pp3I_CC1_CC0_pf0I3I | true_colorIp3pc4I guess_colorIg1pp2pc4I )
{
	data = (((	1.0	0.0	)
		(	1.0	0.0	))
		((	1.0	0.0	)
		(	0.0	1.0	)));
}
potential ( makesblackIg5pp3pp1I_CC1_CC0_pf0I0I | true_colorIp1pc1I guess_colorIg5pp1pc1I )
{
	data = (((	1.0	0.0	)
		(	1.0	0.0	))
		((	1.0	0.0	)
		(	0.0	1.0	)));
}
potential ( matchIg5pp2pp2I_CC1_CC1 | matchIg5pp1pp2I matchIg5pp2pp1I )
{
	data = (((	0.0	1.0	)
		(	1.0	0.0	))
		((	1.0	0.0	)
		(	1.0	0.0	)));
}
potential ( or_matchIg3pp1pp3I_CC1_CC0_pf0I5I_matchIg3pp1pp3I_CC1_CC0 | or_matchIg3pp1pp3I_CC1_CC0_pf0I4I_matchIg3pp1pp3I_CC1_CC0 matchIg3pp1pp3I_CC1_CC0_pf0I5I )
{
	data = (((	1.0	0.0	)
		(	0.0	1.0	))
		((	0.0	1.0	)
		(	0.0	1.0	)));
}
potential ( matchIg5pp2pp1I_CC1_CC0_pf0I5I | true_colorIp1pc6I guess_colorIg5pp2pc6I )
{
	data = (((	1.0	0.0	)
		(	1.0	0.0	))
		((	1.0	0.0	)
		(	0.0	1.0	)));
}
potential ( or_makesblackIg3pp3pp3I_CC1_CC0_pf0I1I_makesblackIg3pp3pp3I_CC1_CC0 | makesblackIg3pp3pp3I_CC1_CC0_pf0I0I makesblackIg3pp3pp3I_CC1_CC0_pf0I1I )
{
	data = (((	1.0	0.0	)
		(	0.0	1.0	))
		((	0.0	1.0	)
		(	0.0	1.0	)));
}
potential ( makesblackIg3pp3pp2I_CC1_CC0_pf0I2I | true_colorIp2pc3I guess_colorIg3pp2pc3I )
{
	data = (((	1.0	0.0	)
		(	1.0	0.0	))
		((	1.0	0.0	)
		(	0.0	1.0	)));
}
potential ( or_matchIg7pp3pp3I_makeswhiteIg7pp2pp3I_CC1_CC0 | or_matchIg7pp3pp2I_makeswhiteIg7pp1pp3I_CC1_CC0 matchIg7pp3pp3I )
{
	data = (((	1.0	0.0	)
		(	0.0	1.0	))
		((	0.0	1.0	)
		(	0.0	1.0	)));
}
potential ( or_matchIg7pp3pp2I_CC1_CC0_pf0I3I_matchIg7pp3pp2I_CC1_CC0 | or_matchIg7pp3pp2I_CC1_CC0_pf0I2I_matchIg7pp3pp2I_CC1_CC0 matchIg7pp3pp2I_CC1_CC0_pf0I3I )
{
	data = (((	1.0	0.0	)
		(	0.0	1.0	))
		((	0.0	1.0	)
		(	0.0	1.0	)));
}
potential ( matchIg1pp1pp3I_CC1_CC0_pf0I1I | true_colorIp3pc2I guess_colorIg1pp1pc2I )
{
	data = (((	1.0	0.0	)
		(	1.0	0.0	))
		((	1.0	0.0	)
		(	0.0	1.0	)));
}
potential ( matchIg4pp2pp1I_CC1_CC0_pf0I0I | true_colorIp1pc1I guess_colorIg4pp2pc1I )
{
	data = (((	1.0	0.0	)
		(	1.0	0.0	))
		((	1.0	0.0	)
		(	0.0	1.0	)));
}
potential ( blackIg4pp3I | makesblackIg4pp3pp3I )
{
	data = ((	1.0	0.0	)
		(	0.0	1.0	));
}
potential ( makesblackIg4pp2pp3I | makesblackIg4pp2pp3I_CC1 )
{
	data = ((	1.0	0.0	)
		(	0.0	1.0	));
}
potential ( or_makesblackIg1pp3pp2I_CC1_CC0_pf0I2I_makesblackIg1pp3pp2I_CC1_CC0 | or_makesblackIg1pp3pp2I_CC1_CC0_pf0I1I_makesblackIg1pp3pp2I_CC1_CC0 makesblackIg1pp3pp2I_CC1_CC0_pf0I2I )
{
	data = (((	1.0	0.0	)
		(	0.0	1.0	))
		((	0.0	1.0	)
		(	0.0	1.0	)));
}
potential ( or_makeswhiteIg1pp1pp2I_whiteIg1pp1I_CC1 | makeswhiteIg1pp1pp1I makeswhiteIg1pp1pp2I )
{
	data = (((	1.0	0.0	)
		(	0.0	1.0	))
		((	0.0	1.0	)
		(	0.0	1.0	)));
}
potential ( or_makeswhiteIg5pp2pp3I_whiteIg5pp2I_CC1 | makeswhiteIg5pp2pp2I makeswhiteIg5pp2pp3I )
{
	data = (((	1.0	0.0	)
		(	0.0	1.0	))
		((	0.0	1.0	)
		(	0.0	1.0	)));
}
potential ( or_matchIg1pp3pp1I_CC1_CC0_pf0I1I_matchIg1pp3pp1I_CC1_CC0 | matchIg1pp3pp1I_CC1_CC0_pf0I0I matchIg1pp3pp1I_CC1_CC0_pf0I1I )
{
	data = (((	1.0	0.0	)
		(	0.0	1.0	))
		((	0.0	1.0	)
		(	0.0	1.0	)));
}
potential ( or_matchIg4pp3pp1I_CC1_CC0_pf0I4I_matchIg4pp3pp1I_CC1_CC0 | or_matchIg4pp3pp1I_CC1_CC0_pf0I3I_matchIg4pp3pp1I_CC1_CC0 matchIg4pp3pp1I_CC1_CC0_pf0I4I )
{
	data = (((	1.0	0.0	)
		(	0.0	1.0	))
		((	0.0	1.0	)
		(	0.0	1.0	)));
}
potential ( or_guess_colorIg5pp3pc3I_guess_colorIg5pp3pc4I_CC1_CC0 | or_guess_colorIg5pp3pc2I_guess_colorIg5pp3pc5I_CC1_CC0 guess_colorIg5pp3pc3I )
{
	data = (((	1.0	0.0	)
		(	0.0	1.0	))
		((	0.0	1.0	)
		(	0.0	1.0	)));
}
potential ( makesblackIg2pp2pp1I | makesblackIg2pp2pp1I_CC1 )
{
	data = ((	1.0	0.0	)
		(	0.0	1.0	));
}
potential ( matchIg7pp2pp1I_CC1_CC0_pf0I4I | true_colorIp1pc5I guess_colorIg7pp2pc5I )
{
	data = (((	1.0	0.0	)
		(	1.0	0.0	))
		((	1.0	0.0	)
		(	0.0	1.0	)));
}
potential ( makesblackIg3pp2pp3I_CC1_CC1 | makesblackIg3pp1pp3I or_makesblackIg3pp2pp2I_makesblackIg3pp2pp3I_CC1_CC1_CC2_CC0 )
{
	data = (((	0.0	1.0	)
		(	1.0	0.0	))
		((	1.0	0.0	)
		(	1.0	0.0	)));
}
potential ( matchIg5pp3pp1I_CC1_CC0_pf0I1I | true_colorIp1pc2I guess_colorIg5pp3pc2I )
{
	data = (((	1.0	0.0	)
		(	1.0	0.0	))
		((	1.0	0.0	)
		(	0.0	1.0	)));
}
potential ( or_matchIg5pp3pp2I_CC1_CC0_pf0I2I_matchIg5pp3pp2I_CC1_CC0 | or_matchIg5pp3pp2I_CC1_CC0_pf0I1I_matchIg5pp3pp2I_CC1_CC0 matchIg5pp3pp2I_CC1_CC0_pf0I2I )
{
	data = (((	1.0	0.0	)
		(	0.0	1.0	))
		((	0.0	1.0	)
		(	0.0	1.0	)));
}
potential ( makeswhiteIg2pp1pp3I | makeswhiteIg2pp1pp3I_CC1 )
{
	data = ((	1.0	0.0	)
		(	0.0	1.0	));
}
potential ( or_matchIg1pp1pp3I_makeswhiteIg1pp2pp1I_CC1_CC0 | or_matchIg1pp1pp2I_makeswhiteIg1pp2pp1I_CC1_CC0 matchIg1pp1pp3I )
{
	data = (((	1.0	0.0	)
		(	0.0	1.0	))
		((	0.0	1.0	)
		(	0.0	1.0	)));
}
potential ( makesblackIg6pp3pp3I_CC1_CC0_pf0I1I | true_colorIp3pc2I guess_colorIg6pp3pc2I )
{
	data = (((	1.0	0.0	)
		(	1.0	0.0	))
		((	1.0	0.0	)
		(	0.0	1.0	)));
}
potential ( or_matchIg7pp1pp3I_CC1_CC0_pf0I4I_matchIg7pp1pp3I_CC1_CC0 | or_matchIg7pp1pp3I_CC1_CC0_pf0I3I_matchIg7pp1pp3I_CC1_CC0 matchIg7pp1pp3I_CC1_CC0_pf0I4I )
{
	data = (((	1.0	0.0	)
		(	0.0	1.0	))
		((	0.0	1.0	)
		(	0.0	1.0	)));
}
potential ( or_makesblackIg2pp1pp3I_blackIg2pp1I_CC1 | or_makesblackIg2pp1pp2I_blackIg2pp1I_CC1 makesblackIg2pp1pp3I )
{
	data = (((	1.0	0.0	)
		(	0.0	1.0	))
		((	0.0	1.0	)
		(	0.0	1.0	)));
}
potential ( or_makeswhiteIg4pp2pp3I_whiteIg4pp2I_CC1 | makeswhiteIg4pp2pp2I makeswhiteIg4pp2pp3I )
{
	data = (((	1.0	0.0	)
		(	0.0	1.0	))
		((	0.0	1.0	)
		(	0.0	1.0	)));
}
potential ( matchIg6pp2pp3I_CC1_CC0_pf0I4I | true_colorIp3pc5I guess_colorIg6pp2pc5I )
{
	data = (((	1.0	0.0	)
		(	1.0	0.0	))
		((	1.0	0.0	)
		(	0.0	1.0	)));
}
potential ( matchIg5pp1pp2I_CC1_CC0_pf0I2I | true_colorIp2pc3I guess_colorIg5pp1pc3I )
{
	data = (((	1.0	0.0	)
		(	1.0	0.0	))
		((	1.0	0.0	)
		(	0.0	1.0	)));
}
potential ( matchIg7pp1pp2I_CC1_CC0_pf0I5I | true_colorIp2pc6I guess_colorIg7pp1pc6I )
{
	data = (((	1.0	0.0	)
		(	1.0	0.0	))
		((	1.0	0.0	)
		(	0.0	1.0	)));
}
potential ( or_makeswhiteIg7pp2pp3I_makeswhiteIg7pp3pp3I_CC1_CC1_CC0 | makeswhiteIg7pp1pp3I makeswhiteIg7pp2pp3I )
{
	data = (((	1.0	0.0	)
		(	0.0	1.0	))
		((	0.0	1.0	)
		(	0.0	1.0	)));
}
potential ( or_matchIg3pp2pp2I_matchIg3pp3pp2I_CC1_CC1_CC0 | matchIg3pp1pp2I matchIg3pp2pp2I )
{
	data = (((	1.0	0.0	)
		(	0.0	1.0	))
		((	0.0	1.0	)
		(	0.0	1.0	)));
}
potential ( whiteIg2pp1I | or_makeswhiteIg2pp1pp3I_whiteIg2pp1I_CC1 )
{
	data = ((	1.0	0.0	)
		(	0.0	1.0	));
}
potential ( makesblackIg8pp2pp2I | makesblackIg8pp2pp2I_CC1 )
{
	data = ((	1.0	0.0	)
		(	0.0	1.0	));
}
potential ( matchIg6pp3pp1I_CC1_CC0_pf0I5I | true_colorIp1pc6I guess_colorIg6pp3pc6I )
{
	data = (((	1.0	0.0	)
		(	1.0	0.0	))
		((	1.0	0.0	)
		(	0.0	1.0	)));
}
potential ( or_guess_colorIg6pp1pc4I_guess_colorIg6pp1pc6I_CC1_CC0 | or_guess_colorIg6pp1pc3I_guess_colorIg6pp1pc4I_CC1_CC0 guess_colorIg6pp1pc4I )
{
	data = (((	1.0	0.0	)
		(	0.0	1.0	))
		((	0.0	1.0	)
		(	0.0	1.0	)));
}
potential ( or_guess_colorIg4pp2pc2I_guess_colorIg4pp2pc6I_CC1_CC0 | guess_colorIg4pp2pc1I guess_colorIg4pp2pc2I )
{
	data = (((	1.0	0.0	)
		(	0.0	1.0	))
		((	0.0	1.0	)
		(	0.0	1.0	)));
}
potential ( matchIg4pp1pp2I_CC1 | or_matchIg4pp1pp2I_CC1_CC0_pf0I5I_matchIg4pp1pp2I_CC1_CC0 matchIg4pp1pp1I )
{
	data = (((	1.0	0.0	)
		(	1.0	0.0	))
		((	0.0	1.0	)
		(	1.0	0.0	)));
}
potential ( or_makesblackIg7pp3pp1I_CC1_CC0_pf0I5I_makesblackIg7pp3pp1I_CC1_CC0 | or_makesblackIg7pp3pp1I_CC1_CC0_pf0I4I_makesblackIg7pp3pp1I_CC1_CC0 makesblackIg7pp3pp1I_CC1_CC0_pf0I5I )
{
	data = (((	1.0	0.0	)
		(	0.0	1.0	))
		((	0.0	1.0	)
		(	0.0	1.0	)));
}
potential ( or_matchIg8pp1pp2I_CC1_CC0_pf0I2I_matchIg8pp1pp2I_CC1_CC0 | or_matchIg8pp1pp2I_CC1_CC0_pf0I1I_matchIg8pp1pp2I_CC1_CC0 matchIg8pp1pp2I_CC1_CC0_pf0I2I )
{
	data = (((	1.0	0.0	)
		(	0.0	1.0	))
		((	0.0	1.0	)
		(	0.0	1.0	)));
}
potential ( makeswhiteIg8pp3pp1I | makeswhiteIg8pp3pp1I_CC1 )
{
	data = ((	1.0	0.0	)
		(	0.0	1.0	));
}
potential ( matchIg4pp2pp3I_CC1_CC0_pf0I5I | true_colorIp3pc6I guess_colorIg4pp2pc6I )
{
	data = (((	1.0	0.0	)
		(	1.0	0.0	))
		((	1.0	0.0	)
		(	0.0	1.0	)));
}
potential ( or_makesblackIg4pp2pp2I_makesblackIg4pp3pp2I_CC1_CC1_CC0 | makesblackIg4pp1pp2I makesblackIg4pp2pp2I )
{
	data = (((	1.0	0.0	)
		(	0.0	1.0	))
		((	0.0	1.0	)
		(	0.0	1.0	)));
}
potential ( matchIg3pp2pp3I_CC1_CC0_pf0I0I | true_colorIp3pc1I guess_colorIg3pp2pc1I )
{
	data = (((	1.0	0.0	)
		(	1.0	0.0	))
		((	1.0	0.0	)
		(	0.0	1.0	)));
}
potential ( or_makesblackIg1pp2pp1I_makesblackIg1pp3pp1I_CC1_CC1_CC0 | makesblackIg1pp1pp1I makesblackIg1pp2pp1I )
{
	data = (((	1.0	0.0	)
		(	0.0	1.0	))
		((	0.0	1.0	)
		(	0.0	1.0	)));
}
potential ( makesblackIg7pp3pp3I_CC1_CC0_pf0I3I | true_colorIp3pc4I guess_colorIg7pp3pc4I )
{
	data = (((	1.0	0.0	)
		(	1.0	0.0	))
		((	1.0	0.0	)
		(	0.0	1.0	)));
}
potential ( or_makeswhiteIg1pp2pp1I_makeswhiteIg1pp3pp1I_CC1_CC1_CC0 | makeswhiteIg1pp1pp1I makeswhiteIg1pp2pp1I )
{
	data = (((	1.0	0.0	)
		(	0.0	1.0	))
		((	0.0	1.0	)
		(	0.0	1.0	)));
}
potential ( or_makesblackIg2pp2pp3I_makesblackIg2pp3pp3I_CC1_CC1_CC0 | makesblackIg2pp1pp3I makesblackIg2pp2pp3I )
{
	data = (((	1.0	0.0	)
		(	0.0	1.0	))
		((	0.0	1.0	)
		(	0.0	1.0	)));
}
potential ( matchIg6pp3pp1I_CC1_CC0_pf0I1I | true_colorIp1pc2I guess_colorIg6pp3pc2I )
{
	data = (((	1.0	0.0	)
		(	1.0	0.0	))
		((	1.0	0.0	)
		(	0.0	1.0	)));
}
potential ( makesblackIg5pp1pp3I_CC1 | or_makesblackIg5pp3pp3I_CC1_CC0_pf0I5I_makesblackIg5pp3pp3I_CC1_CC0 or_makesblackIg5pp1pp2I_blackIg5pp1I_CC1 )
{
	data = (((	1.0	0.0	)
		(	1.0	0.0	))
		((	0.0	1.0	)
		(	1.0	0.0	)));
}
potential ( makesblackIg8pp2pp3I_CC1 | or_makesblackIg8pp3pp3I_CC1_CC0_pf0I5I_makesblackIg8pp3pp3I_CC1_CC0 makesblackIg8pp2pp3I_CC1_CC1 )
{
	data = (((	1.0	0.0	)
		(	1.0	0.0	))
		((	1.0	0.0	)
		(	0.0	1.0	)));
}
potential ( or_guess_colorIg8pp2pc4I_guess_colorIg8pp2pc6I_CC1_CC0 | or_guess_colorIg8pp2pc3I_guess_colorIg8pp2pc4I_CC1_CC0 guess_colorIg8pp2pc4I )
{
	data = (((	1.0	0.0	)
		(	0.0	1.0	))
		((	0.0	1.0	)
		(	0.0	1.0	)));
}
potential ( makesblackIg7pp3pp3I_CC1 | or_makesblackIg7pp3pp3I_CC1_CC0_pf0I5I_makesblackIg7pp3pp3I_CC1_CC0 makesblackIg7pp3pp3I_CC1_CC1 )
{
	data = (((	1.0	0.0	)
		(	1.0	0.0	))
		((	1.0	0.0	)
		(	0.0	1.0	)));
}
potential ( makeswhiteIg5pp3pp1I | makeswhiteIg5pp3pp1I_CC1 )
{
	data = ((	1.0	0.0	)
		(	0.0	1.0	));
}
potential ( matchIg1pp3pp1I_CC1_CC0_pf0I3I | true_colorIp1pc4I guess_colorIg1pp3pc4I )
{
	data = (((	1.0	0.0	)
		(	1.0	0.0	))
		((	1.0	0.0	)
		(	0.0	1.0	)));
}
potential ( or_makeswhiteIg4pp2pp3I_makeswhiteIg4pp3pp3I_CC1_CC1_CC0 | makeswhiteIg4pp1pp3I makeswhiteIg4pp2pp3I )
{
	data = (((	1.0	0.0	)
		(	0.0	1.0	))
		((	0.0	1.0	)
		(	0.0	1.0	)));
}
potential ( or_matchIg2pp2pp3I_matchIg2pp3pp3I_CC1_CC1_CC0 | matchIg2pp1pp3I matchIg2pp2pp3I )
{
	data = (((	1.0	0.0	)
		(	0.0	1.0	))
		((	0.0	1.0	)
		(	0.0	1.0	)));
}
potential ( makesblackIg6pp3pp2I_CC1_CC1 | or_makesblackIg6pp2pp2I_makesblackIg6pp3pp2I_CC1_CC1_CC0 makesblackIg6pp3pp1I )
{
	data = (((	0.0	1.0	)
		(	1.0	0.0	))
		((	1.0	0.0	)
		(	1.0	0.0	)));
}
potential ( guess_colorIg3pp3pc5I | or_guess_colorIg3pp3pc4I_guess_colorIg3pp3pc6I_CC1_CC0 )
{
	data = ((	0.5	0.5	)
		(	1.0	0.0	));
}
potential ( makesblackIg5pp3pp1I_CC1_CC0_pf0I4I | true_colorIp1pc5I guess_colorIg5pp1pc5I )
{
	data = (((	1.0	0.0	)
		(	1.0	0.0	))
		((	1.0	0.0	)
		(	0.0	1.0	)));
}
potential ( makesblackIg5pp2pp1I_CC1 | or_makesblackIg5pp3pp1I_CC1_CC0_pf0I5I_makesblackIg5pp3pp1I_CC1_CC0 makesblackIg5pp1pp1I )
{
	data = (((	1.0	0.0	)
		(	1.0	0.0	))
		((	0.0	1.0	)
		(	1.0	0.0	)));
}
potential ( or_matchIg6pp1pp3I_CC1_CC0_pf0I3I_matchIg6pp1pp3I_CC1_CC0 | or_matchIg6pp1pp3I_CC1_CC0_pf0I2I_matchIg6pp1pp3I_CC1_CC0 matchIg6pp1pp3I_CC1_CC0_pf0I3I )
{
	data = (((	1.0	0.0	)
		(	0.0	1.0	))
		((	0.0	1.0	)
		(	0.0	1.0	)));
}
potential ( makesblackIg2pp2pp3I_CC1 | or_makesblackIg2pp3pp3I_CC1_CC0_pf0I5I_makesblackIg2pp3pp3I_CC1_CC0 makesblackIg2pp2pp3I_CC1_CC1 )
{
	data = (((	1.0	0.0	)
		(	1.0	0.0	))
		((	1.0	0.0	)
		(	0.0	1.0	)));
}
potential ( or_guess_colorIg7pp1pc2I_guess_colorIg7pp1pc5I_CC1_CC0 | guess_colorIg7pp1pc1I guess_colorIg7pp1pc2I )
{
	data = (((	1.0	0.0	)
		(	0.0	1.0	))
		((	0.0	1.0	)
		(	0.0	1.0	)));
}
potential ( makeswhiteIg3pp3pp3I | makeswhiteIg3pp3pp3I_CC1 )
{
	data = ((	1.0	0.0	)
		(	0.0	1.0	));
}
potential ( or_guess_colorIg3pp2pc5I_guess_colorIg3pp2pc6I_CC1_CC0 | or_guess_colorIg3pp2pc4I_guess_colorIg3pp2pc6I_CC1_CC0 guess_colorIg3pp2pc5I )
{
	data = (((	1.0	0.0	)
		(	0.0	1.0	))
		((	0.0	1.0	)
		(	0.0	1.0	)));
}
potential ( makeswhiteIg4pp3pp2I | makeswhiteIg4pp3pp2I_CC1 )
{
	data = ((	1.0	0.0	)
		(	0.0	1.0	));
}
potential ( or_makesblackIg4pp2pp2I_makesblackIg4pp2pp3I_CC1_CC1_CC2_CC0 | makesblackIg4pp2pp1I makesblackIg4pp2pp2I )
{
	data = (((	1.0	0.0	)
		(	0.0	1.0	))
		((	0.0	1.0	)
		(	0.0	1.0	)));
}
potential ( matchIg8pp3pp2I_CC1 | or_matchIg8pp3pp2I_CC1_CC0_pf0I5I_matchIg8pp3pp2I_CC1_CC0 matchIg8pp3pp2I_CC1_CC1 )
{
	data = (((	1.0	0.0	)
		(	1.0	0.0	))
		((	1.0	0.0	)
		(	0.0	1.0	)));
}
potential ( makesblackIg3pp3pp1I_CC1_CC0_pf0I5I | true_colorIp1pc6I guess_colorIg3pp1pc6I )
{
	data = (((	1.0	0.0	)
		(	1.0	0.0	))
		((	1.0	0.0	)
		(	0.0	1.0	)));
}
potential ( or_makesblackIg1pp3pp1I_CC1_CC0_pf0I5I_makesblackIg1pp3pp1I_CC1_CC0 | or_makesblackIg1pp3pp1I_CC1_CC0_pf0I4I_makesblackIg1pp3pp1I_CC1_CC0 makesblackIg1pp3pp1I_CC1_CC0_pf0I5I )
{
	data = (((	1.0	0.0	)
		(	0.0	1.0	))
		((	0.0	1.0	)
		(	0.0	1.0	)));
}
potential ( or_makeswhiteIg5pp1pp3I_whiteIg5pp1I_CC1 | or_makeswhiteIg5pp1pp2I_whiteIg5pp1I_CC1 makeswhiteIg5pp1pp3I )
{
	data = (((	1.0	0.0	)
		(	0.0	1.0	))
		((	0.0	1.0	)
		(	0.0	1.0	)));
}
potential ( or_makesblackIg1pp3pp1I_CC1_CC0_pf0I3I_makesblackIg1pp3pp1I_CC1_CC0 | or_makesblackIg1pp3pp1I_CC1_CC0_pf0I2I_makesblackIg1pp3pp1I_CC1_CC0 makesblackIg1pp3pp1I_CC1_CC0_pf0I3I )
{
	data = (((	1.0	0.0	)
		(	0.0	1.0	))
		((	0.0	1.0	)
		(	0.0	1.0	)));
}
potential ( or_matchIg6pp2pp1I_CC1_CC0_pf0I3I_matchIg6pp2pp1I_CC1_CC0 | or_matchIg6pp2pp1I_CC1_CC0_pf0I2I_matchIg6pp2pp1I_CC1_CC0 matchIg6pp2pp1I_CC1_CC0_pf0I3I )
{
	data = (((	1.0	0.0	)
		(	0.0	1.0	))
		((	0.0	1.0	)
		(	0.0	1.0	)));
}
potential ( or_guess_colorIg6pp2pc5I_guess_colorIg6pp2pc6I_CC1_CC0 | or_guess_colorIg6pp2pc4I_guess_colorIg6pp2pc6I_CC1_CC0 guess_colorIg6pp2pc5I )
{
	data = (((	1.0	0.0	)
		(	0.0	1.0	))
		((	0.0	1.0	)
		(	0.0	1.0	)));
}
potential ( makeswhiteIg4pp1pp3I_CC1 | or_matchIg4pp3pp3I_makeswhiteIg4pp2pp3I_CC1_CC0 or_makeswhiteIg4pp1pp2I_whiteIg4pp1I_CC1 )
{
	data = (((	1.0	0.0	)
		(	1.0	0.0	))
		((	0.0	1.0	)
		(	1.0	0.0	)));
}
potential ( or_guess_colorIg8pp1pc3I_guess_colorIg8pp1pc4I_CC1_CC0 | or_guess_colorIg8pp1pc2I_guess_colorIg8pp1pc5I_CC1_CC0 guess_colorIg8pp1pc3I )
{
	data = (((	1.0	0.0	)
		(	0.0	1.0	))
		((	0.0	1.0	)
		(	0.0	1.0	)));
}
potential ( matchIg6pp2pp1I_CC1_CC0_pf0I1I | true_colorIp1pc2I guess_colorIg6pp2pc2I )
{
	data = (((	1.0	0.0	)
		(	1.0	0.0	))
		((	1.0	0.0	)
		(	0.0	1.0	)));
}
potential ( makesblackIg4pp3pp1I_CC1_CC0_pf0I1I | true_colorIp1pc2I guess_colorIg4pp1pc2I )
{
	data = (((	1.0	0.0	)
		(	1.0	0.0	))
		((	1.0	0.0	)
		(	0.0	1.0	)));
}
potential ( guess_colorIg1pp2pc6I | or_guess_colorIg1pp2pc5I_guess_colorIg1pp2pc6I_CC1_CC0 )
{
	data = ((	0.0	1.0	)
		(	1.0	0.0	));
}
potential ( matchIg6pp2pp1I_CC1_CC0_pf0I0I | true_colorIp1pc1I guess_colorIg6pp2pc1I )
{
	data = (((	1.0	0.0	)
		(	1.0	0.0	))
		((	1.0	0.0	)
		(	0.0	1.0	)));
}
potential ( or_matchIg4pp1pp3I_CC1_CC0_pf0I1I_matchIg4pp1pp3I_CC1_CC0 | matchIg4pp1pp3I_CC1_CC0_pf0I0I matchIg4pp1pp3I_CC1_CC0_pf0I1I )
{
	data = (((	1.0	0.0	)
		(	0.0	1.0	))
		((	0.0	1.0	)
		(	0.0	1.0	)));
}
potential ( makeswhiteIg8pp2pp2I_CC1_CC1 | makeswhiteIg8pp1pp2I makeswhiteIg8pp2pp1I )
{
	data = (((	0.0	1.0	)
		(	1.0	0.0	))
		((	1.0	0.0	)
		(	1.0	0.0	)));
}
potential ( matchIg3pp3pp1I_CC1_CC0_pf0I5I | true_colorIp1pc6I guess_colorIg3pp3pc6I )
{
	data = (((	1.0	0.0	)
		(	1.0	0.0	))
		((	1.0	0.0	)
		(	0.0	1.0	)));
}
potential ( matchIg5pp2pp3I_CC1 | or_matchIg5pp2pp3I_CC1_CC0_pf0I5I_matchIg5pp2pp3I_CC1_CC0 matchIg5pp2pp3I_CC1_CC1 )
{
	data = (((	1.0	0.0	)
		(	1.0	0.0	))
		((	1.0	0.0	)
		(	0.0	1.0	)));
}
potential ( matchIg1pp2pp3I_CC1 | or_matchIg1pp2pp3I_CC1_CC0_pf0I5I_matchIg1pp2pp3I_CC1_CC0 matchIg1pp2pp3I_CC1_CC1 )
{
	data = (((	1.0	0.0	)
		(	1.0	0.0	))
		((	1.0	0.0	)
		(	0.0	1.0	)));
}
potential ( or_guess_colorIg2pp2pc4I_guess_colorIg2pp2pc6I_CC1_CC0 | or_guess_colorIg2pp2pc3I_guess_colorIg2pp2pc6I_CC1_CC0 guess_colorIg2pp2pc4I )
{
	data = (((	1.0	0.0	)
		(	0.0	1.0	))
		((	0.0	1.0	)
		(	0.0	1.0	)));
}
potential ( or_matchIg4pp2pp2I_matchIg4pp3pp2I_CC1_CC1_CC0 | matchIg4pp1pp2I matchIg4pp2pp2I )
{
	data = (((	1.0	0.0	)
		(	0.0	1.0	))
		((	0.0	1.0	)
		(	0.0	1.0	)));
}
potential ( matchIg2pp3pp3I_CC1_CC1 | or_matchIg2pp2pp3I_matchIg2pp3pp3I_CC1_CC1_CC0 or_matchIg2pp3pp2I_makeswhiteIg2pp1pp3I_CC1_CC0 )
{
	data = (((	0.0	1.0	)
		(	1.0	0.0	))
		((	1.0	0.0	)
		(	1.0	0.0	)));
}
potential ( or_matchIg1pp2pp1I_CC1_CC0_pf0I1I_matchIg1pp2pp1I_CC1_CC0 | matchIg1pp2pp1I_CC1_CC0_pf0I0I matchIg1pp2pp1I_CC1_CC0_pf0I1I )
{
	data = (((	1.0	0.0	)
		(	0.0	1.0	))
		((	0.0	1.0	)
		(	0.0	1.0	)));
}
potential ( makesblackIg7pp2pp3I_CC1_CC1 | makesblackIg7pp1pp3I or_makesblackIg7pp2pp2I_makesblackIg7pp2pp3I_CC1_CC1_CC2_CC0 )
{
	data = (((	0.0	1.0	)
		(	1.0	0.0	))
		((	1.0	0.0	)
		(	1.0	0.0	)));
}
potential ( or_makesblackIg6pp2pp3I_blackIg6pp2I_CC1 | makesblackIg6pp2pp2I makesblackIg6pp2pp3I )
{
	data = (((	1.0	0.0	)
		(	0.0	1.0	))
		((	0.0	1.0	)
		(	0.0	1.0	)));
}
potential ( or_makesblackIg8pp2pp3I_makesblackIg8pp3pp3I_CC1_CC1_CC0 | makesblackIg8pp1pp3I makesblackIg8pp2pp3I )
{
	data = (((	1.0	0.0	)
		(	0.0	1.0	))
		((	0.0	1.0	)
		(	0.0	1.0	)));
}
potential ( true_colorIp3pc1I | )
{
	data = (	0.8333333333333334	0.16666666666666666	);
}
potential ( matchIg6pp2pp3I_CC1_CC1 | matchIg6pp1pp3I or_matchIg6pp2pp2I_makeswhiteIg6pp1pp2I_CC1_CC0 )
{
	data = (((	0.0	1.0	)
		(	1.0	0.0	))
		((	1.0	0.0	)
		(	1.0	0.0	)));
}
potential ( or_matchIg2pp3pp1I_CC1_CC0_pf0I4I_matchIg2pp3pp1I_CC1_CC0 | or_matchIg2pp3pp1I_CC1_CC0_pf0I3I_matchIg2pp3pp1I_CC1_CC0 matchIg2pp3pp1I_CC1_CC0_pf0I4I )
{
	data = (((	1.0	0.0	)
		(	0.0	1.0	))
		((	0.0	1.0	)
		(	0.0	1.0	)));
}
potential ( or_matchIg8pp2pp1I_CC1_CC0_pf0I1I_matchIg8pp2pp1I_CC1_CC0 | matchIg8pp2pp1I_CC1_CC0_pf0I0I matchIg8pp2pp1I_CC1_CC0_pf0I1I )
{
	data = (((	1.0	0.0	)
		(	0.0	1.0	))
		((	0.0	1.0	)
		(	0.0	1.0	)));
}
potential ( makeswhiteIg8pp3pp2I | makeswhiteIg8pp3pp2I_CC1 )
{
	data = ((	1.0	0.0	)
		(	0.0	1.0	));
}
potential ( or_makeswhiteIg6pp1pp2I_whiteIg6pp1I_CC1 | makeswhiteIg6pp1pp1I makeswhiteIg6pp1pp2I )
{
	data = (((	1.0	0.0	)
		(	0.0	1.0	))
		((	0.0	1.0	)
		(	0.0	1.0	)));
}
potential ( or_makeswhiteIg2pp2pp3I_makeswhiteIg2pp3pp3I_CC1_CC1_CC0 | makeswhiteIg2pp1pp3I makeswhiteIg2pp2pp3I )
{
	data = (((	1.0	0.0	)
		(	0.0	1.0	))
		((	0.0	1.0	)
		(	0.0	1.0	)));
}
potential ( or_matchIg6pp2pp3I_CC1_CC0_pf0I5I_matchIg6pp2pp3I_CC1_CC0 | or_matchIg6pp2pp3I_CC1_CC0_pf0I4I_matchIg6pp2pp3I_CC1_CC0 matchIg6pp2pp3I_CC1_CC0_pf0I5I )
{
	data = (((	1.0	0.0	)
		(	0.0	1.0	))
		((	0.0	1.0	)
		(	0.0	1.0	)));
}
potential ( or_guess_colorIg4pp1pc5I_guess_colorIg4pp1pc6I_CC1_CC0 | or_guess_colorIg4pp1pc4I_guess_colorIg4pp1pc6I_CC1_CC0 guess_colorIg4pp1pc5I )
{
	data = (((	1.0	0.0	)
		(	0.0	1.0	))
		((	0.0	1.0	)
		(	0.0	1.0	)));
}
potential ( blackIg1pp2I | or_makesblackIg1pp2pp3I_blackIg1pp2I_CC1 )
{
	data = ((	1.0	0.0	)
		(	0.0	1.0	));
}
potential ( matchIg5pp3pp2I_CC1_CC1 | or_matchIg5pp2pp2I_matchIg5pp3pp2I_CC1_CC1_CC0 matchIg5pp3pp1I )
{
	data = (((	0.0	1.0	)
		(	1.0	0.0	))
		((	1.0	0.0	)
		(	1.0	0.0	)));
}
potential ( makesblackIg1pp3pp3I_CC1_CC0_pf0I5I | true_colorIp3pc6I guess_colorIg1pp3pc6I )
{
	data = (((	1.0	0.0	)
		(	1.0	0.0	))
		((	1.0	0.0	)
		(	0.0	1.0	)));
}
potential ( or_makesblackIg8pp3pp1I_CC1_CC0_pf0I2I_makesblackIg8pp3pp1I_CC1_CC0 | or_makesblackIg8pp3pp1I_CC1_CC0_pf0I1I_makesblackIg8pp3pp1I_CC1_CC0 makesblackIg8pp3pp1I_CC1_CC0_pf0I2I )
{
	data = (((	1.0	0.0	)
		(	0.0	1.0	))
		((	0.0	1.0	)
		(	0.0	1.0	)));
}
potential ( makesblackIg4pp3pp2I_CC1_CC0_pf0I1I | true_colorIp2pc2I guess_colorIg4pp2pc2I )
{
	data = (((	1.0	0.0	)
		(	1.0	0.0	))
		((	1.0	0.0	)
		(	0.0	1.0	)));
}
potential ( guess_colorIg3pp3pc1I | )
{
	data = (	0.8333333333333334	0.16666666666666666	);
}
potential ( matchIg6pp2pp3I_CC1_CC0_pf0I0I | true_colorIp3pc1I guess_colorIg6pp2pc1I )
{
	data = (((	1.0	0.0	)
		(	1.0	0.0	))
		((	1.0	0.0	)
		(	0.0	1.0	)));
}
potential ( matchIg4pp3pp1I_CC1_CC0_pf0I4I | true_colorIp1pc5I guess_colorIg4pp3pc5I )
{
	data = (((	1.0	0.0	)
		(	1.0	0.0	))
		((	1.0	0.0	)
		(	0.0	1.0	)));
}
potential ( blackIg5pp2I | or_makesblackIg5pp2pp3I_blackIg5pp2I_CC1 )
{
	data = ((	1.0	0.0	)
		(	0.0	1.0	));
}
potential ( makesblackIg8pp3pp1I | makesblackIg8pp3pp1I_CC1 )
{
	data = ((	1.0	0.0	)
		(	0.0	1.0	));
}
potential ( or_makeswhiteIg3pp1pp3I_whiteIg3pp1I_CC1 | or_makeswhiteIg3pp1pp2I_whiteIg3pp1I_CC1 makeswhiteIg3pp1pp3I )
{
	data = (((	1.0	0.0	)
		(	0.0	1.0	))
		((	0.0	1.0	)
		(	0.0	1.0	)));
}
potential ( or_matchIg5pp1pp3I_CC1_CC0_pf0I1I_matchIg5pp1pp3I_CC1_CC0 | matchIg5pp1pp3I_CC1_CC0_pf0I0I matchIg5pp1pp3I_CC1_CC0_pf0I1I )
{
	data = (((	1.0	0.0	)
		(	0.0	1.0	))
		((	0.0	1.0	)
		(	0.0	1.0	)));
}
potential ( matchIg7pp3pp2I | matchIg7pp3pp2I_CC1 )
{
	data = ((	1.0	0.0	)
		(	0.0	1.0	));
}
potential ( matchIg8pp3pp1I_CC1_CC0_pf0I2I | true_colorIp1pc3I guess_colorIg8pp3pc3I )
{
	data = (((	1.0	0.0	)
		(	1.0	0.0	))
		((	1.0	0.0	)
		(	0.0	1.0	)));
}
potential ( makesblackIg5pp3pp3I_CC1_CC1 | or_makesblackIg5pp2pp3I_makesblackIg5pp3pp3I_CC1_CC1_CC0 or_makesblackIg5pp3pp2I_makesblackIg5pp3pp3I_CC1_CC1_CC2_CC0 )
{
	data = (((	0.0	1.0	)
		(	1.0	0.0	))
		((	1.0	0.0	)
		(	1.0	0.0	)));
}
potential ( makesblackIg6pp1pp1I | or_makesblackIg6pp3pp1I_CC1_CC0_pf0I5I_makesblackIg6pp3pp1I_CC1_CC0 )
{
	data = ((	1.0	0.0	)
		(	0.0	1.0	));
}
potential ( makesblackIg6pp3pp1I_CC1_CC0_pf0I4I | true_colorIp1pc5I guess_colorIg6pp1pc5I )
{
	data = (((	1.0	0.0	)
		(	1.0	0.0	))
		((	1.0	0.0	)
		(	0.0	1.0	)));
}
potential ( matchIg6pp2pp3I_CC1_CC0_pf0I3I | true_colorIp3pc4I guess_colorIg6pp2pc4I )
{
	data = (((	1.0	0.0	)
		(	1.0	0.0	))
		((	1.0	0.0	)
		(	0.0	1.0	)));
}
potential ( makeswhiteIg1pp2pp3I | makeswhiteIg1pp2pp3I_CC1 )
{
	data = ((	1.0	0.0	)
		(	0.0	1.0	));
}
potential ( guess_colorIg4pp3pc4I | or_guess_colorIg4pp3pc3I_guess_colorIg4pp3pc4I_CC1_CC0 )
{
	data = ((	0.6666666666666667	0.3333333333333333	)
		(	1.0	0.0	));
}
potential ( makesblackIg6pp3pp1I_CC1 | or_makesblackIg6pp3pp1I_CC1_CC0_pf0I5I_makesblackIg6pp3pp1I_CC1_CC0 or_makesblackIg6pp2pp1I_makesblackIg6pp3pp1I_CC1_CC1_CC0 )
{
	data = (((	1.0	0.0	)
		(	1.0	0.0	))
		((	0.0	1.0	)
		(	1.0	0.0	)));
}
potential ( matchIg5pp3pp2I_CC1_CC0_pf0I2I | true_colorIp2pc3I guess_colorIg5pp3pc3I )
{
	data = (((	1.0	0.0	)
		(	1.0	0.0	))
		((	1.0	0.0	)
		(	0.0	1.0	)));
}
potential ( makesblackIg3pp3pp3I_CC1_CC0_pf0I5I | true_colorIp3pc6I guess_colorIg3pp3pc6I )
{
	data = (((	1.0	0.0	)
		(	1.0	0.0	))
		((	1.0	0.0	)
		(	0.0	1.0	)));
}
potential ( makesblackIg1pp3pp3I_CC1_CC0_pf0I2I | true_colorIp3pc3I guess_colorIg1pp3pc3I )
{
	data = (((	1.0	0.0	)
		(	1.0	0.0	))
		((	1.0	0.0	)
		(	0.0	1.0	)));
}
potential ( makesblackIg3pp3pp2I_CC1_CC0_pf0I0I | true_colorIp2pc1I guess_colorIg3pp2pc1I )
{
	data = (((	1.0	0.0	)
		(	1.0	0.0	))
		((	1.0	0.0	)
		(	0.0	1.0	)));
}
potential ( makeswhiteIg5pp1pp2I_CC1 | or_matchIg5pp2pp3I_makeswhiteIg5pp1pp2I_CC1_CC0 makeswhiteIg5pp1pp1I )
{
	data = (((	1.0	0.0	)
		(	1.0	0.0	))
		((	0.0	1.0	)
		(	1.0	0.0	)));
}
potential ( or_guess_colorIg5pp3pc5I_guess_colorIg5pp3pc6I_CC1_CC0 | or_guess_colorIg5pp3pc4I_guess_colorIg5pp3pc6I_CC1_CC0 guess_colorIg5pp3pc5I )
{
	data = (((	1.0	0.0	)
		(	0.0	1.0	))
		((	0.0	1.0	)
		(	0.0	1.0	)));
}
potential ( matchIg8pp2pp3I_CC1_CC0_pf0I3I | true_colorIp3pc4I guess_colorIg8pp2pc4I )
{
	data = (((	1.0	0.0	)
		(	1.0	0.0	))
		((	1.0	0.0	)
		(	0.0	1.0	)));
}
potential ( guess_colorIg2pp2pc2I | guess_colorIg2pp2pc1I )
{
	data = ((	0.8	0.2	)
		(	1.0	0.0	));
}
potential ( makeswhiteIg5pp2pp3I | makeswhiteIg5pp2pp3I_CC1 )
{
	data = ((	1.0	0.0	)
		(	0.0	1.0	));
}
potential ( matchIg5pp1pp2I_CC1_CC0_pf0I1I | true_colorIp2pc2I guess_colorIg5pp1pc2I )
{
	data = (((	1.0	0.0	)
		(	1.0	0.0	))
		((	1.0	0.0	)
		(	0.0	1.0	)));
}
potential ( blackIg3pp1I | or_makesblackIg3pp1pp3I_blackIg3pp1I_CC1 )
{
	data = ((	1.0	0.0	)
		(	0.0	1.0	));
}
potential ( makesblackIg6pp2pp2I_CC1 | or_makesblackIg6pp3pp2I_CC1_CC0_pf0I5I_makesblackIg6pp3pp2I_CC1_CC0 makesblackIg6pp2pp2I_CC1_CC1 )
{
	data = (((	1.0	0.0	)
		(	1.0	0.0	))
		((	1.0	0.0	)
		(	0.0	1.0	)));
}
potential ( matchIg2pp1pp1I | or_makesblackIg2pp3pp1I_CC1_CC0_pf0I5I_makesblackIg2pp3pp1I_CC1_CC0 )
{
	data = ((	1.0	0.0	)
		(	0.0	1.0	));
}
potential ( or_makesblackIg2pp3pp3I_CC1_CC0_pf0I5I_makesblackIg2pp3pp3I_CC1_CC0 | or_makesblackIg2pp3pp3I_CC1_CC0_pf0I4I_makesblackIg2pp3pp3I_CC1_CC0 makesblackIg2pp3pp3I_CC1_CC0_pf0I5I )
{
	data = (((	1.0	0.0	)
		(	0.0	1.0	))
		((	0.0	1.0	)
		(	0.0	1.0	)));
}
potential ( or_matchIg2pp1pp3I_CC1_CC0_pf0I5I_matchIg2pp1pp3I_CC1_CC0 | or_matchIg2pp1pp3I_CC1_CC0_pf0I4I_matchIg2pp1pp3I_CC1_CC0 matchIg2pp1pp3I_CC1_CC0_pf0I5I )
{
	data = (((	1.0	0.0	)
		(	0.0	1.0	))
		((	0.0	1.0	)
		(	0.0	1.0	)));
}
potential ( makesblackIg2pp3pp3I_CC1_CC0_pf0I0I | true_colorIp3pc1I guess_colorIg2pp3pc1I )
{
	data = (((	1.0	0.0	)
		(	1.0	0.0	))
		((	1.0	0.0	)
		(	0.0	1.0	)));
}
potential ( matchIg2pp1pp3I_CC1_CC0_pf0I1I | true_colorIp3pc2I guess_colorIg2pp1pc2I )
{
	data = (((	1.0	0.0	)
		(	1.0	0.0	))
		((	1.0	0.0	)
		(	0.0	1.0	)));
}
potential ( makesblackIg1pp3pp3I_CC1_CC0_pf0I0I | true_colorIp3pc1I guess_colorIg1pp3pc1I )
{
	data = (((	1.0	0.0	)
		(	1.0	0.0	))
		((	1.0	0.0	)
		(	0.0	1.0	)));
}
potential ( matchIg3pp3pp1I_CC1_CC0_pf0I3I | true_colorIp1pc4I guess_colorIg3pp3pc4I )
{
	data = (((	1.0	0.0	)
		(	1.0	0.0	))
		((	1.0	0.0	)
		(	0.0	1.0	)));
}
potential ( blackIg8pp2I | or_makesblackIg8pp2pp3I_blackIg8pp2I_CC1 )
{
	data = ((	1.0	0.0	)
		(	0.0	1.0	));
}
potential ( or_matchIg8pp2pp1I_CC1_CC0_pf0I4I_matchIg8pp2pp1I_CC1_CC0 | or_matchIg8pp2pp1I_CC1_CC0_pf0I3I_matchIg8pp2pp1I_CC1_CC0 matchIg8pp2pp1I_CC1_CC0_pf0I4I )
{
	data = (((	1.0	0.0	)
		(	0.0	1.0	))
		((	0.0	1.0	)
		(	0.0	1.0	)));
}
potential ( makesblackIg4pp3pp3I_CC1_CC0_pf0I0I | true_colorIp3pc1I guess_colorIg4pp3pc1I )
{
	data = (((	1.0	0.0	)
		(	1.0	0.0	))
		((	1.0	0.0	)
		(	0.0	1.0	)));
}
potential ( makeswhiteIg1pp3pp3I_CC1_CC1 | or_makeswhiteIg1pp2pp3I_makeswhiteIg1pp3pp3I_CC1_CC1_CC0 or_makeswhiteIg1pp3pp2I_makeswhiteIg1pp3pp3I_CC1_CC1_CC2_CC0 )
{
	data = (((	0.0	1.0	)
		(	1.0	0.0	))
		((	1.0	0.0	)
		(	1.0	0.0	)));
}
potential ( matchIg1pp1pp3I | matchIg1pp1pp3I_CC1 )
{
	data = ((	1.0	0.0	)
		(	0.0	1.0	));
}
potential ( makesblackIg8pp3pp3I_CC1_CC0_pf0I2I | true_colorIp3pc3I guess_colorIg8pp3pc3I )
{
	data = (((	1.0	0.0	)
		(	1.0	0.0	))
		((	1.0	0.0	)
		(	0.0	1.0	)));
}
potential ( matchIg5pp1pp3I_CC1_CC0_pf0I0I | true_colorIp3pc1I guess_colorIg5pp1pc1I )
{
	data = (((	1.0	0.0	)
		(	1.0	0.0	))
		((	1.0	0.0	)
		(	0.0	1.0	)));
}
potential ( whiteIg7pp1I | or_makeswhiteIg7pp1pp3I_whiteIg7pp1I_CC1 )
{
	data = ((	1.0	0.0	)
		(	0.0	1.0	));
}
potential ( or_matchIg2pp2pp3I_CC1_CC0_pf0I3I_matchIg2pp2pp3I_CC1_CC0 | or_matchIg2pp2pp3I_CC1_CC0_pf0I2I_matchIg2pp2pp3I_CC1_CC0 matchIg2pp2pp3I_CC1_CC0_pf0I3I )
{
	data = (((	1.0	0.0	)
		(	0.0	1.0	))
		((	0.0	1.0	)
		(	0.0	1.0	)));
}
potential ( or_makesblackIg3pp3pp2I_CC1_CC0_pf0I4I_makesblackIg3pp3pp2I_CC1_CC0 | or_makesblackIg3pp3pp2I_CC1_CC0_pf0I3I_makesblackIg3pp3pp2I_CC1_CC0 makesblackIg3pp3pp2I_CC1_CC0_pf0I4I )
{
	data = (((	1.0	0.0	)
		(	0.0	1.0	))
		((	0.0	1.0	)
		(	0.0	1.0	)));
}
potential ( makeswhiteIg6pp3pp3I_CC1_CC1 | or_makeswhiteIg6pp2pp3I_makeswhiteIg6pp3pp3I_CC1_CC1_CC0 or_makeswhiteIg6pp3pp2I_makeswhiteIg6pp3pp3I_CC1_CC1_CC2_CC0 )
{
	data = (((	0.0	1.0	)
		(	1.0	0.0	))
		((	1.0	0.0	)
		(	1.0	0.0	)));
}
potential ( makesblackIg4pp1pp1I | or_makesblackIg4pp3pp1I_CC1_CC0_pf0I5I_makesblackIg4pp3pp1I_CC1_CC0 )
{
	data = ((	1.0	0.0	)
		(	0.0	1.0	));
}
potential ( or_guess_colorIg7pp1pc4I_guess_colorIg7pp1pc6I_CC1_CC0 | or_guess_colorIg7pp1pc3I_guess_colorIg7pp1pc4I_CC1_CC0 guess_colorIg7pp1pc4I )
{
	data = (((	1.0	0.0	)
		(	0.0	1.0	))
		((	0.0	1.0	)
		(	0.0	1.0	)));
}
potential ( or_matchIg4pp1pp3I_CC1_CC0_pf0I4I_matchIg4pp1pp3I_CC1_CC0 | or_matchIg4pp1pp3I_CC1_CC0_pf0I3I_matchIg4pp1pp3I_CC1_CC0 matchIg4pp1pp3I_CC1_CC0_pf0I4I )
{
	data = (((	1.0	0.0	)
		(	0.0	1.0	))
		((	0.0	1.0	)
		(	0.0	1.0	)));
}
potential ( makesblackIg8pp3pp2I_CC1_CC0_pf0I4I | true_colorIp2pc5I guess_colorIg8pp2pc5I )
{
	data = (((	1.0	0.0	)
		(	1.0	0.0	))
		((	1.0	0.0	)
		(	0.0	1.0	)));
}
potential ( or_matchIg6pp1pp3I_makeswhiteIg6pp2pp1I_CC1_CC0 | or_matchIg6pp1pp2I_makeswhiteIg6pp2pp1I_CC1_CC0 matchIg6pp1pp3I )
{
	data = (((	1.0	0.0	)
		(	0.0	1.0	))
		((	0.0	1.0	)
		(	0.0	1.0	)));
}
potential ( makeswhiteIg5pp3pp3I | makeswhiteIg5pp3pp3I_CC1 )
{
	data = ((	1.0	0.0	)
		(	0.0	1.0	));
}
potential ( makeswhiteIg4pp2pp3I | makeswhiteIg4pp2pp3I_CC1 )
{
	data = ((	1.0	0.0	)
		(	0.0	1.0	));
}
potential ( makeswhiteIg6pp1pp3I | makeswhiteIg6pp1pp3I_CC1 )
{
	data = ((	1.0	0.0	)
		(	0.0	1.0	));
}
potential ( matchIg7pp2pp3I_CC1 | or_matchIg7pp2pp3I_CC1_CC0_pf0I5I_matchIg7pp2pp3I_CC1_CC0 matchIg7pp2pp3I_CC1_CC1 )
{
	data = (((	1.0	0.0	)
		(	1.0	0.0	))
		((	1.0	0.0	)
		(	0.0	1.0	)));
}
potential ( matchIg7pp3pp1I_CC1_CC0_pf0I3I | true_colorIp1pc4I guess_colorIg7pp3pc4I )
{
	data = (((	1.0	0.0	)
		(	1.0	0.0	))
		((	1.0	0.0	)
		(	0.0	1.0	)));
}
potential ( makesblackIg7pp2pp1I_CC1 | or_makesblackIg7pp3pp1I_CC1_CC0_pf0I5I_makesblackIg7pp3pp1I_CC1_CC0 makesblackIg7pp1pp1I )
{
	data = (((	1.0	0.0	)
		(	1.0	0.0	))
		((	0.0	1.0	)
		(	1.0	0.0	)));
}
potential ( or_makeswhiteIg5pp2pp2I_makeswhiteIg5pp2pp3I_CC1_CC1_CC2_CC0 | makeswhiteIg5pp2pp1I makeswhiteIg5pp2pp2I )
{
	data = (((	1.0	0.0	)
		(	0.0	1.0	))
		((	0.0	1.0	)
		(	0.0	1.0	)));
}
potential ( matchIg8pp2pp1I | matchIg8pp2pp1I_CC1 )
{
	data = ((	1.0	0.0	)
		(	0.0	1.0	));
}
potential ( or_matchIg4pp1pp2I_CC1_CC0_pf0I2I_matchIg4pp1pp2I_CC1_CC0 | or_matchIg4pp1pp2I_CC1_CC0_pf0I1I_matchIg4pp1pp2I_CC1_CC0 matchIg4pp1pp2I_CC1_CC0_pf0I2I )
{
	data = (((	1.0	0.0	)
		(	0.0	1.0	))
		((	0.0	1.0	)
		(	0.0	1.0	)));
}
potential ( true_colorIp1pc6I | or_true_colorIp1pc5I_true_colorIp1pc6I_CC1_CC0 )
{
	data = ((	0.0	1.0	)
		(	1.0	0.0	));
}
potential ( makesblackIg4pp3pp1I_CC1 | or_makesblackIg4pp3pp1I_CC1_CC0_pf0I5I_makesblackIg4pp3pp1I_CC1_CC0 or_makesblackIg4pp2pp1I_makesblackIg4pp3pp1I_CC1_CC1_CC0 )
{
	data = (((	1.0	0.0	)
		(	1.0	0.0	))
		((	0.0	1.0	)
		(	1.0	0.0	)));
}
potential ( matchIg5pp3pp2I_CC1 | or_matchIg5pp3pp2I_CC1_CC0_pf0I5I_matchIg5pp3pp2I_CC1_CC0 matchIg5pp3pp2I_CC1_CC1 )
{
	data = (((	1.0	0.0	)
		(	1.0	0.0	))
		((	1.0	0.0	)
		(	0.0	1.0	)));
}
potential ( or_matchIg4pp2pp1I_CC1_CC0_pf0I5I_matchIg4pp2pp1I_CC1_CC0 | or_matchIg4pp2pp1I_CC1_CC0_pf0I4I_matchIg4pp2pp1I_CC1_CC0 matchIg4pp2pp1I_CC1_CC0_pf0I5I )
{
	data = (((	1.0	0.0	)
		(	0.0	1.0	))
		((	0.0	1.0	)
		(	0.0	1.0	)));
}
potential ( or_matchIg5pp2pp1I_CC1_CC0_pf0I4I_matchIg5pp2pp1I_CC1_CC0 | or_matchIg5pp2pp1I_CC1_CC0_pf0I3I_matchIg5pp2pp1I_CC1_CC0 matchIg5pp2pp1I_CC1_CC0_pf0I4I )
{
	data = (((	1.0	0.0	)
		(	0.0	1.0	))
		((	0.0	1.0	)
		(	0.0	1.0	)));
}
potential ( matchIg8pp2pp3I_CC1_CC0_pf0I5I | true_colorIp3pc6I guess_colorIg8pp2pc6I )
{
	data = (((	1.0	0.0	)
		(	1.0	0.0	))
		((	1.0	0.0	)
		(	0.0	1.0	)));
}
potential ( matchIg1pp2pp3I_CC1_CC0_pf0I4I | true_colorIp3pc5I guess_colorIg1pp2pc5I )
{
	data = (((	1.0	0.0	)
		(	1.0	0.0	))
		((	1.0	0.0	)
		(	0.0	1.0	)));
}
potential ( or_matchIg1pp2pp2I_makeswhiteIg1pp1pp2I_CC1_CC0 | matchIg1pp2pp1I matchIg1pp2pp2I )
{
	data = (((	1.0	0.0	)
		(	0.0	1.0	))
		((	0.0	1.0	)
		(	0.0	1.0	)));
}
potential ( or_makesblackIg3pp2pp3I_makesblackIg3pp3pp3I_CC1_CC1_CC0 | makesblackIg3pp1pp3I makesblackIg3pp2pp3I )
{
	data = (((	1.0	0.0	)
		(	0.0	1.0	))
		((	0.0	1.0	)
		(	0.0	1.0	)));
}
potential ( or_makeswhiteIg8pp1pp2I_whiteIg8pp1I_CC1 | makeswhiteIg8pp1pp1I makeswhiteIg8pp1pp2I )
{
	data = (((	1.0	0.0	)
		(	0.0	1.0	))
		((	0.0	1.0	)
		(	0.0	1.0	)));
}
potential ( makeswhiteIg4pp2pp2I_CC1_CC1 | makeswhiteIg4pp1pp2I makeswhiteIg4pp2pp1I )
{
	data = (((	0.0	1.0	)
		(	1.0	0.0	))
		((	1.0	0.0	)
		(	1.0	0.0	)));
}
potential ( true_colorIp3pc6I | or_true_colorIp3pc5I_true_colorIp3pc6I_CC1_CC0 )
{
	data = ((	0.0	1.0	)
		(	1.0	0.0	));
}
potential ( guess_colorIg7pp3pc2I | guess_colorIg7pp3pc1I )
{
	data = ((	0.8	0.2	)
		(	1.0	0.0	));
}
potential ( or_matchIg7pp3pp2I_CC1_CC0_pf0I5I_matchIg7pp3pp2I_CC1_CC0 | or_matchIg7pp3pp2I_CC1_CC0_pf0I4I_matchIg7pp3pp2I_CC1_CC0 matchIg7pp3pp2I_CC1_CC0_pf0I5I )
{
	data = (((	1.0	0.0	)
		(	0.0	1.0	))
		((	0.0	1.0	)
		(	0.0	1.0	)));
}
potential ( matchIg3pp1pp1I | or_makesblackIg3pp3pp1I_CC1_CC0_pf0I5I_makesblackIg3pp3pp1I_CC1_CC0 )
{
	data = ((	1.0	0.0	)
		(	0.0	1.0	));
}
potential ( matchIg2pp1pp2I_CC1 | or_matchIg2pp1pp2I_CC1_CC0_pf0I5I_matchIg2pp1pp2I_CC1_CC0 matchIg2pp1pp1I )
{
	data = (((	1.0	0.0	)
		(	1.0	0.0	))
		((	0.0	1.0	)
		(	1.0	0.0	)));
}
potential ( or_makeswhiteIg5pp1pp2I_whiteIg5pp1I_CC1 | makeswhiteIg5pp1pp1I makeswhiteIg5pp1pp2I )
{
	data = (((	1.0	0.0	)
		(	0.0	1.0	))
		((	0.0	1.0	)
		(	0.0	1.0	)));
}
potential ( makeswhiteIg8pp1pp1I | or_matchIg8pp1pp3I_makeswhiteIg8pp3pp1I_CC1_CC0 )
{
	data = ((	1.0	0.0	)
		(	0.0	1.0	));
}
potential ( makesblackIg7pp3pp3I_CC1_CC0_pf0I5I | true_colorIp3pc6I guess_colorIg7pp3pc6I )
{
	data = (((	1.0	0.0	)
		(	1.0	0.0	))
		((	1.0	0.0	)
		(	0.0	1.0	)));
}
potential ( or_matchIg2pp1pp3I_CC1_CC0_pf0I4I_matchIg2pp1pp3I_CC1_CC0 | or_matchIg2pp1pp3I_CC1_CC0_pf0I3I_matchIg2pp1pp3I_CC1_CC0 matchIg2pp1pp3I_CC1_CC0_pf0I4I )
{
	data = (((	1.0	0.0	)
		(	0.0	1.0	))
		((	0.0	1.0	)
		(	0.0	1.0	)));
}
potential ( guess_colorIg7pp2pc1I | )
{
	data = (	0.8333333333333334	0.16666666666666666	);
}
potential ( guess_colorIg1pp1pc5I | or_guess_colorIg1pp1pc4I_guess_colorIg1pp1pc6I_CC1_CC0 )
{
	data = ((	0.5	0.5	)
		(	1.0	0.0	));
}
potential ( blackIg8pp1I | or_makesblackIg8pp1pp3I_blackIg8pp1I_CC1 )
{
	data = ((	1.0	0.0	)
		(	0.0	1.0	));
}
potential ( or_guess_colorIg3pp1pc4I_guess_colorIg3pp1pc6I_CC1_CC0 | or_guess_colorIg3pp1pc3I_guess_colorIg3pp1pc4I_CC1_CC0 guess_colorIg3pp1pc4I )
{
	data = (((	1.0	0.0	)
		(	0.0	1.0	))
		((	0.0	1.0	)
		(	0.0	1.0	)));
}
potential ( matchIg2pp3pp3I_CC1 | or_makesblackIg2pp3pp3I_CC1_CC0_pf0I5I_makesblackIg2pp3pp3I_CC1_CC0 matchIg2pp3pp3I_CC1_CC1 )
{
	data = (((	1.0	0.0	)
		(	1.0	0.0	))
		((	1.0	0.0	)
		(	0.0	1.0	)));
}
potential ( or_matchIg4pp2pp3I_CC1_CC0_pf0I3I_matchIg4pp2pp3I_CC1_CC0 | or_matchIg4pp2pp3I_CC1_CC0_pf0I2I_matchIg4pp2pp3I_CC1_CC0 matchIg4pp2pp3I_CC1_CC0_pf0I3I )
{
	data = (((	1.0	0.0	)
		(	0.0	1.0	))
		((	0.0	1.0	)
		(	0.0	1.0	)));
}
potential ( or_makeswhiteIg8pp2pp3I_makeswhiteIg8pp3pp3I_CC1_CC1_CC0 | makeswhiteIg8pp1pp3I makeswhiteIg8pp2pp3I )
{
	data = (((	1.0	0.0	)
		(	0.0	1.0	))
		((	0.0	1.0	)
		(	0.0	1.0	)));
}
potential ( matchIg6pp2pp1I_CC1_CC0_pf0I4I | true_colorIp1pc5I guess_colorIg6pp2pc5I )
{
	data = (((	1.0	0.0	)
		(	1.0	0.0	))
		((	1.0	0.0	)
		(	0.0	1.0	)));
}
potential ( or_makeswhiteIg2pp2pp3I_whiteIg2pp2I_CC1 | makeswhiteIg2pp2pp2I makeswhiteIg2pp2pp3I )
{
	data = (((	1.0	0.0	)
		(	0.0	1.0	))
		((	0.0	1.0	)
		(	0.0	1.0	)));
}
potential ( makeswhiteIg2pp3pp2I | makeswhiteIg2pp3pp2I_CC1 )
{
	data = ((	1.0	0.0	)
		(	0.0	1.0	));
}
potential ( matchIg6pp1pp2I_CC1_CC0_pf0I4I | true_colorIp2pc5I guess_colorIg6pp1pc5I )
{
	data = (((	1.0	0.0	)
		(	1.0	0.0	))
		((	1.0	0.0	)
		(	0.0	1.0	)));
}
potential ( or_guess_colorIg6pp1pc5I_guess_colorIg6pp1pc6I_CC1_CC0 | or_guess_colorIg6pp1pc4I_guess_colorIg6pp1pc6I_CC1_CC0 guess_colorIg6pp1pc5I )
{
	data = (((	1.0	0.0	)
		(	0.0	1.0	))
		((	0.0	1.0	)
		(	0.0	1.0	)));
}
potential ( or_matchIg7pp2pp3I_CC1_CC0_pf0I1I_matchIg7pp2pp3I_CC1_CC0 | matchIg7pp2pp3I_CC1_CC0_pf0I0I matchIg7pp2pp3I_CC1_CC0_pf0I1I )
{
	data = (((	1.0	0.0	)
		(	0.0	1.0	))
		((	0.0	1.0	)
		(	0.0	1.0	)));
}
potential ( or_guess_colorIg1pp3pc5I_guess_colorIg1pp3pc6I_CC1_CC0 | or_guess_colorIg1pp3pc4I_guess_colorIg1pp3pc6I_CC1_CC0 guess_colorIg1pp3pc5I )
{
	data = (((	1.0	0.0	)
		(	0.0	1.0	))
		((	0.0	1.0	)
		(	0.0	1.0	)));
}
potential ( or_makeswhiteIg6pp2pp2I_makeswhiteIg6pp3pp2I_CC1_CC1_CC0 | makeswhiteIg6pp1pp2I makeswhiteIg6pp2pp2I )
{
	data = (((	1.0	0.0	)
		(	0.0	1.0	))
		((	0.0	1.0	)
		(	0.0	1.0	)));
}
potential ( or_makesblackIg1pp3pp2I_CC1_CC0_pf0I5I_makesblackIg1pp3pp2I_CC1_CC0 | or_makesblackIg1pp3pp2I_CC1_CC0_pf0I4I_makesblackIg1pp3pp2I_CC1_CC0 makesblackIg1pp3pp2I_CC1_CC0_pf0I5I )
{
	data = (((	1.0	0.0	)
		(	0.0	1.0	))
		((	0.0	1.0	)
		(	0.0	1.0	)));
}
potential ( or_makesblackIg8pp2pp2I_makesblackIg8pp3pp2I_CC1_CC1_CC0 | makesblackIg8pp1pp2I makesblackIg8pp2pp2I )
{
	data = (((	1.0	0.0	)
		(	0.0	1.0	))
		((	0.0	1.0	)
		(	0.0	1.0	)));
}
potential ( or_matchIg7pp3pp2I_makeswhiteIg7pp1pp3I_CC1_CC0 | matchIg7pp3pp1I matchIg7pp3pp2I )
{
	data = (((	1.0	0.0	)
		(	0.0	1.0	))
		((	0.0	1.0	)
		(	0.0	1.0	)));
}
potential ( or_makesblackIg3pp2pp2I_makesblackIg3pp3pp2I_CC1_CC1_CC0 | makesblackIg3pp1pp2I makesblackIg3pp2pp2I )
{
	data = (((	1.0	0.0	)
		(	0.0	1.0	))
		((	0.0	1.0	)
		(	0.0	1.0	)));
}
potential ( or_matchIg7pp1pp2I_CC1_CC0_pf0I1I_matchIg7pp1pp2I_CC1_CC0 | matchIg7pp1pp2I_CC1_CC0_pf0I0I matchIg7pp1pp2I_CC1_CC0_pf0I1I )
{
	data = (((	1.0	0.0	)
		(	0.0	1.0	))
		((	0.0	1.0	)
		(	0.0	1.0	)));
}
potential ( guess_colorIg2pp3pc3I | or_guess_colorIg2pp3pc2I_guess_colorIg2pp3pc5I_CC1_CC0 )
{
	data = ((	0.75	0.25	)
		(	1.0	0.0	));
}
potential ( or_guess_colorIg8pp1pc4I_guess_colorIg8pp1pc6I_CC1_CC0 | or_guess_colorIg8pp1pc3I_guess_colorIg8pp1pc4I_CC1_CC0 guess_colorIg8pp1pc4I )
{
	data = (((	1.0	0.0	)
		(	0.0	1.0	))
		((	0.0	1.0	)
		(	0.0	1.0	)));
}
potential ( or_guess_colorIg6pp1pc2I_guess_colorIg6pp1pc5I_CC1_CC0 | guess_colorIg6pp1pc1I guess_colorIg6pp1pc2I )
{
	data = (((	1.0	0.0	)
		(	0.0	1.0	))
		((	0.0	1.0	)
		(	0.0	1.0	)));
}
potential ( or_matchIg3pp1pp3I_CC1_CC0_pf0I2I_matchIg3pp1pp3I_CC1_CC0 | or_matchIg3pp1pp3I_CC1_CC0_pf0I1I_matchIg3pp1pp3I_CC1_CC0 matchIg3pp1pp3I_CC1_CC0_pf0I2I )
{
	data = (((	1.0	0.0	)
		(	0.0	1.0	))
		((	0.0	1.0	)
		(	0.0	1.0	)));
}
potential ( or_makesblackIg7pp3pp2I_CC1_CC0_pf0I5I_makesblackIg7pp3pp2I_CC1_CC0 | or_makesblackIg7pp3pp2I_CC1_CC0_pf0I4I_makesblackIg7pp3pp2I_CC1_CC0 makesblackIg7pp3pp2I_CC1_CC0_pf0I5I )
{
	data = (((	1.0	0.0	)
		(	0.0	1.0	))
		((	0.0	1.0	)
		(	0.0	1.0	)));
}
potential ( or_makesblackIg2pp3pp3I_CC1_CC0_pf0I3I_makesblackIg2pp3pp3I_CC1_CC0 | or_makesblackIg2pp3pp3I_CC1_CC0_pf0I2I_makesblackIg2pp3pp3I_CC1_CC0 makesblackIg2pp3pp3I_CC1_CC0_pf0I3I )
{
	data = (((	1.0	0.0	)
		(	0.0	1.0	))
		((	0.0	1.0	)
		(	0.0	1.0	)));
}
potential ( matchIg3pp1pp2I_CC1_CC0_pf0I3I | true_colorIp2pc4I guess_colorIg3pp1pc4I )
{
	data = (((	1.0	0.0	)
		(	1.0	0.0	))
		((	1.0	0.0	)
		(	0.0	1.0	)));
}
potential ( or_matchIg1pp1pp2I_CC1_CC0_pf0I2I_matchIg1pp1pp2I_CC1_CC0 | or_matchIg1pp1pp2I_CC1_CC0_pf0I1I_matchIg1pp1pp2I_CC1_CC0 matchIg1pp1pp2I_CC1_CC0_pf0I2I )
{
	data = (((	1.0	0.0	)
		(	0.0	1.0	))
		((	0.0	1.0	)
		(	0.0	1.0	)));
}
potential ( matchIg7pp2pp3I_CC1_CC0_pf0I1I | true_colorIp3pc2I guess_colorIg7pp2pc2I )
{
	data = (((	1.0	0.0	)
		(	1.0	0.0	))
		((	1.0	0.0	)
		(	0.0	1.0	)));
}
potential ( or_makesblackIg7pp2pp2I_makesblackIg7pp2pp3I_CC1_CC1_CC2_CC0 | makesblackIg7pp2pp1I makesblackIg7pp2pp2I )
{
	data = (((	1.0	0.0	)
		(	0.0	1.0	))
		((	0.0	1.0	)
		(	0.0	1.0	)));
}
potential ( guess_colorIg8pp3pc6I | or_guess_colorIg8pp3pc5I_guess_colorIg8pp3pc6I_CC1_CC0 )
{
	data = ((	0.0	1.0	)
		(	1.0	0.0	));
}
potential ( or_true_colorIp1pc2I_true_colorIp1pc5I_CC1_CC0 | true_colorIp1pc1I true_colorIp1pc2I )
{
	data = (((	1.0	0.0	)
		(	0.0	1.0	))
		((	0.0	1.0	)
		(	0.0	1.0	)));
}
potential ( makeswhiteIg2pp3pp1I | makeswhiteIg2pp3pp1I_CC1 )
{
	data = ((	1.0	0.0	)
		(	0.0	1.0	));
}
potential ( or_matchIg4pp3pp2I_CC1_CC0_pf0I4I_matchIg4pp3pp2I_CC1_CC0 | or_matchIg4pp3pp2I_CC1_CC0_pf0I3I_matchIg4pp3pp2I_CC1_CC0 matchIg4pp3pp2I_CC1_CC0_pf0I4I )
{
	data = (((	1.0	0.0	)
		(	0.0	1.0	))
		((	0.0	1.0	)
		(	0.0	1.0	)));
}
potential ( guess_colorIg1pp3pc3I | or_guess_colorIg1pp3pc2I_guess_colorIg1pp3pc5I_CC1_CC0 )
{
	data = ((	0.75	0.25	)
		(	1.0	0.0	));
}
potential ( or_matchIg3pp1pp3I_CC1_CC0_pf0I1I_matchIg3pp1pp3I_CC1_CC0 | matchIg3pp1pp3I_CC1_CC0_pf0I0I matchIg3pp1pp3I_CC1_CC0_pf0I1I )
{
	data = (((	1.0	0.0	)
		(	0.0	1.0	))
		((	0.0	1.0	)
		(	0.0	1.0	)));
}
potential ( or_matchIg1pp3pp3I_makeswhiteIg1pp2pp3I_CC1_CC0 | or_matchIg1pp3pp2I_makeswhiteIg1pp1pp3I_CC1_CC0 matchIg1pp3pp3I )
{
	data = (((	1.0	0.0	)
		(	0.0	1.0	))
		((	0.0	1.0	)
		(	0.0	1.0	)));
}
potential ( or_matchIg2pp2pp1I_CC1_CC0_pf0I4I_matchIg2pp2pp1I_CC1_CC0 | or_matchIg2pp2pp1I_CC1_CC0_pf0I3I_matchIg2pp2pp1I_CC1_CC0 matchIg2pp2pp1I_CC1_CC0_pf0I4I )
{
	data = (((	1.0	0.0	)
		(	0.0	1.0	))
		((	0.0	1.0	)
		(	0.0	1.0	)));
}
potential ( makesblackIg6pp3pp1I_CC1_CC0_pf0I3I | true_colorIp1pc4I guess_colorIg6pp1pc4I )
{
	data = (((	1.0	0.0	)
		(	1.0	0.0	))
		((	1.0	0.0	)
		(	0.0	1.0	)));
}
potential ( or_matchIg1pp1pp3I_CC1_CC0_pf0I2I_matchIg1pp1pp3I_CC1_CC0 | or_matchIg1pp1pp3I_CC1_CC0_pf0I1I_matchIg1pp1pp3I_CC1_CC0 matchIg1pp1pp3I_CC1_CC0_pf0I2I )
{
	data = (((	1.0	0.0	)
		(	0.0	1.0	))
		((	0.0	1.0	)
		(	0.0	1.0	)));
}
potential ( or_matchIg8pp1pp3I_CC1_CC0_pf0I3I_matchIg8pp1pp3I_CC1_CC0 | or_matchIg8pp1pp3I_CC1_CC0_pf0I2I_matchIg8pp1pp3I_CC1_CC0 matchIg8pp1pp3I_CC1_CC0_pf0I3I )
{
	data = (((	1.0	0.0	)
		(	0.0	1.0	))
		((	0.0	1.0	)
		(	0.0	1.0	)));
}
potential ( makesblackIg7pp2pp2I_CC1 | or_makesblackIg7pp3pp2I_CC1_CC0_pf0I5I_makesblackIg7pp3pp2I_CC1_CC0 makesblackIg7pp2pp2I_CC1_CC1 )
{
	data = (((	1.0	0.0	)
		(	1.0	0.0	))
		((	1.0	0.0	)
		(	0.0	1.0	)));
}
potential ( or_matchIg2pp2pp2I_makeswhiteIg2pp1pp2I_CC1_CC0 | matchIg2pp2pp1I matchIg2pp2pp2I )
{
	data = (((	1.0	0.0	)
		(	0.0	1.0	))
		((	0.0	1.0	)
		(	0.0	1.0	)));
}
potential ( makesblackIg8pp3pp3I_CC1_CC0_pf0I3I | true_colorIp3pc4I guess_colorIg8pp3pc4I )
{
	data = (((	1.0	0.0	)
		(	1.0	0.0	))
		((	1.0	0.0	)
		(	0.0	1.0	)));
}
potential ( or_matchIg6pp3pp2I_CC1_CC0_pf0I5I_matchIg6pp3pp2I_CC1_CC0 | or_matchIg6pp3pp2I_CC1_CC0_pf0I4I_matchIg6pp3pp2I_CC1_CC0 matchIg6pp3pp2I_CC1_CC0_pf0I5I )
{
	data = (((	1.0	0.0	)
		(	0.0	1.0	))
		((	0.0	1.0	)
		(	0.0	1.0	)));
}
potential ( makesblackIg1pp2pp3I_CC1 | or_makesblackIg1pp3pp3I_CC1_CC0_pf0I5I_makesblackIg1pp3pp3I_CC1_CC0 makesblackIg1pp2pp3I_CC1_CC1 )
{
	data = (((	1.0	0.0	)
		(	1.0	0.0	))
		((	1.0	0.0	)
		(	0.0	1.0	)));
}
potential ( matchIg7pp1pp2I_CC1_CC0_pf0I2I | true_colorIp2pc3I guess_colorIg7pp1pc3I )
{
	data = (((	1.0	0.0	)
		(	1.0	0.0	))
		((	1.0	0.0	)
		(	0.0	1.0	)));
}
potential ( or_makesblackIg4pp3pp2I_CC1_CC0_pf0I4I_makesblackIg4pp3pp2I_CC1_CC0 | or_makesblackIg4pp3pp2I_CC1_CC0_pf0I3I_makesblackIg4pp3pp2I_CC1_CC0 makesblackIg4pp3pp2I_CC1_CC0_pf0I4I )
{
	data = (((	1.0	0.0	)
		(	0.0	1.0	))
		((	0.0	1.0	)
		(	0.0	1.0	)));
}
potential ( matchIg1pp2pp1I_CC1_CC0_pf0I1I | true_colorIp1pc2I guess_colorIg1pp2pc2I )
{
	data = (((	1.0	0.0	)
		(	1.0	0.0	))
		((	1.0	0.0	)
		(	0.0	1.0	)));
}
potential ( makesblackIg7pp3pp2I_CC1_CC0_pf0I2I | true_colorIp2pc3I guess_colorIg7pp2pc3I )
{
	data = (((	1.0	0.0	)
		(	1.0	0.0	))
		((	1.0	0.0	)
		(	0.0	1.0	)));
}
potential ( matchIg5pp2pp2I | matchIg5pp2pp2I_CC1 )
{
	data = ((	1.0	0.0	)
		(	0.0	1.0	));
}
potential ( matchIg3pp1pp2I_CC1_CC0_pf0I5I | true_colorIp2pc6I guess_colorIg3pp1pc6I )
{
	data = (((	1.0	0.0	)
		(	1.0	0.0	))
		((	1.0	0.0	)
		(	0.0	1.0	)));
}
potential ( guess_colorIg3pp2pc3I | or_guess_colorIg3pp2pc2I_guess_colorIg3pp2pc6I_CC1_CC0 )
{
	data = ((	0.75	0.25	)
		(	1.0	0.0	));
}
potential ( or_true_colorIp2pc4I_true_colorIp2pc6I_CC1_CC0 | or_true_colorIp2pc3I_true_colorIp2pc4I_CC1_CC0 true_colorIp2pc4I )
{
	data = (((	1.0	0.0	)
		(	0.0	1.0	))
		((	0.0	1.0	)
		(	0.0	1.0	)));
}
potential ( matchIg3pp3pp2I_CC1_CC1 | or_matchIg3pp2pp2I_matchIg3pp3pp2I_CC1_CC1_CC0 matchIg3pp3pp1I )
{
	data = (((	0.0	1.0	)
		(	1.0	0.0	))
		((	1.0	0.0	)
		(	1.0	0.0	)));
}
potential ( matchIg7pp3pp1I_CC1_CC0_pf0I4I | true_colorIp1pc5I guess_colorIg7pp3pc5I )
{
	data = (((	1.0	0.0	)
		(	1.0	0.0	))
		((	1.0	0.0	)
		(	0.0	1.0	)));
}
potential ( makesblackIg6pp3pp1I_CC1_CC0_pf0I2I | true_colorIp1pc3I guess_colorIg6pp1pc3I )
{
	data = (((	1.0	0.0	)
		(	1.0	0.0	))
		((	1.0	0.0	)
		(	0.0	1.0	)));
}
potential ( matchIg3pp3pp1I_CC1_CC0_pf0I2I | true_colorIp1pc3I guess_colorIg3pp3pc3I )
{
	data = (((	1.0	0.0	)
		(	1.0	0.0	))
		((	1.0	0.0	)
		(	0.0	1.0	)));
}
potential ( matchIg3pp2pp3I_CC1 | or_matchIg3pp2pp3I_CC1_CC0_pf0I5I_matchIg3pp2pp3I_CC1_CC0 matchIg3pp2pp3I_CC1_CC1 )
{
	data = (((	1.0	0.0	)
		(	1.0	0.0	))
		((	1.0	0.0	)
		(	0.0	1.0	)));
}
potential ( matchIg6pp1pp2I_CC1_CC0_pf0I5I | true_colorIp2pc6I guess_colorIg6pp1pc6I )
{
	data = (((	1.0	0.0	)
		(	1.0	0.0	))
		((	1.0	0.0	)
		(	0.0	1.0	)));
}
potential ( makesblackIg6pp3pp3I_CC1_CC0_pf0I3I | true_colorIp3pc4I guess_colorIg6pp3pc4I )
{
	data = (((	1.0	0.0	)
		(	1.0	0.0	))
		((	1.0	0.0	)
		(	0.0	1.0	)));
}
potential ( matchIg6pp2pp1I_CC1_CC0_pf0I5I | true_colorIp1pc6I guess_colorIg6pp2pc6I )
{
	data = (((	1.0	0.0	)
		(	1.0	0.0	))
		((	1.0	0.0	)
		(	0.0	1.0	)));
}
potential ( or_makesblackIg1pp2pp2I_makesblackIg1pp2pp3I_CC1_CC1_CC2_CC0 | makesblackIg1pp2pp1I makesblackIg1pp2pp2I )
{
	data = (((	1.0	0.0	)
		(	0.0	1.0	))
		((	0.0	1.0	)
		(	0.0	1.0	)));
}
potential ( matchIg5pp3pp1I_CC1 | or_matchIg5pp3pp1I_CC1_CC0_pf0I5I_matchIg5pp3pp1I_CC1_CC0 or_matchIg5pp2pp1I_matchIg5pp3pp1I_CC1_CC1_CC0 )
{
	data = (((	1.0	0.0	)
		(	1.0	0.0	))
		((	0.0	1.0	)
		(	1.0	0.0	)));
}
potential ( makeswhiteIg5pp3pp2I | makeswhiteIg5pp3pp2I_CC1 )
{
	data = ((	1.0	0.0	)
		(	0.0	1.0	));
}
potential ( or_matchIg4pp2pp3I_CC1_CC0_pf0I4I_matchIg4pp2pp3I_CC1_CC0 | or_matchIg4pp2pp3I_CC1_CC0_pf0I3I_matchIg4pp2pp3I_CC1_CC0 matchIg4pp2pp3I_CC1_CC0_pf0I4I )
{
	data = (((	1.0	0.0	)
		(	0.0	1.0	))
		((	0.0	1.0	)
		(	0.0	1.0	)));
}
potential ( matchIg7pp2pp3I_CC1_CC0_pf0I0I | true_colorIp3pc1I guess_colorIg7pp2pc1I )
{
	data = (((	1.0	0.0	)
		(	1.0	0.0	))
		((	1.0	0.0	)
		(	0.0	1.0	)));
}
potential ( matchIg4pp1pp2I_CC1_CC0_pf0I0I | true_colorIp2pc1I guess_colorIg4pp1pc1I )
{
	data = (((	1.0	0.0	)
		(	1.0	0.0	))
		((	1.0	0.0	)
		(	0.0	1.0	)));
}
potential ( or_matchIg1pp3pp2I_CC1_CC0_pf0I3I_matchIg1pp3pp2I_CC1_CC0 | or_matchIg1pp3pp2I_CC1_CC0_pf0I2I_matchIg1pp3pp2I_CC1_CC0 matchIg1pp3pp2I_CC1_CC0_pf0I3I )
{
	data = (((	1.0	0.0	)
		(	0.0	1.0	))
		((	0.0	1.0	)
		(	0.0	1.0	)));
}
potential ( or_matchIg6pp3pp3I_makeswhiteIg6pp2pp3I_CC1_CC0 | or_matchIg6pp3pp2I_makeswhiteIg6pp1pp3I_CC1_CC0 matchIg6pp3pp3I )
{
	data = (((	1.0	0.0	)
		(	0.0	1.0	))
		((	0.0	1.0	)
		(	0.0	1.0	)));
}
potential ( or_makesblackIg3pp3pp3I_CC1_CC0_pf0I4I_makesblackIg3pp3pp3I_CC1_CC0 | or_makesblackIg3pp3pp3I_CC1_CC0_pf0I3I_makesblackIg3pp3pp3I_CC1_CC0 makesblackIg3pp3pp3I_CC1_CC0_pf0I4I )
{
	data = (((	1.0	0.0	)
		(	0.0	1.0	))
		((	0.0	1.0	)
		(	0.0	1.0	)));
}
potential ( or_matchIg4pp2pp3I_CC1_CC0_pf0I1I_matchIg4pp2pp3I_CC1_CC0 | matchIg4pp2pp3I_CC1_CC0_pf0I0I matchIg4pp2pp3I_CC1_CC0_pf0I1I )
{
	data = (((	1.0	0.0	)
		(	0.0	1.0	))
		((	0.0	1.0	)
		(	0.0	1.0	)));
}
potential ( or_makesblackIg4pp3pp1I_CC1_CC0_pf0I2I_makesblackIg4pp3pp1I_CC1_CC0 | or_makesblackIg4pp3pp1I_CC1_CC0_pf0I1I_makesblackIg4pp3pp1I_CC1_CC0 makesblackIg4pp3pp1I_CC1_CC0_pf0I2I )
{
	data = (((	1.0	0.0	)
		(	0.0	1.0	))
		((	0.0	1.0	)
		(	0.0	1.0	)));
}
potential ( matchIg3pp3pp3I | matchIg3pp3pp3I_CC1 )
{
	data = ((	1.0	0.0	)
		(	0.0	1.0	));
}
potential ( or_makesblackIg2pp3pp1I_CC1_CC0_pf0I1I_makesblackIg2pp3pp1I_CC1_CC0 | makesblackIg2pp3pp1I_CC1_CC0_pf0I0I makesblackIg2pp3pp1I_CC1_CC0_pf0I1I )
{
	data = (((	1.0	0.0	)
		(	0.0	1.0	))
		((	0.0	1.0	)
		(	0.0	1.0	)));
}
potential ( or_makesblackIg2pp3pp1I_CC1_CC0_pf0I2I_makesblackIg2pp3pp1I_CC1_CC0 | or_makesblackIg2pp3pp1I_CC1_CC0_pf0I1I_makesblackIg2pp3pp1I_CC1_CC0 makesblackIg2pp3pp1I_CC1_CC0_pf0I2I )
{
	data = (((	1.0	0.0	)
		(	0.0	1.0	))
		((	0.0	1.0	)
		(	0.0	1.0	)));
}
potential ( or_matchIg5pp1pp2I_CC1_CC0_pf0I5I_matchIg5pp1pp2I_CC1_CC0 | or_matchIg5pp1pp2I_CC1_CC0_pf0I4I_matchIg5pp1pp2I_CC1_CC0 matchIg5pp1pp2I_CC1_CC0_pf0I5I )
{
	data = (((	1.0	0.0	)
		(	0.0	1.0	))
		((	0.0	1.0	)
		(	0.0	1.0	)));
}
potential ( or_matchIg6pp2pp1I_CC1_CC0_pf0I1I_matchIg6pp2pp1I_CC1_CC0 | matchIg6pp2pp1I_CC1_CC0_pf0I0I matchIg6pp2pp1I_CC1_CC0_pf0I1I )
{
	data = (((	1.0	0.0	)
		(	0.0	1.0	))
		((	0.0	1.0	)
		(	0.0	1.0	)));
}
potential ( or_makesblackIg6pp3pp1I_CC1_CC0_pf0I5I_makesblackIg6pp3pp1I_CC1_CC0 | or_makesblackIg6pp3pp1I_CC1_CC0_pf0I4I_makesblackIg6pp3pp1I_CC1_CC0 makesblackIg6pp3pp1I_CC1_CC0_pf0I5I )
{
	data = (((	1.0	0.0	)
		(	0.0	1.0	))
		((	0.0	1.0	)
		(	0.0	1.0	)));
}
potential ( makesblackIg4pp2pp1I_CC1 | or_makesblackIg4pp3pp1I_CC1_CC0_pf0I5I_makesblackIg4pp3pp1I_CC1_CC0 makesblackIg4pp1pp1I )
{
	data = (((	1.0	0.0	)
		(	1.0	0.0	))
		((	0.0	1.0	)
		(	1.0	0.0	)));
}
potential ( guess_colorIg1pp2pc3I | or_guess_colorIg1pp2pc2I_guess_colorIg1pp2pc6I_CC1_CC0 )
{
	data = ((	0.75	0.25	)
		(	1.0	0.0	));
}
potential ( matchIg7pp3pp1I_CC1_CC0_pf0I5I | true_colorIp1pc6I guess_colorIg7pp3pc6I )
{
	data = (((	1.0	0.0	)
		(	1.0	0.0	))
		((	1.0	0.0	)
		(	0.0	1.0	)));
}
potential ( matchIg6pp2pp3I_CC1_CC0_pf0I5I | true_colorIp3pc6I guess_colorIg6pp2pc6I )
{
	data = (((	1.0	0.0	)
		(	1.0	0.0	))
		((	1.0	0.0	)
		(	0.0	1.0	)));
}
potential ( or_guess_colorIg2pp3pc5I_guess_colorIg2pp3pc6I_CC1_CC0 | or_guess_colorIg2pp3pc4I_guess_colorIg2pp3pc6I_CC1_CC0 guess_colorIg2pp3pc5I )
{
	data = (((	1.0	0.0	)
		(	0.0	1.0	))
		((	0.0	1.0	)
		(	0.0	1.0	)));
}
potential ( or_matchIg7pp2pp1I_CC1_CC0_pf0I4I_matchIg7pp2pp1I_CC1_CC0 | or_matchIg7pp2pp1I_CC1_CC0_pf0I3I_matchIg7pp2pp1I_CC1_CC0 matchIg7pp2pp1I_CC1_CC0_pf0I4I )
{
	data = (((	1.0	0.0	)
		(	0.0	1.0	))
		((	0.0	1.0	)
		(	0.0	1.0	)));
}
potential ( or_matchIg5pp3pp2I_CC1_CC0_pf0I4I_matchIg5pp3pp2I_CC1_CC0 | or_matchIg5pp3pp2I_CC1_CC0_pf0I3I_matchIg5pp3pp2I_CC1_CC0 matchIg5pp3pp2I_CC1_CC0_pf0I4I )
{
	data = (((	1.0	0.0	)
		(	0.0	1.0	))
		((	0.0	1.0	)
		(	0.0	1.0	)));
}
potential ( makesblackIg1pp3pp2I | makesblackIg1pp3pp2I_CC1 )
{
	data = ((	1.0	0.0	)
		(	0.0	1.0	));
}
potential ( guess_colorIg5pp2pc3I | or_guess_colorIg5pp2pc2I_guess_colorIg5pp2pc6I_CC1_CC0 )
{
	data = ((	0.75	0.25	)
		(	1.0	0.0	));
}
potential ( makeswhiteIg7pp3pp2I_CC1_CC1 | or_makeswhiteIg7pp2pp2I_makeswhiteIg7pp3pp2I_CC1_CC1_CC0 makeswhiteIg7pp3pp1I )
{
	data = (((	0.0	1.0	)
		(	1.0	0.0	))
		((	1.0	0.0	)
		(	1.0	0.0	)));
}
potential ( or_makesblackIg5pp3pp2I_makesblackIg5pp3pp3I_CC1_CC1_CC2_CC0 | makesblackIg5pp3pp1I makesblackIg5pp3pp2I )
{
	data = (((	1.0	0.0	)
		(	0.0	1.0	))
		((	0.0	1.0	)
		(	0.0	1.0	)));
}
potential ( or_makesblackIg8pp3pp1I_CC1_CC0_pf0I1I_makesblackIg8pp3pp1I_CC1_CC0 | makesblackIg8pp3pp1I_CC1_CC0_pf0I0I makesblackIg8pp3pp1I_CC1_CC0_pf0I1I )
{
	data = (((	1.0	0.0	)
		(	0.0	1.0	))
		((	0.0	1.0	)
		(	0.0	1.0	)));
}
potential ( matchIg3pp2pp1I_CC1_CC0_pf0I1I | true_colorIp1pc2I guess_colorIg3pp2pc2I )
{
	data = (((	1.0	0.0	)
		(	1.0	0.0	))
		((	1.0	0.0	)
		(	0.0	1.0	)));
}
potential ( or_matchIg5pp2pp1I_matchIg5pp3pp1I_CC1_CC1_CC0 | matchIg5pp1pp1I matchIg5pp2pp1I )
{
	data = (((	1.0	0.0	)
		(	0.0	1.0	))
		((	0.0	1.0	)
		(	0.0	1.0	)));
}
potential ( makesblackIg8pp3pp3I_CC1_CC0_pf0I0I | true_colorIp3pc1I guess_colorIg8pp3pc1I )
{
	data = (((	1.0	0.0	)
		(	1.0	0.0	))
		((	1.0	0.0	)
		(	0.0	1.0	)));
}
potential ( matchIg7pp1pp3I_CC1_CC0_pf0I4I | true_colorIp3pc5I guess_colorIg7pp1pc5I )
{
	data = (((	1.0	0.0	)
		(	1.0	0.0	))
		((	1.0	0.0	)
		(	0.0	1.0	)));
}
potential ( makesblackIg3pp3pp1I_CC1_CC0_pf0I1I | true_colorIp1pc2I guess_colorIg3pp1pc2I )
{
	data = (((	1.0	0.0	)
		(	1.0	0.0	))
		((	1.0	0.0	)
		(	0.0	1.0	)));
}
potential ( makeswhiteIg2pp2pp2I_CC1 | or_matchIg2pp2pp3I_makeswhiteIg2pp1pp2I_CC1_CC0 makeswhiteIg2pp2pp2I_CC1_CC1 )
{
	data = (((	1.0	0.0	)
		(	1.0	0.0	))
		((	1.0	0.0	)
		(	0.0	1.0	)));
}
potential ( matchIg4pp3pp2I_CC1_CC0_pf0I4I | true_colorIp2pc5I guess_colorIg4pp3pc5I )
{
	data = (((	1.0	0.0	)
		(	1.0	0.0	))
		((	1.0	0.0	)
		(	0.0	1.0	)));
}
potential ( matchIg4pp3pp1I_CC1_CC0_pf0I5I | true_colorIp1pc6I guess_colorIg4pp3pc6I )
{
	data = (((	1.0	0.0	)
		(	1.0	0.0	))
		((	1.0	0.0	)
		(	0.0	1.0	)));
}
potential ( matchIg7pp2pp3I_CC1_CC0_pf0I5I | true_colorIp3pc6I guess_colorIg7pp2pc6I )
{
	data = (((	1.0	0.0	)
		(	1.0	0.0	))
		((	1.0	0.0	)
		(	0.0	1.0	)));
}
potential ( or_matchIg7pp3pp1I_CC1_CC0_pf0I1I_matchIg7pp3pp1I_CC1_CC0 | matchIg7pp3pp1I_CC1_CC0_pf0I0I matchIg7pp3pp1I_CC1_CC0_pf0I1I )
{
	data = (((	1.0	0.0	)
		(	0.0	1.0	))
		((	0.0	1.0	)
		(	0.0	1.0	)));
}
potential ( guess_colorIg1pp3pc6I | or_guess_colorIg1pp3pc5I_guess_colorIg1pp3pc6I_CC1_CC0 )
{
	data = ((	0.0	1.0	)
		(	1.0	0.0	));
}
potential ( guess_colorIg1pp1pc1I | )
{
	data = (	0.8333333333333334	0.16666666666666666	);
}
potential ( makesblackIg1pp2pp2I | makesblackIg1pp2pp2I_CC1 )
{
	data = ((	1.0	0.0	)
		(	0.0	1.0	));
}
potential ( guess_colorIg7pp2pc6I | or_guess_colorIg7pp2pc5I_guess_colorIg7pp2pc6I_CC1_CC0 )
{
	data = ((	0.0	1.0	)
		(	1.0	0.0	));
}
potential ( or_matchIg6pp1pp2I_CC1_CC0_pf0I1I_matchIg6pp1pp2I_CC1_CC0 | matchIg6pp1pp2I_CC1_CC0_pf0I0I matchIg6pp1pp2I_CC1_CC0_pf0I1I )
{
	data = (((	1.0	0.0	)
		(	0.0	1.0	))
		((	0.0	1.0	)
		(	0.0	1.0	)));
}
potential ( or_matchIg8pp3pp1I_CC1_CC0_pf0I2I_matchIg8pp3pp1I_CC1_CC0 | or_matchIg8pp3pp1I_CC1_CC0_pf0I1I_matchIg8pp3pp1I_CC1_CC0 matchIg8pp3pp1I_CC1_CC0_pf0I2I )
{
	data = (((	1.0	0.0	)
		(	0.0	1.0	))
		((	0.0	1.0	)
		(	0.0	1.0	)));
}
potential ( makesblackIg5pp3pp1I_CC1_CC0_pf0I5I | true_colorIp1pc6I guess_colorIg5pp1pc6I )
{
	data = (((	1.0	0.0	)
		(	1.0	0.0	))
		((	1.0	0.0	)
		(	0.0	1.0	)));
}
potential ( or_matchIg5pp1pp2I_makeswhiteIg5pp2pp1I_CC1_CC0 | matchIg5pp1pp1I matchIg5pp1pp2I )
{
	data = (((	1.0	0.0	)
		(	0.0	1.0	))
		((	0.0	1.0	)
		(	0.0	1.0	)));
}
potential ( matchIg6pp1pp2I_CC1 | or_matchIg6pp1pp2I_CC1_CC0_pf0I5I_matchIg6pp1pp2I_CC1_CC0 matchIg6pp1pp1I )
{
	data = (((	1.0	0.0	)
		(	1.0	0.0	))
		((	0.0	1.0	)
		(	1.0	0.0	)));
}
potential ( makesblackIg2pp3pp1I_CC1_CC0_pf0I2I | true_colorIp1pc3I guess_colorIg2pp1pc3I )
{
	data = (((	1.0	0.0	)
		(	1.0	0.0	))
		((	1.0	0.0	)
		(	0.0	1.0	)));
}
potential ( guess_colorIg5pp1pc1I | )
{
	data = (	0.8333333333333334	0.16666666666666666	);
}
potential ( whiteIg8pp3I | makeswhiteIg8pp3pp3I )
{
	data = ((	1.0	0.0	)
		(	0.0	1.0	));
}
potential ( or_matchIg6pp2pp3I_matchIg6pp3pp3I_CC1_CC1_CC0 | matchIg6pp1pp3I matchIg6pp2pp3I )
{
	data = (((	1.0	0.0	)
		(	0.0	1.0	))
		((	0.0	1.0	)
		(	0.0	1.0	)));
}
potential ( or_matchIg4pp3pp2I_CC1_CC0_pf0I3I_matchIg4pp3pp2I_CC1_CC0 | or_matchIg4pp3pp2I_CC1_CC0_pf0I2I_matchIg4pp3pp2I_CC1_CC0 matchIg4pp3pp2I_CC1_CC0_pf0I3I )
{
	data = (((	1.0	0.0	)
		(	0.0	1.0	))
		((	0.0	1.0	)
		(	0.0	1.0	)));
}
potential ( matchIg4pp1pp2I | matchIg4pp1pp2I_CC1 )
{
	data = ((	1.0	0.0	)
		(	0.0	1.0	));
}
potential ( matchIg8pp3pp2I_CC1_CC0_pf0I0I | true_colorIp2pc1I guess_colorIg8pp3pc1I )
{
	data = (((	1.0	0.0	)
		(	1.0	0.0	))
		((	1.0	0.0	)
		(	0.0	1.0	)));
}
potential ( matchIg5pp3pp3I | matchIg5pp3pp3I_CC1 )
{
	data = ((	1.0	0.0	)
		(	0.0	1.0	));
}
potential ( guess_colorIg1pp2pc5I | or_guess_colorIg1pp2pc4I_guess_colorIg1pp2pc6I_CC1_CC0 )
{
	data = ((	0.5	0.5	)
		(	1.0	0.0	));
}
potential ( or_guess_colorIg1pp3pc3I_guess_colorIg1pp3pc4I_CC1_CC0 | or_guess_colorIg1pp3pc2I_guess_colorIg1pp3pc5I_CC1_CC0 guess_colorIg1pp3pc3I )
{
	data = (((	1.0	0.0	)
		(	0.0	1.0	))
		((	0.0	1.0	)
		(	0.0	1.0	)));
}
potential ( makesblackIg8pp2pp2I_CC1 | or_makesblackIg8pp3pp2I_CC1_CC0_pf0I5I_makesblackIg8pp3pp2I_CC1_CC0 makesblackIg8pp2pp2I_CC1_CC1 )
{
	data = (((	1.0	0.0	)
		(	1.0	0.0	))
		((	1.0	0.0	)
		(	0.0	1.0	)));
}
potential ( guess_colorIg6pp1pc6I | or_guess_colorIg6pp1pc5I_guess_colorIg6pp1pc6I_CC1_CC0 )
{
	data = ((	0.0	1.0	)
		(	1.0	0.0	));
}
potential ( makeswhiteIg1pp1pp2I | makeswhiteIg1pp1pp2I_CC1 )
{
	data = ((	1.0	0.0	)
		(	0.0	1.0	));
}
potential ( matchIg2pp2pp2I_CC1 | or_makesblackIg2pp3pp2I_CC1_CC0_pf0I5I_makesblackIg2pp3pp2I_CC1_CC0 matchIg2pp2pp2I_CC1_CC1 )
{
	data = (((	1.0	0.0	)
		(	1.0	0.0	))
		((	1.0	0.0	)
		(	0.0	1.0	)));
}
potential ( or_matchIg6pp3pp2I_CC1_CC0_pf0I2I_matchIg6pp3pp2I_CC1_CC0 | or_matchIg6pp3pp2I_CC1_CC0_pf0I1I_matchIg6pp3pp2I_CC1_CC0 matchIg6pp3pp2I_CC1_CC0_pf0I2I )
{
	data = (((	1.0	0.0	)
		(	0.0	1.0	))
		((	0.0	1.0	)
		(	0.0	1.0	)));
}
potential ( or_makesblackIg8pp3pp3I_CC1_CC0_pf0I4I_makesblackIg8pp3pp3I_CC1_CC0 | or_makesblackIg8pp3pp3I_CC1_CC0_pf0I3I_makesblackIg8pp3pp3I_CC1_CC0 makesblackIg8pp3pp3I_CC1_CC0_pf0I4I )
{
	data = (((	1.0	0.0	)
		(	0.0	1.0	))
		((	0.0	1.0	)
		(	0.0	1.0	)));
}
potential ( makeswhiteIg2pp3pp2I_CC1 | or_matchIg2pp2pp3I_makeswhiteIg2pp1pp2I_CC1_CC0 makeswhiteIg2pp3pp2I_CC1_CC1 )
{
	data = (((	1.0	0.0	)
		(	1.0	0.0	))
		((	1.0	0.0	)
		(	0.0	1.0	)));
}
potential ( guess_colorIg8pp3pc1I | )
{
	data = (	0.8333333333333334	0.16666666666666666	);
}
potential ( or_matchIg1pp3pp1I_CC1_CC0_pf0I5I_matchIg1pp3pp1I_CC1_CC0 | or_matchIg1pp3pp1I_CC1_CC0_pf0I4I_matchIg1pp3pp1I_CC1_CC0 matchIg1pp3pp1I_CC1_CC0_pf0I5I )
{
	data = (((	1.0	0.0	)
		(	0.0	1.0	))
		((	0.0	1.0	)
		(	0.0	1.0	)));
}
potential ( makesblackIg6pp3pp3I_CC1_CC0_pf0I0I | true_colorIp3pc1I guess_colorIg6pp3pc1I )
{
	data = (((	1.0	0.0	)
		(	1.0	0.0	))
		((	1.0	0.0	)
		(	0.0	1.0	)));
}
potential ( or_true_colorIp2pc5I_true_colorIp2pc6I_CC1_CC0 | or_true_colorIp2pc4I_true_colorIp2pc6I_CC1_CC0 true_colorIp2pc5I )
{
	data = (((	1.0	0.0	)
		(	0.0	1.0	))
		((	0.0	1.0	)
		(	0.0	1.0	)));
}
potential ( matchIg2pp2pp2I_CC1_CC1 | matchIg2pp1pp2I matchIg2pp2pp1I )
{
	data = (((	0.0	1.0	)
		(	1.0	0.0	))
		((	1.0	0.0	)
		(	1.0	0.0	)));
}
potential ( matchIg7pp2pp3I_CC1_CC0_pf0I4I | true_colorIp3pc5I guess_colorIg7pp2pc5I )
{
	data = (((	1.0	0.0	)
		(	1.0	0.0	))
		((	1.0	0.0	)
		(	0.0	1.0	)));
}
potential ( makesblackIg7pp3pp2I_CC1_CC0_pf0I0I | true_colorIp2pc1I guess_colorIg7pp2pc1I )
{
	data = (((	1.0	0.0	)
		(	1.0	0.0	))
		((	1.0	0.0	)
		(	0.0	1.0	)));
}
potential ( or_guess_colorIg4pp1pc4I_guess_colorIg4pp1pc6I_CC1_CC0 | or_guess_colorIg4pp1pc3I_guess_colorIg4pp1pc4I_CC1_CC0 guess_colorIg4pp1pc4I )
{
	data = (((	1.0	0.0	)
		(	0.0	1.0	))
		((	0.0	1.0	)
		(	0.0	1.0	)));
}
potential ( makeswhiteIg2pp1pp2I_CC1 | or_matchIg2pp2pp3I_makeswhiteIg2pp1pp2I_CC1_CC0 makeswhiteIg2pp1pp1I )
{
	data = (((	1.0	0.0	)
		(	1.0	0.0	))
		((	0.0	1.0	)
		(	1.0	0.0	)));
}
potential ( or_guess_colorIg8pp3pc3I_guess_colorIg8pp3pc4I_CC1_CC0 | or_guess_colorIg8pp3pc2I_guess_colorIg8pp3pc5I_CC1_CC0 guess_colorIg8pp3pc3I )
{
	data = (((	1.0	0.0	)
		(	0.0	1.0	))
		((	0.0	1.0	)
		(	0.0	1.0	)));
}
potential ( or_matchIg8pp2pp2I_matchIg8pp3pp2I_CC1_CC1_CC0 | matchIg8pp1pp2I matchIg8pp2pp2I )
{
	data = (((	1.0	0.0	)
		(	0.0	1.0	))
		((	0.0	1.0	)
		(	0.0	1.0	)));
}
potential ( or_makesblackIg2pp3pp1I_CC1_CC0_pf0I3I_makesblackIg2pp3pp1I_CC1_CC0 | or_makesblackIg2pp3pp1I_CC1_CC0_pf0I2I_makesblackIg2pp3pp1I_CC1_CC0 makesblackIg2pp3pp1I_CC1_CC0_pf0I3I )
{
	data = (((	1.0	0.0	)
		(	0.0	1.0	))
		((	0.0	1.0	)
		(	0.0	1.0	)));
}
potential ( makesblackIg1pp2pp2I_CC1 | or_makesblackIg1pp3pp2I_CC1_CC0_pf0I5I_makesblackIg1pp3pp2I_CC1_CC0 makesblackIg1pp2pp2I_CC1_CC1 )
{
	data = (((	1.0	0.0	)
		(	1.0	0.0	))
