net
{
}
node guess_colorIg8pp1pc1I
{
	states = ("false" "true" );
	position = (0 0);
	label = "guess_colorIg8pp1pc1I";
}
node true_colorIp3pc1I
{
	states = ("false" "true" );
	position = (40 -40);
	label = "true_colorIp3pc1I";
}
node guess_colorIg2pp4pc1I
{
	states = ("false" "true" );
	position = (130 -130);
	label = "guess_colorIg2pp4pc1I";
}
node guess_colorIg2pp1pc1I
{
	states = ("false" "true" );
	position = (220 -220);
	label = "guess_colorIg2pp1pc1I";
}
node guess_colorIg3pp3pc1I
{
	states = ("false" "true" );
	position = (310 -310);
	label = "guess_colorIg3pp3pc1I";
}
node true_colorIp4pc1I
{
	states = ("false" "true" );
	position = (400 -400);
	label = "true_colorIp4pc1I";
}
node guess_colorIg7pp2pc1I
{
	states = ("false" "true" );
	position = (640 -640);
	label = "guess_colorIg7pp2pc1I";
}
node true_colorIp2pc1I
{
	states = ("false" "true" );
	position = (780 -780);
	label = "true_colorIp2pc1I";
}
node guess_colorIg8pp3pc1I
{
	states = ("false" "true" );
	position = (1070 -1070);
	label = "guess_colorIg8pp3pc1I";
}
node guess_colorIg5pp1pc1I
{
	states = ("false" "true" );
	position = (1260 -1260);
	label = "guess_colorIg5pp1pc1I";
}
node guess_colorIg7pp3pc1I
{
	states = ("false" "true" );
	position = (1450 -1450);
	label = "guess_colorIg7pp3pc1I";
}
node true_colorIp5pc1I
{
	states = ("false" "true" );
	position = (1640 -1640);
	label = "true_colorIp5pc1I";
}
node guess_colorIg2pp5pc1I
{
	states = ("false" "true" );
	position = (2080 -2080);
	label = "guess_colorIg2pp5pc1I";
}
node guess_colorIg6pp1pc1I
{
	states = ("false" "true" );
	position = (2320 -2320);
	label = "guess_colorIg6pp1pc1I";
}
node guess_colorIg8pp2pc1I
{
	states = ("false" "true" );
	position = (2560 -2560);
	label = "guess_colorIg8pp2pc1I";
}
node guess_colorIg6pp4pc1I
{
	states = ("false" "true" );
	position = (2800 -2800);
	label = "guess_colorIg6pp4pc1I";
}
node guess_colorIg7pp5pc1I
{
	states = ("false" "true" );
	position = (3040 -3040);
	label = "guess_colorIg7pp5pc1I";
}
node guess_colorIg8pp5pc1I
{
	states = ("false" "true" );
	position = (3280 -3280);
	label = "guess_colorIg8pp5pc1I";
}
node guess_colorIg1pp5pc1I
{
	states = ("false" "true" );
	position = (3520 -3520);
	label = "guess_colorIg1pp5pc1I";
}
node guess_colorIg5pp3pc1I
{
	states = ("false" "true" );
	position = (3760 -3760);
	label = "guess_colorIg5pp3pc1I";
}
node true_colorIp1pc1I
{
	states = ("false" "true" );
	position = (4000 -4000);
	label = "true_colorIp1pc1I";
}
node guess_colorIg7pp1pc1I
{
	states = ("false" "true" );
	position = (7680 -7680);
	label = "guess_colorIg7pp1pc1I";
}
node guess_colorIg4pp1pc1I
{
	states = ("false" "true" );
	position = (9700 -9700);
	label = "guess_colorIg4pp1pc1I";
}
node guess_colorIg8pp4pc1I
{
	states = ("false" "true" );
	position = (10360 -10360);
	label = "guess_colorIg8pp4pc1I";
}
node guess_colorIg3pp2pc1I
{
	states = ("false" "true" );
	position = (12060 -12060);
	label = "guess_colorIg3pp2pc1I";
}
node guess_colorIg1pp3pc1I
{
	states = ("false" "true" );
	position = (12350 -12350);
	label = "guess_colorIg1pp3pc1I";
}
node guess_colorIg5pp4pc1I
{
	states = ("false" "true" );
	position = (12640 -12640);
	label = "guess_colorIg5pp4pc1I";
}
node guess_colorIg1pp4pc1I
{
	states = ("false" "true" );
	position = (12930 -12930);
	label = "guess_colorIg1pp4pc1I";
}
node guess_colorIg5pp5pc1I
{
	states = ("false" "true" );
	position = (13220 -13220);
	label = "guess_colorIg5pp5pc1I";
}
node guess_colorIg5pp2pc1I
{
	states = ("false" "true" );
	position = (13510 -13510);
	label = "guess_colorIg5pp2pc1I";
}
node guess_colorIg4pp4pc1I
{
	states = ("false" "true" );
	position = (16570 -16570);
	label = "guess_colorIg4pp4pc1I";
}
node guess_colorIg4pp2pc1I
{
	states = ("false" "true" );
	position = (16860 -16860);
	label = "guess_colorIg4pp2pc1I";
}
node guess_colorIg1pp1pc1I
{
	states = ("false" "true" );
	position = (17820 -17820);
	label = "guess_colorIg1pp1pc1I";
}
node guess_colorIg6pp3pc1I
{
	states = ("false" "true" );
	position = (18480 -18480);
	label = "guess_colorIg6pp3pc1I";
}
node guess_colorIg4pp5pc1I
{
	states = ("false" "true" );
	position = (18770 -18770);
	label = "guess_colorIg4pp5pc1I";
}
node guess_colorIg6pp5pc1I
{
	states = ("false" "true" );
	position = (19060 -19060);
	label = "guess_colorIg6pp5pc1I";
}
node guess_colorIg7pp4pc1I
{
	states = ("false" "true" );
	position = (19350 -19350);
	label = "guess_colorIg7pp4pc1I";
}
node guess_colorIg6pp2pc1I
{
	states = ("false" "true" );
	position = (21050 -21050);
	label = "guess_colorIg6pp2pc1I";
}
node guess_colorIg1pp2pc1I
{
	states = ("false" "true" );
	position = (24110 -24110);
	label = "guess_colorIg1pp2pc1I";
}
node guess_colorIg4pp3pc1I
{
	states = ("false" "true" );
	position = (27170 -27170);
	label = "guess_colorIg4pp3pc1I";
}
node guess_colorIg2pp2pc1I
{
	states = ("false" "true" );
	position = (29560 -29560);
	label = "guess_colorIg2pp2pc1I";
}
node guess_colorIg3pp4pc1I
{
	states = ("false" "true" );
	position = (30520 -30520);
	label = "guess_colorIg3pp4pc1I";
}
node guess_colorIg3pp5pc1I
{
	states = ("false" "true" );
	position = (30810 -30810);
	label = "guess_colorIg3pp5pc1I";
}
node guess_colorIg2pp3pc1I
{
	states = ("false" "true" );
	position = (31100 -31100);
	label = "guess_colorIg2pp3pc1I";
}
node guess_colorIg3pp1pc1I
{
	states = ("false" "true" );
	position = (33490 -33490);
	label = "guess_colorIg3pp1pc1I";
}
potential ( or_makeswhiteIg1pp3pp1I_makeswhiteIg1pp5pp1I_CC1_CC1_CC0 | or_makeswhiteIg1pp2pp1I_makeswhiteIg1pp4pp1I_CC1_CC1_CC0 makeswhiteIg1pp3pp1I )
{
	data = (((	1.0	0.0	)
		(	0.0	1.0	))
		((	0.0	1.0	)
		(	0.0	1.0	)));
}
potential ( matchIg3pp1pp3I_CC1_CC0_pf0I0I | true_colorIp3pc1I guess_colorIg3pp1pc1I )
{
	data = (((	1.0	0.0	)
		(	1.0	0.0	))
		((	1.0	0.0	)
		(	0.0	1.0	)));
}
potential ( matchIg4pp5pp4I_CC1_CC1 | or_matchIg4pp4pp4I_matchIg4pp5pp4I_CC1_CC1_CC0 or_matchIg4pp5pp3I_matchIg4pp5pp5I_CC1_CC1_CC2_CC0 )
{
	data = (((	0.0	1.0	)
		(	1.0	0.0	))
		((	1.0	0.0	)
		(	1.0	0.0	)));
}
potential ( or_makesblackIg4pp1pp2I_makesblackIg4pp1pp5I_CC1_CC1_CC2_CC0 | makesblackIg4pp1pp1I makesblackIg4pp1pp2I )
{
	data = (((	1.0	0.0	)
		(	0.0	1.0	))
		((	0.0	1.0	)
		(	0.0	1.0	)));
}
potential ( makesblackIg4pp4pp3I | makesblackIg4pp4pp3I_CC1 )
{
	data = ((	1.0	0.0	)
		(	0.0	1.0	));
}
potential ( matchIg5pp1pp5I_CC1_CC0_pf0I1I | true_colorIp5pc2I guess_colorIg5pp1pc2I )
{
	data = (((	1.0	0.0	)
		(	1.0	0.0	))
		((	1.0	0.0	)
		(	0.0	1.0	)));
}
potential ( makeswhiteIg8pp4pp4I_CC1 | or_matchIg8pp4pp5I_makeswhiteIg8pp5pp4I_CC1_CC0 makeswhiteIg8pp4pp4I_CC1_CC1 )
{
	data = (((	1.0	0.0	)
		(	1.0	0.0	))
		((	1.0	0.0	)
		(	0.0	1.0	)));
}
potential ( or_makesblackIg3pp4pp2I_makesblackIg3pp4pp4I_CC1_CC1_CC2_CC0 | makesblackIg3pp4pp1I makesblackIg3pp4pp2I )
{
	data = (((	1.0	0.0	)
		(	0.0	1.0	))
		((	0.0	1.0	)
		(	0.0	1.0	)));
}
potential ( makeswhiteIg4pp3pp2I | makeswhiteIg4pp3pp2I_CC1 )
{
	data = ((	1.0	0.0	)
		(	0.0	1.0	));
}
potential ( or_makeswhiteIg6pp2pp3I_makeswhiteIg6pp5pp3I_CC1_CC1_CC0 | makeswhiteIg6pp1pp3I makeswhiteIg6pp2pp3I )
{
	data = (((	1.0	0.0	)
		(	0.0	1.0	))
		((	0.0	1.0	)
		(	0.0	1.0	)));
}
potential ( makeswhiteIg1pp5pp1I | makeswhiteIg1pp5pp1I_CC1 )
{
	data = ((	1.0	0.0	)
		(	0.0	1.0	));
}
potential ( makesblackIg1pp5pp5I | makesblackIg1pp5pp5I_CC1 )
{
	data = ((	1.0	0.0	)
		(	0.0	1.0	));
}
potential ( or_matchIg6pp3pp5I_CC1_CC0_pf0I2I_matchIg6pp3pp5I_CC1_CC0 | or_matchIg6pp3pp5I_CC1_CC0_pf0I1I_matchIg6pp3pp5I_CC1_CC0 matchIg6pp3pp5I_CC1_CC0_pf0I2I )
{
	data = (((	1.0	0.0	)
		(	0.0	1.0	))
		((	0.0	1.0	)
		(	0.0	1.0	)));
}
potential ( or_matchIg6pp2pp5I_makeswhiteIg6pp3pp2I_CC1_CC0 | or_matchIg6pp2pp4I_makeswhiteIg6pp3pp2I_CC1_CC0 matchIg6pp2pp5I )
{
	data = (((	1.0	0.0	)
		(	0.0	1.0	))
		((	0.0	1.0	)
		(	0.0	1.0	)));
}
potential ( makesblackIg2pp3pp5I_CC1_CC1 | or_makesblackIg2pp2pp5I_makesblackIg2pp4pp5I_CC1_CC1_CC0 or_makesblackIg2pp3pp4I_makesblackIg2pp3pp5I_CC1_CC1_CC2_CC0 )
{
	data = (((	0.0	1.0	)
		(	1.0	0.0	))
		((	1.0	0.0	)
		(	1.0	0.0	)));
}
potential ( matchIg4pp5pp2I_CC1_CC0_pf0I1I | true_colorIp2pc2I guess_colorIg4pp5pc2I )
{
	data = (((	1.0	0.0	)
		(	1.0	0.0	))
		((	1.0	0.0	)
		(	0.0	1.0	)));
}
potential ( or_makeswhiteIg1pp3pp4I_makeswhiteIg1pp3pp5I_CC1_CC1_CC2_CC0 | or_makeswhiteIg1pp3pp3I_makeswhiteIg1pp3pp5I_CC1_CC1_CC2_CC0 makeswhiteIg1pp3pp4I )
{
	data = (((	1.0	0.0	)
		(	0.0	1.0	))
		((	0.0	1.0	)
		(	0.0	1.0	)));
}
potential ( or_matchIg8pp3pp5I_matchIg8pp5pp5I_CC1_CC1_CC0 | or_matchIg8pp2pp5I_matchIg8pp5pp5I_CC1_CC1_CC0 matchIg8pp3pp5I )
{
	data = (((	1.0	0.0	)
		(	0.0	1.0	))
		((	0.0	1.0	)
		(	0.0	1.0	)));
}
potential ( matchIg6pp5pp3I_CC1_CC0_pf0I1I | true_colorIp3pc2I guess_colorIg6pp5pc2I )
{
	data = (((	1.0	0.0	)
		(	1.0	0.0	))
		((	1.0	0.0	)
		(	0.0	1.0	)));
}
potential ( guess_colorIg7pp4pc1I | )
{
	data = (	0.6666666666666667	0.3333333333333333	);
}
potential ( makesblackIg3pp5pp3I | makesblackIg3pp5pp3I_CC1 )
{
	data = ((	1.0	0.0	)
		(	0.0	1.0	));
}
potential ( matchIg4pp3pp3I | matchIg4pp3pp3I_CC1 )
{
	data = ((	1.0	0.0	)
		(	0.0	1.0	));
}
potential ( matchIg4pp1pp3I_CC1_CC0_pf0I1I | true_colorIp3pc2I guess_colorIg4pp1pc2I )
{
	data = (((	1.0	0.0	)
		(	1.0	0.0	))
		((	1.0	0.0	)
		(	0.0	1.0	)));
}
potential ( makesblackIg2pp4pp3I | makesblackIg2pp4pp3I_CC1 )
{
	data = ((	1.0	0.0	)
		(	0.0	1.0	));
}
potential ( makeswhiteIg8pp5pp5I | makeswhiteIg8pp5pp5I_CC1 )
{
	data = ((	1.0	0.0	)
		(	0.0	1.0	));
}
potential ( matchIg2pp1pp4I | matchIg2pp1pp4I_CC1 )
{
	data = ((	1.0	0.0	)
		(	0.0	1.0	));
}
potential ( or_matchIg3pp3pp4I_makeswhiteIg3pp5pp3I_CC1_CC0 | or_matchIg3pp3pp3I_makeswhiteIg3pp5pp3I_CC1_CC0 matchIg3pp3pp4I )
{
	data = (((	1.0	0.0	)
		(	0.0	1.0	))
		((	0.0	1.0	)
		(	0.0	1.0	)));
}
potential ( makesblackIg8pp3pp2I_CC1_CC1 | or_makesblackIg8pp2pp2I_makesblackIg8pp5pp2I_CC1_CC1_CC0 makesblackIg8pp3pp1I )
{
	data = (((	0.0	1.0	)
		(	1.0	0.0	))
		((	1.0	0.0	)
		(	1.0	0.0	)));
}
potential ( or_makeswhiteIg5pp4pp1I_makeswhiteIg5pp5pp1I_CC1_CC1_CC0 | or_makeswhiteIg5pp3pp1I_makeswhiteIg5pp5pp1I_CC1_CC1_CC0 makeswhiteIg5pp4pp1I )
{
	data = (((	1.0	0.0	)
		(	0.0	1.0	))
		((	0.0	1.0	)
		(	0.0	1.0	)));
}
potential ( makesblackIg7pp5pp2I_CC1_CC1 | or_makesblackIg7pp4pp2I_makesblackIg7pp5pp2I_CC1_CC1_CC0 makesblackIg7pp5pp1I )
{
	data = (((	0.0	1.0	)
		(	1.0	0.0	))
		((	1.0	0.0	)
		(	1.0	0.0	)));
}
potential ( or_makeswhiteIg4pp3pp2I_makeswhiteIg4pp3pp5I_CC1_CC1_CC2_CC0 | makeswhiteIg4pp3pp1I makeswhiteIg4pp3pp2I )
{
	data = (((	1.0	0.0	)
		(	0.0	1.0	))
		((	0.0	1.0	)
		(	0.0	1.0	)));
}
potential ( matchIg2pp1pp5I_CC1_CC0_pf0I0I | true_colorIp5pc1I guess_colorIg2pp1pc1I )
{
	data = (((	1.0	0.0	)
		(	1.0	0.0	))
		((	1.0	0.0	)
		(	0.0	1.0	)));
}
potential ( makesblackIg8pp3pp4I | makesblackIg8pp3pp4I_CC1 )
{
	data = ((	1.0	0.0	)
		(	0.0	1.0	));
}
potential ( makeswhiteIg6pp2pp1I_CC1 | or_matchIg6pp1pp5I_makeswhiteIg6pp5pp1I_CC1_CC0 makeswhiteIg6pp1pp1I )
{
	data = (((	1.0	0.0	)
		(	1.0	0.0	))
		((	0.0	1.0	)
		(	1.0	0.0	)));
}
potential ( guess_colorIg6pp1pc1I | )
{
	data = (	0.6666666666666667	0.3333333333333333	);
}
potential ( makesblackIg6pp5pp2I_CC1 | or_makesblackIg6pp5pp2I_CC1_CC0_pf0I2I_makesblackIg6pp5pp2I_CC1_CC0 makesblackIg6pp5pp2I_CC1_CC1 )
{
	data = (((	1.0	0.0	)
		(	1.0	0.0	))
		((	1.0	0.0	)
		(	0.0	1.0	)));
}
potential ( or_matchIg2pp5pp1I_CC1_CC0_pf0I2I_matchIg2pp5pp1I_CC1_CC0 | or_matchIg2pp5pp1I_CC1_CC0_pf0I1I_matchIg2pp5pp1I_CC1_CC0 matchIg2pp5pp1I_CC1_CC0_pf0I2I )
{
	data = (((	1.0	0.0	)
		(	0.0	1.0	))
		((	0.0	1.0	)
		(	0.0	1.0	)));
}
potential ( or_makesblackIg5pp1pp2I_makesblackIg5pp1pp5I_CC1_CC1_CC2_CC0 | makesblackIg5pp1pp1I makesblackIg5pp1pp2I )
{
	data = (((	1.0	0.0	)
		(	0.0	1.0	))
		((	0.0	1.0	)
		(	0.0	1.0	)));
}
potential ( makeswhiteIg7pp1pp2I | makeswhiteIg7pp1pp2I_CC1 )
{
	data = ((	1.0	0.0	)
		(	0.0	1.0	));
}
potential ( makesblackIg4pp2pp2I_CC1_CC1 | makesblackIg4pp1pp2I makesblackIg4pp2pp1I )
{
	data = (((	0.0	1.0	)
		(	1.0	0.0	))
		((	1.0	0.0	)
		(	1.0	0.0	)));
}
potential ( makeswhiteIg3pp2pp2I | makeswhiteIg3pp2pp2I_CC1 )
{
	data = ((	1.0	0.0	)
		(	0.0	1.0	));
}
potential ( makesblackIg8pp3pp5I | makesblackIg8pp3pp5I_CC1 )
{
	data = ((	1.0	0.0	)
		(	0.0	1.0	));
}
potential ( or_makesblackIg8pp5pp5I_CC1_CC0_pf0I2I_makesblackIg8pp5pp5I_CC1_CC0 | or_makesblackIg8pp5pp5I_CC1_CC0_pf0I1I_makesblackIg8pp5pp5I_CC1_CC0 makesblackIg8pp5pp5I_CC1_CC0_pf0I2I )
{
	data = (((	1.0	0.0	)
		(	0.0	1.0	))
		((	0.0	1.0	)
		(	0.0	1.0	)));
}
potential ( makesblackIg6pp4pp2I_CC1_CC1 | or_makesblackIg6pp3pp2I_makesblackIg6pp5pp2I_CC1_CC1_CC0 makesblackIg6pp4pp1I )
{
	data = (((	0.0	1.0	)
		(	1.0	0.0	))
		((	1.0	0.0	)
		(	1.0	0.0	)));
}
potential ( or_matchIg2pp3pp3I_matchIg2pp5pp3I_CC1_CC1_CC0 | or_matchIg2pp2pp3I_matchIg2pp5pp3I_CC1_CC1_CC0 matchIg2pp3pp3I )
{
	data = (((	1.0	0.0	)
		(	0.0	1.0	))
		((	0.0	1.0	)
		(	0.0	1.0	)));
}
potential ( makesblackIg8pp5pp3I_CC1_CC0_pf0I2I | true_colorIp3pc3I guess_colorIg8pp3pc3I )
{
	data = (((	1.0	0.0	)
		(	1.0	0.0	))
		((	1.0	0.0	)
		(	0.0	1.0	)));
}
potential ( or_makesblackIg2pp4pp5I_blackIg2pp4I_CC1 | makesblackIg2pp4pp4I makesblackIg2pp4pp5I )
{
	data = (((	1.0	0.0	)
		(	0.0	1.0	))
		((	0.0	1.0	)
		(	0.0	1.0	)));
}
potential ( makesblackIg1pp3pp4I_CC1_CC1 | or_makesblackIg1pp2pp4I_makesblackIg1pp5pp4I_CC1_CC1_CC0 or_makesblackIg1pp3pp3I_makesblackIg1pp3pp5I_CC1_CC1_CC2_CC0 )
{
	data = (((	0.0	1.0	)
		(	1.0	0.0	))
		((	1.0	0.0	)
		(	1.0	0.0	)));
}
potential ( makeswhiteIg3pp3pp4I_CC1 | or_matchIg3pp4pp5I_makeswhiteIg3pp5pp4I_CC1_CC0 makeswhiteIg3pp3pp4I_CC1_CC1 )
{
	data = (((	1.0	0.0	)
		(	1.0	0.0	))
		((	1.0	0.0	)
		(	0.0	1.0	)));
}
potential ( matchIg3pp5pp4I_CC1_CC1 | or_matchIg3pp4pp4I_matchIg3pp5pp4I_CC1_CC1_CC0 or_matchIg3pp5pp3I_matchIg3pp5pp5I_CC1_CC1_CC2_CC0 )
{
	data = (((	0.0	1.0	)
		(	1.0	0.0	))
		((	1.0	0.0	)
		(	1.0	0.0	)));
}
potential ( makeswhiteIg4pp2pp3I_CC1_CC1 | makeswhiteIg4pp1pp3I or_makeswhiteIg4pp2pp2I_makeswhiteIg4pp2pp3I_CC1_CC1_CC2_CC0 )
{
	data = (((	0.0	1.0	)
		(	1.0	0.0	))
		((	1.0	0.0	)
		(	1.0	0.0	)));
}
potential ( matchIg8pp5pp2I_CC1_CC0_pf0I1I | true_colorIp2pc2I guess_colorIg8pp5pc2I )
{
	data = (((	1.0	0.0	)
		(	1.0	0.0	))
		((	1.0	0.0	)
		(	0.0	1.0	)));
}
potential ( matchIg2pp3pp2I_CC1 | or_matchIg2pp3pp2I_CC1_CC0_pf0I2I_matchIg2pp3pp2I_CC1_CC0 matchIg2pp3pp2I_CC1_CC1 )
{
	data = (((	1.0	0.0	)
		(	1.0	0.0	))
		((	1.0	0.0	)
		(	0.0	1.0	)));
}
potential ( makeswhiteIg4pp3pp5I | makeswhiteIg4pp3pp5I_CC1 )
{
	data = ((	1.0	0.0	)
		(	0.0	1.0	));
}
potential ( or_matchIg5pp3pp4I_CC1_CC0_pf0I2I_matchIg5pp3pp4I_CC1_CC0 | or_matchIg5pp3pp4I_CC1_CC0_pf0I1I_matchIg5pp3pp4I_CC1_CC0 matchIg5pp3pp4I_CC1_CC0_pf0I2I )
{
	data = (((	1.0	0.0	)
		(	0.0	1.0	))
		((	0.0	1.0	)
		(	0.0	1.0	)));
}
potential ( or_matchIg1pp4pp3I_matchIg1pp5pp3I_CC1_CC1_CC0 | or_matchIg1pp3pp3I_matchIg1pp5pp3I_CC1_CC1_CC0 matchIg1pp4pp3I )
{
	data = (((	1.0	0.0	)
		(	0.0	1.0	))
		((	0.0	1.0	)
		(	0.0	1.0	)));
}
potential ( makesblackIg5pp2pp5I | makesblackIg5pp2pp5I_CC1 )
{
	data = ((	1.0	0.0	)
		(	0.0	1.0	));
}
potential ( matchIg8pp2pp3I | matchIg8pp2pp3I_CC1 )
{
	data = ((	1.0	0.0	)
		(	0.0	1.0	));
}
potential ( matchIg2pp5pp4I_CC1_CC0_pf0I2I | true_colorIp4pc3I guess_colorIg2pp5pc3I )
{
	data = (((	1.0	0.0	)
		(	1.0	0.0	))
		((	1.0	0.0	)
		(	0.0	1.0	)));
}
potential ( or_makeswhiteIg8pp2pp4I_makeswhiteIg8pp5pp4I_CC1_CC1_CC0 | makeswhiteIg8pp1pp4I makeswhiteIg8pp2pp4I )
{
	data = (((	1.0	0.0	)
		(	0.0	1.0	))
		((	0.0	1.0	)
		(	0.0	1.0	)));
}
potential ( makeswhiteIg8pp3pp3I | makeswhiteIg8pp3pp3I_CC1 )
{
	data = ((	1.0	0.0	)
		(	0.0	1.0	));
}
potential ( makesblackIg7pp1pp1I | or_makesblackIg7pp5pp1I_CC1_CC0_pf0I2I_makesblackIg7pp5pp1I_CC1_CC0 )
{
	data = ((	1.0	0.0	)
		(	0.0	1.0	));
}
potential ( makesblackIg4pp2pp3I_CC1_CC1 | makesblackIg4pp1pp3I or_makesblackIg4pp2pp2I_makesblackIg4pp2pp4I_CC1_CC1_CC2_CC0 )
{
	data = (((	0.0	1.0	)
		(	1.0	0.0	))
		((	1.0	0.0	)
		(	1.0	0.0	)));
}
potential ( matchIg7pp3pp2I_CC1_CC0_pf0I2I | true_colorIp2pc3I guess_colorIg7pp3pc3I )
{
	data = (((	1.0	0.0	)
		(	1.0	0.0	))
		((	1.0	0.0	)
		(	0.0	1.0	)));
}
potential ( matchIg2pp1pp3I_CC1_CC0_pf0I0I | true_colorIp3pc1I guess_colorIg2pp1pc1I )
{
	data = (((	1.0	0.0	)
		(	1.0	0.0	))
		((	1.0	0.0	)
		(	0.0	1.0	)));
}
potential ( or_makesblackIg7pp5pp5I_CC1_CC0_pf0I1I_makesblackIg7pp5pp5I_CC1_CC0 | makesblackIg7pp5pp5I_CC1_CC0_pf0I0I makesblackIg7pp5pp5I_CC1_CC0_pf0I1I )
{
	data = (((	1.0	0.0	)
		(	0.0	1.0	))
		((	0.0	1.0	)
		(	0.0	1.0	)));
}
potential ( matchIg4pp2pp4I_CC1_CC1 | matchIg4pp1pp4I or_matchIg4pp2pp3I_makeswhiteIg4pp3pp2I_CC1_CC0 )
{
	data = (((	0.0	1.0	)
		(	1.0	0.0	))
		((	1.0	0.0	)
		(	1.0	0.0	)));
}
potential ( makeswhiteIg4pp2pp1I_CC1 | or_matchIg4pp1pp5I_makeswhiteIg4pp5pp1I_CC1_CC0 makeswhiteIg4pp1pp1I )
{
	data = (((	1.0	0.0	)
		(	1.0	0.0	))
		((	0.0	1.0	)
		(	1.0	0.0	)));
}
potential ( guess_colorIg7pp3pc1I | )
{
	data = (	0.6666666666666667	0.3333333333333333	);
}
potential ( or_makesblackIg6pp1pp3I_blackIg6pp1I_CC1 | or_makesblackIg6pp1pp2I_makesblackIg6pp1pp5I_CC1_CC1_CC2_CC0 makesblackIg6pp1pp3I )
{
	data = (((	1.0	0.0	)
		(	0.0	1.0	))
		((	0.0	1.0	)
		(	0.0	1.0	)));
}
potential ( makesblackIg1pp1pp3I_CC1 | or_makesblackIg1pp5pp3I_CC1_CC0_pf0I2I_makesblackIg1pp5pp3I_CC1_CC0 or_makesblackIg1pp1pp2I_makesblackIg1pp1pp5I_CC1_CC1_CC2_CC0 )
{
	data = (((	1.0	0.0	)
		(	1.0	0.0	))
		((	0.0	1.0	)
		(	1.0	0.0	)));
}
potential ( makesblackIg1pp2pp5I_CC1_CC1 | makesblackIg1pp1pp5I or_makesblackIg1pp2pp4I_makesblackIg1pp2pp5I_CC1_CC1_CC2_CC0 )
{
	data = (((	0.0	1.0	)
		(	1.0	0.0	))
		((	1.0	0.0	)
		(	1.0	0.0	)));
}
potential ( makeswhiteIg6pp2pp2I_CC1_CC1 | makeswhiteIg6pp1pp2I makeswhiteIg6pp2pp1I )
{
	data = (((	0.0	1.0	)
		(	1.0	0.0	))
		((	1.0	0.0	)
		(	1.0	0.0	)));
}
potential ( or_makeswhiteIg6pp4pp1I_makeswhiteIg6pp5pp1I_CC1_CC1_CC0 | or_makeswhiteIg6pp3pp1I_makeswhiteIg6pp5pp1I_CC1_CC1_CC0 makeswhiteIg6pp4pp1I )
{
	data = (((	1.0	0.0	)
		(	0.0	1.0	))
		((	0.0	1.0	)
		(	0.0	1.0	)));
}
potential ( makesblackIg3pp4pp3I_CC1_CC1 | or_makesblackIg3pp3pp3I_makesblackIg3pp5pp3I_CC1_CC1_CC0 or_makesblackIg3pp4pp2I_makesblackIg3pp4pp4I_CC1_CC1_CC2_CC0 )
{
	data = (((	0.0	1.0	)
		(	1.0	0.0	))
		((	1.0	0.0	)
		(	1.0	0.0	)));
}
potential ( makesblackIg4pp2pp1I | makesblackIg4pp2pp1I_CC1 )
{
	data = ((	1.0	0.0	)
		(	0.0	1.0	));
}
potential ( makesblackIg5pp5pp5I_CC1_CC1 | or_makesblackIg5pp4pp5I_makesblackIg5pp5pp5I_CC1_CC1_CC0 or_makesblackIg5pp5pp4I_makesblackIg5pp5pp5I_CC1_CC1_CC2_CC0 )
{
	data = (((	0.0	1.0	)
		(	1.0	0.0	))
		((	1.0	0.0	)
		(	1.0	0.0	)));
}
potential ( matchIg6pp2pp1I_CC1_CC0_pf0I1I | true_colorIp1pc2I guess_colorIg6pp2pc2I )
{
	data = (((	1.0	0.0	)
		(	1.0	0.0	))
		((	1.0	0.0	)
		(	0.0	1.0	)));
}
potential ( makesblackIg2pp5pp2I_CC1_CC0_pf0I1I | true_colorIp2pc2I guess_colorIg2pp2pc2I )
{
	data = (((	1.0	0.0	)
		(	1.0	0.0	))
		((	1.0	0.0	)
		(	0.0	1.0	)));
}
potential ( matchIg4pp3pp5I_CC1_CC0_pf0I2I | true_colorIp5pc3I guess_colorIg4pp3pc3I )
{
	data = (((	1.0	0.0	)
		(	1.0	0.0	))
		((	1.0	0.0	)
		(	0.0	1.0	)));
}
potential ( or_makesblackIg7pp5pp2I_CC1_CC0_pf0I2I_makesblackIg7pp5pp2I_CC1_CC0 | or_makesblackIg7pp5pp2I_CC1_CC0_pf0I1I_makesblackIg7pp5pp2I_CC1_CC0 makesblackIg7pp5pp2I_CC1_CC0_pf0I2I )
{
	data = (((	1.0	0.0	)
		(	0.0	1.0	))
		((	0.0	1.0	)
		(	0.0	1.0	)));
}
potential ( matchIg1pp2pp4I_CC1_CC1 | matchIg1pp1pp4I or_matchIg1pp2pp3I_makeswhiteIg1pp3pp2I_CC1_CC0 )
{
	data = (((	0.0	1.0	)
		(	1.0	0.0	))
		((	1.0	0.0	)
		(	1.0	0.0	)));
}
potential ( makesblackIg4pp1pp5I_CC1 | or_makesblackIg4pp5pp5I_CC1_CC0_pf0I2I_makesblackIg4pp5pp5I_CC1_CC0 or_makesblackIg4pp1pp4I_blackIg4pp1I_CC1 )
{
	data = (((	1.0	0.0	)
		(	1.0	0.0	))
		((	0.0	1.0	)
		(	1.0	0.0	)));
}
potential ( or_guess_colorIg3pp2pc2I_guess_colorIg3pp2pc3I_CC1_CC0 | guess_colorIg3pp2pc1I guess_colorIg3pp2pc2I )
{
	data = (((	1.0	0.0	)
		(	0.0	1.0	))
		((	0.0	1.0	)
		(	0.0	1.0	)));
}
potential ( makesblackIg4pp3pp3I | makesblackIg4pp3pp3I_CC1 )
{
	data = ((	1.0	0.0	)
		(	0.0	1.0	));
}
potential ( makesblackIg3pp4pp2I | makesblackIg3pp4pp2I_CC1 )
{
	data = ((	1.0	0.0	)
		(	0.0	1.0	));
}
potential ( or_makesblackIg5pp4pp2I_makesblackIg5pp4pp4I_CC1_CC1_CC2_CC0 | makesblackIg5pp4pp1I makesblackIg5pp4pp2I )
{
	data = (((	1.0	0.0	)
		(	0.0	1.0	))
		((	0.0	1.0	)
		(	0.0	1.0	)));
}
potential ( makeswhiteIg3pp4pp1I_CC1 | or_matchIg3pp1pp5I_makeswhiteIg3pp5pp1I_CC1_CC0 or_makeswhiteIg3pp3pp1I_makeswhiteIg3pp5pp1I_CC1_CC1_CC0 )
{
	data = (((	1.0	0.0	)
		(	1.0	0.0	))
		((	0.0	1.0	)
		(	1.0	0.0	)));
}
potential ( makeswhiteIg2pp3pp2I_CC1_CC1 | or_makeswhiteIg2pp2pp2I_makeswhiteIg2pp5pp2I_CC1_CC1_CC0 makeswhiteIg2pp3pp1I )
{
	data = (((	0.0	1.0	)
		(	1.0	0.0	))
		((	1.0	0.0	)
		(	1.0	0.0	)));
}
potential ( makeswhiteIg1pp1pp2I_CC1 | or_matchIg1pp2pp5I_makeswhiteIg1pp3pp2I_CC1_CC0 makeswhiteIg1pp1pp1I )
{
	data = (((	1.0	0.0	)
		(	1.0	0.0	))
		((	0.0	1.0	)
		(	1.0	0.0	)));
}
potential ( guess_colorIg8pp1pc2I | guess_colorIg8pp1pc1I )
{
	data = ((	0.5	0.5	)
		(	1.0	0.0	));
}
potential ( makesblackIg3pp5pp1I_CC1_CC0_pf0I0I | true_colorIp1pc1I guess_colorIg3pp1pc1I )
{
	data = (((	1.0	0.0	)
		(	1.0	0.0	))
		((	1.0	0.0	)
		(	0.0	1.0	)));
}
potential ( matchIg2pp2pp4I_CC1_CC0_pf0I1I | true_colorIp4pc2I guess_colorIg2pp2pc2I )
{
	data = (((	1.0	0.0	)
		(	1.0	0.0	))
		((	1.0	0.0	)
		(	0.0	1.0	)));
}
potential ( or_makeswhiteIg4pp3pp4I_makeswhiteIg4pp5pp4I_CC1_CC1_CC0 | or_makeswhiteIg4pp2pp4I_makeswhiteIg4pp5pp4I_CC1_CC1_CC0 makeswhiteIg4pp3pp4I )
{
	data = (((	1.0	0.0	)
		(	0.0	1.0	))
		((	0.0	1.0	)
		(	0.0	1.0	)));
}
potential ( guess_colorIg3pp1pc3I | or_guess_colorIg3pp1pc2I_guess_colorIg3pp1pc3I_CC1_CC0 )
{
	data = ((	0.0	1.0	)
		(	1.0	0.0	));
}
potential ( or_guess_colorIg1pp1pc2I_guess_colorIg1pp1pc3I_CC1_CC0 | guess_colorIg1pp1pc1I guess_colorIg1pp1pc2I )
{
	data = (((	1.0	0.0	)
		(	0.0	1.0	))
		((	0.0	1.0	)
		(	0.0	1.0	)));
}
potential ( makeswhiteIg3pp5pp4I_CC1 | or_matchIg3pp4pp5I_makeswhiteIg3pp5pp4I_CC1_CC0 makeswhiteIg3pp5pp4I_CC1_CC1 )
{
	data = (((	1.0	0.0	)
		(	1.0	0.0	))
		((	1.0	0.0	)
		(	0.0	1.0	)));
}
potential ( makesblackIg3pp2pp4I | makesblackIg3pp2pp4I_CC1 )
{
	data = ((	1.0	0.0	)
		(	0.0	1.0	));
}
potential ( makesblackIg8pp5pp2I_CC1 | or_makesblackIg8pp5pp2I_CC1_CC0_pf0I2I_makesblackIg8pp5pp2I_CC1_CC0 makesblackIg8pp5pp2I_CC1_CC1 )
{
	data = (((	1.0	0.0	)
		(	1.0	0.0	))
		((	1.0	0.0	)
		(	0.0	1.0	)));
}
potential ( or_matchIg2pp2pp4I_CC1_CC0_pf0I2I_matchIg2pp2pp4I_CC1_CC0 | or_matchIg2pp2pp4I_CC1_CC0_pf0I1I_matchIg2pp2pp4I_CC1_CC0 matchIg2pp2pp4I_CC1_CC0_pf0I2I )
{
	data = (((	1.0	0.0	)
		(	0.0	1.0	))
		((	0.0	1.0	)
		(	0.0	1.0	)));
}
potential ( guess_colorIg6pp2pc3I | or_guess_colorIg6pp2pc2I_guess_colorIg6pp2pc3I_CC1_CC0 )
{
	data = ((	0.0	1.0	)
		(	1.0	0.0	));
}
potential ( or_matchIg8pp3pp5I_CC1_CC0_pf0I2I_matchIg8pp3pp5I_CC1_CC0 | or_matchIg8pp3pp5I_CC1_CC0_pf0I1I_matchIg8pp3pp5I_CC1_CC0 matchIg8pp3pp5I_CC1_CC0_pf0I2I )
{
	data = (((	1.0	0.0	)
		(	0.0	1.0	))
		((	0.0	1.0	)
		(	0.0	1.0	)));
}
potential ( or_makeswhiteIg5pp3pp2I_makeswhiteIg5pp5pp2I_CC1_CC1_CC0 | or_makeswhiteIg5pp2pp2I_makeswhiteIg5pp5pp2I_CC1_CC1_CC0 makeswhiteIg5pp3pp2I )
{
	data = (((	1.0	0.0	)
		(	0.0	1.0	))
		((	0.0	1.0	)
		(	0.0	1.0	)));
}
potential ( or_matchIg3pp4pp4I_makeswhiteIg3pp4pp4I_CC1_CC0 | or_matchIg3pp4pp3I_makeswhiteIg3pp4pp4I_CC1_CC0 matchIg3pp4pp4I )
{
	data = (((	1.0	0.0	)
		(	0.0	1.0	))
		((	0.0	1.0	)
		(	0.0	1.0	)));
}
potential ( or_makesblackIg3pp2pp4I_blackIg3pp2I_CC1 | or_makesblackIg3pp2pp3I_blackIg3pp2I_CC1 makesblackIg3pp2pp4I )
{
	data = (((	1.0	0.0	)
		(	0.0	1.0	))
		((	0.0	1.0	)
		(	0.0	1.0	)));
}
potential ( matchIg1pp1pp3I | matchIg1pp1pp3I_CC1 )
{
	data = ((	1.0	0.0	)
		(	0.0	1.0	));
}
potential ( or_matchIg7pp4pp2I_matchIg7pp5pp2I_CC1_CC1_CC0 | or_matchIg7pp3pp2I_matchIg7pp5pp2I_CC1_CC1_CC0 matchIg7pp4pp2I )
{
	data = (((	1.0	0.0	)
		(	0.0	1.0	))
		((	0.0	1.0	)
		(	0.0	1.0	)));
}
potential ( or_matchIg8pp4pp4I_matchIg8pp5pp4I_CC1_CC1_CC0 | or_matchIg8pp3pp4I_matchIg8pp5pp4I_CC1_CC1_CC0 matchIg8pp4pp4I )
{
	data = (((	1.0	0.0	)
		(	0.0	1.0	))
		((	0.0	1.0	)
		(	0.0	1.0	)));
}
potential ( makeswhiteIg4pp3pp5I_CC1_CC1 | or_makeswhiteIg4pp2pp5I_makeswhiteIg4pp5pp5I_CC1_CC1_CC0 or_makeswhiteIg4pp3pp4I_makeswhiteIg4pp3pp5I_CC1_CC1_CC2_CC0 )
{
	data = (((	0.0	1.0	)
		(	1.0	0.0	))
		((	1.0	0.0	)
		(	1.0	0.0	)));
}
potential ( or_matchIg5pp1pp4I_matchIg5pp1pp5I_CC1_CC1_CC2_CC0 | or_matchIg5pp1pp3I_matchIg5pp1pp5I_CC1_CC1_CC2_CC0 matchIg5pp1pp4I )
{
	data = (((	1.0	0.0	)
		(	0.0	1.0	))
		((	0.0	1.0	)
		(	0.0	1.0	)));
}
potential ( makesblackIg5pp5pp2I_CC1 | or_makesblackIg5pp5pp2I_CC1_CC0_pf0I2I_makesblackIg5pp5pp2I_CC1_CC0 makesblackIg5pp5pp2I_CC1_CC1 )
{
	data = (((	1.0	0.0	)
		(	1.0	0.0	))
		((	1.0	0.0	)
		(	0.0	1.0	)));
}
potential ( makesblackIg1pp4pp1I | makesblackIg1pp4pp1I_CC1 )
{
	data = ((	1.0	0.0	)
		(	0.0	1.0	));
}
potential ( or_matchIg1pp2pp2I_makeswhiteIg1pp3pp2I_CC1_CC0 | matchIg1pp2pp1I matchIg1pp2pp2I )
{
	data = (((	1.0	0.0	)
		(	0.0	1.0	))
		((	0.0	1.0	)
		(	0.0	1.0	)));
}
potential ( or_matchIg2pp3pp5I_matchIg2pp5pp5I_CC1_CC1_CC0 | or_matchIg2pp2pp5I_matchIg2pp5pp5I_CC1_CC1_CC0 matchIg2pp3pp5I )
{
	data = (((	1.0	0.0	)
		(	0.0	1.0	))
		((	0.0	1.0	)
		(	0.0	1.0	)));
}
potential ( guess_colorIg8pp1pc1I | )
{
	data = (	0.6666666666666667	0.3333333333333333	);
}
potential ( matchIg5pp4pp1I | matchIg5pp4pp1I_CC1 )
{
	data = ((	1.0	0.0	)
		(	0.0	1.0	));
}
potential ( or_matchIg7pp5pp2I_CC1_CC0_pf0I2I_matchIg7pp5pp2I_CC1_CC0 | or_matchIg7pp5pp2I_CC1_CC0_pf0I1I_matchIg7pp5pp2I_CC1_CC0 matchIg7pp5pp2I_CC1_CC0_pf0I2I )
{
	data = (((	1.0	0.0	)
		(	0.0	1.0	))
		((	0.0	1.0	)
		(	0.0	1.0	)));
}
potential ( matchIg8pp1pp1I | or_makesblackIg8pp5pp1I_CC1_CC0_pf0I2I_makesblackIg8pp5pp1I_CC1_CC0 )
{
	data = ((	1.0	0.0	)
		(	0.0	1.0	));
}
potential ( or_matchIg3pp4pp1I_CC1_CC0_pf0I2I_matchIg3pp4pp1I_CC1_CC0 | or_matchIg3pp4pp1I_CC1_CC0_pf0I1I_matchIg3pp4pp1I_CC1_CC0 matchIg3pp4pp1I_CC1_CC0_pf0I2I )
{
	data = (((	1.0	0.0	)
		(	0.0	1.0	))
		((	0.0	1.0	)
		(	0.0	1.0	)));
}
potential ( matchIg5pp1pp5I_CC1_CC0_pf0I2I | true_colorIp5pc3I guess_colorIg5pp1pc3I )
{
	data = (((	1.0	0.0	)
		(	1.0	0.0	))
		((	1.0	0.0	)
		(	0.0	1.0	)));
}
potential ( matchIg7pp5pp4I_CC1_CC0_pf0I2I | true_colorIp4pc3I guess_colorIg7pp5pc3I )
{
	data = (((	1.0	0.0	)
		(	1.0	0.0	))
		((	1.0	0.0	)
		(	0.0	1.0	)));
}
potential ( makesblackIg3pp3pp1I | makesblackIg3pp3pp1I_CC1 )
{
	data = ((	1.0	0.0	)
		(	0.0	1.0	));
}
potential ( or_makesblackIg8pp5pp4I_makesblackIg8pp5pp5I_CC1_CC1_CC2_CC0 | or_makesblackIg8pp5pp3I_makesblackIg8pp5pp5I_CC1_CC1_CC2_CC0 makesblackIg8pp5pp4I )
{
	data = (((	1.0	0.0	)
		(	0.0	1.0	))
		((	0.0	1.0	)
		(	0.0	1.0	)));
}
potential ( matchIg6pp5pp2I_CC1_CC0_pf0I2I | true_colorIp2pc3I guess_colorIg6pp5pc3I )
{
	data = (((	1.0	0.0	)
		(	1.0	0.0	))
		((	1.0	0.0	)
		(	0.0	1.0	)));
}
potential ( or_makesblackIg8pp5pp2I_CC1_CC0_pf0I2I_makesblackIg8pp5pp2I_CC1_CC0 | or_makesblackIg8pp5pp2I_CC1_CC0_pf0I1I_makesblackIg8pp5pp2I_CC1_CC0 makesblackIg8pp5pp2I_CC1_CC0_pf0I2I )
{
	data = (((	1.0	0.0	)
		(	0.0	1.0	))
		((	0.0	1.0	)
		(	0.0	1.0	)));
}
potential ( makeswhiteIg5pp4pp1I | makeswhiteIg5pp4pp1I_CC1 )
{
	data = ((	1.0	0.0	)
		(	0.0	1.0	));
}
potential ( or_makeswhiteIg2pp2pp3I_makeswhiteIg2pp2pp5I_CC1_CC1_CC2_CC0 | or_makeswhiteIg2pp2pp2I_makeswhiteIg2pp2pp3I_CC1_CC1_CC2_CC0 makeswhiteIg2pp2pp3I )
{
	data = (((	1.0	0.0	)
		(	0.0	1.0	))
		((	0.0	1.0	)
		(	0.0	1.0	)));
}
potential ( matchIg8pp3pp2I_CC1_CC1 | or_matchIg8pp2pp2I_matchIg8pp5pp2I_CC1_CC1_CC0 matchIg8pp3pp1I )
{
	data = (((	0.0	1.0	)
		(	1.0	0.0	))
		((	1.0	0.0	)
		(	1.0	0.0	)));
}
potential ( or_makesblackIg8pp3pp3I_makesblackIg8pp3pp5I_CC1_CC1_CC2_CC0 | or_makesblackIg8pp3pp2I_makesblackIg8pp3pp5I_CC1_CC1_CC2_CC0 makesblackIg8pp3pp3I )
{
	data = (((	1.0	0.0	)
		(	0.0	1.0	))
		((	0.0	1.0	)
		(	0.0	1.0	)));
}
potential ( or_makesblackIg5pp2pp4I_blackIg5pp2I_CC1 | or_makesblackIg5pp2pp3I_blackIg5pp2I_CC1 makesblackIg5pp2pp4I )
{
	data = (((	1.0	0.0	)
		(	0.0	1.0	))
		((	0.0	1.0	)
		(	0.0	1.0	)));
}
potential ( matchIg8pp2pp5I_CC1_CC1 | matchIg8pp1pp5I or_matchIg8pp2pp4I_makeswhiteIg8pp3pp2I_CC1_CC0 )
{
	data = (((	0.0	1.0	)
		(	1.0	0.0	))
		((	1.0	0.0	)
		(	1.0	0.0	)));
}
potential ( guess_colorIg2pp3pc3I | or_guess_colorIg2pp3pc2I_guess_colorIg2pp3pc3I_CC1_CC0 )
{
	data = ((	0.0	1.0	)
		(	1.0	0.0	));
}
potential ( matchIg8pp3pp1I_CC1_CC0_pf0I1I | true_colorIp1pc2I guess_colorIg8pp3pc2I )
{
	data = (((	1.0	0.0	)
		(	1.0	0.0	))
		((	1.0	0.0	)
		(	0.0	1.0	)));
}
potential ( makesblackIg5pp4pp3I_CC1_CC1 | or_makesblackIg5pp3pp3I_makesblackIg5pp5pp3I_CC1_CC1_CC0 or_makesblackIg5pp4pp2I_makesblackIg5pp4pp4I_CC1_CC1_CC2_CC0 )
{
	data = (((	0.0	1.0	)
		(	1.0	0.0	))
		((	1.0	0.0	)
		(	1.0	0.0	)));
}
potential ( makeswhiteIg4pp4pp2I_CC1_CC1 | or_makeswhiteIg4pp3pp2I_makeswhiteIg4pp5pp2I_CC1_CC1_CC0 makeswhiteIg4pp4pp1I )
{
	data = (((	0.0	1.0	)
		(	1.0	0.0	))
		((	1.0	0.0	)
		(	1.0	0.0	)));
}
potential ( makeswhiteIg5pp3pp4I_CC1_CC1 | or_makeswhiteIg5pp2pp4I_makeswhiteIg5pp5pp4I_CC1_CC1_CC0 or_makeswhiteIg5pp3pp3I_makeswhiteIg5pp3pp5I_CC1_CC1_CC2_CC0 )
{
	data = (((	0.0	1.0	)
		(	1.0	0.0	))
		((	1.0	0.0	)
		(	1.0	0.0	)));
}
potential ( matchIg7pp3pp5I_CC1_CC0_pf0I2I | true_colorIp5pc3I guess_colorIg7pp3pc3I )
{
	data = (((	1.0	0.0	)
		(	1.0	0.0	))
		((	1.0	0.0	)
		(	0.0	1.0	)));
}
potential ( or_matchIg4pp4pp2I_CC1_CC0_pf0I2I_matchIg4pp4pp2I_CC1_CC0 | or_matchIg4pp4pp2I_CC1_CC0_pf0I1I_matchIg4pp4pp2I_CC1_CC0 matchIg4pp4pp2I_CC1_CC0_pf0I2I )
{
	data = (((	1.0	0.0	)
		(	0.0	1.0	))
		((	0.0	1.0	)
		(	0.0	1.0	)));
}
potential ( matchIg1pp3pp4I | matchIg1pp3pp4I_CC1 )
{
	data = ((	1.0	0.0	)
		(	0.0	1.0	));
}
potential ( or_guess_colorIg7pp2pc2I_guess_colorIg7pp2pc3I_CC1_CC0 | guess_colorIg7pp2pc1I guess_colorIg7pp2pc2I )
{
	data = (((	1.0	0.0	)
		(	0.0	1.0	))
		((	0.0	1.0	)
		(	0.0	1.0	)));
}
potential ( or_matchIg8pp2pp1I_CC1_CC0_pf0I1I_matchIg8pp2pp1I_CC1_CC0 | matchIg8pp2pp1I_CC1_CC0_pf0I0I matchIg8pp2pp1I_CC1_CC0_pf0I1I )
{
	data = (((	1.0	0.0	)
		(	0.0	1.0	))
		((	0.0	1.0	)
		(	0.0	1.0	)));
}
potential ( makeswhiteIg3pp5pp2I_CC1 | or_matchIg3pp2pp5I_makeswhiteIg3pp3pp2I_CC1_CC0 makeswhiteIg3pp5pp2I_CC1_CC1 )
{
	data = (((	1.0	0.0	)
		(	1.0	0.0	))
		((	1.0	0.0	)
		(	0.0	1.0	)));
}
potential ( or_matchIg5pp3pp3I_makeswhiteIg5pp5pp3I_CC1_CC0 | or_matchIg5pp3pp2I_makeswhiteIg5pp5pp3I_CC1_CC0 matchIg5pp3pp3I )
{
	data = (((	1.0	0.0	)
		(	0.0	1.0	))
		((	0.0	1.0	)
		(	0.0	1.0	)));
}
potential ( or_matchIg8pp5pp2I_makeswhiteIg8pp2pp5I_CC1_CC0 | matchIg8pp5pp1I matchIg8pp5pp2I )
{
	data = (((	1.0	0.0	)
		(	0.0	1.0	))
		((	0.0	1.0	)
		(	0.0	1.0	)));
}
potential ( makeswhiteIg4pp3pp2I_CC1_CC1 | or_makeswhiteIg4pp2pp2I_makeswhiteIg4pp5pp2I_CC1_CC1_CC0 makeswhiteIg4pp3pp1I )
{
	data = (((	0.0	1.0	)
		(	1.0	0.0	))
		((	1.0	0.0	)
		(	1.0	0.0	)));
}
potential ( or_makesblackIg1pp3pp2I_makesblackIg1pp3pp5I_CC1_CC1_CC2_CC0 | makesblackIg1pp3pp1I makesblackIg1pp3pp2I )
{
	data = (((	1.0	0.0	)
		(	0.0	1.0	))
		((	0.0	1.0	)
		(	0.0	1.0	)));
}
potential ( matchIg1pp5pp1I_CC1 | or_matchIg1pp5pp1I_CC1_CC0_pf0I2I_matchIg1pp5pp1I_CC1_CC0 or_matchIg1pp4pp1I_matchIg1pp5pp1I_CC1_CC1_CC0 )
{
	data = (((	1.0	0.0	)
		(	1.0	0.0	))
		((	0.0	1.0	)
		(	1.0	0.0	)));
}
potential ( matchIg8pp5pp4I | matchIg8pp5pp4I_CC1 )
{
	data = ((	1.0	0.0	)
		(	0.0	1.0	));
}
potential ( matchIg3pp5pp2I_CC1_CC0_pf0I1I | true_colorIp2pc2I guess_colorIg3pp5pc2I )
{
	data = (((	1.0	0.0	)
		(	1.0	0.0	))
		((	1.0	0.0	)
		(	0.0	1.0	)));
}
potential ( or_matchIg8pp4pp1I_matchIg8pp5pp1I_CC1_CC1_CC0 | or_matchIg8pp3pp1I_matchIg8pp5pp1I_CC1_CC1_CC0 matchIg8pp4pp1I )
{
	data = (((	1.0	0.0	)
		(	0.0	1.0	))
		((	0.0	1.0	)
		(	0.0	1.0	)));
}
potential ( makeswhiteIg3pp3pp3I_CC1_CC1 | or_makeswhiteIg3pp2pp3I_makeswhiteIg3pp5pp3I_CC1_CC1_CC0 or_makeswhiteIg3pp3pp2I_makeswhiteIg3pp3pp5I_CC1_CC1_CC2_CC0 )
{
	data = (((	0.0	1.0	)
		(	1.0	0.0	))
		((	1.0	0.0	)
		(	1.0	0.0	)));
}
potential ( or_matchIg8pp5pp3I_makeswhiteIg8pp4pp5I_CC1_CC0 | or_matchIg8pp5pp2I_makeswhiteIg8pp2pp5I_CC1_CC0 matchIg8pp5pp3I )
{
	data = (((	1.0	0.0	)
		(	0.0	1.0	))
		((	0.0	1.0	)
		(	0.0	1.0	)));
}
potential ( matchIg5pp4pp4I_CC1 | or_makesblackIg5pp5pp4I_CC1_CC0_pf0I2I_makesblackIg5pp5pp4I_CC1_CC0 matchIg5pp4pp4I_CC1_CC1 )
{
	data = (((	1.0	0.0	)
		(	1.0	0.0	))
		((	1.0	0.0	)
		(	0.0	1.0	)));
}
potential ( makeswhiteIg7pp5pp5I | makeswhiteIg7pp5pp5I_CC1 )
{
	data = ((	1.0	0.0	)
		(	0.0	1.0	));
}
potential ( or_makesblackIg1pp5pp3I_makesblackIg1pp5pp5I_CC1_CC1_CC2_CC0 | or_makesblackIg1pp5pp2I_makesblackIg1pp5pp5I_CC1_CC1_CC2_CC0 makesblackIg1pp5pp3I )
{
	data = (((	1.0	0.0	)
		(	0.0	1.0	))
		((	0.0	1.0	)
		(	0.0	1.0	)));
}
potential ( matchIg8pp4pp4I | matchIg8pp4pp4I_CC1 )
{
	data = ((	1.0	0.0	)
		(	0.0	1.0	));
}
potential ( matchIg7pp4pp3I_CC1_CC0_pf0I0I | true_colorIp3pc1I guess_colorIg7pp4pc1I )
{
	data = (((	1.0	0.0	)
		(	1.0	0.0	))
		((	1.0	0.0	)
		(	0.0	1.0	)));
}
potential ( matchIg4pp3pp2I | matchIg4pp3pp2I_CC1 )
{
	data = ((	1.0	0.0	)
		(	0.0	1.0	));
}
potential ( or_matchIg4pp5pp3I_CC1_CC0_pf0I1I_matchIg4pp5pp3I_CC1_CC0 | matchIg4pp5pp3I_CC1_CC0_pf0I0I matchIg4pp5pp3I_CC1_CC0_pf0I1I )
{
	data = (((	1.0	0.0	)
		(	0.0	1.0	))
		((	0.0	1.0	)
		(	0.0	1.0	)));
}
potential ( matchIg4pp1pp2I_CC1_CC0_pf0I0I | true_colorIp2pc1I guess_colorIg4pp1pc1I )
{
	data = (((	1.0	0.0	)
		(	1.0	0.0	))
		((	1.0	0.0	)
		(	0.0	1.0	)));
}
potential ( matchIg5pp2pp5I_CC1 | or_matchIg5pp2pp5I_CC1_CC0_pf0I2I_matchIg5pp2pp5I_CC1_CC0 matchIg5pp2pp5I_CC1_CC1 )
{
	data = (((	1.0	0.0	)
		(	1.0	0.0	))
		((	1.0	0.0	)
		(	0.0	1.0	)));
}
potential ( matchIg6pp5pp5I | matchIg6pp5pp5I_CC1 )
{
	data = ((	1.0	0.0	)
		(	0.0	1.0	));
}
potential ( whiteIg7pp3I | or_makeswhiteIg7pp3pp5I_whiteIg7pp3I_CC1 )
{
	data = ((	1.0	0.0	)
		(	0.0	1.0	));
}
potential ( makesblackIg3pp4pp5I_CC1 | or_makesblackIg3pp5pp5I_CC1_CC0_pf0I2I_makesblackIg3pp5pp5I_CC1_CC0 makesblackIg3pp4pp5I_CC1_CC1 )
{
	data = (((	1.0	0.0	)
		(	1.0	0.0	))
		((	1.0	0.0	)
		(	0.0	1.0	)));
}
potential ( matchIg6pp3pp1I_CC1_CC0_pf0I2I | true_colorIp1pc3I guess_colorIg6pp3pc3I )
{
	data = (((	1.0	0.0	)
		(	1.0	0.0	))
		((	1.0	0.0	)
		(	0.0	1.0	)));
}
potential ( guess_colorIg5pp2pc1I | )
{
	data = (	0.6666666666666667	0.3333333333333333	);
}
potential ( matchIg5pp4pp1I_CC1_CC0_pf0I0I | true_colorIp1pc1I guess_colorIg5pp4pc1I )
{
	data = (((	1.0	0.0	)
		(	1.0	0.0	))
		((	1.0	0.0	)
		(	0.0	1.0	)));
}
potential ( matchIg6pp1pp5I | matchIg6pp1pp5I_CC1 )
{
	data = ((	1.0	0.0	)
		(	0.0	1.0	));
}
potential ( or_makesblackIg3pp4pp3I_makesblackIg3pp4pp4I_CC1_CC1_CC2_CC0 | or_makesblackIg3pp4pp2I_makesblackIg3pp4pp4I_CC1_CC1_CC2_CC0 makesblackIg3pp4pp3I )
{
	data = (((	1.0	0.0	)
		(	0.0	1.0	))
		((	0.0	1.0	)
		(	0.0	1.0	)));
}
potential ( makeswhiteIg6pp5pp1I_CC1 | or_matchIg6pp1pp5I_makeswhiteIg6pp5pp1I_CC1_CC0 or_makeswhiteIg6pp4pp1I_makeswhiteIg6pp5pp1I_CC1_CC1_CC0 )
{
	data = (((	1.0	0.0	)
		(	1.0	0.0	))
		((	0.0	1.0	)
		(	1.0	0.0	)));
}
potential ( or_matchIg5pp5pp5I_makeswhiteIg5pp4pp5I_CC1_CC0 | or_matchIg5pp5pp4I_matchIg5pp5pp5I_CC1_CC1_CC2_CC0 matchIg5pp5pp5I )
{
	data = (((	1.0	0.0	)
		(	0.0	1.0	))
		((	0.0	1.0	)
		(	0.0	1.0	)));
}
potential ( or_guess_colorIg2pp2pc2I_guess_colorIg2pp2pc3I_CC1_CC0 | guess_colorIg2pp2pc1I guess_colorIg2pp2pc2I )
{
	data = (((	1.0	0.0	)
		(	0.0	1.0	))
		((	0.0	1.0	)
		(	0.0	1.0	)));
}
potential ( guess_colorIg8pp5pc3I | or_guess_colorIg8pp5pc2I_guess_colorIg8pp5pc3I_CC1_CC0 )
{
	data = ((	0.0	1.0	)
		(	1.0	0.0	));
}
potential ( makeswhiteIg6pp5pp3I_CC1_CC1 | or_makeswhiteIg6pp4pp3I_makeswhiteIg6pp5pp3I_CC1_CC1_CC0 or_makeswhiteIg6pp5pp2I_makeswhiteIg6pp5pp5I_CC1_CC1_CC2_CC0 )
{
	data = (((	0.0	1.0	)
		(	1.0	0.0	))
		((	1.0	0.0	)
		(	1.0	0.0	)));
}
potential ( matchIg5pp2pp4I_CC1_CC0_pf0I1I | true_colorIp4pc2I guess_colorIg5pp2pc2I )
{
	data = (((	1.0	0.0	)
		(	1.0	0.0	))
		((	1.0	0.0	)
		(	0.0	1.0	)));
}
potential ( matchIg6pp5pp1I | matchIg6pp5pp1I_CC1 )
{
	data = ((	1.0	0.0	)
		(	0.0	1.0	));
}
potential ( or_matchIg5pp1pp5I_CC1_CC0_pf0I1I_matchIg5pp1pp5I_CC1_CC0 | matchIg5pp1pp5I_CC1_CC0_pf0I0I matchIg5pp1pp5I_CC1_CC0_pf0I1I )
{
	data = (((	1.0	0.0	)
		(	0.0	1.0	))
		((	0.0	1.0	)
		(	0.0	1.0	)));
}
potential ( or_makesblackIg5pp5pp3I_makesblackIg5pp5pp5I_CC1_CC1_CC2_CC0 | or_makesblackIg5pp5pp2I_makesblackIg5pp5pp5I_CC1_CC1_CC2_CC0 makesblackIg5pp5pp3I )
{
	data = (((	1.0	0.0	)
		(	0.0	1.0	))
		((	0.0	1.0	)
		(	0.0	1.0	)));
}
potential ( makeswhiteIg4pp5pp4I_CC1 | or_matchIg4pp4pp5I_makeswhiteIg4pp5pp4I_CC1_CC0 makeswhiteIg4pp5pp4I_CC1_CC1 )
{
	data = (((	1.0	0.0	)
		(	1.0	0.0	))
		((	1.0	0.0	)
		(	0.0	1.0	)));
}
potential ( or_matchIg3pp2pp4I_CC1_CC0_pf0I2I_matchIg3pp2pp4I_CC1_CC0 | or_matchIg3pp2pp4I_CC1_CC0_pf0I1I_matchIg3pp2pp4I_CC1_CC0 matchIg3pp2pp4I_CC1_CC0_pf0I2I )
{
	data = (((	1.0	0.0	)
		(	0.0	1.0	))
		((	0.0	1.0	)
		(	0.0	1.0	)));
}
potential ( makesblackIg4pp5pp2I_CC1 | or_makesblackIg4pp5pp2I_CC1_CC0_pf0I2I_makesblackIg4pp5pp2I_CC1_CC0 makesblackIg4pp5pp2I_CC1_CC1 )
{
	data = (((	1.0	0.0	)
		(	1.0	0.0	))
		((	1.0	0.0	)
		(	0.0	1.0	)));
}
potential ( makeswhiteIg1pp3pp2I_CC1_CC1 | or_makeswhiteIg1pp2pp2I_makeswhiteIg1pp5pp2I_CC1_CC1_CC0 makeswhiteIg1pp3pp1I )
{
	data = (((	0.0	1.0	)
		(	1.0	0.0	))
		((	1.0	0.0	)
		(	1.0	0.0	)));
}
potential ( matchIg1pp4pp2I | matchIg1pp4pp2I_CC1 )
{
	data = ((	1.0	0.0	)
		(	0.0	1.0	));
}
potential ( makesblackIg6pp5pp3I_CC1_CC0_pf0I1I | true_colorIp3pc2I guess_colorIg6pp3pc2I )
{
	data = (((	1.0	0.0	)
		(	1.0	0.0	))
		((	1.0	0.0	)
		(	0.0	1.0	)));
}
potential ( makesblackIg6pp5pp3I_CC1_CC0_pf0I2I | true_colorIp3pc3I guess_colorIg6pp3pc3I )
{
	data = (((	1.0	0.0	)
		(	1.0	0.0	))
		((	1.0	0.0	)
		(	0.0	1.0	)));
}
potential ( makesblackIg7pp1pp4I_CC1 | or_makesblackIg7pp5pp4I_CC1_CC0_pf0I2I_makesblackIg7pp5pp4I_CC1_CC0 or_makesblackIg7pp1pp3I_blackIg7pp1I_CC1 )
{
	data = (((	1.0	0.0	)
		(	1.0	0.0	))
		((	0.0	1.0	)
		(	1.0	0.0	)));
}
potential ( makeswhiteIg7pp5pp1I | makeswhiteIg7pp5pp1I_CC1 )
{
	data = ((	1.0	0.0	)
		(	0.0	1.0	));
}
potential ( matchIg4pp3pp3I_CC1 | or_makesblackIg4pp5pp3I_CC1_CC0_pf0I2I_makesblackIg4pp5pp3I_CC1_CC0 matchIg4pp3pp3I_CC1_CC1 )
{
	data = (((	1.0	0.0	)
		(	1.0	0.0	))
		((	1.0	0.0	)
		(	0.0	1.0	)));
}
potential ( makesblackIg8pp4pp5I | makesblackIg8pp4pp5I_CC1 )
{
	data = ((	1.0	0.0	)
		(	0.0	1.0	));
}
potential ( matchIg6pp5pp2I_CC1_CC0_pf0I0I | true_colorIp2pc1I guess_colorIg6pp5pc1I )
{
	data = (((	1.0	0.0	)
		(	1.0	0.0	))
		((	1.0	0.0	)
		(	0.0	1.0	)));
}
potential ( matchIg6pp5pp5I_CC1 | or_makesblackIg6pp5pp5I_CC1_CC0_pf0I2I_makesblackIg6pp5pp5I_CC1_CC0 matchIg6pp5pp5I_CC1_CC1 )
{
	data = (((	1.0	0.0	)
		(	1.0	0.0	))
		((	1.0	0.0	)
		(	0.0	1.0	)));
}
potential ( or_matchIg7pp2pp1I_CC1_CC0_pf0I2I_matchIg7pp2pp1I_CC1_CC0 | or_matchIg7pp2pp1I_CC1_CC0_pf0I1I_matchIg7pp2pp1I_CC1_CC0 matchIg7pp2pp1I_CC1_CC0_pf0I2I )
{
	data = (((	1.0	0.0	)
		(	0.0	1.0	))
		((	0.0	1.0	)
		(	0.0	1.0	)));
}
potential ( makesblackIg8pp2pp3I_CC1 | or_makesblackIg8pp5pp3I_CC1_CC0_pf0I2I_makesblackIg8pp5pp3I_CC1_CC0 makesblackIg8pp2pp3I_CC1_CC1 )
{
	data = (((	1.0	0.0	)
		(	1.0	0.0	))
		((	1.0	0.0	)
		(	0.0	1.0	)));
}
potential ( matchIg2pp3pp4I_CC1_CC0_pf0I0I | true_colorIp4pc1I guess_colorIg2pp3pc1I )
{
	data = (((	1.0	0.0	)
		(	1.0	0.0	))
		((	1.0	0.0	)
		(	0.0	1.0	)));
}
potential ( makesblackIg4pp5pp2I_CC1_CC0_pf0I1I | true_colorIp2pc2I guess_colorIg4pp2pc2I )
{
	data = (((	1.0	0.0	)
		(	1.0	0.0	))
		((	1.0	0.0	)
		(	0.0	1.0	)));
}
potential ( matchIg7pp4pp5I | matchIg7pp4pp5I_CC1 )
{
	data = ((	1.0	0.0	)
		(	0.0	1.0	));
}
potential ( guess_colorIg2pp1pc2I | guess_colorIg2pp1pc1I )
{
	data = ((	0.5	0.5	)
		(	1.0	0.0	));
}
potential ( or_matchIg5pp2pp1I_matchIg5pp5pp1I_CC1_CC1_CC0 | matchIg5pp1pp1I matchIg5pp2pp1I )
{
	data = (((	1.0	0.0	)
		(	0.0	1.0	))
		((	0.0	1.0	)
		(	0.0	1.0	)));
}
potential ( makesblackIg2pp4pp1I_CC1 | or_makesblackIg2pp5pp1I_CC1_CC0_pf0I2I_makesblackIg2pp5pp1I_CC1_CC0 or_makesblackIg2pp3pp1I_makesblackIg2pp5pp1I_CC1_CC1_CC0 )
{
	data = (((	1.0	0.0	)
		(	1.0	0.0	))
		((	0.0	1.0	)
		(	1.0	0.0	)));
}
potential ( or_matchIg4pp4pp3I_makeswhiteIg4pp4pp4I_CC1_CC0 | or_matchIg4pp4pp2I_makeswhiteIg4pp1pp4I_CC1_CC0 matchIg4pp4pp3I )
{
	data = (((	1.0	0.0	)
		(	0.0	1.0	))
		((	0.0	1.0	)
		(	0.0	1.0	)));
}
potential ( makesblackIg4pp5pp3I_CC1 | or_makesblackIg4pp5pp3I_CC1_CC0_pf0I2I_makesblackIg4pp5pp3I_CC1_CC0 makesblackIg4pp5pp3I_CC1_CC1 )
{
	data = (((	1.0	0.0	)
		(	1.0	0.0	))
		((	1.0	0.0	)
		(	0.0	1.0	)));
}
potential ( or_makeswhiteIg6pp1pp4I_whiteIg6pp1I_CC1 | or_makeswhiteIg6pp1pp3I_whiteIg6pp1I_CC1 makeswhiteIg6pp1pp4I )
{
	data = (((	1.0	0.0	)
		(	0.0	1.0	))
		((	0.0	1.0	)
		(	0.0	1.0	)));
}
potential ( or_makesblackIg5pp2pp4I_makesblackIg5pp2pp5I_CC1_CC1_CC2_CC0 | or_makesblackIg5pp2pp3I_makesblackIg5pp2pp4I_CC1_CC1_CC2_CC0 makesblackIg5pp2pp4I )
{
	data = (((	1.0	0.0	)
		(	0.0	1.0	))
		((	0.0	1.0	)
		(	0.0	1.0	)));
}
potential ( or_makesblackIg6pp4pp5I_blackIg6pp4I_CC1 | makesblackIg6pp4pp4I makesblackIg6pp4pp5I )
{
	data = (((	1.0	0.0	)
		(	0.0	1.0	))
		((	0.0	1.0	)
		(	0.0	1.0	)));
}
potential ( or_matchIg4pp2pp1I_CC1_CC0_pf0I2I_matchIg4pp2pp1I_CC1_CC0 | or_matchIg4pp2pp1I_CC1_CC0_pf0I1I_matchIg4pp2pp1I_CC1_CC0 matchIg4pp2pp1I_CC1_CC0_pf0I2I )
{
	data = (((	1.0	0.0	)
		(	0.0	1.0	))
		((	0.0	1.0	)
		(	0.0	1.0	)));
}
potential ( or_matchIg3pp5pp2I_matchIg3pp5pp3I_CC1_CC1_CC2_CC0 | matchIg3pp5pp1I matchIg3pp5pp2I )
{
	data = (((	1.0	0.0	)
		(	0.0	1.0	))
		((	0.0	1.0	)
		(	0.0	1.0	)));
}
potential ( makesblackIg5pp5pp4I_CC1 | or_makesblackIg5pp5pp4I_CC1_CC0_pf0I2I_makesblackIg5pp5pp4I_CC1_CC0 makesblackIg5pp5pp4I_CC1_CC1 )
{
	data = (((	1.0	0.0	)
		(	1.0	0.0	))
		((	1.0	0.0	)
		(	0.0	1.0	)));
}
potential ( or_matchIg4pp2pp2I_makeswhiteIg4pp3pp2I_CC1_CC0 | matchIg4pp2pp1I matchIg4pp2pp2I )
{
	data = (((	1.0	0.0	)
		(	0.0	1.0	))
		((	0.0	1.0	)
		(	0.0	1.0	)));
}
potential ( blackIg4pp2I | or_makesblackIg4pp2pp5I_blackIg4pp2I_CC1 )
{
	data = ((	1.0	0.0	)
		(	0.0	1.0	));
}
potential ( makeswhiteIg3pp5pp5I | makeswhiteIg3pp5pp5I_CC1 )
{
	data = ((	1.0	0.0	)
		(	0.0	1.0	));
}
potential ( makeswhiteIg5pp3pp3I | makeswhiteIg5pp3pp3I_CC1 )
{
	data = ((	1.0	0.0	)
		(	0.0	1.0	));
}
potential ( makeswhiteIg7pp5pp5I_CC1 | or_matchIg7pp5pp5I_makeswhiteIg7pp5pp5I_CC1_CC0 makeswhiteIg7pp5pp5I_CC1_CC1 )
{
	data = (((	1.0	0.0	)
		(	1.0	0.0	))
		((	1.0	0.0	)
		(	0.0	1.0	)));
}
potential ( or_matchIg1pp3pp5I_CC1_CC0_pf0I1I_matchIg1pp3pp5I_CC1_CC0 | matchIg1pp3pp5I_CC1_CC0_pf0I0I matchIg1pp3pp5I_CC1_CC0_pf0I1I )
{
	data = (((	1.0	0.0	)
		(	0.0	1.0	))
		((	0.0	1.0	)
		(	0.0	1.0	)));
}
potential ( matchIg6pp4pp5I_CC1 | or_matchIg6pp4pp5I_CC1_CC0_pf0I2I_matchIg6pp4pp5I_CC1_CC0 matchIg6pp4pp5I_CC1_CC1 )
{
	data = (((	1.0	0.0	)
		(	1.0	0.0	))
		((	1.0	0.0	)
		(	0.0	1.0	)));
}
potential ( makesblackIg2pp4pp3I_CC1 | or_makesblackIg2pp5pp3I_CC1_CC0_pf0I2I_makesblackIg2pp5pp3I_CC1_CC0 makesblackIg2pp4pp3I_CC1_CC1 )
{
	data = (((	1.0	0.0	)
		(	1.0	0.0	))
		((	1.0	0.0	)
		(	0.0	1.0	)));
}
potential ( makesblackIg6pp4pp1I | makesblackIg6pp4pp1I_CC1 )
{
	data = ((	1.0	0.0	)
		(	0.0	1.0	));
}
potential ( or_matchIg8pp2pp4I_matchIg8pp5pp4I_CC1_CC1_CC0 | matchIg8pp1pp4I matchIg8pp2pp4I )
{
	data = (((	1.0	0.0	)
		(	0.0	1.0	))
		((	0.0	1.0	)
		(	0.0	1.0	)));
}
potential ( matchIg3pp2pp3I_CC1_CC0_pf0I1I | true_colorIp3pc2I guess_colorIg3pp2pc2I )
{
	data = (((	1.0	0.0	)
		(	1.0	0.0	))
		((	1.0	0.0	)
		(	0.0	1.0	)));
}
potential ( or_matchIg2pp1pp2I_CC1_CC0_pf0I1I_matchIg2pp1pp2I_CC1_CC0 | matchIg2pp1pp2I_CC1_CC0_pf0I0I matchIg2pp1pp2I_CC1_CC0_pf0I1I )
{
	data = (((	1.0	0.0	)
		(	0.0	1.0	))
		((	0.0	1.0	)
		(	0.0	1.0	)));
}
potential ( or_matchIg3pp2pp1I_CC1_CC0_pf0I1I_matchIg3pp2pp1I_CC1_CC0 | matchIg3pp2pp1I_CC1_CC0_pf0I0I matchIg3pp2pp1I_CC1_CC0_pf0I1I )
{
	data = (((	1.0	0.0	)
		(	0.0	1.0	))
		((	0.0	1.0	)
		(	0.0	1.0	)));
}
potential ( matchIg2pp4pp1I_CC1_CC0_pf0I1I | true_colorIp1pc2I guess_colorIg2pp4pc2I )
{
	data = (((	1.0	0.0	)
		(	1.0	0.0	))
		((	1.0	0.0	)
		(	0.0	1.0	)));
}
potential ( matchIg4pp3pp4I_CC1 | or_matchIg4pp3pp4I_CC1_CC0_pf0I2I_matchIg4pp3pp4I_CC1_CC0 matchIg4pp3pp4I_CC1_CC1 )
{
	data = (((	1.0	0.0	)
		(	1.0	0.0	))
		((	1.0	0.0	)
		(	0.0	1.0	)));
}
potential ( matchIg2pp2pp3I_CC1 | or_matchIg2pp2pp3I_CC1_CC0_pf0I2I_matchIg2pp2pp3I_CC1_CC0 matchIg2pp2pp3I_CC1_CC1 )
{
	data = (((	1.0	0.0	)
		(	1.0	0.0	))
		((	1.0	0.0	)
		(	0.0	1.0	)));
}
potential ( matchIg4pp3pp2I_CC1_CC0_pf0I2I | true_colorIp2pc3I guess_colorIg4pp3pc3I )
{
	data = (((	1.0	0.0	)
		(	1.0	0.0	))
		((	1.0	0.0	)
		(	0.0	1.0	)));
}
potential ( matchIg1pp5pp1I_CC1_CC0_pf0I2I | true_colorIp1pc3I guess_colorIg1pp5pc3I )
{
	data = (((	1.0	0.0	)
		(	1.0	0.0	))
		((	1.0	0.0	)
		(	0.0	1.0	)));
}
potential ( or_makeswhiteIg6pp2pp2I_makeswhiteIg6pp2pp3I_CC1_CC1_CC2_CC0 | makeswhiteIg6pp2pp1I makeswhiteIg6pp2pp2I )
{
	data = (((	1.0	0.0	)
		(	0.0	1.0	))
		((	0.0	1.0	)
		(	0.0	1.0	)));
}
potential ( makeswhiteIg7pp2pp2I_CC1_CC1 | makeswhiteIg7pp1pp2I makeswhiteIg7pp2pp1I )
{
	data = (((	0.0	1.0	)
		(	1.0	0.0	))
		((	1.0	0.0	)
		(	1.0	0.0	)));
}
potential ( or_makeswhiteIg2pp2pp4I_makeswhiteIg2pp2pp5I_CC1_CC1_CC2_CC0 | or_makeswhiteIg2pp2pp3I_makeswhiteIg2pp2pp5I_CC1_CC1_CC2_CC0 makeswhiteIg2pp2pp4I )
{
	data = (((	1.0	0.0	)
		(	0.0	1.0	))
		((	0.0	1.0	)
		(	0.0	1.0	)));
}
potential ( or_makesblackIg2pp4pp5I_makesblackIg2pp5pp5I_CC1_CC1_CC0 | or_makesblackIg2pp3pp5I_makesblackIg2pp5pp5I_CC1_CC1_CC0 makesblackIg2pp4pp5I )
{
	data = (((	1.0	0.0	)
		(	0.0	1.0	))
		((	0.0	1.0	)
		(	0.0	1.0	)));
}
potential ( or_matchIg6pp2pp1I_CC1_CC0_pf0I1I_matchIg6pp2pp1I_CC1_CC0 | matchIg6pp2pp1I_CC1_CC0_pf0I0I matchIg6pp2pp1I_CC1_CC0_pf0I1I )
{
	data = (((	1.0	0.0	)
		(	0.0	1.0	))
		((	0.0	1.0	)
		(	0.0	1.0	)));
}
potential ( or_matchIg1pp2pp2I_matchIg1pp5pp2I_CC1_CC1_CC0 | matchIg1pp1pp2I matchIg1pp2pp2I )
{
	data = (((	1.0	0.0	)
		(	0.0	1.0	))
		((	0.0	1.0	)
		(	0.0	1.0	)));
}
potential ( makesblackIg3pp5pp4I_CC1_CC0_pf0I0I | true_colorIp4pc1I guess_colorIg3pp4pc1I )
{
	data = (((	1.0	0.0	)
		(	1.0	0.0	))
		((	1.0	0.0	)
		(	0.0	1.0	)));
}
potential ( guess_colorIg1pp4pc1I | )
{
	data = (	0.6666666666666667	0.3333333333333333	);
}
potential ( makesblackIg8pp5pp4I_CC1_CC0_pf0I0I | true_colorIp4pc1I guess_colorIg8pp4pc1I )
{
	data = (((	1.0	0.0	)
		(	1.0	0.0	))
		((	1.0	0.0	)
		(	0.0	1.0	)));
}
potential ( or_matchIg4pp1pp4I_CC1_CC0_pf0I2I_matchIg4pp1pp4I_CC1_CC0 | or_matchIg4pp1pp4I_CC1_CC0_pf0I1I_matchIg4pp1pp4I_CC1_CC0 matchIg4pp1pp4I_CC1_CC0_pf0I2I )
{
	data = (((	1.0	0.0	)
		(	0.0	1.0	))
		((	0.0	1.0	)
		(	0.0	1.0	)));
}
potential ( makesblackIg8pp4pp4I_CC1_CC1 | or_makesblackIg8pp3pp4I_makesblackIg8pp5pp4I_CC1_CC1_CC0 or_makesblackIg8pp4pp3I_makesblackIg8pp4pp5I_CC1_CC1_CC2_CC0 )
{
	data = (((	0.0	1.0	)
		(	1.0	0.0	))
		((	1.0	0.0	)
		(	1.0	0.0	)));
}
potential ( makesblackIg6pp5pp4I_CC1_CC0_pf0I1I | true_colorIp4pc2I guess_colorIg6pp4pc2I )
{
	data = (((	1.0	0.0	)
		(	1.0	0.0	))
		((	1.0	0.0	)
		(	0.0	1.0	)));
}
potential ( matchIg3pp3pp1I_CC1_CC0_pf0I0I | true_colorIp1pc1I guess_colorIg3pp3pc1I )
{
	data = (((	1.0	0.0	)
		(	1.0	0.0	))
		((	1.0	0.0	)
		(	0.0	1.0	)));
}
potential ( matchIg2pp5pp1I_CC1 | or_matchIg2pp5pp1I_CC1_CC0_pf0I2I_matchIg2pp5pp1I_CC1_CC0 or_matchIg2pp4pp1I_matchIg2pp5pp1I_CC1_CC1_CC0 )
{
	data = (((	1.0	0.0	)
		(	1.0	0.0	))
		((	0.0	1.0	)
		(	1.0	0.0	)));
}
potential ( or_makesblackIg3pp5pp3I_CC1_CC0_pf0I2I_makesblackIg3pp5pp3I_CC1_CC0 | or_makesblackIg3pp5pp3I_CC1_CC0_pf0I1I_makesblackIg3pp5pp3I_CC1_CC0 makesblackIg3pp5pp3I_CC1_CC0_pf0I2I )
{
	data = (((	1.0	0.0	)
		(	0.0	1.0	))
		((	0.0	1.0	)
		(	0.0	1.0	)));
}
potential ( matchIg8pp2pp5I_CC1 | or_matchIg8pp2pp5I_CC1_CC0_pf0I2I_matchIg8pp2pp5I_CC1_CC0 matchIg8pp2pp5I_CC1_CC1 )
{
	data = (((	1.0	0.0	)
		(	1.0	0.0	))
		((	1.0	0.0	)
		(	0.0	1.0	)));
}
potential ( matchIg1pp3pp4I_CC1_CC1 | or_matchIg1pp2pp4I_matchIg1pp5pp4I_CC1_CC1_CC0 or_matchIg1pp3pp3I_makeswhiteIg1pp5pp3I_CC1_CC0 )
{
	data = (((	0.0	1.0	)
		(	1.0	0.0	))
		((	1.0	0.0	)
		(	1.0	0.0	)));
}
potential ( blackIg3pp4I | or_makesblackIg3pp4pp5I_blackIg3pp4I_CC1 )
{
	data = ((	1.0	0.0	)
		(	0.0	1.0	));
}
potential ( makesblackIg7pp5pp4I_CC1_CC0_pf0I2I | true_colorIp4pc3I guess_colorIg7pp4pc3I )
{
	data = (((	1.0	0.0	)
		(	1.0	0.0	))
		((	1.0	0.0	)
		(	0.0	1.0	)));
}
potential ( makeswhiteIg7pp3pp5I | makeswhiteIg7pp3pp5I_CC1 )
{
	data = ((	1.0	0.0	)
		(	0.0	1.0	));
}
potential ( or_makesblackIg1pp2pp4I_blackIg1pp2I_CC1 | or_makesblackIg1pp2pp3I_blackIg1pp2I_CC1 makesblackIg1pp2pp4I )
{
	data = (((	1.0	0.0	)
		(	0.0	1.0	))
		((	0.0	1.0	)
		(	0.0	1.0	)));
}
potential ( makeswhiteIg3pp4pp2I_CC1 | or_matchIg3pp2pp5I_makeswhiteIg3pp3pp2I_CC1_CC0 makeswhiteIg3pp4pp2I_CC1_CC1 )
{
	data = (((	1.0	0.0	)
		(	1.0	0.0	))
		((	1.0	0.0	)
		(	0.0	1.0	)));
}
potential ( matchIg3pp1pp2I_CC1 | or_matchIg3pp1pp2I_CC1_CC0_pf0I2I_matchIg3pp1pp2I_CC1_CC0 matchIg3pp1pp1I )
{
	data = (((	1.0	0.0	)
		(	1.0	0.0	))
		((	0.0	1.0	)
		(	1.0	0.0	)));
}
potential ( makeswhiteIg8pp3pp4I | makeswhiteIg8pp3pp4I_CC1 )
{
	data = ((	1.0	0.0	)
		(	0.0	1.0	));
}
potential ( guess_colorIg4pp4pc3I | or_guess_colorIg4pp4pc2I_guess_colorIg4pp4pc3I_CC1_CC0 )
{
	data = ((	0.0	1.0	)
		(	1.0	0.0	));
}
potential ( matchIg2pp3pp5I_CC1_CC0_pf0I2I | true_colorIp5pc3I guess_colorIg2pp3pc3I )
{
	data = (((	1.0	0.0	)
		(	1.0	0.0	))
		((	1.0	0.0	)
		(	0.0	1.0	)));
}
potential ( makeswhiteIg6pp5pp2I | makeswhiteIg6pp5pp2I_CC1 )
{
	data = ((	1.0	0.0	)
		(	0.0	1.0	));
}
potential ( makeswhiteIg3pp5pp3I_CC1_CC1 | or_makeswhiteIg3pp4pp3I_makeswhiteIg3pp5pp3I_CC1_CC1_CC0 or_makeswhiteIg3pp5pp2I_makeswhiteIg3pp5pp5I_CC1_CC1_CC2_CC0 )
{
	data = (((	0.0	1.0	)
		(	1.0	0.0	))
		((	1.0	0.0	)
		(	1.0	0.0	)));
}
potential ( or_matchIg7pp1pp5I_CC1_CC0_pf0I2I_matchIg7pp1pp5I_CC1_CC0 | or_matchIg7pp1pp5I_CC1_CC0_pf0I1I_matchIg7pp1pp5I_CC1_CC0 matchIg7pp1pp5I_CC1_CC0_pf0I2I )
{
	data = (((	1.0	0.0	)
		(	0.0	1.0	))
		((	0.0	1.0	)
		(	0.0	1.0	)));
}
potential ( matchIg3pp5pp3I_CC1_CC0_pf0I1I | true_colorIp3pc2I guess_colorIg3pp5pc2I )
{
	data = (((	1.0	0.0	)
		(	1.0	0.0	))
		((	1.0	0.0	)
		(	0.0	1.0	)));
}
potential ( or_makeswhiteIg2pp2pp5I_makeswhiteIg2pp5pp5I_CC1_CC1_CC0 | makeswhiteIg2pp1pp5I makeswhiteIg2pp2pp5I )
{
	data = (((	1.0	0.0	)
		(	0.0	1.0	))
		((	0.0	1.0	)
		(	0.0	1.0	)));
}
potential ( or_guess_colorIg4pp1pc2I_guess_colorIg4pp1pc3I_CC1_CC0 | guess_colorIg4pp1pc1I guess_colorIg4pp1pc2I )
{
	data = (((	1.0	0.0	)
		(	0.0	1.0	))
		((	0.0	1.0	)
		(	0.0	1.0	)));
}
potential ( or_matchIg4pp5pp4I_matchIg4pp5pp5I_CC1_CC1_CC2_CC0 | or_matchIg4pp5pp3I_matchIg4pp5pp5I_CC1_CC1_CC2_CC0 matchIg4pp5pp4I )
{
	data = (((	1.0	0.0	)
		(	0.0	1.0	))
		((	0.0	1.0	)
		(	0.0	1.0	)));
}
potential ( makesblackIg7pp5pp1I_CC1 | or_makesblackIg7pp5pp1I_CC1_CC0_pf0I2I_makesblackIg7pp5pp1I_CC1_CC0 or_makesblackIg7pp4pp1I_makesblackIg7pp5pp1I_CC1_CC1_CC0 )
{
	data = (((	1.0	0.0	)
		(	1.0	0.0	))
		((	0.0	1.0	)
		(	1.0	0.0	)));
}
potential ( makeswhiteIg2pp4pp5I | makeswhiteIg2pp4pp5I_CC1 )
{
	data = ((	1.0	0.0	)
		(	0.0	1.0	));
}
potential ( matchIg2pp2pp5I_CC1 | or_matchIg2pp2pp5I_CC1_CC0_pf0I2I_matchIg2pp2pp5I_CC1_CC0 matchIg2pp2pp5I_CC1_CC1 )
{
	data = (((	1.0	0.0	)
		(	1.0	0.0	))
		((	1.0	0.0	)
		(	0.0	1.0	)));
}
potential ( makeswhiteIg7pp5pp2I_CC1_CC1 | or_makeswhiteIg7pp4pp2I_makeswhiteIg7pp5pp2I_CC1_CC1_CC0 makeswhiteIg7pp5pp1I )
{
	data = (((	0.0	1.0	)
		(	1.0	0.0	))
		((	1.0	0.0	)
		(	1.0	0.0	)));
}
potential ( makesblackIg8pp3pp3I_CC1_CC1 | or_makesblackIg8pp2pp3I_makesblackIg8pp5pp3I_CC1_CC1_CC0 or_makesblackIg8pp3pp2I_makesblackIg8pp3pp5I_CC1_CC1_CC2_CC0 )
{
	data = (((	0.0	1.0	)
		(	1.0	0.0	))
		((	1.0	0.0	)
		(	1.0	0.0	)));
}
potential ( matchIg7pp5pp3I_CC1_CC0_pf0I0I | true_colorIp3pc1I guess_colorIg7pp5pc1I )
{
	data = (((	1.0	0.0	)
		(	1.0	0.0	))
		((	1.0	0.0	)
		(	0.0	1.0	)));
}
potential ( matchIg7pp5pp5I_CC1_CC1 | or_matchIg7pp4pp5I_matchIg7pp5pp5I_CC1_CC1_CC0 or_matchIg7pp5pp4I_matchIg7pp5pp5I_CC1_CC1_CC2_CC0 )
{
	data = (((	0.0	1.0	)
		(	1.0	0.0	))
		((	1.0	0.0	)
		(	1.0	0.0	)));
}
potential ( or_matchIg4pp3pp3I_makeswhiteIg4pp5pp3I_CC1_CC0 | or_matchIg4pp3pp2I_makeswhiteIg4pp5pp3I_CC1_CC0 matchIg4pp3pp3I )
{
	data = (((	1.0	0.0	)
		(	0.0	1.0	))
		((	0.0	1.0	)
		(	0.0	1.0	)));
}
potential ( matchIg1pp3pp5I_CC1_CC0_pf0I0I | true_colorIp5pc1I guess_colorIg1pp3pc1I )
{
	data = (((	1.0	0.0	)
		(	1.0	0.0	))
		((	1.0	0.0	)
		(	0.0	1.0	)));
}
potential ( matchIg1pp5pp4I_CC1_CC0_pf0I2I | true_colorIp4pc3I guess_colorIg1pp5pc3I )
{
	data = (((	1.0	0.0	)
		(	1.0	0.0	))
		((	1.0	0.0	)
		(	0.0	1.0	)));
}
potential ( or_makesblackIg1pp4pp4I_makesblackIg1pp5pp4I_CC1_CC1_CC0 | or_makesblackIg1pp3pp4I_makesblackIg1pp5pp4I_CC1_CC1_CC0 makesblackIg1pp4pp4I )
{
	data = (((	1.0	0.0	)
		(	0.0	1.0	))
		((	0.0	1.0	)
		(	0.0	1.0	)));
}
potential ( matchIg8pp3pp3I | matchIg8pp3pp3I_CC1 )
{
	data = ((	1.0	0.0	)
		(	0.0	1.0	));
}
potential ( makeswhiteIg7pp2pp4I_CC1_CC1 | makeswhiteIg7pp1pp4I or_makeswhiteIg7pp2pp3I_makeswhiteIg7pp2pp5I_CC1_CC1_CC2_CC0 )
{
	data = (((	0.0	1.0	)
		(	1.0	0.0	))
		((	1.0	0.0	)
		(	1.0	0.0	)));
}
potential ( matchIg3pp4pp4I | matchIg3pp4pp4I_CC1 )
{
	data = ((	1.0	0.0	)
		(	0.0	1.0	));
}
potential ( makesblackIg4pp3pp4I | makesblackIg4pp3pp4I_CC1 )
{
	data = ((	1.0	0.0	)
		(	0.0	1.0	));
}
potential ( or_matchIg7pp5pp3I_CC1_CC0_pf0I1I_matchIg7pp5pp3I_CC1_CC0 | matchIg7pp5pp3I_CC1_CC0_pf0I0I matchIg7pp5pp3I_CC1_CC0_pf0I1I )
{
	data = (((	1.0	0.0	)
		(	0.0	1.0	))
		((	0.0	1.0	)
		(	0.0	1.0	)));
}
potential ( matchIg4pp4pp5I_CC1 | or_matchIg4pp4pp5I_CC1_CC0_pf0I2I_matchIg4pp4pp5I_CC1_CC0 matchIg4pp4pp5I_CC1_CC1 )
{
	data = (((	1.0	0.0	)
		(	1.0	0.0	))
		((	1.0	0.0	)
		(	0.0	1.0	)));
}
potential ( makeswhiteIg6pp2pp5I_CC1_CC1 | makeswhiteIg6pp1pp5I or_makeswhiteIg6pp2pp4I_makeswhiteIg6pp2pp5I_CC1_CC1_CC2_CC0 )
{
	data = (((	0.0	1.0	)
		(	1.0	0.0	))
		((	1.0	0.0	)
		(	1.0	0.0	)));
}
potential ( matchIg1pp4pp1I_CC1_CC0_pf0I2I | true_colorIp1pc3I guess_colorIg1pp4pc3I )
{
	data = (((	1.0	0.0	)
		(	1.0	0.0	))
		((	1.0	0.0	)
		(	0.0	1.0	)));
}
potential ( makesblackIg7pp4pp4I_CC1_CC1 | or_makesblackIg7pp3pp4I_makesblackIg7pp5pp4I_CC1_CC1_CC0 or_makesblackIg7pp4pp3I_makesblackIg7pp4pp4I_CC1_CC1_CC2_CC0 )
{
	data = (((	0.0	1.0	)
		(	1.0	0.0	))
		((	1.0	0.0	)
		(	1.0	0.0	)));
}
potential ( makeswhiteIg6pp4pp4I_CC1 | or_matchIg6pp4pp5I_makeswhiteIg6pp5pp4I_CC1_CC0 makeswhiteIg6pp4pp4I_CC1_CC1 )
{
	data = (((	1.0	0.0	)
		(	1.0	0.0	))
		((	1.0	0.0	)
		(	0.0	1.0	)));
}
potential ( makesblackIg2pp5pp3I_CC1_CC0_pf0I2I | true_colorIp3pc3I guess_colorIg2pp3pc3I )
{
	data = (((	1.0	0.0	)
		(	1.0	0.0	))
		((	1.0	0.0	)
		(	0.0	1.0	)));
}
potential ( makesblackIg3pp5pp1I_CC1_CC0_pf0I2I | true_colorIp1pc3I guess_colorIg3pp1pc3I )
{
	data = (((	1.0	0.0	)
		(	1.0	0.0	))
		((	1.0	0.0	)
		(	0.0	1.0	)));
}
potential ( matchIg6pp3pp1I_CC1 | or_matchIg6pp3pp1I_CC1_CC0_pf0I2I_matchIg6pp3pp1I_CC1_CC0 or_matchIg6pp2pp1I_matchIg6pp5pp1I_CC1_CC1_CC0 )
{
	data = (((	1.0	0.0	)
		(	1.0	0.0	))
		((	0.0	1.0	)
		(	1.0	0.0	)));
}
potential ( matchIg3pp4pp5I_CC1_CC1 | or_matchIg3pp3pp5I_matchIg3pp5pp5I_CC1_CC1_CC0 or_matchIg3pp4pp4I_makeswhiteIg3pp4pp4I_CC1_CC0 )
{
	data = (((	0.0	1.0	)
		(	1.0	0.0	))
		((	1.0	0.0	)
		(	1.0	0.0	)));
}
potential ( or_makesblackIg4pp4pp4I_makesblackIg4pp5pp4I_CC1_CC1_CC0 | or_makesblackIg4pp3pp4I_makesblackIg4pp5pp4I_CC1_CC1_CC0 makesblackIg4pp4pp4I )
{
	data = (((	1.0	0.0	)
		(	0.0	1.0	))
		((	0.0	1.0	)
		(	0.0	1.0	)));
}
potential ( or_matchIg8pp1pp3I_CC1_CC0_pf0I1I_matchIg8pp1pp3I_CC1_CC0 | matchIg8pp1pp3I_CC1_CC0_pf0I0I matchIg8pp1pp3I_CC1_CC0_pf0I1I )
{
	data = (((	1.0	0.0	)
		(	0.0	1.0	))
		((	0.0	1.0	)
		(	0.0	1.0	)));
}
potential ( or_matchIg7pp1pp3I_CC1_CC0_pf0I1I_matchIg7pp1pp3I_CC1_CC0 | matchIg7pp1pp3I_CC1_CC0_pf0I0I matchIg7pp1pp3I_CC1_CC0_pf0I1I )
{
	data = (((	1.0	0.0	)
		(	0.0	1.0	))
		((	0.0	1.0	)
		(	0.0	1.0	)));
}
potential ( makesblackIg1pp5pp3I | makesblackIg1pp5pp3I_CC1 )
{
	data = ((	1.0	0.0	)
		(	0.0	1.0	));
}
potential ( matchIg2pp4pp5I_CC1_CC0_pf0I0I | true_colorIp5pc1I guess_colorIg2pp4pc1I )
{
	data = (((	1.0	0.0	)
		(	1.0	0.0	))
		((	1.0	0.0	)
		(	0.0	1.0	)));
}
potential ( or_makeswhiteIg5pp3pp5I_whiteIg5pp3I_CC1 | or_makeswhiteIg5pp3pp4I_whiteIg5pp3I_CC1 makeswhiteIg5pp3pp5I )
{
	data = (((	1.0	0.0	)
		(	0.0	1.0	))
		((	0.0	1.0	)
		(	0.0	1.0	)));
}
potential ( matchIg2pp2pp2I_CC1 | or_makesblackIg2pp5pp2I_CC1_CC0_pf0I2I_makesblackIg2pp5pp2I_CC1_CC0 matchIg2pp2pp2I_CC1_CC1 )
{
	data = (((	1.0	0.0	)
		(	1.0	0.0	))
		((	1.0	0.0	)
		(	0.0	1.0	)));
}
potential ( makesblackIg2pp4pp5I_CC1_CC1 | or_makesblackIg2pp3pp5I_makesblackIg2pp5pp5I_CC1_CC1_CC0 or_makesblackIg2pp4pp4I_makesblackIg2pp4pp5I_CC1_CC1_CC2_CC0 )
{
	data = (((	0.0	1.0	)
		(	1.0	0.0	))
		((	1.0	0.0	)
		(	1.0	0.0	)));
}
potential ( makesblackIg2pp3pp5I_CC1 | or_makesblackIg2pp5pp5I_CC1_CC0_pf0I2I_makesblackIg2pp5pp5I_CC1_CC0 makesblackIg2pp3pp5I_CC1_CC1 )
{
	data = (((	1.0	0.0	)
		(	1.0	0.0	))
		((	1.0	0.0	)
		(	0.0	1.0	)));
}
potential ( makesblackIg5pp5pp4I_CC1_CC0_pf0I0I | true_colorIp4pc1I guess_colorIg5pp4pc1I )
{
	data = (((	1.0	0.0	)
		(	1.0	0.0	))
		((	1.0	0.0	)
		(	0.0	1.0	)));
}
potential ( makeswhiteIg6pp4pp2I_CC1_CC1 | or_makeswhiteIg6pp3pp2I_makeswhiteIg6pp5pp2I_CC1_CC1_CC0 makeswhiteIg6pp4pp1I )
{
	data = (((	0.0	1.0	)
		(	1.0	0.0	))
		((	1.0	0.0	)
		(	1.0	0.0	)));
}
potential ( matchIg5pp2pp4I_CC1_CC1 | matchIg5pp1pp4I or_matchIg5pp2pp3I_makeswhiteIg5pp3pp2I_CC1_CC0 )
{
	data = (((	0.0	1.0	)
		(	1.0	0.0	))
		((	1.0	0.0	)
		(	1.0	0.0	)));
}
potential ( makeswhiteIg4pp5pp4I_CC1_CC1 | or_makeswhiteIg4pp4pp4I_makeswhiteIg4pp5pp4I_CC1_CC1_CC0 or_makeswhiteIg4pp5pp3I_makeswhiteIg4pp5pp5I_CC1_CC1_CC2_CC0 )
{
	data = (((	0.0	1.0	)
		(	1.0	0.0	))
		((	1.0	0.0	)
		(	1.0	0.0	)));
}
potential ( true_colorIp3pc3I | or_true_colorIp3pc2I_true_colorIp3pc3I_CC1_CC0 )
{
	data = ((	0.0	1.0	)
		(	1.0	0.0	));
}
potential ( matchIg5pp3pp1I_CC1_CC0_pf0I2I | true_colorIp1pc3I guess_colorIg5pp3pc3I )
{
	data = (((	1.0	0.0	)
		(	1.0	0.0	))
		((	1.0	0.0	)
		(	0.0	1.0	)));
}
potential ( makesblackIg8pp5pp4I_CC1_CC1 | or_makesblackIg8pp4pp4I_makesblackIg8pp5pp4I_CC1_CC1_CC0 or_makesblackIg8pp5pp3I_makesblackIg8pp5pp5I_CC1_CC1_CC2_CC0 )
{
	data = (((	0.0	1.0	)
		(	1.0	0.0	))
		((	1.0	0.0	)
		(	1.0	0.0	)));
}
potential ( makeswhiteIg3pp2pp5I | makeswhiteIg3pp2pp5I_CC1 )
{
	data = ((	1.0	0.0	)
		(	0.0	1.0	));
}
potential ( matchIg1pp2pp2I | matchIg1pp2pp2I_CC1 )
{
	data = ((	1.0	0.0	)
		(	0.0	1.0	));
}
potential ( or_matchIg4pp5pp1I_CC1_CC0_pf0I2I_matchIg4pp5pp1I_CC1_CC0 | or_matchIg4pp5pp1I_CC1_CC0_pf0I1I_matchIg4pp5pp1I_CC1_CC0 matchIg4pp5pp1I_CC1_CC0_pf0I2I )
{
	data = (((	1.0	0.0	)
		(	0.0	1.0	))
		((	0.0	1.0	)
		(	0.0	1.0	)));
}
potential ( or_makeswhiteIg6pp1pp3I_whiteIg6pp1I_CC1 | or_makeswhiteIg6pp1pp2I_whiteIg6pp1I_CC1 makeswhiteIg6pp1pp3I )
{
	data = (((	1.0	0.0	)
		(	0.0	1.0	))
		((	0.0	1.0	)
		(	0.0	1.0	)));
}
potential ( guess_colorIg1pp1pc3I | or_guess_colorIg1pp1pc2I_guess_colorIg1pp1pc3I_CC1_CC0 )
{
	data = ((	0.0	1.0	)
		(	1.0	0.0	));
}
potential ( makeswhiteIg2pp1pp1I | or_matchIg2pp1pp5I_makeswhiteIg2pp5pp1I_CC1_CC0 )
{
	data = ((	1.0	0.0	)
		(	0.0	1.0	));
}
potential ( matchIg6pp3pp5I_CC1_CC1 | or_matchIg6pp2pp5I_matchIg6pp5pp5I_CC1_CC1_CC0 or_matchIg6pp3pp4I_makeswhiteIg6pp5pp3I_CC1_CC0 )
{
	data = (((	0.0	1.0	)
		(	1.0	0.0	))
		((	1.0	0.0	)
		(	1.0	0.0	)));
}
potential ( makeswhiteIg3pp2pp1I_CC1 | or_matchIg3pp1pp5I_makeswhiteIg3pp5pp1I_CC1_CC0 makeswhiteIg3pp1pp1I )
{
	data = (((	1.0	0.0	)
		(	1.0	0.0	))
		((	0.0	1.0	)
		(	1.0	0.0	)));
}
potential ( matchIg7pp3pp1I_CC1_CC0_pf0I0I | true_colorIp1pc1I guess_colorIg7pp3pc1I )
{
	data = (((	1.0	0.0	)
		(	1.0	0.0	))
		((	1.0	0.0	)
		(	0.0	1.0	)));
}
potential ( or_matchIg3pp2pp4I_makeswhiteIg3pp3pp2I_CC1_CC0 | or_matchIg3pp2pp3I_makeswhiteIg3pp3pp2I_CC1_CC0 matchIg3pp2pp4I )
{
	data = (((	1.0	0.0	)
		(	0.0	1.0	))
		((	0.0	1.0	)
		(	0.0	1.0	)));
}
potential ( matchIg5pp4pp5I_CC1_CC1 | or_matchIg5pp3pp5I_matchIg5pp5pp5I_CC1_CC1_CC0 or_matchIg5pp4pp4I_makeswhiteIg5pp4pp4I_CC1_CC0 )
{
	data = (((	0.0	1.0	)
		(	1.0	0.0	))
		((	1.0	0.0	)
		(	1.0	0.0	)));
}
potential ( matchIg1pp1pp4I_CC1 | or_matchIg1pp1pp4I_CC1_CC0_pf0I2I_matchIg1pp1pp4I_CC1_CC0 or_matchIg1pp1pp3I_matchIg1pp1pp5I_CC1_CC1_CC2_CC0 )
{
	data = (((	1.0	0.0	)
		(	1.0	0.0	))
		((	0.0	1.0	)
		(	1.0	0.0	)));
}
potential ( matchIg6pp1pp2I_CC1_CC0_pf0I2I | true_colorIp2pc3I guess_colorIg6pp1pc3I )
{
	data = (((	1.0	0.0	)
		(	1.0	0.0	))
		((	1.0	0.0	)
		(	0.0	1.0	)));
}
potential ( matchIg1pp2pp1I_CC1 | or_matchIg1pp2pp1I_CC1_CC0_pf0I2I_matchIg1pp2pp1I_CC1_CC0 matchIg1pp1pp1I )
{
	data = (((	1.0	0.0	)
		(	1.0	0.0	))
		((	0.0	1.0	)
		(	1.0	0.0	)));
}
potential ( makesblackIg1pp2pp4I_CC1 | or_makesblackIg1pp5pp4I_CC1_CC0_pf0I2I_makesblackIg1pp5pp4I_CC1_CC0 makesblackIg1pp2pp4I_CC1_CC1 )
{
	data = (((	1.0	0.0	)
		(	1.0	0.0	))
		((	1.0	0.0	)
		(	0.0	1.0	)));
}
potential ( matchIg8pp1pp5I_CC1 | or_matchIg8pp1pp5I_CC1_CC0_pf0I2I_matchIg8pp1pp5I_CC1_CC0 or_matchIg8pp1pp4I_makeswhiteIg8pp4pp1I_CC1_CC0 )
{
	data = (((	1.0	0.0	)
		(	1.0	0.0	))
		((	0.0	1.0	)
		(	1.0	0.0	)));
}
potential ( makesblackIg4pp3pp5I_CC1_CC1 | or_makesblackIg4pp2pp5I_makesblackIg4pp4pp5I_CC1_CC1_CC0 or_makesblackIg4pp3pp4I_makesblackIg4pp3pp5I_CC1_CC1_CC2_CC0 )
{
	data = (((	0.0	1.0	)
		(	1.0	0.0	))
		((	1.0	0.0	)
		(	1.0	0.0	)));
}
potential ( or_matchIg1pp5pp1I_CC1_CC0_pf0I1I_matchIg1pp5pp1I_CC1_CC0 | matchIg1pp5pp1I_CC1_CC0_pf0I0I matchIg1pp5pp1I_CC1_CC0_pf0I1I )
{
	data = (((	1.0	0.0	)
		(	0.0	1.0	))
		((	0.0	1.0	)
		(	0.0	1.0	)));
}
potential ( makeswhiteIg3pp3pp5I_CC1 | or_matchIg3pp5pp5I_makeswhiteIg3pp4pp5I_CC1_CC0 makeswhiteIg3pp3pp5I_CC1_CC1 )
{
	data = (((	1.0	0.0	)
		(	1.0	0.0	))
		((	1.0	0.0	)
		(	0.0	1.0	)));
}
potential ( or_makeswhiteIg4pp2pp3I_makeswhiteIg4pp2pp5I_CC1_CC1_CC2_CC0 | or_makeswhiteIg4pp2pp2I_makeswhiteIg4pp2pp3I_CC1_CC1_CC2_CC0 makeswhiteIg4pp2pp3I )
{
	data = (((	1.0	0.0	)
		(	0.0	1.0	))
		((	0.0	1.0	)
		(	0.0	1.0	)));
}
potential ( makesblackIg4pp2pp4I_CC1 | or_makesblackIg4pp5pp4I_CC1_CC0_pf0I2I_makesblackIg4pp5pp4I_CC1_CC0 makesblackIg4pp2pp4I_CC1_CC1 )
{
	data = (((	1.0	0.0	)
		(	1.0	0.0	))
		((	1.0	0.0	)
		(	0.0	1.0	)));
}
potential ( or_matchIg8pp1pp4I_CC1_CC0_pf0I2I_matchIg8pp1pp4I_CC1_CC0 | or_matchIg8pp1pp4I_CC1_CC0_pf0I1I_matchIg8pp1pp4I_CC1_CC0 matchIg8pp1pp4I_CC1_CC0_pf0I2I )
{
	data = (((	1.0	0.0	)
		(	0.0	1.0	))
		((	0.0	1.0	)
		(	0.0	1.0	)));
}
potential ( makesblackIg5pp3pp4I_CC1_CC1 | or_makesblackIg5pp2pp4I_makesblackIg5pp5pp4I_CC1_CC1_CC0 or_makesblackIg5pp3pp3I_makesblackIg5pp3pp5I_CC1_CC1_CC2_CC0 )
{
	data = (((	0.0	1.0	)
		(	1.0	0.0	))
		((	1.0	0.0	)
		(	1.0	0.0	)));
}
potential ( makesblackIg5pp5pp5I_CC1 | or_makesblackIg5pp5pp5I_CC1_CC0_pf0I2I_makesblackIg5pp5pp5I_CC1_CC0 makesblackIg5pp5pp5I_CC1_CC1 )
{
	data = (((	1.0	0.0	)
		(	1.0	0.0	))
		((	1.0	0.0	)
		(	0.0	1.0	)));
}
potential ( or_makeswhiteIg3pp3pp3I_makeswhiteIg3pp5pp3I_CC1_CC1_CC0 | or_makeswhiteIg3pp2pp3I_makeswhiteIg3pp5pp3I_CC1_CC1_CC0 makeswhiteIg3pp3pp3I )
{
	data = (((	1.0	0.0	)
		(	0.0	1.0	))
		((	0.0	1.0	)
		(	0.0	1.0	)));
}
potential ( makesblackIg8pp3pp1I_CC1 | or_makesblackIg8pp5pp1I_CC1_CC0_pf0I2I_makesblackIg8pp5pp1I_CC1_CC0 or_makesblackIg8pp2pp1I_makesblackIg8pp4pp1I_CC1_CC1_CC0 )
{
	data = (((	1.0	0.0	)
		(	1.0	0.0	))
		((	0.0	1.0	)
		(	1.0	0.0	)));
}
potential ( or_matchIg5pp3pp2I_makeswhiteIg5pp5pp3I_CC1_CC0 | matchIg5pp3pp1I matchIg5pp3pp2I )
{
	data = (((	1.0	0.0	)
		(	0.0	1.0	))
		((	0.0	1.0	)
		(	0.0	1.0	)));
}
potential ( makesblackIg5pp4pp5I_CC1 | or_makesblackIg5pp5pp5I_CC1_CC0_pf0I2I_makesblackIg5pp5pp5I_CC1_CC0 makesblackIg5pp4pp5I_CC1_CC1 )
{
	data = (((	1.0	0.0	)
		(	1.0	0.0	))
		((	1.0	0.0	)
		(	0.0	1.0	)));
}
potential ( makesblackIg7pp4pp3I_CC1 | or_makesblackIg7pp5pp3I_CC1_CC0_pf0I2I_makesblackIg7pp5pp3I_CC1_CC0 makesblackIg7pp4pp3I_CC1_CC1 )
{
	data = (((	1.0	0.0	)
		(	1.0	0.0	))
		((	1.0	0.0	)
		(	0.0	1.0	)));
}
potential ( matchIg2pp5pp4I_CC1_CC1 | or_matchIg2pp4pp4I_matchIg2pp5pp4I_CC1_CC1_CC0 or_matchIg2pp5pp3I_matchIg2pp5pp5I_CC1_CC1_CC2_CC0 )
{
	data = (((	0.0	1.0	)
		(	1.0	0.0	))
		((	1.0	0.0	)
		(	1.0	0.0	)));
}
potential ( makesblackIg6pp2pp4I_CC1 | or_makesblackIg6pp5pp4I_CC1_CC0_pf0I2I_makesblackIg6pp5pp4I_CC1_CC0 makesblackIg6pp2pp4I_CC1_CC1 )
{
	data = (((	1.0	0.0	)
		(	1.0	0.0	))
		((	1.0	0.0	)
		(	0.0	1.0	)));
}
potential ( makeswhiteIg7pp2pp1I_CC1 | or_matchIg7pp1pp5I_makeswhiteIg7pp5pp1I_CC1_CC0 makeswhiteIg7pp1pp1I )
{
	data = (((	1.0	0.0	)
		(	1.0	0.0	))
		((	0.0	1.0	)
		(	1.0	0.0	)));
}
potential ( or_matchIg7pp3pp4I_CC1_CC0_pf0I1I_matchIg7pp3pp4I_CC1_CC0 | matchIg7pp3pp4I_CC1_CC0_pf0I0I matchIg7pp3pp4I_CC1_CC0_pf0I1I )
{
	data = (((	1.0	0.0	)
		(	0.0	1.0	))
		((	0.0	1.0	)
		(	0.0	1.0	)));
}
potential ( or_matchIg3pp3pp4I_CC1_CC0_pf0I1I_matchIg3pp3pp4I_CC1_CC0 | matchIg3pp3pp4I_CC1_CC0_pf0I0I matchIg3pp3pp4I_CC1_CC0_pf0I1I )
{
	data = (((	1.0	0.0	)
		(	0.0	1.0	))
		((	0.0	1.0	)
		(	0.0	1.0	)));
}
potential ( makesblackIg7pp4pp1I | makesblackIg7pp4pp1I_CC1 )
{
	data = ((	1.0	0.0	)
		(	0.0	1.0	));
}
potential ( matchIg4pp5pp3I_CC1 | or_matchIg4pp5pp3I_CC1_CC0_pf0I2I_matchIg4pp5pp3I_CC1_CC0 matchIg4pp5pp3I_CC1_CC1 )
{
	data = (((	1.0	0.0	)
		(	1.0	0.0	))
		((	1.0	0.0	)
		(	0.0	1.0	)));
}
potential ( guess_colorIg7pp5pc3I | or_guess_colorIg7pp5pc2I_guess_colorIg7pp5pc3I_CC1_CC0 )
{
	data = ((	0.0	1.0	)
		(	1.0	0.0	));
}
potential ( makeswhiteIg7pp3pp1I_CC1 | or_matchIg7pp1pp5I_makeswhiteIg7pp5pp1I_CC1_CC0 or_makeswhiteIg7pp2pp1I_makeswhiteIg7pp4pp1I_CC1_CC1_CC0 )
{
	data = (((	1.0	0.0	)
		(	1.0	0.0	))
		((	0.0	1.0	)
		(	1.0	0.0	)));
}
potential ( makeswhiteIg2pp3pp5I_CC1_CC1 | or_makeswhiteIg2pp2pp5I_makeswhiteIg2pp5pp5I_CC1_CC1_CC0 or_makeswhiteIg2pp3pp4I_makeswhiteIg2pp3pp5I_CC1_CC1_CC2_CC0 )
{
	data = (((	0.0	1.0	)
		(	1.0	0.0	))
		((	1.0	0.0	)
		(	1.0	0.0	)));
}
potential ( matchIg7pp2pp4I_CC1_CC0_pf0I2I | true_colorIp4pc3I guess_colorIg7pp2pc3I )
{
	data = (((	1.0	0.0	)
		(	1.0	0.0	))
		((	1.0	0.0	)
		(	0.0	1.0	)));
}
potential ( matchIg2pp3pp1I | matchIg2pp3pp1I_CC1 )
{
	data = ((	1.0	0.0	)
		(	0.0	1.0	));
}
potential ( matchIg6pp2pp5I | matchIg6pp2pp5I_CC1 )
{
	data = ((	1.0	0.0	)
		(	0.0	1.0	));
}
potential ( makesblackIg8pp2pp2I | makesblackIg8pp2pp2I_CC1 )
{
	data = ((	1.0	0.0	)
		(	0.0	1.0	));
}
potential ( makeswhiteIg3pp3pp5I | makeswhiteIg3pp3pp5I_CC1 )
{
	data = ((	1.0	0.0	)
		(	0.0	1.0	));
}
potential ( makeswhiteIg2pp5pp5I_CC1_CC1 | or_makeswhiteIg2pp4pp5I_makeswhiteIg2pp5pp5I_CC1_CC1_CC0 or_makeswhiteIg2pp5pp4I_makeswhiteIg2pp5pp5I_CC1_CC1_CC2_CC0 )
{
	data = (((	0.0	1.0	)
		(	1.0	0.0	))
		((	1.0	0.0	)
		(	1.0	0.0	)));
}
potential ( matchIg7pp4pp3I_CC1 | or_matchIg7pp4pp3I_CC1_CC0_pf0I2I_matchIg7pp4pp3I_CC1_CC0 matchIg7pp4pp3I_CC1_CC1 )
{
	data = (((	1.0	0.0	)
		(	1.0	0.0	))
		((	1.0	0.0	)
		(	0.0	1.0	)));
}
potential ( makesblackIg6pp4pp4I_CC1 | or_makesblackIg6pp5pp4I_CC1_CC0_pf0I2I_makesblackIg6pp5pp4I_CC1_CC0 makesblackIg6pp4pp4I_CC1_CC1 )
{
	data = (((	1.0	0.0	)
		(	1.0	0.0	))
		((	1.0	0.0	)
		(	0.0	1.0	)));
}
potential ( makesblackIg8pp4pp1I_CC1 | or_makesblackIg8pp5pp1I_CC1_CC0_pf0I2I_makesblackIg8pp5pp1I_CC1_CC0 or_makesblackIg8pp3pp1I_makesblackIg8pp5pp1I_CC1_CC1_CC0 )
{
	data = (((	1.0	0.0	)
		(	1.0	0.0	))
		((	0.0	1.0	)
		(	1.0	0.0	)));
}
potential ( or_makesblackIg4pp3pp5I_makesblackIg4pp5pp5I_CC1_CC1_CC0 | or_makesblackIg4pp2pp5I_makesblackIg4pp4pp5I_CC1_CC1_CC0 makesblackIg4pp3pp5I )
{
	data = (((	1.0	0.0	)
		(	0.0	1.0	))
		((	0.0	1.0	)
		(	0.0	1.0	)));
}
potential ( matchIg8pp1pp2I_CC1 | or_matchIg8pp1pp2I_CC1_CC0_pf0I2I_matchIg8pp1pp2I_CC1_CC0 matchIg8pp1pp1I )
{
	data = (((	1.0	0.0	)
		(	1.0	0.0	))
		((	0.0	1.0	)
		(	1.0	0.0	)));
}
potential ( matchIg1pp3pp5I_CC1_CC1 | or_matchIg1pp2pp5I_matchIg1pp5pp5I_CC1_CC1_CC0 or_matchIg1pp3pp4I_makeswhiteIg1pp5pp3I_CC1_CC0 )
{
	data = (((	0.0	1.0	)
		(	1.0	0.0	))
		((	1.0	0.0	)
		(	1.0	0.0	)));
}
potential ( blackIg2pp2I | or_makesblackIg2pp2pp5I_blackIg2pp2I_CC1 )
{
	data = ((	1.0	0.0	)
		(	0.0	1.0	));
}
potential ( makesblackIg4pp5pp3I_CC1_CC0_pf0I1I | true_colorIp3pc2I guess_colorIg4pp3pc2I )
{
	data = (((	1.0	0.0	)
		(	1.0	0.0	))
		((	1.0	0.0	)
		(	0.0	1.0	)));
}
potential ( makeswhiteIg4pp4pp2I | makeswhiteIg4pp4pp2I_CC1 )
{
	data = ((	1.0	0.0	)
		(	0.0	1.0	));
}
potential ( makeswhiteIg5pp3pp2I | makeswhiteIg5pp3pp2I_CC1 )
{
	data = ((	1.0	0.0	)
		(	0.0	1.0	));
}
potential ( or_makesblackIg5pp5pp4I_CC1_CC0_pf0I1I_makesblackIg5pp5pp4I_CC1_CC0 | makesblackIg5pp5pp4I_CC1_CC0_pf0I0I makesblackIg5pp5pp4I_CC1_CC0_pf0I1I )
{
	data = (((	1.0	0.0	)
		(	0.0	1.0	))
		((	0.0	1.0	)
		(	0.0	1.0	)));
}
potential ( makesblackIg8pp1pp2I | makesblackIg8pp1pp2I_CC1 )
{
	data = ((	1.0	0.0	)
		(	0.0	1.0	));
}
potential ( or_makeswhiteIg8pp4pp3I_makeswhiteIg8pp5pp3I_CC1_CC1_CC0 | or_makeswhiteIg8pp3pp3I_makeswhiteIg8pp5pp3I_CC1_CC1_CC0 makeswhiteIg8pp4pp3I )
{
	data = (((	1.0	0.0	)
		(	0.0	1.0	))
		((	0.0	1.0	)
		(	0.0	1.0	)));
}
potential ( or_makesblackIg3pp5pp5I_CC1_CC0_pf0I1I_makesblackIg3pp5pp5I_CC1_CC0 | makesblackIg3pp5pp5I_CC1_CC0_pf0I0I makesblackIg3pp5pp5I_CC1_CC0_pf0I1I )
{
	data = (((	1.0	0.0	)
		(	0.0	1.0	))
		((	0.0	1.0	)
		(	0.0	1.0	)));
}
potential ( or_matchIg5pp1pp4I_CC1_CC0_pf0I1I_matchIg5pp1pp4I_CC1_CC0 | matchIg5pp1pp4I_CC1_CC0_pf0I0I matchIg5pp1pp4I_CC1_CC0_pf0I1I )
{
	data = (((	1.0	0.0	)
		(	0.0	1.0	))
		((	0.0	1.0	)
		(	0.0	1.0	)));
}
potential ( or_makeswhiteIg8pp2pp4I_whiteIg8pp2I_CC1 | or_makeswhiteIg8pp2pp3I_whiteIg8pp2I_CC1 makeswhiteIg8pp2pp4I )
{
	data = (((	1.0	0.0	)
		(	0.0	1.0	))
		((	0.0	1.0	)
		(	0.0	1.0	)));
}
potential ( or_makeswhiteIg3pp3pp2I_makeswhiteIg3pp5pp2I_CC1_CC1_CC0 | or_makeswhiteIg3pp2pp2I_makeswhiteIg3pp5pp2I_CC1_CC1_CC0 makeswhiteIg3pp3pp2I )
{
	data = (((	1.0	0.0	)
		(	0.0	1.0	))
		((	0.0	1.0	)
		(	0.0	1.0	)));
}
potential ( or_makeswhiteIg8pp3pp4I_makeswhiteIg8pp3pp5I_CC1_CC1_CC2_CC0 | or_makeswhiteIg8pp3pp3I_makeswhiteIg8pp3pp5I_CC1_CC1_CC2_CC0 makeswhiteIg8pp3pp4I )
{
	data = (((	1.0	0.0	)
		(	0.0	1.0	))
		((	0.0	1.0	)
		(	0.0	1.0	)));
}
potential ( makeswhiteIg7pp1pp3I | makeswhiteIg7pp1pp3I_CC1 )
{
	data = ((	1.0	0.0	)
		(	0.0	1.0	));
}
potential ( or_makeswhiteIg7pp3pp3I_makeswhiteIg7pp3pp5I_CC1_CC1_CC2_CC0 | or_makeswhiteIg7pp3pp2I_makeswhiteIg7pp3pp5I_CC1_CC1_CC2_CC0 makeswhiteIg7pp3pp3I )
{
	data = (((	1.0	0.0	)
		(	0.0	1.0	))
		((	0.0	1.0	)
		(	0.0	1.0	)));
}
potential ( or_matchIg1pp2pp3I_makeswhiteIg1pp3pp2I_CC1_CC0 | or_matchIg1pp2pp2I_makeswhiteIg1pp3pp2I_CC1_CC0 matchIg1pp2pp3I )
{
	data = (((	1.0	0.0	)
		(	0.0	1.0	))
		((	0.0	1.0	)
		(	0.0	1.0	)));
}
potential ( matchIg2pp4pp1I_CC1 | or_matchIg2pp4pp1I_CC1_CC0_pf0I2I_matchIg2pp4pp1I_CC1_CC0 or_matchIg2pp3pp1I_matchIg2pp5pp1I_CC1_CC1_CC0 )
{
	data = (((	1.0	0.0	)
		(	1.0	0.0	))
		((	0.0	1.0	)
		(	1.0	0.0	)));
}
potential ( makeswhiteIg8pp5pp5I_CC1 | or_matchIg8pp5pp5I_makeswhiteIg8pp2pp5I_CC1_CC0 makeswhiteIg8pp5pp5I_CC1_CC1 )
{
	data = (((	1.0	0.0	)
		(	1.0	0.0	))
		((	1.0	0.0	)
		(	0.0	1.0	)));
}
potential ( or_matchIg8pp3pp2I_makeswhiteIg8pp5pp3I_CC1_CC0 | matchIg8pp3pp1I matchIg8pp3pp2I )
{
	data = (((	1.0	0.0	)
		(	0.0	1.0	))
		((	0.0	1.0	)
		(	0.0	1.0	)));
}
potential ( makeswhiteIg5pp4pp2I | makeswhiteIg5pp4pp2I_CC1 )
{
	data = ((	1.0	0.0	)
		(	0.0	1.0	));
}
potential ( blackIg8pp1I | or_makesblackIg8pp1pp5I_blackIg8pp1I_CC1 )
{
	data = ((	1.0	0.0	)
		(	0.0	1.0	));
}
potential ( or_guess_colorIg3pp4pc2I_guess_colorIg3pp4pc3I_CC1_CC0 | guess_colorIg3pp4pc1I guess_colorIg3pp4pc2I )
{
	data = (((	1.0	0.0	)
		(	0.0	1.0	))
		((	0.0	1.0	)
		(	0.0	1.0	)));
}
potential ( matchIg3pp3pp2I_CC1_CC0_pf0I2I | true_colorIp2pc3I guess_colorIg3pp3pc3I )
{
	data = (((	1.0	0.0	)
		(	1.0	0.0	))
		((	1.0	0.0	)
		(	0.0	1.0	)));
}
potential ( or_matchIg6pp2pp4I_CC1_CC0_pf0I1I_matchIg6pp2pp4I_CC1_CC0 | matchIg6pp2pp4I_CC1_CC0_pf0I0I matchIg6pp2pp4I_CC1_CC0_pf0I1I )
{
	data = (((	1.0	0.0	)
		(	0.0	1.0	))
		((	0.0	1.0	)
		(	0.0	1.0	)));
}
potential ( makeswhiteIg1pp3pp3I_CC1_CC1 | or_makeswhiteIg1pp2pp3I_makeswhiteIg1pp5pp3I_CC1_CC1_CC0 or_makeswhiteIg1pp3pp2I_makeswhiteIg1pp3pp5I_CC1_CC1_CC2_CC0 )
{
	data = (((	0.0	1.0	)
		(	1.0	0.0	))
		((	1.0	0.0	)
		(	1.0	0.0	)));
}
potential ( or_makesblackIg3pp3pp2I_makesblackIg3pp5pp2I_CC1_CC1_CC0 | or_makesblackIg3pp2pp2I_makesblackIg3pp5pp2I_CC1_CC1_CC0 makesblackIg3pp3pp2I )
{
	data = (((	1.0	0.0	)
		(	0.0	1.0	))
		((	0.0	1.0	)
		(	0.0	1.0	)));
}
potential ( makeswhiteIg1pp2pp3I | makeswhiteIg1pp2pp3I_CC1 )
{
	data = ((	1.0	0.0	)
		(	0.0	1.0	));
}
potential ( makesblackIg5pp5pp3I_CC1_CC1 | or_makesblackIg5pp4pp3I_makesblackIg5pp5pp3I_CC1_CC1_CC0 or_makesblackIg5pp5pp2I_makesblackIg5pp5pp5I_CC1_CC1_CC2_CC0 )
{
	data = (((	0.0	1.0	)
		(	1.0	0.0	))
		((	1.0	0.0	)
		(	1.0	0.0	)));
}
potential ( or_makesblackIg7pp3pp5I_makesblackIg7pp5pp5I_CC1_CC1_CC0 | or_makesblackIg7pp2pp5I_makesblackIg7pp4pp5I_CC1_CC1_CC0 makesblackIg7pp3pp5I )
{
	data = (((	1.0	0.0	)
		(	0.0	1.0	))
		((	0.0	1.0	)
		(	0.0	1.0	)));
}
potential ( makesblackIg5pp4pp2I_CC1 | or_makesblackIg5pp5pp2I_CC1_CC0_pf0I2I_makesblackIg5pp5pp2I_CC1_CC0 makesblackIg5pp4pp2I_CC1_CC1 )
{
	data = (((	1.0	0.0	)
		(	1.0	0.0	))
		((	1.0	0.0	)
		(	0.0	1.0	)));
}
potential ( makesblackIg7pp3pp3I_CC1 | or_makesblackIg7pp5pp3I_CC1_CC0_pf0I2I_makesblackIg7pp5pp3I_CC1_CC0 makesblackIg7pp3pp3I_CC1_CC1 )
{
	data = (((	1.0	0.0	)
		(	1.0	0.0	))
		((	1.0	0.0	)
		(	0.0	1.0	)));
}
potential ( makesblackIg1pp3pp2I_CC1_CC1 | or_makesblackIg1pp2pp2I_makesblackIg1pp5pp2I_CC1_CC1_CC0 makesblackIg1pp3pp1I )
{
	data = (((	0.0	1.0	)
		(	1.0	0.0	))
		((	1.0	0.0	)
		(	1.0	0.0	)));
}
potential ( or_makesblackIg8pp2pp1I_makesblackIg8pp4pp1I_CC1_CC1_CC0 | makesblackIg8pp1pp1I makesblackIg8pp2pp1I )
{
	data = (((	1.0	0.0	)
		(	0.0	1.0	))
		((	0.0	1.0	)
		(	0.0	1.0	)));
}
potential ( makeswhiteIg7pp2pp4I | makeswhiteIg7pp2pp4I_CC1 )
{
	data = ((	1.0	0.0	)
		(	0.0	1.0	));
}
potential ( makesblackIg6pp3pp2I_CC1_CC1 | or_makesblackIg6pp2pp2I_makesblackIg6pp5pp2I_CC1_CC1_CC0 makesblackIg6pp3pp1I )
{
	data = (((	0.0	1.0	)
		(	1.0	0.0	))
		((	1.0	0.0	)
		(	1.0	0.0	)));
}
potential ( or_matchIg6pp5pp4I_matchIg6pp5pp5I_CC1_CC1_CC2_CC0 | or_matchIg6pp5pp3I_matchIg6pp5pp5I_CC1_CC1_CC2_CC0 matchIg6pp5pp4I )
{
	data = (((	1.0	0.0	)
		(	0.0	1.0	))
		((	0.0	1.0	)
		(	0.0	1.0	)));
}
potential ( matchIg7pp4pp5I_CC1_CC1 | or_matchIg7pp3pp5I_matchIg7pp5pp5I_CC1_CC1_CC0 or_matchIg7pp4pp4I_makeswhiteIg7pp4pp4I_CC1_CC0 )
{
	data = (((	0.0	1.0	)
		(	1.0	0.0	))
		((	1.0	0.0	)
		(	1.0	0.0	)));
}
potential ( or_makeswhiteIg5pp3pp5I_makeswhiteIg5pp5pp5I_CC1_CC1_CC0 | or_makeswhiteIg5pp2pp5I_makeswhiteIg5pp5pp5I_CC1_CC1_CC0 makeswhiteIg5pp3pp5I )
{
	data = (((	1.0	0.0	)
		(	0.0	1.0	))
		((	0.0	1.0	)
		(	0.0	1.0	)));
}
potential ( or_matchIg1pp2pp4I_CC1_CC0_pf0I1I_matchIg1pp2pp4I_CC1_CC0 | matchIg1pp2pp4I_CC1_CC0_pf0I0I matchIg1pp2pp4I_CC1_CC0_pf0I1I )
{
	data = (((	1.0	0.0	)
		(	0.0	1.0	))
		((	0.0	1.0	)
		(	0.0	1.0	)));
}
potential ( makesblackIg2pp5pp3I_CC1_CC0_pf0I0I | true_colorIp3pc1I guess_colorIg2pp3pc1I )
{
	data = (((	1.0	0.0	)
		(	1.0	0.0	))
		((	1.0	0.0	)
		(	0.0	1.0	)));
}
potential ( makeswhiteIg6pp5pp2I_CC1 | or_matchIg6pp2pp5I_makeswhiteIg6pp3pp2I_CC1_CC0 makeswhiteIg6pp5pp2I_CC1_CC1 )
{
	data = (((	1.0	0.0	)
		(	1.0	0.0	))
		((	1.0	0.0	)
		(	0.0	1.0	)));
}
potential ( or_makesblackIg6pp4pp4I_makesblackIg6pp4pp5I_CC1_CC1_CC2_CC0 | or_makesblackIg6pp4pp3I_makesblackIg6pp4pp4I_CC1_CC1_CC2_CC0 makesblackIg6pp4pp4I )
{
	data = (((	1.0	0.0	)
		(	0.0	1.0	))
		((	0.0	1.0	)
		(	0.0	1.0	)));
}
potential ( makesblackIg6pp4pp2I_CC1 | or_makesblackIg6pp5pp2I_CC1_CC0_pf0I2I_makesblackIg6pp5pp2I_CC1_CC0 makesblackIg6pp4pp2I_CC1_CC1 )
{
	data = (((	1.0	0.0	)
		(	1.0	0.0	))
		((	1.0	0.0	)
		(	0.0	1.0	)));
}
potential ( or_matchIg8pp1pp4I_makeswhiteIg8pp4pp1I_CC1_CC0 | or_matchIg8pp1pp3I_matchIg8pp1pp5I_CC1_CC1_CC2_CC0 matchIg8pp1pp4I )
{
	data = (((	1.0	0.0	)
		(	0.0	1.0	))
		((	0.0	1.0	)
		(	0.0	1.0	)));
}
potential ( makesblackIg4pp4pp3I_CC1 | or_makesblackIg4pp5pp3I_CC1_CC0_pf0I2I_makesblackIg4pp5pp3I_CC1_CC0 makesblackIg4pp4pp3I_CC1_CC1 )
{
	data = (((	1.0	0.0	)
		(	1.0	0.0	))
		((	1.0	0.0	)
		(	0.0	1.0	)));
}
potential ( makeswhiteIg7pp4pp5I_CC1_CC1 | or_makeswhiteIg7pp3pp5I_makeswhiteIg7pp5pp5I_CC1_CC1_CC0 or_makeswhiteIg7pp4pp4I_makeswhiteIg7pp4pp5I_CC1_CC1_CC2_CC0 )
{
	data = (((	0.0	1.0	)
		(	1.0	0.0	))
		((	1.0	0.0	)
		(	1.0	0.0	)));
}
potential ( or_makesblackIg7pp5pp5I_CC1_CC0_pf0I2I_makesblackIg7pp5pp5I_CC1_CC0 | or_makesblackIg7pp5pp5I_CC1_CC0_pf0I1I_makesblackIg7pp5pp5I_CC1_CC0 makesblackIg7pp5pp5I_CC1_CC0_pf0I2I )
{
	data = (((	1.0	0.0	)
		(	0.0	1.0	))
		((	0.0	1.0	)
		(	0.0	1.0	)));
}
potential ( makesblackIg2pp1pp5I | makesblackIg2pp1pp5I_CC1 )
{
	data = ((	1.0	0.0	)
		(	0.0	1.0	));
}
potential ( or_matchIg1pp5pp3I_CC1_CC0_pf0I2I_matchIg1pp5pp3I_CC1_CC0 | or_matchIg1pp5pp3I_CC1_CC0_pf0I1I_matchIg1pp5pp3I_CC1_CC0 matchIg1pp5pp3I_CC1_CC0_pf0I2I )
{
	data = (((	1.0	0.0	)
		(	0.0	1.0	))
		((	0.0	1.0	)
		(	0.0	1.0	)));
}
potential ( whiteIg4pp5I | makeswhiteIg4pp5pp5I )
{
	data = ((	1.0	0.0	)
		(	0.0	1.0	));
}
potential ( makesblackIg7pp3pp3I_CC1_CC1 | or_makesblackIg7pp2pp3I_makesblackIg7pp5pp3I_CC1_CC1_CC0 or_makesblackIg7pp3pp2I_makesblackIg7pp3pp5I_CC1_CC1_CC2_CC0 )
{
	data = (((	0.0	1.0	)
		(	1.0	0.0	))
		((	1.0	0.0	)
		(	1.0	0.0	)));
}
potential ( makesblackIg8pp4pp2I | makesblackIg8pp4pp2I_CC1 )
{
	data = ((	1.0	0.0	)
		(	0.0	1.0	));
}
potential ( matchIg4pp4pp3I_CC1_CC0_pf0I0I | true_colorIp3pc1I guess_colorIg4pp4pc1I )
{
	data = (((	1.0	0.0	)
		(	1.0	0.0	))
		((	1.0	0.0	)
		(	0.0	1.0	)));
}
potential ( makeswhiteIg8pp4pp2I_CC1 | or_matchIg8pp2pp5I_makeswhiteIg8pp5pp2I_CC1_CC0 makeswhiteIg8pp4pp2I_CC1_CC1 )
{
	data = (((	1.0	0.0	)
		(	1.0	0.0	))
		((	1.0	0.0	)
		(	0.0	1.0	)));
}
potential ( blackIg5pp5I | makesblackIg5pp5pp5I )
{
	data = ((	1.0	0.0	)
		(	0.0	1.0	));
}
potential ( makeswhiteIg5pp5pp4I_CC1_CC1 | or_makeswhiteIg5pp4pp4I_makeswhiteIg5pp5pp4I_CC1_CC1_CC0 or_makeswhiteIg5pp5pp3I_makeswhiteIg5pp5pp5I_CC1_CC1_CC2_CC0 )
{
	data = (((	0.0	1.0	)
		(	1.0	0.0	))
		((	1.0	0.0	)
		(	1.0	0.0	)));
}
potential ( or_makesblackIg7pp3pp4I_makesblackIg7pp5pp4I_CC1_CC1_CC0 | or_makesblackIg7pp2pp4I_makesblackIg7pp5pp4I_CC1_CC1_CC0 makesblackIg7pp3pp4I )
{
	data = (((	1.0	0.0	)
		(	0.0	1.0	))
		((	0.0	1.0	)
		(	0.0	1.0	)));
}
potential ( makeswhiteIg6pp2pp4I | makeswhiteIg6pp2pp4I_CC1 )
{
	data = ((	1.0	0.0	)
		(	0.0	1.0	));
}
potential ( makesblackIg3pp5pp3I_CC1 | or_makesblackIg3pp5pp3I_CC1_CC0_pf0I2I_makesblackIg3pp5pp3I_CC1_CC0 makesblackIg3pp5pp3I_CC1_CC1 )
{
	data = (((	1.0	0.0	)
		(	1.0	0.0	))
		((	1.0	0.0	)
		(	0.0	1.0	)));
}
potential ( or_makesblackIg2pp4pp2I_makesblackIg2pp4pp4I_CC1_CC1_CC2_CC0 | makesblackIg2pp4pp1I makesblackIg2pp4pp2I )
{
	data = (((	1.0	0.0	)
		(	0.0	1.0	))
		((	0.0	1.0	)
		(	0.0	1.0	)));
}
potential ( matchIg2pp5pp5I | matchIg2pp5pp5I_CC1 )
{
	data = ((	1.0	0.0	)
		(	0.0	1.0	));
}
potential ( or_makesblackIg8pp3pp2I_makesblackIg8pp5pp2I_CC1_CC1_CC0 | or_makesblackIg8pp2pp2I_makesblackIg8pp5pp2I_CC1_CC1_CC0 makesblackIg8pp3pp2I )
{
	data = (((	1.0	0.0	)
		(	0.0	1.0	))
		((	0.0	1.0	)
		(	0.0	1.0	)));
}
potential ( matchIg7pp4pp5I_CC1_CC0_pf0I2I | true_colorIp5pc3I guess_colorIg7pp4pc3I )
{
	data = (((	1.0	0.0	)
		(	1.0	0.0	))
		((	1.0	0.0	)
		(	0.0	1.0	)));
}
potential ( makesblackIg2pp3pp3I | makesblackIg2pp3pp3I_CC1 )
{
	data = ((	1.0	0.0	)
		(	0.0	1.0	));
}
potential ( matchIg4pp2pp5I_CC1_CC1 | matchIg4pp1pp5I or_matchIg4pp2pp4I_makeswhiteIg4pp3pp2I_CC1_CC0 )
{
	data = (((	0.0	1.0	)
		(	1.0	0.0	))
		((	1.0	0.0	)
		(	1.0	0.0	)));
}
potential ( matchIg4pp4pp3I_CC1 | or_matchIg4pp4pp3I_CC1_CC0_pf0I2I_matchIg4pp4pp3I_CC1_CC0 matchIg4pp4pp3I_CC1_CC1 )
{
	data = (((	1.0	0.0	)
		(	1.0	0.0	))
		((	1.0	0.0	)
		(	0.0	1.0	)));
}
potential ( matchIg5pp3pp2I_CC1 | or_matchIg5pp3pp2I_CC1_CC0_pf0I2I_matchIg5pp3pp2I_CC1_CC0 matchIg5pp3pp2I_CC1_CC1 )
{
	data = (((	1.0	0.0	)
		(	1.0	0.0	))
		((	1.0	0.0	)
		(	0.0	1.0	)));
}
potential ( matchIg3pp4pp2I_CC1_CC0_pf0I2I | true_colorIp2pc3I guess_colorIg3pp4pc3I )
{
	data = (((	1.0	0.0	)
		(	1.0	0.0	))
		((	1.0	0.0	)
		(	0.0	1.0	)));
}
potential ( makeswhiteIg4pp3pp1I_CC1 | or_matchIg4pp1pp5I_makeswhiteIg4pp5pp1I_CC1_CC0 or_makeswhiteIg4pp2pp1I_makeswhiteIg4pp4pp1I_CC1_CC1_CC0 )
{
	data = (((	1.0	0.0	)
		(	1.0	0.0	))
		((	0.0	1.0	)
		(	1.0	0.0	)));
}
potential ( matchIg3pp3pp4I_CC1_CC0_pf0I2I | true_colorIp4pc3I guess_colorIg3pp3pc3I )
{
	data = (((	1.0	0.0	)
		(	1.0	0.0	))
		((	1.0	0.0	)
		(	0.0	1.0	)));
}
potential ( or_matchIg3pp2pp5I_CC1_CC0_pf0I2I_matchIg3pp2pp5I_CC1_CC0 | or_matchIg3pp2pp5I_CC1_CC0_pf0I1I_matchIg3pp2pp5I_CC1_CC0 matchIg3pp2pp5I_CC1_CC0_pf0I2I )
{
	data = (((	1.0	0.0	)
		(	0.0	1.0	))
		((	0.0	1.0	)
		(	0.0	1.0	)));
}
potential ( makeswhiteIg2pp3pp4I_CC1_CC1 | or_makeswhiteIg2pp2pp4I_makeswhiteIg2pp5pp4I_CC1_CC1_CC0 or_makeswhiteIg2pp3pp3I_makeswhiteIg2pp3pp5I_CC1_CC1_CC2_CC0 )
{
	data = (((	0.0	1.0	)
		(	1.0	0.0	))
		((	1.0	0.0	)
		(	1.0	0.0	)));
}
potential ( or_matchIg1pp1pp4I_CC1_CC0_pf0I1I_matchIg1pp1pp4I_CC1_CC0 | matchIg1pp1pp4I_CC1_CC0_pf0I0I matchIg1pp1pp4I_CC1_CC0_pf0I1I )
{
	data = (((	1.0	0.0	)
		(	0.0	1.0	))
		((	0.0	1.0	)
		(	0.0	1.0	)));
}
potential ( whiteIg6pp3I | or_makeswhiteIg6pp3pp5I_whiteIg6pp3I_CC1 )
{
	data = ((	1.0	0.0	)
		(	0.0	1.0	));
}
potential ( or_makeswhiteIg8pp2pp3I_makeswhiteIg8pp2pp5I_CC1_CC1_CC2_CC0 | or_makeswhiteIg8pp2pp2I_makeswhiteIg8pp2pp3I_CC1_CC1_CC2_CC0 makeswhiteIg8pp2pp3I )
{
	data = (((	1.0	0.0	)
		(	0.0	1.0	))
		((	0.0	1.0	)
		(	0.0	1.0	)));
}
potential ( makesblackIg2pp3pp2I_CC1 | or_makesblackIg2pp5pp2I_CC1_CC0_pf0I2I_makesblackIg2pp5pp2I_CC1_CC0 makesblackIg2pp3pp2I_CC1_CC1 )
{
	data = (((	1.0	0.0	)
		(	1.0	0.0	))
		((	1.0	0.0	)
		(	0.0	1.0	)));
}
potential ( or_makeswhiteIg5pp2pp1I_makeswhiteIg5pp4pp1I_CC1_CC1_CC0 | makeswhiteIg5pp1pp1I makeswhiteIg5pp2pp1I )
{
	data = (((	1.0	0.0	)
		(	0.0	1.0	))
		((	0.0	1.0	)
		(	0.0	1.0	)));
}
potential ( matchIg1pp5pp3I_CC1_CC1 | or_matchIg1pp4pp3I_matchIg1pp5pp3I_CC1_CC1_CC0 or_matchIg1pp5pp2I_matchIg1pp5pp3I_CC1_CC1_CC2_CC0 )
{
	data = (((	0.0	1.0	)
		(	1.0	0.0	))
		((	1.0	0.0	)
		(	1.0	0.0	)));
}
potential ( or_matchIg7pp3pp5I_CC1_CC0_pf0I1I_matchIg7pp3pp5I_CC1_CC0 | matchIg7pp3pp5I_CC1_CC0_pf0I0I matchIg7pp3pp5I_CC1_CC0_pf0I1I )
{
	data = (((	1.0	0.0	)
		(	0.0	1.0	))
		((	0.0	1.0	)
		(	0.0	1.0	)));
}
potential ( makesblackIg6pp1pp1I | or_makesblackIg6pp5pp1I_CC1_CC0_pf0I2I_makesblackIg6pp5pp1I_CC1_CC0 )
{
	data = ((	1.0	0.0	)
		(	0.0	1.0	));
}
potential ( matchIg4pp3pp2I_CC1 | or_matchIg4pp3pp2I_CC1_CC0_pf0I2I_matchIg4pp3pp2I_CC1_CC0 matchIg4pp3pp2I_CC1_CC1 )
{
	data = (((	1.0	0.0	)
		(	1.0	0.0	))
		((	1.0	0.0	)
		(	0.0	1.0	)));
}
potential ( guess_colorIg5pp3pc3I | or_guess_colorIg5pp3pc2I_guess_colorIg5pp3pc3I_CC1_CC0 )
{
	data = ((	0.0	1.0	)
		(	1.0	0.0	));
}
potential ( matchIg3pp4pp1I_CC1_CC0_pf0I2I | true_colorIp1pc3I guess_colorIg3pp4pc3I )
{
	data = (((	1.0	0.0	)
		(	1.0	0.0	))
		((	1.0	0.0	)
		(	0.0	1.0	)));
}
potential ( makesblackIg7pp3pp5I | makesblackIg7pp3pp5I_CC1 )
{
	data = ((	1.0	0.0	)
		(	0.0	1.0	));
}
potential ( matchIg4pp3pp4I_CC1_CC0_pf0I2I | true_colorIp4pc3I guess_colorIg4pp3pc3I )
{
	data = (((	1.0	0.0	)
		(	1.0	0.0	))
		((	1.0	0.0	)
		(	0.0	1.0	)));
}
potential ( matchIg4pp1pp2I_CC1 | or_matchIg4pp1pp2I_CC1_CC0_pf0I2I_matchIg4pp1pp2I_CC1_CC0 matchIg4pp1pp1I )
{
	data = (((	1.0	0.0	)
		(	1.0	0.0	))
		((	0.0	1.0	)
		(	1.0	0.0	)));
}
potential ( or_makesblackIg4pp4pp3I_makesblackIg4pp4pp4I_CC1_CC1_CC2_CC0 | or_makesblackIg4pp4pp2I_makesblackIg4pp4pp4I_CC1_CC1_CC2_CC0 makesblackIg4pp4pp3I )
{
	data = (((	1.0	0.0	)
		(	0.0	1.0	))
		((	0.0	1.0	)
		(	0.0	1.0	)));
}
potential ( or_makeswhiteIg2pp4pp4I_makeswhiteIg2pp4pp5I_CC1_CC1_CC2_CC0 | or_makeswhiteIg2pp4pp3I_makeswhiteIg2pp4pp5I_CC1_CC1_CC2_CC0 makeswhiteIg2pp4pp4I )
{
	data = (((	1.0	0.0	)
		(	0.0	1.0	))
		((	0.0	1.0	)
		(	0.0	1.0	)));
}
potential ( guess_colorIg2pp1pc3I | or_guess_colorIg2pp1pc2I_guess_colorIg2pp1pc3I_CC1_CC0 )
{
	data = ((	0.0	1.0	)
		(	1.0	0.0	));
}
potential ( makesblackIg4pp2pp2I | makesblackIg4pp2pp2I_CC1 )
{
	data = ((	1.0	0.0	)
		(	0.0	1.0	));
}
potential ( makesblackIg1pp4pp4I | makesblackIg1pp4pp4I_CC1 )
{
	data = ((	1.0	0.0	)
		(	0.0	1.0	));
}
potential ( makesblackIg1pp4pp3I_CC1 | or_makesblackIg1pp5pp3I_CC1_CC0_pf0I2I_makesblackIg1pp5pp3I_CC1_CC0 makesblackIg1pp4pp3I_CC1_CC1 )
{
	data = (((	1.0	0.0	)
		(	1.0	0.0	))
		((	1.0	0.0	)
		(	0.0	1.0	)));
}
potential ( or_matchIg3pp3pp5I_makeswhiteIg3pp5pp3I_CC1_CC0 | or_matchIg3pp3pp4I_makeswhiteIg3pp5pp3I_CC1_CC0 matchIg3pp3pp5I )
{
	data = (((	1.0	0.0	)
		(	0.0	1.0	))
		((	0.0	1.0	)
		(	0.0	1.0	)));
}
potential ( makesblackIg6pp5pp5I_CC1_CC0_pf0I2I | true_colorIp5pc3I guess_colorIg6pp5pc3I )
{
	data = (((	1.0	0.0	)
		(	1.0	0.0	))
		((	1.0	0.0	)
		(	0.0	1.0	)));
}
potential ( or_matchIg8pp4pp3I_makeswhiteIg8pp1pp4I_CC1_CC0 | or_matchIg8pp4pp2I_makeswhiteIg8pp3pp4I_CC1_CC0 matchIg8pp4pp3I )
{
	data = (((	1.0	0.0	)
		(	0.0	1.0	))
		((	0.0	1.0	)
		(	0.0	1.0	)));
}
potential ( matchIg8pp1pp3I_CC1_CC0_pf0I2I | true_colorIp3pc3I guess_colorIg8pp1pc3I )
{
	data = (((	1.0	0.0	)
		(	1.0	0.0	))
		((	1.0	0.0	)
		(	0.0	1.0	)));
}
potential ( matchIg1pp4pp2I_CC1_CC0_pf0I1I | true_colorIp2pc2I guess_colorIg1pp4pc2I )
{
	data = (((	1.0	0.0	)
		(	1.0	0.0	))
		((	1.0	0.0	)
		(	0.0	1.0	)));
}
potential ( or_matchIg7pp3pp2I_makeswhiteIg7pp5pp3I_CC1_CC0 | matchIg7pp3pp1I matchIg7pp3pp2I )
{
	data = (((	1.0	0.0	)
		(	0.0	1.0	))
		((	0.0	1.0	)
		(	0.0	1.0	)));
}
potential ( or_makesblackIg3pp2pp2I_makesblackIg3pp5pp2I_CC1_CC1_CC0 | makesblackIg3pp1pp2I makesblackIg3pp2pp2I )
{
	data = (((	1.0	0.0	)
		(	0.0	1.0	))
		((	0.0	1.0	)
		(	0.0	1.0	)));
}
potential ( or_makesblackIg8pp4pp1I_makesblackIg8pp5pp1I_CC1_CC1_CC0 | or_makesblackIg8pp3pp1I_makesblackIg8pp5pp1I_CC1_CC1_CC0 makesblackIg8pp4pp1I )
{
	data = (((	1.0	0.0	)
		(	0.0	1.0	))
		((	0.0	1.0	)
		(	0.0	1.0	)));
}
potential ( makesblackIg1pp5pp3I_CC1_CC0_pf0I0I | true_colorIp3pc1I guess_colorIg1pp3pc1I )
{
	data = (((	1.0	0.0	)
		(	1.0	0.0	))
		((	1.0	0.0	)
		(	0.0	1.0	)));
}
potential ( or_makesblackIg4pp3pp1I_makesblackIg4pp5pp1I_CC1_CC1_CC0 | or_makesblackIg4pp2pp1I_makesblackIg4pp5pp1I_CC1_CC1_CC0 makesblackIg4pp3pp1I )
{
	data = (((	1.0	0.0	)
		(	0.0	1.0	))
		((	0.0	1.0	)
		(	0.0	1.0	)));
}
potential ( or_makesblackIg4pp5pp3I_CC1_CC0_pf0I1I_makesblackIg4pp5pp3I_CC1_CC0 | makesblackIg4pp5pp3I_CC1_CC0_pf0I0I makesblackIg4pp5pp3I_CC1_CC0_pf0I1I )
{
	data = (((	1.0	0.0	)
		(	0.0	1.0	))
		((	0.0	1.0	)
		(	0.0	1.0	)));
}
potential ( or_makesblackIg6pp4pp1I_makesblackIg6pp5pp1I_CC1_CC1_CC0 | or_makesblackIg6pp3pp1I_makesblackIg6pp5pp1I_CC1_CC1_CC0 makesblackIg6pp4pp1I )
{
	data = (((	1.0	0.0	)
		(	0.0	1.0	))
		((	0.0	1.0	)
		(	0.0	1.0	)));
}
potential ( makesblackIg6pp5pp3I_CC1 | or_makesblackIg6pp5pp3I_CC1_CC0_pf0I2I_makesblackIg6pp5pp3I_CC1_CC0 makesblackIg6pp5pp3I_CC1_CC1 )
{
	data = (((	1.0	0.0	)
		(	1.0	0.0	))
		((	1.0	0.0	)
		(	0.0	1.0	)));
}
potential ( or_guess_colorIg6pp1pc2I_guess_colorIg6pp1pc3I_CC1_CC0 | guess_colorIg6pp1pc1I guess_colorIg6pp1pc2I )
{
	data = (((	1.0	0.0	)
		(	0.0	1.0	))
		((	0.0	1.0	)
		(	0.0	1.0	)));
}
potential ( or_makeswhiteIg1pp4pp5I_whiteIg1pp4I_CC1 | makeswhiteIg1pp4pp4I makeswhiteIg1pp4pp5I )
{
	data = (((	1.0	0.0	)
		(	0.0	1.0	))
		((	0.0	1.0	)
		(	0.0	1.0	)));
}
potential ( matchIg4pp5pp1I_CC1 | or_matchIg4pp5pp1I_CC1_CC0_pf0I2I_matchIg4pp5pp1I_CC1_CC0 or_matchIg4pp4pp1I_matchIg4pp5pp1I_CC1_CC1_CC0 )
{
	data = (((	1.0	0.0	)
		(	1.0	0.0	))
		((	0.0	1.0	)
		(	1.0	0.0	)));
}
potential ( guess_colorIg7pp2pc1I | )
{
	data = (	0.6666666666666667	0.3333333333333333	);
}
potential ( matchIg4pp2pp1I_CC1_CC0_pf0I2I | true_colorIp1pc3I guess_colorIg4pp2pc3I )
{
	data = (((	1.0	0.0	)
		(	1.0	0.0	))
		((	1.0	0.0	)
		(	0.0	1.0	)));
}
potential ( matchIg6pp4pp3I_CC1_CC1 | or_matchIg6pp3pp3I_matchIg6pp5pp3I_CC1_CC1_CC0 or_matchIg6pp4pp2I_makeswhiteIg6pp1pp4I_CC1_CC0 )
{
	data = (((	0.0	1.0	)
		(	1.0	0.0	))
		((	1.0	0.0	)
		(	1.0	0.0	)));
}
potential ( matchIg6pp2pp5I_CC1_CC0_pf0I2I | true_colorIp5pc3I guess_colorIg6pp2pc3I )
{
	data = (((	1.0	0.0	)
		(	1.0	0.0	))
		((	1.0	0.0	)
		(	0.0	1.0	)));
}
potential ( matchIg8pp4pp4I_CC1 | or_makesblackIg8pp5pp4I_CC1_CC0_pf0I2I_makesblackIg8pp5pp4I_CC1_CC0 matchIg8pp4pp4I_CC1_CC1 )
{
	data = (((	1.0	0.0	)
		(	1.0	0.0	))
		((	1.0	0.0	)
		(	0.0	1.0	)));
}
potential ( or_matchIg5pp5pp3I_CC1_CC0_pf0I1I_matchIg5pp5pp3I_CC1_CC0 | matchIg5pp5pp3I_CC1_CC0_pf0I0I matchIg5pp5pp3I_CC1_CC0_pf0I1I )
{
	data = (((	1.0	0.0	)
		(	0.0	1.0	))
		((	0.0	1.0	)
		(	0.0	1.0	)));
}
potential ( makesblackIg4pp5pp2I_CC1_CC0_pf0I2I | true_colorIp2pc3I guess_colorIg4pp2pc3I )
{
	data = (((	1.0	0.0	)
		(	1.0	0.0	))
		((	1.0	0.0	)
		(	0.0	1.0	)));
}
potential ( matchIg5pp5pp2I_CC1_CC0_pf0I1I | true_colorIp2pc2I guess_colorIg5pp5pc2I )
{
	data = (((	1.0	0.0	)
		(	1.0	0.0	))
		((	1.0	0.0	)
		(	0.0	1.0	)));
}
potential ( or_makesblackIg4pp5pp4I_CC1_CC0_pf0I1I_makesblackIg4pp5pp4I_CC1_CC0 | makesblackIg4pp5pp4I_CC1_CC0_pf0I0I makesblackIg4pp5pp4I_CC1_CC0_pf0I1I )
{
	data = (((	1.0	0.0	)
		(	0.0	1.0	))
		((	0.0	1.0	)
		(	0.0	1.0	)));
}
potential ( makesblackIg6pp2pp1I_CC1 | or_makesblackIg6pp5pp1I_CC1_CC0_pf0I2I_makesblackIg6pp5pp1I_CC1_CC0 makesblackIg6pp1pp1I )
{
	data = (((	1.0	0.0	)
		(	1.0	0.0	))
		((	0.0	1.0	)
		(	1.0	0.0	)));
}
potential ( or_makeswhiteIg4pp4pp4I_makeswhiteIg4pp4pp5I_CC1_CC1_CC2_CC0 | or_makeswhiteIg4pp4pp3I_makeswhiteIg4pp4pp5I_CC1_CC1_CC2_CC0 makeswhiteIg4pp4pp4I )
{
	data = (((	1.0	0.0	)
		(	0.0	1.0	))
		((	0.0	1.0	)
		(	0.0	1.0	)));
}
potential ( or_true_colorIp1pc2I_true_colorIp1pc3I_CC1_CC0 | true_colorIp1pc1I true_colorIp1pc2I )
{
	data = (((	1.0	0.0	)
		(	0.0	1.0	))
		((	0.0	1.0	)
		(	0.0	1.0	)));
}
potential ( or_makeswhiteIg7pp5pp3I_makeswhiteIg7pp5pp5I_CC1_CC1_CC2_CC0 | or_makeswhiteIg7pp5pp2I_makeswhiteIg7pp5pp5I_CC1_CC1_CC2_CC0 makeswhiteIg7pp5pp3I )
{
	data = (((	1.0	0.0	)
		(	0.0	1.0	))
		((	0.0	1.0	)
		(	0.0	1.0	)));
}
potential ( makesblackIg1pp4pp2I | makesblackIg1pp4pp2I_CC1 )
{
	data = ((	1.0	0.0	)
		(	0.0	1.0	));
}
potential ( makesblackIg2pp1pp2I | makesblackIg2pp1pp2I_CC1 )
{
	data = ((	1.0	0.0	)
		(	0.0	1.0	));
}
potential ( matchIg6pp4pp1I_CC1 | or_matchIg6pp4pp1I_CC1_CC0_pf0I2I_matchIg6pp4pp1I_CC1_CC0 or_matchIg6pp3pp1I_matchIg6pp5pp1I_CC1_CC1_CC0 )
{
	data = (((	1.0	0.0	)
		(	1.0	0.0	))
		((	0.0	1.0	)
		(	1.0	0.0	)));
}
potential ( makesblackIg2pp5pp1I_CC1_CC0_pf0I1I | true_colorIp1pc2I guess_colorIg2pp1pc2I )
{
	data = (((	1.0	0.0	)
		(	1.0	0.0	))
		((	1.0	0.0	)
		(	0.0	1.0	)));
}
potential ( matchIg7pp2pp4I | matchIg7pp2pp4I_CC1 )
{
	data = ((	1.0	0.0	)
		(	0.0	1.0	));
}
potential ( or_makesblackIg8pp5pp4I_CC1_CC0_pf0I2I_makesblackIg8pp5pp4I_CC1_CC0 | or_makesblackIg8pp5pp4I_CC1_CC0_pf0I1I_makesblackIg8pp5pp4I_CC1_CC0 makesblackIg8pp5pp4I_CC1_CC0_pf0I2I )
{
	data = (((	1.0	0.0	)
		(	0.0	1.0	))
		((	0.0	1.0	)
		(	0.0	1.0	)));
}
potential ( makesblackIg7pp5pp4I_CC1 | or_makesblackIg7pp5pp4I_CC1_CC0_pf0I2I_makesblackIg7pp5pp4I_CC1_CC0 makesblackIg7pp5pp4I_CC1_CC1 )
{
	data = (((	1.0	0.0	)
		(	1.0	0.0	))
		((	1.0	0.0	)
		(	0.0	1.0	)));
}
potential ( matchIg7pp2pp1I_CC1_CC0_pf0I1I | true_colorIp1pc2I guess_colorIg7pp2pc2I )
{
	data = (((	1.0	0.0	)
		(	1.0	0.0	))
		((	1.0	0.0	)
		(	0.0	1.0	)));
}
potential ( guess_colorIg5pp1pc3I | or_guess_colorIg5pp1pc2I_guess_colorIg5pp1pc3I_CC1_CC0 )
{
	data = ((	0.0	1.0	)
		(	1.0	0.0	));
}
potential ( makeswhiteIg1pp4pp1I_CC1 | or_matchIg1pp1pp5I_makeswhiteIg1pp5pp1I_CC1_CC0 or_makeswhiteIg1pp3pp1I_makeswhiteIg1pp5pp1I_CC1_CC1_CC0 )
{
	data = (((	1.0	0.0	)
		(	1.0	0.0	))
		((	0.0	1.0	)
		(	1.0	0.0	)));
}
potential ( makesblackIg3pp5pp5I_CC1_CC0_pf0I0I | true_colorIp5pc1I guess_colorIg3pp5pc1I )
{
	data = (((	1.0	0.0	)
		(	1.0	0.0	))
		((	1.0	0.0	)
		(	0.0	1.0	)));
}
potential ( guess_colorIg8pp2pc2I | guess_colorIg8pp2pc1I )
{
	data = ((	0.5	0.5	)
		(	1.0	0.0	));
}
potential ( makeswhiteIg5pp1pp4I_CC1 | or_matchIg5pp4pp5I_makeswhiteIg5pp5pp4I_CC1_CC0 or_makeswhiteIg5pp1pp3I_whiteIg5pp1I_CC1 )
{
	data = (((	1.0	0.0	)
		(	1.0	0.0	))
		((	0.0	1.0	)
		(	1.0	0.0	)));
}
potential ( makesblackIg4pp5pp4I_CC1_CC0_pf0I0I | true_colorIp4pc1I guess_colorIg4pp4pc1I )
{
	data = (((	1.0	0.0	)
		(	1.0	0.0	))
		((	1.0	0.0	)
		(	0.0	1.0	)));
}
potential ( makeswhiteIg8pp5pp5I_CC1_CC1 | or_makeswhiteIg8pp4pp5I_makeswhiteIg8pp5pp5I_CC1_CC1_CC0 or_makeswhiteIg8pp5pp4I_makeswhiteIg8pp5pp5I_CC1_CC1_CC2_CC0 )
{
	data = (((	0.0	1.0	)
		(	1.0	0.0	))
		((	1.0	0.0	)
		(	1.0	0.0	)));
}
potential ( or_matchIg8pp3pp2I_CC1_CC0_pf0I1I_matchIg8pp3pp2I_CC1_CC0 | matchIg8pp3pp2I_CC1_CC0_pf0I0I matchIg8pp3pp2I_CC1_CC0_pf0I1I )
{
	data = (((	1.0	0.0	)
		(	0.0	1.0	))
		((	0.0	1.0	)
		(	0.0	1.0	)));
}
potential ( or_makeswhiteIg1pp4pp1I_makeswhiteIg1pp5pp1I_CC1_CC1_CC0 | or_makeswhiteIg1pp3pp1I_makeswhiteIg1pp5pp1I_CC1_CC1_CC0 makeswhiteIg1pp4pp1I )
{
	data = (((	1.0	0.0	)
		(	0.0	1.0	))
		((	0.0	1.0	)
		(	0.0	1.0	)));
}
potential ( whiteIg4pp4I | or_makeswhiteIg4pp4pp5I_whiteIg4pp4I_CC1 )
{
	data = ((	1.0	0.0	)
		(	0.0	1.0	));
}
potential ( or_makeswhiteIg3pp3pp4I_whiteIg3pp3I_CC1 | makeswhiteIg3pp3pp3I makeswhiteIg3pp3pp4I )
{
	data = (((	1.0	0.0	)
		(	0.0	1.0	))
		((	0.0	1.0	)
		(	0.0	1.0	)));
}
potential ( makeswhiteIg5pp1pp2I | makeswhiteIg5pp1pp2I_CC1 )
{
	data = ((	1.0	0.0	)
		(	0.0	1.0	));
}
potential ( or_matchIg7pp4pp5I_matchIg7pp5pp5I_CC1_CC1_CC0 | or_matchIg7pp3pp5I_matchIg7pp5pp5I_CC1_CC1_CC0 matchIg7pp4pp5I )
{
	data = (((	1.0	0.0	)
		(	0.0	1.0	))
		((	0.0	1.0	)
		(	0.0	1.0	)));
}
potential ( matchIg6pp1pp4I_CC1_CC0_pf0I0I | true_colorIp4pc1I guess_colorIg6pp1pc1I )
{
	data = (((	1.0	0.0	)
		(	1.0	0.0	))
		((	1.0	0.0	)
		(	0.0	1.0	)));
}
potential ( or_makeswhiteIg7pp3pp5I_whiteIg7pp3I_CC1 | or_makeswhiteIg7pp3pp4I_whiteIg7pp3I_CC1 makeswhiteIg7pp3pp5I )
{
	data = (((	1.0	0.0	)
		(	0.0	1.0	))
		((	0.0	1.0	)
		(	0.0	1.0	)));
}
potential ( makesblackIg6pp2pp1I | makesblackIg6pp2pp1I_CC1 )
{
	data = ((	1.0	0.0	)
		(	0.0	1.0	));
}
potential ( matchIg1pp1pp1I | or_makesblackIg1pp5pp1I_CC1_CC0_pf0I2I_makesblackIg1pp5pp1I_CC1_CC0 )
{
	data = ((	1.0	0.0	)
		(	0.0	1.0	));
}
potential ( or_guess_colorIg4pp2pc2I_guess_colorIg4pp2pc3I_CC1_CC0 | guess_colorIg4pp2pc1I guess_colorIg4pp2pc2I )
{
	data = (((	1.0	0.0	)
		(	0.0	1.0	))
		((	0.0	1.0	)
		(	0.0	1.0	)));
}
potential ( or_matchIg6pp2pp1I_matchIg6pp5pp1I_CC1_CC1_CC0 | matchIg6pp1pp1I matchIg6pp2pp1I )
{
	data = (((	1.0	0.0	)
		(	0.0	1.0	))
		((	0.0	1.0	)
		(	0.0	1.0	)));
}
potential ( guess_colorIg1pp3pc2I | guess_colorIg1pp3pc1I )
{
	data = ((	0.5	0.5	)
		(	1.0	0.0	));
}
potential ( guess_colorIg4pp3pc1I | )
{
	data = (	0.6666666666666667	0.3333333333333333	);
}
potential ( or_matchIg3pp5pp4I_matchIg3pp5pp5I_CC1_CC1_CC2_CC0 | or_matchIg3pp5pp3I_matchIg3pp5pp5I_CC1_CC1_CC2_CC0 matchIg3pp5pp4I )
{
	data = (((	1.0	0.0	)
		(	0.0	1.0	))
		((	0.0	1.0	)
		(	0.0	1.0	)));
}
potential ( matchIg2pp3pp2I_CC1_CC1 | or_matchIg2pp2pp2I_matchIg2pp5pp2I_CC1_CC1_CC0 matchIg2pp3pp1I )
{
	data = (((	0.0	1.0	)
		(	1.0	0.0	))
		((	1.0	0.0	)
		(	1.0	0.0	)));
}
potential ( makeswhiteIg3pp1pp3I | makeswhiteIg3pp1pp3I_CC1 )
{
	data = ((	1.0	0.0	)
		(	0.0	1.0	));
}
potential ( or_makeswhiteIg3pp2pp1I_makeswhiteIg3pp4pp1I_CC1_CC1_CC0 | makeswhiteIg3pp1pp1I makeswhiteIg3pp2pp1I )
{
	data = (((	1.0	0.0	)
		(	0.0	1.0	))
		((	0.0	1.0	)
		(	0.0	1.0	)));
}
potential ( or_matchIg3pp4pp3I_CC1_CC0_pf0I2I_matchIg3pp4pp3I_CC1_CC0 | or_matchIg3pp4pp3I_CC1_CC0_pf0I1I_matchIg3pp4pp3I_CC1_CC0 matchIg3pp4pp3I_CC1_CC0_pf0I2I )
{
	data = (((	1.0	0.0	)
		(	0.0	1.0	))
		((	0.0	1.0	)
		(	0.0	1.0	)));
}
potential ( makeswhiteIg2pp4pp5I_CC1 | or_matchIg2pp5pp5I_makeswhiteIg2pp4pp5I_CC1_CC0 makeswhiteIg2pp4pp5I_CC1_CC1 )
{
	data = (((	1.0	0.0	)
		(	1.0	0.0	))
		((	1.0	0.0	)
		(	0.0	1.0	)));
}
potential ( makesblackIg5pp2pp2I_CC1_CC1 | makesblackIg5pp1pp2I makesblackIg5pp2pp1I )
{
	data = (((	0.0	1.0	)
		(	1.0	0.0	))
		((	1.0	0.0	)
		(	1.0	0.0	)));
}
potential ( or_matchIg1pp4pp3I_CC1_CC0_pf0I2I_matchIg1pp4pp3I_CC1_CC0 | or_matchIg1pp4pp3I_CC1_CC0_pf0I1I_matchIg1pp4pp3I_CC1_CC0 matchIg1pp4pp3I_CC1_CC0_pf0I2I )
{
	data = (((	1.0	0.0	)
		(	0.0	1.0	))
		((	0.0	1.0	)
		(	0.0	1.0	)));
}
potential ( matchIg5pp1pp2I_CC1_CC0_pf0I0I | true_colorIp2pc1I guess_colorIg5pp1pc1I )
{
	data = (((	1.0	0.0	)
		(	1.0	0.0	))
		((	1.0	0.0	)
		(	0.0	1.0	)));
}
potential ( makesblackIg6pp4pp5I_CC1_CC1 | or_makesblackIg6pp3pp5I_makesblackIg6pp5pp5I_CC1_CC1_CC0 or_makesblackIg6pp4pp4I_makesblackIg6pp4pp5I_CC1_CC1_CC2_CC0 )
{
	data = (((	0.0	1.0	)
		(	1.0	0.0	))
		((	1.0	0.0	)
		(	1.0	0.0	)));
}
potential ( matchIg2pp4pp2I_CC1_CC0_pf0I1I | true_colorIp2pc2I guess_colorIg2pp4pc2I )
{
	data = (((	1.0	0.0	)
		(	1.0	0.0	))
		((	1.0	0.0	)
		(	0.0	1.0	)));
}
potential ( makesblackIg8pp2pp2I_CC1 | or_makesblackIg8pp5pp2I_CC1_CC0_pf0I2I_makesblackIg8pp5pp2I_CC1_CC0 makesblackIg8pp2pp2I_CC1_CC1 )
{
	data = (((	1.0	0.0	)
		(	1.0	0.0	))
		((	1.0	0.0	)
		(	0.0	1.0	)));
}
potential ( makesblackIg8pp4pp1I | makesblackIg8pp4pp1I_CC1 )
{
	data = ((	1.0	0.0	)
		(	0.0	1.0	));
}
potential ( makeswhiteIg1pp2pp1I | makeswhiteIg1pp2pp1I_CC1 )
{
	data = ((	1.0	0.0	)
		(	0.0	1.0	));
}
potential ( or_matchIg3pp1pp3I_CC1_CC0_pf0I2I_matchIg3pp1pp3I_CC1_CC0 | or_matchIg3pp1pp3I_CC1_CC0_pf0I1I_matchIg3pp1pp3I_CC1_CC0 matchIg3pp1pp3I_CC1_CC0_pf0I2I )
{
	data = (((	1.0	0.0	)
		(	0.0	1.0	))
		((	0.0	1.0	)
		(	0.0	1.0	)));
}
potential ( or_matchIg5pp1pp2I_CC1_CC0_pf0I2I_matchIg5pp1pp2I_CC1_CC0 | or_matchIg5pp1pp2I_CC1_CC0_pf0I1I_matchIg5pp1pp2I_CC1_CC0 matchIg5pp1pp2I_CC1_CC0_pf0I2I )
{
	data = (((	1.0	0.0	)
		(	0.0	1.0	))
		((	0.0	1.0	)
		(	0.0	1.0	)));
}
potential ( makesblackIg6pp2pp3I_CC1 | or_makesblackIg6pp5pp3I_CC1_CC0_pf0I2I_makesblackIg6pp5pp3I_CC1_CC0 makesblackIg6pp2pp3I_CC1_CC1 )
{
	data = (((	1.0	0.0	)
		(	1.0	0.0	))
		((	1.0	0.0	)
		(	0.0	1.0	)));
}
potential ( makesblackIg5pp3pp2I | makesblackIg5pp3pp2I_CC1 )
{
	data = ((	1.0	0.0	)
		(	0.0	1.0	));
}
potential ( matchIg6pp3pp5I_CC1_CC0_pf0I0I | true_colorIp5pc1I guess_colorIg6pp3pc1I )
{
	data = (((	1.0	0.0	)
		(	1.0	0.0	))
		((	1.0	0.0	)
		(	0.0	1.0	)));
}
potential ( matchIg7pp5pp1I | matchIg7pp5pp1I_CC1 )
{
	data = ((	1.0	0.0	)
		(	0.0	1.0	));
}
potential ( makesblackIg5pp4pp2I | makesblackIg5pp4pp2I_CC1 )
{
	data = ((	1.0	0.0	)
		(	0.0	1.0	));
}
potential ( or_makeswhiteIg6pp4pp5I_makeswhiteIg6pp5pp5I_CC1_CC1_CC0 | or_makeswhiteIg6pp3pp5I_makeswhiteIg6pp5pp5I_CC1_CC1_CC0 makeswhiteIg6pp4pp5I )
{
	data = (((	1.0	0.0	)
		(	0.0	1.0	))
		((	0.0	1.0	)
		(	0.0	1.0	)));
}
potential ( or_makesblackIg2pp3pp4I_makesblackIg2pp5pp4I_CC1_CC1_CC0 | or_makesblackIg2pp2pp4I_makesblackIg2pp5pp4I_CC1_CC1_CC0 makesblackIg2pp3pp4I )
{
	data = (((	1.0	0.0	)
		(	0.0	1.0	))
		((	0.0	1.0	)
		(	0.0	1.0	)));
}
potential ( guess_colorIg1pp1pc1I | )
{
	data = (	0.6666666666666667	0.3333333333333333	);
}
potential ( makesblackIg1pp1pp1I | or_makesblackIg1pp5pp1I_CC1_CC0_pf0I2I_makesblackIg1pp5pp1I_CC1_CC0 )
{
	data = ((	1.0	0.0	)
		(	0.0	1.0	));
}
potential ( matchIg3pp3pp3I | matchIg3pp3pp3I_CC1 )
{
	data = ((	1.0	0.0	)
		(	0.0	1.0	));
}
potential ( or_guess_colorIg6pp5pc2I_guess_colorIg6pp5pc3I_CC1_CC0 | guess_colorIg6pp5pc1I guess_colorIg6pp5pc2I )
{
	data = (((	1.0	0.0	)
		(	0.0	1.0	))
		((	0.0	1.0	)
		(	0.0	1.0	)));
}
potential ( makesblackIg7pp2pp5I | makesblackIg7pp2pp5I_CC1 )
{
	data = ((	1.0	0.0	)
		(	0.0	1.0	));
}
potential ( matchIg4pp4pp1I | matchIg4pp4pp1I_CC1 )
{
	data = ((	1.0	0.0	)
		(	0.0	1.0	));
}
potential ( or_guess_colorIg7pp1pc2I_guess_colorIg7pp1pc3I_CC1_CC0 | guess_colorIg7pp1pc1I guess_colorIg7pp1pc2I )
{
	data = (((	1.0	0.0	)
		(	0.0	1.0	))
		((	0.0	1.0	)
		(	0.0	1.0	)));
}
potential ( or_matchIg4pp4pp3I_matchIg4pp5pp3I_CC1_CC1_CC0 | or_matchIg4pp3pp3I_matchIg4pp5pp3I_CC1_CC1_CC0 matchIg4pp4pp3I )
{
	data = (((	1.0	0.0	)
		(	0.0	1.0	))
		((	0.0	1.0	)
		(	0.0	1.0	)));
}
potential ( or_matchIg2pp2pp5I_CC1_CC0_pf0I2I_matchIg2pp2pp5I_CC1_CC0 | or_matchIg2pp2pp5I_CC1_CC0_pf0I1I_matchIg2pp2pp5I_CC1_CC0 matchIg2pp2pp5I_CC1_CC0_pf0I2I )
{
	data = (((	1.0	0.0	)
		(	0.0	1.0	))
		((	0.0	1.0	)
		(	0.0	1.0	)));
}
potential ( makeswhiteIg4pp5pp5I_CC1_CC1 | or_makeswhiteIg4pp4pp5I_makeswhiteIg4pp5pp5I_CC1_CC1_CC0 or_makeswhiteIg4pp5pp4I_makeswhiteIg4pp5pp5I_CC1_CC1_CC2_CC0 )
{
	data = (((	0.0	1.0	)
		(	1.0	0.0	))
		((	1.0	0.0	)
		(	1.0	0.0	)));
}
