net
{
}
node guess_colorIg6pp1pc1I
{
	states = ("false" "true" );
	position = (0 0);
	label = "guess_colorIg6pp1pc1I";
}
node guess_colorIg3pp3pc1I
{
	states = ("false" "true" );
	position = (40 -40);
	label = "guess_colorIg3pp3pc1I";
}
node guess_colorIg1pp1pc1I
{
	states = ("false" "true" );
	position = (80 -80);
	label = "guess_colorIg1pp1pc1I";
}
node guess_colorIg4pp2pc1I
{
	states = ("false" "true" );
	position = (120 -120);
	label = "guess_colorIg4pp2pc1I";
}
node guess_colorIg3pp1pc1I
{
	states = ("false" "true" );
	position = (160 -160);
	label = "guess_colorIg3pp1pc1I";
}
node guess_colorIg6pp3pc1I
{
	states = ("false" "true" );
	position = (200 -200);
	label = "guess_colorIg6pp3pc1I";
}
node guess_colorIg8pp2pc1I
{
	states = ("false" "true" );
	position = (240 -240);
	label = "guess_colorIg8pp2pc1I";
}
node true_colorIp3pc1I
{
	states = ("false" "true" );
	position = (280 -280);
	label = "true_colorIp3pc1I";
}
node true_colorIp1pc1I
{
	states = ("false" "true" );
	position = (670 -670);
	label = "true_colorIp1pc1I";
}
node guess_colorIg3pp2pc1I
{
	states = ("false" "true" );
	position = (1270 -1270);
	label = "guess_colorIg3pp2pc1I";
}
node guess_colorIg5pp2pc1I
{
	states = ("false" "true" );
	position = (1460 -1460);
	label = "guess_colorIg5pp2pc1I";
}
node guess_colorIg7pp3pc1I
{
	states = ("false" "true" );
	position = (1600 -1600);
	label = "guess_colorIg7pp3pc1I";
}
node guess_colorIg4pp3pc1I
{
	states = ("false" "true" );
	position = (1740 -1740);
	label = "guess_colorIg4pp3pc1I";
}
node guess_colorIg8pp1pc1I
{
	states = ("false" "true" );
	position = (1880 -1880);
	label = "guess_colorIg8pp1pc1I";
}
node guess_colorIg7pp2pc1I
{
	states = ("false" "true" );
	position = (2120 -2120);
	label = "guess_colorIg7pp2pc1I";
}
node true_colorIp2pc1I
{
	states = ("false" "true" );
	position = (2260 -2260);
	label = "true_colorIp2pc1I";
}
node guess_colorIg2pp1pc1I
{
	states = ("false" "true" );
	position = (4470 -4470);
	label = "guess_colorIg2pp1pc1I";
}
node guess_colorIg2pp3pc1I
{
	states = ("false" "true" );
	position = (4850 -4850);
	label = "guess_colorIg2pp3pc1I";
}
node guess_colorIg8pp3pc1I
{
	states = ("false" "true" );
	position = (5040 -5040);
	label = "guess_colorIg8pp3pc1I";
}
node guess_colorIg1pp2pc1I
{
	states = ("false" "true" );
	position = (5610 -5610);
	label = "guess_colorIg1pp2pc1I";
}
node guess_colorIg7pp1pc1I
{
	states = ("false" "true" );
	position = (6170 -6170);
	label = "guess_colorIg7pp1pc1I";
}
node guess_colorIg5pp3pc1I
{
	states = ("false" "true" );
	position = (7300 -7300);
	label = "guess_colorIg5pp3pc1I";
}
node guess_colorIg2pp2pc1I
{
	states = ("false" "true" );
	position = (7490 -7490);
	label = "guess_colorIg2pp2pc1I";
}
node guess_colorIg4pp1pc1I
{
	states = ("false" "true" );
	position = (8430 -8430);
	label = "guess_colorIg4pp1pc1I";
}
node guess_colorIg1pp3pc1I
{
	states = ("false" "true" );
	position = (9560 -9560);
	label = "guess_colorIg1pp3pc1I";
}
node guess_colorIg6pp2pc1I
{
	states = ("false" "true" );
	position = (10130 -10130);
	label = "guess_colorIg6pp2pc1I";
}
node guess_colorIg5pp1pc1I
{
	states = ("false" "true" );
	position = (11070 -11070);
	label = "guess_colorIg5pp1pc1I";
}
potential ( guess_colorIg2pp1pc1I | )
{
	data = (	0.6666666666666667	0.3333333333333333	);
}
potential ( guess_colorIg3pp2pc1I | )
{
	data = (	0.6666666666666667	0.3333333333333333	);
}
potential ( guess_colorIg4pp2pc1I | )
{
	data = (	0.6666666666666667	0.3333333333333333	);
}
potential ( guess_colorIg2pp2pc1I | )
{
	data = (	0.6666666666666667	0.3333333333333333	);
}
potential ( guess_colorIg1pp3pc1I | )
{
	data = (	0.6666666666666667	0.3333333333333333	);
}
potential ( guess_colorIg3pp1pc1I | )
{
	data = (	0.6666666666666667	0.3333333333333333	);
}
potential ( guess_colorIg3pp3pc1I | )
{
	data = (	0.6666666666666667	0.3333333333333333	);
}
potential ( guess_colorIg1pp2pc1I | )
{
	data = (	0.6666666666666667	0.3333333333333333	);
}
potential ( guess_colorIg2pp3pc1I | )
{
	data = (	0.6666666666666667	0.3333333333333333	);
}
potential ( guess_colorIg5pp2pc1I | )
{
	data = (	0.6666666666666667	0.3333333333333333	);
}
potential ( guess_colorIg6pp1pc1I | )
{
	data = (	0.6666666666666667	0.3333333333333333	);
}
potential ( true_colorIp3pc1I | )
{
	data = (	0.6666666666666667	0.3333333333333333	);
}
potential ( guess_colorIg7pp3pc1I | )
{
	data = (	0.6666666666666667	0.3333333333333333	);
}
potential ( guess_colorIg8pp3pc1I | )
{
	data = (	0.6666666666666667	0.3333333333333333	);
}
potential ( guess_colorIg6pp2pc1I | )
{
	data = (	0.6666666666666667	0.3333333333333333	);
}
potential ( true_colorIp1pc1I | )
{
	data = (	0.6666666666666667	0.3333333333333333	);
}
potential ( guess_colorIg7pp2pc1I | )
{
	data = (	0.6666666666666667	0.3333333333333333	);
}
potential ( guess_colorIg4pp3pc1I | )
{
	data = (	0.6666666666666667	0.3333333333333333	);
}
potential ( guess_colorIg8pp2pc1I | )
{
	data = (	0.6666666666666667	0.3333333333333333	);
}
potential ( guess_colorIg5pp3pc1I | )
{
	data = (	0.6666666666666667	0.3333333333333333	);
}
potential ( guess_colorIg4pp1pc1I | )
{
	data = (	0.6666666666666667	0.3333333333333333	);
}
potential ( guess_colorIg6pp3pc1I | )
{
	data = (	0.6666666666666667	0.3333333333333333	);
}
potential ( guess_colorIg1pp1pc1I | )
{
	data = (	0.6666666666666667	0.3333333333333333	);
}
potential ( true_colorIp2pc1I | )
{
	data = (	0.6666666666666667	0.3333333333333333	);
}
potential ( guess_colorIg8pp1pc1I | )
{
	data = (	0.6666666666666667	0.3333333333333333	);
}
potential ( guess_colorIg7pp1pc1I | )
{
	data = (	0.6666666666666667	0.3333333333333333	);
}
potential ( guess_colorIg5pp1pc1I | )
{
	data = (	0.6666666666666667	0.3333333333333333	);
}
