net
{
}
node guess_colorIg8pp1pc1I
{
	states = ("false" "true" );
	position = (0 0);
	label = "guess_colorIg8pp1pc1I";
}
node true_colorIp3pc1I
{
	states = ("false" "true" );
	position = (40 -40);
	label = "true_colorIp3pc1I";
}
node guess_colorIg2pp4pc1I
{
	states = ("false" "true" );
	position = (130 -130);
	label = "guess_colorIg2pp4pc1I";
}
node guess_colorIg2pp1pc1I
{
	states = ("false" "true" );
	position = (220 -220);
	label = "guess_colorIg2pp1pc1I";
}
node guess_colorIg3pp3pc1I
{
	states = ("false" "true" );
	position = (310 -310);
	label = "guess_colorIg3pp3pc1I";
}
node true_colorIp4pc1I
{
	states = ("false" "true" );
	position = (400 -400);
	label = "true_colorIp4pc1I";
}
node guess_colorIg7pp2pc1I
{
	states = ("false" "true" );
	position = (640 -640);
	label = "guess_colorIg7pp2pc1I";
}
node true_colorIp2pc1I
{
	states = ("false" "true" );
	position = (780 -780);
	label = "true_colorIp2pc1I";
}
node guess_colorIg8pp3pc1I
{
	states = ("false" "true" );
	position = (1070 -1070);
	label = "guess_colorIg8pp3pc1I";
}
node guess_colorIg5pp1pc1I
{
	states = ("false" "true" );
	position = (1260 -1260);
	label = "guess_colorIg5pp1pc1I";
}
node guess_colorIg7pp3pc1I
{
	states = ("false" "true" );
	position = (1450 -1450);
	label = "guess_colorIg7pp3pc1I";
}
node true_colorIp5pc1I
{
	states = ("false" "true" );
	position = (1640 -1640);
	label = "true_colorIp5pc1I";
}
node guess_colorIg2pp5pc1I
{
	states = ("false" "true" );
	position = (2080 -2080);
	label = "guess_colorIg2pp5pc1I";
}
node guess_colorIg6pp1pc1I
{
	states = ("false" "true" );
	position = (2320 -2320);
	label = "guess_colorIg6pp1pc1I";
}
node guess_colorIg8pp2pc1I
{
	states = ("false" "true" );
	position = (2560 -2560);
	label = "guess_colorIg8pp2pc1I";
}
node guess_colorIg6pp4pc1I
{
	states = ("false" "true" );
	position = (2800 -2800);
	label = "guess_colorIg6pp4pc1I";
}
node guess_colorIg7pp5pc1I
{
	states = ("false" "true" );
	position = (3040 -3040);
	label = "guess_colorIg7pp5pc1I";
}
node guess_colorIg8pp5pc1I
{
	states = ("false" "true" );
	position = (3280 -3280);
	label = "guess_colorIg8pp5pc1I";
}
node guess_colorIg1pp5pc1I
{
	states = ("false" "true" );
	position = (3520 -3520);
	label = "guess_colorIg1pp5pc1I";
}
node guess_colorIg5pp3pc1I
{
	states = ("false" "true" );
	position = (3760 -3760);
	label = "guess_colorIg5pp3pc1I";
}
node true_colorIp1pc1I
{
	states = ("false" "true" );
	position = (4000 -4000);
	label = "true_colorIp1pc1I";
}
node guess_colorIg7pp1pc1I
{
	states = ("false" "true" );
	position = (7680 -7680);
	label = "guess_colorIg7pp1pc1I";
}
node guess_colorIg4pp1pc1I
{
	states = ("false" "true" );
	position = (9700 -9700);
	label = "guess_colorIg4pp1pc1I";
}
node guess_colorIg8pp4pc1I
{
	states = ("false" "true" );
	position = (10360 -10360);
	label = "guess_colorIg8pp4pc1I";
}
node guess_colorIg3pp2pc1I
{
	states = ("false" "true" );
	position = (12060 -12060);
	label = "guess_colorIg3pp2pc1I";
}
node guess_colorIg1pp3pc1I
{
	states = ("false" "true" );
	position = (12350 -12350);
	label = "guess_colorIg1pp3pc1I";
}
node guess_colorIg5pp4pc1I
{
	states = ("false" "true" );
	position = (12640 -12640);
	label = "guess_colorIg5pp4pc1I";
}
node guess_colorIg1pp4pc1I
{
	states = ("false" "true" );
	position = (12930 -12930);
	label = "guess_colorIg1pp4pc1I";
}
node guess_colorIg5pp5pc1I
{
	states = ("false" "true" );
	position = (13220 -13220);
	label = "guess_colorIg5pp5pc1I";
}
node guess_colorIg5pp2pc1I
{
	states = ("false" "true" );
	position = (13510 -13510);
	label = "guess_colorIg5pp2pc1I";
}
node guess_colorIg4pp4pc1I
{
	states = ("false" "true" );
	position = (16570 -16570);
	label = "guess_colorIg4pp4pc1I";
}
node guess_colorIg4pp2pc1I
{
	states = ("false" "true" );
	position = (16860 -16860);
	label = "guess_colorIg4pp2pc1I";
}
node guess_colorIg1pp1pc1I
{
	states = ("false" "true" );
	position = (17820 -17820);
	label = "guess_colorIg1pp1pc1I";
}
node guess_colorIg6pp3pc1I
{
	states = ("false" "true" );
	position = (18480 -18480);
	label = "guess_colorIg6pp3pc1I";
}
node guess_colorIg4pp5pc1I
{
	states = ("false" "true" );
	position = (18770 -18770);
	label = "guess_colorIg4pp5pc1I";
}
node guess_colorIg6pp5pc1I
{
	states = ("false" "true" );
	position = (19060 -19060);
	label = "guess_colorIg6pp5pc1I";
}
node guess_colorIg7pp4pc1I
{
	states = ("false" "true" );
	position = (19350 -19350);
	label = "guess_colorIg7pp4pc1I";
}
node guess_colorIg6pp2pc1I
{
	states = ("false" "true" );
	position = (21050 -21050);
	label = "guess_colorIg6pp2pc1I";
}
node guess_colorIg1pp2pc1I
{
	states = ("false" "true" );
	position = (24110 -24110);
	label = "guess_colorIg1pp2pc1I";
}
node guess_colorIg4pp3pc1I
{
	states = ("false" "true" );
	position = (27170 -27170);
	label = "guess_colorIg4pp3pc1I";
}
node guess_colorIg2pp2pc1I
{
	states = ("false" "true" );
	position = (29560 -29560);
	label = "guess_colorIg2pp2pc1I";
}
node guess_colorIg3pp4pc1I
{
	states = ("false" "true" );
	position = (30520 -30520);
	label = "guess_colorIg3pp4pc1I";
}
node guess_colorIg3pp5pc1I
{
	states = ("false" "true" );
	position = (30810 -30810);
	label = "guess_colorIg3pp5pc1I";
}
node guess_colorIg2pp3pc1I
{
	states = ("false" "true" );
	position = (31100 -31100);
	label = "guess_colorIg2pp3pc1I";
}
node guess_colorIg3pp1pc1I
{
	states = ("false" "true" );
	position = (33490 -33490);
	label = "guess_colorIg3pp1pc1I";
}
potential ( guess_colorIg7pp4pc1I | )
{
	data = (	0.6666666666666667	0.3333333333333333	);
}
potential ( guess_colorIg6pp1pc1I | )
{
	data = (	0.6666666666666667	0.3333333333333333	);
}
potential ( guess_colorIg7pp3pc1I | )
{
	data = (	0.6666666666666667	0.3333333333333333	);
}
potential ( guess_colorIg8pp1pc1I | )
{
	data = (	0.6666666666666667	0.3333333333333333	);
}
potential ( guess_colorIg5pp2pc1I | )
{
	data = (	0.6666666666666667	0.3333333333333333	);
}
potential ( guess_colorIg1pp4pc1I | )
{
	data = (	0.6666666666666667	0.3333333333333333	);
}
potential ( guess_colorIg7pp2pc1I | )
{
	data = (	0.6666666666666667	0.3333333333333333	);
}
potential ( guess_colorIg4pp3pc1I | )
{
	data = (	0.6666666666666667	0.3333333333333333	);
}
potential ( guess_colorIg1pp1pc1I | )
{
	data = (	0.6666666666666667	0.3333333333333333	);
}
potential ( guess_colorIg3pp4pc1I | )
{
	data = (	0.6666666666666667	0.3333333333333333	);
}
potential ( guess_colorIg8pp5pc1I | )
{
	data = (	0.6666666666666667	0.3333333333333333	);
}
potential ( guess_colorIg4pp5pc1I | )
{
	data = (	0.6666666666666667	0.3333333333333333	);
}
potential ( guess_colorIg1pp2pc1I | )
{
	data = (	0.6666666666666667	0.3333333333333333	);
}
potential ( guess_colorIg6pp4pc1I | )
{
	data = (	0.6666666666666667	0.3333333333333333	);
}
potential ( guess_colorIg5pp3pc1I | )
{
	data = (	0.6666666666666667	0.3333333333333333	);
}
potential ( guess_colorIg2pp5pc1I | )
{
	data = (	0.6666666666666667	0.3333333333333333	);
}
potential ( guess_colorIg2pp4pc1I | )
{
	data = (	0.6666666666666667	0.3333333333333333	);
}
potential ( guess_colorIg3pp2pc1I | )
{
	data = (	0.6666666666666667	0.3333333333333333	);
}
potential ( true_colorIp4pc1I | )
{
	data = (	0.6666666666666667	0.3333333333333333	);
}
potential ( guess_colorIg4pp2pc1I | )
{
	data = (	0.6666666666666667	0.3333333333333333	);
}
potential ( guess_colorIg1pp5pc1I | )
{
	data = (	0.6666666666666667	0.3333333333333333	);
}
potential ( guess_colorIg3pp3pc1I | )
{
	data = (	0.6666666666666667	0.3333333333333333	);
}
potential ( guess_colorIg8pp3pc1I | )
{
	data = (	0.6666666666666667	0.3333333333333333	);
}
potential ( guess_colorIg8pp4pc1I | )
{
	data = (	0.6666666666666667	0.3333333333333333	);
}
potential ( guess_colorIg7pp5pc1I | )
{
	data = (	0.6666666666666667	0.3333333333333333	);
}
potential ( guess_colorIg4pp4pc1I | )
{
	data = (	0.6666666666666667	0.3333333333333333	);
}
potential ( guess_colorIg5pp5pc1I | )
{
	data = (	0.6666666666666667	0.3333333333333333	);
}
potential ( true_colorIp3pc1I | )
{
	data = (	0.6666666666666667	0.3333333333333333	);
}
potential ( guess_colorIg8pp2pc1I | )
{
	data = (	0.6666666666666667	0.3333333333333333	);
}
potential ( guess_colorIg6pp3pc1I | )
{
	data = (	0.6666666666666667	0.3333333333333333	);
}
potential ( guess_colorIg1pp3pc1I | )
{
	data = (	0.6666666666666667	0.3333333333333333	);
}
potential ( guess_colorIg2pp1pc1I | )
{
	data = (	0.6666666666666667	0.3333333333333333	);
}
potential ( guess_colorIg5pp4pc1I | )
{
	data = (	0.6666666666666667	0.3333333333333333	);
}
potential ( guess_colorIg6pp2pc1I | )
{
	data = (	0.6666666666666667	0.3333333333333333	);
}
potential ( true_colorIp1pc1I | )
{
	data = (	0.6666666666666667	0.3333333333333333	);
}
potential ( true_colorIp5pc1I | )
{
	data = (	0.6666666666666667	0.3333333333333333	);
}
potential ( guess_colorIg4pp1pc1I | )
{
	data = (	0.6666666666666667	0.3333333333333333	);
}
potential ( guess_colorIg5pp1pc1I | )
{
	data = (	0.6666666666666667	0.3333333333333333	);
}
potential ( guess_colorIg2pp2pc1I | )
{
	data = (	0.6666666666666667	0.3333333333333333	);
}
potential ( guess_colorIg7pp1pc1I | )
{
	data = (	0.6666666666666667	0.3333333333333333	);
}
potential ( guess_colorIg2pp3pc1I | )
{
	data = (	0.6666666666666667	0.3333333333333333	);
}
potential ( guess_colorIg6pp5pc1I | )
{
	data = (	0.6666666666666667	0.3333333333333333	);
}
potential ( true_colorIp2pc1I | )
{
	data = (	0.6666666666666667	0.3333333333333333	);
}
potential ( guess_colorIg3pp1pc1I | )
{
	data = (	0.6666666666666667	0.3333333333333333	);
}
potential ( guess_colorIg3pp5pc1I | )
{
	data = (	0.6666666666666667	0.3333333333333333	);
}
