net 
{
    node_size = (76 36);
}

node node_5
{
    label = "LVFAILURE";
    position = (184 280);
    states = ("value0"  "value1");
}

node node_0
{
    label = "HISTORY";
    position = (68 280);
    states = ("value0"  "value1");
}

node node_3
{
    label = "HYPOVOLEMIA";
    position = (262 196);
    states = ("value0"  "value1");
}

node node_4
{
    label = "LVEDVOLUME";
    position = (308 280);
    states = ("value0"  "value1"  "value2");
}

node node_1
{
    label = "CVP";
    position = (95 353);
    states = ("value0"  "value1"  "value2");
}

node node_2
{
    label = "PCWP";
    position = (395 220);
    states = ("value0"  "value1"  "value2");
}

node node_6
{
    label = "STROKEVOLUME";
    position = (470 128);
    states = ("value0"  "value1"  "value2");
}

node node_7
{
    label = "ERRLOWOUTPUT";
    position = (59 131);
    states = ("value0"  "value1");
}

node node_12
{
    label = "INSUFFANESTH";
    position = (624 216);
    states = ("value0"  "value1");
}

node node_13
{
    label = "ANAPHYLAXIS";
    position = (745 142);
    states = ("value0"  "value1");
}

node node_14
{
    label = "TPR";
    position = (625 142);
    states = ("value0"  "value1"  "value2");
}

node node_18
{
    label = "FIO2";
    position = (491 340);
    states = ("value0"  "value1");
}

node node_24
{
    label = "INTUBATION";
    position = (374 675);
    states = ("value0"  "value1"  "value2");
}

node node_16
{
    label = "KINKEDTUBE";
    position = (482 386);
    states = ("value0"  "value1");
}

node node_26
{
    label = "DISCONNECT";
    position = (599 508);
    states = ("value0"  "value1");
}

node node_27
{
    label = "MINVOLSET";
    position = (605 453);
    states = ("value0"  "value1"  "value2");
}

node node_28
{
    label = "VENTMACH";
    position = (473 453);
    states = ("value0"  "value1"  "value2"  "value3");
}

node node_29
{
    label = "VENTTUBE";
    position = (472 508);
    states = ("value0"  "value1"  "value2"  "value3");
}

node node_30
{
    label = "VENTLUNG";
    position = (325 586);
    states = ("value0"  "value1"  "value2"  "value3");
}

node node_31
{
    label = "VENTALV";
    position = (177 586);
    states = ("value0"  "value1"  "value2"  "value3");
}

node node_19
{
    label = "PVSAT";
    position = (491 275);
    states = ("value0"  "value1"  "value2");
}

node node_22
{
    label = "PULMEMBOLUS";
    position = (788 677);
    states = ("value0"  "value1");
}

node node_23
{
    label = "SHUNT";
    position = (720 583);
    states = ("value0"  "value1");
}

node node_20
{
    label = "SAO2";
    position = (720 506);
    states = ("value0"  "value1"  "value2");
}

node node_32
{
    label = "ARTCO2";
    position = (78 524);
    states = ("value0"  "value1"  "value2");
}

node node_33
{
    label = "CATECHOL";
    position = (503 218);
    states = ("value0"  "value1");
}

node node_34
{
    label = "HR";
    position = (358 131);
    states = ("value0"  "value1"  "value2");
}

node node_8
{
    label = "HRBP";
    position = (183 131);
    states = ("value0"  "value1"  "value2");
}

node node_10
{
    label = "ERRCAUTER";
    position = (302 -18);
    states = ("value0"  "value1");
}

node node_9
{
    label = "HREKG";
    position = (231 59);
    states = ("value0"  "value1"  "value2");
}

node node_11
{
    label = "HRSAT";
    position = (358 55);
    states = ("value0"  "value1"  "value2");
}

node node_15
{
    label = "EXPCO2";
    position = (233 351);
    states = ("value0"  "value1"  "value2"  "value3");
}

node node_17
{
    label = "MINVOL";
    position = (471 586);
    states = ("value0"  "value1"  "value2"  "value3");
}

node node_21
{
    label = "PAP";
    position = (858 588);
    states = ("value0"  "value1"  "value2");
}

node node_25
{
    label = "PRESS";
    position = (591 583);
    states = ("value0"  "value1"  "value2"  "value3");
}

node node_35
{
    label = "CO";
    position = (470 54);
    states = ("value0"  "value1"  "value2");
}

node node_36
{
    label = "BP";
    position = (577 54);
    states = ("value0"  "value1"  "value2");
}

potential (node_5 |)
{
    data = (0.05000000 0.95000000);
}

potential (node_0 | node_5)
{
    data = ((0.90000000 0.10000000)
        (0.01000000 0.99000000));
}

potential (node_3 |)
{
    data = (0.20000000 0.80000000);
}

potential (node_4 | node_3 node_5)
{
    data = (((0.95000000 0.04000000 0.01000000)
        (0.98000000 0.01000000 0.01000000))
        ((0.01000000 0.09000000 0.90000000)
        (0.05000000 0.90000000 0.05000000)));
}

potential (node_1 | node_4)
{
    data = ((0.95000000 0.04000000 0.01000000)
        (0.04000000 0.95000000 0.01000000)
        (0.01000000 0.29000000 0.70000000));
}

potential (node_2 | node_4)
{
    data = ((0.95000000 0.04000000 0.01000000)
        (0.04000000 0.95000000 0.01000000)
        (0.01000000 0.04000000 0.95000000));
}

potential (node_6 | node_3 node_5)
{
    data = (((0.98000000 0.01000000 0.01000000)
        (0.95000000 0.04000000 0.01000000))
        ((0.50000000 0.49000000 0.01000000)
        (0.05000000 0.90000000 0.05000000)));
}

potential (node_7 |)
{
    data = (0.05000000 0.95000000);
}

potential (node_12 |)
{
    data = (0.10000000 0.90000000);
}

potential (node_13 |)
{
    data = (0.01000000 0.99000000);
}

potential (node_14 | node_13)
{
    data = ((0.98000000 0.01000000 0.01000000)
        (0.30000000 0.40000000 0.30000000));
}

potential (node_18 |)
{
    data = (0.05000000 0.95000000);
}

potential (node_24 |)
{
    data = (0.92000000 0.03000000 0.05000000);
}

potential (node_16 |)
{
    data = (0.04000000 0.96000000);
}

potential (node_26 |)
{
    data = (0.10000000 0.90000000);
}

potential (node_27 |)
{
    data = (0.05000000 0.90000000 0.05000000);
}

potential (node_28 | node_27)
{
    data = ((0.05000000 0.93000000 0.01000000 0.01000000)
        (0.05000000 0.01000000 0.93000000 0.01000000)
        (0.05000000 0.01000000 0.01000000 0.93000000));
}

potential (node_29 | node_26 node_28)
{
    data = (((0.97000000 0.01000000 0.01000000 0.01000000)
        (0.97000000 0.01000000 0.01000000 0.01000000)
        (0.97000000 0.01000000 0.01000000 0.01000000)
        (0.97000000 0.01000000 0.01000000 0.01000000))
        ((0.97000000 0.01000000 0.01000000 0.01000000)
        (0.01000000 0.97000000 0.01000000 0.01000000)
        (0.01000000 0.01000000 0.97000000 0.01000000)
        (0.01000000 0.01000000 0.01000000 0.97000000)));
}

potential (node_30 | node_16 node_24 node_29)
{
    data = ((((0.97000000 0.01000000 0.01000000 0.01000000)
        (0.95000000 0.03000000 0.01000000 0.01000000)
        (0.40000000 0.58000000 0.01000000 0.01000000)
        (0.30000000 0.68000000 0.01000000 0.01000000))
        ((0.97000000 0.01000000 0.01000000 0.01000000)
        (0.97000000 0.01000000 0.01000000 0.01000000)
        (0.97000000 0.01000000 0.01000000 0.01000000)
        (0.97000000 0.01000000 0.01000000 0.01000000))
        ((0.97000000 0.01000000 0.01000000 0.01000000)
        (0.95000000 0.03000000 0.01000000 0.01000000)
        (0.50000000 0.48000000 0.01000000 0.01000000)
        (0.30000000 0.68000000 0.01000000 0.01000000)))
        (((0.97000000 0.01000000 0.01000000 0.01000000)
        (0.01000000 0.97000000 0.01000000 0.01000000)
        (0.01000000 0.01000000 0.97000000 0.01000000)
        (0.01000000 0.01000000 0.01000000 0.97000000))
        ((0.97000000 0.01000000 0.01000000 0.01000000)
        (0.97000000 0.01000000 0.01000000 0.01000000)
        (0.97000000 0.01000000 0.01000000 0.01000000)
        (0.97000000 0.01000000 0.01000000 0.01000000))
        ((0.97000000 0.01000000 0.01000000 0.01000000)
        (0.01000000 0.97000000 0.01000000 0.01000000)
        (0.01000000 0.01000000 0.97000000 0.01000000)
        (0.01000000 0.01000000 0.01000000 0.97000000))));
}

potential (node_31 | node_24 node_30)
{
    data = (((0.97000000 0.01000000 0.01000000 0.01000000)
        (0.01000000 0.97000000 0.01000000 0.01000000)
        (0.01000000 0.01000000 0.97000000 0.01000000)
        (0.01000000 0.01000000 0.01000000 0.97000000))
        ((0.97000000 0.01000000 0.01000000 0.01000000)
        (0.01000000 0.97000000 0.01000000 0.01000000)
        (0.01000000 0.01000000 0.97000000 0.01000000)
        (0.01000000 0.01000000 0.01000000 0.97000000))
        ((0.97000000 0.01000000 0.01000000 0.01000000)
        (0.03000000 0.95000000 0.01000000 0.01000000)
        (0.01000000 0.94000000 0.04000000 0.01000000)
        (0.01000000 0.88000000 0.10000000 0.01000000)));
}

potential (node_19 | node_18 node_31)
{
    data = (((1.00000000 0.00000000 0.00000000)
        (0.99000000 0.01000000 0.00000000)
        (0.95000000 0.04000000 0.01000000)
        (0.95000000 0.04000000 0.01000000))
        ((1.00000000 0.00000000 0.00000000)
        (0.95000000 0.04000000 0.01000000)
        (0.01000000 0.95000000 0.04000000)
        (0.01000000 0.01000000 0.98000000)));
}

potential (node_22 |)
{
    data = (0.01000000 0.99000000);
}

potential (node_23 | node_22 node_24)
{
    data = (((0.10000000 0.90000000)
        (0.10000000 0.90000000)
        (0.01000000 0.99000000))
        ((0.95000000 0.05000000)
        (0.95000000 0.05000000)
        (0.05000000 0.95000000)));
}

potential (node_20 | node_19 node_23)
{
    data = (((0.98000000 0.01000000 0.01000000)
        (0.01000000 0.98000000 0.01000000))
        ((0.01000000 0.01000000 0.98000000)
        (0.98000000 0.01000000 0.01000000))
        ((0.98000000 0.01000000 0.01000000)
        (0.69000000 0.30000000 0.01000000)));
}

potential (node_32 | node_31)
{
    data = ((0.01000000 0.01000000 0.98000000)
        (0.01000000 0.01000000 0.98000000)
        (0.04000000 0.92000000 0.04000000)
        (0.90000000 0.09000000 0.01000000));
}

potential (node_33 | node_12 node_14 node_20 node_32)
{
    data = (((((0.01000000 0.99000000)
        (0.01000000 0.99000000)
        (0.01000000 0.99000000))
        ((0.01000000 0.99000000)
        (0.01000000 0.99000000)
        (0.01000000 0.99000000))
        ((0.01000000 0.99000000)
        (0.01000000 0.99000000)
        (0.01000000 0.99000000)))
        (((0.01000000 0.99000000)
        (0.01000000 0.99000000)
        (0.01000000 0.99000000))
        ((0.01000000 0.99000000)
        (0.01000000 0.99000000)
        (0.01000000 0.99000000))
        ((0.05000000 0.95000000)
        (0.05000000 0.95000000)
        (0.01000000 0.99000000)))
        (((0.01000000 0.99000000)
        (0.01000000 0.99000000)
        (0.01000000 0.99000000))
        ((0.05000000 0.95000000)
        (0.05000000 0.95000000)
        (0.01000000 0.99000000))
        ((0.05000000 0.95000000)
        (0.05000000 0.95000000)
        (0.01000000 0.99000000))))
        ((((0.05000000 0.95000000)
        (0.05000000 0.95000000)
        (0.01000000 0.99000000))
        ((0.05000000 0.95000000)
        (0.05000000 0.95000000)
        (0.01000000 0.99000000))
        ((0.05000000 0.95000000)
        (0.05000000 0.95000000)
        (0.01000000 0.99000000)))
        (((0.70000000 0.30000000)
        (0.70000000 0.30000000)
        (0.10000000 0.90000000))
        ((0.70000000 0.30000000)
        (0.70000000 0.30000000)
        (0.10000000 0.90000000))
        ((0.70000000 0.30000000)
        (0.70000000 0.30000000)
        (0.10000000 0.90000000)))
        (((0.95000000 0.05000000)
        (0.99000000 0.01000000)
        (0.30000000 0.70000000))
        ((0.95000000 0.05000000)
        (0.99000000 0.01000000)
        (0.30000000 0.70000000))
        ((0.95000000 0.05000000)
        (0.99000000 0.01000000)
        (0.30000000 0.70000000)))));
}

potential (node_34 | node_33)
{
    data = ((0.05000000 0.90000000 0.05000000)
        (0.01000000 0.09000000 0.90000000));
}

potential (node_8 | node_7 node_34)
{
    data = (((0.98000000 0.01000000 0.01000000)
        (0.40000000 0.59000000 0.01000000)
        (0.30000000 0.40000000 0.30000000))
        ((0.98000000 0.01000000 0.01000000)
        (0.01000000 0.98000000 0.01000000)
        (0.01000000 0.01000000 0.98000000)));
}

potential (node_10 |)
{
    data = (0.10000000 0.90000000);
}

potential (node_9 | node_10 node_34)
{
    data = (((0.33300000 0.33300000 0.33300000)
        (0.33300000 0.33300000 0.33300000)
        (0.33300000 0.33300000 0.33300000))
        ((0.98000000 0.01000000 0.01000000)
        (0.01000000 0.98000000 0.01000000)
        (0.01000000 0.01000000 0.98000000)));
}

potential (node_11 | node_10 node_34)
{
    data = (((0.33300000 0.33300000 0.33300000)
        (0.33300000 0.33300000 0.33300000)
        (0.33300000 0.33300000 0.33300000))
        ((0.98000000 0.01000000 0.01000000)
        (0.01000000 0.98000000 0.01000000)
        (0.01000000 0.01000000 0.98000000)));
}

potential (node_15 | node_30 node_32)
{
    data = (((0.97000000 0.01000000 0.01000000 0.01000000)
        (0.01000000 0.97000000 0.01000000 0.01000000)
        (0.01000000 0.97000000 0.01000000 0.01000000))
        ((0.01000000 0.97000000 0.01000000 0.01000000)
        (0.97000000 0.01000000 0.01000000 0.01000000)
        (0.01000000 0.01000000 0.97000000 0.01000000))
        ((0.01000000 0.01000000 0.97000000 0.01000000)
        (0.01000000 0.01000000 0.97000000 0.01000000)
        (0.97000000 0.01000000 0.01000000 0.01000000))
        ((0.01000000 0.01000000 0.01000000 0.97000000)
        (0.01000000 0.01000000 0.01000000 0.97000000)
        (0.01000000 0.01000000 0.01000000 0.97000000)));
}

potential (node_17 | node_24 node_30)
{
    data = (((0.97000000 0.01000000 0.01000000 0.01000000)
        (0.01000000 0.97000000 0.01000000 0.01000000)
        (0.01000000 0.01000000 0.97000000 0.01000000)
        (0.01000000 0.01000000 0.01000000 0.97000000))
        ((0.97000000 0.01000000 0.01000000 0.01000000)
        (0.60000000 0.38000000 0.01000000 0.01000000)
        (0.50000000 0.48000000 0.01000000 0.01000000)
        (0.50000000 0.48000000 0.01000000 0.01000000))
        ((0.97000000 0.01000000 0.01000000 0.01000000)
        (0.01000000 0.97000000 0.01000000 0.01000000)
        (0.01000000 0.01000000 0.97000000 0.01000000)
        (0.01000000 0.01000000 0.01000000 0.97000000)));
}

potential (node_21 | node_22)
{
    data = ((0.01000000 0.19000000 0.80000000)
        (0.05000000 0.90000000 0.05000000));
}

potential (node_25 | node_16 node_24 node_29)
{
    data = ((((0.97000000 0.01000000 0.01000000 0.01000000)
        (0.01000000 0.30000000 0.49000000 0.20000000)
        (0.01000000 0.01000000 0.08000000 0.90000000)
        (0.01000000 0.01000000 0.01000000 0.97000000))
        ((0.97000000 0.01000000 0.01000000 0.01000000)
        (0.10000000 0.84000000 0.05000000 0.01000000)
        (0.05000000 0.25000000 0.25000000 0.45000000)
        (0.01000000 0.15000000 0.25000000 0.59000000))
        ((0.97000000 0.01000000 0.01000000 0.01000000)
        (0.01000000 0.29000000 0.30000000 0.40000000)
        (0.01000000 0.01000000 0.08000000 0.90000000)
        (0.01000000 0.01000000 0.01000000 0.97000000)))
        (((0.97000000 0.01000000 0.01000000 0.01000000)
        (0.01000000 0.97000000 0.01000000 0.01000000)
        (0.01000000 0.01000000 0.97000000 0.01000000)
        (0.01000000 0.01000000 0.01000000 0.97000000))
        ((0.97000000 0.01000000 0.01000000 0.01000000)
        (0.40000000 0.58000000 0.01000000 0.01000000)
        (0.20000000 0.75000000 0.04000000 0.01000000)
        (0.20000000 0.70000000 0.09000000 0.01000000))
        ((0.97000000 0.01000000 0.01000000 0.01000000)
        (0.01000000 0.90000000 0.08000000 0.01000000)
        (0.01000000 0.01000000 0.38000000 0.60000000)
        (0.01000000 0.01000000 0.01000000 0.97000000))));
}

potential (node_35 | node_6 node_34)
{
    data = (((0.98000000 0.01000000 0.01000000)
        (0.95000000 0.04000000 0.01000000)
        (0.80000000 0.19000000 0.01000000))
        ((0.95000000 0.04000000 0.01000000)
        (0.04000000 0.95000000 0.01000000)
        (0.01000000 0.04000000 0.95000000))
        ((0.30000000 0.69000000 0.01000000)
        (0.01000000 0.30000000 0.69000000)
        (0.01000000 0.01000000 0.98000000)));
}

potential (node_36 | node_14 node_35)
{
    data = (((0.98000000 0.01000000 0.01000000)
        (0.98000000 0.01000000 0.01000000)
        (0.90000000 0.09000000 0.01000000))
        ((0.98000000 0.01000000 0.01000000)
        (0.10000000 0.85000000 0.05000000)
        (0.05000000 0.20000000 0.75000000))
        ((0.30000000 0.60000000 0.10000000)
        (0.05000000 0.40000000 0.55000000)
        (0.01000000 0.09000000 0.90000000)));
}
