net 
{
    node_size = (76 36);
}

node node_5
{
    label = "LVFAILURE";
    position = (184 280);
    states = ("value0"  "value1");
}

node node_3
{
    label = "HYPOVOLEMIA";
    position = (262 196);
    states = ("value0"  "value1");
}

node node_7
{
    label = "ERRLOWOUTPUT";
    position = (59 131);
    states = ("value0"  "value1");
}

node node_12
{
    label = "INSUFFANESTH";
    position = (624 216);
    states = ("value0"  "value1");
}

node node_13
{
    label = "ANAPHYLAXIS";
    position = (745 142);
    states = ("value0"  "value1");
}

node node_18
{
    label = "FIO2";
    position = (491 340);
    states = ("value0"  "value1");
}

node node_24
{
    label = "INTUBATION";
    position = (374 675);
    states = ("value0"  "value1"  "value2");
}

node node_16
{
    label = "KINKEDTUBE";
    position = (482 386);
    states = ("value0"  "value1");
}

node node_26
{
    label = "DISCONNECT";
    position = (599 508);
    states = ("value0"  "value1");
}

node node_27
{
    label = "MINVOLSET";
    position = (605 453);
    states = ("value0"  "value1"  "value2");
}

node node_22
{
    label = "PULMEMBOLUS";
    position = (788 677);
    states = ("value0"  "value1");
}

node node_10
{
    label = "ERRCAUTER";
    position = (302 -18);
    states = ("value0"  "value1");
}

potential (node_5 |)
{
    data = (0.05000000 0.95000000);
}

potential (node_3 |)
{
    data = (0.20000000 0.80000000);
}

potential (node_4 | node_3 node_5)
{
    data = (((0.95000000 0.04000000 0.01000000)
        (0.98000000000 0.01000000)
        (0.01000000 0.29000000 0.70000000));
}

potential (node_2 | node_4)
{
    data = ((0.95000000 0.04000000 0.01000000)
        (0.04000000 0.95000000 0.01000000)
        (0.01000000 0.04000000 0.9500000 0.01000000)
        (0.05000000 0.90000000 0.05000000)));
}

potential (node_7 |)
{
    data = (0.05000000 0.95000000);
}

potential (node_12 |)
{
    data = (0.1      (0.30000000 0.40000000 0.30000000));
}

potential (node_18 |)
{
    data = (0.05000000 0.95000000);
}

potential (node_24 |)
{
    data = (0.92000000 0.03000000 0al (node_28 | node_27)
{
    data = ((0.05000000 0.93000000 0.01000000 0.01000000)
        (0.05000000 0.01000000 0.93000000 0.01000000)
        (0.05000000 0.01000000 0.01000000 0.93000000));
}

potential (node_29 | node_26 node_28)
{
    data = (((0.97000000 0.01000000 0.01000000 0.01000000)
        (0.97000000 0.01000000 0.01000000 0.01000000)
        (0.97000000 0.01000000 0.01000000 0.01000000)
       000000 0.01000000 0.01000000)
        (0.01000000 0.01000000 0.97000000 0.01000000)
        (0.01000000 0.01000000 0.01000000 0.97000000)));
}

potential (node_30 | node_16 node_24 node_29)
{
    data = ((((0.97000000 0.01000000 0.01000000 0.01000000)
        (0.95000000 0.03000000 0.01000000 0.01000000)
        (0.40000000 0.58000000 0.01000000 0.01000000)
        (0.30000000 0.68000000 0.01000000 0.01000000))
        ((0.97000000 0.01000000 0.01000000 0.010001000000 0.01000000)
        (0.95000000 0.03000000 0.01000000 0.01000000)
        (0.50000000 0.48000000 0.01000000 0.01000000)
        (0.30000000 0.68000000 0.01000000 0.01000000)))
        (((0.9700001000000 0.97000000 0.01000000 0.01000000)
        (0.01000000 0.01000000 0.97000000 0.01000000)
        (0.01000000 0.01000000 0.01000000 0.97000000))));
}

potential (node_31 | node_24 node_30)
{
    data = (((0.97000000 0.01000000 0.01000000 0.01000000)
        (0.01000000 0.97000000 0.01000000 0.01000000)
        (0.01000000 0.01000000 0.97000000 0.01000000)
        (0.01000000 0.01000000 0.01000000 0.97000000))
        ((0.97000000 0.01000000 0.01000000 0.01000000)
        (0000000 0.01000000)));
}

potential (node_32 | node_31)
{
    data = ((0.01000000 0.01000000 0.98000000)
        (0.01000000 0.01000000 0.98000000)
        (0.04000000 0.92000000 0.04000000)
        (0.90000000 0.09000000 0.01000000));
}

potential (node_33 | node_12 node_14 node_20 node_32)
{
    data = (((((0.01000000 0.99000000)
        (0.01000000 0.99000000)
        (0.01000000 0.99000000))
        ((0.01000000 0.99000000)
        (0.01000000 0.99000000)
        (0.01000000 0.99000000))
        ((0.01000000 0.99000000)
        (0.01000000 0.99000000)
        (0.01000000 0.99000000)))
        (((0.01000000 0.99000000)
        (0.01000000 0.99000000)
        (0.01000000 0.99000000))
        ((0.01000000 0.99000000)
        (0.01000000 0.99000000)
        (0.01000000 0.99000000))
        ((0.05000000 0.95000000)
        (0.05000000 0.95000000)
        (0.01000000 0.99000000)))
        (((0.01000000 0.99000000)
        (0.01000000 0.99000000)
        (0.01000000 0.99000000))
        ((0.05000000 0.95000000)
        (0.05000000 0.95000000)
        (0.01000000 0.99000000))
        ((0.05000000 0.95000000)
        (0.05000000 0.95000000)
        (0.01000000 0.99000000))))
        ((((0.05000000 0.95000000)
        (0.05000000 0.95000000)
        (0.01000000 0.99000000))
        ((0.05000000 0.95000000)
        (0.05000000 0.95000000)
        (0.010000)))));
}

potential (node_34 | node_33)
{
    data = ((0.05000000 0.90000000 0.05000000)
        (0.01000000 0.09000000 0.90000000));
}

potential (node_8 | node_7 node_34)
{
    data = (((0.98000000 0.01000000 0.01000000)
        (0.40000000 0.59000000 0.01000000)
        (0.30000000 0.40000000 0.30000000))
        ((0.98000000 0.01000000 0.01000000)
        (0.01000000 0.98000000 0.01000000)
        (0.01000000 0.01000000 0.98000000)));
}

potential (node_10 |)
{
    data = (0.10000000 0.90000000);
}

potential (node_9 | node_10 node_34)
{
    data = (((0.33300000 0.33300000 0.33300000)
        (0.33300000 0.33300000 0.33300000)
        (0.33300000 0.33300000 0.33300000))
        ((0.98000000 0.01000000 0.98000000)));
}

potential (node_15 | node_30 node_32)
{
    data = (((0.97000000 0.01000000 0.01000000 0.01000000)
        (0.01000000 0.97000000 0.01000000 0.01000000)
        (0.01000000 0.97000000 0.01000000 0.01000000))
        ((0.01000000 0.97000000 0.01000000 0.01000000)
        (0.97000000 0.01000000 0.01000000 0.01000000)
        (0.01000000 0.01000000 0.97000000 0.01000000))
        ((0.01000000 0.01000000 0.97000000 0.01000000)
  0 0.01000000 0.97000000)));
}

potential (node_17 | node_24 node_30)
{
    data = (((0.97000000 0.01000000 0.01000000 0.01000000)
        (0.01000000 0.97000000 0.01000000 0.01000000)
        (0.01000000 0.01000000 0.97000000 0.01000000)
       000000)
        (0.01000000 0.97000000 0.01000000 0.01000000)
        (0.01000000 0.01000000 0.97000000 0.01000000)
        (0.01000000 0.01000000 0.01000000 0.97000000)));
}

potential (node_21 | node_22)
{
    data = ((0.01000000 0.19000000 0.80000000)
        (0.05000000 0.90000000 0.05000000));
}

potential  (0.01000000 0.01000000 0.01000000 0.97000000))
        ((0.97000000 0.01000000 0.01000000 0.01000000)
        (0.10000000 0.84000000 0.05000000 0.01000000)
        (0.05000000 0.25000000 0.25000000 0.45000000)
  