net 
{
    node_size = (76 36);
}

node N0_7muVerMo
{
    label = "10_7muVerMo";
    position = (363 348);
    states = ("StrongUp"  "WeakUp"  "Neutral"  "Down");
}

node SubjVertMo
{
    label = "SubjVertMo";
    position = (363 308);
    states = ("StronUp"  "WeakUp"  "Neutral"  "Down");
}

node QGVertMotion
{
    label = "QGVertMotion";
    position = (363 268);
    states = ("StrongUp"  "WeakUp"  "Neutral"  "Down");
}

node SatContMoist
{
    label = "SatContMoist";
    position = (363 208);
    states = ("VeryWet"  "Wet"  "Neutral"  "Dry");
}

node RaoContMoist
{
    label = "RaoContMoist";
    position = (363 168);
    states = ("VeryWet"  "Wet"  "Neutral"  "Dry");
}

node VISCloudCov
{
    label = "VISCloudCov";
    position = (363 68);
    states = ("Cloudy"  "PC"  "Clear");
}

node IRCloudCover
{
    label = "IRCloudCover";
    position = (363 108);
    states = ("Cloudy"  "PC"  "Clear");
}

node AMInstabMt
{
    label = "AMInstabMt";
    position = (579 116);
    states = ("None"  "Weak"  "Strong");
}

node WndHodograph
{
    label = "WndHodograph";
    position = (802 144);
    states = ("DCVZFavor"  "StrongWest"  "Westerly"  "Other");
}

node MorningBound
{
    label = "MorningBound";
    position = (920 159);
    states = ("None"  "Weak"  "Strong");
}

node LoLevMoistAd
{
    label = "LoLevMoistAd";
    position = (1101 270);
    states = ("StrongPos"  "WeakPos"  "Neutral"  "Negative");
}

node Date
{
    label = "Date";
    position = (46 456);
    states = ("May15_Jun14"  "Jun15_Jul1"  "Jul2_Jul15"  "Jul16_Aug10" 
     "Aug11_Aug20"  "Aug20_Sep15");
}

node MorningCIN
{
    label = "MorningCIN";
    position = (715 345);
    states = ("None"  "PartInhibit"  "Stifling"  "TotalInhibit");
}

node LIfr12ZDENSd
{
    label = "LIfr12ZDENSd";
    position = (952 394);
    states = ("LIGt0"  "N1GtLIGt_4"  "N5GtLIGt_8"  "LILt_8");
}

node AMDewptCalPl
{
    label = "AMDewptCalPl";
    position = (849 393);
    states = ("Instability"  "Neutral"  "Stability");
}

node LatestCIN
{
    label = "LatestCIN";
    position = (1261 67);
    states = ("None"  "PartInhibit"  "Stifling"  "TotalInhibit");
}

node LLIW
{
    label = "LLIW";
    position = (1176 80);
    states = ("Unfavorable"  "Weak"  "Moderate"  "Strong");
}

potential (N0_7muVerMo |)
{
    data = (0.25000000 0.25000000 0.25000000 0.25000000);
}

potential (SubjVertMo |)
{
    data = (0.15000000 0.15000000 0.50000000 0.20000000);
}

potential (QGVertMotion |)
{
    data = (0.15000000 0.15000000 0.50000000 0.20000000);
}

potential (SatContMoist |)
{
    data = (0.15000000 0.20000000 0.40000000 0.25000000);
}

potential (RaoContMoist |)
{
    data = (0.15000000 0.20000000 0.40000000 0.25000000);
}

potential (VISCloudCov |)
{
    data = (0.10000000 0.50000000 0.40000000);
}

potential (IRCloudCover |)
{
    data = (0.15000000 0.45000000 0.40000000);
}

potential (AMInstabMt |)
{
    data = (0.33333300 0.33333300 0.33333400);
}

potential (WndHodograph |)
{
    data = (0.30000000 0.25000000 0.25000000 0.20000000);
}

potential (MorningBound |)
{
    data = (0.50000000 0.35000000 0.15000000);
}

potential (LoLevMoistAd |)
{
    data = (0.12000000 0.28000000 0.30000000 0.30000000);
}

potential (Date |)
{
    data = (0.25409800 0.13114800 0.10655700 0.21311500 0.07377000 
        0.22131200);
}

potential (MorningCIN |)
{
    data = (0.15000000 0.57000000 0.20000000 0.08000000);
}

potential (LIfr12ZDENSd |)
{
    data = (0.10000000 0.52000000 0.30000000 0.08000000);
}

potential (AMDewptCalPl |)
{
    data = (0.30000000 0.25000000 0.45000000);
}

potential (LatestCIN |)
{
    data = (0.40000000 0.40000000 0.15000000 0.05000000);
}

potential (LLIW |)
{
    data = (0.12000000 0.32000000 0.38000000 0.18000000);
}
