%%%%%%%%%%%%%%%%%%%%%%%%  M I L D E W  %%%%%%%%%%%%%%%%%%%%%%%%%%%%%%%%%
%% A preliminary model for deciding on the amount of fungicides to be used
%% against attack of mildew in wheat.  The model has been developed by 
%% Finn V. Jensen, Jørgen Olesen, and Uffe Kjærulff.
%% 


net
{
    node_size = (120 25);
}

node straaling_1
{
    label = "Globalstråling 1";
    position = (133 123);
    states = ("< 150 MJ/m2" "150 - 199 MJ/m2" "200 - 249 MJ/m2" ">= 250 MJ/m2");
}

node temp_1
{
    label = "Middeltemperatur 1";
    position = (133 285);
    states = ("< 13.0 C" "13.0 - 14.9 C" "15.0 - 16.9 C" ">= 17.0 C");
}

node meldug_1
{
    label = "Meldug 1";
    position = (180 645);
    states = ("0.00 - 0.01 %" "0.01 - 0.5 %" "0.5 - 1 %" "1 - 2 %" "2 - 6 %" "6 - 10 %" "10 - 25 %" "25 - 50 %" "50 - 100 %");
}

node straaling_2
{
    label = "Globalstråling 2";
    position = (322 123);
    states = ("< 150 MJ/m2" "150 - 199 MJ/m2" "200 - 249 MJ/m2" ">= 250 MJ/m2");
}

node temp_2
{
    label = "Middeltemperatur 2";
    position = (322 285);
    states = ("< 13.0 C" "13.0 - 14.9 C" "15.0 - 16.9 C" ">= 17.0 C");
}

node straaling_3
{
    label = "Globalstråling 3";
    position = (512 123);
    states = ("< 300 MJ/m2" "300 - 349 MJ/m2" "350 - 399 MJ/m2" ">= 400 MJ/m2");
}

node straaling_4
{
    label = "Globalstråling 4";
    position = (711 123);
    states = ("< 300 MJ/m2" "300 - 349 MJ/m2" "350 - 399 MJ/m2" ">= 400 MJ/m2");
}

node middel_1
{
    label = "Middel 1";
    position = (199 730);
    states = ("0 l/ha" "0.25 l/ha" "0.50 l/ha" "0.75 l/ha");
}

node middel_2
{
    label = "Middel 2";
    position = (389 730);
    states = ("0 l/ha" "0.25 l/ha" "0.50 l/ha" "0.75 l/ha");
}

node middel_3
{
    label = "Middel 3";
    position = (579 730);
    states = ("0 l/ha" "0.25 l/ha" "0.50 l/ha" "0.75 l/ha");
}

node nedboer_1
{
    label = "Nedbørsdøgn 1";
    position = (133 465);
    states = ("0 - 1" "2 - 3" ">= 4");
}

node nedboer_2
{
    label = "Nedbørsdøgn 2";
    position = (322 465);
    states = ("0 - 1" "2 - 3" ">= 4");
}

node nedboer_3
{
    label = "Nedbørsdøgn 3";
    position = (512 465);
    states = ("0 - 1" "2 - 3" ">= 4");
}

potential (foto_1 | lai_1 temp_1 straaling_1)
{
    data =
	(((( 0.6 0.1767 0.1987 0.0247 0 0 0 0 0 0 0 0 0 0 0 0 0 0 0 0 )    	%  0.0 - 0.5  < 13.0 C  < 150 MJ/m2
	   ( 0.5883 0.1093 0.1553 0.1353 0.0117 0 0 0 0 0 0 0 0 0 0 0 0 0 0 0 )    	%  0.0 - 0.5  < 13.0 C  150 - 199 MJ/m2
	   ( 0.5167 0.1247 0.124 0.1443 0.0873 0.003 0 0 0 0 0 0 0 0 0 0 0 0 0 0 )    	%  0.0 - 0.5  < 13.0 C  200 - 249 MJ/m2
	   ( 0.5 0.1 0.1107 0.12 0.121 0.0483 0 0 0 0 0 0 0 0 0 0 0 0 0 0 ))   	%  0.0 - 0.5  < 13.0 C  >= 250 MJ/m2
	  (( 0.6 0.1843 0.197 0.0187 0 0 0 0 0 0 0 0 0 0 0 0 0 0 0 0 )    	%  0.0 - 0.5  13.0 - 14.9 C  < 150 MJ/m2
	   ( 0.59 0.1133 0.1653 0.1257 0.0057 0 0 0 0 0 0 0 0 0 0 0 0 0 0 0 )    	%  0.0 - 0.5  13.0 - 14.9 C  150 - 199 MJ/m2
	   ( 0.5187 0.1303 0.13 0.1547 0.0663 0 0 0 0 0 0 0 0 0 0 0 0 0 0 0 )    	%  0.0 - 0.5  13.0 - 14.9 C  200 - 249 MJ/m2
	   ( 0.5 0.1007 0.1187 0.1283 0.1253 0.027 0 0 0 0 0 0 0 0 0 0 0 0 0 0 ))   	%  0.0 - 0.5  13.0 - 14.9 C  >= 250 MJ/m2
	  (( 0.6 0.1897 0.1983 0.012 0 0 0 0 0 0 0 0 0 0 0 0 0 0 0 0 )    	%  0.0 - 0.5  15.0 - 16.9 C  < 150 MJ/m2
	   ( 0.59 0.1157 0.1767 0.1173 0.0003 0 0 0 0 0 0 0 0 0 0 0 0 0 0 0 )    	%  0.0 - 0.5  15.0 - 16.9 C  150 - 199 MJ/m2
	   ( 0.5223 0.133 0.1387 0.1593 0.0467 0 0 0 0 0 0 0 0 0 0 0 0 0 0 0 )    	%  0.0 - 0.5  15.0 - 16.9 C  200 - 249 MJ/m2
	   ( 0.5 0.1047 0.1267 0.1383 0.1187 0.0117 0 0 0 0 0 0 0 0 0 0 0 0 0 0 ))   	%  0.0 - 0.5  15.0 - 16.9 C  >= 250 MJ/m2
	  (( 0.6 0.1997 0.1923 0.008 0 0 0 0 0 0 0 0 0 0 0 0 0 0 0 0 )    	%  0.0 - 0.5  >= 17.0 C  < 150 MJ/m2
	   ( 0.59 0.1183 0.192 0.0997 0 0 0 0 0 0 0 0 0 0 0 0 0 0 0 0 )    	%  0.0 - 0.5  >= 17.0 C  150 - 199 MJ/m2
	   ( 0.5233 0.1387 0.1447 0.1637 0.0297 0 0 0 0 0 0 0 0 0 0 0 0 0 0 0 )    	%  0.0 - 0.5  >= 17.0 C  200 - 249 MJ/m2
	   ( 0.5 0.109 0.1353 0.1557 0.0993 0.0007 0 0 0 0 0 0 0 0 0 0 0 0 0 0 )))  	%  0.0 - 0.5  >= 17.0 C  >= 250 MJ/m2
	 ((( 0 0 0.044 0.288 0.3743 0.2397 0.0537 0.0003 0 0 0 0 0 0 0 0 0 0 0 0 )    	%  0.5 - 1.5  < 13.0 C  < 150 MJ/m2
	   ( 0 0 0 0.058 0.2317 0.296 0.276 0.121 0.0173 0 0 0 0 0 0 0 0 0 0 0 )    	%  0.5 - 1.5  < 13.0 C  150 - 199 MJ/m2
	   ( 0 0 0 0 0.0827 0.2033 0.249
	  ( 0 0.1233 0.84 0.0367 0 0 0 0 )   	%  2.5 - 3.5  25 - 50 %
	  ( 0.34 0.62 0.04 0 0 0 0 0 ))  	%  2.5 - 3.5  50 - 100 %
	 (( 0 0 0 0.1333 0.7333 0.1333 0 0 )   	%  3.5 - 4.5  0.00 - 0.01 %
	  ( 0 0 0 0.1333 0.7333 0.1333 0 0 )   	%  3.5 - 4.5  0.01 - 0.5 %
	  ( 0 0 0 0.1333 0.7333 0.1333 0 0 )   	%  3.5 - 4.5  0.5 - 1 %
	  ( 0 0 0 0.17 0.7167 0.1133 0 0 )   	%  3.5 - 4.5  1 - 2 %
	  ( 0 0 0 0.2333 0.6867 0.08 0 0 )   	%  3.5 - 4.5  2 - 6 %
	  ( 0 0 0 0.3433 0.64 0.0167 0 0 )   	%  3.5 - 4.5  6 - 10 %
	  ( 0 0 0.01 0.6867 0.3033 0 0 0 )   	%  3.5 - 4.5  10 - 25 %
	  ( 0 0 0.5233 0.47 0.0067 0 0 0 )   	%  3.5 - 4.5  25 - 50 %
	  ( 0.25 0.5033 0.2467 0 0 0 0 0 ))  	%  3.5 - 4.5  50 - 100 %
	 (( 0 0 0 0 0.1667 0.6667 0.1667 0 )   	%  4.5 - 5.5  0.00 - 0.01 %
	  ( 0 0 0 0 0.1667 0.6667 0.1667 0 )   	%  4.5 - 5.5  0.01 - 0.5 %
	  ( 0 0 0 0 0.1667 0.6667 0.1667 0 )   	%  4.5 - 5.5  0.5 - 1 %
	  ( 0 0 0 0 0.23 0.6367 0.1333 0 )   	%  4.5 - 5.5  1 - 2 %
	  ( 0 0 0 0 0.3 0.6033 0.0967 0 )   	%  4.5 - 5.5  2 - 6 %
	  ( 0 0 0 0 0.44 0.5367 0.0233 0 )   	%  4.5 - 5.5  6 - 10 %
	  ( 0 0 0 0.0833 0.69 0.2267 0 0 )   	%  4.5 - 5.5  10 - 25 %
	  ( 0 0 0.0933 0.6833 0.2233 0 0 0 )   	%  4.5 - 5.5  25 - 50 %
	  ( 0.2 0.4067 0.3567 0.0367 0 0 0 0 ))  	%  4.5 - 5.5  50 - 100 %
	 (( 0 0 0 0 0 0.2 0.6 0.2 )   	%  5.5 - 6.5  0.00 - 0.01 %
	  ( 0 0 0 0 0 0.2 0.6 0.2 )   	%  5.5 - 6.5  0.01 - 0.5 %
	  ( 0 0 0 0 0 0.23 0.59 0.18 )   	%  5.5 - 6.5  0.5 - 1 %
	  ( 0 0 0 0 0 0.2667 0.5667 0.1667 )   	%  5.5 - 6.5  1 - 2 %
	  ( 0 0 0 0 0 0.3633 0.52 0.1167 )   	%  5.5 - 6.5  2 - 6 %
	  ( 0 0 0 0 0 0.4933 0.48 0.0267 )   	%  5.5 - 6.5  6 - 10 %
	  ( 0 0 0 0 0.22 0.6133 0.1667 0 )   	%  5.5 - 6.5  10 - 25 %
	  ( 0 0 0 0.3567 0.5333 0.11 0 0 )   	%  5.5 - 6.5  25 - 50 %
	  ( 0.1867 0.32 0.3367 0.1567 0 0 0 0 ))  	%  5.5 - 6.5  50 - 100 %
	 (( 0 0 0 0 0 0 0.2333 0.7667 )   	%  > 6.5  0.00 - 0.01 %
	  ( 0 0 0 0 0 0 0.24 0.76 )   	%  > 6.5  0.01 - 0.5 %
	  ( 0 0 0 0 0 0 0.2833 0.7167 )   	%  > 6.5  0.5 - 1 %
	  ( 0 0 0 0 0 0 0.31 0.69 )   	%  > 6.5  1 - 2 %
	  ( 0 0 0 0 0 0 0.4133 0.5867 )   	%  > 6.5  2 - 6 %
	  ( 0 0 0 0 0 0.0467 0.4767 0.4767 )   	%  > 6.5  6 - 10 %
	  ( 0 0 0 0 0.0033 0.35 0.5167 0.13 )   	%  > 6.5  10 - 25 %
	  ( 0 0 0 0.0833 0.51 0.36 0.0467 0 )   	%  > 6.5  25 - 50 %
	  ( 0.1367 0.3 0.2833 0.25 0.03 0 0 0 )));	%  > 6.5  50 - 100 %
}

potential (meldug_1)
{
    data =
	( 1 1 1 1 1 1 1 1 1 );
}

potential (lai_0)
{
    data =
	( 0 0 0 0.1 0.2 0.2 0.4 0.1 );
}

potential (dm_2 | foto_2 dm_1)
{
    data =
	((( 1 0 0 0 0 0 0 0 0 0 0 0 0 0 0 0 0 0 0 0 0 0 0 0 0 0 0 0 0 0 0 0 0 0 0 0 0 0 0 0 0 0 0 0 0 0 0 0 0 0 0 0 0 0 0 0 0 0 0 0 0 )   	%  0.00 kg/m2  0.00 kg/m2
	  ( 1 0 0 0 0 0 0 0 0 0 0 0 0 0 0 0 0 0 0 0 0 0 0 0 0 0 0 0 0 0 0 0 0 0 0 0 0 0 0 0 0 0 0 0 0 0 0 0 0 0 0 0 0 0 0 0 0 0 0 0 0 )   	%  0.00 kg/m2  0.02 kg/m2
	  ( 1 0 0 0 0 0 0 0 0 0 0 0 0 0 0 0 0 0 0 0 0 0 0 0 0 0 0 0 0 0 0 0 0 0 0 0 0 0 0 0 0 0 0 0 0 0 0 0 0 0 0 0 0 0 0 0 0 0 0 0 0 )   	%  0.00 kg/m2  0.04 kg/m2
	  ( 0.9678 0.0322 0 0 0 0 0 0 0 0 0 0 0 0 0 0 0 0 0 0 0 0 0 0 0 0 0 0 0 0 0 0 0 0 0 0 0 0 0 0 0 0 0 0 0 0 0 0 0 0 0 0 0 0 0 0 0 0 0 0 0 )   	%  0.00 kg/m2  0.06 kg/m2
	  ( 0.6844 0.2889 0.0267 0 0 0 0 0 0 0 0 0 0 0 0 0 0 0 0 0 0 0 0 0 0 0 0 0 0 0 0 0 0 0 0 0 0 0 0 0 0 0 0 0 0 0 0 0 0 0 0 0 0 0 0 0 0 0 0 0 0 )   	%  0.00 kg/m2  0.08 kg/m2
	  ( 0.2878 0.43 0.2622 0.02 0 0 0 0 0 0 0 0 0 0 0 0 0 0 0 0 0 0 0 0 0 0 0 0 0 0 0 0 0 0 0 0 0 0 0 0 0 0 0 0 0 0 0 0 0 0 0 0 0 0 0 0 0 0 0 0 0 )   	%  0.00 kg/m2  0.10 kg/m2
	  ( 0.0433 0.2744 0.4333 0.2344 0.0144 0 0 0 0 0 0 0 0 0 0 0 0 0 0 0 0 0 0 0 0 0 0 0 0 0 0 0 0 0 0 0 0 0 0 0 0 0 0 0 0 0 0 0 0 0 0 0 0 0 0 0 0 0 0 0 0 )   	%  0.00 kg/m2  0.12 kg/m2
	  ( 0 0.0522 0.2956 0.4333 0.2078 0.0111 0 0 0 0 0 0 0 0 0 0 0 0 0 0 0 0 0 0 0 0 0 0 0 0 0 0 0 0 0 0 0 0 0 0 0 0 0 0 0 0 0 0 0 0 0 0 0 0 0 0 0 0 0 0 0 )   	%  0.00 kg/m2  0.14 kg/m2
	  ( 0 0 0.0678 0.3189 0.4233 0.1822 0.0078 0 0 0 0 0 0 0 0 0 0 0 0 0 0 0 0 0 0 0 0 0 0 0 0 0 0 0 0 0 0 0 0 0 0 0 0 0 0 0 0 0 0 0 0 0 0 0 0 0 0 0 0 0 0 )   	%  0.00 kg/m2  0.16 kg/m2
	  ( 0 0 0 0.0789 0.3433 0.41 0.1633 0.0044 0 0 0 0 0 0 0 0 0 0 0 0 0 0 0 0 0 0 0 0 0 0 0 0 0 0 0 0 0 0 0 0 0 0 0 0 0 0 0 0 0 0 0 0 0 0 0 0 0 0 0 0 0 )   	%  0.00 kg/m2  0.18 kg/m2
	  ( 0 0 0 0 0.0956 0.3589 0.4033 0.14 0.0022 0 0 0 0 0 0 0 0 0 0 0 0 0 0 0 0 0 0 0 0 0 0 0 0 0 0 0 0 0 0 0 0 0 0 0 0 0 0 0 0 0 0 0 0 0 0 0 0 0 0 0 0 )   	%  0.00 kg/m2  0.20 kg/m2
	  ( 0 0 0 0 0 0.1189 0.3633 0.3933 0.1233 0.0011 0 0 0 0 0 0 0 0 0 0 0 0 0 0 0 0 0 0 0 0 0 0 0 0 0 0 0 0 0 0 0 0 0 0 0 0 0 0 0 0 0 0 0 0 0 0 0 0 0 0 0 )   	%  0.00 kg/m2  0.22 kg/m2
	  ( 0 0 0 0 0 0 0.1433 0.3722 0.3856 0.0978 0.0011 0 0 0 0 0 0 0 0 0 0 0 0 0 0 0 0 0 0 0 0 0 0 0 0 0 0 0 0 0 0 0 0 0 0 0 0 0 0 0 0 0 0 0 0 0 0 0 0 0 0 )   	%  0.00 kg/m2  0.24 kg/m2
	  ( 0 0 0 0 0 0 0.0056 0.1578 0.3867 0.37 0.08 0 0 0 0 0 0 0 0 0 0 0 0 0 0 0 0 0 0 0 0 0 0 0 0 0 0 0 0 0 0 0 0 0 0 0 0 0 0 0 0 0 0 0 0 0 0 0 0 0 0 )   	%  0.00 kg/m2  0.26 kg/m2
	  ( 0 0 0 0 0 0 0 0.0122 0.17 0.4022 0.3544 0.0611 0 0 0 0 0 0 0 0 0 0 0 0 0 0 0 0 0 0 0 0 0 0 0 0 0 0 0 0 0 0 0 0 0 0 0 0 0 0 0 0 0 0 0 0 0 0 0 0 0 )   	%  0.00 kg/m2  0.28 kg/m2
	  ( 0 0 0 0 0 0 0 0 0.0189 0.1878 0.4033 0.3389 0.0511 0 0 0 0 0 0 0 0 0 0 0 0 0 0 0 0 0 0 0 0 0 0 0 0 0 0 0 0 0 0 0 0 0 0 0 0 0 0 0 0 0 0 0 0 0 0 0 0 )   	%  0.00 kg/m2  0.30 kg/m2
	  ( 0 0 0 0 0 0 0 0 0 0.0267 0.21 0.4078 0.3178 0.0378 0 0 0 0 0 0 0 0 0 0 0 0 0 0 0 0 0 0 0 0 0 0 0 0 0 0 0 0 0 0 0 0 0 0 0 0 0 0 0 0 0 0 0 0 0 0 0 )   	%  0.00 kg/m2  0.32 kg/m2
	  ( 0 0 0 0 0 0 0 0 0 0 0.0344 0.2311 0.4111 0.2911 0.0322 0 0 0 0 0 0 0 0 0 0 0 0 0 0 0 0 0 0 0 0 0 0 0 0 0 0 0 0 0 0 0 0 0 0 0 0 0 0 0 0 0 0 0 0 0 0 )   	%  0.00 kg/m2  0.34 kg/m2
	  ( 0 0 0 0 0 0 0 0 0 0 0 0.0433 0.2533 0.4211 0.2578 0.0244 0 0 0 0 0 0 0 0 0 0 0 0 0 0 0 0 0 0 0 0 0 0 0 0 0 0 0 0 0 0 0 0 0 0 0 0 0 0 0 0 0 0 0 0 0 )   	%  0.00 kg/m2  0.36 kg/m2
	  ( 0 0 0 0 0 0 0 0 0 0 0 0 0.0522 0.2678 0.4278 0.2344 0.0178 0 0 0 0 0 0 0 0 0 0 0 0 0 0 0 0 0 0 0 0 0 0 0 0 0 0 0 0 0 0 0 0 0 0 0 0 0 0 0 0 0 0 0 0 )   	%  0.00 kg/m2  0.38 kg/m2
	  ( 0 0 0 0 0 0 0 0 0 0 0 0 0 0.0622 0.2878 0.4244 0.2122 0.0133 0 0 0 0 0 0 0 0 0 0 0 0 0 0 0 0 0 0 0 0 0 0 0 0 0 0 0 0 0 0 0 0 0 0 0 0 0 0 0 0 0 0 0 )   	%  0.00 kg/m2  0.40 kg/m2
	  ( 0 0 0 0 0 0 0 0 0 0 0 0 0 0 0.0778 0.3089 0.41 0.1933 0.01 0 0 0 0 0 0 0 0 0 0 0 0 0 0 0 0 0 0 0 0 0 0 0 0 0 0 0 0 0 0 0 0 0 0 0 0 0 0 0 0 0 0 )   	%  0.00 kg/m2  0.42 kg/m2
	  ( 0 0 0 0 0 0 0 0 0 0 0 0 0 0 0 0.09 0.3289 0.4033 0.1711 0.0067 0 0 0 0 0 0 0 0 0 0 0 0 0 0 0 0 0 0 0 0 0 0 0 0 0 0 0 0 0 0 0 0 0 0 0 0 0 0 0 0 0 )   	%  0.00 kg/m2  0.44 kg/m2
	  ( 0 0 0 0 0 0 0 0 0 0 0 0 0 0 0 0 0.1122 0.3389 0.3978 0.1467 0.0044 0 0 0 0 0 0 0 0 0 0 0 0 0 0 0 0 0 0 0 0 0 0 0 0 0 0 0 0 0 0 0 0 0 0 0 0 0 0 0 0 )   	%  0.00 kg/m2  0.46 kg/m2
	  ( 0 0 0 0 0 0 0 0 0 0 0 0 0 0 0 0 0 0.1322 0.35 0.3867 0.1289 0.0022 0 0 0 0 0 0 0 0 0 0 0 0 0 0 0 0 0 0 0 0 0 0 0 0 0 0 0 0 0 0 0 0 0 0 0 0 0 0 0 )   	%  0.00 kg/m2  0.48 kg/m2
	  ( 0 0 0 0 0 0 0 0 0 0 0 0 0 0 0 0 0 0.0056 0.1378 0.37 0.3767 0.1089 0.0011 0 0 0 0 0 0 0 0 0 0 0 0 0 0 0 0 0 0 0 0 0 0 0 0 0 0 0 0 0 0 0 0 0 0 0 0 0 0 )   	%  0.00 kg/m2  0.50 kg/m2
	  ( 0 0 0 0 0 0 0 0 0 0 0 0 0 0 0 0 0 0 0.0122 0.1556 0.3811 0.3611 0.0889 0.0011 0 0 0 0 0 0 0 0 0 0 0 0 0 0 0 0 0 0 0 0 0 0 0 0 0 0 0 0 0 0 0 0 0 0 0 0 0 )   	%  0.00 kg/m2  0.52 kg/m2
	  ( 0 0 0 0 0 0 0 0 0 0 0 0 0 0 0 0 0 0 0 0.0189 0.1733 0.39 0.3444 0.0733 0 0 0 0 0 0 0 0 0 0 0 0 0 0 0 0 0 0 0 0 0 0 0 0 0 0 0 0 0 0 0 0 0 0 0 0 0 )   	%  0.00 kg/m2  0.54 kg/m2
	  ( 0 0 0 0 0 0 0 0 0 0 0 0 0 0 0 0 0 0 0 0 0.0267 0.1867 0.4033 0.3267 0.0567 0 0 0 0 0 0 0 0 0 0 0 0 0 0 0 0 0 0 0 0 0 0 0 0 0 0 0 0 0 0 0 0 0 0 0 0 )   	%  0.00 kg/m2  0.56 kg/m2
	  ( 0 0 0 0 0 0 0 0 0 0 0 0 0 0 0 0 0 0 0 0 0 0.0344 0.2056 0.4033 0.3056 0.0511 0 0 0 0 0 0 0 0 0 0 0 0 0 0 0 0 0 0 0 0 0 0 0 0 0 0 0 0 0 0 0 0 0 0 0 )   	%  0.00 kg/m2  0.58 kg/m2
	  ( 0 0 0 0 0 0 0 0 0 0 0 0 0 0 0 0 0 0 0 0 0 0 0.0433 0.2267 0.4067 0.2856 0.0378 0 0 0 0 0 0 0 0 0 0 0 0 0 0 0 0 0 0 0 0 0 0 0 0 0 0 0 0 0 0 0 0 0 0 )   	%  0.00 kg/m2  0.60 kg/m2
	  ( 0 0 0 0 0 0 0 0 0 0 0 0 0 0 0 0 0 0 0 0 0 0 0 0.0522 0.2467 0.4111 0.2611 0.0289 0 0 0 0 0 0 0 0 0 0 0 0 0 0 0 0 0 0 0 0 0 0 0 0 0 0 0 0 0 0 0 0 0 ))  	%  0.00 kg/m2  0.62 kg/m2
	 (( 1 0 0 0 0 0 0 0 0 0 0 0 0 0 0 0 0 0 0 0 0 0 0 0 0 0 0 0 0 0 0 0 0 0 0 0 0 0 0 0 0 0 0 0 0 0 0 0 0 0 0 0 0 0 0 0 0 0 0 0 0 )   	%  0.05 kg/m2  0.00 kg/m2
	  ( 0.9778 0.0222 0 0 0 0 0 0 0 0 0 0 0 0 0 0 0 0 0 0 0 0 0 0 0 0 0 0 0 0 0 0 0 0 0 0 0 0 0 0 0 0 0 0 0 0 0 0 0 0 0 0 0 0 0 0 0 0 0 0 0 )   	%  0.05 kg/m2  0.02 kg/m2
	  ( 0.7889 0.1933 0.0178 0 0 0 0 0 0 0 0 0 0 0 0 0 0 0 0 0 0 0 0 0 0 0 0 0 0 0 0 0 0 0 0 0 0 0 0 0 0 0 0 0 0 0 0 0 0 0 0 0 0 0 0 0 0 0 0 0 0 )   	%  0.05 kg/m2  0.04 kg/m2
	  ( 0.4311 0.3856 0.17 0.0133 0 0 0 0 0 0 0 0 0 0 0 0 0 0 0 0 0 0 0 0 0 0 0 0 0 0 0 0 0 0 0 0 0 0 0 0 0 0 0 0 0 0 0 0 0 0 0 0 0 0 0 0 0 0 0 0 0 )   	%  0.05 kg/m2  0.06 kg/m2
	  ( 0.1256 0.3344 0.3789 0.1522 0.0089 0 0 0 0 0 0 0 0 0 0 0 0 0 0 0 0 0 0 0 0 0 0 0 0 0 0 0 0 0 0 0 0 0 0 0 0 0 0 0 0 0 0 0 0 0 0 0 0 0 0 0 0 0 0 0 0 )   	%  0.05 kg/m2  0.08 kg/m2
	  ( 0.0111 0.1344 0.3478 0.3633 0.1378 0.0056 0 0 0 0 0 0 0 0 0 0 0 0 0 0 0 0 0 0 0 0 0 0 0 0 0 0 0 0 0 0 0 0 0 0 0 0 0 0 0 0 0 0 0 0 0 0 0 0 0 0 0 0 0 0 0 )   	%  0.05 kg/m2  0.10 kg/m2
	  ( 0 0.0144 0.1511 0.3611 0.3456 0.1244 0.0033 0 0 0 0 0 0 0 0 0 0 0 0 0 0 0 0 0 0 0 0 0 0 0 0 0 0 0 0 0 0 0 0 0 0 0 0 0 0 0 0 0 0 0 0 0 0 0 0 0 0 0 0 0 0 )   	%  0.05 kg/m2  0.12 kg/m2
	  ( 0 0 0.0189 0.1689 0.3722 0.3311 0.1067 0.0022 0 0 0 0 0 0 0 0 0 0 0 0 0 0 0 0 0 0 0 0 0 0 0 0 0 0 0 0 0 0 0 0 0 0 0 0 0 0 0 0 0 0 0 0 0 0 0 0 0 0 0 0 0 )   	%  0.05 kg/m2  0.14 kg/m2
	  ( 0 0 0 0.0256 0.1856 0.3778 0.32 0.09 0.0011 0 0 0 0 0 0 0 0 0 0 0 0 0 0 0 0 0 0 0 0 0 0 0 0 0 0 0 0 0 0 0 0 0 0 0 0 0 0 0 0 0 0 0 0 0 0 0 0 0 0 0 0 )   	%  0.05 kg/m2  0.16 kg/m2
	  ( 0 0 0 0 0.0322 0.2022 0.3833 0.3056 0.0767 0 0 0 0 0 0 0 0 0 0 0 0 0 0 0 0 0 0 0 0 0 0 0 0 0 0 0 0 0 0 0 0 0 0 0 0 0 0 0 0 0 0 0 0 0 0 0 0 0 0 0 0 )   	%  0.05 kg/m2  0.18 kg/m2
	  ( 0 0 0 0 0 0.04 0.2222 0.3856 0.2856 0.0667 0 0 0 0 0 0 0 0 0 0 0 0 0 0 0 0 0 0 0 0 0 0 0 0 0 0 0 0 0 0 0 0 0 0 0 0 0 0 0 0 0 0 0 0 0 0 0 0 0 0 0 )   	%  0.05 kg/m2  0.20 kg/m2
	  ( 0 0 0 0 0 0 0.0489 0.24 0.3911 0.2656 0.0544 0 0 0 0 0 0 0 0 0 0 0 0 0 0 0 0 0 0 0 0 0 0 0 0 0 0 0 0 0 0 0 0 0 0 0 0 0 0 0 0 0 0 0 0 0 0 0 0 0 0 )   	%  0.05 kg/m2  0.22 kg/m2
	  ( 0 0 0 0 0 0 0.0011 0.0589 0.2544 0.3967 0.2456 0.0433 0 0 0 0 0 0 0 0 0 0 0 0 0 0 0 0 0 0 0 0 0 0 0 0 0 0 0 0 0 0 0 0 0 0 0 0 0 0 0 0 0 0 0 0 0 0 0 0 0 )   	%  0.05 kg/m2  0.24 kg/m2
	  ( 0 0 0 0 0 0 0 0.0022 0.0689 0.2678 0.3978 0.2311 0.0322 0 0 0 0 0 0 0 0 0 0 0 0 0 0 0 0 0 0 0 0 0 0 0 0 0 0 0 0 0 0 0 0 0 0 0 0 0 0 0 0 0 0 0 0 0 0 0 0 )   	%  0.05 kg/m2  0.26 kg/m2
	  ( 0 0 0 0 0 0 0 0 0.0044 0.0811 0.2822 0.3911 0.2167 0.0244 0 0 0 0 0 0 0 0 0 0 0 0 0 0 0 0 0 0 0 0 0 0 0 0 0 0 0 0 0 0 0 0 0 0 0 0 0 0 0 0 0 0 0 0 0 0 0 )   	%  0.05 kg/m2  0.28 kg/m2
	  ( 0 0 0 0 0 0 0 0 0 0.0067 0.0944 0.2978 0.3856 0.1956 0.02 0 0 0 0 0 0 0 0 0 0 0 0 0 0 0 0 0 0 0 0 0 0 0 0 0 0 0 0 0 0 0 0 0 0 0 0 0 0 0 0 0 0 0 0 0 0 )   	%  0.05 kg/m2  0.30 kg/m2
	  ( 0 0 0 0 0 0 0 0 0 0 0.01 0.1044 0.3156 0.38 0.1722 0.0178 0 0 0 0 0 0 0 0 0 0 0 0 0 0 0 0 0 0 0 0 0 0 0 0 0 0 0 0 0 0 0 0 0 0 0 0 0 0 0 0 0 0 0 0 0 )   	%  0.05 kg/m2  0.32 kg/m2
	  ( 0 0 0 0 0 0 0 0 0 0 0 0.0122 0.1189 0.3311 0.3711 0.1544 0.0122 0 0 0 0 0 0 0 0 0 0 0 0 0 0 0 0 0 0 0 0 0 0 0 0 0 0 0 0 0 0 0 0 0 0 0 0 0 0 0 0 0 0 0 0 )   	%  0.05 kg/m2  0.34 kg/m2
	  ( 0 0 0 0 0 0 0 0 0 0 0 0 0.0156 0.1356 0.3411 0.3589 0.1411 0.0078 0 0 0 0 0 0 0 0 0 0 0 0 0 0 0 0 0 0 0 0 0 0 0 0 0 0 0 0 0 0 0 0 0 0 0 0 0 0 0 0 0 0 0 )   	%  0.05 kg/m2  0.36 kg/m2
	  ( 0 0 0 0 0 0 0 0 0 0 0 0 0 0.0189 0.1533 0.35 0.3467 0.1267 0.0044 0 0 0 0 0 0 0 0 0 0 0 0 0 0 0 0 0 0 0 0 0 0 0 0 0 0 0 0 0 0 0 0 0 0 0 0 0 0 0 0 0 0 )   	%  0.05 kg/m2  0.38 kg/m2
	  ( 0 0 0 0 0 0 0 0 0 0 0 0 0 0 0.0256 0.1689 0.3611 0.3289 0.1111 0.0044 0 0 0 0 0 0 0 0 0 0 0 0 0 0 0 0 0 0 0 0 0 0 0 0 0 0 0 0 0 0 0 0 0 0 0 0 0 0 0 0 0 )   	%  0.05 kg/m2  0.40 kg/m2
	  ( 0 0 0 0 0 0 0 0 0 0 0 0 0 0 0 0.0311 0.1856 0.3722 0.3133 0.0956 0.0022 0 0 0 0 0 0 0 0 0 0 0 0 0 0 0 0 0 0 0 0 0 0 0 0 0 0 0 0 0 0 0 0 0 0 0 0 0 0 0 0 )   	%  0.05 kg/m2  0.42 kg/m2
	  ( 0 0 0 0 0 0 0 0 0 0 0 0 0 0 0 0 0.0389 0.2022 0.3767 0.3 0.0811 0.0011 0 0 0 0 0 0 0 0 0 0 0 0 0 0 0 0 0 0 0 0 0 0 0 0 0 0 0 0 0 0 0 0 0 0 0 0 0 0 0 )   	%  0.05 kg/m2  0.44 kg/m2
	  ( 0 0 0 0 0 0 0 0 0 0 0 0 0 0 0 0 0 0.0467 0.2189 0.3778 0.2878 0.0689 0 0 0 0 0 0 0 0 0 0 0 0 0 0 0 0 0 0 0 0 0 0 0 0 0 0 0 0 0 0 0 0 0 0 0 0 0 0 0 )   	%  0.05 kg/m2  0.46 kg/m2
	  ( 0 0 0 0 0 0 0 0 0 0 0 0 0 0 0 0 0 0.0011 0.0556 0.2367 0.3789 0.2678 0.06 0 0 0 0 0 0 0 0 0 0 0 0 0 0 0 0 0 0 0 0 0 0 0 0 0 0 0 0 0 0 0 0 0 0 0 0 0 0 )   	%  0.05 kg/m2  0.48 kg/m2
	  ( 0 0 0 0 0 0 0 0 0 0 0 0 0 0 0 0 0 0 0.0022 0.0644 0.2522 0.3833 0.25 0.0478 0 0 0 0 0 0 0 0 0 0 0 0 0 0 0 0 0 0 0 0 0 0 0 0 0 0 0 0 0 0 0 0 0 0 0 0 0 )   	%  0.05 kg/m2  0.50 kg/m2
	  ( 0 0 0 0 0 0 0 0 0 0 0 0 0 0 0 0 0 0 0 0.0044 0.0756 0.2633 0.3867 0.2311 0.0389 0 0 0 0 0 0 0 0 0 0 0 0 0 0 0 0 0 0 0 0 0 0 0 0 0 0 0 0 0 0 0 0 0 0 0 0 )   	%  0.05 kg/m2  0.52 kg/m2
	  ( 0 0 0 0 0 0 0 0 0 0 0 0 0 0 0 0 0 0 0 0 0.0067 0.0867 0.2756 0.3856 0.2156 0.03 0 0 0 0 0 0 0 0 0 0 0 0 0 0 0 0 0 0 0 0 0 0 0 0 0 0 0 0 0 0 0 0 0 0 0 )   	%  0.05 kg/m2  0.54 kg/m2
	  ( 0 0 0 0 0 0 0 0 0 0 0 0 0 0 0 0 0 0 0 0 0 0.01 0.0967 0.2933 0.3778 0.1967 0.0256 0 0 0 0 0 0 0 0 0 0 0 0 0 0 0 0 0 0 0 0 0 0 0 0 0 0 0 0 0 0 0 0 0 0 )   	%  0.05 kg/m2  0.56 kg/m2
	  ( 0 0 0 0 0 0 0 0 0 0 0 0 0 0 0 0 0 0 0 0 0 0 0.0133 0.1089 0.3111 0.3689 0.1767 0.0211 0 0 0 0 0 0 0 0 0 0 0 0 0 0 0 0 0 0 0 0 0 0 0 0 0 0 0 0 0 0 0 0 0 )   	%  0.05 kg/m2  0.58 kg/m2
	  ( 0 0 0 0 0 0 0 0 0 0 0 0 0 0 0 0 0 0 0 0 0 0 0 0.0167 0.1222 0.3244 0.3622 0.1589 0.0156 0 0 0 0 0 0 0 0 0 0 0 0 0 0 0 0 0 0 0 0 0 0 0 0 0 0 0 0 0 0 0 0 )   	%  0.05 kg/m2  0.60 kg/m2
	  ( 0 0 0 0 0 0 0 0 0 0 0 0 0 0 0 0 0 0 0 0 0 0 0 0 0.0211 0.1367 0.3333 0.3567 0.1411 0.0111 0 0 0 0 0 0 0 0 0 0 0 0 0 0 0 0 0 0 0 0 0 0 0 0 0 0 0 0 0 0 0 ))  	%  0.05 kg/m2  0.62 kg/m2
	 (( 0.7889 0.2011 0.01 0 0 0 0 0 0 0 0 0 0 0 0 0 0 0 0 0 0 0 0 0 0 0 0 0 0 0 0 0 0 0 0 0 0 0 0 0 0 0 0 0 0 0 0 0 0 0 0 0 0 0 0 0 0 0 0 0 0 )   	%  0.10 kg/m2  0.00 kg/m2
	  ( 0.4744 0.37 0.1478 0.0078 0 0 0 0 0 0 0 0 0 0 0 0 0 0 0 0 0 0 0 0 0 0 0 0 0 0 0 0 0 0 0 0 0 0 0 0 0 0 0 0 0 0 0 0 0 0 0 0 0 0 0 0 0 0 0 0 0 )   	%  0.10 kg/m2  0.02 kg/m2
	  ( 0.1511 0.3578 0.3578 0.1289 0.0044 0 0 0 0 0 0 0 0 0 0 0 0 0 0 0 0 0 0 0 0 0 0 0 0 0 0 0 0 0 0 0 0 0 0 0 0 0 0 0 0 0 0 0 0 0 0 0 0 0 0 0 0 0 0 0 0 )   	%  0.10 kg/m2  0.04 kg/m2
	  ( 0.0178 0.1533 0.3689 0.3456 0.1122 0.0022 0 0 0 0 0 0 0 0 0 0 0 0 0 0 0 0 0 0 0 0 0 0 0 0 0 0 0 0 0 0 0 0 0 0 0 0 0 0 0 0 0 0 0 0 0 0 0 0 0 0 0 0 0 0 0 )   	%  0.10 kg/m2  0.06 kg/m2
	  ( 0 0.0211 0.1756 0.3733 0.33 0.0989 0.0011 0 0 0 0 0 0 0 0 0 0 0 0 0 0 0 0 0 0 0 0 0 0 0 0 0 0 0 0 0 0 0 0 0 0 0 0 0 0 0 0 0 0 0 0 0 0 0 0 0 0 0 0 0 0 )   	%  0.10 kg/m2  0.08 kg/m2
	  ( 0 0 0.0267 0.1944 0.38 0.3133 0.0856 0 0 0 0 0 0 0 0 0 0 0 0 0 0 0 0 0 0 0 0 0 0 0 0 0 0 0 0 0 0 0 0 0 0 0 0 0 0 0 0 0 0 0 0 0 0 0 0 0 0 0 0 0 0 )   	%  0.10 kg/m2  0.10 kg/m2
	  ( 0 0 0 0.0344 0.2111 0.3889 0.2944 0.0711 0 0 0 0 0 0 0 0 0 0 0 0 0 0 0 0 0 0 0 0 0 0 0 0 0 0 0 0 0 0 0 0 0 0 0 0 0 0 0 0 0 0 0 0 0 0 0 0 0 0 0 0 0 )   	%  0.10 kg/m2  0.12 kg/m2
	  ( 0 0 0 0 0.0433 0.2256  0 0 0 0 0 )   	%  0.10 kg/m2  0.60 kg/m2
	  ( 0 0 0 0 0 0 0 0 0 0 0 0 0 0 0 0 0 0 0 0 0 0 0 0 0 0 0.0411 0.19 0.3611 0.3144 0.0911 0.0022 0 0 0 0 0 0 0 0 0 0 0 0 0 0 0 0 0 0 0 0 0 0 0 0 0 0 0 0 0 ))  	%  0.10 kg/m2  0.62 kg/m2
	 (( 0.14 0.36 0.3744 0.1233 0.0022 0 0 0 0 0 0 0 0 0 0 0 0 0 0 0 0 0 0 0 0 0 0 0 0 0 0 0 0 0 0 0 0 0 0 0 0 0 0 0 0 0 0 0 0 0 0 0 0 0 0 0 0 0 0 0 0 )   	%  0.15 kg/m2  0.00 kg/m2
	  ( 0.0244 0.1778 0.3833 0.3222 0.0911 0.0011 0 0 0 0 0 0 0 0 0 0 0 0 0 0 0 0 0 0 0 0 0 0 0 0 0 0 0 0 0 0 0 0 0 0 0 0 0 0 0 0 0 0 0 0 0 0 0 0 0 0 0 0 0 0 0 )   	%  0.15 kg/m2  0.02 kg/m2
	  ( 0 0.0311 0.1978 0.3867 0.3089 0.0756 0 0 0 0 0 0 0 0 0 0 0 0 0 0 0 0 0 0 0 0 0 0 0 0 0 0 0 0 0 0 0 0 0 0 0 0 0 0 0 0 0 0 0 0 0 0 0 0 0 0 0 0 0 0 0 )   	%  0.15 kg/m2  0.04 kg/m2
	  ( 0 0 0.0356 0.2189 0.39 0.2922 0.0633 0 0 0 0 0 0 0 0 0 0 0 0 0 0 0 0 0 0 0 0 0 0 0 0 0 0 0 0 0 0 0 0 0 0 0 0 0 0 0 0 0 0 0 0 0 0 0 0 0 0 0 0 0 0 )   	%  0.15 kg/m2  0.06 kg/m2
	  ( 0 0 0 0.0467 0.2356 0.3922 0.2733 0.0522 0 0 0 0 0 0 0 0 0 0 0 0 0 0 0 0 0 0 0 0 0 0 0 0 0 0 0 0 0 0 0 0 0 0 0 0 0 0 0 0 0 0 0 0 0 0 0 0 0 0 0 0 0 )   	%  0.15 kg/m2  0.08 kg/m2
	  ( 0 0 0 0 0.0556 0.2544 0.3933 0.2544 0.0422 0 0 0 0 0 0 0 0 0 0 0 0 0 0 0 0 0 0 0 0 0 0 0 0 0 0 0 0 0 0 0 0 0 0 0 0 0 0 0 0 0 0 0 0 0 0 0 0 0 0 0 0 )   	%  0.15 kg/m2  0.10 kg/m2
	  ( 0 0 0 0 0.0011 0.0667 0.2678 0.3967 0.2356 0.0322 0 0 0 0 0 0 0 0 0 0 0 0 0 0 0 0 0 0 0 0 0 0 0 0 0 0 0 0 0 0 0 0 0 0 0 0 0 0 0 0 0 0 0 0 0 0 0 0 0 0 0 )   	%  0.15 kg/m2  0.12 kg/m2
	  ( 0 0 0 0 0 0.0022 0.08 0.28 0.3944 0.2178 0.0256 0 0 0 0 0 0 0 0 0 0 0 0 0 0 0 0 0 0 0 0 0 0 0 0 0 0 0 0 0 0 0 0 0 0 0 0 0 0 0 0 0 0 0 0 0 0 0 0 0 0 )   	%  0.15 kg/m2  0.14 kg/m2
	  ( 0 0 0 0 0 0 0.0044 0.0922 0.2967 0.3889 0.1978 0.02 0 0 0 0 0 0 0 0 0 0 0 0 0 0 0 0 0 0 0 0 0 0 0 0 0 0 0 0 0 0 0 0 0 0 0 0 0 0 0 0 0 0 0 0 0 0 0 0 0 )   	%  0.15 kg/m2  0.16 kg/m2
	  ( 0 0 0 0 0 0 0 0.0067 0.1033 0.3156 0.38 0.1778 0.0167 0 0 0 0 0 0 0 0 0 0 0 0 0 0 0 0 0 0 0 0 0 0 0 0 0 0 0 0 0 0 0 0 0 0 0 0 0 0 0 0 0 0 0 0 0 0 0 0 )   	%  0.15 kg/m2  0.18 kg/m2
	  ( 0 0 0 0 0 0 0 0 0.01 0.1167 0.3311 0.3722 0.1578 0.0122 0 0 0 0 0 0 0 0 0 0 0 0 0 0 0 0 0 0 0 0 0 0 0 0 0 0 0 0 0 0 0 0 0 0 0 0 0 0 0 0 0 0 0 0 0 0 0 )   	%  0.15 kg/m2  0.20 kg/m2
	  ( 0 0 0 0 0 0 0 0 0 0.0133 0.1322 0.34 0.3656 0.1411 0.0078 0 0 0 0 0 0 0 0 0 0 0 0 0 0 0 0 0 0 0 0 0 0 0 0 0 0 0 0 0 0 0 0 0 0 0 0 0 0 0 0 0 0 0 0 0 0 )   	%  0.15 kg/m2  0.22 kg/m2
	  ( 0 0 0 0 0 0 0 0 0 0 0.0178 0.15 0.35 0.3522 0.1256 0.0044 0 0 0 0 0 0 0 0 0 0 0 0 0 0 0 0 0 0 0 0 0 0 0 0 0 0 0 0 0 0 0 0 0 0 0 0 0 0 0 0 0 0 0 0 0 )   	%  0.15 kg/m2  0.24 kg/m2
	  ( 0 0 0 0 0 0 0 0 0 0 0 0.0233 0.1633 0.3611 0.3378 0.1122 0.0022 0 0 0 0 0 0 0 0 0 0 0 0 0 0 0 0 0 0 0 0 0 0 0 0 0 0 0 0 0 0 0 0 0 0 0 0 0 0 0 0 0 0 0 0 )   	%  0.15 kg/m2  0.26 kg/m2
	  ( 0 0 0 0 0 0 0 0 0 0 0 0 0.03 0.1822 0.37 0.3189 0.0967 0.0022 0 0 0 0 0 0 0 0 0 0 0 0 0 0 0 0 0 0 0 0 0 0 0 0 0 0 0 0 0 0 0 0 0 0 0 0 0 0 0 0 0 0 0 )   	%  0.15 kg/m2  0.28 kg/m2
	  ( 0 0 0 0 0 0 0 0 0 0 0 0 0 0.0356 0.1967 0.3822 0.3022 0.0822 0.0011 0 0 0 0 0 0 0 0 0 0 0 0 0 0 0 0 0 0 0 0 0 0 0 0 0 0 0 0 0 0 0 0 0 0 0 0 0 0 0 0 0 0 )   	%  0.15 kg/m2  0.30 kg/m2
	  ( 0 0 0 0 0 0 0 0 0 0 0 0 0 0 0.0444 0.2133 0.3833 0.2911 0.0678 0 0 0 0 0 0 0 0 0 0 0 0 0 0 0 0 0 0 0 0 0 0 0 0 0 0 0 0 0 0 0 0 0 0 0 0 0 0 0 0 0 0 )   	%  0.15 kg/m2  0.32 kg/m2
	  ( 0 0 0 0 0 0 0 0 0 0 0 0 0 0 0 0.0522 0.2333 0.3811 0.2756 0.0578 0 0 0 0 0 0 0 0 0 0 0 0 0 0 0 0 0 0 0 0 0 0 0 0 0 0 0 0 0 0 0 0 0 0 0 0 0 0 0 0 0 )   	%  0.15 kg/m2  0.34 kg/m2
	  ( 0 0 0 0 0 0 0 0 0 0 0 0 0 0 0 0.0011 0.0633 0.2478 0.3856 0.2556 0.0467 0 0 0 0 0 0 0 0 0 0 0 0 0 0 0 0 0 0 0 0 0 0 0 0 0 0 0 0 0 0 0 0 0 0 0 0 0 0 0 0 )   	%  0.15 kg/m2  0.36 kg/m2
	  ( 0 0 0 0 0 0 0 0 0 0 0 0 0 0 0 0 0.0022 0.0733 0.2611 0.39 0.2344 0.0389 0 0 0 0 0 0 0 0 0 0 0 0 0 0 0 0 0 0 0 0 0 0 0 0 0 0 0 0 0 0 0 0 0 0 0 0 0 0 0 )   	%  0.15 kg/m2  0.38 kg/m2
	  ( 0 0 0 0 0 0 0 0 0 0 0 0 0 0 0 0 0 0.0044 0.0844 0.2767 0.3889 0.2144 0.0311 0 0 0 0 0 0 0 0 0 0 0 0 0 0 0 0 0 0 0 0 0 0 0 0 0 0 0 0 0 0 0 0 0 0 0 0 0 0 )   	%  0.15 kg/m2  0.40 kg/m2
	  ( 0 0 0 0 0 0 0 0 0 0 0 0 0 0 0 0 0 0 0.0067 0.0956 0.2933 0.3811 0.1989 0.0244 0 0 0 0 0 0 0 0 0 0 0 0 0 0 0 0 0 0 0 0 0 0 0 0 0 0 0 0 0 0 0 0 0 0 0 0 0 )   	%  0.15 kg/m2  0.42 kg/m2
	  ( 0 0 0 0 0 0 0 0 0 0 0 0 0 0 0 0 0 0 0 0.01 0.1089 0.31 0.3711 0.1811 0.0189 0 0 0 0 0 0 0 0 0 0 0 0 0 0 0 0 0 0 0 0 0 0 0 0 0 0 0 0 0 0 0 0 0 0 0 0 )   	%  0.15 kg/m2  0.44 kg/m2
	  ( 0 0 0 0 0 0 0 0 0 0 0 0 0 0 0 0 0 0   Tørt og varmt  25 - 50 %
	   ( 0 0 0 0 0 0 0 0.05 0.95 ))   	%  0 l/ha  Tørt og varmt  50 - 100 %
	  (( 0.75 0.2 0.05 0 0 0 0 0 0 )    	%  0 l/ha  Vådt og varmt  0.00 - 0.01 %
	   ( 0 0.1 0.2 0.35 0.25 0.1 0 0 0 )    	%  0 l/ha  Vådt og varmt  0.01 - 0.5 %
	   ( 0 0 0.1 0.2 0.35 0.25 0.1 0 0 )    	%  0 l/ha  Vådt og varmt  0.5 - 1 %
	   ( 0 0 0 0.1 0.2 0.35 0.25 0.1 0 )    	%  0 l/ha  Vådt og varmt  1 - 2 %
	   ( 0 0 0 0 0.1 0.2 0.35 0.25 0.1 )    	%  0 l/ha  Vådt og varmt  2 - 6 %
	   ( 0 0 0 0 0 0.1 0.2 0.4 0.3 )    	%  0 l/ha  Vådt og varmt  6 - 10 %
	   ( 0 0 0 0 0 0 0.1 0.25 0.65 )    	%  0 l/ha  Vådt og varmt  10 - 25 %
	   ( 0 0 0 0 0 0 0 0.1 0.9 )    	%  0 l/ha  Vådt og varmt  25 - 50 %
	   ( 0 0 0 0 0 0 0 0.05 0.95 )))  	%  0 l/ha  Vådt og varmt  50 - 100 %
	 ((( 1 0 0 0 0 0 0 0 0 )    	%  0.25 l/ha  Tørt og koldt  0.00 - 0.01 %
	   ( 1 0 0 0 0 0 0 0 0 )    	%  0.25 l/ha  Tørt og koldt  0.01 - 0.5 %
	   ( 0.95 0.05 0 0 0 0 0 0 0 )    	%  0.25 l/ha  Tørt og koldt  0.5 - 1 %
	   ( 0.95 0.05 0 0 0 0 0 0 0 )    	%  0.25 l/ha  Tørt og koldt  1 - 2 %
	   ( 0.8 0.15 0.05 0 0 0 0 0 0 )    	%  0.25 l/ha  Tørt og koldt  2 - 6 %
	   ( 0.5 0.3 0.15 0.05 0 0 0 0 0 )    	%  0.25 l/ha  Tørt og koldt  6 - 10 %
	   ( 0.2 0.3 0.3 0.15 0.05 0 0 0 0 )    	%  0.25 l/ha  Tørt og koldt  10 - 25 %
	   ( 0.05 0.1 0.25 0.25 0.25 0.1 0 0 0 )    	%  0.25 l/ha  Tørt og koldt  25 - 50 %
	   ( 0 0.05 0.1 0.15 0.25 0.25 0.15 0.05 0 ))   	%  0.25 l/ha  Tørt og koldt  50 - 100 %
	  (( 1 0 0 0 0 0 0 0 0 )    	%  0.25 l/ha  Vådt og koldt  0.00 - 0.01 %
	   ( 1 0 0 0 0 0 0 0 0 )    	%  0.25 l/ha  Vådt og koldt  0.01 - 0.5 %
	   ( 0.95 0.05 0 0 0 0 0 0 0 )    	%  0.25 l/ha  Vådt og koldt  0.5 - 1 %
	   ( 0.9 0.1 0 0 0 0 0 0 0 )    	%  0.25 l/ha  Vådt og koldt  1 - 2 %
	   ( 0.75 0.15 0.1 0 0 0 0 0 0 )    	%  0.25 l/ha  Vådt og koldt  2 - 6 %
	   ( 0.4 0.3 0.2 0.1 0 0 0 0 0 )    	%  0.25 l/ha  Vådt og koldt  6 - 10 %
	   ( 0.1 0.25 0.35 0.25 0.05 0 0 0 0 )    	%  0.25 l/ha  Vådt og koldt  10 - 25 %
	   ( 0 0.05 0.25 0.3 0.3 0.1 0 0 0 )    	%  0.25 l/ha  Vådt og koldt  25 - 50 %
	   ( 0 0 0.05 0.1 0.3 0.35 0.15 0.05 0 ))   	%  0.25 l/ha  Vådt og koldt  50 - 100 %
	  (( 1 0 0 0 0 0 0 0 0 )    	%  0.25 l/ha  Tørt og varmt  0.00 - 0.01 %
	   ( 1 0 0 0 0 0 0 0 0 )    	%  0.25 l/ha  Tørt og varmt  0.01 - 0.5 %
	   ( 0.95 0.05 0 0 0 0 0 0 0 )    	%  0.25 l/ha  Tørt og varmt  0.5 - 1 %
	   ( 0.7 0.2 0.1 0 0 0 0 0 0 )    	%  0.25 l/ha  Tørt og varmt  1 - 2 %
	   ( 0.4 0.3 0.2 0.1 0 0 0 0 0 )    	%  0.25 l/ha  Tørt og varmt  2 - 6 %
	   ( 0.1 0.35 0.3 0.2 0.05 0 0 0 0 )    	%  0.25 l/ha  Tørt og varmt  6 - 10 %
	   ( 0 0.15 0.35 0.3 0.15 0.05 0 0 0 )    	%  0.25 l/ha  Tørt og varmt  10 - 25 %
	   ( 0 0 0.15 0.35 0.35 0.1 0.05 0 0 )    	%  0.25 l/ha  Tørt og varmt  25 - 50 %
	   ( 0 0 0 0.05 0.25 0.35 0.25 0.1 0 ))   	%  0.25 l/ha  Tørt og varmt  50 - 100 %
	  (( 1 0 0 0 0 0 0 0 0 )    	%  0.25 l/ha  Vådt og varmt  0.00 - 0.01 %
	   ( 1 0 0 0 0 0 0 0 0 )    	%  0.25 l/ha  Vådt og varmt  0.01 - 0.5 %
	   ( 0.85 0.1 0.05 0 0 0 0 0 0 )    	%  0.25 l/ha  Vådt og varmt  0.5 - 1 %
	   ( 0.6 0.25 0.1 0.05 0 0 0 0 0 )    	%  0.25 l/ha  Vådt og varmt  1 - 2 %
	   ( 0.25 0.35 0.25 0.1 0.05 0 0 0 0 )    	%  0.25 l/ha  Vådt og varmt  2 - 6 %
	   ( 0.05 0.3 0.3 0.2 0.1 0.05 0 0 0 )    	%  0.25 l/ha  Vådt og varmt  6 - 10 %
	   ( 0 0.05 0.2 0.35 0.25 0.1 0.05 0 0 )    	%  0.25 l/ha  Vådt og varmt  10 - 25 %
	   ( 0 0 0.05 0.2 0.3 0.3 0.1 0.05 0 )    	%  0.25 l/ha  Vådt og varmt  25 - 50 %
	   ( 0 0 0 0.05 0.1 0.25 0.35 0.2 0.05 )))  	%  0.25 l/ha  Vådt og varmt  50 - 100 %
	 ((( 1 0 0 0 0 0 0 0 0 )    	%  0.50 l/ha  Tørt og koldt  0.00 - 0.01 %
	   ( 1 0 0 0 0 0 0 0 0 )    	%  0.50 l/ha  Tørt og koldt  0.01 - 0.5 %
	   ( 1 0 0 0 0 0 0 0 0 )    	%  0.50 l/ha  Tørt og koldt  0.5 - 1 %
	   ( 0.95 0.05 0 0 0 0 0 0 0 )    	%  0.50 l/ha  Tørt og koldt  1 - 2 %
	   ( 0.9 0.075 0.025 0 0 0 0 0 0 )    	%  0.50 l/ha  Tørt og koldt  2 - 6 %
	   ( 0.65 0.225 0.1 0.025 0 0 0 0 0 )    	%  0.50 l/ha  Tørt og koldt  6 - 10 %
	   ( 0.4 0.3 0.2 0.075 0.025 0 0 0 0 )    	%  0.50 l/ha  Tørt og koldt  10 - 25 %
	   ( 0.2 0.3 0.25 0.15 0.075 0.025 0 0 0 )    	%  0.50 l/ha  Tørt og koldt  25 - 50 %
	   ( 0.05 0.1 0.25 0.25 0.25 0.075 0.025 0 0 ))   	%  0.50 l/ha  Tørt og koldt  50 - 100 %
	  (( 1 0 0 0 0 0 0 0 0 )    	%  0.50 l/ha  Vådt og koldt  0.00 - 0.01 %
	   ( 1 0 0 0 0 0 0 0 0 )    	%  0.50 l/ha  Vådt og koldt  0.01 - 0.5 %
	   ( 1 0 0 0 0 0 0 0 0 )    	%  0.50 l/ha  Vådt og koldt  0.5 - 1 %
	   ( 0.95 0.05 0 0 0 0 0 0 0 )    	%  0.50 l/ha  Vådt og koldt  1 - 2 %
	   ( 0.85 0.1 0.05 0 0 0 0 0 0 )    	%  0.50 l/ha  Vådt og koldt  2 - 6 %
	   ( 0.5 0.3 0.15 0.05 0 0 0 0 0 )    	%  0.50 l/ha  Vådt og koldt  6 - 10 %
	   ( 0.3 0.3 0.25 0.1 0.05 0 0 0 0 )    	%  0.50 l/ha  Vådt og koldt  10 - 25 %
	   ( 0.1 0.3 0.3 0.15 0.1 0.05 0 0 0 )    	%  0.50 l/ha  Vådt og koldt  25 - 50 %
	   ( 0 0.1 0.2 0.25 0.3 0.1 0.05 0 0 ))   	%  0.50 l/ha  Vådt og koldt  50 - 100 %
	  (( 1 0 0 0 0 0 0 0 0 )    	%  0.50 l/ha  Tørt og varmt  0.00 - 0.01 %
	   ( 1 0 0 0 0 0 0 0 0 )    	%  0.50 l/ha  Tørt og varmt  0.01 - 0.5 %
	   ( 1 0 0 0 0 0 0 0 0 )    	%  0.50 l/ha  Tørt og varmt  0.5 - 1 %
	   ( 0.9 0.075 0.025 0 0 0 0 0 0 )    	%  0.50 l/ha  Tørt og varmt  1 - 2 %
	   ( 0.75 0.15 0.075 0.025 0 0 0 0 0 )    	%  0.50 l/ha  Tørt og varmt  2 - 6 %
	   ( 0.3 0.35 0.2 0.1 0.05 0 0 0 0 )    	%  0.50 l/ha  Tørt og varmt  6 - 10 %
	   ( 0.1 0.25 0.3 0.2 0.1 0.05 0 0 0 )    	%  0.50 l/ha  Tørt og varmt  10 - 25 %
	   ( 0 0.1 0.3 0.3 0.15 0.1 0.05 0 0 )    	%  0.50 l/ha  Tørt og varmt  25 - 50 %
	   ( 0 0 0.1 0.25 0.3 0.2 0.1 0.05 0 ))   	%  0.50 l/ha  Tørt og varmt  50 - 100 %
	  (( 1 0 0 0 0 0 0 0 0 )    	%  0.50 l/ha  Vådt og varmt  0.00 - 0.01 %
	   ( 1 0 0 0 0 0 0 0 0 )    	%  0.50 l/ha  Vådt og varmt  0.01 - 0.5 %
	   ( 0.95 0.05 0 0 0 0 0 0 0 )    	%  0.50 l/ha  Vådt og varmt  0.5 - 1 %
	   ( 0.85 0.1 0.05 0 0 0 0 0 0 )    	%  0.50 l/ha  Vådt og varmt  1 - 2 %
	   ( 0.65 0.2 0.1 0.05 0 0 0 0 0 )    	%  0.50 l/ha  Vådt og varmt  2 - 6 %
	   ( 0.2 0.3 0.3 0.15 0.05 0 0 0 0 )    	%  0.50 l/ha  Vådt og varmt  6 - 10 %
	   ( 0.05 0.15 0.3 0.3 0.15 0.05 0 0 0 )    	%  0.50 l/ha  Vådt og varmt  10 - 25 %
	   ( 0 0.05 0.15 0.3 0.3 0.15 0.05 0 0 )    	%  0.50 l/ha  Vådt og varmt  25 - 50 %
	   ( 0 0 0.05 0.15 0.3 0.3 0.15 0.05 0 )))  	%  0.50 l/ha  Vådt og varmt  50 - 100 %
	 ((( 1 0 0 0 0 0 0 0 0 )    	%  0.75 l/ha  Tørt og koldt  0.00 - 0.01 %
	   ( 1 0 0 0 0 0 0 0 0 )    	%  0.75 l/ha  Tørt og koldt  0.01 - 0.5 %
	   ( 1 0 0 0 0 0 0 0 0 )    	%  0.75 l/ha  Tørt og koldt  0.5 - 1 %
	   ( 1 0 0 0 0 0 0 0 0 )    	%  0.75 l/ha  Tørt og koldt  1 - 2 %
	   ( 0.95 0.05 0 0 0 0 0 0 0 )    	%  0.75 l/ha  Tørt og koldt  2 - 6 %
	   ( 0.85 0.1 0.05 0 0 0 0 0 0 )    	%  0.75 l/ha  Tørt og koldt  6 - 10 %
	   ( 0.7 0.15 0.1 0.05 0 0 0 0 0 )    	%  0.75 l/ha  Tørt og koldt  10 - 25 %
	   ( 0.4 0.35 0.15 0.075 0.025 0 0 0 0 )    	%  0.75 l/ha  Tørt og koldt  25 - 50 %
	   ( 0.2 0.4 0.2 0.1 0.075 0.025 0 0 0 ))   	%  0.75 l/ha  Tørt og koldt  50 - 100 %
	  (( 1 0 0 0 0 0 0 0 0 )    	%  0.75 l/ha  Vådt og koldt  0.00 - 0.01 %
	   ( 1 0 0 0 0 0 0 0 0 )    	%  0.75 l/ha  Vådt og koldt  0.01 - 0.5 %
	   ( 1 0 0 0 0 0 0 0 0 )    	%  0.75 l/ha  Vådt og koldt  0.5 - 1 %
	   ( 1 0 0 0 0 0 0 0 0 )    	%  0.75 l/ha  Vådt og koldt  1 - 2 %
	   ( 0.9 0.075 0.025 0 0 0 0 0 0 )    	%  0.75 l/ha  Vådt og koldt  2 - 6 %
	   ( 0.8 0.125 0.05 0.025 0 0 0 0 0 )    	%  0.75 l/ha  Vådt og koldt  6 - 10 %
	   ( 0.6 0.2 0.125 0.05 0.025 0 0 0 0 )    	%  0.75 l/ha  Vådt og koldt  10 - 25 %
	   ( 0.2 0.35 0.25 0.125 0.05 0.025 0 0 0 )    	%  0.75 l/ha  Vådt og koldt  25 - 50 %
	   ( 0.1 0.3 0.25 0.175 0.1 0.05 0.025 0 0 ))   	%  0.75 l/ha  Vådt og koldt  50 - 100 %
	  (( 1 0 0 0 0 0 0 0 0 )    	%  0.75 l/ha  Tørt og varmt  0.00 - 0.01 %
	   ( 1 0 0 0 0 0 0 0 0 )    	%  0.75 l/ha  Tørt og varmt  0.01 - 0.5 %
	   ( 1 0 0 0 0 0 0 0 0 )    	%  0.75 l/ha  Tørt og varmt  0.5 - 1 %
	   ( 0.95 0.05 0 0 0 0 0 0 0 )    	%  0.75 l/ha  Tørt og varmt  1 - 2 %
	   ( 0.8 0.15 0.05 0 0 0 0 0 0 )    	%  0.75 l/ha  Tørt og varmt  2 - 6 %
	   ( 0.5 0.3 0.15 0.05 0 0 0 0 0 )    	%  0.75 l/ha  Tørt og varmt  6 - 10 %
	   ( 0.3 0.35 0.2 0.1 0.05 0 0 0 0 )    	%  0.75 l/ha  Tørt og varmt  10 - 25 %
	   ( 0.1 0.325 0.325 0.15 0.075 0.025 0 0 0 )    	%  0.75 l/ha  Tørt og varmt  25 - 50 %
	   ( 0.05 0.15 0.3 0.25 0.15 0.075 0.025 0 0 ))   	%  0.75 l/ha  Tørt og varmt  50 - 100 %
	  (( 1 0 0 0 0 0 0 0 0 )    	%  0.75 l/ha  Vådt og varmt  0.00 - 0.01 %
	   ( 1 0 0 0 0 0 0 0 0 )    	%  0.75 l/ha  Vådt og varmt  0.01 - 0.5 %
	   ( 1 0 0 0 0 0 0 0 0 )    	%  0.75 l/ha  Vådt og varmt  0.5 - 1 %
	   ( 0.9 0.075 0.025 0 0 0 0 0 0 )    	%  0.75 l/ha  Vådt og varmt  1 - 2 %
	   ( 0.7 0.2 0.075 0.025 0 0 0 0 0 )    	%  0.75 l/ha  Vådt og varmt  2 - 6 %
	   ( 0.4 0.3 0.2 0.075 0.025 0 0 0 0 )    	%  0.75 l/ha  Vådt og varmt  6 - 10 %
	   ( 0.1 0.4 0.25 0.15 0.075 0.025 0 0 0 )    	%  0.75 l/ha  Vådt og varmt  10 - 25 %
	   ( 0.05 0.2 0.35 0.2 0.1 0.075 0.025 0 0 )    	%  0.75 l/ha  Vådt og varmt  25 - 50 %
	   ( 0 0.1 0.25 0.3 0.175 0.1 0.05 0.025 0 ))));	%  0.75 l/ha  Vådt og varmt  50 - 100 %
}

potential (dm_3 | foto_3 dm_2)
{
    data =
	((( 1 0 0 0 0 0 0 0 0 0 0 0 0 0 0 0 0 0 0 0 0 0 0 0 0 0 0 0 0 0 0 0 0 0 0 0 0 0 0 0 0 0 0 0 0 0 0 0 0 0 0 0 0 0 0 0 0 0 0 0 0 0 0 0 0 0 0 0 0 0 0 0 0 0 0 0 0 0 0 0 0 0 0 0 0 0 0 0 0 0 0 0 0 0 0 0 0 0 0 0 )   	%  0.00 kg/m2  0.00 kg/m2
	  ( 1 0 0 0 0 0 0 0 0 0 0 0 0 0 0 0 0 0 0 0 0 0 0 0 0 0 0 0 0 0 0 0 0 0 0 0 0 0 0 0 0 0 0 0 0 0 0 0 0 0 0 0 0 0 0 0 0 0 0 0 0 0 0 0 0 0 0 0 0 0 0 0 0 0 0 0 0 0 0 0 0 0 0 0 0 0 0 0 0 0 0 0 0 0 0 0 0 0 0 0 )   	%  0.00 kg/m2  0.02 kg/m2
	  ( 1 0 0 0 0 0 0 0 0 0 0 0 0 0 0 0 0 0 0 0 0 0 0 0 0 0 0 0 0 0 0 0 0 0 0 0 0 0 0 0 0 0 0 0 0 0 0 0 0 0 0 0 0 0 0 0 0 0 0 0 0 0 0 0 0 0 0 0 0 0 0 0 0 0 0 0 0 0 0 0 0 0 0 0 0 0 0 0 0 0 0 0 0 0 0 0 0 0 0 0 )   	%  0.00 kg/m2  0.04 kg/m2
	  ( 0.9922 0.0078 0 0 0 0 0 0 0 0 0 0 0 0 0 0 0 0 0 0 0 0 0 0 0 0 0 0 0 0 0 0 0 0 0 0 0 0 0 0 0 0 0 0 0 0 0 0 0 0 0 0 0 0 0 0 0 0 0 0 0 0 0 0 0 0 0 0 0 0 0 0 0 0 0 0 0 0 0 0 0 0 0 0 0 0 0 0 0 0 0 0 0 0 0 0 0 0 0 0 )   	%  0.00 kg/m2  0.06 kg/m2
	  ( 0.8378 0.1578 0.0044 0 0 0 0 0 0 0 0 0 0 0 0 0 0 0 0 0 0 0 0 0 0 0 0 0 0 0 0 0 0 0 0 0 0 0 0 0 0 0 0 0 0 0 0 0 0 0 0 0 0 0 0 0 0 0 0 0 0 0 0 0 0 0 0 0 0 0 0 0 0 0 0 0 0 0 0 0 0 0 0 0 0 0 0 0 0 0 0 0 0 0 0 0 0 0 0 0 )   	%  0.00 kg/m2  0.08 kg/m2
	  ( 0.4922 0.3711 0.1344 0.0022 0 0 0 0 0 0 0 0 0 0 0 0 0 0 0 0 0 0 0 0 0 0 0 0 0 0 0 0 0 0 0 0 0 0 0 0 0 0 0 0 0 0 0 0 0 0 0 0 0 0 0 0 0 0 0 0 0 0 0 0 0 0 0 0 0 0 0 0 0 0 0 0 0 0 0 0 0 0 0 0 0 0 0 0 0 0 0 0 0 0 0 0 0 0 0 0 )   	%  0.00 kg/m2  0.10 kg/m2
	  ( 0.1656 0.3556 0.3622 0.1156 0.0011 0 0 0 0 0 0 0 0 0 0 0 0 0 0 0 0 0 0 0 0 0 0 0 0 0 0 0 0 0 0 0 0 0 0 0 0 0 0 0 0 0 0 0 0 0 0 0 0 0 0 0 0 0 0 0 0 0 0 0 0 0 0 0 0 0 0 0 0 0 0 0 0 0 0 0 0 0 0 0 0 0 0 0 0 0 0 0 0 0 0 0 0 0 0 0 )   	%  0.00 kg/m2  0.12 kg/m2
	  ( 0.0189 0.1722 0.3622 0.3522 0.0944 0 0 0 0 0 0 0 0 0 0 0 0 0 0 0 0 0 0 0 0 0 0 0 0 0 0 0 0 0 0 0 0 0 0 0 0 0 0 0 0 0 0 0 0 0 0 0 0 0 0 0 0 0 0 0 0 0 0 0 0 0 0 0 0 0 0 0 0 0 0 0 0 0 0 0 0 0 0 0 0 0 0 0 0 0 0 0 0 0 0 0 0 0 0 0 )   	%  0.00 kg/m2  0.14 kg/m2
	  ( 0 0.0267 0.1933 0.3667 0.3389 0.0744 0 0 0 0 0 0 0 0 0 0 0 0 0 0 0 0 0 0 0 0 0 0 0 0 0 0 0 0 0 0 0 0 0 0 0 0 0 0 0 0 0 0 0 0 0 0 0 0 0 0 0 0 0 0 0 0 0 0 0 0 0 0 0 0 0 0 0 0 0 0 0 0 0 0 0 0 0 0 0 0 0 0 0 0 0 0 0 0 0 0 0 0 0 0 )   	%  0.00 kg/m2  0.16 kg/m2
	  ( 0 0 0.0344 0.21 0.3811 0.3167 0.0578 0 0 0 0 0 0 0 0 0 0 0 0 0 0 0 0 0 0 0 0 0 0 0 0 0 0 0 0 0 0 0 0 0 0 0 0 0 0 0 0 0 0 0 0 0 0 0 0 0 0 0 0 0 0 0 0 0 0 0 0 0 0 0 0 0 0 0 0 0 0 0 0 0 0 0 0 0 0 0 0 0 0 0 0 0 0 0 0 0 0 0 0 0 )   	%  0.00 kg/m2  0.18 kg/m2
	  ( 0 0 0 0.0433 0.2256 0.39 0.3 0.0411 0 0 0 0 0 0 0 0 0 0 0 0 0 0 0 0 0 0 0 0 0 0 0 0 0 0 0 0 0 0 0 0 0 0 0 0 0 0 0 0 0 0 0 0 0 0 0 0 0 0 0 0 0 0 0 0 0 0 0 0 0 0 0 0 0 0 0 0 0 0 0 0 0 0 0 0 0 0 0 0 0 0 0 0 0 0 0 0 0 0 0 0 )   	%  0.00 kg/m2  0.20 kg/m2
	  ( 0 0 0 0 0.0522 0.25 0.3833 0.2822 0.0322 0 0 0 0 0 0 0 0 0 0 0 0 0 0 0 0 0 0 0 0 0 0 0 0 0 0 0 0 0 0 0 0 0 0 0 0 0 0 0 0 0 0 0 0 0 0 0 0 0 0 0 0 0 0 0 0 0 0 0 0 0 0 0 0 0 0 0 0 0 0 0 0 0 0 0 0 0 0 0 0 0 0 0 0 0 0 0 0 0 0 0 )   	%  0.00 kg/m2  0.22 kg/m2
	  ( 0 0 0 0 0 0.0622 0.2722 0.3911 0.25 0.0244 0 0 0 0 0 0 0 0 0 0 0 0 0 0 0 0 0 0 0 0 0 0 0 0 0 0 0 0 0 0 0 0 0 0 0 0 0 0 0 0 0 0 0 0 0 0 0 0 0 0 0 0 0 0 0 0 0 0 0 0 0 0 0 0 0 0 0 0 0 0 0 0 0 0 0 0 0 0 0 0 0 0 0 0 0 0 0 0 0 0 )   	%  0.00 kg/m2  0.24 kg/m2
	  ( 0 0 0 0 0 0 0.0778 0.2889 0.3967 0.2189 0.0178 0 0 0 0 0 0 0 0 0 0 0 0 0 0 0 0 0 0 0 0 0 0 0 0 0 0 0 0 0 0 0 0 0 0 0 0 0 0 0 0 0 0 0 0 0 0 0 0 0 0 0 0 0 0 0 0 0 0 0 0 0 0 0 0 0 0 0 0 0 0 0 0 0 0 0 0 0 0 0 0 0 0 0 0 0 0 0 0 0 )   	%  0.00 kg/m2  0.26 kg/m2
	  ( 0 0 0 0 0 0 0 0.0956 0.3033 0.3878 0.2011 0.0122 0 0 0 0 0 0 0 0 0 0 0 0 0 0 0 0 0 0 0 0 0 0 0 0 0 0 0 0 0 0 0 0 0 0 0 0 0 0 0 0 0 0 0 0 0 0 0 0 0 0 0 0 0 0 0 0 0 0 0 0 0 0 0 0 0 0 0 0 0 0 0 0 0 0 0 0 0 0 0 0 0 0 0 0 0 0 0 0 )   	%  0.00 kg/m2  0.28 kg/m2
	  ( 0 0 0 0 0 0 0 0 0.1133 0.3222 0.3778 0.1778 0.0089 0 0 0 0 0 0 0 0 0 0 0 0 0 0 0 0 0 0 0 0 0 0 0 0 0 0 0 0 0 0 0 0 0 0 0 0 0 0 0 0 0 0 0 0 0 0 0 0 0 0 0 0 0 0 0 0 0 0 0 0 0 0 0 0 0 0 0 0 0 0 0 0 0 0 0 0 0 0 0 0 0 0 0 0 0 0 0 )   	%  0.00 kg/m2  0.30 kg/m2
	  ( 0 0 0 0 0 0 0 0 0.0056 0.1267 0.3378 0.3656 0.1589 0.0056 0 0 0 0 0 0 0 0 0 0 0 0 0 0 0 0 0 0 0 0 0 0 0 0 0 0 0 0 0 0 0 0 0 0 0 0 0 0 0 0 0 0 0 0 0 0 0 0 0 0 0 0 0 0 0 0 0 0 0 0 0 0 0 0 0 0 0 0 0 0 0 0 0 0 0 0 0 0 0 0 0 0 0 0 0 0 )   	%  0.00 kg/m2  0.32 kg/m2
	  ( 0 0 0 0 0 0 0 0 0 0.0122 0.1389 0.3511 0.3578 0.1356 0.0044 0 0 0 0 0 0 0 0 0 0 0 0 0 0 0 0 0 0 0 0 0 0 0 0 0 0 0 0 0 0 0 0 0 0 0 0 0 0 0 0 0 0 0 0 0 0 0 0 0 0 0 0 0 0 0 0 0 0 0 0 0 0 0 0 0 0 0 0 0 0 0 0 0 0 0 0 0 0 0 0 0 0 0 0 0 )   	%  0.00 kg/m2  0.34 kg/m2
	  ( 0 0 0 0 0 0 0 0 0 0 0.0189 0.1578 0.3589 0.35 0.1122 0.0022 0 0 0 0 0 0 0 0 0 0 0 0 0 0 0 0 0 0 0 0 0 0 0 0 0 0 0 0 0 0 0 0 0 0 0 0 0 0 0 0 0 0 0 0 0 0 0 0 0 0 0 0 0 0 0 0 0 0 0 0 0 0 0 0 0 0 0 0 0 0 0 0 0 0 0 0 0 0 0 0 0 0 0 0 )   	%  0.00 kg/m2  0.36 kg/m2
	  ( 0 0 0 0 0 0 0 0 0 0 0 0.0267 0.1767 0.3611 0.3456 0.0889 0.0011 0 0 0 0 0 0 0 0 0 0 0 0 0 0 0 0 0 0 0 0 0 0 0 0 0 0 0 0 0 0 0 0 0 0 0 0 0 0 0 0 0 0 0 0 0 0 0 0 0 0 0 0 0 0 0 0 0 0 0 0 0 0 0 0 0 0 0 0 0 0 0 0 0 0 0 0 0 0 0 0 0 0 0 )   	%  0.00 kg/m2  0.38 kg/m2
	  ( 0 0 0 0 0 0 0 0 0 0 0 0 0.0344 0.1978 0.36 0.3356 0.0722 0 0 0 0 0 0 0 0 0 0 0 0 0 0 0 0 0 0 0 0 0 0 0 0 0 0 0 0 0 0 0 0 0 0 0 0 0 0 0 0 0 0 0 0 0 0 0 0 0 0 0 0 0 0 0 0 0 0 0 0 0 0 0 0 0 0 0 0 0 0 0 0 0 0 0 0 0 0 0 0 0 0 0 )   	%  0.00 kg/m2  0.40 kg/m2
	  ( 0 0 0 0 0 0 0 0 0 0 0 0 0 0.0433 0.2178 0.3678 0.3089 0.0622 0 0 0 0 0 0 0 0 0 0 0 0 0 0 0 0 0 0 0 0 0 0 0 0 0 0 0 0 0 0 0 0 0 0 0 0 0 0 0 0 0 0 0 0 0 0 0 0 0 0 0 0 0 0 0 0 0 0 0 0 0 0 0 0 0 0 0 0 0 0 0 0 0 0 0 0 0 0 0 0 0 0 )   	%  0.00 kg/m2  0.42 kg/m2
	  ( 0 0 0 0 0 0 0 0 0 0 0 0 0 0 0.0522 0.2389 0.3722 0.2889 0.0478 0 0 0 0 0 0 0 0 0 0 0 0 0 0 0 0 0 0 0 0 0 0 0 0 0 0 0 0 0 0 0 0 0 0 0 0 0 0 0 0 0 0 0 0 0 0 0 0 0 0 0 0 0 0 0 0 0 0 0 0 0 0 0 0 0 0 0 0 0 0 0 0 0 0 0 0 0 0 0 0 0 )   	%  0.00 kg/m2  0.44 kg/m2
	  ( 0 0 0 0 0 0 0 0 0 0 0 0 0 0 0 0.0622 0.2589 0.3767 0.2667 0.0356 0 0 0 0 0 0 0 0 0 0 0 0 0 0 0 0 0 0 0 0 0 0 0 0 0 0 0 0 0 0 0 0 0 0 0 0 0 0 0 0 0 0 0 0 0 0 0 0 0 0 0 0 0 0 0 0 0 0 0 0 0 0 0 0 0 0 0 0 0 0 0 0 0 0 0 0 0 0 0 0 )   	%  0.00 kg/m2  0.46 kg/m2
	  ( 0 0 0 0 0 0 0 0 0 0 0 0 0 0 0 0 0.08 0.2667 0.3844 0.2411 0.0278 0 0 0 0 0 0 0 0 0 0 0 0 0 0 0 0 0 0 0 0 0 0 0 0 0 0 0 0 0 0 0 0 0 0 0 0 0 0 0 0 0 0 0 0 0 0 0 0 0 0 0 0 0 0 0 0 0 0 0 0 0 0 0 0 0 0 0 0 0 0 0 0 0 0 0 0 0 0 0 )   	%  0.00 kg/m2  0.48 kg/m2
	  ( 0 0 0 0 0 0 0 0 0 0 0 0 0 0 0 0 0 0.0911 0.2867 0.3856 0.2144 0.0222 0 0 0 0 0 0 0 0 0 0 0 0 0 0 0 0 0 0 0 0 0 0 0 0 0 0 0 0 0 0 0 0 0 0 0 0 0 0 0 0 0 0 0 0 0 0 0 0 0 0 0 0 0 0 0 0 0 0 0 0 0 0 0 0 0 0 0 0 0 0 0 0 0 0 0 0 0 0 )   	%  0.00 kg/m2  0.50 kg/m2
	  ( 0 0 0 0 0 0 0 0 0 0 0 0 0 0 0 0 0 0 0.1089 0.2989 0.3833 0.1933 0.0156 0 0 0 0 0 0 0 0 0 0 0 0 0 0 0 0 0 0 0 0 0 0 0 0 0 0 0 0 0 0 0 0 0 0 0 0 0 0 0 0 0 0 0 0 0 0 0 0 0 0 0 0 0 0 0 0 0 0 0 0 0 0 0 0 0 0 0 0 0 0 0 0 0 0 0 0 0 )   	%  0.00 kg/m2  0.52 kg/m2
	  ( 0 0 0 0 0 0 0 0 0 0 0 0 0 0 0 0 0 0 0.0056 0.1222 0.3111 0.3778 0.1722 0.0111 0 0 0 0 0 0 0 0 0 0 0 0 0 0 0 0 0 0 0 0 0 0 0 0 0 0 0 0 0 0 0 0 0 0 0 0 0 0 0 0 0 0 0 0 0 0 0 0 0 0 0 0 0 0 0 0 0 0 0 0 0 0 0 0 0 0 0 0 0 0 0 0 0 0 0 0 )   	%  0.00 kg/m2  0.54 kg/m2
	  ( 0 0 0 0 0 0 0 0 0 0 0 0 0 0 0 0 0 0 0 0.0122 0.1344 0.3311 0.3644 0.1511 0.0067 0 0 0 0 0 0 0 0 0 0 0 0 0 0 0 0 0 0 0 0 0 0 0 0 0 0 0 0 0 0 0 0 0 0 0 0 0 0 0 0 0 0 0 0 0 0 0 0 0 0 0 0 0 0 0 0 0 0 0 0 0 0 0 0 0 0 0 0 0 0 0 0 0 0 0 )   	%  0.00 kg/m2  0.56 kg/m2
	  ( 0 0 0 0 0 0 0 0 0 0 0 0 0 0 0 0 0 0 0 0 0.0189 0.1467 0.3456 0.35 0.1344 0.0044 0 0 0 0 0 0 0 0 0 0 0 0 0 0 0 0 0 0 0 0 0 0 0 0 0 0 0 0 0 0 0 0 0 0 0 0 0 0 0 0 0 0 0 0 0 0 0 0 0 0 0 0 0 0 0 0 0 0 0 0 0 0 0 0 0 0 0 0 0 0 0 0 0 0 )   	%  0.00 kg/m2  0.58 kg/m2
	  ( 0 0 0 0 0 0 0 0 0 0 0 0 0 0 0 0 0 0 0 0 0 0.0267 0.1633 0.3556 0.3344 0.1178 0.0022 0 0 0 0 0 0 0 0 0 0 0 0 0 0 0 0 0 0 0 0 0 0 0 0 0 0 0 0 0 0 0 0 0 0 0 0 0 0 0 0 0 0 0 0 0 0 0 0 0 0 0 0 0 0 0 0 0 0 0 0 0 0 0 0 0 0 0 0 0 0 0 0 0 )   	%  0.00 kg/m2  0.60 kg/m2
	  ( 0 0 0 0 0 0 0 0 0 0 0 0 0 0 0 0 0 0 0 0 0 0 0.0367 0.18 0.3633 0.3211 0.0978 0.0011 0 0 0 0 0 0 0 0 0 0 0 0 0 0 0 0 0 0 0 0 0 0 0 0 0 0 0 0 0 0 0 0 0 0 0 0 0 0 0 0 0 0 0 0 0 0 0 0 0 0 0 0 0 0 0 0 0 0 0 0 0 0 0 0 0 0 0 0 0 0 0 0 )   	%  0.00 kg/m2  0.62 kg/m2
	  ( 0 0 0 0 0 0 0 0 0 0 0 0 0 0 0 0 0 0 0 0 0 0 0 0.0456 0.1922 0.3767 0.3033 0.0811 0.0011 0 0 0 0 0 0 0 0 0 0 0 0 0 0 0 0 0 0 0 0 0 0 0 0 0 0 0 0 0 0 0 0 0 0 0 0 0 0 0 0 0 0 0 0 0 0 0 0 0 0 0 0 0 0 0 0 0 0 0 0 0 0 0 0 0 0 0 0 0 0 0 )   	%  0.00 kg/m2  0.64 kg/m2
	  ( 0 0 0 0 0 0 0 0 0 0 0 0 0 0 0 0 0 0 0 0 0 0 0 0 0.0556 0.21 0.3822 0.2867 0.0656 0 0 0 0 0 0 0 0 0 0 0 0 0 0 0 0 0 0 0 0 0 0 0 0 0 0 0 0 0 0 0 0 0 0 0 0 0 0 0 0 0 0 0 0 0 0 0 0 0 0 0 0 0 0 0 0 0 0 0 0 0 0 0 0 0 0 0 0 0 0 0 )   	%  0.00 kg/m2  0.66 kg/m2
	  ( 0 0 0 0 0 0 0 0 0 0 0 0 0 0 0 0 0 0 0 0 0 0 0 0 0 0.0667 0.2344 0.3733 0.2744 0.0511 0 0 0 0 0 0 0 0 0 0 0 0 0 0 0 0 0 0 0 0 0 0 0 0 0 0 0 0 0 0 0 0 0 0 0 0 0 0 0 0 0 0 0 0 0 0 0 0 0 0 0 0 0 0 0 0 0 0 0 0 0 0 0 0 0 0 0 0 0 0 )   	%  0.00 kg/m2  0.68 kg/m2
	  ( 0 0 0 0 0 0 0 0 0 0 0 0 0 0 0 0 0 0 0 0 0 0 0 0 0 0 0.0833 0.2422 0.3756 0.2622 0.0367 0 0 0 0 0 0 0 0 0 0 0 0 0 0 0 0 0 0 0 0 0 0 0 0 0 0 0 0 0 0 0 0 0 0 0 0 0 0 0 0 0 0 0 0 0 0 0 0 0 0 0 0 0 0 0 0 0 0 0 0 0 0 0 0 0 0 0 0 0 )   	%  0.00 kg/m2  0.70 kg/m2
	  ( 0 0 0 0 0 0 0 0 0 0 0 0 0 0 0 0 0 0 0 0 0 0 0 0 0 0 0 0.0944 0.2622 0.37 0.2444 0.0289 0 0 0 0 0 0 0 0 0 0 0 0 0 0 0 0 0 0 0 0 0 0 0 0 0 0 0 0 0 0 0 0 0 0 0 0 0 0 0 0 0 0 0 0 0 0 0 0 0 0 0 0 0 0 0 0 0 0 0 0 0 0 0 0 0 0 0 0 )   	%  0.00 kg/m2  0.72 kg/m2
	  ( 0 0 0 0 0 0 0 0 0 0 0 0 0 0 0 0 0 0 0 0 0 0 0 0 0 0 0 0.0056 0.1056 0.2778 0.3633 0.2256 0.0222 0 0 0 0 0 0 0 0 0 0 0 0 0 0 0 0 0 0 0 0 0 0 0 0 0 0 0 0 0 0 0 0 0 0 0 0 0 0 0 0 0 0 0 0 0 0 0 0 0 0 0 0 0 0 0 0 0 0 0 0 0 0 0 0 0 0 0 )   	%  0.00 kg/m2  0.74 kg/m2
	  ( 0 0 0 0 0 0 0 0 0 0 0 0 0 0 0 0 0 0 0 0 0 0 0 0 0 0 0 0 0.0122 0.1111 0.2978 0.3633 0.1978 0.0178 0 0 0 0 0 0 0 0 0 0 0 0 0 0 0 0 0 0 0 0 0 0 0 0 0 0 0 0 0 0 0 0 0 0 0 0 0 0 0 0 0 0 0 0 0 0 0 0 0 0 0 0 0 0 0 0 0 0 0 0 0 0 0 0 0 0 )   	%  0.00 kg/m2  0.76 kg/m2
	  ( 0 0 0 0 0 0 0 0 0 0 0 0 0 0 0 0 0 0 0 0 0 0 0 0 0 0 0 0 0 0.0189 0.1211 0.3078 0.3622 0.1767 0.0133 0 0 0 0 0 0 0 0 0 0 0 0 0 0 0 0 0 0 0 0 0 0 0 0 0 0 0 0 0 0 0 0 0 0 0 0 0 0 0 0 0 0 0 0 0 0 0 0 0 0 0 0 0 0 0 0 0 0 0 0 0 0 0 0 0 )   	%  0.00 kg/m2  0.78 kg/m2
	  ( 0 0 0 0 0 0 0 0 0 0 0 0 0 0 0 0 0 0 0 0 0 0 0 0 0 0 0 0 0 0 0.0267 0.1322 0.3256 0.3511 0.1544 0.01 0 0 0 0 0 0 0 0 0 0 0 0 0 0 0 0 0 0 0 0 0 0 0 0 0 0 0 0 0 0 0 0 0 0 0 0 0 0 0 0 0 0 0 0 0 0 0 0 0 0 0 0 0 0 0 0 0 0 0 0 0 0 0 0 )   	%  0.00 kg/m2  0.80 kg/m2
	  ( 0 0 0 0 0 0 0 0 0 0 0 0 0 0 0 0 0 0 0 0 0 0 0 0 0 0 0 0 0 0 0 0.0344 0.1444 0.3444 0.3378 0.1322 0.0067 0 0 0 0 0 0 0 0 0 0 0 0 0 0 0 0 0 0 0 0 0 0 0 0 0 0 0 0 0 0 0 0 0 0 0 0 0 0 0 0 0 0 0 0 0 0 0 0 0 0 0 0 0 0 0 0 0 0 0 0 0 0 0 )   	%  0.00 kg/m2  0.82 kg/m2
	  ( 0 0 0 0 0 0 0 0 0 0 0 0 0 0 0 0 0 0 0 0 0 0 0 0 0 0 0 0 0 0 0 0 0.0433 0.1544 0.3511 0.3367 0.11 0.0044 0 0 0 0 0 0 0 0 0 0 0 0 0 0 0 0 0 0 0 0 0 0 0 0 0 0 0 0 0 0 0 0 0 0 0 0 0 0 0 0 0 0 0 0 0 0 0 0 0 0 0 0 0 0 0 0 0 0 0 0 0 0 )   	%  0.00 kg/m2  0.84 kg/m2
	  ( 0 0 0 0 0 0 0 0 0 0 0 0 0 0 0 0 0 0 0 0 0 0 0 0 0 0 0 0 0 0 0 0 0 0.0522 0.1722 0.3567 0.3222 0.0944 0.0022 0 0 0 0 0 0 0 0 0 0 0 0 0 0 0 0 0 0 0 0 0 0 0 0 0 0 0 0 0 0 0 0 0 0 0 0 0 0 0 0 0 0 0 0 0 0 0 0 0 0 0 0 0 0 0 0 0 0 0 0 0 )   	%  0.00 kg/m2  0.86 kg/m2
	  ( 0 0 0 0 0 0 0 0 0 0 0 0 0 0 0 0 0 0 0 0 0 0 0 0 0 0 0 0 0 0 0 0 0 0 0.0622 0.19 0.3689 0.2911 0.0867 0.0011 0 0 0 0 0 0 0 0 0 0 0 0 0 0 0 0 0 0 0 0 0 0 0 0 0 0 0 0 0 0 0 0 0 0 0 0 0 0 0 0 0 0 0 0 0 0 0 0 0 0 0 0 0 0 0 0 0 0 0 0 )   	%  0.00 kg/m2  0.88 kg/m2
	  ( 0 0 0 0 0 0 0 0 0 0 0 0 0 0 0 0 0 0 0 0 0 0 0 0 0 0 0 0 0 0 0 0 0 0 0 0.0722 0.2133 0.3633 0.2778 0.0733 0 0 0 0 0 0 0 0 0 0 0 0 0 0 0 0 0 0 0 0 0 0 0 0 0 0 0 0 0 0 0 0 0 0 0 0 0 0 0 0 0 0 0 0 0 0 0 0 0 0 0 0 0 0 0 0 0 0 0 0 )   	%  0.00 kg/m2  0.90 kg/m2
	  ( 0 0 0 0 0 0 0 0 0 0 0 0 0 0 0 0 0 0 0 0 0 0 0 0 0 0 0 0 0 0 0 0 0 0 0 0 0.0833 0.2322 0.3622 0.2622 0.06 0 0 0 0 0 0 0 0 0 0 0 0 0 0 0 0 0 0 0 0 0 0 0 0 0 0 0 0 0 0 0 0 0 0 0 0 0 0 0 0 0 0 0 0 0 0 0 0 0 0 0 0 0 0 0 0 0 0 0 )   	%  0.00 kg/m2  0.92 kg/m2
	  ( 0 0 0 0 0 0 0 0 0 0 0 0 0 0 0 0 0 0 0 0 0 0 0 0 0 0 0 0 0 0 0 0 0 0 0 0 0 0.0944 0.2511 0.36 0.2478 0.0467 0 0 0 0 0 0 0 0 0 0 0 0 0 0 0 0 0 0 0 0 0 0 0 0 0 0 0 0 0 0 0 0 0 0 0 0 0 0 0 0 0 0 0 0 0 0 0 0 0 0 0 0 0 0 0 0 0 0 )   	%  0.00 kg/m2  0.94 kg/m2
	  ( 0 0 0 0 0 0 0 0 0 0 0 0 0 0 0 0 0 0 0 0 0 0 0 0 0 0 0 0 0 0 0 0 0 0 0 0 0 0.0056 0.1056 0.2533 0.3689 0.2344 0.0322 0 0 0 0 0 0 0 0 0 0 0 0 0 0 0 0 0 0 0 0 0 0 0 0 0 0 0 0 0 0 0 0 0 0 0 0 0 0 0 0 0 0 0 0 0 0 0 0 0 0 0 0 0 0 0 0 0 )   	%  0.00 kg/m2  0.96 kg/m2
	  ( 0 0 0 0 0 0 0 0 0 0 0 0 0 0 0 0 0 0 0 0 0 0 0 0 0 0 0 0 0 0 0 0 0 0 0 0 0 0 0.0122 0.1167 0.2644 0.36 0.2211 0.0256 0 0 0 0 0 0 0 0 0 0 0 0 0 0 0 0 0 0 0 0 0 0 0 0 0 0 0 0 0 0 0 0 0 0 0 0 0 0 0 0 0 0 0 0 0 0 0 0 0 0 0 0 0 0 0 0 )   	%  0.00 kg/m2  0.98 kg/m2
	  ( 0 0 0 0 0 0 0 0 0 0 0 0 0 0 0 0 0 0 0 0 0 0 0 0 0 0 0 0 0 0 0 0 0 0 0 0 0 0 0 0.0189 0.1278 0.2767 0.3589 0.1978 0.02 0 0 0 0 0 0 0 0 0 0 0 0 0 0 0 0 0 0 0 0 0 0 0 0 0 0 0 0 0 0 0 0 0 0 0 0 0 0 0 0 0 0 0 0 0 0 0 0 0 0 0 0 0 0 0 )   	%  0.00 kg/m2  1.00 kg/m2
	  ( 0 0 0 0 0 0 0 0 0 0 0 0 0 0 0 0 0 0 0 0 0 0 0 0 0 0 0 0 0 0 0 0 0 0 0 0 0 0 0 0 0.0267 0.1389 0.2911 0.3567 0.1722 0.0144 0 0 0 0 0 0 0 0 0 0 0 0 0 0 0 0 0 0 0 0 0 0 0 0 0 0 0 0 0 0 0 0 0 0 0 0 0 0 0 0 0 0 0 0 0 0 0 0 0 0 0 0 0 0 )   	%  0.00 kg/m2  1.02 kg/m2
	  ( 0 0 0 0 0 0 0 0 0 0 0 0 0 0 0 0 0 0 0 0 0 0 0 0 0 0 0 0 0 0 0 0 0 0 0 0 0 0 0 0 0 0.0344 0.1456 0.3078 0.3422 0.16 0.01 0 0 0 0 0 0 0 0 0 0 0 0 0 0 0 0 0 0 0 0 0 0 0 0 0 0 0 0 0 0 0 0 0 0 0 0 0 0 0 0 0 0 0 0 0 0 0 0 0 0 0 0 0 )   	%  0.00 kg/m2  1.04 kg/m2
	  ( 0 0 0 0 0 0 0 0 0 0 0 0 0 0 0 0 0 0 0 0 0 0 0 0 0 0 0 0 0 0 0 0 0 0 0 0 0 0 0 0 0 0 0.0433 0.1556 0.3289 0.3244 0.1411 0.0067 0 0 0 0 0 0 0 0 0 0 0 0 0 0 0 0 0 0 0 0 0 0 0 0 0 0 0 0 0 0 0 0 0 0 0 0 0 0 0 0 0 0 0 0 0 0 0 0 0 0 0 0 )   	%  0.00 kg/m2  1.06 kg/m2
	  ( 0 0 0 0 0 0 0 0 0 0 0 0 0 0 0 0 0 0 0 0 0 0 0 0 0 0 0 0 0 0 0 0 0 0 0 0 0 0 0 0 0 0 0 0.0522 0.1656 0.3444 0.3122 0.12 0.0056 0 0 0 0 0 0 0 0 0 0 0 0 0 0 0 0 0 0 0 0 0 0 0 0 0 0 0 0 0 0 0 0 0 0 0 0 0 0 0 0 0 0 0 0 0 0 0 0 0 0 0 )   	%  0.00 kg/m2  1.08 kg/m2
	  ( 0 0 0 0 0 0 0 0 0 0 0 0 0 0 0 0 0 0 0 0 0 0 0 0 0 0 0 0 0 0 0 0 0 0 0 0 0 0 0 0 0 0 0 0 0.0622 0.1811 0.3578 0.29 0.1044 0.0044 0 0 0 0 0 0 0 0 0 0 0 0 0 0 0 0 0 0 0 0 0 0 0 0 0 0 0 0 0 0 0 0 0 0 0 0 0 0 0 0 0 0 0 0 0 0 0 0 0 0 )   	%  0.00 kg/m2  1.10 kg/m2
	  ( 0 0 0 0 0 0 0 0 0 0 0 0 0 0 0 0 0 0 0 0 0 0 0 0 0 0 0 0 0 0 0 0 0 0 0 0 0 0 0 0 0 0 0 0 0 0.0744 0.1889 0.3711 0.2733 0.09 0.0022 0 0 0 0 0 0 0 0 0 0 0 0 0 0 0 0 0 0 0 0 0 0 0 0 0 0 0 0 0 0 0 0 0 0 0 0 0 0 0 0 0 0 0 0 0 0 0 0 0 )   	%  0.00 kg/m2  1.12 kg/m2
	  ( 0 0 0 0 0 0 0 0 0 0 0 0 0 0 0 0 0 0 0 0 0 0 0 0 0 0 0 0 0 0 0 0 0 0 0 0 0 0 0 0 0 0 0 0 0 0 0.0856 0.2056 0.37 0.2622 0.0756 0.0011 0 0 0 0 0 0 0 0 0 0 0 0 0 0 0 0 0 0 0 0 0 0 0 0 0 0 0 0 0 0 0 0 0 0 0 0 0 0 0 0 0 0 0 0 0 0 0 0 )   	%  0.00 kg/m2  1.14 kg/m2
	  ( 0 0 0 0 0 0 0 0 0 0 0 0 0 0 0 0 0 0 0 0 0 0 0 0 0 0 0 0 0 0 0 0 0 0 0 0 0 0 0 0 0 0 0 0 0 0 0 0.0967 0.2289 0.35 0.2633 0.0611 0 0 0 0 0 0 0 0 0 0 0 0 0 0 0 0 0 0 0 0 0 0 0 0 0 0 0 0 0 0 0 0 0 0 0 0 0 0 0 0 0 0 0 0 0 0 0 0 )   	%  0.00 kg/m2  1.16 kg/m2
	  ( 0 0 0 0 0 0 0 0 0 0 0 0 0 0 0 0 0 0 0 0 0 0 0 0 0 0 0 0 0 0 0 0 0 0 0 0 0 0 0 0 0 0 0 0 0 0 0 0.0056 0.1033 0.2467 0.3456 0.2467 0.0522 0 0 0 0 0 0 0 0 0 0 0 0 0 0 0 0 0 0 0 0 0 0 0 0 0 0 0 0 0 0 0 0 0 0 0 0 0 0 0 0 0 0 0 0 0 0 0 )   	%  0.00 kg/m2  1.18 kg/m2
	  ( 0 0 0 0 0 0 0 0 0 0 0 0 0 0 0 0 0 0 0 0 0 0 0 0 0 0 0 0 0 0 0 0 0 0 0 0 0 0 0 0 0 0 0 0 0 0 0 0 0.0122 0.1133 0.26 0.34 0.2344 0.04 0 0 0 0 0 0 0 0 0 0 0 0 0 0 0 0 0 0 0 0 0 0 0 0 0 0 0 0 0 0 0 0 0 0 0 0 0 0 0 0 0 0 0 0 0 0 ))  	%  0.00 kg/m2  1.20 kg/m2
	 (( 1 0 0 0 0 0 0 0 0 0 0 0 0 0 0 0 0 0 0 0 0 0 0 0 0 0 0 0 0 0 0 0 0 0 0 0 0 0 0 0 0 0 0 0 0 0 0 0 0 0 0 0 0 0 0 0 0 0 0 0 0 0 0 0 0 0 0 0 0 0 0 0 0 0 0 0 0 0 0 0 0 0 0 0 0 0 0 0 0 0 0 0 0 0 0 0 0 0 0 0 )   	%  0.05 kg/m2  0.00 kg/m2
	  ( 0.9956 0.0044 0 0 0 0 0 0 0 0 0 0 0 0 0 0 0 0 0 0 0 0 0 0 0 0 0 0 0 0 0 0 0 0 0 0 0 0 0 0 0 0 0 0 0 0 0 0 0 0 0 0 0 0 0 0 0 0 0 0 0 0 0 0 0 0 0 0 0 0 0 0 0 0 0 0 0 0 0 0 0 0 0 0 0 0 0 0 0 0 0 0 0 0 0 0 0 0 0 0 )   	%  0.05 kg/m2  0.02 kg/m2
	  ( 0.8944 0.1033 0.0022 0 0 0 0 0 0 0 0 0 0 0 0 0 0 0 0 0 0 0 0 0 0 0 0 0 0 0 0 0 0 0 0 0 0 0 0 0 0 0 0 0 0 0 0 0 0 0 0 0 0 0 0 0 0 0 0 0 0 0 0 0 0 0 0 0 0 0 0 0 0 0 0 0 0 0 0 0 0 0 0 0 0 0 0 0 0 0 0 0 0 0 0 0 0 0 0 0 )   	%  0.05 kg/m2  0.04 kg/m2
	  ( 0.6167 0.2956 0.0867 0.0011 0 0 0 0 0 0 0 0 0 0 0 0 0 0 0 0 0 0 0 0 0 0 0 0 0 0 0 0 0 0 0 0 0 0 0 0 0 0 0 0 0 0 0 0 0 0 0 0 0 0 0 0 0 0 0 0 0 0 0 0 0 0 0 0 0 0 0 0 0 0 0 0 0 0 0 0 0 0 0 0 0 0 0 0 0 0 0 0 0 0 0 0 0 0 0 0 )   	%  0.05 kg/m2  0.06 kg/m2
	  ( 0.2767 0.3678 0.2833 0.0722 0 0 0 0 0 0 0 0 0 0 0 0 0 0 0 0 0 0 0 0 0 0 0 0 0 0 0 0 0 0 0 0 0 0 0 0 0 0 0 0 0 0 0 0 0 0 0 0 0 0 0 0 0 0 0 0 0 0 0 0 0 0 0 0 0 0 0 0 0 0 0 0 0 0 0 0 0 0 0 0 0 0 0 0 0 0 0 0 0 0 0 0 0 0 0 0 )   	%  0.05 kg/m2  0.08 kg/m2
	  ( 0.0644 0.2411 0.37 0.2667 0.0578 0 0 0 0 0 0 0 0 0 0 0 0 0 0 0 0 0 0 0 0 0 0 0 0 0 0 0 0 0 0 0 0 0 0 0 0 0 0 0 0 0 0 0 0 0 0 0 0 0 0 0 0 0 0 0 0 0 0 0 0 0 0 0 0 0 0 0 0 0 0 0 0 0 0 0 0 0 0 0 0 0 0 0 0 0 0 0 0 0 0 0 0 0 0 0 )   	%  0.05 kg/m2  0.10 kg/m2
	  ( 0.0022 0.0756 0.2589 0.3689 0.2478 0.0467 0 0 0 0 0 0 0 0 0 0 0 0 0 0 0 0 0 0 0 0 0 0 0 0 0 0 0 0 0 0 0 0 0 0 0 0 0 0 0 0 0 0 0 0 0 0 0 0 0 0 0 0 0 0 0 0 0 0 0 0 0 0 0 0 0 0 0 0 0 0 0 0 0 0 0 0 0 0 0 0 0 0 0 0 0 0 0 0 0 0 0 0 0 0 )   	%  0.05 kg/m2  0.12 kg/m2
	  ( 0 0.0044 0.0867 0.2756 0.3678 0.2289 0.0367 0 0 0 0 0 0 0 0 0 0 0 0 0 0 0 0 0 0 0 0 0 0 0 0 0 0 0 0 0 0 0 0 0 0 0 0 0 0 0 0 0 0 0 0 0 0 0 0 0 0 0 0 0 0 0 0 0 0 0 0 0 0 0 0 0 0 0 0 0 0 0 0 0 0 0 0 0 0 0 0 0 0 0 0 0 0 0 0 0 0 0 0 0 )   	%  0.05 kg/m2  0.14 kg/m2
	  ( 0 0 0.0067 0.1011 0.29 0.3644 0.2078 0.03 0 0 0 0 0 0 0 0 0 0 0 0 0 0 0 0 0 0 0 0 0 0 0 0 0 0 0 0 0 0 0 0 0 0 0 0 0 0 0 0 0 0 0 0 0 0 0 0 0 0 0 0 0 0 0 0 0 0 0 0 0 0 0 0 0 0 0 0 0 0 0 0 0 0 0 0 0 0 0 0 0 0 0 0 0 0 0 0 0 0 0 0 )   	%  0.05 kg/m2  0.16 kg/m2
	  ( 0 0 0 0.01 0.1144 0.3056 0.3622 0.1833 0.0244 0 0 0 0 0 0 0 0 0 0 0 0 0 0 0 0 0 0 0 0 0 0 0 0 0 0 0 0 0 0 0 0 0 0 0 0 0 0 0 0 0 0 0 0 0 0 0 0 0 0 0 0 0 0 0 0 0 0 0 0 0 0 0 0 0 0 0 0 0 0 0 0 0 0 0 0 0 0 0 0 0 0 0 0 0 0 0 0 0 0 0 )   	%  0.05 kg/m2  0.18 kg/m2
	  ( 0 0 0 0 0.0156 0.1289 0.3156 0.3567 0.1656 0.0178 0 0 0 0 0 0 0 0 0 0 0 0 0 0 0 0 0 0 0 0 0 0 0 0 0 0 0 0 0 0 0 0 0 0 0 0 0 0 0 0 0 0 0 0 0 0 0 0 0 0 0 0 0 0 0 0 0 0 0 0 0 0 0 0 0 0 0 0 0 0 0 0 0 0 0 0 0 0 0 0 0 0 0 0 0 0 0 0 0 0 )   	%  0.05 kg/m2  0.20 kg/m2
	  ( 0 0 0 0 0 0.02 0.1444 0.3278 0.3456 0.15 0.0122 0 0 0 0 0 0 0 0 0 0 0 0 0 0 0 0 0 0 0 0 0 0 0 0 0 0 0 0 0 0 0 0 0 0 0 0 0 0 0 0 0 0 0 0 0 0 0 0 0 0 0 0 0 0 0 0 0 0 0 0 0 0 0 0 0 0 0 0 0 0 0 0 0 0 0 0 0 0 0 0 0 0 0 0 0 0 0 0 0 )   	%  0.05 kg/m2  0.22 kg/m2
	  ( 0 0 0 0 0 0 0.0267 0.1622 0.3344 0.3356 0.1333 0.0078 0 0 0 0 0 0 0 0 0 0 0 0 0 0 0 0 0 0 0 0 0 0 0 0 0 0 0 0 0 0 0 0 0 0 0 0 0 0 0 0 0 0 0 0 0 0 0 0 0 0 0 0 0 0 0 0 0 0 0 0 0 0 0 0 0 0 0 0 0 0 0 0 0 0 0 0 0 0 0 0 0 0 0 0 0 0 0 0 )   	%  0.05 kg/m2  0.24 kg/m2
	  ( 0 0 0 0 0 0 0 0.0344 0.1778 0.3433 0.3233 0.1167 0.0044 0 0 0 0 0 0 0 0 0 0 0 0 0 0 0 0 0 0 0 0 0 0 0 0 0 0 0 0 0 0 0 0 0 0 0 0 0 0 0 0 0 0 0 0 0 0 0 0 0 0 0 0 0 0 0 0 0 0 0 0 0 0 0 0 0 0 0 0 0 0 0 0 0 0 0 0 0 0 0 0 0 0 0 0 0 0 0 )   	%  0.05 kg/m2  0.26 kg/m2
	  ( 0 0 0 0 0 0 0 0 0.0433 0.1933 0.3522 0.3067 0.1022 0.0022 0 0 0 0 0 0 0 0 0 0 0 0 0 0 0 0 0 0 0 0 0 0 0 0 0 0 0 0 0 0 0 0 0 0 0 0 0 0 0 0 0 0 0 0 0 0 0 0 0 0 0 0 0 0 0 0 0 0 0 0 0 0 0 0 0 0 0 0 0 0 0 0 0 0 0 0 0 0 0 0 0 0 0 0 0 0 )   	%  0.05 kg/m2  0.28 kg/m2
	  ( 0 0 0 0 0 0 0 0 0 0.0522 0.21 0.3578 0.2922 0.0867 0.0011 0 0 0 0 0 0 0 0 0 0 0 0 0 0 0 0 0 0 0 0 0 0 0 0 0 0 0 0 0 0 0 0 0 0 0 0 0 0 0 0 0 0 0 0 0 0 0 0 0 0 0 0 0 0 0 0 0 0 0 0 0 0 0 0 0 0 0 0 0 0 0 0 0 0 0 0 0 0 0 0 0 0 0 0 0 )   	%  0.05 kg/m2  0.30 kg/m2
	  ( 0 0 0 0 0 0 0 0 0 0.0011 0.0611 0.2278 0.3622 0.2744 0.0722 0.0011 0 0 0 0 0 0 0 0 0 0 0 0 0 0 0 0 0 0 0 0 0 0 0 0 0 0 0 0 0 0 0 0 0 0 0 0 0 0 0 0 0 0 0 0 0 0 0 0 0 0 0 0 0 0 0 0 0 0 0 0 0 0 0 0 0 0 0 0 0 0 0 0 0 0 0 0 0 0 0 0 0 0 0 0 )   	%  0.05 kg/m2  0.32 kg/m2
	  ( 0 0 0 0 0 0 0 0 0 0 0.0044 0.07 0.2422 0.3667 0.2567 0.06 0 0 0 0 0 0 0 0 0 0 0 0 0 0 0 0 0 0 0 0 0 0 0 0 0 0 0 0 0 0 0 0 0 0 0 0 0 0 0 0 0 0 0 0 0 0 0 0 0 0 0 0 0 0 0 0 0 0 0 0 0 0 0 0 0 0 0 0 0 0 0 0 0 0 0 0 0 0 0 0 0 0 0 0 )   	%  0.05 kg/m2  0.34 kg/m2
	  ( 0 0 0 0 0 0 0 0 0 0 0 0.0067 0.08 0.2589 0.3667 0.2389 0.0489 0 0 0 0 0 0 0 0 0 0 0 0 0 0 0 0 0 0 0 0 0 0 0 0 0 0 0 0 0 0 0 0 0 0 0 0 0 0 0 0 0 0 0 0 0 0 0 0 0 0 0 0 0 0 0 0 0 0 0 0 0 0 0 0 0 0 0 0 0 0 0 0 0 0 0 0 0 0 0 0 0 0 0 )   	%  0.05 kg/m2  0.36 kg/m2
	  ( 0 0 0 0 0 0 0 0 0 0 0 0 0.01 0.0911 0.2733 0.3644 0.2233 0.0378 0 0 0 0 0 0 0 0 0 0 0 0 0 0 0 0 0 0 0 0 0 0 0 0 0 0 0 0 0 0 0 0 0 0 0 0 0 0 0 0 0 0 0 0 0 0 0 0 0 0 0 0 0 0 0 0 0 0 0 0 0 0 0 0 0 0 0 0 0 0 0 0 0 0 0 0 0 0 0 0 0 0 )   	%  0.05 kg/m2  0.38 kg/m2
	  ( 0 0 0 0 0 0 0 0 0 0 0 0 0 0.0133 0.1078 0.2844 0.36 0.2044 0.03 0 0 0 0 0 0 0 0 0 0 0 0 0 0 0 0 0 0 0 0 0 0 0 0 0 0 0 0 0 0 0 0 0 0 0 0 0 0 0 0 0 0 0 0 0 0 0 0 0 0 0 0 0 0 0 0 0 0 0 0 0 0 0 0 0 0 0 0 0 0 0 0 0 0 0 0 0 0 0 0 0 )   	%  0.05 kg/m2  0.40 kg/m2
	  ( 0 0 0 0 0 0 0 0 0 0 0 0 0 0 0.0178 0.1211 0.2967 0.3556 0.1856 0.0233 0 0 0 0 0 0 0 0 0 0 0 0 0 0 0 0 0 0 0 0 0 0 0 0 0 0 0 0 0 0 0 0 0 0 0 0 0 0 0 0 0 0 0 0 0 0 0 0 0 0 0 0 0 0 0 0 0 0 0 0 0 0 0 0 0 0 0 0 0 0 0 0 0 0 0 0 0 0 0 0 )   	%  0.05 kg/m2  0.42 kg/m2
	  ( 0 0 0 0 0 0 0 0 0 0 0 0 0 0 0 0.0222 0.1367 0.3111 0.3444 0.1667 0.0189 0 0 0 0 0 0 0 0 0 0 0 0 0 0 0 0 0 0 0 0 0 0 0 0 0 0 0 0 0 0 0 0 0 0 0 0 0 0 0 0 0 0 0 0 0 0 0 0 0 0 0 0 0 0 0 0 0 0 0 0 0 0 0 0 0 0 0 0 0 0 0 0 0 0 0 0 0 0 0 )   	%  0.05 kg/m2  0.44 kg/m2
	  ( 0 0 0 0 0 0 0 0 0 0 0 0 0 0 0 0 0.0278 0.1533 0.32 0.3367 0.1489 0.0133 0 0 0 0 0 0 0 0 0 0 0 0 0 0 0 0 0 0 0 0 0 0 0 0 0 0 0 0 0 0 0 0 0 0 0 0 0 0 0 0 0 0 0 0 0 0 0 0 0 0 0 0 0 0 0 0 0 0 0 0 0 0 0 0 0 0 0 0 0 0 0 0 0 0 0 0 0 0 )   	%  0.05 kg/m2  0.46 kg/m2
	  ( 0 0 0 0 0 0 0 0 0 0 0 0 0 0 0 0 0 0.0344 0.17 0.3289 0.3256 0.13 0.0111 0 0 0 0 0 0 0 0 0 0 0 0 0 0 0 0 0 0 0 0 0 0 0 0 0 0 0 0 0 0 0 0 0 0 0 0 0 0 0 0 0 0 0 0 0 0 0 0 0 0 0 0 0 0 0 0 0 0 0 0 0 0 0 0 0 0 0 0 0 0 0 0 0 0 0 0 0 )   	%  0.05 kg/m2  0.48 kg/m2
	  ( 0 0 0 0 0 0 0 0 0 0 0 0 0 0 0 0 0 0 0.0411 0.1856 0.3378 0.3144 0.1144 0.0067 0 0 0 0 0 0 0 0 0 0 0 0 0 0 0 0 0 0 0 0 0 0 0 0 0 0 0 0 0 0 0 0 0 0 0 0 0 0 0 0 0 0 0 0 0 0 0 0 0 0 0 0 0 0 0 0 0 0 0 0 0 0 0 0 0 0 0 0 0 0 0 0 0 0 0 0 )   	%  0.05 kg/m2  0.50 kg/m2
	  ( 0 0 0 0 0 0 0 0 0 0 0 0 0 0 0 0 0 0 0.0011 0.0489 0.2022 0.3444 0.2989 0.1 0.0044 0 0 0 0 0 0 0 0 0 0 0 0 0 0 0 0 0 0 0 0 0 0 0 0 0 0 0 0 0 0 0 0 0 0 0 0 0 0 0 0 0 0 0 0 0 0 0 0 0 0 0 0 0 0 0 0 0 0 0 0 0 0 0 0 0 0 0 0 0 0 0 0 0 0 0 )   	%  0.05 kg/m2  0.52 kg/m2
	  ( 0 0 0 0 0 0 0 0 0 0 0 0 0 0 0 0 0 0 0 0.0022 0.06 0.2144 0.3478 0.2878 0.0856 0.0022 0 0 0 0 0 0 0 0 0 0 0 0 0 0 0 0 0 0 0 0 0 0 0 0 0 0 0 0 0 0 0 0 0 0 0 0 0 0 0 0 0 0 0 0 0 0 0 0 0 0 0 0 0 0 0 0 0 0 0 0 0 0 0 0 0 0 0 0 0 0 0 0 0 0 )   	%  0.05 kg/m2  0.54 kg/m2
	  ( 0 0 0 0 0 0 0 0 0 0 0 0 0 0 0 0 0 0 0 0 0.0044 0.07 0.2278 0.3533 0.27 0.0733 0.0011 0 0 0 0 0 0 0 0 0 0 0 0 0 0 0 0 0 0 0 0 0 0 0 0 0 0 0 0 0 0 0 0 0 0 0 0 0 0 0 0 0 0 0 0 0 0 0 0 0 0 0 0 0 0 0 0 0 0 0 0 0 0 0 0 0 0 0 0 0 0 0 0 0 )   	%  0.05 kg/m2  0.56 kg/m2
	  ( 0 0 0 0 0 0 0 0 0 0 0 0 0 0 0 0 0 0 0 0 0 0.0067 0.08 0.2411 0.3567 0.2522 0.0633 0 0 0 0 0 0 0 0 0 0 0 0 0 0 0 0 0 0 0 0 0 0 0 0 0 0 0 0 0 0 0 0 0 0 0 0 0 0 0 0 0 0 0 0 0 0 0 0 0 0 0 0 0 0 0 0 0 0 0 0 0 0 0 0 0 0 0 0 0 0 0 0 0 )   	%  0.05 kg/m2  0.58 kg/m2
	  ( 0 0 0 0 0 0 0 0 0 0 0 0 0 0 0 0 0 0 0 0 0 0 0.01 0.0933 0.2556 0.3544 0.2344 0.0522 0 0 0 0 0 0 0 0 0 0 0 0 0 0 0 0 0 0 0 0 0 0 0 0 0 0 0 0 0 0 0 0 0 0 0 0 0 0 0 0 0 0 0 0 0 0 0 0 0 0 0 0 0 0 0 0 0 0 0 0 0 0 0 0 0 0 0 0 0 0 0 0 )   	%  0.05 kg/m2  0.60 kg/m2
	  ( 0 0 0 0 0 0 0 0 0 0 0 0 0 0 0 0 0 0 0 0 0 0 0 0.0133 0.1056 0.2667 0.3544 0.2178 0.0422 0 0 0 0 0 0 0 0 0 0 0 0 0 0 0 0 0 0 0 0 0 0 0 0 0 0 0 0 0 0 0 0 0 0 0 0 0 0 0 0 0 0 0 0 0 0 0 0 0 0 0 0 0 0 0 0 0 0 0 0 0 0 0 0 0 0 0 0 0 0 0 )   	%  0.05 kg/m2  0.62 kg/m2
	  ( 0 0 0 0 0 0 0 0 0 0 0 0 0 0 0 0 0 0 0 0 0 0 0 0 0.0178 0.1189 0.28 0.3522 0.1967 0.0344 0 0 0 0 0 0 0 0 0 0 0 0 0 0 0 0 0 0 0 0 0 0 0 0 0 0 0 0 0 0 0 0 0 0 0 0 0 0 0 0 0 0 0 0 0 0 0 0 0 0 0 0 0 0 0 0 0 0 0 0 0 0 0 0 0 0 0 0 0 0 )   	%  0.05 kg/m2  0.64 kg/m2
	  ( 0 0 0 0 0 0 0 0 0 0 0 0 0 0 0 0 0 0 0 0 0 0 0 0 0 0.0222 0.1322 0.2933 0.3433 0.1822 0.0267 0 0 0 0 0 0 0 0 0 0 0 0 0 0 0 0 0 0 0 0 0 0 0 0 0 0 0 0 0 0 0 0 0 0 0 0 0 0 0 0 0 0 0 0 0 0 0 0 0 0 0 0 0 0 0 0 0 0 0 0 0 0 0 0 0 0 0 0 0 )   	%  0.05 kg/m2  0.66 kg/m2
	  ( 0 0 0 0 0 0 0 0 0 0 0 0 0 0 0 0 0 0 0 0 0 0 0 0 0 0 0.0289 0.1467 0.3056 0.3344 0.1644 0.02 0 0 0 0 0 0 0 0 0 0 0 0 0 0 0 0 0 0 0 0 0 0 0 0 0 0 0 0 0 0 0 0 0 0 0 0 0 0 0 0 0 0 0 0 0 0 0 0 0 0 0 0 0 0 0 0 0 0 0 0 0 0 0 0 0 0 0 0 )   	%  0.05 kg/m2  0.68 kg/m2
	  ( 0 0 0 0 0 0 0 0 0 0 0 0 0 0 0 0 0 0 0 0 0 0 0 0 0 0 0 0.0356 0.1589 0.3156 0.3256 0.15 0.0144 0 0 0 0 0 0 0 0 0 0 0 0 0 0 0 0 0 0 0 0 0 0 0 0 0 0 0 0 0 0 0 0 0 0 0 0 0 0 0 0 0 0 0 0 0 0 0 0 0 0 0 0 0 0 0 0 0 0 0 0 0 0 0 0 0 0 0 )   	%  0.05 kg/m2  0.70 kg/m2
	  ( 0 0 0 0 0 0 0 0 0 0 0 0 0 0 0 0 0 0 0 0 0 0 0 0 0 0 0 0 0.0433 0.1722 0.3278 0.3133 0.1322 0.0111 0 0 0 0 0 0 0 0 0 0 0 0 0 0 0 0 0 0 0 0 0 0 0 0 0 0 0 0 0 0 0 0 0 0 0 0 0 0 0 0 0 0 0 0 0 0 0 0 0 0 0 0 0 0 0 0 0 0 0 0 0 0 0 0 0 0 )   	%  0.05 kg/m2  0.72 kg/m2
	  ( 0 0 0 0 0 0 0 0 0 0 0 0 0 0 0 0 0 0 0 0 0 0 0 0 0 0 0 0 0.0011 0.0522 0.1867 0.3333 0.3 0.12 0.0067 0 0 0 0 0 0 0 0 0 0 0 0 0 0 0 0 0 0 0 0 0 0 0 0 0 0 0 0 0 0 0 0 0 0 0 0 0 0 0 0 0 0 0 0 0 0 0 0 0 0 0 0 0 0 0 0 0 0 0 0 0 0 0 0 0 )   	%  0.05 kg/m2  0.74 kg/m2
	  ( 0 0 0 0 0 0 0 0 0 0 0 0 0 0 0 0 0 0 0 0 0 0 0 0 0 0 0 0 0 0.0022 0.0611 0.2011 0.34 0.2867 0.1044 0.0044 0 0 0 0 0 0 0 0 0 0 0 0 0 0 0 0 0 0 0 0 0 0 0 0 0 0 0 0 0 0 0 0 0 0 0 0 0 0 0 0 0 0 0 0 0 0 0 0 0 0 0 0 0 0 0 0 0 0 0 0 0 0 0 0 )   	%  0.05 kg/m2  0.76 kg/m2
	  ( 0 0 0 0 0 0 0 0 0 0 0 0 0 0 0 0 0 0 0 0 0 0 0 0 0 0 0 0 0 0 0.0044 0.07 0.2122 0.3456 0.2744 0.0889 0.0044 0 0 0 0 0 0 0 0 0 0 0 0 0 0 0 0 0 0 0 0 0 0 0 0 0 0 0 0 0 0 0 0 0 0 0 0 0 0 0 0 0 0 0 0 0 0 0 0 0 0 0 0 0 0 0 0 0 0 0 0 0 0 0 )   	%  0.05 kg/m2  0.78 kg/m2
	  ( 0 0 0 0 0 0 0 0 0 0 0 0 0 0 0 0 0 0 0 0 0 0 0 0 0 0 0 0 0 0 0 0.0067 0.08 0.2289 0.3467 0.2589 0.0767 0.0022 0 0 0 0 0 0 0 0 0 0 0 0 0 0 0 0 0 0 0 0 0 0 0 0 0 0 0 0 0 0 0 0 0 0 0 0 0 0 0 0 0 0 0 0 0 0 0 0 0 0 0 0 0 0 0 0 0 0 0 0 0 0 )   	%  0.05 kg/m2  0.80 kg/m2
	  ( 0 0 0 0 0 0 0 0 0 0 0 0 0 0 0 0 0 0 0 0 0 0 0 0 0 0 0 0 0 0 0 0 0.01 0.0889 0.2444 0.3444 0.2456 0.0656 0.0011 0 0 0 0 0 0 0 0 0 0 0 0 0 0 0 0 0 0 0 0 0 0 0 0 0 0 0 0 0 0 0 0 0 0 0 0 0 0 0 0 0 0 0 0 0 0 0 0 0 0 0 0 0 0 0 0 0 0 0 0 0 )   	%  0.05 kg/m2  0.82 kg/m2
	  ( 0 0 0 0 0 0 0 0 0 0 0 0 0 0 0 0 0 0 0 0 0 0 0 0 0 0 0 0 0 0 0 0 0 0.0156 0.0989 0.2578 0.3422 0.2311 0.0544 0 0 0 0 0 0 0 0 0 0 0 0 0 0 0 0 0 0 0 0 0 0 0 0 0 0 0 0 0 0 0 0 0 0 0 0 0 0 0 0 0 0 0 0 0 0 0 0 0 0 0 0 0 0 0 0 0 0 0 0 0 )   	%  0.05 kg/m2  0.84 kg/m2
	  ( 0 0 0 0 0 0 0 0 0 0 0 0 0 0 0 0 0 0 0 0 0 0 0 0 0 0 0 0 0 0 0 0 0 0 0.02 0.11 0.27 0.34 0.2144 0.0456 0 0 0 0 0 0 0 0 0 0 0 0 0 0 0 0 0 0 0 0 0 0 0 0 0 0 0 0 0 0 0 0 0 0 0 0 0 0 0 0 0 0 0 0 0 0 0 0 0 0 0 0 0 0 0 0 0 0 0 0 )   	%  0.05 kg/m2  0.86 kg/m2
	  ( 0 0 0 0 0 0 0 0 0 0 0 0 0 0 0 0 0 0 0 0 0 0 0 0 0 0 0 0 0 0 0 0 0 0 0 0.0256 0.1233 0.2833 0.3344 0.1978 0.0356 0 0 0 0 0 0 0 0 0 0 0 0 0 0 0 0 0 0 0 0 0 0 0 0 0 0 0 0 0 0 0 0 0 0 0 0 0 0 0 0 0 0 0 0 0 0 0 0 0 0 0 0 0 0 0 0 0 0 0 )   	%  0.05 kg/m2  0.88 kg/m2
	  ( 0 0 0 0 0 0 0 0 0 0 0 0 0 0 0 0 0 0 0 0 0 0 0 0 0 0 0 0 0 0 0 0 0 0 0 0 0.0322 0.1333 0.2944 0.33 0.1811 0.0289 0 0 0 0 0 0 0 0 0 0 0 0 0 0 0 0 0 0 0 0 0 0 0 0 0 0 0 0 0 0 0 0 0 0 0 0 0 0 0 0 0 0 0 0 0 0 0 0 0 0 0 0 0 0 0 0 0 0 )   	%  0.05 kg/m2  0.90 kg/m2
	  ( 0 0 0 0 0 0 0 0 0 0 0 0 0 0 0 0 0 0 0 0 0 0 0 0 0 0 0 0 0 0 0 0 0 0 0 0 0 0.0389 0.1478 0.3011 0.3278 0.1622 0.0222 0 0 0 0 0 0 0 0 0 0 0 0 0 0 0 0 0 0 0 0 0 0 0 0 0 0 0 0 0 0 0 0 0 0 0 0 0 0 0 0 0 0 0 0 0 0 0 0 0 0 0 0 0 0 0 0 0 )   	%  0.05 kg/m2  0.92 kg/m2
	  ( 0 0 0 0 0 0 0 0 0 0 0 0 0 0 0 0 0 0 0 0 0 0 0 0 0 0 0 0 0 0 0 0 0 0 0 0 0 0 0.0456 0.1622 0.31 0.3189 0.1444 0.0189 0 0 0 0 0 0 0 0 0 0 0 0 0 0 0 0 0 0 0 0 0 0 0 0 0 0 0 0 0 0 0 0 0 0 0 0 0 0 0 0 0 0 0 0 0 0 0 0 0 0 0 0 0 0 0 0 )   	%  0.05 kg/m2  0.94 kg/m2
	  ( 0 0 0 0 0 0 0 0 0 0 0 0 0 0 0 0 0 0 0 0 0 0 0 0 0 0 0 0 0 0 0 0 0 0 0 0 0 0 0.0011 0.0522 0.1778 0.3167 0.31 0.1289 0.0133 0 0 0 0 0 0 0 0 0 0 0 0 0 0 0 0 0 0 0 0 0 0 0 0 0 0 0 0 0 0 0 0 0 0 0 0 0 0 0 0 0 0 0 0 0 0 0 0 0 0 0 0 0 0 0 )   	%  0.05 kg/m2  0.96 kg/m2
	  ( 0 0 0 0 0 0 0 0 0 0 0 0 0 0 0 0 0 0 0 0 0 0 0 0 0 0 0 0 0 0 0 0 0 0 0 0 0 0 0 0.0044 0.0578 0.1922 0.32 0.3 0.1156 0.01 0 0 0 0 0 0 0 0 0 0 0 0 0 0 0 0 0 0 0 0 0 0 0 0 0 0 0 0 0 0 0 0 0 0 0 0 0 0 0 0 0 0 0 0 0 0 0 0 0 0 0 0 0 0 )   	%  0.05 kg/m2  0.98 kg/m2
	  ( 0 0 0 0 0 0 0 0 0 0 0 0 0 0 0 0 0 0 0 0 0 0 0 0 0 0 0 0 0 0 0 0 0 0 0 0 0 0 0 0 0.0067 0.0656 0.2067 0.3278 0.2833 0.1033 0.0067 0 0 0 0 0 0 0 0 0 0 0 0 0 0 0 0 0 0 0 0 0 0 0 0 0 0 0 0 0 0 0 0 0 0 0 0 0 0 0 0 0 0 0 0 0 0 0 0 0 0 0 0 0 )   	%  0.05 kg/m2  1.00 kg/m2
	  ( 0 0 0 0 0 0 0 0 0 0 0 0 0 0 0 0 0 0 0 0 0 0 0 0 0 0 0 0 0 0 0 0 0 0 0 0 0 0 0 0 0 0.01 0.0733 0.2178 0.3344 0.2667 0.0933 0.0044 0 0 0 0 0 0 0 0 0 0 0 0 0 0 0 0 0 0 0 0 0 0 0 0 0 0 0 0 0 0 0 0 0 0 0 0 0 0 0 0 0 0 0 0 0 0 0 0 0 0 0 0 )   	%  0.05 kg/m2  1.02 kg/m2
	  ( 0 0 0 0 0 0 0 0 0 0 0 0 0 0 0 0 0 0 0 0 0 0 0 0 0 0 0 0 0 0 0 0 0 0 0 0 0 0 0 0 0 0 0.0133 0.0856 0.2289 0.3378 0.25 0.0822 0.0022 0 0 0 0 0 0 0 0 0 0 0 0 0 0 0 0 0 0 0 0 0 0 0 0 0 0 0 0 0 0 0 0 0 0 0 0 0 0 0 0 0 0 0 0 0 0 0 0 0 0 0 )   	%  0.05 kg/m2  1.04 kg/m2
	  ( 0 0 0 0 0 0 0 0 0 0 0 0 0 0 0 0 0 0 0 0 0 0 0 0 0 0 0 0 0 0 0 0 0 0 0 0 0 0 0 0 0 0 0 0.0178 0.0956 0.24 0.3389 0.2344 0.0722 0.0011 0 0 0 0 0 0 0 0 0 0 0 0 0 0 0 0 0 0 0 0 0 0 0 0 0 0 0 0 0 0 0 0 0 0 0 0 0 0 0 0 0 0 0 0 0 0 0 0 0 0 )   	%  0.05 kg/m2  1.06 kg/m2
	  ( 0 0 0 0 0 0 0 0 0 0 0 0 0 0 0 0 0 0 0 0 0 0 0 0 0 0 0 0 0 0 0 0 0 0 0 0 0 0 0 0 0 0 0 0 0.0222 0.1067 0.2522 0.34 0.2178 0.0611 0 0 0 0 0 0 0 0 0 0 0 0 0 0 0 0 0 0 0 0 0 0 0 0 0 0 0 0 0 0 0 0 0 0 0 0 0 0 0 0 0 0 0 0 0 0 0 0 0 0 )   	%  0.05 kg/m2  1.08 kg/m2
	  ( 0 0 0 0 0 0 0 0 0 0 0 0 0 0 0 0 0 0 0 0 0 0 0 0 0 0 0 0 0 0 0 0 0 0 0 0 0 0 0 0 0 0 0 0 0 0.0278 0.12 0.2611 0.3367 0.2033 0.0511 0 0 0 0 0 0 0 0 0 0 0 0 0 0 0 0 0 0 0 0 0 0 0 0 0 0 0 0 0 0 0 0 0 0 0 0 0 0 0 0 0 0 0 0 0 0 0 0 0 )   	%  0.05 kg/m2  1.10 kg/m2
	  ( 0 0 0 0 0 0 0 0 0 0 0 0 0 0 0 0 0 0 0 0 0 0 0 0 0 0 0 0 0 0 0 0 0 0 0 0 0 0 0 0 0 0 0 0 0 0 0.0333 0.1322 0.2722 0.33 0.1911 0.0411 0 0 0 0 0 0 0 0 0 0 0 0 0 0 0 0 0 0 0 0 0 0 0 0 0 0 0 0 0 0 0 0 0 0 0 0 0 0 0 0 0 0 0 0 0 0 0 0 )   	%  0.05 kg/m2  1.12 kg/m2
	  ( 0 0 0 0 0 0 0 0 0 0 0 0 0 0 0 0 0 0 0 0 0 0 0 0 0 0 0 0 0 0 0 0 0 0 0 0 0 0 0 0 0 0 0 0 0 0 0 0.0389 0.1456 0.2822 0.3233 0.1778 0.0322 0 0 0 0 0 0 0 0 0 0 0 0 0 0 0 0 0 0 0 0 0 0 0 0 0 0 0 0 0 0 0 0 0 0 0 0 0 0 0 0 0 0 0 0 0 0 0 )   	%  0.05 kg/m2  1.14 kg/m2
	  ( 0 0 0 0 0 0 0 0 0 0 0 0 0 0 0 0 0 0 0 0 0 0 0 0 0 0 0 0 0 0 0 0 0 0 0 0 0 0 0 0 0 0 0 0 0 0 0 0.0011 0.0444 0.1578 0.2944 0.3133 0.1644 0.0244 0 0 0 0 0 0 0 0 0 0 0 0 0 0 0 0 0 0 0 0 0 0 0 0 0 0 0 0 0 0 0 0 0 0 0 0 0 0 0 0 0 0 0 0 0 0 )   	%  0.05 kg/m2  1.16 kg/m2
	  ( 0 0 0 0 0 0 0 0 0 0 0 0 0 0 0 0 0 0 0 0 0 0 0 0 0 0 0 0 0 0 0 0 0 0 0 0 0 0 0 0 0 0 0 0 0 0 0 0 0.0022 0.0544 0.1656 0.3044 0.3033 0.1511 0.0189 0 0 0 0 0 0 0 0 0 0 0 0 0 0 0 0 0 0 0 0 0 0 0 0 0 0 0 0 0 0 0 0 0 0 0 0 0 0 0 0 0 0 0 0 0 )   	%  0.05 kg/m2  1.18 kg/m2
	  ( 0 0 0 0 0 0 0 0 0 0 0 0 0 0 0 0 0 0 0 0 0 0 0 0 0 0 0 0 0 0 0 0 0 0 0 0 0 0 0 0 0 0 0 0 0 0 0 0 0 0.0044 0.0611 0.1767 0.3144 0.2933 0.1356 0.0144 0 0 0 0 0 0 0 0 0 0 0 0 0 0 0 0 0 0 0 0 0 0 0 0 0 0 0 0 0 0 0 0 0 0 0 0 0 0 0 0 0 0 0 0 ))  	%  0.05 kg/m2  1.20 kg/m2
	 (( 0.8967 0.1033 0 0 0 0 0 0 0 0 0 0 0 0 0 0 0 0 0 0 0 0 0 0 0 0 0 0 0 0 0 0 0 0 0 0 0 0 0 0 0 0 0 0 0 0 0 0 0 0 0 0 0 0 0 0 0 0 0 0 0 0 0 0 0 0 0 0 0 0 0 0 0 0 0 0 0 0 0 0 0 0 0 0 0 0 0 0 0 0 0 0 0 0 0 0 0 0 0 0 )   	%  0.10 kg/m2  0.00 kg/m2
	  ( 0.6567 0.2744 0.0689 0 0 0 0 0 0 0 0 0 0 0 0 0 0 0 0 0 0 0 0 0 0 0 0 0 0 0 0 0 0 0 0 0 0 0 0 0 0 0 0 0 0 0 0 0 0 0 0 0 0 0 0 0 0 0 0 0 0 0 0 0 0 0 0 0 0 0 0 0 0 0 0 0 0 0 0 0 0 0 0 0 0 0 0 0 0 0 0 0 0 0 0 0 0 0 0 0 )   	%  0.10 kg/m2  0.02 kg/m2
	  ( 0.3089 0.3744 0.2611 0.0556 0 0 0 0 0 0 0 0 0 0 0 0 0 0 0 0 0 0 0 0 0 0 0 0 0 0 0 0 0 0 0 0 0 0 0 0 0 0 0 0 0 0 0 0 0 0 0 0 0 0 0 0 0 0 0 0 0 0 0 0 0 0 0 0 0 0 0 0 0 0 0 0 0 0 0 0 0 0 0 0 0 0 0 0 0 0 0 0 0 0 0 0 0 0 0 0 )   	%  0.10 kg/m2  0.04 kg/m2
	  ( 0.0811 0.2578 0.3744 0.2444 0.0422 0 0 0 0 0 0 0 0 0 0 0 0 0 0 0 0 0 0 0 0 0 0 0 0 0 0 0 0 0 0 0 0 0 0 0 0 0 0 0 0 0 0 0 0 0 0 0 0 0 0 0 0 0 0 0 0 0 0 0 0 0 0 0 0 0 0 0 0 0 0 0 0 0 0 0 0 0 0 0 0 0 0 0 0 0 0 0 0 0 0 0 0 0 0 0 )   	%  0.10 kg/m2  0.06 kg/m2
	  ( 0.0044 0.0911 0.2744 0.3689 0.2289 0.0322 0 0 0 0 0 0 0 0 0 0 0 0 0 0 0 0 0 0 0 0 0 0 0 0 0 0 0 0 0 0 0 0 0 0 0 0 0 0 0 0 0 0 0 0 0 0 0 0 0 0 0 0 0 0 0 0 0 0 0 0 0 0 0 0 0 0 0 0 0 0 0 0 0 0 0 0 0 0 0 0 0 0 0 0 0 0 0 0 0 0 0 0 0 0 )   	%  0.10 kg/m2  0.08 kg/m2
	  ( 0 0.0067 0.1044 0.2933 0.3622 0.2089 0.0244 0 0 0 0 0 0 0 0 0 0 0 0 0 0 0 0 0 0 0 0 0 0 0 0 0 0 0 0 0 0 0 0 0 0 0 0 0 0 0 0 0 0 0 0 0 0 0 0 0 0 0 0 0 0 0 0 0 0 0 0 0 0 0 0 0 0 0 0 0 0 0 0 0 0 0 0 0 0 0 0 0 0 0 0 0 0 0 0 0 0 0 0 0 )   	%  0.10 kg/m2  0.10 kg/m2
	  ( 0 0 0.0111 0.1167 0.3078 0.3578 0.1878 0.0189 0 0 0 0 0 0 0 0 0 0 0 0 0 0 0 0 0 0 0 0 0 0 0 0 0 0 0 0 0 0 0 0 0 0 0 0 0 0 0 0 0 0 0 0 0 0 0 0 0 0 0 0 0 0 0 0 0 0 0 0 0 0 0 0 0 0 0 0 0 0 0 0 0 0 0 0 0 0 0 0 0 0 0 0 0 0 0 0 0 0 0 0 )   	%  0.10 kg/m2  0.12 kg/m2
	  ( 0 0 0 0.0156 0.1322 0.3211 0.3489 0.1678 0.0144 0 0 0 0 0 0 0 0 0 0 0 0 0 0 0 0 0 0 0 0 0 0 0 0 0 0 0 0 0 0 0 0 0 0 0 0 0 0 0 0 0 0 0 0 0 0 0 0 0 0 0 0 0 0 0 0 0 0 0 0 0 0 0 0 0 0 0 0 0 0 0 0 0 0 0 0 0 0 0 0 0 0 0 0 0 0 0 0 0 0 0 )   	%  0.10 kg/m2  0.14 kg/m2
	  ( 0 0 0 0 0.02 0.1467 0.3344 0.3411 0.1467 0.0111 0 0 0 0 0 0 0 0 0 0 0 0 0 0 0 0 0 0 0 0 0 0 0 0 0 0 0 0 0 0 0 0 0 0 0 0 0 0 0 0 0 0 0 0 0 0 0 0 0 0 0 0 0 0 0 0 0 0 0 0 0 0 0 0 0 0 0 0 0 0 0 0 0 0 0 0 0 0 0 0 0 0 0 0 0 0 0 0 0 0 )   	%  0.10 kg/m2  0.16 kg/m2
	  ( 0 0 0 0 0 0.0278 0.1644 0.3422 0.33 0.1278 0.0078 0 0 0 0 0 0 0 0 0 0 0 0 0 0 0 0 0 0 0 0 0 0 0 0 0 0 0 0 0 0 0 0 0 0 0 0 0 0 0 0 0 0 0 0 0 0 0 0 0 0 0 0 0 0 0 0 0 0 0 0 0 0 0 0 0 0 0 0 0 0 0 0 0 0 0 0 0 0 0 0 0 0 0 0 0 0 0 0 0 )   	%  0.10 kg/m2  0.18 kg/m2
	  ( 0 0 0 0 0 0 0.0344 0.1811 0.3478 0.3211 0.1111 0.0044 0 0 0 0 0 0 0 0 0 0 0 0 0 0 0 0 0 0 0 0 0 0 0 0 0 0 0 0 0 0 0 0 0 0 0 0 0 0 0 0 0 0 0 0 0 0 0 0 0 0 0 0 0 0 0 0 0 0 0 0 0 0 0 0 0 0 0 0 0 0 0 0 0 0 0 0 0 0 0 0 0 0 0 0 0 0 0 0 )   	%  0.10 kg/m2  0.20 kg/m2
	  ( 0 0 0 0 0 0 0 0.0433 0.1989 0.3522 0.3089 0.0944 0.0022 0 0 0 0 0 0 0 0 0 0 0 0 0 0 0 0 0 0 0 0 0 0 0 0 0 0 0 0 0 0 0 0 0 0 0 0 0 0 0 0 0 0 0 0 0 0 0 0 0 0 0 0 0 0 0 0 0 0 0 0 0 0 0 0 0 0 0 0 0 0 0 0 0 0 0 0 0 0 0 0 0 0 0 0 0 0 0 )   	%  0.10 kg/m2  0.22 kg/m2
	  ( 0 0 0 0 0 0 0 0 0.0522 0.2178 0.3533 0.2933 0.0822 0.0011 0 0 0 0 0 0 0 0 0 0 0 0 0 0 0 0 0 0 0 0 0 0 0 0 0 0 0 0 0 0 0 0 0 0 0 0 0 0 0 0 0 0 0 0 0 0 0 0 0 0 0 0 0 0 0 0 0 0 0 0 0 0 0 0 0 0 0 0 0 0 0 0 0 0 0 0 0 0 0 0 0 0 0 0 0 0 )   	%  0.10 kg/m2  0.24 kg/m2
	  ( 0 0 0 0 0 0 0 0 0.0022 0.06 0.2367 0.3567 0.2756 0.0689 0 0 0 0 0 0 0 0 0 0 0 0 0 0 0 0 0 0 0 0 0 0 0 0 0 0 0 0 0 0 0 0 0 0 0 0 0 0 0 0 0 0 0 0 0 0 0 0 0 0 0 0 0 0 0 0 0 0 0 0 0 0 0 0 0 0 0 0 0 0 0 0 0 0 0 0 0 0 0 0 0 0 0 0 0 0 )   	%  0.10 kg/m2  0.26 kg/m2
	  ( 0 0 0 0 0 0 0 0 0 0.0044 0.07 0.2511 0.3611 0.2556 0.0578 0 0 0 0 0 0 0 0 0 0 0 0 0 0 0 0 0 0 0 0 0 0 0 0 0 0 0 0 0 0 0 0 0 0 0 0 0 0 0 0 0 0 0 0 0 0 0 0 0 0 0 0 0 0 0 0 0 0 0 0 0 0 0 0 0 0 0 0 0 0 0 0 0 0 0 0 0 0 0 0 0 0 0 0 0 )   	%  0.10 kg/m2  0.28 kg/m2
	  ( 0 0 0 0 0 0 0 0 0 0 0.0067 0.0811 0.2667 0.3644 0.2356 0.0456 0 0 0 0 0 0 0 0 0 0 0 0 0 0 0 0 0 0 0 0 0 0 0 0 0 0 0 0 0 0 0 0 0 0 0 0 0 0 0 0 0 0 0 0 0 0 0 0 0 0 0 0 0 0 0 0 0 0 0 0 0 0 0 0 0 0 0 0 0 0 0 0 0 0 0 0 0 0 0 0 0 0 0 0 )   	%  0.10 kg/m2  0.30 kg/m2
	  ( 0 0 0 0 0 0 0 0 0 0 0 0.01 0.0944 0.2767 0.3656 0.2167 0.0367 0 0 0 0 0 0 0 0 0 0 0 0 0 0 0 0 0 0 0 0 0 0 0 0 0 0 0 0 0 0 0 0 0 0 0 0 0 0 0 0 0 0 0 0 0 0 0 0 0 0 0 0 0 0 0 0 0 0 0 0 0 0 0 0 0 0 0 0 0 0 0 0 0 0 0 0 0 0 0 0 0 0 0 )   	%  0.10 kg/m2  0.32 kg/m2
	  ( 0 0 0 0 0 0 0 0 0 0 0 0 0.0133 0.11 0.2867 0.3644 0.1967 0.0289 0 0 0 0 0 0 0 0 0 0 0 0 0 0 0 0 0 0 0 0 0 0 0 0 0 0 0 0 0 0 0 0 0 0 0 0 0 0 0 0 0 0 0 0 0 0 0 0 0 0 0 0 0 0 0 0 0 0 0 0 0 0 0 0 0 0 0 0 0 0 0 0 0 0 0 0 0 0 0 0 0 0 )   	%  0.10 kg/m2  0.34 kg/m2
	  ( 0 0 0 0 0 0 0 0 0 0 0 0 0 0.0178 0.1244 0.2967 0.36 0.1789 0.0222 0 0 0 0 0 0 0 0 0 0 0 0 0 0 0 0 0 0 0 0 0 0 0 0 0 0 0 0 0 0 0 0 0 0 0 0 0 0 0 0 0 0 0 0 0 0 0 0 0 0 0 0 0 0 0 0 0 0 0 0 0 0 0 0 0 0 0 0 0 0 0 0 0 0 0 0 0 0 0 0 0 )   	%  0.10 kg/m2  0.36 kg/m2
	  ( 0 0 0 0 0 0 0 0 0 0 0 0 0 0 0.0222 0.1422 0.3089 0.3489 0.1622 0.0156 0 0 0 0 0 0 0 0 0 0 0 0 0 0 0 0 0 0 0 0 0 0 0 0 0 0 0 0 0 0 0 0 0 0 0 0 0 0 0 0 0 0 0 0 0 0 0 0 0 0 0 0 0 0 0 0 0 0 0 0 0 0 0 0 0 0 0 0 0 0 0 0 0 0 0 0 0 0 0 0 )   	%  0.10 kg/m2  0.38 kg/m2
	  ( 0 0 0 0 0 0 0 0 0 0 0 0 0 0 0 0.0278 0.1589 0.3189 0.3367 0.1467 0.0111 0 0 0 0 0 0 0 0 0 0 0 0 0 0 0 0 0 0 0 0 0 0 0 0 0 0 0 0 0 0 0 0 0 0 0 0 0 0 0 0 0 0 0 0 0 0 0 0 0 0 0 0 0 0 0 0 0 0 0 0 0 0 0 0 0 0 0 0 0 0 0 0 0 0 0 0 0 0 0 )   	%  0.10 kg/m2  0.40 kg/m2
	  ( 0 0 0 0 0 0 0 0 0 0 0 0 0 0 0 0 0.0344 0.1744 0.3311 0.3222 0.1311 0.0067 0 0 0 0 0 0 0 0 0 0 0 0 0 0 0 0 0 0 0 0 0 0 0 0 0 0 0 0 0 0 0 0 0 0 0 0 0 0 0 0 0 0 0 0 0 0 0 0 0 0 0 0 0 0 0 0 0 0 0 0 0 0 0 0 0 0 0 0 0 0 0 0 0 0 0 0 0 0 )   	%  0.10 kg/m2  0.42 kg/m2
	  ( 0 0 0 0 0 0 0 0 0 0 0 0 0 0 0 0 0 0.0411 0.19 0.3433 0.3044 0.1167 0.0044 0 0 0 0 0 0 0 0 0 0 0 0 0 0 0 0 0 0 0 0 0 0 0 0 0 0 0 0 0 0 0 0 0 0 0 0 0 0 0 0 0 0 0 0 0 0 0 0 0 0 0 0 0 0 0 0 0 0 0 0 0 0 0 0 0 0 0 0 0 0 0 0 0 0 0 0 0 )   	%  0.10 kg/m2  0.44 kg/m2
	  ( 0 0 0 0 0 0 0 0 0 0 0 0 0 0 0 0 0 0.0011 0.05 0.2044 0.3522 0.2889 0.1 0.0033 0 0 0 0 0 0 0 0 0 0 0 0 0 0 0 0 0 0 0 0 0 0 0 0 0 0 0 0 0 0 0 0 0 0 0 0 0 0 0 0 0 0 0 0 0 0 0 0 0 0 0 0 0 0 0 0 0 0 0 0 0 0 0 0 0 0 0 0 0 0 0 0 0 0 0 0 )   	%  0.10 kg/m2  0.46 kg/m2
	  ( 0 0 0 0 0 0 0 0 0 0 0 0 0 0 0 0 0 0 0.0022 0.06 0.2167 0.3578 0.2767 0.0844 0.0022 0 0 0 0 0 0 0 0 0 0 0 0 0 0 0 0 0 0 0 0 0 0 0 0 0 0 0 0 0 0 0 0 0 0 0 0 0 0 0 0 0 0 0 0 0 0 0 0 0 0 0 0 0 0 0 0 0 0 0 0 0 0 0 0 0 0 0 0 0 0 0 0 0 0 0 )   	%  0.10 kg/m2  0.48 kg/m2
	  ( 0 0 0 0 0 0 0 0 0 0 0 0 0 0 0 0 0 0 0 0.0044 0.07 0.2311 0.3611 0.2611 0.0711 0.0011 0 0 0 0 0 0 0 0 0 0 0 0 0 0 0 0 0 0 0 0 0 0 0 0 0 0 0 0 0 0 0 0 0 0 0 0 0 0 0 0 0 0 0 0 0 0 0 0 0 0 0 0 0 0 0 0 0 0 0 0 0 0 0 0 0 0 0 0 0 0 0 0 0 0 )   	%  0.10 kg/m2  0.50 kg/m2
	  ( 0 0 0 0 0 0 0 0 0 0 0 0 0 0 0 0 0 0 0 0 0.0067 0.0811 0.2456 0.3589 0.2489 0.0589 0 0 0 0 0 0 0 0 0 0 0 0 0 0 0 0 0 0 0 0 0 0 0 0 0 0 0 0 0 0 0 0 0 0 0 0 0 0 0 0 0 0 0 0 0 0 0 0 0 0 0 0 0 0 0 0 0 0 0 0 0 0 0 0 0 0 0 0 0 0 0 0 0 0 )   	%  0.10 kg/m2  0.52 kg/m2
	  ( 0 0 0 0 0 0 0 0 0 0 0 0 0 0 0 0 0 0 0 0 0 0.01 0.0944 0.2611 0.3522 0.2344 0.0478 0 0 0 0 0 0 0 0 0 0 0 0 0 0 0 0 0 0 0 0 0 0 0 0 0 0 0 0 0 0 0 0 0 0 0 0 0 0 0 0 0 0 0 0 0 0 0 0 0 0 0 0 0 0 0 0 0 0 0 0 0 0 0 0 0 0 0 0 0 0 0 0 0 )   	%  0.10 kg/m2  0.54 kg/m2
	  ( 0 0 0 0 0 0 0 0 0 0 0 0 0 0 0 0 0 0 0 0 0 0 0.0133 0.1067 0.2744 0.3489 0.2178 0.0389 0 0 0 0 0 0 0 0 0 0 0 0 0 0 0 0 0 0 0 0 0 0 0 0 0 0 0 0 0 0 0 0 0 0 0 0 0 0 0 0 0 0 0 0 0 0 0 0 0 0 0 0 0 0 0 0 0 0 0 0 0 0 0 0 0 0 0 0 0 0 0 0 )   	%  0.10 kg/m2  0.56 kg/m2
	  ( 0 0 0 0 0 0 0 0 0 0 0 0 0 0 0 0 0 0 0 0 0 0 0 0.0178 0.12 0.2889 0.3444 0.1978 0.0311 0 0 0 0 0 0 0 0 0 0 0 0 0 0 0 0 0 0 0 0 0 0 0 0 0 0 0 0 0 0 0 0 0 0 0 0 0 0 0 0 0 0 0 0 0 0 0 0 0 0 0 0 0 0 0 0 0 0 0 0 0 0 0 0 0 0 0 0 0 0 0 )   	%  0.10 kg/m2  0.58 kg/m2
	  ( 0 0 0 0 0 0 0 0 0 0 0 0 0 0 0 0 0 0 0 0 0 0 0 0 0.0222 0.1344 0.3011 0.3378 0.18 0.0244 0 0 0 0 0 0 0 0 0 0 0 0 0 0 0 0 0 0 0 0 0 0 0 0 0 0 0 0 0 0 0 0 0 0 0 0 0 0 0 0 0 0 0 0 0 0 0 0 0 0 0 0 0 0 0 0 0 0 0 0 0 0 0 0 0 0 0 0 0 0 )   	%  0.10 kg/m2  0.60 kg/m2
	  ( 0 0 0 0 0 0 0 0 0 0 0 0 0 0 0 0 0 0 0 0 0 0 0 0 0 0.0289 0.1478 0.3111 0.3333 0.16 0.0189 0 0 0 0 0 0 0 0 0 0 0 0 0 0 0 0 0 0 0 0 0 0 0 0 0 0 0 0 0 0 0 0 0 0 0 0 0 0 0 0 0 0 0 0 0 0 0 0 0 0 0 0 0 0 0 0 0 0 0 0 0 0 0 0 0 0 0 0 0 )   	%  0.10 kg/m2  0.62 kg/m2
	  ( 0 0 0 0 0 0 0 0 0 0 0 0 0 0 0 0 0 0 0 0 0 0 0 0 0 0 0.0356 0.1611 0.32 0.3267 0.1422 0.0144 0 0 0 0 0 0 0 0 0 0 0 0 0 0 0 0 0 0 0 0 0 0 0 0 0 0 0 0 0 0 0 0 0 0 0 0 0 0 0 0 0 0 0 0 0 0 0 0 0 0 0 0 0 0 0 0 0 0 0 0 0 0 0 0 0 0 0 0 )   	%  0.10 kg/m2  0.64 kg/m2
	  ( 0 0 0 0 0 0 0 0 0 0 0 0 0 0 0 0 0 0 0 0 0 0 0 0 0 0 0 0.0433 0.1767 0.3289 0.3156 0.1256 0.01 0 0 0 0 0 0 0 0 0 0 0 0 0 0 0 0 0 0 0 0 0 0 0 0 0 0 0 0 0 0 0 0 0 0 0 0 0 0 0 0 0 0 0 0 0 0 0 0 0 0 0 0 0 0 0 0 0 0 0 0 0 0 0 0 0 0 0 )   	%  0.10 kg/m2  0.66 kg/m2
	  ( 0 0 0 0 0 0 0 0 0 0 0 0 0 0 0 0 0 0 0 0 0 0 0 0 0 0 0 0.0011 0.0522 0.19 0.3333 0.3044 0.1122 0.0067 0 0 0 0 0 0 0 0 0 0 0 0 0 0 0 0 0 0 0 0 0 0 0 0 0 0 0 0 0 0 0 0 0 0 0 0 0 0 0 0 0 0 0 0 0 0 0 0 0 0 0 0 0 0 0 0 0 0 0 0 0 0 0 0 0 0 )   	%  0.10 kg/m2  0.68 kg/m2
	  ( 0 0 0 0 0 0 0 0 0 0 0 0 0 0 0 0 0 0 0 0 0 0 0 0 0 0 0 0 0.0022 0.0611 0.2056 0.3389 0.2911 0.0967 0.0044 0 0 0 0 0 0 0 0 0 0 0 0 0 0 0 0 0 0 0 0 0 0 0 0 0 0 0 0 0 0 0 0 0 0 0 0 0 0 0 0 0 0 0 0 0 0 0 0 0 0 0 0 0 0 0 0 0 0 0 0 0 0 0 0 0 )   	%  0.10 kg/m2  0.70 kg/m2
	  ( 0 0 0 0 0 0 0 0 0 0 0 0 0 0 0 0 0 0 0 0 0 0 0 0 0 0 0 0 0 0.0044 0.07 0.2189 0.3433 0.2744 0.0867 0.0022 0 0 0 0 0 0 0 0 0 0 0 0 0 0 0 0 0 0 0 0 0 0 0 0 0 0 0 0 0 0 0 0 0 0 0 0 0 0 0 0 0 0 0 0 0 0 0 0 0 0 0 0 0 0 0 0 0 0 0 0 0 0 0 0 )   	%  0.10 kg/m2  0.72 kg/m2
	  ( 0 0 0 0 0 0 0 0 0 0 0 0 0 0 0 0 0 0 0 0 0 0 0 0 0 0 0 0 0 0 0.0067 0.08 0.2356 0.3478 0.2522 0.0767 0.0011 0 0 0 0 0 0 0 0 0 0 0 0 0 0 0 0 0 0 0 0 0 0 0 0 0 0 0 0 0 0 0 0 0 0 0 0 0 0 0 0 0 0 0 0 0 0 0 0 0 0 0 0 0 0 0 0 0 0 0 0 0 0 0 )   	%  0.10 kg/m2  0.74 kg/m2
	  ( 0 0 0 0 0 0 0 0 0 0 0 0 0 0 0 0 0 0 0 0 0 0 0 0 0 0 0 0 0 0 0 0.0111 0.0878 0.25 0.3489 0.2367 0.0656 0 0 0 0 0 0 0 0 0 0 0 0 0 0 0 0 0 0 0 0 0 0 0 0 0 0 0 0 0 0 0 0 0 0 0 0 0 0 0 0 0 0 0 0 0 0 0 0 0 0 0 0 0 0 0 0 0 0 0 0 0 0 0 )   	%  0.10 kg/m2  0.76 kg/m2
	  ( 0 0 0 0 0 0 0 0 0 0 0 0 0 0 0 0 0 0 0 0 0 0 0 0 0 0 0 0 0 0 0 0 0.0156 0.0989 0.2633 0.3478 0.22 0.0544 0 0 0 0 0 0 0 0 0 0 0 0 0 0 0 0 0 0 0 0 0 0 0 0 0 0 0 0 0 0 0 0 0 0 0 0 0 0 0 0 0 0 0 0 0 0 0 0 0 0 0 0 0 0 0 0 0 0 0 0 0 0 )   	%  0.10 kg/m2  0.78 kg/m2
	  ( 0 0 0 0 0 0 0 0 0 0 0 0 0 0 0 0 0 0 0 0 0 0 0 0 0 0 0 0 0 0 0 0 0 0.02 0.11 0.2744 0.3478 0.2033 0.0444 0 0 0 0 0 0 0 0 0 0 0 0 0 0 0 0 0 0 0 0 0 0 0 0 0 0 0 0 0 0 0 0 0 0 0 0 0 0 0 0 0 0 0 0 0 0 0 0 0 0 0 0 0 0 0 0 0 0 0 0 0 )   	%  0.10 kg/m2  0.80 kg/m2
	  ( 0 0 0 0 0 0 0 0 0 0 0 0 0 0 0 0 0 0 0 0 0 0 0 0 0 0 0 0 0 0 0 0 0 0 0.0267 0.1233 0.2856 0.3389 0.1911 0.0344 0 0 0 0 0 0 0 0 0 0 0 0 0 0 0 0 0 0 0 0 0 0 0 0 0 0 0 0 0 0 0 0 0 0 0 0 0 0 0 0 0 0 0 0 0 0 0 0 0 0 0 0 0 0 0 0 0 0 0 0 )   	%  0.10 kg/m2  0.82 kg/m2
	  ( 0 0 0 0 0 0 0 0 0 0 0 0 0 0 0 0 0 0 0 0 0 0 0 0 0 0 0 0 0 0 0 0 0 0 0 0.0322 0.1367 0.2956 0.3322 0.1767 0.0267 0 0 0 0 0 0 0 0 0 0 0 0 0 0 0 0 0 0 0 0 0 0 0 0 0 0 0 0 0 0 0 0 0 0 0 0 0 0 0 0 0 0 0 0 0 0 0 0 0 0 0 0 0 0 0 0 0 0 0 )   	%  0.10 kg/m2  0.84 kg/m2
	  ( 0 0 0 0 0 0 0 0 0 0 0 0 0 0 0 0 0 0 0 0 0 0 0 0 0 0 0 0 0 0 0 0 0 0 0 0 0.0389 0.15 0.3056 0.3267 0.1589 0.02 0 0 0 0 0 0 0 0 0 0 0 0 0 0 0 0 0 0 0 0 0 0 0 0 0 0 0 0 0 0 0 0 0 0 0 0 0 0 0 0 0 0 0 0 0 0 0 0 0 0 0 0 0 0 0 0 0 0 )   	%  0.10 kg/m2  0.86 kg/m2
	  ( 0 0 0 0 0 0 0 0 0 0 0 0 0 0 0 0 0 0 0 0 0 0 0 0 0 0 0 0 0 0 0 0 0 0 0 0 0 0.0467 0.1633 0.3144 0.3156 0.1444 0.0156 0 0 0 0 0 0 0 0 0 0 0 0 0 0 0 0 0 0 0 0 0 0 0 0 0 0 0 0 0 0 0 0 0 0 0 0 0 0 0 0 0 0 0 0 0 0 0 0 0 0 0 0 0 0 0 0 0 )   	%  0.10 kg/m2  0.88 kg/m2
	  ( 0 0 0 0 0 0 0 0 0 0 0 0 0 0 0 0 0 0 0 0 0 0 0 0 0 0 0 0 0 0 0 0 0 0 0 0 0 0.0022 0.0522 0.1789 0.3222 0.3044 0.1289 0.0111 0 0 0 0 0 0 0 0 0 0 0 0 0 0 0 0 0 0 0 0 0 0 0 0 0 0 0 0 0 0 0 0 0 0 0 0 0 0 0 0 0 0 0 0 0 0 0 0 0 0 0 0 0 0 0 0 )   	%  0.10 kg/m2  0.90 kg/m2
	  ( 0 0 0 0 0 0 0 0 0 0 0 0 0 0 0 0 0 0 0 0 0 0 0 0 0 0 0 0 0 0 0 0 0 0 0 0 0 0 0.0044 0.0589 0.1922 0.3289 0.2922 0.1144 0.0089 0 0 0 0 0 0 0 0 0 0 0 0 0 0 0 0 0 0 0 0 0 0 0 0 0 0 0 0 0 0 0 0 0 0 0 0 0 0 0 0 0 0 0 0 0 0 0 0 0 0 0 0 0 0 0 )   	%  0.10 kg/m2  0.92 kg/m2
	  ( 0 0 0 0 0 0 0 0 0 0 0 0 0 0 0 0 0 0 0 0 0 0 0 0 0 0 0 0 0 0 0 0 0 0 0 0 0 0 0 0.0067 0.0667 0.2067 0.3356 0.28 0.0978 0.0067 0 0 0 0 0 0 0 0 0 0 0 0 0 0 0 0 0 0 0 0 0 0 0 0 0 0 0 0 0 0 0 0 0 0 0 0 0 0 0 0 0 0 0 0 0 0 0 0 0 0 0 0 0 0 )   	%  0.10 kg/m2  0.94 kg/m2
	  ( 0 0 0 0 0 0 0 0 0 0 0 0 0 0 0 0 0 0 0 0 0 0 0 0 0 0 0 0 0 0 0 0 0 0 0 0 0 0 0 0 0.01 0.0756 0.2189 0.3389 0.2656 0.0867 0.0044 0 0 0 0 0 0 0 0 0 0 0 0 0 0 0 0 0 0 0 0 0 0 0 0 0 0 0 0 0 0 0 0 0 0 0 0 0 0 0 0 0 0 0 0 0 0 0 0 0 0 0 0 0 )   	%  0.10 kg/m2  0.96 kg/m2
	  ( 0 0 0 0 0 0 0 0 0 0 0 0 0 0 0 0 0 0 0 0 0 0 0 0 0 0 0 0 0 0 0 0 0 0 0 0 0 0 0 0 0 0.0133 0.0856 0.2322 0.3411 0.25 0.0756 0.0022 0 0 0 0 0 0 0 0 0 0 0 0 0 0 0 0 0 0 0 0 0 0 0 0 0 0 0 0 0 0 0 0 0 0 0 0 0 0 0 0 0 0 0 0 0 0 0 0 0 0 0 0 )   	%  0.10 kg/m2  0.98 kg/m2
	  ( 0 0 0 0 0 0 0 0 0 0 0 0 0 0 0 0 0 0 0 0 0 0 0 0 0 0 0 0 0 0 0 0 0 0 0 0 0 0 0 0 0 0 0.0178 0.0967 0.2433 0.3389 0.2367 0.0656 0.0011 0 0 0 0 0 0 0 0 0 0 0 0 0 0 0 0 0 0 0 0 0 0 0 0 0 0 0 0 0 0 0 0 0 0 0 0 0 0 0 0 0 0 0 0 0 0 0 0 0 0 0 )   	%  0.10 kg/m2  1.00 kg/m2
	  ( 0 0 0 0 0 0 0 0 0 0 0 0 0 0 0 0 0 0 0 0 0 0 0 0 0 0 0 0 0 0 0 0 0 0 0 0 0 0 0 0 0 0 0 0.0222 0.1078 0.2578 0.3367 0.2178 0.0578 0 0 0 0 0 0 0 0 0 0 0 0 0 0 0 0 0 0 0 0 0 0 0 0 0 0 0 0 0 0 0 0 0 0 0 0 0 0 0 0 0 0 0 0 0 0 0 0 0 0 0 )   	%  0.10 kg/m2  1.02 kg/m2
	  ( 0 0 0 0 0 0 0 0 0 0 0 0 0 0 0 0 0 0 0 0 0 0 0 0 0 0 0 0 0 0 0 0 0 0 0 0 0 0 0 0 0 0 0 0 0.0278 0.12 0.27 0.3322 0.2011 0.0489 0 0 0 0 0 0 0 0 0 0 0 0 0 0 0 0 0 0 0 0 0 0 0 0 0 0 0 0 0 0 0 0 0 0 0 0 0 0 0 0 0 0 0 0 0 0 0 0 0 0 )   	%  0.10 kg/m2  1.04 kg/m2
	  ( 0 0 0 0 0 0 0 0 0 0 0 0 0 0 0 0 0 0 0 0 0 0 0 0 0 0 0 0 0 0 0 0 0 0 0 0 0 0 0 0 0 0 0 0 0 0.0333 0.1322 0.28 0.3289 0.1867 0.0389 0 0 0 0 0 0 0 0 0 0 0 0 0 0 0 0 0 0 0 0 0 0 0 0 0 0 0 0 0 0 0 0 0 0 0 0 0 0 0 0 0 0 0 0 0 0 0 0 0 )   	%  0.10 kg/m2  1.06 kg/m2
	  ( 0 0 0 0 0 0 0 0 0 0 0 0 0 0 0 0 0 0 0 0 0 0 0 0 0 0 0 0 0 0 0 0 0 0 0 0 0 0 0 0 0 0 0 0 0 0 0.0389 0.1467 0.2889 0.3233 0.1711 0.0311 0 0 0 0 0 0 0 0 0 0 0 0 0 0 0 0 0 0 0 0 0 0 0 0 0 0 0 0 0 0 0 0 0 0 0 0 0 0 0 0 0 0 0 0 0 0 0 0 )   	%  0.10 kg/m2  1.08 kg/m2
	  ( 0 0 0 0 0 0 0 0 0 0 0 0 0 0 0 0 0 0 0 0 0 0 0 0 0 0 0 0 0 0 0 0 0 0 0 0 0 0 0 0 0 0 0 0 0 0 0.0011 0.0456 0.1578 0.2978 0.3178 0.1556 0.0244 0 0 0 0 0 0 0 0 0 0 0 0 0 0 0 0 0 0 0 0 0 0 0 0 0 0 0 0 0 0 0 0 0 0 0 0 0 0 0 0 0 0 0 0 0 0 0 )   	%  0.10 kg/m2  1.10 kg/m2
	  ( 0 0 0 0 0 0 0 0 0 0 0 0 0 0 0 0 0 0 0 0 0 0 0 0 0 0 0 0 0 0 0 0 0 0 0 0 0 0 0 0 0 0 0 0 0 0 0 0.0022 0.0544 0.1678 0.3067 0.3089 0.1411 0.0189 0 0 0 0 0 0 0 0 0 0 0 0 0 0 0 0 0 0 0 0 0 0 0 0 0 0 0 0 0 0 0 0 0 0 0 0 0 0 0 0 0 0 0 0 0 0 )   	%  0.10 kg/m2  1.12 kg/m2
	  ( 0 0 0 0 0 0 0 0 0 0 0 0 0 0 0 0 0 0 0 0 0 0 0 0 0 0 0 0 0 0 0 0 0 0 0 0 0 0 0 0 0 0 0 0 0 0 0 0 0.0044 0.0622 0.1789 0.3133 0.2989 0.1289 0.0133 0 0 0 0 0 0 0 0 0 0 0 0 0 0 0 0 0 0 0 0 0 0 0 0 0 0 0 0 0 0 0 0 0 0 0 0 0 0 0 0 0 0 0 0 0 )   	%  0.10 kg/m2  1.14 kg/m2
	  ( 0 0 0 0 0 0 0 0 0 0 0 0 0 0 0 0 0 0 0 0 0 0 0 0 0 0 0 0 0 0 0 0 0 0 0 0 0 0 0 0 0 0 0 0 0 0 0 0 0 0.0067 0.0711 0.19 0.3189 0.2878 0.1156 0.01 0 0 0 0 0 0 0 0 0 0 0 0 0 0 0 0 0 0 0 0 0 0 0 0 0 0 0 0 0 0 0 0 0 0 0 0 0 0 0 0 0 0 0 0 )   	%  0.10 kg/m2  1.16 kg/m2
	  ( 0 0 0 0 0 0 0 0 0 0 0 0 0 0 0 0 0 0 0 0 0 0 0 0 0 0 0 0 0 0 0 0 0 0 0 0 0 0 0 0 0 0 0 0 0 0 0 0 0 0 0.01 0.0811 0.2 0.3256 0.2733 0.1033 0.0067 0 0 0 0 0 0 0 0 0 0 0 0 0 0 0 0 0 0 0 0 0 0 0 0 0 0 0 0 0 0 0 0 0 0 0 0 0 0 0 0 0 0 0 )   	%  0.10 kg/m2  1.18 kg/m2
	  ( 0 0 0 0 0 0 0 0 0 0 0 0 0 0 0 0 0 0 0 0 0 0 0 0 0 0 0 0 0 0 0 0 0 0 0 0 0 0 0 0 0 0 0 0 0 0 0 0 0 0 0 0.0133 0.09 0.2133 0.3289 0.2556 0.0944 0.0044 0 0 0 0 0 0 0 0 0 0 0 0 0 0 0 0 0 0 0 0 0 0 0 0 0 0 0 0 0 0 0 0 0 0 0 0 0 0 0 0 0 0 ))  	%  0.10 kg/m2  1.20 kg/m2
	 (( 0.2978 0.3856 0.2656 0.0511 0 0 0 0 0 0 0 0 0 0 0 0 0 0 0 0 0 0 0 0 0 0 0 0 0 0 0 0 0 0 0 0 0 0 0 0 0 0 0 0 0 0 0 0 0 0 0 0 0 0 0 0 0 0 0 0 0 0 0 0 0 0 0 0 0 0 0 0 0 0 0 0 0 0 0 0 0 0 0 0 0 0 0 0 0 0 0 0 0 0 0 0 0 0 0 0 )   	%  0.15 kg/m2  0.00 kg/m2
	  ( 0.0967 0.2789 0.3722 0.22 0.0322 0 0 0 0 0 0 0 0 0 0 0 0 0 0 0 0 0 0 0 0 0 0 0 0 0 0 0 0 0 0 0 0 0 0 0 0 0 0 0 0 0 0 0 0 0 0 0 0 0 0 0 0 0 0 0 0 0 0 0 0 0 0 0 0 0 0 0 0 0 0 0 0 0 0 0 0 0 0 0 0 0 0 0 0 0 0 0 0 0 0 0 0 0 0 0 )   	%  0.15 kg/m2  0.02 kg/m2
	  ( 0.0067 0.1078 0.2944 0.3678 0.1989 0.0244 0 0 0 0 0 0 0 0 0 0 0 0 0 0 0 0 0 0 0 0 0 0 0 0 0 0 0 0 0 0 0 0 0 0 0 0 0 0 0 0 0 0 0 0 0 0 0 0 0 0 0 0 0 0 0 0 0 0 0 0 0 0 0 0 0 0 0 0 0 0 0 0 0 0 0 0 0 0 0 0 0 0 0 0 0 0 0 0 0 0 0 0 0 0 )   	%  0.15 kg/m2  0.04 kg/m2
	  ( 0 0.0111 0.1211 0.3056 0.3622 0.1822 0.0178 0 0 0 0 0 0 0 0 0 0 0 0 0 0 0 0 0 0 0 0 0 0 0 0 0 0 0 0 0 0 0 0 0 0 0 0 0 0 0 0 0 0 0 0 0 0 0 0 0 0 0 0 0 0 0 0 0 0 0 0 0 0 0 0 0 0 0 0 0 0 0 0 0 0 0 0 0 0 0 0 0 0 0 0 0 0 0 0 0 0 0 0 0 )   	%  0.15 kg/m2  0.06 kg/m2
	  ( 0 0 0.0156 0.1378 0.3189 0.3522 0.1633 0.0122 0 0 0 0 0 0 0 0 0 0 0 0 0 0 0 0 0 0 0 0 0 0 0 0 0 0 0 0 0 0 0 0 0 0 0 0 0 0 0 0 0 0 0 0 0 0 0 0 0 0 0 0 0 0 0 0 0 0 0 0 0 0 0 0 0 0 0 0 0 0 0 0 0 0 0 0 0 0 0 0 0 0 0 0 0 0 0 0 0 0 0 0 )   	%  0.15 kg/m2  0.08 kg/m2
	  ( 0 0 0 0.02 0.1511 0.3356 0.34 0.1456 0.0078 0 0 0 0 0 0 0 0 0 0 0 0 0 0 0 0 0 0 0 0 0 0 0 0 0 0 0 0 0 0 0 0 0 0 0 0 0 0 0 0 0 0 0 0 0 0 0 0 0 0 0 0 0 0 0 0 0 0 0 0 0 0 0 0 0 0 0 0 0 0 0 0 0 0 0 0 0 0 0 0 0 0 0 0 0 0 0 0 0 0 0 )   	%  0.15 kg/m2  0.10 kg/m2
	  ( 0 0 0 0 0.0278 0.1689 0.3444 0.3244 0.13 0.0044 0 0 0 0 0 0 0 0 0 0 0 0 0 0 0 0 0 0 0 0 0 0 0 0 0 0 0 0 0 0 0 0 0 0 0 0 0 0 0 0 0 0 0 0 0 0 0 0 0 0 0 0 0 0 0 0 0 0 0 0 0 0 0 0 0 0 0 0 0 0 0 0 0 0 0 0 0 0 0 0 0 0 0 0 0 0 0 0 0 0 )   	%  0.15 kg/m2  0.12 kg/m2
	  ( 0 0 0 0 0 0.0344 0.1844 0.3533 0.3133 0.1111 0.0033 0 0 0 0 0 0 0 0 0 0 0 0 0 0 0 0 0 0 0 0 0 0 0 0 0 0 0 0 0 0 0 0 0 0 0 0 0 0 0 0 0 0 0 0 0 0 0 0 0 0 0 0 0 0 0 0 0 0 0 0 0 0 0 0 0 0 0 0 0 0 0 0 0 0 0 0 0 0 0 0 0 0 0 0 0 0 0 0 0 )   	%  0.15 kg/m2  0.14 kg/m2
	  ( 0 0 0 0 0 0 0.0433 0.2022 0.3611 0.2978 0.0933 0.0022 0 0 0 0 0 0 0 0 0 0 0 0 0 0 0 0 0 0 0 0 0 0 0 0 0 0 0 0 0 0 0 0 0 0 0 0 0 0 0 0 0 0 0 0 0 0 0 0 0 0 0 0 0 0 0 0 0 0 0 0 0 0 0 0 0 0 0 0 0 0 0 0 0 0 0 0 0 0 0 0 0 0 0 0 0 0 0 0 )   	%  0.15 kg/m2  0.16 kg/m2
	  ( 0 0 0 0 0 0 0 0.0522 0.22 0.3633 0.2833 0.08 0.0011 0 0 0 0 0 0 0 0 0 0 0 0 0 0 0 0 0 0 0 0 0 0 0 0 0 0 0 0 0 0 0 0 0 0 0 0 0 0 0 0 0 0 0 0 0 0 0 0 0 0 0 0 0 0 0 0 0 0 0 0 0 0 0 0 0 0 0 0 0 0 0 0 0 0 0 0 0 0 0 0 0 0 0 0 0 0 0 )   	%  0.15 kg/m2  0.18 kg/m2
	  ( 0 0 0 0 0 0 0 0.0022 0.0611 0.2389 0.3633 0.2689 0.0656 0 0 0 0 0 0 0 0 0 0 0 0 0 0 0 0 0 0 0 0 0 0 0 0 0 0 0 0 0 0 0 0 0 0 0 0 0 0 0 0 0 0 0 0 0 0 0 0 0 0 0 0 0 0 0 0 0 0 0 0 0 0 0 0 0 0 0 0 0 0 0 0 0 0 0 0 0 0 0 0 0 0 0 0 0 0 0 )   	%  0.15 kg/m2  0.20 kg/m2
	  ( 0 0 0 0 0 0 0 0 0.0044 0.0711 0.2544 0.3622 0.2544 0.0533 0 0 0 0 0 0 0 0 0 0 0 0 0 0 0 0 0 0 0 0 0 0 0 0 0 0 0 0 0 0 0 0 0 0 0 0 0 0 0 0 0 0 0 0 0 0 0 0 0 0 0 0 0 0 0 0 0 0 0 0 0 0 0 0 0 0 0 0 0 0 0 0 0 0 0 0 0 0 0 0 0 0 0 0 0 0 )   	%  0.15 kg/m2  0.22 kg/m2
	  ( 0 0 0 0 0 0 0 0 0 0.0067 0.0833 0.2711 0.3622 0.2356 0.0411 0 0 0 0 0 0 0 0 0 0 0 0 0 0 0 0 0 0 0 0 0 0 0 0 0 0 0 0 0 0 0 0 0 0 0 0 0 0 0 0 0 0 0 0 0 0 0 0 0 0 0 0 0 0 0 0 0 0 0 0 0 0 0 0 0 0 0 0 0 0 0 0 0 0 0 0 0 0 0 0 0 0 0 0 0 )   	%  0.15 kg/m2  0.24 kg/m2
	  ( 0 0 0 0 0 0 0 0 0 0 0.01 0.0944 0.2867 0.3578 0.2167 0.0344 0 0 0 0 0 0 0 0 0 0 0 0 0 0 0 0 0 0 0 0 0 0 0 0 0 0 0 0 0 0 0 0 0 0 0 0 0 0 0 0 0 0 0 0 0 0 0 0 0 0 0 0 0 0 0 0 0 0 0 0 0 0 0 0 0 0 0 0 0 0 0 0 0 0 0 0 0 0 0 0 0 0 0 0 )   	%  0.15 kg/m2  0.26 kg/m2
	  ( 0 0 0 0 0 0 0 0 0 0 0 0.0133 0.11 0.2978 0.3567 0.1956 0.0267 0 0 0 0 0 0 0 0 0 0 0 0 0 0 0 0 0 0 0 0 0 0 0 0 0 0 0 0 0 0 0 0 0 0 0 0 0 0 0 0 0 0 0 0 0 0 0 0 0 0 0 0 0 0 0 0 0 0 0 0 0 0 0 0 0 0 0 0 0 0 0 0 0 0 0 0 0 0 0 0 0 0 0 )   	%  0.15 kg/m2  0.28 kg/m2
	  ( 0 0 0 0 0 0 0 0 0 0 0 0 0.0178 0.1256 0.3044 0.3567 0.1744 0.0211 0 0 0 0 0 0 0 0 0 0 0 0 0 0 0 0 0 0 0 0 0 0 0 0 0 0 0 0 0 0 0 0 0 0 0 0 0 0 0 0 0 0 0 0 0 0 0 0 0 0 0 0 0 0 0 0 0 0 0 0 0 0 0 0 0 0 0 0 0 0 0 0 0 0 0 0 0 0 0 0 0 0 )   	%  0.15 kg/m2  0.30 kg/m2
	  ( 0 0 0 0 0 0 0 0 0 0 0 0 0 0.0222 0.1433 0.3167 0.3467 0.1556 0.0156 0 0 0 0 0 0 0 0 0 0 0 0 0 0 0 0 0 0 0 0 0 0 0 0 0 0 0 0 0 0 0 0 0 0 0 0 0 0 0 0 0 0 0 0 0 0 0 0 0 0 0 0 0 0 0 0 0 0 0 0 0 0 0 0 0 0 0 0 0 0 0 0 0 0 0 0 0 0 0 0 0 )   	%  0.15 kg/m2  0.32 kg/m2
	  ( 0 0 0 0 0 0 0 0 0 0 0 0 0 0 0.0289 0.16 0.3222 0.3378 0.14 0.0111 0 0 0 0 0 0 0 0 0 0 0 0 0 0 0 0 0 0 0 0 0 0 0 0 0 0 0 0 0 0 0 0 0 0 0 0 0 0 0 0 0 0 0 0 0 0 0 0 0 0 0 0 0 0 0 0 0 0 0 0 0 0 0 0 0 0 0 0 0 0 0 0 0 0 0 0 0 0 0 0 )   	%  0.15 kg/m2  0.34 kg/m2
	  ( 0 0 0 0 0 0 0 0 0 0 0 0 0 0 0 0.0344 0.1778 0.3322 0.3267 0.1222 0.0067 0 0 0 0 0 0 0 0 0 0 0 0 0 0 0 0 0 0 0 0 0 0 0 0 0 0 0 0 0 0 0 0 0 0 0 0 0 0 0 0 0 0 0 0 0 0 0 0 0 0 0 0 0 0 0 0 0 0 0 0 0 0 0 0 0 0 0 0 0 0 0 0 0 0 0 0 0 0 0 )   	%  0.15 kg/m2  0.36 kg/m2
	  ( 0 0 0 0 0 0 0 0 0 0 0 0 0 0 0 0 0.0422 0.1944 0.34 0.31 0.1089 0.0044 0 0 0 0 0 0 0 0 0 0 0 0 0 0 0 0 0 0 0 0 0 0 0 0 0 0 0 0 0 0 0 0 0 0 0 0 0 0 0 0 0 0 0 0 0 0 0 0 0 0 0 0 0 0 0 0 0 0 0 0 0 0 0 0 0 0 0 0 0 0 0 0 0 0 0 0 0 0 )   	%  0.15 kg/m2  0.38 kg/m2
	  ( 0 0 0 0 0 0 0 0 0 0 0 0 0 0 0 0 0.0011 0.05 0.2089 0.3511 0.2922 0.0944 0.0022 0 0 0 0 0 0 0 0 0 0 0 0 0 0 0 0 0 0 0 0 0 0 0 0 0 0 0 0 0 0 0 0 0 0 0 0 0 0 0 0 0 0 0 0 0 0 0 0 0 0 0 0 0 0 0 0 0 0 0 0 0 0 0 0 0 0 0 0 0 0 0 0 0 0 0 0 0 )   	%  0.15 kg/m2  0.40 kg/m2
	  ( 0 0 0 0 0 0 0 0 0 0 0 0 0 0 0 0 0 0.0022 0.06 0.2233 0.3567 0.2744 0.0822 0.0011 0 0 0 0 0 0 0 0 0 0 0 0 0 0 0 0 0 0 0 0 0 0 0 0 0 0 0 0 0 0 0 0 0 0 0 0 0 0 0 0 0 0 0 0 0 0 0 0 0 0 0 0 0 0 0 0 0 0 0 0 0 0 0 0 0 0 0 0 0 0 0 0 0 0 0 0 )   	%  0.15 kg/m2  0.42 kg/m2
	  ( 0 0 0 0 0 0 0 0 0 0 0 0 0 0 0 0 0 0 0.0044 0.07 0.2378 0.3622 0.2556 0.07 0 0 0 0 0 0 0 0 0 0 0 0 0 0 0 0 0 0 0 0 0 0 0 0 0 0 0 0 0 0 0 0 0 0 0 0 0 0 0 0 0 0 0 0 0 0 0 0 0 0 0 0 0 0 0 0 0 0 0 0 0 0 0 0 0 0 0 0 0 0 0 0 0 0 0 0 )   	%  0.15 kg/m2  0.44 kg/m2
	  ( 0 0 0 0 0 0 0 0 0 0 0 0 0 0 0 0 0 0 0 0.0067 0.0811 0.25 0.3667 0.2367 0.0589 0 0 0 0 0 0 0 0 0 0 0 0 0 0 0 0 0 0 0 0 0 0 0 0 0 0 0 0 0 0 0 0 0 0 0 0 0 0 0 0 0 0 0 0 0 0 0 0 0 0 0 0 0 0 0 0 0 0 0 0 0 0 0 0 0 0 0 0 0 0 0 0 0 0 0 )   	%  0.15 kg/m2  0.46 kg/m2
	  ( 0 0 0 0 0 0 0 0 0 0 0 0 0 0 0 0 0 0 0 0 0.01 0.0944 0.2644 0.3622 0.2211 0.0478 0 0 0 0 0 0 0 0 0 0 0 0 0 0 0 0 0 0 0 0 0 0 0 0 0 0 0 0 0 0 0 0 0 0 0 0 0 0 0 0 0 0 0 0 0 0 0 0 0 0 0 0 0 0 0 0 0 0 0 0 0 0 0 0 0 0 0 0 0 0 0 0 0 0 )   	%  0.15 kg/m2  0.48 kg/m2
	  ( 0 0 0 0 0 0 0 0 0 0 0 0 0 0 0 0 0 0 0 0 0 0.0133 0.1078 0.2767 0.3556 0.2089 0.0378 0 0 0 0 0 0 0 0 0 0 0 0 0 0 0 0 0 0 0 0 0 0 0 0 0 0 0 0 0 0 0 0 0 0 0 0 0 0 0 0 0 0 0 0 0 0 0 0 0 0 0 0 0 0 0 0 0 0 0 0 0 0 0 0 0 0 0 0 0 0 0 0 0 )   	%  0.15 kg/m2  0.50 kg/m2
	  ( 0 0 0 0 0 0 0 0 0 0 0 0 0 0 0 0 0 0 0 0 0 0 0.0178 0.1222 0.29 0.35 0.1911 0.0289 0 0 0 0 0 0 0 0 0 0 0 0 0 0 0 0 0 0 0 0 0 0 0 0 0 0 0 0 0 0 0 0 0 0 0 0 0 0 0 0 0 0 0 0 0 0 0 0 0 0 0 0 0 0 0 0 0 0 0 0 0 0 0 0 0 0 0 0 0 0 0 0 )   	%  0.15 kg/m2  0.52 kg/m2
	  ( 0 0 0 0 0 0 0 0 0 0 0 0 0 0 0 0 0 0 0 0 0 0 0 0.0222 0.1389 0.3022 0.3378 0.1767 0.0222 0 0 0 0 0 0 0 0 0 0 0 0 0 0 0 0 0 0 0 0 0 0 0 0 0 0 0 0 0 0 0 0 0 0 0 0 0 0 0 0 0 0 0 0 0 0 0 0 0 0 0 0 0 0 0 0 0 0 0 0 0 0 0 0 0 0 0 0 0 0 0 )   	%  0.15 kg/m2  0.54 kg/m2
	  ( 0 0 0 0 0 0 0 0 0 0 0 0 0 0 0 0 0 0 0 0 0 0 0 0 0.0289 0.1489 0.3178 0.33 0.1589 0.0156 0 0 0 0 0 0 0 0 0 0 0 0 0 0 0 0 0 0 0 0 0 0 0 0 0 0 0 0 0 0 0 0 0 0 0 0 0 0 0 0 0 0 0 0 0 0 0 0 0 0 0 0 0 0 0 0 0 0 0 0 0 0 0 0 0 0 0 0 0 0 )   	%  0.15 kg/m2  0.56 kg/m2
	  ( 0 0 0 0 0 0 0 0 0 0 0 0 0 0 0 0 0 0 0 0 0 0 0 0 0 0.0367 0.1622 0.3278 0.3189 0.1422 0.0122 0 0 0 0 0 0 0 0 0 0 0 0 0 0 0 0 0 0 0 0 0 0 0 0 0 0 0 0 0 0 0 0 0 0 0 0 0 0 0 0 0 0 0 0 0 0 0 0 0 0 0 0 0 0 0 0 0 0 0 0 0 0 0 0 0 0 0 0 0 )   	%  0.15 kg/m2  0.58 kg/m2
	  ( 0 0 0 0 0 0 0 0 0 0 0 0 0 0 0 0 0 0 0 0 0 0 0 0 0 0 0.0444 0.1756 0.3378 0.31 0.1233 0.0089 0 0 0 0 0 0 0 0 0 0 0 0 0 0 0 0 0 0 0 0 0 0 0 0 0 0 0 0 0 0 0 0 0 0 0 0 0 0 0 0 0 0 0 0 0 0 0 0 0 0 0 0 0 0 0 0 0 0 0 0 0 0 0 0 0 0 0 0 )   	%  0.15 kg/m2  0.60 kg/m2
	  ( 0 0 0 0 0 0 0 0 0 0 0 0 0 0 0 0 0 0 0 0 0 0 0 0 0 0 0.0011 0.0544 0.1889 0.3422 0.2989 0.1078 0.0067 0 0 0 0 0 0 0 0 0 0 0 0 0 0 0 0 0 0 0 0 0 0 0 0 0 0 0 0 0 0 0 0 0 0 0 0 0 0 0 0 0 0 0 0 0 0 0 0 0 0 0 0 0 0 0 0 0 0 0 0 0 0 0 0 0 0 0 )   	%  0.15 kg/m2  0.62 kg/m2
	  ( 0 0 0 0 0 0 0 0 0 0 0 0 0 0 0 0 0 0 0 0 0 0 0 0 0 0 0 0.0022 0.0622 0.2056 0.3467 0.2867 0.0922 0.0044 0 0 0 0 0 0 0 0 0 0 0 0 0 0 0 0 0 0 0 0 0 0 0 0 0 0 0 0 0 0 0 0 0 0 0 0 0 0 0 0 0 0 0 0 0 0 0 0 0 0 0 0 0 0 0 0 0 0 0 0 0 0 0 0 0 0 )   	%  0.15 kg/m2  0.64 kg/m2
	  ( 0 0 0 0 0 0 0 0 0 0 0 0 0 0 0 0 0 0 0 0 0 0 0 0 0 0 0 0 0.0044 0.0722 0.22 0.3456 0.2767 0.0789 0.0022 0 0 0 0 0 0 0 0 0 0 0 0 0 0 0 0 0 0 0 0 0 0 0 0 0 0 0 0 0 0 0 0 0 0 0 0 0 0 0 0 0 0 0 0 0 0 0 0 0 0 0 0 0 0 0 0 0 0 0 0 0 0 0 0 0 )   	%  0.15 kg/m2  0.66 kg/m2
	  ( 0 0 0 0 0 0 0 0 0 0 0 0 0 0 0 0 0 0 0 0 0 0 0 0 0 0 0 0 0 0.0067 0.0811 0.2378 0.3478 0.2567 0.0689 0.0011 0 0 0 0 0 0 0 0 0 0 0 0 0 0 0 0 0 0 0 0 0 0 0 0 0 0 0 0 0 0 0 0 0 0 0 0 0 0 0 0 0 0 0 0 0 0 0 0 0 0 0 0 0 0 0 0 0 0 0 0 0 0 0 0 )   	%  0.15 kg/m2  0.68 kg/m2
	  ( 0 0 0 0 0 0 0 0 0 0 0 0 0 0 0 0 0 0 0 0 0 0 0 0 0 0 0 0 0 0 0.0111 0.09 0.2522 0.3478 0.2389 0.06 0 0 0 0 0 0 0 0 0 0 0 0 0 0 0 0 0 0 0 0 0 0 0 0 0 0 0 0 0 0 0 0 0 0 0 0 0 0 0 0 0 0 0 0 0 0 0 0 0 0 0 0 0 0 0 0 0 0 0 0 0 0 0 0 )   	%  0.15 kg/m2  0.70 kg/m2
	  ( 0 0 0 0 0 0 0 0 0 0 0 0 0 0 0 0 0 0 0 0 0 0 0 0 0 0 0 0 0 0 0 0.0156 0.1 0.2678 0.3456 0.2211 0.05 0 0 0 0 0 0 0 0 0 0 0 0 0 0 0 0 0 0 0 0 0 0 0 0 0 0 0 0 0 0 0 0 0 0 0 0 0 0 0 0 0 0 0 0 0 0 0 0 0 0 0 0 0 0 0 0 0 0 0 0 0 0 0 )   	%  0.15 kg/m2  0.72 kg/m2
	  ( 0 0 0 0 0 0 0 0 0 0 0 0 0 0 0 0 0 0 0 0 0 0 0 0 0 0 0 0 0 0 0 0 0.02 0.1111 0.2833 0.3433 0.2 0.0422 0 0 0 0 0 0 0 0 0 0 0 0 0 0 0 0 0 0 0 0 0 0 0 0 0 0 0 0 0 0 0 0 0 0 0 0 0 0 0 0 0 0 0 0 0 0 0 0 0 0 0 0 0 0 0 0 0 0 0 0 0 0 )   	%  0.15 kg/m2  0.74 kg/m2
	  ( 0 0 0 0 0 0 0 0 0 0 0 0 0 0 0 0 0 0 0 0 0 0 0 0 0 0 0 0 0 0 0 0 0 0.0267 0.1233 0.2911 0.3422 0.1833 0.0333 0 0 0 0 0 0 0 0 0 0 0 0 0 0 0 0 0 0 0 0 0 0 0 0 0 0 0 0 0 0 0 0 0 0 0 0 0 0 0 0 0 0 0 0 0 0 0 0 0 0 0 0 0 0 0 0 0 0 0 0 0 )   	%  0.15 kg/m2  0.76 kg/m2
	  ( 0 0 0 0 0 0 0 0 0 0 0 0 0 0 0 0 0 0 0 0 0 0 0 0 0 0 0 0 0 0 0 0 0 0 0.0322 0.1389 0.3 0.3367 0.1656 0.0267 0 0 0 0 0 0 0 0 0 0 0 0 0 0 0 0 0 0 0 0 0 0 0 0 0 0 0 0 0 0 0 0 0 0 0 0 0 0 0 0 0 0 0 0 0 0 0 0 0 0 0 0 0 0 0 0 0 0 0 0 )   	%  0.15 kg/m2  0.78 kg/m2
	  ( 0 0 0 0 0 0 0 0 0 0 0 0 0 0 0 0 0 0 0 0 0 0 0 0 0 0 0 0 0 0 0 0 0 0 0 0.0389 0.1522 0.3078 0.3311 0.15 0.02 0 0 0 0 0 0 0 0 0 0 0 0 0 0 0 0 0 0 0 0 0 0 0 0 0 0 0 0 0 0 0 0 0 0 0 0 0 0 0 0 0 0 0 0 0 0 0 0 0 0 0 0 0 0 0 0 0 0 0 )   	%  0.15 kg/m2  0.80 kg/m2
	  ( 0 0 0 0 0 0 0 0 0 0 0 0 0 0 0 0 0 0 0 0 0 0 0 0 0 0 0 0 0 0 0 0 0 0 0 0 0.0467 0.1689 0.3111 0.3222 0.1367 0.0144 0 0 0 0 0 0 0 0 0 0 0 0 0 0 0 0 0 0 0 0 0 0 0 0 0 0 0 0 0 0 0 0 0 0 0 0 0 0 0 0 0 0 0 0 0 0 0 0 0 0 0 0 0 0 0 0 0 0 )   	%  0.15 kg/m2  0.82 kg/m2
	  ( 0 0 0 0 0 0 0 0 0 0 0 0 0 0 0 0 0 0 0 0 0 0 0 0 0 0 0 0 0 0 0 0 0 0 0 0 0.0022 0.0522 0.1833 0.3211 0.3078 0.1233 0.01 0 0 0 0 0 0 0 0 0 0 0 0 0 0 0 0 0 0 0 0 0 0 0 0 0 0 0 0 0 0 0 0 0 0 0 0 0 0 0 0 0 0 0 0 0 0 0 0 0 0 0 0 0 0 0 0 0 )   	%  0.15 kg/m2  0.84 kg/m2
	  ( 0 0 0 0 0 0 0 0 0 0 0 0 0 0 0 0 0 0 0 0 0 0 0 0 0 0 0 0 0 0 0 0 0 0 0 0 0 0.0044 0.06 0.1967 0.3278 0.2933 0.1111 0.0067 0 0 0 0 0 0 0 0 0 0 0 0 0 0 0 0 0 0 0 0 0 0 0 0 0 0 0 0 0 0 0 0 0 0 0 0 0 0 0 0 0 0 0 0 0 0 0 0 0 0 0 0 0 0 0 0 )   	%  0.15 kg/m2  0.86 kg/m2
	  ( 0 0 0 0 0 0 0 0 0 0 0 0 0 0 0 0 0 0 0 0 0 0 0 0 0 0 0 0 0 0 0 0 0 0 0 0 0 0 0.0067 0.0678 0.2089 0.3378 0.2778 0.0967 0.0044 0 0 0 0 0 0 0 0 0 0 0 0 0 0 0 0 0 0 0 0 0 0 0 0 0 0 0 0 0 0 0 0 0 0 0 0 0 0 0 0 0 0 0 0 0 0 0 0 0 0 0 0 0 0 0 )   	%  0.15 kg/m2  0.88 kg/m2
	  ( 0 0 0 0 0 0 0 0 0 0 0 0 0 0 0 0 0 0 0 0 0 0 0 0 0 0 0 0 0 0 0 0 0 0 0 0 0 0 0 0.01 0.0789 0.2189 0.3422 0.2611 0.0856 0.0033 0 0 0 0 0 0 0 0 0 0 0 0 0 0 0 0 0 0 0 0 0 0 0 0 0 0 0 0 0 0 0 0 0 0 0 0 0 0 0 0 0 0 0 0 0 0 0 0 0 0 0 0 0 0 )   	%  0.15 kg/m2  0.90 kg/m2
	  ( 0 0 0 0 0 0 0 0 0 0 0 0 0 0 0 0 0 0 0 0 0 0 0 0 0 0 0 0 0 0 0 0 0 0 0 0 0 0 0 0 0.0133 0.0878 0.2322 0.3478 0.2433 0.0733 0.0022 0 0 0 0 0 0 0 0 0 0 0 0 0 0 0 0 0 0 0 0 0 0 0 0 0 0 0 0 0 0 0 0 0 0 0 0 0 0 0 0 0 0 0 0 0 0 0 0 0 0 0 0 0 )   	%  0.15 kg/m2  0.92 kg/m2
	  ( 0 0 0 0 0 0 0 0 0 0 0 0 0 0 0 0 0 0 0 0 0 0 0 0 0 0 0 0 0 0 0 0 0 0 0 0 0 0 0 0 0 0.0178 0.0989 0.2422 0.35 0.2278 0.0622 0.0011 0 0 0 0 0 0 0 0 0 0 0 0 0 0 0 0 0 0 0 0 0 0 0 0 0 0 0 0 0 0 0 0 0 0 0 0 0 0 0 0 0 0 0 0 0 0 0 0 0 0 0 0 )   	%  0.15 kg/m2  0.94 kg/m2
	  ( 0 0 0 0 0 0 0 0 0 0 0 0 0 0 0 0 0 0 0 0 0 0 0 0 0 0 0 0 0 0 0 0 0 0 0 0 0 0 0 0 0 0 0.0222 0.1122 0.2544 0.3422 0.2167 0.0522 0 0 0 0 0 0 0 0 0 0 0 0 0 0 0 0 0 0 0 0 0 0 0 0 0 0 0 0 0 0 0 0 0 0 0 0 0 0 0 0 0 0 0 0 0 0 0 0 0 0 0 0 )   	%  0.15 kg/m2  0.96 kg/m2
	  ( 0 0 0 0 0 0 0 0 0 0 0 0 0 0 0 0 0 0 0 0 0 0 0 0 0 0 0 0 0 0 0 0 0 0 0 0 0 0 0 0 0 0 0 0.0278 0.1233 0.27 0.3344 0.2011 0.0433 0 0 0 0 0 0 0 0 0 0 0 0 0 0 0 0 0 0 0 0 0 0 0 0 0 0 0 0 0 0 0 0 0 0 0 0 0 0 0 0 0 0 0 0 0 0 0 0 0 0 0 )   	%  0.15 kg/m2  0.98 kg/m2
	  ( 0 0 0 0 0 0 0 0 0 0 0 0 0 0 0 0 0 0 0 0 0 0 0 0 0 0 0 0 0 0 0 0 0 0 0 0 0 0 0 0 0 0 0 0 0.0333 0.1356 0.2811 0.3289 0.1878 0.0333 0 0 0 0 0 0 0 0 0 0 0 0 0 0 0 0 0 0 0 0 0 0 0 0 0 0 0 0 0 0 0 0 0 0 0 0 0 0 0 0 0 0 0 0 0 0 0 0 0 0 )   	%  0.15 kg/m2  1.00 kg/m2
	  ( 0 0 0 0 0 0 0 0 0 0 0 0 0 0 0 0 0 0 0 0 0 0 0 0 0 0 0 0 0 0 0 0 0 0 0 0 0 0 0 0 0 0 0 0 0 0.0389 0.15 0.2944 0.3167 0.1722 0.0278 0 0 0 0 0 0 0 0 0 0 0 0 0 0 0 0 0 0 0 0 0 0 0 0 0 0 0 0 0 0 0 0 0 0 0 0 0 0 0 0 0 0 0 0 0 0 0 0 0 )   	%  0.15 kg/m2  1.02 kg/m2
	  ( 0 0 0 0 0 0 0 0 0 0 0 0 0 0 0 0 0 0 0 0 0 0 0 0 0 0 0 0 0 0 0 0 0 0 0 0 0 0 0 0 0 0 0 0 0 0.0011 0.0467 0.1578 0.3056 0.3122 0.1544 0.0222 0 0 0 0 0 0 0 0 0 0 0 0 0 0 0 0 0 0 0 0 0 0 0 0 0 0 0 0 0 0 0 0 0 0 0 0 0 0 0 0 0 0 0 0 0 0 0 0 )   	%  0.15 kg/m2  1.04 kg/m2
	  ( 0 0 0 0 0 0 0 0 0 0 0 0 0 0 0 0 0 0 0 0 0 0 0 0 0 0 0 0 0 0 0 0 0 0 0 0 0 0 0 0 0 0 0 0 0 0 0.0022 0.0544 0.17 0.3144 0.3033 0.1378 0.0178 0 0 0 0 0 0 0 0 0 0 0 0 0 0 0 0 0 0 0 0 0 0 0 0 0 0 0 0 0 0 0 0 0 0 0 0 0 0 0 0 0 0 0 0 0 0 0 )   	%  0.15 kg/m2  1.06 kg/m2
	  ( 0 0 0 0 0 0 0 0 0 0 0 0 0 0 0 0 0 0 0 0 0 0 0 0 0 0 0 0 0 0 0 0 0 0 0 0 0 0 0 0 0 0 0 0 0 0 0 0.0044 0.0622 0.1811 0.3189 0.2967 0.1233 0.0133 0 0 0 0 0 0 0 0 0 0 0 0 0 0 0 0 0 0 0 0 0 0 0 0 0 0 0 0 0 0 0 0 0 0 0 0 0 0 0 0 0 0 0 0 0 0 )   	%  0.15 kg/m2  1.08 kg/m2
	  ( 0 0 0 0 0 0 0 0 0 0 0 0 0 0 0 0 0 0 0 0 0 0 0 0 0 0 0 0 0 0 0 0 0 0 0 0 0 0 0 0 0 0 0 0 0 0 0 0 0.0067 0.0722 0.1944 0.3222 0.2844 0.11 0.01 0 0 0 0 0 0 0 0 0 0 0 0 0 0 0 0 0 0 0 0 0 0 0 0 0 0 0 0 0 0 0 0 0 0 0 0 0 0 0 0 0 0 0 0 0 )   	%  0.15 kg/m2  1.10 kg/m2
	  ( 0 0 0 0 0 0 0 0 0 0 0 0 0 0 0 0 0 0 0 0 0 0 0 0 0 0 0 0 0 0 0 0 0 0 0 0 0 0 0 0 0 0 0 0 0 0 0 0 0 0.01 0.0811 0.2044 0.3256 0.2756 0.0967 0.0067 0 0 0 0 0 0 0 0 0 0 0 0 0 0 0 0 0 0 0 0 0 0 0 0 0 0 0 0 0 0 0 0 0 0 0 0 0 0 0 0 0 0 0 0 )   	%  0.15 kg/m2  1.12 kg/m2
	  ( 0 0 0 0 0 0 0 0 0 0 0 0 0 0 0 0 0 0 0 0 0 0 0 0 0 0 0 0 0 0 0 0 0 0 0 0 0 0 0 0 0 0 0 0 0 0 0 0 0 0 0.0133 0.0911 0.2189 0.3244 0.2622 0.0856 0.0044 0 0 0 0 0 0 0 0 0 0 0 0 0 0 0 0 0 0 0 0 0 0 0 0 0 0 0 0 0 0 0 0 0 0 0 0 0 0 0 0 0 0 0 )   	%  0.15 kg/m2  1.14 kg/m2
	  ( 0 0 0 0 0 0 0 0 0 0 0 0 0 0 0 0 0 0 0 0 0 0 0 0 0 0 0 0 0 0 0 0 0 0 0 0 0 0 0 0 0 0 0 0 0 0 0 0 0 0 0 0.0178 0.1011 0.2311 0.3256 0.2456 0.0767 0.0022 0 0 0 0 0 0 0 0 0 0 0 0 0 0 0 0 0 0 0 0 0 0 0 0 0 0 0 0 0 0 0 0 0 0 0 0 0 0 0 0 0 0 )   	%  0.15 kg/m2  1.16 kg/m2
	  ( 0 0 0 0 0 0 0 0 0 0 0 0 0 0 0 0 0 0 0 0 0 0 0 0 0 0 0 0 0 0 0 0 0 0 0 0 0 0 0 0 0 0 0 0 0 0 0 0 0 0 0 0 0.0233 0.1111 0.2422 0.3278 0.2278 0.0667 0.0011 0 0 0 0 0 0 0 0 0 0 0 0 0 0 0 0 0 0 0 0 0 0 0 0 0 0 0 0 0 0 0 0 0 0 0 0 0 0 0 0 0 )   	%  0.15 kg/m2  1.18 kg/m2
	  ( 0 0 0 0 0 0 0 0 0 0 0 0 0 0 0 0 0 0 0 0 0 0 0 0 0 0 0 0 0 0 0 0 0 0 0 0 0 0 0 0 0 0 0 0 0 0 0 0 0 0 0 0 0 0.0289 0.1189 0.2567 0.3256 0.2133 0.0567 0 0 0 0 0 0 0 0 0 0 0 0 0 0 0 0 0 0 0 0 0 0 0 0 0 0 0 0 0 0 0 0 0 0 0 0 0 0 0 0 0 ))  	%  0.15 kg/m2  1.20 kg/m2
	 (( 0.0056 0.0967 0.3 0.3722 0.2033 0.0222 0 0 0 0 0 0 0 0 0 0 0 0 0 0 0 0 0 0 0 0 0 0 0 0 0 0 0 0 0 0 0 0 0 0 0 0 0 0 0 0 0 0 0 0 0 0 0 0 0 0 0 0 0 0 0 0 0 0 0 0 0 0 0 0 0 0 0 0 0 0 0 0 0 0 0 0 0 0 0 0 0 0 0 0 0 0 0 0 0 0 0 0 0 0 )   	%  0.20 kg/m2  0.00 kg/m2
	  ( 0 0.0156 0.1378 0.3278 0.3522 0.1544 0.0122 0 0 0 0 0 0 0 0 0 0 0 0 0 0 0 0 0 0 0 0 0 0 0 0 0 0 0 0 0 0 0 0 0 0 0 0 0 0 0 0 0 0 0 0 0 0 0 0 0 0 0 0 0 0 0 0 0 0 0 0 0 0 0 0 0 0 0 0 0 0 0 0 0 0 0 0 0 0 0 0 0 0 0 0 0 0 0 0 0 0 0 0 0 )   	%  0.20 kg/m2  0.02 kg/m2
	  ( 0 0 0.0211 0.1544 0.3367 0.3422 0.1378 0.0078 0 0 0 0 0 0 0 0 0 0 0 0 0 0 0 0 0 0 0 0 0 0 0 0 0 0 0 0 0 0 0 0 0 0 0 0 0 0 0 0 0 0 0 0 0 0 0 0 0 0 0 0 0 0 0 0 0 0 0 0 0 0 0 0 0 0 0 0 0 0 0 0 0 0 0 0 0 0 0 0 0 0 0 0 0 0 0 0 0 0 0 0 )   	%  0.20 kg/m2  0.04 kg/m2
	  ( 0 0 0 0.0289 0.1711 0.3433 0.3311 0.1211 0.0044 0 0 0 0 0 0 0 0 0 0 0 0 0 0 0 0 0 0 0 0 0 0 0 0 0 0 0 0 0 0 0 0 0 0 0 0 0 0 0 0 0 0 0 0 0 0 0 0 0 0 0 0 0 0 0 0 0 0 0 0 0 0 0 0 0 0 0 0 0 0 0 0 0 0 0 0 0 0 0 0 0 0 0 0 0 0 0 0 0 0 0 )   	%  0.20 kg/m2  0.06 kg/m2
	  ( 0 0 0 0 0.0356 0.1889 0.3511 0.3167 0.1056 0.0022 0 0 0 0 0 0 0 0 0 0 0 0 0 0 0 0 0 0 0 0 0 0 0 0 0 0 0 0 0 0 0 0 0 0 0 0 0 0 0 0 0 0 0 0 0 0 0 0 0 0 0 0 0 0 0 0 0 0 0 0 0 0 0 0 0 0 0 0 0 0 0 0 0 0 0 0 0 0 0 0 0 0 0 0 0 0 0 0 0 0 )   	%  0.20 kg/m2  0.08 kg/m2
	  ( 0 0 0 0 0 0.0444 0.2067 0.36 0.2978 0.09 0.0011 0 0 0 0 0 0 0 0 0 0 0 0 0 0 0 0 0 0 0 0 0 0 0 0 0 0 0 0 0 0 0 0 0 0 0 0 0 0 0 0 0 0 0 0 0 0 0 0 0 0 0 0 0 0 0 0 0 0 0 0 0 0 0 0 0 0 0 0 0 0 0 0 0 0 0 0 0 0 0 0 0 0 0 0 0 0 0 0 0 )   	%  0.20 kg/m2  0.10 kg/m2
	  ( 0 0 0 0 0 0 0.0533 0.2256 0.3633 0.2811 0.0767 0 0 0 0 0 0 0 0 0 0 0 0 0 0 0 0 0 0 0 0 0 0 0 0 0 0 0 0 0 0 0 0 0 0 0 0 0 0 0 0 0 0 0 0 0 0 0 0 0 0 0 0 0 0 0 0 0 0 0 0 0 0 0 0 0 0 0 0 0 0 0 0 0 0 0 0 0 0 0 0 0 0 0 0 0 0 0 0 0 )   	%  0.20 kg/m2  0.12 kg/m2
