%%%%%%%%%%%%%%%%%%%%%%%%  M U N I N 4  %%%%%%%%%%%%%%%%%%%%%%%%%
%% Subset of the Munin network.
%%
%% @InCollection{andreassen:jensen:andersen:etal:89,
%%   author = 	"Andreassen, S. and Jensen, F.~V. and Andersen, S.~K. and
%%                  Falck, B. and Kj{\ae}rulff, U. and Woldbye, M. and
%%                  S{\o}rensen, A.~R. and Rosenfalck, A. and Jensen, F.",
%%   title = 	"{MUNIN} --- An Expert {EMG} Assistant",
%%   booktitle = "Computer-Aided Electromyography and Expert Systems",
%%   publisher = "Elsevier Science Publishers",
%%   address =	"Amsterdam",
%%   year =         1989,
%%   editor = 	"John E. Desmedt",
%%   chapter =      21
%% }

net
{
    node_size = (150 20);
}

node R_LNLW_MED_PATHO
{
    label = "R.LNLW.MED.PATHO";
    position = (10 680);
    states = ("DEMY" "BLOCK" "AXONAL" "V.E.REIN" "E.REIN");
}

node R_LNLW_MED_SEV
{
    label = "R.LNLW.MED.SEV";
    position = (10 780);
    states = ("NO" "MILD" "MOD" "SEV" "TOTAL");
}

node DIFFN_PATHO
{
    label = "DIFFN.PATHO";
    position = (10 930);
    states = ("DEMY" "BLOCK" "AXONAL" "V.E.REIN" "E.REIN");
}

node DIFFN_TIME
{
    label = "DIFFN.TIME";
    position = (10 880);
    states = ("ACUTE" "SUBACUTE" "CHRONIC" "OLD");
}

node R_LNLW_MED_TIME
{
    label = "R.LNLW.MED.TIME";
    position = (10 580);
    states = ("ACUTE" "SUBACUTE" "CHRONIC" "OLD");
}

node DIFFN_DISTR
{
    label = "DIFFN.DISTR";
    position = (10 1080);
    states = ("DIST" "PROX" "RANDOM");
}

node DIFFN_TYPE
{
    label = "DIFFN.TYPE";
    position = (10 1030);
    states = ("MOTOR" "MIXED" "SENS");
}

node DIFFN_SEV
{
    label = "DIFFN.SEV";
    position = (10 980);
    states = ("NO" "MILD" "MOD" "SEV");
}

node R_LNLE_ULN_PATHO
{
    label = "R.LNLE.ULN.PATHO";
    position = (10 1300);
    states = ("DEMY" "BLOCK" "AXONAL" "V.E.REIN" "E.REIN");
}

node R_LNLE_ULN_SEV
{
    label = "R.LNLE.ULN.SEV";
    position = (10 1400);
    states = ("NO" "MILD" "MOD" "SEV" "TOTAL");
}

node R_LNLE_ULN_TIME
{
    label = "R.LNLE.ULN.TIME";
    position = (10 1200);
    states = ("ACUTE" "SUBACUTE" "CHRONIC" "OLD");
}

node R_LNLPC5_AXIL_PATHO
{
    label = "R.LNLPC5.AXIL.PATHO";
    position = (10 820);
    states = ("DEMY" "BLOCK" "AXONAL" "V.E.REIN" "E.REIN");
}

node R_LNLPC5_AXIL_SEV
{
    label = "R.LNLPC5.AXIL.SEV";
    position = (10 880);
    states = ("NO" "MILD" "MOD" "SEV" "TOTAL");
}

node R_LNLPC5_AXIL_TIME
{
    label = "R.LNLPC5.AXIL.TIME";
    position = (10 760);
    states = ("ACUTE" "SUBACUTE" "CHRONIC" "OLD");
}

node R_LNL_ISCH_SEV
{
    label = "R.LNL.ISCH.SEV";
    position = (10 110);
    states = ("NO" "MILD" "MOD" "SEV" "TOTAL");
}

node L_LNLW_MED_PATHO
{
    label = "L.LNLW.MED.PATHO";
    position = (10 680);
    states = ("DEMY" "BLOCK" "AXONAL" "V.E.REIN" "E.REIN");
}

node L_LNLW_MED_SEV
{
    label = "L.LNLW.MED.SEV";
    position = (10 780);
    states = ("NO" "MILD" "MOD" "SEV" "TOTAL");
}

node L_LNLW_MED_TIME
{
    label = "L.LNLW.MED.TIME";
    position = (10 580);
    states = ("ACUTE" "SUBACUTE" "CHRONIC" "OLD");
}

node L_LNLE_ULN_PATHO
{
    label = "L.LNLE.ULN.PATHO";
    position = (10 1300);
    states = ("DEMY" "BLOCK" "AXONAL" "V.E.REIN" "E.REIN");
}

node L_LNLE_ULN_SEV
{
    label = "L.LNLE.ULN.SEV";
    position = (10 1400);
    states = ("NO" "MILD" "MOD" "SEV" "TOTAL");
}

node L_LNLE_ULN_TIME
{
    label = "L.LNLE.ULN.TIME";
    position = (10 1200);
    states = ("ACUTE" "SUBACUTE" "CHRONIC" "OLD");
}

node L_LNLPC5_AXIL_PATHO
{
    label = "L.LNLPC5.AXIL.PATHO";
    position = (10 820);
    states = ("DEMY" "BLOCK" "AXONAL" "V.E.REIN" "E.REIN");
}

node L_LNLPC5_AXIL_SEV
{
    label = "L.LNLPC5.AXIL.SEV";
    position = (10 880);
    states = ("NO" "MILD" "MOD" "SEV" "TOTAL");
}

node L_LNLPC5_AXIL_TIME
{
    label = "L.LNLPC5.AXIL.TIME";
    position = (10 760);
    states = ("ACUTE" "SUBACUTE" "CHRONIC" "OLD");
}

node L_LNL_ISCH_SEV
{
    label = "L.LNL.ISCH.SEV";
    position = (10 110);
    states = ("NO" "MILD" "MOD" "SEV" "TOTAL");
}

potential (R_MEDD2_BLOCK_EW | R_DIFFN_MEDD2_BLOCK R_LNLBE_MEDD2_BLOCK_EW)
{
    data =
	((( 1 0 0 0 0 )   	%  NO  NO
	  ( 0.0077 0.9923 0 0 0 )   	%  NO  MILD
	  ( 0.0007 0.0234 0.9759 0 0 )   	%  NO  MOD
	  ( 0.0019 0.006 0.0588 0.9333 0 )   	%  NO  SEV
	  ( 0 0 0 0 1 ))  	%  NO  TOTAL
	 (( 0.0077 0.9923 0 0 0 )   	%  MILD  NO
	  ( 0.0001 0.498 0.5019 0 0 )   	%  MILD  MILD
	  ( 0 0.0032 0.9968 0 0 )   	%  MILD  MOD
	  ( 0.001 0.0033 0.0376 0.9581 0 )   	%  MILD  SEV
	  ( 0 0 0 0 1 ))  	%  MILD  TOTAL
	 (( 0.0007 0.0234 0.9759 0 0 )   	%  MOD  NO
	  ( 0 0.0032 0.9968 0 0 )   	%  MOD  MILD
	  ( 0 0.0007 0.4328 0.5665 0 )   	%  MOD  MOD
	  ( 0.0003 0.0011 0.0159 0.9827 0 )   	%  MOD  SEV
	  ( 0 0 0 0 1 ))  	%  MOD  TOTAL
	 (( 0.0019 0.006 0.0588 0.9333 0 )   	%  SEV  NO
	  ( 0.001 0.0033 0.0376 0.9581 0 )   	%  SEV  MILD
	  ( 0.0003 0.0011 0.0159 0.9827 0 )   	%  SEV  MOD
	  ( 0.0003 0.0011 0.0125 0.986 0 )   	%  SEV  SEV
	  ( 0 0 0 0 1 ))  	%  SEV  TOTAL
	 (( 0 0 0 0 1 )   	%  TOTAL  NO
	  ( 0 0 0 0 1 )   	%  TOTAL  MILD
	  ( 0 0 0 0 1 )   	%  TOTAL  MOD
	  ( 0 0 0 0 1 )   	%  TOTAL  SEV
	  ( 0 0 0 0 1 )));	%  TOTAL  TOTAL
}

potential (R_MEDD2_DISP_EWD | R_MEDD2_DISP_WD R_MEDD2_DISP_EW)
{
    data =
	((( 0 0 0.0742 0.9045 0.0213 0 0 0 0 )   	%  NO  NO
	  ( 0.0001 0.2215 0.7732 0.0052 0 0 0 0 0 )   	%  NO  MILD
	  ( 0.1315 0.8577 0.0108 0 0 0 0 0 0 )   	%  NO  MOD
	  ( 0.9933 0.0067 0 0 0 0 0 0 0 ))  	%  NO  SEV
	 (( 0 0 0 0 0.0742 0.9045 0.0213 0 0 )   	%  MILD  NO
	  ( 0 0 0 0.1315 0.8576 0.0108 0 0 0 )   	%  MILD  MILD
	  ( 0 0 0.0742 0.9045 0.0213 0 0 0 0 )   	%  MILD  MOD
	  ( 0.0404 0.9192 0.0404 0 0 0 0 0 0 ))  	%  MILD  SEV
	 (( 0 0 0 0 0 0 0 0.133 0.867 )   	%  MOD  NO
	  ( 0 0 0 0 0 0 0.0108 0.8577 0.1315 )   	%  MOD  MILD
	  ( 0 0 0 0 0 0.0052 0.7732 0.2215 0.0001 )   	%  MOD  MOD
	  ( 0 0 0.0213 0.9045 0.0742 0 0 0 0 ))  	%  MOD  SEV
	 (( 0 0 0 0 0 0 0 0.133 0.867 )   	%  SEV  NO
	  ( 0 0 0 0 0 0 0.0108 0.8577 0.1315 )   	%  SEV  MILD
	  ( 0 0 0 0 0 0.0052 0.7732 0.2215 0.0001 )   	%  SEV  MOD
	  ( 0 0 0.0213 0.9045 0.0742 0 0 0 0 )));	%  SEV  SEV
}

potential (R_MEDD2_CV_EW | R_MEDD2_ALLCV_EW)
{
    data =
	(( 0 0 0 0 0 0 0 0 0 0 0 0 0.0012 0.0172 0.1126 0.2484 0.321 0.1935 0.0803 0.0258 )  	%  M/S60
	 ( 0 0 0 0 0 0 0 0 0 0 0.001 0.0149 0.0996 0.2262 0.2934 0.2262 0.102 0.0289 0.0065 0.0014 )  	%  M/S52
	 ( 0 0 0 0 0 0 0 0 0.0025 0.0317 0.1445 0.2639 0.2925 0.167 0.0669 0.0245 0.0054 0.0009 0.0001 0 )  	%  M/S44
	 ( 0 0 0 0 0 0 0.0005 0.0189 0.1567 0.3371 0.2862 0.1429 0.0465 0.0095 0.0014 0.0003 0 0 0 0 )  	%  M/S36
	 ( 0 0 0 0 0 0.0105 0.1565 0.3779 0.3007 0.1252 0.0245 0.0042 0.0005 0.0001 0 0 0 0 0 0 )  	%  M/S28
	 ( 0 0 0 0.0045 0.1674 0.4536 0.2834 0.0774 0.0118 0.0017 0.0002 0 0 0 0 0 0 0 0 0 )  	%  M/S20
	 ( 0 0 0.0109 0.4228 0.4446 0.1066 0.0137 0.0012 0.0001 0 0 0 0 0 0 0 0 0 0 0 )  	%  M/S14
	 ( 0 0.0199 0.8041 0.1629 0.0125 0.0006 0 0 0 0 0 0 0 0 0 0 0 0 0 0 )  	%  M/S08
	 ( 1 0 0 0 0 0 0 0 0 0 0 0 0 0 0 0 0 0 0 0 ));	%  M/S00
}

potential (R_MEDD2_ALLCV_EW | R_MEDD2_LSLOW_EW R_MEDD2_DSLOW_EW)
{
    data =
	((( 1 0 0 0 0 0 0 0 0 )   	%  NO  M/S60
	  ( 0.0305 0.9673 0.0023 0 0 0 0 0 0 )   	%  NO  M/S52
	  ( 0.0004 0.0619 0.8882 0.0496 0 0 0 0 0 )   	%  NO  M/S44
	  ( 0 0.0001 0.0655 0.9082 0.0262 0 0 0 0 )   	%  NO  M/S36
	  ( 0 0 0.0001 0.0555 0.937 0.0074 0 0 0 )   	%  NO  M/S28
	  ( 0 0 0 0.0002 0.0491 0.8863 0.0644 0 0 )   	%  NO  M/S20
	  ( 0 0 0 0 0.0003 0.0956 0.8967 0.0075 0 )   	%  NO  M/S14
	  ( 0.0002 0.0006 0.0019 0.0064 0.0247 0.0974 0.2855 0.5832 0 )   	%  NO  M/S08
	8 0.3238 0.4596 0.1212 0.0003 0 )   	%  SEV  M/S60
	  ( 0.0001 0.0004 0.0043 0.0321 0.1956 0.5049 0.2604 0.0023 0 )   	%  SEV  M/S52
	  ( 0 0.0001 0.0007 0.0074 0.0735 0.4044 0.4938 0.0201 0 )   	%  SEV  M/S44
	  ( 0 0 0.0001 0.001 0.0172 0.2179 0.6479 0.1159 0 )   	%  SEV  M/S36
	  ( 0 0 0 0.0001 0.0018 0.0559 0.4601 0.4822 0 )   	%  SEV  M/S28
	  ( 0 0 0 0 0.0001 0.0041 0.1033 0.8925 0 )   	%  SEV  M/S20
	  ( 0 0 0 0 0 0.0003 0.0194 0.9803 0 )   	%  SEV  M/S14
	  ( 0 0 0.0001 0.0004 0.0026 0.019 0.1153 0.8626 0 )   	%  SEV  M/S08
	  ( 0 0 0 0 0 0 0 0 1 ))  	%  SEV  M/S00
	 (( 0 0 0.0001 0.0005 0.0041 0.0384 0.2145 0.7423 0 )   	%  V.SEV  M/S60
	  ( 0 0 0 0.0002 0.0021 0.0239 0.1648 0.8089 0 )   	%  V.SEV  M/S52
	  ( 0 0 0 0.0001 0.0008 0.0123 0.1119 0.8749 0 )   	%  V.SEV  M/S44
	  ( 0 0 0 0 0.0003 0.0055 0.0699 0.9243 0 )   	%  V.SEV  M/S36
	  ( 0 0 0 0 0.0001 0.0021 0.039 0.9588 0 )   	%  V.SEV  M/S28
	  ( 0 0 0 0 0 0.0007 0.0189 0.9805 0 )   	%  V.SEV  M/S20
	  ( 0 0 0 0 0 0.0002 0.0093 0.9905 0 )   	%  V.SEV  M/S14
	  ( 0 0 0 0.0001 0.0006 0.0062 0.0562 0.9369 0 )   	%  V.SEV  M/S08
	  ( 0 0 0 0 0 0 0 0 1 )));	%  V.SEV  OTAL
	 (( 0 0 0 0.3192 0.6448 0.036 )   	%  MILD  NO
	  ( 0 0 0.0474 0.9394 0.0129 0.0002 )   	%  MILD  MILD
	  ( 0 0 0.933 0.0669 0 0 )   	%  MILD  MOD
	  ( 0 0.8756 0.1237 0.0007 0 0 )   	%  MILD  SEV
	  ( 1 0 0 0 0 0 ))  	%  MILD  TOTAL
	 (( 0 0 0.0051 0.994 0.0009 0 )   	%  MOD  NO
	  ( 0 0 0.9599 0.0401 0 0 )   	%  MOD  MILD
	  ( 0 0.0001 0.9994 0.0005 0 0 )   	%  MOD  MOD
	  ( 0 0.9969 0.0031 0 0 0 )   	%  MOD  SEV
	  ( 1 0 0 0 0 0 ))  	%  MOD  TOTAL
	 (( 0 0 0.9945 0.0055 0 0 )   	%  SEV  NO
	  ( 0 0 0.9999 0.0001 0 0 )   	%  SEV  MILD
	  ( 0 0.7508 0.2492 0 0 0 )   	%  SEV  MOD
	  ( 0 0.9999 0.0001 0 0 0 )   	%  SEV  SEV
	  ( 1 0 0 0 0 0 )));	%  SEV  TOTAL
}

potential (R_MEDD2_CV_WD | R_MEDD2_ALLCV_WD)
{
    data =
	(( 0 0 0 0 0 0 0 0 0 0 0 0.0002 0.0109 0.0984 0.3166 0.3532 0.1749 0.0403 0.0056 )  	%  M/S60
	 ( 0 0 0 0 0 0 0 0 0 0.0002 0.0085 0.0768 0.2811 0.3323 0.2012 0.0816 0.0161 0.0021 0.0002 )  	%  M/S52
	 ( 0 0 0 0 0 0 0 0.0937 0.0074 0 0 0 )   	%  NO  M/S28
	  ( 0 0 0 0.0002 0.0491 0.8863 0.0644 0 0 )   	%  NO  M/S20
	  ( 0 0 0 0 0.0003 0.0956 0.8967 0.0075 0 )   	%  NO  M/S14
	  ( 0.0002 0.0006 0.0019 0.0064 0.0247 0.0974 0.2855 0.5832 0 )   	%  NO  M/S08
	  ( 0 0 0 0 0 0 0 0 1 ))  	%  NO  M/S00
	 (( 0.0236 0.2579 0.6404 0.0781 0.0001 0 0 0 0 )   	%  MILD  M/S60
	  ( 0.0017 0.0421 0.4597 0.4852 0.0113 0 0 0 0 )   	%  MILD  M/S52
	  ( 0 0.0019 0.0749 0.5694 0.3532 0.0005 0 0 0 )   	%  MILD  M/S44
	  ( 0 0 0.0022 0.1051 0.8251 0.0675 0 0 0 )   	%  MILD  M/S36
	  ( 0 0 0 0.0022 0.17 0.8062 0.0215 0 0 )   	%  MILD  M/S28
	  ( 0 0 0 0 0.0022 0.2338 0.7621 0.002 0 )   	%  MILD  M/S20
	  ( 0 0 0 0 0 0.0101 0.4895 0.5005 0 )   	%  MILD  M/S14
	  ( 0.0001 0.0002 0.0007 0.0026 0.0117 0.0585 0.2222 0.704 0 )   	%  MILD  M/S08
	  ( 0 0 0 0 0 0 0 0 1 ))  	%  MILD  M/S00
	 (( 0 0.0021 0.1149 0.7277 0.1553 0 0 0 0 )   	%  MOD  M/0.0033 0.0376 0.9581 0 )   	%  SEV  MILD
	  ( 0.0003 0.0011 0.0159 0.9827 0 )   	%  SEV  MOD
	  ( 0.0003 0.0011 0.0125 0.986 0 )   	%  SEV  SEV
	  ( 0 0 0 0 1 ))  	%  SEV  TOTAL
	 (( 0 0 0 0 1 )   	%  TOTAL  NO
	  ( 0 0 0 0 1 )   	%  TOTAL  MILD
	  ( 0 0 0 0 1 )   	%  TOTAL  MOD
	  ( 0 0 0 0 1 )   	%  TOTAL  SEV
	  ( 0 0 0 0 1 )));	%  TOTAL  TOTAL
}

potential (R_MED_CV_EW | R_MED_ALLCV_EW)
{
    data =
	(( 0 0 0 0 0 0 0 0 0 0 0 0.0006 0.0168 0.1184 0.296 0.3227 0.1783 0.056 0.0112 )  	%  M/S60
	 ( 0 0 0 0 0 0 0 0 0 0.0001 0.0005 0.0155 0.1165 0.2969 0.3229 0.1782 0.0564 0.0114 0.0016 )  	%  M/S56
	 ( 0 0 0 0 0 0 0 0 0 0.0006 0.0039 0.0589 0.2434 0.3586 0.235 0.0808 0.0164 0.0022 0.0002 )  	%  M/S52
	 ( 0 0 0 0 0 0 0 0.0007 0.0176 0.1966 0.2515 0.2699 0.1688 0.069 0.0203 0.0046 0.0009 0.0001 0 )  	%  M/S44
	 ( 0 0 0 0 0 0 0.0056 0.09 0.3056 0.3093 0.2039 0.0673 0.0152 0.0026 0.0004 0 0 0 0 )  	%  M/S36
	 ( 0 0 0 0 0.0006 0.0496 0.2972 0.4059 0.2097 0.0258 0.0098 0.0013 0.0001 0 0 0 0 0 0 )  	%  M/S28
	 ( 0 0 0 0.0179 0.2946 0.447 0.1902 0.0434 0.0066 0.0003 0.0001 0 0 0 0 0 0 0 0 )  	%  M/S20
	 ( 0 0 0.0265 0.5431 0.3624 0.0622 0.0054 0.0004 0 0 0 0 0 0 0 0 0 0 0 )  	%  M/S14
	 ( 0 0.1265 0.7654 0.1006 0.007 0.0004 0 0 0 0 0 0 0 0 0 0 0 0 0 )  	%  M/S08
	 ( 0.9999 0.0001 0 0 0 0 0 0 0 0 0 0 0 0 0 0 0 0 0 ));	%  M/S00
}

potential (R_MED_ALLCV_EW | R_MED_DCV_EW R_MED_RDLDCV_EW)
{
    data =
	((( 1 0 0 0 0 0 0 0 0 0 )   	%  M/S60  M/S60
	  ( 0.0066 0.1455 0.838 0.0098 0 0 0 0 0 0 )   	%  M/S60  M/S52
	  ( 0 0 0.0047 0.9951 0.0002 0 0 0 0 0 )   	%  M/S60  M/S44
	  ( 0 0 0 0 0 1 0 0 0 0 )   	%  M/S60  M/S27
	  ( 0 0 0 0 0 0.0012 0.1305 0.8445 0.0238 0 )   	%  M/S60  M/S15
	  ( 0 0 0 0 0 0 0.0002 0.0321 0.9677 0 ))  	%  M/S60  M/S07
	 (( 0.0699 0.8102 0.1199 0 0 0 0 0 0 0 )   	%  M/S56  M/S60
	  ( 0.0005 0.0239 0.4369 0.5387 0 0 0 0 0 0 )   	%  M/S56  M/S52
	  ( 0 0 0.0004 0.9005 0.0991 0 0 0 0 0 )   	%  M/S56  M/S44
	  ( 0 0 0 0 0 0.997 0.003 0 0 0 )   	%  M/S56  M/S27
	  ( 0 0 0 0 0 0.0004 0.074 0.8589 0.0667 0 )   	%  M/S56  M/S15
	  ( 0 0 0 0 0 0 0.0001 0.0184 0.9815 0 ))  	%  M/S56  M/S07
	 (( 0 0.0479 0.952 0 0 0 0 0 0 0 )   	%  M/S52  M/S60
	  ( 0 0.0003 0.0239 0.9748 0.001 0 0 0 0 0 )   	%  M/S52  M/S52
	  ( 0 0 0 0.1288 0.8712 0 0 0 0 0 )   	%  M/S52  M/S44
	  ( 0 0 0 0 0 0.2336 0.7664 0 0 0 )   	%  M/S52  M/S27
	  ( 0 0 0 0 0 0.0001 0.0373 0.8028 0.1597 0 )   	%  M/S52  M/S15
	  ( 0 0 0 0 0 0 0 0.0101 0.9898 0 ))  	%  M/S52  M/S07
	 (( 0.0009 0.009 0.0888 0.8187 0.0827 0 0 0 0 0 )   	%  M/S44  M/S60
	  ( 0 0.0002 0.0036 0.2467 0.7339 0.0156 0 0 0 0 )   	%  M/S44  M/S52
	  ( 0 0 0 0.0113 0.5711 0.4175 0 0 0 0 )   	%  M/S44  M/S44
	  ( 0 0 0 0 0 0.0026 0.9935 0.004 0 0 )   	%  M/S44  M/S27
	  ( 0 0 0 0 0 0 0.007 0.3517 0.6413 0 )   	%  M/S44  M/S15
	  ( 0 0 0 0 0 0 0 0.0042 0.9958 0 ))  	%  M/S44  M/S07
06 0.994 0 )   	%  M/S28  M/S15
	  ( 0 0 0 0 0 0 0 0.0003 0.9997 0 ))  	%  M/S28  M/S07
	 (( 0 0 0 0 0.0006 0.0734 0.8393 0.0867 0 0 )   	%  M/S20  M/S60
	  ( 0 0 0 0 0 0.0091 0.5283 0.4625 0 0 )   	%  M/S20  M/S52
	  ( 0 0 0 0 0 0.0004 0.143 0.8551 0.0015 0 )   	%  M/S20  M/S44
	  ( 0 0 0 0 0 0 0 0.0314 0.9686 0 )   	%  M/S20  M/S27
	  ( 0 0 0 0 0 0 0 0.0008 0.9992 0 )   	%  M/S20  M/S15
	  ( 0 0 0 0 0 0 0 0.0001 0.9999 0 ))  	%  M/S20  M/S07
	 (( 0 0 0 0 0 0.0003 0.0947 0.8945 0.0104 0 )   	%  M/S14  M/S60
	  ( 0 0 0 0 0 0 0.0216 0.8359 0.1425 0 )   	%  M/S14  M/S52
	  ( 0 0 0 0 0 0 0.002 0.3549 0.6432 0 )   	%  M/S14  M/S44
	  ( 0 0 02 0.0061 0.0026 0.001 0.0004 0.0001 0 0 0 )  	%  A0.01
	 ( 0 0.0135 0.0369 0.0794 0.1353 0.1818 0.1932 0.1622 0.1077 0.0564 0.0234 0.0076 0.002 0.0004 0.0001 0 0 )  	%  A0.10
	 ( 0 0 0.0001 0.0006 0.0036 0.0165 0.0535 0.1233 0.2013 0.2335 0.1922 0.1121 0.0465 0.0137 0.0028 0.0004 0 )  	%  A0.30
	 ( 0 0 0 0 0 0.0001 0.001 0.0069 0.0309 0.0926 0.1855 0.2496 0.225 0.1358 0.0549 0.0149 0.0027 )  	%  A0.70
	 ( 0 0 0 0 0 0 0 0.0003 0.0031 0.019 0.0723 0.1736 0.2622 0.2497 0.1497 0.0567 0.0133 )  	%  A1.00
	 ( 0 0 0 0 0 0 0 0 0.0002 0.0017 0.0093 0.0355 0.0964 0.186 0.2545 0.2471 0.1693 )  	%  A2.00
	 ( 0 0 0 0 0 0 0 0 0 0 0.0004 0.0029 0.0155 0.0599 0.1641 0.3182 0.439 )  	%  A4.00
	 ( 0 0 0 0 0 0 0 0 0 0 0 0.0001 0.0015 0.0115 0.0631 0.2445 0.6792 ));	%  A8.00
}

potential (R_APB_ALLAMP_WA | R_APB_EFFMUS R_APB_MULOSS)
{
    data =
	((( 0.0026 0.3687 0.6075 0.0208 0.0003 0 0 0 0 )   	%  V.SMALL  NO
	  ( 0.0409 0.8924 0.0661 0.0006 0 0 0 0 0 )   	%  V.SMALL  MILD
	  ( 0.0178 0.0001 0 0 0 0 )   	%  NORMAL  SEV
	  ( 0.9865 0.0135 0 0 0 0 0 0 0 )   	%  NORMAL  TOTAL
	  ( 0.0096 0.0788 0.2992 0.2816 0.1319 0.0873 0.0689 0.0313 0.0114 ))  	%  NORMAL  OTHER
	 (( 0 0 0 0 0.0018 0.0536 0.8696 0.075 0 )   	%  INCR  NO
	  ( 0 0 0 0.0042 0.3468 0.5348 0.1137 0.0004 0 )   	%  INCR  MILD
	  ( 0 0 0.018 0.6298 0.2744 0.0746 0.0032 0 0 )   	%  INCR  MOD
	  ( 0 0.0044 0.8111 0.1762 0.0073 0.0009 0 0 0 )   	%  INCR  SEV
	  ( 0.982 0.018 0 0 0 0 0 0 0 )   	%  INCR  TOTAL
	  ( 0.0026 0.0289 0.204 0.2657 0.1594 0.1199 0.119 0.0684 0.0319 ))  	%  INCR  OTHER
	 (( 0 0 0 0 0 0 0.0736 0.8528 0.0736 )   	%  LARGE  NO
	  ( 0 0 0 0 0.0064 0.0855 0.788 0.1197 0.0004 )   	%  LARGE  MILD
	  ( 0 0 0.0001 0.1046 0.4281 0.3568 0.1071 0.0032 0 )   	%  LARGE  MOD
	  ( 0 0.0001 0.413 0.4966 0.0719 0.0173 0.0012 0 0 )   	%  LARGE  SEV
	  ( 0.9779 0.0221 0 	  ( 0 0.0002 0.0048 0.504 0.4911 0 0 0 0 )   	%  MS3.9  M/S28
	  ( 0 0 0.0003 0.0188 0.9804 0.0005 0 0 0 )   	%  MS3.9  M/S20
	  ( 0 0 0 0 0.0494 0.9506 0 0 0 )   	%  MS3.9  M/S14
	  ( 0 0 0 0.0001 0.0034 0.299 0.6974 0 0 )   	%  MS3.9  M/S08
	  ( 0 0 0 0 0 0 0 0 1 ))  	%  MS3.9  M/S00
	 (( 0.0001 0.0035 0.0632 0.9326 0.0006 0 0 0 0 )   	%  MS4.7  M/S60
	  ( 0 0.0011 0.0283 0.9651 0.0055 0 0 0 0 )   	%  MS4.7  M/S52
	  ( 0 0.0002 0.0075 0.8889 0.1034 0 0 0 0 )   	%  MS4.7  M/S44
	  ( 0 0 0.0003 0.185 0.8146 0 0 0 0 )   	%  MS4.7  M/S36
	  ( 0 0 0 0.0032 0.9968 0 0 0 0 )   	%  MS4.7  M/S28
	  ( 0 0 0 0.0015 0.9313 0.0671 0 0 0 )   	%  MS4.7  M/S20
	  ( 0 0 0 0 0.001 0.999 0 0 0 )   	%  MS4.7  M/S14
	  ( 0 0 0 0 0.0007 0.1112 0.8881 0 0 )   	%  MS4.7  M/S08
	  ( 0 0 0 0 0 0 0 0 1 ))  	%  MS4.7  M/S00
	 (( 0.0013 0.002 0.0044 0.0187 0.1213 0.748 0.1044 0 0 )   	%  MS10.1  M/S60
	  ( 0.001 0.0016 0.0037 0.0161 0.1093 0.7421 0.1261 0 0 )   	%  MS10.1  M/S52
	  ( 0.0008 0.0012 0.0028 0.0125 0.0916 0.7236 0.1676 0 0 )   	%  MS10.1  M/S44
	  ( 0.0005 0.0008 0.0018 0.0087 0.0703 0.6803 0.2377 0 0 )   	%  MS10.1  M/S36
	  ( 0.0002 0.0004 0.0009 0.0047 0.044 0.5737 0.3761 0 0 )   	%  MS10.1  M/S28
	  ( 0.0001 0.0001 0.0002 0.0013 0.015 0.3152 0.6681 0 0 )   	%  MS10.1  M/S20
	  ( 0 0 0 0.0001 0.0017 0.0786 0.9196 0 0 )   	%  MS10.1  M/S14
	  ( 0 0 0 0 0.0001 0.0094 0.9593 0.0311 0 )   	%  MS10.1  M/S08
	  ( 0 0 0 0 0 0 0 0 1 ))  	%  MS10.1  M/S00
	 (( 0.0001 0.0001 0.0003 0.0009 0.0045 0.0434 0.5767 0.3739 0 )   	%  MS20.1  M/S60
	  ( 0.0001 0.0001 0.0002 0.0008 0.0041 0.0399 0.5568 0.398 0 )   	%  MS20.1  M/S52
	  ( 0.0001 0.0001 0.0002 0.0007 0.0034 0.0348 0.5239 0.4368 0 )   	%  MS20.1  M/S44
	  ( 0.0001 0.0001 0.0001 0.0005 0.0027 0.0287 0.4783 0.4895 0 )   	%  MS20.1  M/S36
	  ( 0 0 0.0001 0.0003 0.0018 0.021 0.4072 0.5695 0 )   	%  MS20.1  M/S28
	  ( 0 0 0 0.0001 0.0008 0.0111 0.2804 0.7074 0 )   	%  MS20.1  M/S20
	  ( 0 0 0 0 0.0002 0.0035 0.138 0.8583 0 )   	%  MS20.1  M/S14
	  ( 0 0 0 0 0 0.0003 0.0253 0.9743 0 )   	%  MS20.1  M/S08
	  ( 0 0 0 0 0 0 0 0 1 )));	%  MS20.1  M/S00
}

potential (R_APB_FORCE | R_APB_VOL_ACT R_APB_ALLAMP_WA)
{
    data =
	((( 0 0 0 0.0041 0.1908 0.8052 )   	%  NORMAL  ZERO
	  ( 0.0016 0.0186 0.0936 0.2679 0.3659 0.2525 )   	%  NORMAL  A0.01
	  ( 0.0149 0.2354 0.5331 0.2015 0.0149 0.0001 )   	%  NORMAL  A0.10
	  ( 0.1538 0.6493 0.1936 0.0033 0 0 )   	%  NORMAL  A0.30
	  ( 0.6667 0.3291 0.0042 0 0 0 )   	%  NORMAL  A0.70
	  ( 0.9468 0.0531 0 0 0 0 )   	%  NORMAL  A1.00
	  ( 0.9782 0.0218 0 0 0 0 )   	%  NORMAL  A2.00
	  ( 0.9971 0.0029 0 0 0 0 )   	%  NORMAL  A4.00
	  ( 0.9996 0.0004 0 0 0 0 ))  	%  NORMAL  A8.00
	 (( 0 0 0 0.001 0.0578 0.9412 )   	%  REDUCED  ZERO
	  ( 0.0002 0.0034 0.026 0.1312 0.3333 0.5059 )   	%  REDUCED  A0.01
	  ( 0.0009 0.0256 0.18 0.4308 0.3036 0.0591 )   	%  REDUCED  A0.10
	  ( 0.0098 0.1589 0.4714 003 0.0044 0.0446 0.2226 0.7281 )   	%  V.RED  A0.01
	  ( 0 0.0005 0.0128 0.1328 0.4061 0.4478 )   	%  V.RED  A0.10
	  ( 0.0001 0.0049 0.0751 0.3632 0.429 0.1277 )   	%  V.RED  A0.30
	  ( 0.0005 0.0273 0.2433 0.5013 0.2118 0.0157 )   	%  V.RED  A0.70
	  ( 0.0012 0.0602 0.3862 0.4542 0.0954 0.0027 )   	%  V.RED  A1.00
	  ( 0.0256 0.247 0.4838 0.2174 0.0256 0.0005 )   	%  V.RED  A2.00
	  ( 0.1171 0.4443 0. MOD
	  ( 0.9969 0.0031 )   	%  SMALL  SEV
	  ( 0.9984 0.0016 )   	%  SMALL  TOTAL
	  ( 0.8403 0.1597 ))  	%  SMALL  OTHER
	 (( 0.0209 0.9791 )   	%  NORMAL  NO
	  ( 0.5185 0.4815 )   	%  NORMAL  MILD
	  ( 0.9588 0.0412 )   	%  NORMAL  MOD
	  ( 0.9953 0.0047 )   	%  NORMAL  SEV
	  ( 0.9984 0.0016 )   	%  NORMAL  TOTAL
	  ( 0.6534 0.3466 ))  	%  NORMAL  OTHER
	 (( 0.009 0.991 )   	%  INCR  NO
	  ( 0.1087 0.8913 )   	%  INCR  MILD
	  ( 0.6377 0.3623 )   	%  INCR  MOD
	  ( 0.9518 0.0482 )   	%  INCR  SEV
	  ( 0.9975 0.0025 )   	%  INCR  TOTAL
	  ( 0.4689 0.5311 ))  	%  INCR  OTHER
	 (( 0.003 0.997 )   	%  LARGE  NO
	  ( 0.0278 0.9722 )   	%  LARGE  MILD
	  ( 0.2716 0.7284 )   	%  LARGE  MOD
	  ( 0.8234 0.1766 )   	%  LARGE  SEV
	  ( 0.9965 0.0035 )   	%  LARGE  TOTAL
	  ( 0.3174 0.6826 ))  	%  LARGE  OTHER
	 (( 0.0004 0.9996 )   	%  V.LARGE  NO
	  ( 0.0046 0.9954 )   	%  V.LARGE  MILD
	  ( 0.0779 0.9221 )   	%  V.LARGE  MOD
	  ( 0.5986 0.4014 )   	%  V.LARGE  SEV
	  ( 0.9956 0.0044 )   	%  V.LARGE  TOTAL
	  ( 0.1948 0.8052 ))  	%  V.LARGE  OTHER
	 (( 0.4212 0.5788 )   	%  OTHER  NO
	  ( 0.5185 0.4815 )   	%  OTHER  MILD
4 0.9373 0 0.02 )   	%  SEV  NO
	  ( 0 0 0.005 0.975 0 0.02 )   	%  SEV  MILD
	  ( 0 0 0.0014 0.9786 0 0.02 )   	%  SEV  MOD
	  ( 0 0 0.0005 0.9795 0 0.02 )   	%  SEV  SEV
	  ( 0 0 0 0 0.98 0.02 ))  	%  SEV  TOTAL
	 (( 0 0 0 0 0.98 0.02 )   	%  TOTAL  NO
	  ( 0 0 0 0 0.98 0.02 )   	%  TOTAL  MILD
	  ( 0 0 0 0 0.98 0.02 )   	%  TOTAL  MOD
	  ( 0 0 0 0 0.98 0.02 )   	%  TOTAL  SEV
	  ( 0 0 0 0 0.98 0.02 )));	%  TOTAL  TOTAL
}

potential (R_APB_MUSIZE | R_MYOP_MYDY_APB_MUSIZE R_LNL_DIFFN_APB_MUSIZE)
{
    data =
	((( 0.9791 0.0009 0 0 0 0 0.02 )   	%  V.SMALL  V.SMALL
	  ( 0.9637 0.0163 0 0 0 0 0.02 )   	%  V.SMALL  SMALL
	  ( 0.9221 0.0578 0 0 0 0 0.02 )   	%  V.SMALL  NORMAL
	  ( 0.3979 0.5663 0.0155 0.0002 0 0 0.02 )   	%  V.SMALL  INCR
	  ( 0.0435 0.7319 0.193 0.0114 0.0002 0 0.02 )   	%  V.SMALL  LARGE
	  ( 0.0012 0.2317 0.5882 0.1474 0.0112 0.0002 0.02 ))  	%  V.SMALL  V.LARGE
	 (( 0.9637 0.0163 0 0 0 0 0.02 )   	%  SMALL  V.SMALL
	  ( 0.7493 0.2257 0.0049 0.0001 0 0 0.02
	  ( 0 0.0048 0.7523 0.2229 0 0.02 )   	%  MOD  MOD
	  ( 0 0 0.0091 0.9709 0 0.02 )   	%  MOD  SEV
	  ( 0 0 0 0 0.98 0.02 )   	%  MOD  TOTAL
	  ( 0.0694 0.2011 0.4527 0.2569 0 0.02 ))  	%  MOD  OTHER
	 (( 0.016 0.1801 0.7138 0.0701 0 0.02 )   	%  SEV  NO
	  ( 0.0009 0.0263 0.4192 0.5336 0 0.02 )   	%  SEV  MILD
	  ( 0 0.0013 0.0637 0.9149 0 0.02 )   	%  SEV  MOD
	  ( 0 0.0001 0.0087 0.9712 0 0.02 )   	%  SEV  SEV
	  ( 0 0 0 0 0.98 0.02 )   	%  SEV  TOTAL
	  ( 0.0173 0.0696 0.2854 0.6077 0 0.02 ))  	%  SEV  OTHER
	 (( 0 0 0 0 0.98 0.02 )   	%  TOTAL  NO
	  ( 0 0 0 0 0.98 0.02 )   	%  TOTAL  MILD
	  ( 0 0 0 0 0.98 0.02 )   	%  TOTAL  MOD
	  ( 0 0 0 0 0.98 0.02 )   	%  TOTAL  SEV
	  ( 0 0 0 0 0.98 0.02 )   	%  TOTAL  TOTAL
	  ( 0 0 0 0 0.98 0.02 )));	%  TOTAL  OTHER
}

potential (R_APB_MVA_AMP | R_APB_EFFMUS)
{
    data =
	(( 0 4 96 )  	%  V.SMALL
	 ( 1 15 84 )  	%  SMALL
	 ( 5 90 5 )  	%  NORMAL
	 ( 50 49 1 )  	%  INCR
	 ( 85 15 0 )  	%  LARGE
	 ( 96 4 0 )  	%  V.LARGE
	 ( 33 34 33 ));	%  OTHER
}

potential (R_APB_EFFMUS | R_APB_NMT R_APB_MUSIZE)
{
    data =
	((( 0.9683 0.0117 0 0 0 0 0.02 )   	%  NO  V.SMALL
	  ( 0.0164 0.9421 0.0215 0 0 0 0.02 )   	%  NO  SMALL
	  ( 0 0 0.9736 0.0063 0 0 0.02 )   	%  NO  NORMAL
	  ( 0 0 0.0082 0.9646 0.0072 0 0.02 )   	%  NO  INCR
	  ( 0 0 0 0.0072 0.9656 0.0072 0.02 )   	%  NO  LARGE
	  ( 0 0 0 0 0.0072 0.9728 0.02 )   	%  NO  V.LARGE
	  ( 0.1111 0.2284 0.2388 0.1875 0.1354 0.0788 0.02 ))  	%  NO  OTHER
	 (( 0.9794 0.0006 0 0 0 0 0.02 )   	%  MOD.PRE  V.SMALL
	  ( 0.8182 0.1616 0.0002 0 0 0 0.02 )   	%  MOD.PRE  SMALL
	  ( 0.0007 0.9403 0.0389 0 0 0 0.02 )   	%  MOD.PRE  NORMAL
	  ( 0 0.0571 0.8829 0.04 0 0 0.02 )   	%  MOD.PRE  INCR
	  ( 0 0.0001 0.3198 0.6276 0.0325 0 0.02 )   	%  MOD.PRE  LARGE
	  ( 0 0 0.0034 0.2908 0.6521 0.0337 0.02 )   	%  MOD.PRE  V.LARGE
	  ( 0.2427 0.3049 0.2069 0.1246 0.0695 0.0315 0.02 ))  	%  MOD.PRE  OTHER
	 (( 0.9799 0.0001 0 0 0 0 0.02 )   	%  SEV.PRE  V.SMALL
	  ( 0.9738 0.0062 0 0 0 0 0.02 )   	%  SEV.PRE  SMALL
	  ( 0.7833 0.1966 0.0001 0 0 0 0.02 )   	%  SEV.PRE  NORMAL
	  ( 0.0541 0.9055 0.0203 0.0001 0 0 0.02 )   	%  SEV.PRE  INCR
	  ( 0.0004 0.4664 0.4912 0.0219 0.0001 0 0.02 )   	%  SEV.PRE  LARGE
	  ( 0 0.0127 0.6265 0.3243 0.0166 0.0001 0.02 )   	%  SEV.PRE  V.LARGE
	  ( 0.4236 0.3196 0.1381 0.0628 0.0267 0.0092 0.02 ))  	%  SEV.PRE  OTHER
	 (( 0.9742 0.0058 0 0 0 0 0.02 )   	%  MLD.POST  V.SMALL
	  ( 0.0329 0.9359 0.0112 0 0 0 0.02 )   	%  MLD.POST  SMALL
	  ( 0 0.0001 0.9784 0.0016 0 0 0.02 )   	%  MLD.POST  NORMAL
	  ( 0 0 0.0326 0.9456 0.0017 0 0.02 )   	%  MLD.POST  INCR
	  ( 0 0 0 0.0287 0.9496 0.0017 0.02 )   	%  MLD.POST  LARGE
	  ( 0 0 0 0 0.0287 0.9513 0.02 )   	%  MLD.POST  V.LARGE
	  ( 0.1227 0.2392 0.2382 0.1813 0.127 0.0716 0.02 ))  	%  MLD.POST  OTHER
	 (( 0.9789 0.0011 0 0 0 0 0.02 )   	%  MOD.POST  V.SMALL
	  ( 0.3885 0.59 0.0015 0 0 0 0.02 )   	%  MOD.POST  SMALL
	  ( 0 0.3781 0.6016 0.0003 0 0 0.02 )   	%  MOD.POST  NORMAL
	  ( 0 0 0.7931 0.1868 0.0001 0 0.02 )   	%  MOD.POST  INCR
	  ( 0 0 0.0071 0.7665 0.2063 0.0001 0.02 )   	%  MOD.POST  LARGE
	  ( 0 0 0 0.0062 0.7673 0.2065 0.02 )   	%  MOD.POST  V.LARGE
	  ( 0.1777 0.2777 0.2275 0.1535 0.0956 0.0481 0.02 ))  	%  MOD.POST  OTHER
	 (( 0.9799 0.0001 0 0 0 0 0.02 )   	%  SEV.POST  V.SMALL
	  ( 0.9362 0.0438 0 0 0 0 0.02 )   	%  SEV.POST  SMALL
	  ( 0.0115 0.9654 0.0032 0 0 0 0.02 )   	%  SEV.POST  NORMAL
	  ( 0 0.439 0.5362 0.0048 0 0 0.02 )   	%  SEV.POST  INCR
	  ( 0 0.0015 0.7018 0.2738 0.0028 0 0.02 )   	%  SEV.POST  LARGE
	  ( 0 0 0.0384 0.6492 0.2895 0.003 0.02 )   	%  SEV.POST  V.LARGE
	  ( 0135 0.0381 0.0835 0.1425 0.1895 0.1963 0.1583 0.0994 0.0486 0.0185 0.0055 0.0013 0.0002 0 0 0 0 0 )  	%  V.SMALL
	 ( 0 0.0001 0.0008 0.0037 0.0135 0.0381 0.0835 0.1425 0.1895 0.1963 0.1583 0.0994 0.0486 0.0185 0.0055 0.0013 0.0002 0 0 0 )  	%  SMALL
	 ( 0 0 0 0 0 0.0005 0.0037 0.0187 0.0639 0.1475 0.2302 0.2431 0.1737 0.084 0.0275 0.0061 0.0009 0.0001 0 0 )  	%  NORMAL
	 ( 0 0 0 0 0 0.0001 0.0008 0.0037 0.0135 0.0381 0.0835 0.1426 0.1896 0.1963 0.1583 0.0995 0.0487 0.0185 0.0055 0.0013 )  	%  INCR
	 ( 0 0 0 0 0 0 0 0.0001 0.0008 0.0038 0.0136 0.0383 0.0841 0.1435 0.1909 0.1977 0.1594 0.1001 0.049 0.0187 )  	%  LARGE
	 ( 0 0 0 0 0 0 0 0 0 0.0001 0.0006 0.0024 0.0082 0.0232 0.0542 0.1041 0.1645 0.2137 0.2283 0.2007 )  	%  V.LARGE
	 ( 0.0045 0.0078 0.0127 0.0197 0.0289 0.0403 0.0531 0.0664 0.0787 0.0883 0.0939 0.0946 0.0903 0.0817 0.07 0.0569 0.0438 0.0319 0.0221 0.0144 ));	%  OTHER
}

potential (R_APB_MUPAMP | R_APB_EFFMUS)
{
  46.5 47.4 )   	%  YES  INCR
	  ( 3.9 39.6 56.5 )   	%  YES  LARGE
	  ( 1.5 26.1 72.4 )   	%  YES  V.LARGE
	  ( 1.5 26.1 72.4 )));	%  YES  OTHER
}

potential (R_APB_MUPSATEL | R_APB_DE_REGEN)
{
    data =
	(( 95 5 )  	%  NO
	 ( 20 80 ));	%  YES
}

potential (R_APB_DE_REGEN | R_LNL_DIFFN_APB_DE_REGEN R_MYOP_MYDY_APB_DE_REGEN)
{
    data =
	((( 1 0 )   	%  NO  NO
	  ( 0 1 ))  	%  NO  YES
	 (( 0 1 )   	%  YES  NO
	  ( 0 1 )));	%  YES  YES
}

potential (R_APB_MUPINSTAB | R_APB_NMT)
{
    data =
	(( 95 5 )  	%  NO
	 ( 10 90 )  	%  MOD.PRE
	 ( 3 97 )  	%  SEV.PRE
	 ( 20 80 )  	%  MLD.POST
	 ( 10 90 )  	%  MOD.POST
	 ( 3 97 )  	%  SEV.POST
	 ( 10 90 ));	%  MIXED
}

potential (R_APB_NMT | R_DE_REGEN_APB_NMT R_MYAS_APB_NMT)
{
    data =
	((( 1 0 0 0 0 0 0 )   	%  NO  NO
	  ( 0 1 0 0 0 0 0 )   	%  NO  MOD.PRE
	  ( 0 0 1 0 0 0 0 )   	%  NO  SEV.PRE
	  ( 0 0 0 1 0 0 0 )   	%  NO  MLD.POST
	  ( 0 0 0 0 1 0 0 )   	%  NO  MOD.POST
	  ( 0 0 0 0 0 1 0 )   	%  NO  SEV.POST
	  ( 0 0 0 0 0 0 1 ))  	%  NO  MIXED
	 (( 0 1 0 0 0 0 0 )   	%  MOD.PRE  NO
	  ( 0 0 1 0 0 0 0 )   	%  MOD.PRE  MOD.PRE
	  ( 0 0 1 0 0 0 0 )   	%  MOD.PRE  SEV.PRE
	  ( 0 0 0 0 0 0 1 )   	%  MOD.PRE  MLD.POST
	  ( 0 0 0 0 0 0 1 )   	%  MOD.PRE  MOD.POST
	  ( 0 0 0 0 0 0 1 )   	%  MOD.PRE  SEV.POST
	  ( 0 0 0 0 0 0 1 ))  	%  MOD.PRE  MIXED
	 (( 0 0 1 0 0 0 0 )   	%  SEV.PRE  NO
	  ( 0 0 1 0 0 0 0 )   	%  SEV.PRE  MOD.PRE
	  ( 0 0 1 0 0 0 0 )   	%  SEV.PRE  SEV.PRE
	  ( 0 0 0 0 0 0 1 )   	%  SEV.PRE  MLD.POST
	  ( 0 0 0 0 0 0 1 )   	%  SEV.PRE  MOD.POST
	  ( 0 0 0 0 0 0 1 )   	%  SEV.PRE  SEV.POST
	  ( 0 0 0 0 0 0 1 ))  	%  SEV.PRE  MIXED
	 (( 0 0 0 1 0 0 0 )   	%  MLD.POST  NO
	  ( 0 0 0 0 0 0 1 )   	%  MLD.POST  MOD.PRE
	  ( 0 0 0 0 0 0 1 )   	%  MLD.POST  SEV.PRE
	  ( 0 0 0 0 1 0 0 )   	%  MLD.POST  MLD.POST
	  ( 0 0 0 0 1 0 0 )   	%  MLD.POST  MOD.POST
	  ( 0 0 0 0 0 1 0 )   	%  MLD.POST  SEV.POST
	  ( 0 0 0 0 0 0 1 ))  	%  MLD.POST  MIXED
	 (( 0 0 0 0 1 0 0 )   	%  MOD.POST  NO
	  ( 0 0 0 0 0 0 1 )   	%  MOD.POST  MOD.PRE
	  ( 0 0 0 0 0 0 1 )   	%  MOD.POST  SEV.PRE
	  ( 0 0 0 0 1 0 0 )   	%  MOD.POST  MLD.POST
	  ( 0 0 0 0 0 1 0 )   	%  MOD.POST  MOD.POST
	  ( 0 0 0 0 0 1 0 )   	%  MOD.POST  SEV.POST
	  ( 0 0 0 0 0 0 1 ))  	%  MOD.POST  MIXED
	 (( 0 0 0 0 0 1 0 )   	%  SEV.POST  NO
	  ( 0 0 0 0 0 0 1 )   	%  SEV.POST  MOD.PRE
	  ( 0 0 0 0 0 0 1 )   	%  SEV.POST  SEV.PRE
	  ( 0 0 0 0 0 1 0 )   	%  SEV.POST  MLD.POST
	  ( 0 0 0 0 0 1 0 )   	%  SEV.POST  MOD.POST
	  ( 0 0 0 0 0 1 0 )   	%  SEV.POST  SEV.POST
	  ( 0 0 0 0 0 0 1 ))  	%  SEV.POST  MIXED
	 (( 0 0 0 0 0 0 1 )   	%  MIXED  NO
	  ( 0 0 0 0 0 0 1 )   	%  MIXED  MOD.PRE
	  ( 0 0 0 0 0 0 1 )   	%  MIXED  SEV.PRE
	  ( 0 0 0 0 0 0 1 )   	%  MIXED  MLD.POST
	  ( 0 0 0 0 0 0 1 )   	%  MIXED  MOD.POST
	  ( 0 0 0 0 0 0 1 )   	%  MIXED  SEV.POST
	  ( 0 0 0 0 0 0 1 )));	%  MIXED  MIXED
}

potential (R_APB_REPSTIM_CMAPAMP | R_APB_ALLAMP_WA)
{
    data =
	(( 1 0 0 0 0 0 0 0 0 0 0 0 0 0 0 0 0 0 0 0 0 )  	%  ZERO
	 ( 	(( 94.9 2 1 0.1 2 )  	%  NO
	 ( 4 20 70 4 2 )  	%  MOD.PRE
	 ( 0.1 1 4 92.9 2 )  	%  SEV.PRE
	 ( 35 57 5 1 2 )  	%  MLD.POST
	 ( 2 10 80 6 2 )  	%  MOD.POST
	 ( 0.1 1 4 92.9 2 )  	%  SEV.POST
	 ( 24.5 24.5 24.5 24.5 2 ));	%  MIXED
}

potential (R_APB_REPSTIM_FACILI | R_APB_NMT)
{
    data =
	(( 95 2 1 2 )  	%  NO
	 ( 1 88.9 10 0.1 )  	%  MOD.PRE
	 ( 1 8 90.9 0.1 )  	%  SEV.PRE
	 ( 89 8 1 2 )  	%  MLD.POST
	 ( 48 50 1 1 )  	%  MOD.POST
	 ( 2 94.9 3 0.1 )  	%  SEV.POST
	 ( 25 25 25 25 ));	%  MIXED
}

potential (R_APB_REPSTIM_POST_DECR | R_APB_NMT)
{
    data =
	(( 94.9 2 1 0.1 2 )  	%  NO
	 ( 2 10 80 6 2 )  	%  MOD.PRE
	 ( 0.1 1 2 94.9 2 )  	%  SEV.PRE
	 ( 25 61 10 2 2 )  	%  MLD.POST
	 ( 1 10 80 7 2 )  	%  MOD.POST
	 ( 0.1 1 2 94.9 2 )  	%  SEV.POST
	 ( 23 23 22 22 10 ));	%  MIXED
}

potential (R_APB_SF_JITTER | R_APB_NMT)
{
    data =
	(( 95 5 0 0 )  	%  NO
	 ( 2 20 70 8 )  	%  MOD.PRE
	 ( 0 10 40 50 )  	%  SEV.PRE
	 ( 5 70 20 5 )  	%  MLD.POST
	 ( 1 19 70 10 )  	%  MOD.POST
	 ( 0 10 40 50 )  	%  SEV.POST
	 ( V  NO
	  ( 0 0 0 1 )   	%  SEV  MILD
	  ( 0 0 0 1 )   	%  SEV  MOD
	  ( 0 0 0 1 )));	%  SEV  SEV
}

potential (R_APB_SPONT_HF_DISCH | R_APB_DENERV)
{
    data =
	(( 99 1 )  	%  NO
	 ( 97 3 )  	%  MILD
	 ( 95 5 )  	%  MOD
	 ( 93 7 ));	%  SEV
}

potential (R_APB_SPONT_INS_ACT | R_APB_DENERV)
{
    data =
	(( 98 2 )  	%  NO
	 ( 10 90 )  	%  MILD
	 ( 5 95 )  	%  MOD
	 ( 5 95 ));	%  SEV
}

potential (R_MEDD2_DISP_EW | R_DIFFN_MEDD2_DISP R_LNLBE_MEDD2_DISP_EW)
{
    data =
	((( 1 0 0 0 )   	%  NO  NO
	  ( 0.0749 0.8229 0.1022 0 )   	%  NO  MILD
	  ( 0 0.0626 0.9373 0 )   	%  NO  MOD
	  ( 0 0.0079 0.6028 0.3892 ))  	%  NO  SEV
	 (( 0.0749 0.8229 0.1022 0 )   	%  MILD  NO
	  ( 0.0047 0.1786 0.8167 0 )   	%  MILD  MILD
	  ( 0 0.019 0.9795 0.0015 )   	%  MILD  MOD
	  ( 0 0.0001 0.0069 0.993 ))  	%  MILD  SEV
	 (( 0 0.0626 0.9373 0 )   	%  MOD  NO
	  ( 0 0.019 0.9795 0.0015 )   	%  MOD  MILD
	  ( 0 0.0001 0.0833 0.9166 )   	%  MOD  MOD
	  ( 0 0 0 1 ))  	%  MOD  SEV
	 (( 0 0.0079 0.6028 0.3892 )   	%  SEV  NO
	  ( 0 0.0001 0.0069 0.993 )   	%  SEV  MILD
	  ( 0 0 0 1 )   	%  SEV  MOD
	  ( 0 0 0 1 )));	%  SEV  SEV
}

potential (R_MEDD2_DISP_WD | R_DIFFN_LNLW_MEDD2_DISP_WD)
{
    data =
	(( 1 0 0 0 )  	%  NO
	 ( 0 1 0 0 )  	%  MILD
	 ( 0 0 1 0 )  	%  MOD
	 ( 0 0 0 1 ));	%  SEV
}

potential (R_MEDD2_EFFAXLOSS | R_MEDD2_BLOCK_WD R_MEDD2_SALOSS)
{
    data =
	((( 1 0 0 0 0 )   	%  NO  NO
	  ( 0.0073 0.9812 0.0115 0 0 )   	%  NO  MILD
	  ( 0.0017 0.1306 0.867 0.0007 0 )   	%  NO  MOD
	  ( 0 0.0003 0.0212 0.9785 0 )   	%  NO  SEV
	  ( 0 0 0 0 1 ))  	%  NO  TOTAL
	 (( 0.0073 0.9812 0.0115 0 0 )   	%  MILD  NO
	  ( 0 0.0289 0.9711 0 0 )   	%  MILD  MILD
	  ( 0 0.0097 0.5989 0.3914 0 )   	%  MILD  MOD
	  ( 0 0 0.0017 0.9983 0 )   	%  MILD  SEV
	  ( 0 0 0 0 1 ))  	%  MILD  TOTAL
	 (( 0.0017 0.1306 0.867 0.0007 0 )   	%  MOD  NO
	  ( 0 0.0097 0.5989 0.3914 0 )   	%  MOD  MILD
	  ( 0 0.0005 0.0331 0.9665 0 )   	%  MOD  MOD
	  ( 0 0 0.0008 0.9992 0 )   	%  MOD  SEV
	  ( 0 0 0 0 1 ))  	%  MOD  TOTAL
	 (( 0 0.0003 0.0212 0.9785 0 )   	%  SEV  NO
	  ( 0 0 0.0017 0.9983 0 )   	%  SEV  MILD
	  ( 0 0 0.0008 0.9992 0 )   	%  SEV  MOD
	  ( 0 0 0.0001 0.9999 0 )   	%  SEV  SEV
	  ( 0 0 0 0 1 ))  	%  SEV  TOTAL
	 (( 0 0 0 0 1 )   	%  TOTAL  NO
	  ( 0 0 0 0 1 )   	%  TOTAL  MILD
	  ( 0 0 0 0 1 )   	%  TOTAL  MOD
	  ( 0 0 0 0 1 )   	%  TOTAL  SEV
	  ( 0 0 0 0 1 )));	%  TOTAL  TOTAL
}

potential (R_MEDD2_DSLOW_WD | R_MEDD2_SALOSS R_MEDD2_DIFSLOW_WD)
{
    data =
	((( 1 0 0 0 0 0 0 0 0 )   	%  NO  NO
	  ( 0.0532 0.2387 0.495 0.2072 0.0059 0 0 0 0 )   	%  NO  MILD
	  ( 0.0007 0.0063 0.0614 0.3006 0.5524 0.0781 0.0005 0 0 )   	%  NO  MOD
	  ( 0.0003 0.0011 0.005 0.0205 0.087 0.2822 0.4514 0.1525 0 ))  	%  NO  SEV
	 (( 0.1036 0.8964 0 0 0 0 0 0 0 )   	%  MILD  NO
	  ( 0.0178 0.119 0.4481 0.3854 0.0296 0 0 0 0 )   	%  MILD  MILD
	  ( 0.0002 0.0021 0.0283 0.1995 0.5939 0.1737 0.0023 0 0 )   	%  MILD  MOD
	  ( 0.0002 0.0006 0.0029 0.0133 0.0634 0.2436 0.4657632 0.2785 0 ))  	%  MOD  SEV
	 (( 0.0001 0.0629 0.9278 0.0092 0 0 0 0 0 )   	%  SEV  NO
	  ( 0.0006 0.0092 0.116 0.4857 0.3835 0.0049 0 0 0 )   	%  SEV  MILD
	  ( 0 0.0001 0.0024 0.0374 0.3327 0.567 0.0603 0 0 )   	%  SEV  MOD
	  ( 0 0.0001 0.0007 0.0038 0.0243 0.1416 0.424 0.4054 0 ))  	%  SEV  SEV
	 (( 0 0 0 0 0 0 0 0 1 )   	%  TOTAL  NO
	  ( 0 0 0 0 0 0 0 0 1 )   	%  TOTAL  MILD
	  ( 0 0 0 0 0 0 0 0 1 )   	%  TOTAL  MOD
	  ( 0 0 0 0 0 0 0 0 1 )));	%  TOTAL  SEV
}

potential (R_MEDD2_LSLOW_EW | R_MEDD2_LD_EW R_MEDD2_RD_EW)
{
    data =
	((( 1 0 0 0 0 )   	%  NO  NO
	  ( 0.0084 0.0119 0.0619 0.9173 0.0004 )   	%  NO  MOD
	  ( 0.0053 0.0062 0.0264 0.2082 0.754 ))  	%  NO  SEV
	 (( 0.0185 0.9561 0.0254 0 0 )   	%  MILD  NO
	  ( 0.0069 0.01 0.0535 0.9286 0.0009 )   	%  MILD  MOD
	  ( 0.0049 0.0057 0.0244 0.1966 0.7684 ))  	%  MILD  SEV
	 (( 0 0.0166 0.9834 0 0 )   	%  MOD  NO
	  ( 0.0056 0.0083 0.0452 0.939 0.002 )   	%  MOD  MOD
	  ( 0.0044 0.0052 0.0224 0.1839 0.784 ))  	%  MOD  SEV
	 (( 0.0007 0.002 0.0219 0.9754 0 )   	%  SEV  NO
	  ( 0.0023 0.0036 0.0217 0.8326 0.1398 )   	%  SEV  MOD
	  ( 0.0028 0.0033 0.0145 0.1304 0.849 )));	%  SEV  SEV
}

potential (R_MED_RDLDCV_EW | R_MED_LD_EW R_MED_RD_EW)
{
    data =
	((( 0.9044 0.0953 0.0002 0 0 0 )   	%  NO  NO
	  ( 0.0115 0.0333 0.1509 0.7319 0.0724 0 )   	%  NO  MOD
	  ( 0 0.0001 0.0011 0.1462 0.8071 0.0456 ))  	%  NO  SEV
	 (( 0.132 0.6039 0.2641 0 0 0 )   	%  MILD  NO
	  ( 0.0034 0.0122 0.069 0.7196 0.1953 0.0004 )   	%  MILD  MOD
	  ( 0 0 0.0002 0.0581 0.795 0.1467 ))  	%  MILD  SEV
	 (( 0.0139 0.1839 0.8022 0 0 0 )   	%  MOD  NO
	  ( 0.0011 0.0045 0.0299 0.5742 0.3876 0.0027 )   	%  MOD  MOD
	  ( 0 0 0.0001 0.0228 0.6344 0.3427 ))  	%  MOD  SEV
	 (( 0.0012 0.0067 0.0544 0.86 0.0776 0 )   	%  SEV  NO
	  ( 0.0001 0.0002 0.0018 0.0914 0.6093 0.2972 )   	%  SEV  MOD
	  ( 0 0 0 0.0014 0.1063 0.8923 )));	%  SEV  SEV
}

potential (R_MED_DCV_EW | R_APB_MALOSS R_MED_DIFSLOW_EW)
{
    data =
	((( 1 0 0 0 0 0 0 0 0 0 )   	%  NO  NO
	  ( 0.0041 0.0247 0.1546 0.7389 0.0776 0 0 0 0 0 )   	%  NO  MILD
	  ( 0.0004 0.0012 0.0055 0.0628 0.295 0.5485 0.0861 0.0005 0 0 )   	%  NO  MOD
	  ( 0 0.0001 0.0002 0.0019 0.0107 0.0658 0.2846 0.5055 0.1313 0 ))  	%  NO  SEV
	 (( 0.109 0.8903 0.0007 0 0 0 0 0 0 0 )   	%  MILD  NO
	  ( 0.0011 0.0082 0002 0.0018 0.0263 0.1887 0.5884 0.1916 0.003 0 0 )   	%  MILD  MOD
	  ( 0 0.0001 0.0009 0.0059 0.0422 0.2356 0.5225 0.1927 0 ))  	%  MILD  SEV
	 (( 0.0006 0.0764 0.8866 0.0364 0 0 0 0 0 )   	%  MOD  NO
	  ( 0 0.0007 0.0525 0.5712 0.3752 0.0003 0 0 0 )   	%  MOD  MILD
	  ( 0 0.0001 0.0024 0.0358 0.316 0.5741 0.0716 0 0 )   	%  MOD  MOD
	  ( 0 0 0.0001 0.0012 0.0121 0.1131 0.4415 0.432 0 ))  	%  MOD  SEV
	 (( 0 0 0.0655 0.9299 0.0046 0 0 0 0 )   	%  SEV  NO
	  ( 0 0 0.0007 0.0745 0.8859 0.0389 0 0 0 )   	%  SEV  MILD
	  ( 0 0 0.0001 0.0032 0.0781 0.5947 0.3236 0.0004 0 )   	%  SEV  MOD
	  ( 0 0 0 0.0002 0.0028 0.0439 0.2917 0.6613 0 ))  	%  SEV  SEV
	 (( 0 0 0 0 0 0 0 0 1 )   	%  TOTAL  NO
	  ( 0 0 0 0 0 0 0 0 1 )   	%  TOTAL  MILD
	  ( 0 0 0 0 0 0 0 0 1 )   	%  TOTAL  MOD
	  ( 0 0 0 0 0 0 0 0 1 ))  	%  TOTAL  SEV
	 (( 0.1523 0.2904 0.3678 0.1726 0.0169 0 0 0 0 )   	%  OTHER  NO
	  ( 0.0168 0.0618 0.2223 0.4015 0.2803 0.0172 0.0001 0 0 )   	%  OTHER  MILD
	  ( 0.001 0.0047 0.028 0.1184 0.3647 0.3923 0.0907 0.0003 0 )   	%  OTHER  MOD
	  ( 0 0.0002 0.0011 0.0057 0.0332 0.1704 0.4424 0.347 0 )));	%  OTHER  SEV
}

potential (R_MED_RDLDDEL | R_MED_LD_WA R_MED_RD_WA)
{
    data =
	((( 1 0 0 0 0 )   	%  NO  NO
	  ( 0.0019 0.5257 0.4724 0 0 )   	%  NO  MOD
	  ( 0.0002 0.0304 0.9694 0 0 ))  	%  NO  SEV
	 (( 0.0964 0.7981 0.1055 0 0 )   	%  MILD  NO
	  ( 0.0002 0.0415 0.9584 0 0 )   	%  MILD  MOD
	  ( 0.0001 0.0142 0.9857 0 0 ))  	%  MILD  SEV
	 (( 0.0032 0.127 0.8698 0 0 )   	%  MOD  NO
	  ( 0.0001 0.0144 0.9855 0 0 )   	%  MOD  MOD
	  ( 0 0.009 0.9808 0.0102 0 ))  	%  MOD  SEV
	 (( 0.0009 0.0028 0.0147 0.9815 0 )   	%  SEV  NO
	  ( 0.0002 0.0006 0.0037 0.9956 0 )   	%  SEV  MOD
	  ( 0 0.0002 0.0V  NO
	  ( 0 0 0.0017 0.9983 0 )   	%  SEV  MILD
	  ( 0 0 0.0008 0.9992 0 )   	%  SEV  MOD
	  ( 0 0 0.0001 0.9999 0 )   	%  SEV  SEV
	  ( 0 0 0 0 1 ))  	%  SEV  TOTAL
	 (( 0 0 0 0 1 )   	%  TOTAL  NO
	  ( 0 0 0 0 1 )   	%  TOTAL  MILD
	  ( 0 0 0 0 1 )   	%  TOTAL  MOD
	  ( 0 0 0 0 1 )   	%  TOTAL  SEV
	  ( 0 0 0 0 1 )));	%  TOTAL  TOTAL
}

potential (R_MEDD2_BLOCK_WD | R_LNLW_MEDD2_BLOCK_WD R_DIFFN_MEDD2_BLOCK)
{
    data =
	((( 1 0 0 0 0 )   	%  NO  NO
	  ( 0.0077 0.9923 0 0 0 )   	%  NO  MILD
	  ( 0.0007 0.0234 0.9759 0 0 )   	%  NO  MOD
	  ( 0.0019 0.006 0.0588 0.9333 0 )   	%  NO  SEV
	  ( 0 0 0 0 1 ))  	%  NO  TOTAL
	 (( 0.0077 0.9923 0 0 0 )   	%  MILD  NO
	  ( 0.0001 0.498 0.5019 0 0 )   	%  MILD  MILD
	  ( 0 0.0032 0.9968 0 0 )   	%  MILD  MOD
	  ( 0.001 0.0033 0.0376 0.9581 0 )   	%  MILD  SEV
	  ( 0 0 0 0 1 ))  	%  MILD  TOTAL
	 (( 0.0007 0.0234 0.9759 0 0 )   	%  MOD  NO
	  ( 0 0.0032 0.9968 0 0 )   	%  MOD  MILD
	  ( 0 0.0007 0.4328 0.5665 0 )   	%  MOD  MOD
	  ( 0.0003 0.0011 0.0159 0.9827 0 )   	%  MOD  SEV
	  ( 0 0 0 0 1 ))  	%  MOD  TOTAL
	 (( 0.0019 0.006 0.0588 0.9333 0 )   	%  SEV  NO
	  ( 0.001 0.0033 0.0376 0.9581 0 )   	%  SEV  MILD
	  ( 0.0003 0.0011 0.0159 0.9827 0 )   	%  SEV  MOD
	  ( 0.0003 0.0011 0.0125 0.986 0  0.9333 0 )   	%  SEV  NO
	  ( 0.001 0.0033 0.0376 0.9581 0 )   	%  SEV  MILD
	  ( 0.0003 0.0011 0.0159 0.9827 0 )   	%  SEV  MOD
	  ( 0.0003 0.0011 0.0125 0.986 0 )   	%  SEV  SEV
	  ( 0 0 0 0 1 ))  	%  SEV  TOTAL
	 (( 0 0 0 0 1 )   	%  TOTAL  NO
	  ( 0 0 0 0 1 )   	%  TOTAL  MILD
	  ( 0 0 0 0 1 )   	%  TOTAL  MOD
	  ( 0 0 0 0 1 )   	%  TOTAL  SEV
	  ( 0 0 0 0 1 )));	%  TOTAL  TOTAL
}

potential (R_MED_DIFSLOW_WA | R_LNLBE_MED_DIFSLOW R_DIFFN_MED_DIFSLOW)
{
    data =
	((( 1 0 0 0 )   	%  NO  NO
	  ( 0.0132 0.9863 0.0006 0 )   	%  NO  MILD
	  ( 0 0.0181 0.9818 0 )   	%  NO  MOD
	  ( 0 0.0003 0.0252 0.9745 ))  	%  NO  SEV
	 (( 0.0132 0.9863 0.0006 0 )   	%  MILD  NO
	  ( 0.0001 0.0952 0.9047 0 )   	%  MILD  MILD
	  ( 0 0.0009 0.588 0.4111 )   	%  MILD  MOD
	  ( 0 0 0.0044 0.9955 ))  	%  MILD  SEV
	 (( 0 0.0181 0.9818 0 )   	%  MOD  NO
	  ( 0 0.0009 0.588 0.4111 )   	%  MOD  MILD
	  ( 0 0 0.002 0.998 )   	%  MOD  MOD
	  ( 0 0 0.0006 0.9994 ))  	%  MOD  SEV
	 (( 0 0.0003 0.0252 0.9745 )   	%  SEV  NO
	  ( 0 0 0.0044 0.9955 )   	%  SEV  MILD
	  ( 0 0 0.0006 0.9994 )   	%  SEV  MOD
	  ( 0 0 0.0005 0.9995 )));	%  SEV  SEV
}

potential (R_MED_RD_WA | R_LNLW_MED_PATHO)
{
    data =
	(( 100 0 0 )  	%  DEMY
	 ( 100 0 0 )  	%  BLOCK
	 ( 100 0 0 )  	%  AXONAL
	 ( 0 0 100 )  	%  V.E.REIN
	 ( 0 100 0 ));	%  E.REIN
}

potential (R_MED_LD_WA | R_LNLW_MED_SEV R_LNLW_MED_PATHO)
{
    data =
	((( 100 0 0 0 )   	%  NO  DEMY
	  ( 100 0 0 0 )   	%  NO  BLOCK
	  ( 100 0 0 0 )   	%  NO  AXONAL
	  ( 100 0 0 0 )   	%  NO  V.E.REIN
	  ( 100 0 0 0 ))  	%  NO  E.REIN
	 (( 0 100 0 0 )   	%  MILD  DEMY
	  ( 50 50 0 0 )   	%  MILD  BLOCK
	  ( 100 0 0 0 )   	%  MILD  AXONAL
	  ( 100 0 0 0 )   	%  MILD  V.E.REIN
	  ( 100 0 0 0 ))  	%  MILD  E.REIN
	 (( 0 0 100 0 )   	%  MOD  DEMY
	  ( 25 50 25 0 )   	%  MOD  BLOCK
	  ( 50 50 0 0 )   	%  MOD  AXONAL
	  ( 100 0 0 0 )   	%  MOD  V.E.REIN
	  ( 100 0 0 0 ))  	%  MOD  E.REIN
	 (( 0 0 0 100 )   	%  SEV  DEMY
	  ( 5 30 50 15 )   	%  SEV  BLOCK
	  ( 0 100 0 0 )   	%  SEV  AXONAL
	  ( 100 0 0 0 )   	%  SEV  V.E.REIN
	  ( 100 0 0 0 ))  	%  SEV  E.REIN
	 (( 25 25 25 25 )   	%  TOTAL  DEMY
	  ( 25 25 25 25 )   	%  TOTAL  BLOCK
	  ( 25 25 25 25 )   	%  TOTAL  AXONAL
	  ( 25 25 25 25 )   	%  TOTAL  V.E.REIN
	  ( 25 25 25 25 )));	%  TOTAL  E.REIN
}

potential (R_LNLBE_MEDNO  V.E.REIN
	  ( 100 0 0 0 0 ))  	%  NO  E.REIN
	 (( 80 20 0 0 0 )   	%  MILD  DEMY
	  ( 20 50 30 0 0 )   	%  MILD  BLOCK
	  ( 100 0 0 0 0 )   	%  MILD  AXONAL
	  ( 100 0 0 0 0 )   	%  MILD  V.E.REIN
	  ( 100 0 0 0 0 ))  	%  MILD  E.REIN
	 (( 60 40 0 0 0 )   	%  MOD  DEMY
	  ( 0 20 50 30 0 )   	%  MOD  BLOCK
	  ( 100 0 0 0 0 )   	%  MOD  AXONAL
	  ( 100 0 0 0 0 )   	%  MOD  V.E.REIN
	  ( 100 0 0 0 0 ))  	%  MOD  E.REIN
	 (( 25 50 25 0 0 )   	%  SEV  DEMY
	  ( 0 0 40 50 10 )   	%  SEV  BLOCK
	  ( 100 0 0 0 0 )   	%  SEV  AXONAL
	  ( 100 0 0 0 0 )   	%  SEV  V.E.REIN
	  ( 100 0 0 0 0 )));	%  SEV  E.REIN
}

potential (R_LNLBE_MEDD2_LD_EW)
{
    data =
	( 1 0 0 0 );
}

potential (R_LNLBE_MEDD2_RD_EW)
{
    data =
	( 1 0 0 );
}

potential (R_DIFFN_MEDD2_DIFSLOW | DIFFN_S_SEV_DIST DIFFN_PATHO)
{
    data =
	((( 100 0 0 0 )   	%  NO  DEMY
	  ( 100 0 0 0 )   	%  NO  BLOCK
	  ( 100 0 0 0 )   	%  NO  AXONAL
	  ( 0 0 0 100 )   	%  NO  V.E.REIN
	  ( 0 0 70 30 ))  	%  NO  E.REIN
	 (( 0 50 50 0 )   	%  MILD  DEMY
	  ( 50 50 0 0 )   	%  MILD  BLOCK
	  ( 100 0 0 0 )   	%  MILD  AXONAL
	    ( 0 0 0 0 1 )   	%  TOTAL  SEV
	  ( 0 0 0 0 1 )));	%  TOTAL  TOTAL
}

potential (R_DIFFN_LNLW_MEDD2_DISP_WD | R_LNLW_MEDD2_DISP_WD R_DIFFN_MEDD2_DISP)
{
    data =
	((( 1 0 0 0 )   	%  NO  NO
	  ( 0.0749 0.8229 0.1022 0 )   	%  NO  MILD
	  ( 0 0.0626 0.9373 0 )   	%  NO  MOD
	  ( 0 0 0 1 ))  	%  NO  SEV
	 (( 0.0749 0.8229 0.1022 0 )   	%  MILD  NO
	  ( 0.0047 0.1786 0.8167 0 )   	%  MILD  MILD
	  ( 0 0.019 0.9795 0.0015 )   	%  MILD  MOD
	  ( 0 0 0 1 ))  	%  MILD  SEV
	 (( 0 0.0626 0.9373 0 )   	%  MOD  NO
	  ( 0 0.019 0.9795 0.0015 )   	%  MOD  MILD
	  ( 0 0.0001 0.0833 0.9166 )   	%  MOD  MOD
	  ( 0 0 0 1 ))  	%  MOD  SEV
	 (( 0 0 0 1 )   	%  SEV  NO
	  ( 0 0 0 1 )   	%  SEV  MILD
	  ( 0 0 0 1 )   	%  SEV  MOD
	  ( 0 0 0 1 )));	%  SEV  SEV
}

potential (R_LNLW_MEDD2_BLOCK_WD | R_LNLW_MED_SEV R_LNLW_MED_PATHO)
{
    data =
	((( 100 0 0 0 0 )   	%  NO  DEMY
	  ( 100 0 0 0 0 )   	%  NO  BLOCK
	  ( 100 0 0 0 0 )   	%  NO  AXONAL
	  ( 100 0 0 0 0 )   	%  NO  V.E.REIN
	  ( 100 0 0 0 0 ))  	%  NO  E.REIN
	 (( 80 20 0 0 0 )   	%  MILD  DEMY
	  ( 0 50 50 0 0 )   	%  MILD  BLOCK
	  ( 100 0 0 0 0 )   	%  MILD  AXONAL
	  ( 100 0 0 0 0 )   	%  MILD  V.E.REIN
	  ( 100 0 0 0 0 ))  	%  MILD  E.REIN
	 (( 30 60 10 0 0 )   	%  MOD  DEMY
	  ( 0 0 50 50 0 )   	%  MOD  BLOCK
	  ( 100 0 0 0 0 )   	%  MOD  AXONAL
	  ( 100 0 0 0 0 )   	%  MOD  V.E.REIN
	  ( 100 0 0 0 0 ))  	%  MOD  E.REIN
	 (( 10 50 30 10 0 )   	%  SEV  DEMY
	  ( 0 0 20 60 20 )   	%  SEV  BLOCK
	  ( 100 0 0 0 0 )   	%  SEV  AXONAL
	  ( 100 0 0 0 0 )   	%  SEV  V.E.REIN
	  ( 1tial (R_LNLBE_MEDD2_DIFSLOW_WD)
{
    data =
	( 1 0 0 0 );
}

potential (R_LNLW_MEDD2_LD_WD | R_LNLW_MED_SEV R_LNLW_MED_PATHO)
{
    data =
	((( 100 0 0 0 )   	%  NO  DEMY
	  ( 100 0 0 0 )   	%  NO  BLOCK
	  ( 100 0 0 0 )   	%  NO  AX9 0.0041 0 )   	%  MOD  NO
	  ( 0 0.0009 0.3409 0.6582 0 )   	%  MOD  MILD
	  ( 0 0 0.01 0.99 0 )   	%  MOD  MOD
	  ( 0 0 0.0011 0.9989 0 )   	%  MOD  SEV
	  ( 0 0 0 0 1 ))  	%  MOD  TOTAL
	 (( 0 0.0002 0.0329 0.9669 0 )   	%  SEV  NO
	  ( 0 0 0.0038 0.9962 0 )   	%  SEV  MILD
	  ( 0 0 0.0011 0.9989 0 )   	%  SEV  MOD
	  ( 0 0 0.0004 0.9996 0 )   	%  SEV  SEV
	  ( 0 0 0 0 1 ))  	%  SEV  TOTAL
	 (( 0 0 0 0 1 )   	%  TOTAL  NO
	  ( 0 0 0 0 1 )   	%  TOTAL  MILD
	  ( 0 0 0 0 1 )   	%  TOTAL  MOD
	  ( 0 0 0 0 1 )   	%  TOTAL  SEV
	  ( 0 0 0 0 1 )));	%  TOTAL  TOTAL
}

potential (R_LNLT1_LP_BE_APB_MALOSS | R_LNLT1_LP_APB_MALOSS R_LNLBE_APB_MALOSS)
{
    data =
	((( 1 0 0 0 0 )   	%  NO  NO
	  ( 0.0022 0.9977 0.0001 0 0 )   	%  NO  MILD
	  ( 0.0002 0.0369 0.9589 0.0041 0 )   	%  NO  MOD
	  ( 0 0.0002 0.0329 0.9669 0 )   	%  NO  SEV
	  ( 0 0 0 0 1 ))  	%  NO  TOTAL
	 (( 0.0022 0.9977 0.0001 0 0 )   	%  MILD  NO
	  ( 0 0.0282 0.9718 0 0 )   	%  MILD  MILD
	  ( 0 0.0009 0.3409 0.6582 0 )   	%  MILD  MOD
	  ( 0 0 0.0038 0.9962 0 )   	%  MILD  SEV
	  ( 0 0 0 0 1 ))  	%  MILD  TOTAL
	 (( 0.0002 0.0369 0.9589 0.0041 0 )   	%  MOD  NO
	  ( 0 0.0009 0.3409 0.6582 0 )   	%  MOD  MILD
	  ( 0 0 0.01 0.99 0 )   	%  MOD  MOD
	  ( 0 0 0.0011 0.9989 0 )   	%  MOD  SEV
	  ( 0 0 0 0 1 ))  	%  MOD  TOTAL
	 (( 0 0.0002 0.0329 0.9669 0 )   	%  SEV  NO
	  ( 0 0 0.0038 0.9962 0 )   	%  SEV  MILD
	  ( 0 0 0.0011 0.9989 0 )   	%  SEV  MOD
	  ( 0 0 0.0004 0.9996 0 )   	%  SEV  SEV
	  ( 0 0 0 0 1 ))  	%  SEV  TOTAL
	 (( 0 0 0 0 1 )   	%  TOTAL  NO
	  ( 0 0 0 0 1 )   	%  TOTAL  MILD
	  ( 0 0 0 0 1 )   	%  TOTAL  MOD
	  ( 0 0 0 0 1 )   	%  TOTAL  SEV
	  ( 0 0 0 0 1 )));	%  TOTAL  TOTAL
}

potential (R_LNL_DIFFN_APB_MUSIZE | R_DIFFN_LNLW_APB_MUSIZE R_LNLT1_LP_BE_APB_MUSIZE)
{
    data =
	((( 1 0 0 0 0 0 )   	%  V.SMALL  V.SMALL
	  ( 1 0 0 0 0 0 )   	%  V.SMALL  SMALL
	  ( 1 0 0 0 0 0 )   	%  V.SMALL  NORMAL
	  ( 1 0 0 0 0 0 )   	%  V.SMALL  INCR
	  ( 1 0 0 0 0 0 )   	%  V.SMALL  LARGE
	  ( 1 0 0 0 0 0 ))  	%  V.SMALL  V.LARGE
	 (( 1 0 0 0 0 0 )   	%  SMALL  V.SMALL
	  ( 0 1 0 0 0 0 )   	%  SMALL  SMALL
	  ( 0 1 0 0 0 0 )   	%  SMALL  NORMAL
	  ( 0 1 0 0 0 0 )   	%  SMALL  INCR
	  ( 0 1 0 0 0 0 )   	%  SMALL  LARGE
	  ( 0 0.9993 0.0005 0.0001 0 0 ))  	%  SMALL  V.LARGE
	 (( 1 0 0 0 0 0 )   	%  NORMAL  V.SMALL
	  ( 0 1 0 0 0 0 )   	%  NORMAL  SMALL
	  ( 0 0 0.9981 0.0019 0 0 )   	%  NORMAL  NORMAL
	  ( 0 0 0.0019 0.9981 0 0 )   	%  NORMAL  INCR
	  ( 0 0 0 0 1 0 )   	%  NORMAL  LARGE
	  ( 0 0 0 0 0 1 ))  	%  NORMAL  V.LARGE
	 (( 1 0 0 0 0 0 )   	%  INCR  V.SMALL
	  ( 0 1 0 0 0 0 )   	%  INCR  SMALL
	  ( 0 0 0.0019 0.9981 0 0 )   	%  INCR  NORMAL
	  ( 0 0 0 1 0 0 )   	%  INCR  INCR
	  ( 0 0 0 0 1 0 )   	%  INCR  LARGE
	  ( 0 0 0 0 0 1 ))  	%  INCR  V.LARGE
	 (( 1 0 0 0 0 0 )   	%  LARGE  V.SMALL
	  ( 0 1 0 0 0 0 )   	%  LARGE  SMALL
	  ( 0 0 0 0 1 0 )   	%  LARGE  NORMAL
	  ( 0 0 0 0 1 0 )   	%  LARGE  INCR
	  ( 0 0 0 0 1 0 )   	%  LARGE  LARGE
	  ( 0 0 0 0 0 1 ))  	%  LARGE  V.LARGE
	 (( 1 0 0 0 0 0 )   	%  V.LARGE  V.SMALL
	  ( 0 0.9993 0.0005 0.0001 0 0 )   	%  V.LARGE  SMALL
	  ( 0 0 0 0 0 1 )   	%  V.LARGE  NORMAL
	  ( 0 0 0 0 0 1 )   	%  V.LARGE  INCR
	  ( 0  0 0 )   	%  V.SMALL  NORMAL
	  ( 0.3673 0.6298 0.0029 0 0 0 )   	%  V.SMALL  INCR
	  ( 0.0115 0.8616 0.1249 0.0019 0 0 )   	%  V.SMALL  LARGE
	  ( 0 0.1596 0.7368 0.1016 0.002 0 ))  	%  V.SMALL  V.LARGE
	 (( 0.9983 0.0017 0 0 0 0 )   	%  SMALL  V.SMALL
	  ( 0.8667 0.1329 0.00026 0.3806 0.0359 0.0004 )   	%  LARGE  SMALL
	  ( 0 0 0 0.0319 0.9362 0.0319 )   	%  LARGE  NORMAL
	  ( 0 0 0 0.0003 0.1234 0.8762 )   	%  LARGE  INCR
	  ( 0 0 0 0 0.0028 0.9972 )   	%  LARGE  LARGE
	  ( 0 0 0 0 0.0001 0.9999 ))  	%  LARGE  V.LARGE
	 (( 0 0.1596 0.7368 0.1016 0.002 0 )   	%  V.LARGE  V.SMALL
	  ( 0 0 0.0792 0.4758 0.4066 0.0384 )   	%  V.LARGE  SMALL
	  ( 0 0 0 0 0.0329 0.9671 )   	%  V.LARGE  NORMAL
	  ( 0 0 0 0 0.0028 0.9972 )   	%  V.LARGE  INCR
	  ( 0 0 0 0 0.0001 0.9999 )   	%  V.LARGE  LARGE
	  ( 0 0 0 0 0 1 )));	%  V.LARGE  V.LARGE
}

potential (R_MYAS_APB_NMT)
{
    data =
	( 1 0 0 0 0 0 0 );
}

potential (R_DE_REGEN_APB_NMT | R_APB_DE_REGEN)
{
    data =
	(( 100 0 0 0 0 0 0 )  	%  NO
	 ( 94.9 0.3 0.1 4 0.3 0.1 0.3 ));	%  YES
}

potential (R_LNLW_MED_BLOCK | R_LNLW_MED_SEV R_LNLW_MED_PATHO)
{
    data =
	((( 100 0 0 0 0 )   	%  NO  DEMY
	  ( 100 0 0 0 0 )   	%  NO  BLOCK
	  ( 100 0 0 0 0 )   	%  NO  AXONAL
	  ( 100 0 0 0 0 )   	%  NO  V
	 (( 25 50 25 0 0 )   	%  SEV  DEMY
	  ( 0 0 40 50 10 )   	%  SEV  BLOCK
	  ( 100 0 0 0 0 )   	%  SEV  AXONAL
	  ( 100 0 0 0 0 )   	%  SEV  V.E.REIN
	  ( 100 0 0 0 0 ))  	%  SEV  E.REIN
	 (( 20 20 20 20 20 )   	%  TOTAL  DEMY
	  ( 0 0 0 0 100 )   	%  TOTAL  BLOCK
	  ( 20 20 20 20 20 )   	%  TOTAL  AXONAL
	  ( 100 0 0 0 0 )   	%  TOTAL  V.E.REIN
	  ( 100 0 0 0 0 )));	%  TOTAL  E.REIN
}

potential (R_LNLBE_MED_DIF_APB_DE_REGEN | R_LNLT1_LP_BE_APB_DE_REGEN R_DIFFN_LNLW_APB_DE_REGEN)
{
    data =
	((( 1 0 )   	%  NO  NO
	  ( 0 1 ))  	%  NO  YES
	 (( 0 1 )   	%  YES  NO
	  ( 0 1 )));	%  YES  YES
}

potential (R_MUSCLE_APB_MUDENS | R_MYOP_MYDY_APB_MUDENS R_MYAS_APB_MUDENS)
{
    data =
	((( 1 0 0 )   	%  NORMAL  NORMAL
	  ( 0 1 0 )   	%  NORMAL  INCR
	  ( 0 0 1 ))  	%  NORMAL  V.INCR
	 (( 0 1 0   	%  FASCIC  NO
	  ( 0 1 0 0 0 0 )   	%  FASCIC  FASCIC
	  ( 0 0 1 0 0 0 )   	%  FASCIC  NEUROMYO
	  ( 0 0 0 1 0 0 )   	%  FASCIC  MYOKYMIA
	  ( 0 0 0 0 1 0 )   	%  FASCIC  TETANUS
	  ( 0 0 0 0 0 1 ))  	%  FASCIC  OTHER
	 (( 0 0 1 0 0 0 )   	%  NEUROMYO  NO
	  ( 0 0 1 0 0 0 )   	%  NEUROMYO  FASCIC
	  ( 0 0 1 0 0 0 )   	%  NEUROMYO  NEUROMYO
	  ( 0 0 0 1 0 0 )   	%  NEUROMYO  MYOKYMIA
	  ( 0 0 0 0 1 0 )   	%  NEUROMYO  TETANUS
	  ( 0 0 0 0 0 1 ))  	%  NEUROMYO  OTHER
	 (( 0 0 0 1 0 0 )   	%  MYOKYMIA  NO
	  ( 0 0 0 1 0 0 )   	%  MYOKYMIA  FASCIC
	  ( 0 0 0 1 0 0 )   	%  MYOKYMIA  NEUROMYO
	  ( 0 0 0 1 0 0 )   	%  MYOKYMIA  MYOKYMIA
	  ( 0 0 0 0 1 0 )   	%  MYOKYMIA  TETANUS
	  ( 0 0 0 0 0 1 ))  	%  MYOKYMIA  OTHER
	 (( 0 0 0 0 1 0 )   	%  TETANUS  NO
	  ( 0 0 0 0 1 0 )   	%  TETANUS  FASCIC
	  ( 0 0 0 0 1 0 )   	%  TETANUS  NEUROMYO
	  ( 0 0 0 0 1 0 )   	%  TETANUS  MYOKYMIA
	  ( 0 0 0 0 1 0 )    =
	((( 1 0 0 0 0 0 )   	%  NO  NO
	  ( 0 1 0 0 0 0 )   	%  NO  FASCIC
	  ( 0 0 1 0 0 0 )   	%  NO  NEUROMYO
	  ( 0 0 0 1 0 0 )   	%  NO  MYOKYMIA
	  ( 0 0 0 0 1 0 )   	%  NO  TETANUS
	  ( 0 0 0 0 0 1 ))  	%  NO  OTHER
	 (( 0 1 0 0 0 0 )   	%  FASCIC  NO
	  ( 0 1 0 0 0 0 )   	%  FASCIC  FASCIC
	  ( 0 0 1 0 0 0 )   	%  FASCIC  NEUROMYO
	  ( 0 0 0 1 0 0 )   	%  FASCIC  MYOKYMIA
	  ( 0 0 0 0 1  (( 0 0 0 1 0 0 )   	%  MYOKYMIA  NO
	  ( 0 0 0 1 0 0 )   	%  MYOKYMIA  FASCIC
	  ( 0 0 0 1 0 0 )   	%  MYOKYMIA  NEUROMYO
	  ( 0 0 0 1 0 0 )   	%  MYOKYMIA  MYOKYMIA
	  ( 0 0 0 0 1 0 )   	%  MYOKYMIA  TETANUS
	  ( 0 0 0 0 0 1 ))  	%  MYOKYMIA  OTHER
	 (( 0 0 0 0 1 0 )   	%  TETANUS  NO
	  ( 0 0 0 0 1 0 )   	%  TETANANUS
	  ( 0 0 0 0 0 1 ))  	%  TETANUS  OTHER
	 (( 0 0 0 0 0 1 )   	%  OTHER  NO
	  ( 0 0 0 0 0 1 )   	%  OTHER  FASCIC
	  ( 0 0 0 0 0  SEV
	 (( 0 0 0 1 )   	%  SEV  NO
	  ( 0 0 0 1 )   	%  SEV  MILD
	  ( 0 0 0 1 )   	%  SEV  MOD
	  ( 0 0 0 1 )));	%  SEV  SEV
}

potential (R_MUSCLE_APB_DENERV | R_MYOP_MYDY_APB_DENERV R_NMT_APB_DENERV)
{
    data =
	((( 1 0 0 0 )   	%  NO  NO
	  ( 0 1 0 0 )   	%  NO  MILD
	  ( 0 0 1 0 )   	%  NO  MOD
	  ( 0 0 0 1 ))  	%  NO  SEV
	 (( 0 1 0 0 )   	%  MILD  NO
	  ( 0 0 1 0 )   	%  MILD  MILD
	  ( 0 0 0 1 )   	%  MILD  MOD
	  ( 0 0 0 1 ))  	%  MILD  SEV
	 (( 0 0 1 0 )   	%  MOD  NO
	  ( 0 0 0 1 )   	%  MOD  MILD
	  ( 0 0 0 1 )   	%  MOD  MOD
	  ( 0 0 0 1 ))  	%  MOD  SEV
	 (( 0 0 0 1 )   	%  SEV  Nntial (R_LNLT1_LP_BE_APB_MUSIZE | R_LNLBE_APB_MUSIZE R_LNLT1_LP_APB_MUSIZE)
{
    data =
	((( 1 0 0  1 0 0 0 0 0 ))  	%  V.SMALL  V.LARGE
	 (( 1 0 0 0 0 0 )   	%  SMALL  V.SMALL
	  ( 0 1 0 0 0 0 )   	%  SMALL  SMALL
	  ( 0 1 0 0 0 0 )   	%  SMALL  NORMAL
	  ( 0 1 0 0 0 0 )   	%  SMALL  INCR
	   0 )   	%  NORMAL  INCR
	  ( 0 0 0 0 1 0 )   	%  NORMAL  LARGE
	  ( 0 0 0 0 0 1 ))  	%  NORMAL  V.LARGE
	 (( 1 0 0 0 0 0 )   	%  INCR  V.SMALL
	  ( 0 1 0 0 0 0 )   	%  INCR  SMALL
	  ( 0 0 0 1 0 0 )   	%  INCR  NORMAL
	  ( 0al (R_LNLBE_APB_MALOSS)
{
    data =
	( 1 0 0 0 0 );
}

potential (R_LNLT1_LP_APB_MALOSS | R_LNLT1_APB_MALOSS R_LNLLP_APB_MALOSS)
{
    data =
	((( 1 0 0 0 0 )   	%  NO  NO
	  ( 0.0022 0.9977 0.0001 0 0 )   	%  NO  MILD
	  ( 0.0002 0.0369 0.9589 0.0041 0 )   	%  NO  MOD
	  ( 0 0.0002 0.0329 0.9669 0 )   	%  NO  SEV
	  ( 0 0 0 0 1 ))  	%  NO  TOTAL
	 (( 0.0022 0.9977 0.0001 0 0 )   	%  MILD  NO
	  ( 0 0.0282 0.9718 0 0 )   	%  MILD  MILD
	  ( 0 0.0009 0.3409 0.6582 0 )   	%  MILD  MOD
	  ( 0 0 0.0038 0.9962 0 )   	%  MILD  SEV
	  ( 0 0 0 0 1 ))  	%  MILD  TOTAL
	 (( 0.0002 0.0369 0.9589 0.0041 0 )   	%  MOD  NO
	  ( 0 0.0009 0.3409 0.6582 0 )   	%  MOD  MILD
	  ( 0 0 0.01 0.99 0 )   	%  MOD  MOD
	  ( 0 0 0.0011 0.9989 0 )   	%  MOD  SEV
	  ( 0 0 0 0 1 ))  	%  MOD  TOTAL
	 (( 0 0.0002 0.0329 0.9669 0 )   	%  SEV  NO
	  ( 0 0 0.0038 0.9962 0 )   	%  SEV  MILD
	  ( 0 0 0.0011 0.9989 0 )   	%  SEV  MOD
	  ( 0 0 0.0004 0.9996 0 )   	%  SEV  SEV
	  ( 0 0 0 0 1 ))  	%  SEV  TOTAL
	 (( 0 0 0 0 1 )   	%  TOTAL  NO
	  ( 0 0 0 0 1 )   	%  TOTAL  MILD
	  ( 0 0 0 0 1 )   	%  TOTAL  MOD
	  ( 0 0 0 0 1 )   	%  TOTAL  SEV
	  ( 0 0 0 0 1 )));	%  TOTAL  TOTAL
}

potential (R_LNLT1_LP_APB_MUSIZE | R_LNLLP_APB_MUSIZE R_LNLT1_APB_MUSIZE)
{
    data =
	((( 1 0 0 0 0 0 )   	%  V.SMALL  V.SMALL
	  ( 1 0 0 0 0 0 )   	%  V.SMALL  SMALL
	  ( 1 0 0 0 0 0 )   	%  V.SMALL  NORMAL
	  ( 1 0 0 0 0 0 )   	%  V.SMALL  INCR
	  ( 1 0 0 0 0 0 )   	%  V.SMALL  LARGE
	  ( 1 0 0 0 0 0 ))  	%  V.SMALL  V.LARGE
	 (( 1 0 0 0 0 0 )   	%  SMALL  V.SMALL
	  ( 0 1 0 0 0 0 )   	%  SMALL  SMALL
	  ( 0 1 0 0 0 0 )   	%  SMALL  NORMAL
	  ( 0 1 0 0 0 0 )   	%  SMALL  INCR
	  ( 0 1 0 0 0 0 )   	%  SMALL  LARGE
	  ( 0 0.9993 0.0005 0.0001 0 0 ))  	%  SMALL  V.LARGE
	 (( 1 0 0 0 0 0 )   	%  NORMAL  V.SMALL
	  ( 0 1 0 0 0 0 )   	%  NORMAL  SMALL
	  ( 0 0 1 0 0 0 )   	%  NORMAL  NORMAL
	  ( 0 0 0 1 0 0 )   	%  NORMAL  INCR
	  ( 0 0 0 0 1 0 )   	%  NORMAL  LARGE
	  ( 0 0 0 0 0 1 ))  	%  NORMAL  V.LARGE
	 (( 1 0 0 0 0 0 )   	%  INCR  V.SMALL
	  ( 0 1 0 0 0 0 )   	%  INCR  SMALL
	  ( 0 0 0 1 0 0 )   	%  INCR  NORMAL
	  ( 0 0 0 1 0 0 )   	%  INCR  INCR
	  ( 0 0 0 0 1 0 )   	%  INCR  LARGE
	  ( 0 0  BLOCK
	  ( 0 0 100 0 0 )   	%  MOD  AXONAL
	  ( 0 0 0 100 0 )   	%  MOD  V.E.REIN
	  ( 0 0 50 50 0 ))  	%  MOD  E.REIN
	 (( 0 0 40 60 0 )   	%  SEV  DEMY
	  ( 0 0 50 50 0 )   	%  SEV  BLOCK
	  ( 0 0 0 80 20 )   	%  SEV  AXONAL
	  ( 0 0 0 100 0 )   	%  SEV  V.E.REIN
	  ( 0 0 50 50 0 )));	%  SEV  E.REIN
}

potential (R_LNLW_APB_MALOSS | R_LNLW_MED_SEV R_LNLW_MED_PATHO)
{
    data =
	((( 100 0 0 0 0 )   	%  NO  DEMY
	  ( 100 0 0 0 0 )   	%  NO  BLOCK
	  ( 100 0 0 0 0 )   	%  NO  AXONAL
	  ( 0 0 0 100 0 )   	%  NO  V.E.REIN
	  ( 0 0 50 50 0 ))  	%  NO  E.REIN
	 (( 50 50 0 0 0 )   	%  MILD  DEMY
	  ( 50 50 0 0 0 )   	%  MILD  BLOCK
	  ( 0 100 0 0 0 )   	%  MILD  AXONAL
	  ( 0 0 0 100 0 )   	%  MILD  V.E.REIN
	  ( 0 0 50 50 0 ))  	%  MILD  E.REIN
	 (( 0 50 50 0 0 )   	%  MOD  DEMY
	  ( 40 30 30 0 0 )   	%  MOD  BLOCK
	  ( 0 0 100 0 0 )   	%  MOD  AXONAL
	  ( 0 0 0 100 0 )   	%  MOD  V.E.REIN
	  ( 0 0 50 50 0 ))  	%  MOD  E.REIN
	 (( 0 0 50 50 0 )   	%  SEV  DEMY
	  ( 0 0 50 50 0 )   	%  SEV  BLOCK
	  ( 0 0 0 100 0 )   	%  SEV  AXONAL
	  ( 0 0 0 100 0 )   	%  SEV  V.E.REIN
	  ( 0 0 50 5THO)
{
    data =
	(((( 0 0 100 0 0 0 )    	%  NO  ACUTE  DEMY
	   ( 0 0 100 0 0 0 )    	%  NO  ACUTE  BLOCK
	   ( 0 0 100 0 0 0 )    	%  NO  ACUTE  AXONAL
	   ( 0 0 100 0 0 0 )    	%  NO  ACUTE  V.E.REIN
	   ( 0 0 100 0 0 0 ))   	%  NO  ACUTE  E.REIN
	  (( 0 0 100 0 0 0 )    	%  NO  SUBACU 0 0 0 )    	%  NO  CHRONIC  BLOCK
	   ( 0 0 100 0 0 0 )    	%  NO  CHRONIC  AXONAL
	   ( 0 0 100 0 0 0 )    	%  NO  CHRONIC  V.E.REIN
	   ( 0 0 100 0 0 0 ))   	%  NO  CHRONIC  E.REIN
	  (( 0 0 100 0 0 0 )    	%  NO  OLD  DEMY
	   ( 0 0 100 0 0 0 )    	%  NO  OLD  BLOCK0 0 0 0 0 0 )    	%  MILD  ACUTE  V.E.REIN
	   ( 0 100 0 0 0 0 ))   	%  MILD  ACUTE  E.REIN
	  (( 0 0 100 0 0 0 )    	%  MILD  SUBACUTE  DEMY
	   ( 0 0 100 0 0 0 )    	%  MILD  SUBACUTE  BLOCK
	   ( 0 0 100 0 0 0 )    	%  MILD  SUBACUTE  AXONAL
	   ( 100 0 0 0 0 0 )    	%  MILD  SUBACUTE  REIN
	   ( 0 100 0 0 0 0 ))   	%  MILD  CHRONIC  E.REIN
	  (( 0 0 70 30 0 0 )    	%  MILD  OLD  DEMY
	   ( 0 0 90 10 0 0 )    	%  MILD  OLD  BLOCK
	   ( 0 0 70 30 0 0 )    	%  MILD  OLD  AXONAL
	   ( 100 0 0 0 0 0 )    	%  MILD  OLD  V.E.REIN
	   ( 0 100 0 0  100 0 0 0 )    	%  MOD  ACUTE  AXONAL
	   ( 100 0 0 0 0 0 )    	%  MOD  ACUTE  V.E.REIN
	   ( 0 100 0 0 0 0 ))   	%  MOD  ACUTE  E.R 	%  MOD  CHRONIC  AXONAL
	   ( 100 0 0 0 0 0 )    	%  MOD  CHRONIC  V.E.REIN
	   ( 0 100 0 0 0 0 ))   	%  MOD  CHRONIC  E.REIN
	  (( 0 0 0 80 20 0 )    	%  MOD  OLD  DEMY
	   ( 0 0 70 20 10 0 )    	%  MOD  OLD  BLOCK
	   ( 0 0 0 70 30 0 )    	%  MOD  OLD  AXONAL
	   ( 100 0 0 0 0 0 )    	%  MOD  OLD  V.E.REIN
	   ( 0 100 0 0 0 0 )))  	%  MOD  OLD  E.REIN
	 ((( 0 0 100 0 0 0 ) E  DEMY
	   ( 0 0 100 0 0 0 )    	%  SEV  SUBACUTE  BLOCK
	   ( 0 0 100 0 0 0 )    	%  SEV  SUBACUTE  AXONAL
	   ( 100 0 0 0 0 0 )    	%  SEV  SUBACUTE  V.E.REIN
	   ( 0 100 0 0 0 0 ))   	%  SEV  SUBACUTE  E.REIN
	  (( 0 0 0 0 50 50 )    	%  SEV  CHRONIC  DE 100 0 0 0 )    	%  MILD  ACUTE  BLOCK
	   ( 0 0 100 0 0 0 )    	%  MILD  ACUTE  AXONAL
	   ( 100 0 0 0 0 0 )    	%  MILD  ACUTE  V.E.REIN
	   ( 0 100 0 0 0 0 ))   	%  MILD  ACUTE  E.REIN
	  (( 0 0 100 0 0 0 )    	%  MILD  SUBACUTE  DEMY
	   ( 0 0 100 0 0 0 )    	%  MILD  SUBACUTE  BLOCK
	   ( 0 0 100 0 0 0 )    	%  MILD  SUBACUTE  AXONAL
	   ( 100 0 0 0 0 0 )    	%  MILD  SUBACUTE  V.E.REIN
	   ( 0 100 0 0 0 0 ))   	%  MILD  SUBACUTE  E.REIN
	  (( 0 0 90 10 0 0 )    	%  MILD  CHRONIC  DEMY
	   ( 0 0 95 5 0 0 )    	%  MILD  CHRONIC  BLOCK
	   ( 0 0 80 20 0 0 )    	%  MILD  CHRONIC  AXONAL
	   ( 100 0 0 0 0 0 )    	%  MILD  CHRONIC  V.E.REIN
	   ( 0 100 0 0 0 0 ))   	%  MILD  CHRONIC  E.REIN
	  (( 0 0 90 10 0 0 )    	%  MILD  OLD  DEMY
	   ( 0 0 95 5 0 0 )    	%  MILD  OLD  BLOCK
	   ( 0 0 80 20 0 0 )    	%  MILD  OLD  AXONAL
	   ( 100 0 0 0 0 0 )    	%  MILD  OLD  V.E.REIN
	   ( 0 100 0 0 0 0 )))  	%  MILD  OLD  E.REIN
	 ((( 0 0 100 0 0 0 )    	%  MOD  ACUTE  DEMY
	   ( 0 0 100 0 0 0 )    	%  MOD  ACUTE  BLOCK
	   ( 0 0 100 0 0 0 )    	%  MOD  ACUTE  AXONAL
	   ( 100 0 0 0 0 0 )    	%  MOD  ACUTE  V.E.REIN
	   ( 0 100 0 0 0 0 ))   	%  MOD  ACUTE  E.REIN
	  (( 0 0 100 0 0 0 )    	%  MOD  SUBACUTE  DEMY
	   ( 0 0 100 0 0 0 )    	%  MOD  SUBACUTE  BLOCK
	   ( 0 0 100 0 0 0 )    	%  MOD  SUBACUTE  AXONAL
	   ( 100 0 0 0 0 0 )    	%  MOD  SUBACUTE  V.E.REIN
	   ( 0 100 0 0 0 0 ))   	%  MOD  SUBACUTE  E.REIN
	  (( 0 0 20 70 10 0 )    	%  MOD  CHRONIC  DEMY
	   ( 0 0 70 25 5 0 )    	%  MOD  CHRONIC  BLOCK
	   ( 0 0 0 80  	%  MOD  OLD  DEMY
	   ( 0 0 70 25 5 0 )    	%  MOD  OLD  BLOCK
	   ( 0 0 0 80 20 0 )    	%  MOD  OLD  AXONAL
	   ( 100 0 0 0 0 0 )    	%  MOD  OLD  V.E.REIN
	  SEV  CHRONIC  DEMY
	   ( 0 0 0 25 70 5 )    	%  SEV  CHRONIC  BLOCK
	   ( 0 0 0 10 60 30 )    	%  SEV  CHRONIC  AXONAL
	   ( 100 0 0 0 0 0 )    	%  SEV  CHRONIC  V.E.REIN
	   ( 0 100 0 0 0 0 ))   	%  SEV  CHRONIC  E.REIN
	  (( 0 0 0 20 70 10 )    	%  SEV  OLD  DEMY
	   ( 0 0 0 25 70 5 )    	%  SEV  OLD  BLOCK
	   ( 0 0 0 10 60 30 )    	%  SEV  OLD  AXONAL
	   ( 100 0 0 0 0 0 )    	%  SEV  OLD  V.E.REIN
	   ( 0 100 0 0 0 0 )))  	%  SEV  OLD  E.REIN
	 ((( 0 0 100 0 0 0 )    	%  TOTAL  ACUTE  DEMY
	   ( 0 0 100 0 0 0 )    	%  TOTAL  ACUTE  BLOCK
	   ( 0 0 100 0 0 100 0 0 0 )    	%  TOTAL  SUBACUTE  DEMY
	   ( 0 0 100 0 0 0 )    	%  TOTAL  SUBACUTE  BLOCK
	   ( 0 0 100 0 0 0 )    	%  TOTAL  SUBACUTE  AXOTAL  CHRONIC  DEMY
	   ( 0 0 0 25 70 5 )    	%  TOTAL  CHRONIC  BLOCK
	   ( 0 0 0 10 60 30 )    	%  TOTAL  CHRONIC  AXONAL
	   ( 100 0 0 0 0 0 )tial (R_DIFFN_LNLW_APB_MUDENS | R_DIFFN_APB_MUDENS R_LNLW_APB_MUDENS)
{
    data =
	((( 1 0 0 )   	%  NORMAL  NORMAL
	  ( 0 1 0 )   	%  NORMAL  INCR
	  ( 0 0 1 ))  	%  NORMAL  V.INCR
	 (( 0 1 0 )   	%  INCR  NORMAL
	  ( 0 0 1 )   	%  INCR  INCR
	  ( 0 0 1 ))  	%  INCR  V.INCR
	 (( 0 0 1 )   	%  V.INCR  NORMAL
	  ( 0 0 1 )   	%  V.INCR  INCR
	  ( 0 0 1 )));	%  V.INCR  V.INCR
}

potential (R_LNLT1_LP_BE_APB_MUDENS | R_LNLT1_LP_APB_MUDENS R_LNLBE_APB_MUDENS)
{
    data =
	((( 1 0 0 )   	%  NORMAL  NORMAL
	  ( 0 1 0 )   	%  NORMAL  INCR
	  ( 0 0 1 ))  	%  NORMAL  V.INCR
	 (( 0 1 0 )   	%  INCR  NORMAL
	  ( 0 0 1 )   	%  INCR  INCR
	  ( 0 0 1 ))  	%  INCR  V.INCR
	 (( 0 0 1 )   	%  V.INCR  NORMAL
	  ( 0 0 1 )   	%  V.INCR  INCR
S)
{
    data =
	((( 1 0 0 )   	%  NORMAL  NORMAL
	  ( 0 1 0 )   	%  NORMAL  INCR
	  ( 0 0 1 ))  	%  NORMAL  V.INCR
	 (( 0 1 0 )   	%  INCR  NORMAL
	  ( 0 0 1 )   	%OD  MILD
	  ( 0 0 0 1 )   	%  MOD  MOD
	  ( 0 0 0 1 ))  	%  MOD  SEV
	 (( 0 0 0 1 )   	%  SEV  NO
	  ( 0 0 0 1 )   	%  SEV  MILD
	  ( 0 0 0 1 )   	%  SEV  MOD
	  ( 0 0 0 1 )));	%  SEV  SEV
}

potential (R_NMT_APB_DENERV | R_APB_NMT)
{
    data =
	(( 100 0 0 0 )  	%  NO
	 ( 40 45 15 0 )  	%  MOD.PRE
	 ( 15 35 35 15 )  	%  SEV.PRE
	 ( 85 15 0 0 )  	%  MLD.POST
	 ( 30 45 20 5 )  	%  MOD.POST
	 ( 15 35 35 15 )  	%  SEV.POST
	 ( 25 25 25 25 ));	%  MIXED
}

potential (R_MYOP_MYDY_APB_DENERV | R_MYOP_APB_DENERV R_MYDY_APB_DENERV)
{
    data =
	((( 1 0 0 0 )   	%  NO  NO
	  ( 0 1 0 0 )   	%  NO  MILD
	  ( 0 0 1 0 )   	%  NO  MOD
	  ( 0 0 0 1 ))  	%  NO  SEV
	 (( 0 1 0 0 )   	%  MILD  NO
	  ( 0 0 1 0 )   	%  MILD  MILD
	  ( 0 0 0 1 )   	%  MILD  MOD
	  ( 0 0 0 1 ))  	%  MILD  SEV
	 (( 0 0 1 0 )   	%  MOD  NO
	  ( 0 0 0 1 )   	%  MOD  MILD
	  ( 0 0 0 1 )   	%  MOD  MOD
	  ( 0 0 0 1 ))  	%  MOD  SEV
	 (( 0 0 0 1 )   	%  SEV  NO
	  ( 0 0 0 1 )   	%  SEV  MILD
	  ( 0 0 0 1 )   	%  SEV  MOD
	  ( 0 0 0 1 )));	%  SEV  SEV
}

potential (R_DIFFN_MEDD2_SALOSS | DIFFN_S_SEV_DIST DIFFN_PATHO)
{
    data =
	  MOD  V.E.REIN
	  ( 0 0 50 50 0 ))  	%  MOD  E.REIN
	 (( 0 0 50 50 0 )   	%  SEV  DEMY
	  ( 0 20 50 30 0 )   	%  SEV  BLOCK
	  ( 0 0 0 100 0 )   	%  SEV  AXONAL
	  ( 0 0 0 100 0 )   	%  SEV  V.E.REIN
	  ( 0 0 50 50 0 ))  	%  SEV  E.REIN
	 (( 0 0 0 40 60 )   	%  TOTAL  DEMY
	  ( 0 10 40 40 10 )   	%  TOTAL  BLOCK
	  ( 0 0 0 0 100 )   	%  TOTAL  AXONAL
	  ( 0 0 0 100 0 )   	%  TOTAL  V.E.REIN
	  ( 0 0 50 50 0 )));	%  TOTAL  E.REIN
}

potential (R_LNLW_MEDD2_DISP_WD | R_LNLW_MED_SEV R_LNLW_MED_PATHO)
{
    data =
	((( 100 0 0 0 )   	%  NO  DEMY
	  ( 100 0 0 0 )   	%  NO  BLOCK
	  ( 100 0 0 0 )   	%  NO  AXONAL
	  ( 0 0 0 100 )   	%  NO  V.E.REIN
	  ( 0 0 0 100 ))  	%  NO  E.REIN
	 (( 0 100 0 0 )   	%  MILD  DEMY
	  ( 50 50 0 0 )   	%  MILD  BLOCK
	  ( 100 0 0 0 )   	%  MILD  AXONAL
	  ( 0 0 0 100 )   	%  MILD  V.E.REIN
	  ( 0 0 0 100 ))  	%  MILD  E.REIN
	 (( 0 0 100 0 )   	%  MOD  DEMY
	  ( 0 50 50 0 )   	%  MOD  BLOCK
	  ( 50 50 0 0 )   	%  MOD  AXONAL
	  ( 0 0 0 100 )   	%  MOD  V.E.REIN
	  ( 0 0 0 100 ))  	%  MOD  E.REIN
	 (( 0 0 0 100 )   	%  SEV  DEMY
	  ( 0 10 50 40 )   	%  SEV  BLOCK
	  ( 30 50 20 0 )   	%  SEV  AXONAL
	  ( 0 0 0 100 )   	%  SEV  V.E.REIN
	  ( 0 0 0 100 ))  	%  SEV  E.REIN
	 (( 0 0 0 100 )   	%  TOTAL  DEMY
	  ( 0 0 50 50 )   	%  TOTAL  BLOCK
	  ( 0 50 50 0 )   	%  TOTAL  AXONALE  AXONAL
	   ( 0 100 )    	%  NO  ACUTE  V.E.REIN
	   ( 0 100 ))   	%  NO  ACUTE  E.REIN
	  (( 100 0 )    	%  NO  SUBACUTE  DEMY
	   ( 100 0 )    	%  NO  SUBACUTE  BLOCK
	   ( 100 0 )    	%  NO  SUBACUTE  AXONAL
	   ( 0 100 )    	%  NO  SUBACUTE  V.E.REIN
	   ( 0 100 ))   	%  NO  SUBACUTE  E.REIN
	  (( 100 0 )    	%  NO  CHRONIC  DEMY
	   ( 100 0 )    	%  NO  CHRONIC  BLOCK
	   ( 100 0 )    	%  NO  CHRONIC  AXONAL
	   ( 0 100 )    	%  NO  CHRONIC  V.E.REIN
	   ( 0 100 ))   	%  NO  CHRONIC  E.REIN
	  (( 100 0 )    	%  NO  OLD  DEMY
	   ( 100 0 )    	%  NO  OLD  BLOCK
	   ( 100 0 )    	%  NO  OLD  AXONAL
	   ( 0 100 )    	%  NO  OLD  V.E.REIN
	   ( 0 100     	%  MOD  CHRONIC  BLOCK
	   ( 20 80 )    	%  MOD  CHRONIC  AXONAL
	   ( 0 100 )    	%  MOD  CHRONIC  V.E.REIN
	   ( 0 100 ))   	%  MOD  CHRONIC  E.REIN
	  (( 80 20 )    	%  MOD  OLD  DEMY
	   ( 80 20 )    	%  MOD  OLD  BLOCK
	   ( 80 20 )    	%  MOD  OLD  AXONAL
	   ( 0 100 )    	%  MOD  OLD  V.E.REIN
	   ( 0 100 )))  	%  MOD  OLD  E.REIN
	 ((( 100 0 )    	%  SEV  ACUTE  DEMY
	   ( 100 0 )    	%  SEV  ACUTE  BLOCK
	   ( 100 0 )    	%  SEV  ACUTE  AXONAL
	   ( 0 100 )    	%  SEV  ACUTE  V.E.REIN
	   ( 0 100 ))   	%  SEV  ACUTE  E.REIN
	  (( 40 60 )    	%  SEV  SUBACUTE  DEMY
	   ( 40 60 )    	%  SEV  SUBACUTE  BLOCK
	   ( 10 90 )    	%  SEV  SUBACUTE  AXONAL
	   ( 0 100 )    	%  SEV  SUBACUTE  V.E.REIN
	   ( 0 100 ))   	%  SEV  SUBACUTE  E.REIN
	  (( 40 60 )    	%  SEV  CHRONIC  DEMY
	   ( 40 60 )    	%  SEV  CHRONIC  BLOCK
	   ( 10 90 )    	%  SEV  CHRONIC  AXONAL
	   ( 0 100 )    	%  SEV  CHRONIC  V.E.REIN
	   ( 0 100 ))   	%  SEV  CHRONIC  E.REIN
	  (( 40 60 )    	%  SEV  OLD  DEMY
	   ( 40 60 )    	%  SEV  OLD  BLOCK
	   ( 40 60 )    	%  SEV  OLD  AXONAL
	   ( 0 100 )    	%  SEV  OLD  V.E.REIN
	   ( 0 100 )))  	%  SEV  OLD  E.REIN
	 ((( 100 0 )    	%  TOTAL  ACUTE  DEMY
	   ( 100 0 )    	%  TOTAL  ACUTE  BLOCK
	   ( 100 0 )    	%  TOTAL  ACUTE  AXONAL
	   ( 0 100 )    	%  TOTAL  ACUTE  V.E.REINntial (R_DIFFN_APB_DE_REGEN | DIFFN_M_SEV_DIST DIFFN_TIME DIFFN_PATHO)
{
    data =
	(((( 100 0 )    	%  NO  ACUTE  DEMY
	   ( 100 0 )    	%  NO  ACUTE  BLOCK
	   ( 100 0 )    	%  NO  ACUTE  AXONAL
	   ( 0 100 )    	%  NO  ACUTE  V.E.REIN
	   ( 0 100 ))   	%  NO  ACUTE  E.REIN
	  (( 100 0 )    	%  NO  SUBACUTE  DEMY
	   ( 100 0 )    	%  NO  SUBACUTE  BLOCK
	   ( 100 0 )    	%  NO  SUBACUTE  AXONAL
	   ( 0 100 )    	%  NO  SUBACUTE  V.E.REIN
	   ( 0 100 ))   	%  NO  SUBACUTE  E.REIN
	  (( 100 0 )    	%  NO  CHRONIC  DEMY
	   ( 100 0 )    	%  NO  CHRONIC  BLOCK
	   ( 100 0 )    	%  NO  CHRONIC  AXONAL
	   ( 0 100 )    	%  NO  CHRONIC  V.E.REIN
	   ( 0 100 ))   	%  NO  CHRONIC  E.REIN
	  ( 0 100 )    	%  MILD  CHRONIC  V.E.REIN
	   ( 0 100 ))   	%  MILD  CHRONIC  E.REIN
	  (( 100 0 )    	%  MILD  OLD  DEMY
	   ( 100 0 )    	%  MILD  OLD  BLOCK
	   ( 100 0 )    	%  MILD  OLD  AXONAL
	   ( 0 100 )    	%  MILD  OLD  V.E.REIN
	   ( 0 100 )))  	%  MILD  OLD  E.REIN
	 ((( 100 0 )    	%  MOD  ACUTE  DEMY
	   ( 100 0 )    	%  MOD  ACUTE  BLOCK
	   ( 100 0 )    	%  MOD  ACUTE  AXONAL
	   ( 0 100 )    	%  MOD  ACUTE  V.E.REIN
	   ( 0 100 ))   	%  MOD  ACUTE  E.REIN
	  (( 20 80 )    	%  MOD  SUBACUTE  DEMY
	   ( 20 80 )    	%  MOD  SUBACUTE  BLOCK
	   ( 20 80 )    	%  MOD  SUBACUTE  AXONAL
	   ( 0 100 )    	%  MOD  SUBACUTE  V.E.REIN
	   ( 0 100 ))   	%  MOD  SUBACUTE  E.REIN
	  (( 20 80 )    	%  MOD  CHRONIC  DEMY
	 INCR
	  ( 0 0 1 )));	%  V.INCR  V.INCR
}

potential (R_LNLW_APB_MUDENS | R_LNLW_MED_SEV R_LNLW_MED_TIME R_LNLW_MED_PATHO)
{
    data =
	(((( 100 0 0 )    	%  NO  ACUTE  DEMY
	   ( 100 0 0 )    	%  NO  ACUTE  BLOCK
	   ( 100 0 0 )    	%  NO  ACUTE  AXONAL
	   ( 100 0 0 )    	%  NO  ACUTE  V.E.REIN
	   ( 100 0 0 ))   	%  NO  ACUTE  E.REIN
	  (( 100 0 0 )    	%  NO  SUBACUTE  DEMY
	   ( 100 0 0 )    	%  NO  SUBACUTE  BLOCK
	   ( 100 0 0 )    	%  NO  SUBACUTE  AXONAL
	   ( 100 0 0 )    	%  NO  SUBACUTE  V.E.REIN
	   ( 100 0 0 ))   	%  NO  SUBACUTE  E.REIN
	  (( 100 0 0 )    	%  NO  CHRONIC  DEMY
	   ( 100 0 0 )    	%  NO  CHRONIC  BLOCK
	   ( 100 0 0 )    	%  NO  CHRONIC  AXONAL
	   ( 100 0 0 )    	%  NO  CHRONIC  V.E.REIN
	   ( 100 0 0 ))   	%  NO  CHRONIC  E.REIN
	  (( 100 0 0 )    	%  NO  OLD  DEMY
	   ( 100 0 0 )    	%  NO  OLD  BLOCK
	   ( 100 0 0 )    	%  NO  OLD  AXONAL
	   ( 100 0 0 )    	%  NO  OLD  V.E.REIN
	   ( 100 0 0 )))  	%  NO  OLD  E.REIN
	 ((( 100 0 0 )    	%  MILD  ACUTE  DEMY
	   ( 100 0 0 )    	%  MILD  ACUTE  BLOCK
	   ( 100 0 0 )    	%  MILD  ACUTE  AXONAL
	   ( 100 0 0 )    	%  MILD  ACUTE  V.E.REIN
	   ( 100 0 0 ))   	%  MILD  ACUTE  E.REIN
	  (( 90 10 0 )    	%  MILD  SUBACUTE  DEMY
	   ( 90 10 0 )    	%  MILD  SUBACUTE  BLOCK
	   ( 60 40 0 )    	%  MILD  SUBACUTE  AXONAL
	   ( 5 50 45 )    	%  MILD  SUBACUTE  V.E.REIN
	   ( 20 50 30 ))   	%  MILD  SUBACUTE  E.REIN
	  (( 80 20 0 )    	%  MILD  CHRONIC  DEMY
	   ( 80 20 0 )    	%  MILD  CHRONIC  BLOCK
	   ( 70 30 0 )    	%  MILD  CHRONIC  AXONAL
	   ( 5 50 45 )    	%  MILD  CHRONIC  V.E.REIN
	   ( 20 50 30 ))   	%  MILD  CHRONIC  E.REIN
	  (( 80 20 0 )    	%  MILD  OLD  DEMY
	   ( 80 20 ONAL
	   ( 5 50 45 )    	%  SEV  CHRONIC  V.E.REIN
	   ( 20 50 30 ))   	%  SEV  CHRONIC  E.REIN
	  (( 60 40 0 )    	%  SEV  OLD  DEMY
	   ( 60 40 0 )    	%  SEV  OLD  BLOCK
	   ( 0 50 50 )    	%  SEV  OLD  AXONAL
	   ( 5 50 45 )    	%  SEV  OLD  V.E.REIN
	   ( 20 50 30 )))  	%  SEV  OLD  E.REIN
	 ((( 100 0 0 )    	%  TOTAL  ACUTE  DEMY
	   ( 100 0 0 )    	%  TOTAL  ACUTE  BLOCK
	   ( 100 0 0 )    	%  TOTAL  ACUTE  AXONAL
	   ( 100 0 0 )    	%  TOTAL  ACUTE  V.E.REIN
	   ( 100 0 0 ))   	%  TOTAL  ACUTE  E.REIN
	  (( 60 40 0 )    	%  TOTAL  SUBACUTE  DEMY
	   ( 60 40 0 )    	%  TOTAL  SUBACUTE  BLOCK
	   ( 30 60 10 )    	%  TOTAL  SUBACUTE  AXONAL
	   ( 5 50 45 )    	%  TOTAL  SUBACUTE  V.E.REIN
	   ( 20 50 30 ))   	%  TOTAL  SUBACUTE  E.REIN
	  (( 60 40 0 )    	%  TOTAL  CHRONIC  DEMY
	   ( 60 40 0 )    	%  TOTAL  CHRONIC  BLOCK
	   ( 0 50 50 )    	%  TOTAL  CHRONIC  AXONAL
	   ( 5 50 45 )    	%  TOTAL  CHRONIC  V.E.REIN
	   ( 20 50 30 ))   	%  TOTAL  CHRONIC  E.REIN
	  (( 60 40 0 )    	%  TOTAL  OLD  DEMY
	   ( 60 40 0 )    	%  TOTAL  OLD  BLOCK
	   ( 0 50 50 )    	%  TOTAL  OLD  AXONAL
	   ( 5 50 45 )    	%  TOTAL  OLD  V.E.REIN
	   ( 20 50 30 ))));	%  TOTAL  OLD  E.REIN
}

potential (R_DIFFN_APB_MUDENS | DIFFN_M_SEV_DIST DIFFN_TIME DIFFN_PATHO)
{
    data =
	(((( 100 0 0 )    	%  NO  ACUTE  DEMY
	   ( 100 0 0 )    	%  NO  ACUTE  BLOCK
	   ( 100 0 0 )    	%  NO  ACUTE  AXONAL
	   ( 100 0 0 )    	%  NO  ACUTE  V.E.REIN
	   ( 100 0 0 ))   	%  NO  ACUTE  E.REIN
	  (( 100 0 0 )    	%  NO  SUBACUTE  DEMY
	   ( 100 0 0 )    	%  NO  SUBACUTE  BLOCK
   ( 100 0 0 )    	%  MILD  ACUTE  AXONAL
	   ( 100 0 0 )    	%  MILD  ACUTE  V.E.REIN
	   ( 100 0 0 ))   	%  MILD  ACUTE  E.REIN
	  (( 90 10 0 )    	%  MILD  SUBACUTE  DEMY
	   ( 90 10 0 )    	%  MILD  SUBACUTE  BLOCK
	   ( 60 40 0 )    	%  MILD  SUBACUTE  AXONAL
	   ( 5 50 45 )    	%  MILD  SUBACUTE  V.E.REIN
	   ( 20 50 30 ))   	%  MILD  SUBACUTE  E.REIN
	  (( 80 20 0 )    	%  MILD  CHRONIC  DEMY
	   ( 80 20 0 )    	%  MILD  CHRONIC  BLOCK
	   ( 70 30 0 )    	%  MILD  CHRONIC  AXONAL
	   ( 5 50 45 )    	%  MILD  CHRONIC  V.E.REIN
	   ( 20 50 30 ))   	%  MILD  CHRONIC  E.REIN
	  (( 80 20 0 )    	%  MILD  OLD  DEMY
	 ( 20 50 30 )))  	%  MILD  OLD  E.REIN
	 ((( 100 0 0 )    	%  MOD  ACUTE  DEMY
	   ( 100 0 0 )    	%  MOD  ACUTE  BLOCK
	   ( 1E  DEMY
	   ( 80 20 0 )    	%  MOD  SUBACUTE  BLOCK
	   ( 50 50 0 )    	%  MOD  SUBACUTE  AXONAL
	   ( 5 50 45 )    	%  MOD  SUBACUTE  V.E.REIN
	   ( 20 50 
	   ( 5 50 45 )    	%  MOD  CHRONIC  V.E.REIN
	   ( 20 50 30 ))   	%  MOD  CHRONIC  E.REIN
	  (( 70 30 0 )    	%  MOD  OLD  DEMY
	   ( 70 30 0 )    	%  MOD  OLD  NLBE_APB_NEUR_ACT)
{
    data =
	( 1 0 0 0 0 0 );
}

potential (R_LNLT1_LP_APB_NEUR_ACT | R_LNLT1_APB_NEUR_ACT R_LNLLP_APB_NEUR_ACT)
{
    data =
	((( 1 0 0 0 0 0 )   	%  NO  NO
	  ( 0 1 0 0 0 0 )   	%  NO  FASCIC
	  ( 0 0 1 0 0 0 )   	%  NO  NEUROMYO
	  ( 0 0 0 1 0 0 )   	%  NO  MYOKYMIA
	  ( 0 0 0 0 1 0 )   	%  NO  TETANUS
	  ( 0 0 0 0 0 1 ))  	%  NO  OTHER
	 (( 0 1 0 0 0 0 )   	%  FASCIC  NO
	  ( 0 1 0 0 0 0 )   	%  FASCIC  FASCIC
	  ( 0 0 1 0 0 0 )   	%  FASCIC  NEUROMYO
	  ( 0 0 0 1 0 0 )   	%  FASCIC  MYOKYMIA
	  ( 0 0 0 0 1 0 )   	%  FASCIC  TETANUS
	  ( 0 0 0 0 0 1 ))  	%  FASCIC  OTHER
	 (( 0 0 1 0 0 0 )   	%  NEUROMYO  NO
	  ( 0 0 1 0 0 0 )   	%  NEUROMYO  FASCIC
	  ( 0 0 1 0 0 0 )   	%  NEUROMYO  NEUROMYO
	  ( 0 0 0 1 0 0 )   	%  NEUROMYO  MYOKYMIA
	  ( 0 0 0 0 1 0 )   	%  NEUROMYO  TETANUS
	  ( 0 0 0 0 0 1 ))  	%  NEUROMYO  OTHER
	 (( 0 0 0 1 0 0 )   	%  MYOKYMIA  NO
	  ( 0 0 0 1 0 0 )   	%  MYOKYMIA  FASCIC
	  ( 0 0 0 1 0 0 )   	%  MYOKYMIA  NEUROMYO
	  ( 0 0 0 1 0 0 )   	%  MYOKYMIA  MYOKYMIA
	  ( 0 0 0 0 1 0 )   	%  MYOKYMIA  TETANUS
	  ( 0 0 0 0 0 1 ))  	%  MYOKYMIA  OTHER
	 (( 0 0 0 0 0 0 0 0 ))  	%  SEV  OLD
	 (( 90 10 0 0 0 0 )   	%  TOTAL  ACUTE
	  ( 100 0 0 0 0 0 )   	%  TOTAL  SUBACUTE
	  ( 100 0 0 0 0 0 )   	%  TOTAL  CHRONIC
	  ( 100 0 0 0 0 0 )));	%  TOTAL  OLD
}

potential (R_DIFFN_APB_NEUR_ACT | DIFFN_M_SEV_DIST DIFFN_TIME)
{
    data =
	((( 100 0 0 0 0 0 )   	%  NO  ACUTE
	  ( 100 0 0 0 0 0 )   	%  NO  SUBACUTE
	  ( 100 0 0 0 0 0 )   	%  NO  CHRONIC
	  ( 100 0 0 0 0 0 ))  	%  NO  OLD
	 (( 90 10 0 0 0 0 )   	%  MILD  ACUTE
	  ( 70 30 0 0 0 0 )   	%  MILD  SUBACUTE
	  ( 50 50 0 0 0 0 )   	%  MILD  CHRONIC
	  ( 10 90 0 0 0 0 ))  	%  MILD  OLD
	 (( 90 10 0 0 0 0 )   	%  MOD  ACUTE
	  ( 70 30 0 0 0 0 )   	%  MOD  SUBACUTE
	  ( 50 50 0 0 0 0 )   	%  MOD  CHRONIC
	  ( 70 30 0 0 0 0 ))  	%  MOD  OLD
	 (( 90 10 0 0 0 0 )   	%  SEV  ACUTE
	  ( 70 30 0 0 0 0 )   	%  SEV  SUBACUTE
	  ( 30 70 0 0 0 0 )   	%  SEV  CHRONIC
	  ( 30 70 0 0 0 0 )));	%  SEV  OLD
}

potential (R_LNLBE_APB_DENERV)
{
    data =
	( 1 0 0 0 );
}

potential (R_LNLT1_LP_APB_DENERV | R_LNLT1_APB_DENERV R_LNLLP_APB_DENERV)
{
    data =
	((( 1 0 0 0 )   	%  NO  NO
	  ( 0 1 0 0 )   	%  NO  MILD
	  ( 0 0 1 0 )   	%  NO  MOD
	  ( 0 0 0 1 ))  SUBACUTE  BLOCK
	   ( 100 0 0 0 )    	%  NO  SUBACUTE  AXONAL
	   ( 100 0 0 0 )    	%  NO  SUBACUTE  V.E.REIN
	   ( 100 0 0 0 ))   	%  NO  SUBACUTE  E.REIN
	  (( 100 0 0 0 )    	%  NO  CHRONIC  DEMY
	   ( 100 0 0 0 )    	%  NO  CHRONIC  BLOCK
	   ( 100 0 0 0 )    	%  NO  CHRONIC  AXONAL
	   ( 100 0 0 0 )    	%  NO  CHRONIC  V.E.REIN
	   ( 100 0 0 0 ))   	%  NO  CHRONIC  E.REIN
	  (( 100 0 0 0 )    	%  NO  OLD  DEMY
	   ( 100 0 0 0 )    	%  NO  OLD  BLOCK
	   ( 100 0 0 0 )    	%  NO  OLD  AXONAL
	   ( 100 0 0 0 )    	%  NO  OLD  V.E.REIN
	   ( 100 0 0 0 )))  	%  NO  OLD  E.REIN
	 ((( 80 20 0 0 )    	%  MILD  ACUTE  DEMY
	   ( 80 20 0 0 )    	%  MILD  ACUTE  BLOCK
	   ( 80 20 0 0 )    	%  MILD  ACUTE  AXONAL
	   ( 0 0 50 50 )    	%  MILD  ACUTE  V.E.R SUBACUTE  BLOCK
	   ( 0 100 0 0 )    	%  MILD  SUBACUTE  AXONAL
	   ( 0 0 50 50 )    	%  MILD  SUBACUTE  V.E.REIN
	   ( 5 40ILD  CHRONIC  AXONAL
	   ( 0 0 50 50 )    	%  MILD  CHRONIC  V.E.REIN
	   ( 5 40 50 5 ))   	%  MILD  CHRONIC  E.REIN
	  (( 100 0 0 0 )    	%  MILD  OLD  DEMY
	   ( 100 0 0 0 )    	%  MILD  OLD  BLOCK
	   ( 100 0 0 0 )    	%  MILD  OLD  AXONAL
	   ( 0 0 50 50 ) 	   ( 0 0 50 50 )    	%  MOD  ACUTE  V.E.REIN
	   ( 5 40 50 5 ))   	%  MOD  ACUTE  E.REIN
	  (( 30 50 20 0 )    	%  MOD  SUBACUTE  DEMY
	   ( 60 40 0 0 )    	%  MOD  SUBACUTE  BLOCK
	   ( 0 0 100 0 )  SEV  CHRONIC  AXONAL
	   ( 0 0 50 50 )    	%  SEV  CHRONIC  V.E.REIN
	   ( 5 40 50 5 ))   	%  SEV  CHRONIC  E.REIN
	  (( 50 40 10 0 )    	%  SEV  OLD  DEMY
	   ( 50 50 0 0 )    	%  SEV  OLD  BLOCK
	   ( 60 30 10 0 )    	%  SEV  OLD  AXONAL
	   ( 0 0 50 50 )    	%  SEV  OLD  V.E.REIN
	   ( 5 40 50 5 )))  	%  SEV  OLD  E.REIN
	 ((( 80 20 0 0 )    	%  TOTAL  ACUTE  DEMY
	   ( 80 20 0 0 )    	%  TOTAL  ACUTE  BLOCK
	   ( 80 20 0 0 )    	%  TOTAL  ACUTE  AXONAL
	   ( 0 0 50 50 )    	%  TOTAL  ACUTE  V.E.REIN
	   ( 5 40 50 5 ))   	%  TOTAL  ACUTE  E.REIN
	  (( 0 40 40 20 )    	%  TOTAL  SUBACUTE  DEMY
	   ( 30 40 30 0 )    	%  TOTAL  SUBACUTE  BLOCK
	   ( 0 0 0 100 )    	%  TOTAL  SUBACUTE  AXONAL
	   ( 0 0 50 50 )    	%  TOTAL  SUBACUTE  V.E.REIN
	   ( 5 40 50 5 ))   	%  TOTAL  SUBACUTE  E.REIN
	  (( 0 40 40 20 )    	%  TOTAL  CHRONIC  DEMY
	   ( 30 40 30 0 )    	%  TOTAL  CHRONIC  BLOCK
	   ( 0 0 0 100 )    	%  TOTAL  CHRONIC  AXONAL
	   ( 0 0 50 50 )    	%  TOTAL  CHRONIC  V.E.REIN
	   ( 5 40 50 5 ))   	%  TOTAL  CHRONIC  E.REIN
	  (( 10 60 25 5 )    	%  TOTAL  OLD  DEMY
	   ( 50 50 0 0 )    	%  TOTAL  OLD  BLOCK
	   K
	   ( 100 0 0 0 )    	%  NO  CHRONIC  AXONAL
	   ( 100 0 0 0 )    	%  NO  CHRONIC  V.E.REIN
	   ( 100 0 0 0 ))   	%  NO  CHRONIC  E.REIN
	  (( 100 0 0 0 )    	%  NO  OLD  DEMY
	   ( 100 0 0 0 )    	%  NO  OLD  BLOCK
	   ( 100 0 0 0 )    	%  NO  OLD  AXONAL
	   ( 100 0 0 0 )    	%  NO  OLD  V.E.REIN
	   ( 100 0 0 0 )))  	%  NO  OLD  E.REIN
	 ((( 80 20 0 0 )    	%  MILD  ACUTE  DEMY
	   ( 80 20 0 0 )    	%  MILD  ACUTE  BLOCK
	   ( 80 20 0 0 )    	%  MILD  ACUTE  AXONAL
	   ( 0 0 50 50 )    	%  MILD  ACUTE  V.E.REIN
	   ( 5 40 50 5 ))   	%  MILD  ACUTE  E.REIN
	  (( 80 20 0 0 )    	%  MILD  SUBACUTE  DEMY
	   ( 90 10 0 0 )    	%  MILD  SUBACUTE  BLOCK
	   ( 0 100 0 0 )    	%  MILD  SUBACUTE  AXONAL
	   ( 0 0 50 50 )    	%  MILD  SUBACUTE  AXONAL
	   ( 0 0 50 50 )    	%  MILD  CHRONIC  V.E.REIN
	   ( 5 40 50 5 ))   	%  MILD  CHRONIC  E.REIN
	  (( 100 0 0 0 )    	%  MILD  OLD  DEMY
	   ( 100 0 0 0 )    	%  MILD  OLD  BLOCK
	 OLD  V.E.REIN
	   ( 5 40 50 5 )))  	%  MOD  OLD  E.REIN
	 ((( 80 20 0 0 )    	%  SEV  ACUTE  DEMY
	   ( 80 20 0 0 )    	%  SEV  ACUTE  BLOCK
	   ( 80 20 0 0 )    	%  SEV  ACUTE  AXONAL
	   ( 0 0 50 50 )    	%  SEV  ACUTE  V.E.REIN
	   ( 5 40 50 5 ))   	%  SEV  ACUTE  E.REIN
	  (( 10 50 40 0 )    	%  SEV  SUBACUTE  DEMY
	   ( 40 50 10 0 )    	%  SEV  SUBACUTE  BLOCK
	   ( 0 0 50 50 )    	%  SEV  SUBACUTE  AXONAL
	   ( 0 0 50 50 )    	%  SEV  SUBACUTE  V.E.REIN
	   ( 5 40 50 5 ))   	%  SEV  SUBACUTE  E.REIN
	  (( 10 50 40 0 )    	%  SEV  CHRONIC  DEMY
	   ( 40 50 10 0 )    	%  SEV  CHRONIC  BLOCK
	   ( 0 0 50 50 )    	%  SEV  CHRONIC  AXONAL
	   ( 0 0 50 50 )    	%  SEV  CHRONIC  V.E.REIN
	   ( 5 40 50 5 ))   	%  SEV  CHRONIC  E.REIN
	  (( 50 40 10 0 )    	%  SEV  OLD  DEMY
	   ( 50 50 0 0 )    	%  SEV  OLD  BLOCK
	   ( 60 30 10 0 )    	%  SEV  OLD  AXONAL
	   ( 0 0 50 50 )    	%  SEV  OLD  V.E.REIN
	   ( 5 40 50 5 ))));	%  SEV  OLD  E.REIN
}

potential (R_MYDY_APB_DENERV)
{
    data =
	( 1 0 0 0 );
}

potential (R_)
{
    data =
	((( 100 0 0 0 )   	%  NO  DIST
	  ( 100 0 0 0 )   	%  NO  PROX
	  ( 100 0 0 0 ))  	%  NO  RANDOM
	 (( 0 100 0 0 )   	%  MILD  DIST
	  ( 100 0 0 0 )   	%  MILD  PROX
	  ( 25 45 25 5 ))  	%  MILD  RANDOM
	 (( 0 0 100 0 )   	%  MOD  DIST
	  ( 50 50 0 0 )   	%  MOD  PROX
	  ( 10 40 40 10 ))  	%  MOD  RANDOM
	 (( 0 0 0 100 )   	%  SEV  DIST
	  ( 0 50 50 0 )   	%  SEV  PROX
	  ( 5 15 40 40 )));	%  SEV  RANDOM
}

potential (DIFFN_TIME)
{
    data =
	( 1 25 65 9 );
}

potential (R_LNLW_MED_TIME)
{
    data =
	( 5 33 60 2 );
}

potential (R_LNLLP_APB_DE_REGEN)
{
    data =
	( 1 0 );
}

potential (R_LNLLP_APB_MUDENS)
{
    data =
	( 1 0 0 );
}

potential (R_LNLLP_APB_NEUR_ACT)
{
    data =
	( 1 0 0 0 0 0 );
}

potential (R_LNLLP_APB_DENERV)
{
    data =
	( 1 0 0 0 );
}

potential (DIFFN_DISTR)
{
    data =
	( 93 2 5 );
}

po	%  MOD  SENS
	 (( 0 0 0 100 )   	%  SEV  MOTOR
	  ( 0 0 0 100 )   	%  SEV  MIXED
	  ( 100 0 0 0 )));	%  SEV  SENS
}

potential (DIFFN_TYPE)
{
    data =
	( 6 93.5 0.5 );
}

potential (DIFFN_SEV)
{
    data =
	( 90 5 3 2 );
}

potential (DIFFN_DUMMY_1 | DIFFN_M_SEV_PROX DIFFN_PATHO DIFFN_TIME)
{
    data =
	(((( 1 )    	%  NO  DEMY  ACUTE
	   ( 1 )    	%  NO  DEMY  SUBACUTE
	   ( 1 )    	%  NO  DEMY  CHRONIC
	   ( 1 ))   	%  NO  DEMY  OLD
	  (( 1 )    	%  NO  BLOCK  ACUTE
	   ( 1 )    	%  NO  BLOCK  SUBACUTE
	   ( 1 )    	%  NO  BLOCK  CHRONIC
	   ( 1 ))   	%  NO  BLOCK  OLD
	  (( 1 )    	%  NO  AXONAL  ACUTE
	   ( 1 )    	%  NO  AXONAL  SUBACUTE
	   ( 1 )    	%  NO  AXONAL  CHRONIC
	   ( 1 ))   	%  NO  AXONAL  OLD
	  (( 1 )    	%  NO  V.E.REIN  ACUTE
	   ( 1 )    	%  NO  V.E.REIN  SUBACUTE
	   ( 1 )    	%  NO  V.E.REIN  CHRONIC
	   ( 1 ))   	%  NO  V.E.REIN  OLD
	  (( 1 )    	%  NO  E.REIN  ACUTE
	   ( 1 )    	%  NO  E.REIN  SN  CHRONIC
	   ( 1 )))  	%  MILD  E.REIN  OLD
	 ((( 1 )    	%  MOD  DEMY  ACUTE
	   ( 1 )    	%  MOD  DEMY  SUBACUTE
	   ( 1 )    	%  MOD  DEMY  CHRONIC
	   ( 1 ))   	%  MOD  DEMY  OLD
	  (( 1 )    	%  MOD  BLOCK  ACUTE
	   ( 1 )    	%  MOD  BLOCK  SUBACUTE
	   ( 1 )    	%  MOD  BLOCK  CHRONIC
	   ( 1 ))   	%  MOD  BLOCK  OLD
	  (( 1 )    	%  MOD  AXONAL  ACUTE
	   ( 1 )    	%  MOD  AXONAL  SUBACUTE
	   ( 1 )    	%  MOD  AXONAL  CHRONIC
	   ( 1 ))   	%  MOD  AXONAL  OLD
	  (( 1 )    	%  MOD  V.E.REIN  ACUTE
	   ( 1 )    	%  MOD  V.E.REIN  SUBACUTE
	   ( 1 )    	%  MOD  V.E.REIN  CHRONIC
	   ( 1 ))   	%  MOD  V.E.REIN  OLD
	  (( 1 )    	%  MOD  E.REIN  ACUTE
	   ( 1 )    	%  MOD  E.REIN  SUBACUTE
	   ( 1 )    	%  MOD  E.REIN  CHRONIC
	   ( 1 )))  	%  MOD  E.REIN  OLD
	 ((( 1 )    	%  SEV  DEMY  ACUTE
	   ( 1 )    	%  SEV  DEMY  SUBACUTE
	  %  SEV  RANDOM
}

potential (DIFFN_DUMMY_2 | DIFFN_M_SEV_DIST DIFFN_PATHO DIFFN_TIME)
{
    data =
	(((( 1 )    	%  NO  DEMY  ACUTE
	   ( 1 )    	%  NO  DEMY  SUBACUTE
	   ( 1 )    	%  NO  DEMY  CHRONIC
	   ( 1 ))   	%  NO  DEMY  OLD
	  (( 1 )    	%  NO  BLOCK  ACUTE
	   ( 1 )    	%  NO  BLOCK  SUBACUTE
	   ( 1 )    	%  NO  BLOCK  CHRONIC
	   ( 1 ))   	%  NO  BLOCK  OLD
	  (( 1 )    	%  NO  AXONAL  ACUTE
	   ( 1 )    	%  NO  AXONAL  SUBACUTE
	   ( 1 )    	%  NO  AXONAL  CHRONIC
	   ( 1 ))   	%  NO  AXONAL  OLD
	  (( 1 )    	%  NO  V.E.REIN  ACUTE
	   ( 1 )    	%  NO  V.E.REIN  SUBACUTE
	   ( 1 )    	%  NO  V.E.REIN  CHRONIC
	   ( 1 ))   	%  NO  V.E.REIN  OLD
	  (( 1 )    	%  NO  E.REIN  ACUTE
	   ( 1 )    	%  NO  E.REIN  SUBACUTE
	   ( 1 )    	%  NO  E.REIN  CHRONIC
	   ( 1 )))  	%  NO  E.REIN  OLD
	 ((( 1 )    	%  MILD  DEMY  ACUTE
	   ( 1 )    	%  MILD  DEMY  SUBACUTE
	   ( 1 )    	%  MILD  DEMY  CHRONIC
	   ( 1 ))   	%  MILD  DEMY  OLD
	  (( 1 )    	%  MILD  BLOCK  ACUTE
	   ( 1 )    	%  MILD  BLOCK  SUBACUTE
	   ( 1 )    	%  MILD  BLOCK  CHRONIC
	   ( 1 ))   	%  MILD  BLOCK  OLD
	  (( 1 )    	%  MILD  C
	   ( 1 ))   	%  MOD  BLOCK  OLD
	  (( 1 )    	%  MOD  AXONAL  ACUTE
	   ( 1 )    	%  MOD  AXONAL  SUBACUTE
	   ( 1 )    	%  MOD  AXONAL  CHRONIC
	   ( 1 ))   	%  MOD  AXONAL  OLD
	  (( 1 )    	%  MOD  V.E.REIN  ACUTE
	   ( 1 )    	%  MOD  V.E.REIN  SUBACUTE
	   ( 1 )    	%  MOD  V.E.REIN  CHRONIC
	   ( 1 ))   	%  MOD  V.E.REIN  OLD
	  (( 1 )    	%  MOD  E.REIN  ACUTE
	   ( 1 )    	%  MOD  E.REIN  SUBACUTE
	   ( 1 )    	%  MOD  E.REIN  CHRONIC
	   ( 1 )))  	%  MOD  E.REIN  OLD
	 ((( 1 )    	%  SEV  DEMY  ACUTE
	   ( 1 )    	%  SEV  DEMY  SUBACUTE
	   ( 1 )    	%  SEV  DEMY  CHRONIC
	   ( 1 ))   	%  SEV  DEMY  OLD
	  (( 1 )    	%  SEV  BLOCK  ACUTE
	   ( 1 )    	%  SEV  BLOCKAXONAL  OLD
	  (( 1 )    	%  NO  V.E.REIN  ACUTE
	   ( 1 )    	%  NO  V.E.REIN  SUBACUTE
	   ( 1 )    	%  NO  V.E.REIN  CHRONIC
	   ( 1 ))   	%  NO  V.E.REIN  OLD
	  (( 1 )    	%  NO  E.REIN  ACUTE
	   ( 1 )    	%  NO  E.REIN  SUBACUTE
	   ( 1 )    	%  NO  E.REIN  CHRONIC
	   ( 1 )))  	%  NO  E.REIN  OLD
	 ((( 1 )    	%  MILD  DEMY  ACUTE
	   ( 1 )    	%  MILD  DEMY  SUBACUTE
	   ( 1 )    	%  MILD  DEMY  CHRONIC
	   ( 1 ))   	%  MILD  DEMY  OLD
	  (( 1 )    	%  MILD  BLOCK  ACUTE
	   ( 1 )    	%  MILD  BLOCK  SUBACUTE
	   ( 1 )    	%  MILD  BLOCK  CHRONIC
	   ( 1 ))   	%  MILD  BLOCK  OLD
	  (( 1 )    	%  MILD  AXONAL  ACUTE
	   ( 1 )    	%  MILD  AXONAL  SUBACUTE
	   ( 1 )    	%  MILD  AXONAL  CHRONIC
	   ( 1 ))   	%  MILD  AXONAL  OLD
	  (( 1 )    	%  MILD  V.E.REIN  ACUTE
	   ( 1 )    	%  MILD  V.E.REIN  SUBACUTE
	   ( 1 )    	%  MILD  V.E.REIN  CHRONIC
	   ( 1 ))   	%  MILD  V.E.REIN  OLD
	  (( 1 )    	%  MILD  E.REIN  ACUTE
	   ( 1 )    	%  MILD  E.REIN  SUBACUTE
	   ( 1 )    	%  MILD  E.REIN  CHRONIC
	   ( 1 )))  	%  MILD  E.REIN  OLD
	 ((( 1 )    	%  MOD  DEMY  A%  SEV  BLOCK  OLD
	  (( 1 )    	%  SEV  AXONAL  ACUTE
	   ( 1 )    	%  SEV  AXONAL  SUBACUTE
	   ( 1 )    	%  SEV  AXONAL  CHRONIC
	   ( 1 ))   	%  SEV  AXONAL  OLD
	  (( 1 )    	%  SEV  V.E.REIN  ACUTE
	   ( 1 )    	%  SEV  V.E.REIN  SUBACUTE
	   ( 1 )    	%  SEV  V.E.REIN  CHRONIC
	   ( 1 ))   	%  SEV  V.E.REIN  OLD
	  (( 1 )    	%  SEV  E.REIN  ACUTE
	   ( 1 )    	%  SEV  E.REIN  SUBACUTE
	   ( 1 )    	%  SEV  E.REIN  CHRONIC
	   ( 1 ))));	%  SEV  E.REIN  OLD
}

potential (R_ULND5_AMPR_E | R_ULND5_DISP_EED R_ULND5_BLOCK_E)
{
    data =
	((( 0 0.0836 0.9164 0 0 0 0 0 0 0 0 0 )   	%  R0.15  NO
	  ( 0 0.9893 0.0107 0 0 0 0 0 0 0 0 0 )   	%  R0.15  MILD
	  ( 0 0.9998 0.0002 0 0 0 0 0 0 0 0 0 )   	%  R0.15  MOD
	  ( 0 0.9534 0.0434 0.0028 0.0003 0.0001 0 0 0 0 0 0 )   	%  R0.15  SEV
	  ( 1 0 0 0 0 0 0 0 0 0 0 0 ))  	%  R0.15  TOTAL
	 (( 0 0 0.5059 0.4935 0.0006 0 0 0 0 0 0 0 )   	%  R0.25  NO
	  ( 0 0 0.9815 0.0185 0 0 0 0 0 0 0 0 )   	%  R0.25  MILD
	 0 0.5217 0.4707 0.0076 0 0 0 0 0 0 )   	%  R0.35  NO
	  ( 0 0 0.0129 0.9294 0.0575 0.0002 0 0 0 0 0 0 )   	%  R0.35  MILD
	  ( 0 0.0007 0.8957 0.1018 0.0017 0 0 0 0 0 0 0 )   	%  R0.35  MOD
	  ( 0 0.7906 0.1726 0.0281 0.0064 0.0017 0.0005 0.0002 0.0001 0 0AL
	 (( 0 0 0 0 0.0002 0.0639 0.4332 0.4027 0.0895 0.01 0.0006 0 )   	%  R0.65  NO
	  ( 0 0 0 0 0.0304 0.4581 0.4125 0.092 0.0066 0.0004 0 0 )   	%  R0.65  MILD
	  ( 0 0 0.0025 0.277 0.5116 0.1781 0.0275 0.0031 0.0002 0 0 0 )   	%  R0.65  MOD
	  ( 0 0.4912 0.3361 0.1079 0.0388 0.0148 0.006 0.0028 0.0013 0.0006 0.0003 0.0002 )   	%  R0.65  SEV
	  ( 1 0 0 0 0 0 0 0 0 0 0 0 ))  	%  R0.65  TOTAL
	 (( 0 0 0 0 0 0.0026 0.102 0.4076 0.3533 0.1151 0.0191 0.0003 )   	%  R0.75  NO
	  ( 0 0 0 0 0.0011 0.1122 0.4488 0.3467 0.0798 0.0106 0.0008 0 )   	%  R0.75  MILD
	  ( 0 0 0.0002 0.0802 0.4286 0.3571 0.109 0.0218 0.0027 0.0003 0 0 )   	%  R0.75  MOD
	  ( 0 0.408 0.3613 0.1352 0.054 0.0224 0.0097 0.0048 0.0023 0.0012 0.0007 0.0004 )   	%  R0.75  SEV
	  ( 1 0 0 0 0 0 0 0 0 0 0 0 ))  	%  R0.75  TOTAL
	 (( 0 0 0 0 0 0 L
}

potential (R_ULND5_BLOCK_E | R_OTHER_ULND5_BLOCK R_LNLE_DIFFN_ULND5_BLOCK_E)
{
    data =
	((( 1 0 0 0 0 )   	%  NO  NO
	  ( 0.0077 0.9923 0 0 0 )   	%  NO  MILD
	  ( 0.0007 0.0234 0.9759 0 0 )   	%  NO  MOD
	  ( 0.0019 0.006 0.0588 0.9333 0 )   	%  NO  SEV
	  ( 0 0 0 0 1 ))  	%  NO  TOTAL
	 (( 0.0077 0.9923 0 0 0 )   	%  MILD  NO
	  ( 0.0001 0.498 0.5019 0 0 )   	%  MILD  MILD
	  ( 0 0.0032 0.9968 0 0 )   	%  MILD  MOD
	  ( 0.001 0.0033 0.0376 0.9581 0 )   	%  MILD  SEV
	  ( 0 0 0 0 1 ))  	%  MILD  TOTAL
	 (( 0.0007 0.0234 0.9759 0 0 )   	%  MOD  NO
	  ( 0 0.0032 0.9968 0 0 )   	%  MOD  MILD
	  ( 0 0.0007 0.4328 0.5665 0 )   	%  MOD  MOD
	  ( 0.0003 0.0011 0.0159 0.9827 0 )   	%  MOD  SEV
	  ( 0 0 0 0 1 ))  	%  MOD  TOTAL
	 (( 0.0019 0.006 0.0588 0.9333 0 )   	%  SE%  MOD  SEV
	 (( 0 0 0 0 0 0 0 0.133 0.867 )   	%  SEV  NO
	  ( 0 0 0 0 0 0 0 0.133 0.867 )   	%  SEV  MILD
	  ( 0 0 0 0 0 0 0 0.133 0.867 )   	%  SEV  MOD
	  ( 0 0 0 0 0 0 0.0213 0.9045 0.0742 )));	%  SEV  SEV
}

potential (R_ULND5_CV_E | R_ULND5_ALLCV_E)
{
    data =
	(( 0 0 0 0 0 0 0 0 0 0 0.0001 0.001 0.0115 0.0483 0.1381 0.2149 0.2481 0.1747 0.1068 0.0566 )  	%  M/S60
	 ( 0 0 0 0 0 0 0 0 0 0.0005 0.0073 0.0374 0.1243 0.1988 0.2343 0.1988 0.1201 0.0512 0.0199 0.0075 )  	%  M/S52
	 ( 0 0 0 0 0 0 0 0.0004 0.0094 0.056 0.1549 0.2295 0.2469 0.1596 0.0834 0.0409 0.0139 0.0038 0.001 0.0003 )  	%  M/S44
	 ( 0 0 0 0 0 0 0.0027 0.0385 0.174 0.2983 0.2508 0.146 0.064 0.0192 0.0048 0.0014 0.0003 0 0 0 )  	%  M/S36
	 ( 0 0 0 0 0.0002 0.0226 0.1786 0.3397 0.2748 0.1364 0.0366 0.009 0.0018 0.0003 0 0 0 0 0 0 )  	%  M/S28
	 ( 0 0 0 0.0092 0.1868 0.4188 0.2744 0.089 0.0178 0.0035 0.0004 0.0001 0 0 0 0 0 0 0 0 )  	%  M/S20
	 ( 0 0 0.0179 0.4202 0.4232 0.1173 0.019 0.0023 0.0002 0 0 0 0 0 0 0 0 0 0 0 )  	%  M/S14
	 ( 0 0.0264 0.7837 0.1731 0.0158 0.001 0.0001 0 0 0 0 0 0 0 0 0 0 0 0 0 )  	%  M/S08
	 ( 1 .0712 0.2467 0.6617 0 )   	%  MILD  M/S08
	  ( 0 0 0 0 0 0 0 0 1 ))  	%  MILD  M/S00
	 (( 0 0.0218 0.9469 0.0313 0 0 0 0 0 )   	%  MOD  M/S60
	  ( 0 0.0007 0.2183 0.779 0.002 0 0 0 0 )   	%  MOD  M/S52
	  ( 0 0 0.0077 0.4577 0.5345 0.0001 0 0 0 )   	%  MOD  M/S44
	  ( 0 0 0 0.0166 0.9182 0.0652 0 0 0 )   	%  MOD  M/S36
	  ( 0 0 0 0 0.0398 0.946 0.0142 0 0 )   	%  MOD  M/S28
	  ( 0 0 0 0 0.0002 0.1104 0.8881 0.0013 0 )   	%  MOD  M/S20
	  ( 0 0 0 0 0 0.002 0.3203 0.6777 0 )   	%  MOD  M/S14
	  ( 0 0.0001 0.0005 0.0019 0.0093 0.0504 0.2072 0.7305 0 )   	%  MOD  M/S08
	  ( 0 0 0 0 0 0 0 0 1 ))  	%  MOD  M/S00
	 (( 0.0003 0.0019 0.014 0.0788 0.3238 0.4596 0.1212 0.0003 0 )   	%  SEV  M/S60
	  ( 0.0001 0.0004 0.0043 0.0321 0.1956 0.5049 0.2604 0.0023 0 )   	%  SEV  M/S52
	  ( 0 0.0001 0.0007 0.0074 0.0735 0.4044 0.4938 0.0201 0 )   	%  SEV  M/S44
	  ( 0 0 0.0001 0.001 0.0172 0.2179 0.6479 0.1159 0 )   	%  SEV  M/S36
	  ( 0 0 0 0.0001 0.0018 0.0559 0.4601 0.4822 0 )   	%  SEV  M/S28
	  ( 0 0 0 0 0.0001 0.0041 0.1033 0.8925 0 )   	%  SEV  M/S20
	  ( 0 0 0 0 0 0.0003 0.0194 0.9803 0 )   	%  SEV  M/S14
	.0095 0.0003 0 0 0 0 0 0 )   	%  R0.35  MOD
	  ( 0 0.7781 0.1801 0.0312 0.0075 0.002 0.0006 0.0002 0.0001 0 0 0 )   	%  R0.35  SEV
	  ( 1 0 0 0 0 0 0 0 0 0 0 0 ))  	%  R0.35  TOTAL
	 (( 0 0 0 0.0635 0.4459 0.3732 0.0995 0.0162 0.0015 0.0002 0 0 )   	%  R0.45  NO
	  ( 0 0 0.0026 0.3111 0.5155 0.1499 0.019 0.0018 0.0001 0 0 0 )   	%  R0.45  MILD
	  ( 0 0.0001 0.386 0.4993 0.1036 0.0101 0.0008 0.0001 0 0 0 0 )   	%  R0.45  MOD
	  ( 0 0.678 0.2436 0.0548 0.0156 0.005 0.0018 0.0007 0.0003 0.0001 0.0001 0 )   	%  R0.45  SEV
	  ( 1 0 0 0 0 0 0 0 0 0 0 0 ))  	%  R0.45  TOTAL
	 (( 0 0 0 0.0029 0.1141 0.3951 0.3198 0.1315 0.0298 0.0058 0.0009 0 )   	%  R0.55  NO
	  ( 0 0 0 0.0451 0.3717 0.4039 0.1433 0.0313 0.0041 0.0005 0.0001 0 )   	%  R0.55  MILD
	  ( 0 0 0.0913 0.5259 0.3027 0.0681 0.0104 0.0014 0.0002 0 0 0 )   	%  R0.55  MOD
	  ( 0 0.5789 0.2957 0.082 0.027 0.0096 0.0037 0.0017 0.0007 0.0004 0.0002 0.0001 )   	%  R0.55  SEV
	  ( 1 0 0 0 0 0 0 0 0 0 0 0 ))  	%  R0.55  TOTAL
	 (( 0 0 0 0.0001 0.0136 0.1578 0.3285 0.2966 0.1404 0.0483 0.0135 0.0012 )   	%  R0.65  NO
	  ( 0 0 0 0.0035 0.1122 0.3738 0.3186 0.1444 0.0376 0.0083 0.0015 0.0001 )   	%  R0.65  MILD
	  ( 0 0 0.015 0.3069 0.4204 0.1929 0.0512 0.0114 0.0019 0.0003 0.0001 0 )   	%  R0.65  MOD
	  ( 0 0.485 0.334 0.1106 0.0411 0.0162 0.0068 0.0033 0.0015 0.0008 0.0004 0.0003 )   	%  R0.65  SEV
	  ( 1 0 0 0 0 0 0 0 0 0 0 0 ))  	%  R0.65  TOTAL
	 (( 0 0 0 0 0.0012 0.0385 0.1746 0.3015 0.2613 0.1447 0.0651 0.0129 )   	%  R0.75  NO
	  ( 0 0 0 0.0002 0.0226 0.189 0.3317 0.2744 0.1252 0.0431 0.0124 0.0013 )   	  	%  SEV  SEV
	  ( 0 0 0 0 1 ))  	%  SEV  TOTAL
	 (( 0 0 0 0 1 )   	%  TOTAL  NO
	  ( 0 0 0 0 1 )   	%  TOTAL  MILD
	  ( 0 0 0 0 1 )   	%  TOTAL  MOD
	  ( 0 0 0 0 1 )   	%  TOTAL  SEV
	  ( 0 0 0 0 1 )));	%  TOTAL  TOTAL
}

potential (R_ULND5_DISP_EWD | R_ULND5_DISP_WD R_ULND5_DISP_BEW)
{
    data =
	((( 0 0 0.0742 0.9045 0.0213 0 0 0 0 )   	%  NO  NO
	  ( 0.0001 0.2215 0.7732 0.0052 0 0 0 0 0 )   	%  NO  MILD
	  ( 0.1315 0.8577 0.0108 0 0 0 0 0 0 )   	%  NO  MOD
	  ( 0.9933 0.0067 0 0 0 0 0 0 0 ))  	%  NO  SEV
	 (( 0 0 0 0 0.0742 0.9045 0.0213 0 0 )   	%  MILD  NO
	  ( 0 0 0 0.1315 0.8576 0.0108 0 0 0 )   	%  MILD  MILD
	  ( 0 0 0.0742 0.9045 0.0213 0 0 0 0 )   	%  MILD  MOD
	  ( 0.0404 0.9192 0.0404 0 0 0 0 0 0 ))  	%  MILD  SEV
	 (( 0 0 0 0 0 0 0 0.133 0.867 )   	%  MOD  NO
	  ( 0 0 0 0 0 0 0.0108 0.8577 0.1315 )   	%  MOD  MILD
	  ( 0 0 0 0 0 0.0052 0.7732 0.2215 0.0001 )   	%  MOD  MOD
	  ( 0 0 0.0213 0.9045 0.0742 0 0 0 0 ))  	%  MOD  SEV
	 (( 0 0 0 0 0 0 0 0.133 0.867 )   	%  SEV  NO
	  ( 0 0 0 0 0 0 0.0108 0.8577 0.1315 )   	%  SEV  MILD
	  ( 0 0 0 0 0 0.0052 0.7732 0.2215 0.0001 )   	%  SEV  MOD
	  ( 0 0 0.0213 0.9045 0.0742 0 0 0 0 )));	%  SEV  SEV
}

potential (R_ULND5_CV_EW | R_ULND5_ALLCV_EW)
{
    data =
	(( 0 0 0 0 0 0 0 0 0 0 0.0001 0.0019 0.0226 0.089 0.2126 0.2696 0.2267 0.1139 0.0467 0.0169 )  	%  M/S60
	 ( 0 0 0 0 0 0 0 0 0 0.0009 0.0146 0.0703 0.1997 0.2565 0.2257 0.1465 0.0615 0.0183 0.0048 0.0013 )  	%  M/S52
	 ( 0 0 0 0 0 0 0 0.0007 0.0179 0.0968 0.2241 0.2693 0.2223 0.1083 0.0408 0.0152 0.0036 0.0007 0.0001 0 )  	%  M/S44
	 ( 0 0 0 0 0 0 0.0051 0.067 0.2496 0.3397 0.2114 0.0914 0.0284 0.006 0.001 0.0002 0 0 0 0 )  	%  M/S36
	 ( 0 0 0 0 0.0004 0.0397 0.2587 0.3793 0.2223 0.0811 0.0153 0.0027 0.0004 0 0 0 0 0 0 0 )  	%  M/S28
	 ( 0 0 0 0.0161 0.2633 0.4429 0.2163 0.0524 0.0077 0.0012 0.0001 0 0 0 0 0 0 0 0 0 )  	%  M/S20
	 ( 0 0 0.0294 0.5102 0.3752 0.0753 0.0091 0.0008 0.0001 0 0 0 0 0 0 0 0 0 0 0 )  	%  M/S14
	 ( 0 0.0411 0.82 0.1295 0.009 0.0004 0 0 0 0 0 0 0 0 0 0 0 0 0 0 )  	%  M/S08
	 ( 1 0 0 0 0 0 0 0 0 0 0 0 0 0 0 714 0.0018 0 0 0 0 0 0 )  	%  M/S52
	 ( 0.0003 0.0598 0.8924 0.0475 0 0 0 0 0 )  	%  M/S44
	 ( 0 0.0001 0.0637 0.9111 0.0251 0 0 0 0 )  data =
	((( 0 0 0 0 0.0215 0.9785 )   	%  NO  NO
	  ( 0 0 0 0.3443 0.6228 0.0329 )   	%  NO  MILD
	  ( 0 0 0.0248 0.9704 0.0048 0 )   	%  NO  MOD
	  ( 0 0.1028 0.8793 0.0178 0.0001 0 )   	%  NO  SEV
	  ( 1 0 0 0 0 0 ))  	%  NO  TOTAL
	 (( 0 0 0 0.3192 0.6448 0.036 )   	%  MILD  NO
	  ( 0 0 0.0474 0.9394 0.0129 0.0002 )   	%  MILD  MILD
	  ( 0 0 0.933 0.0669 0 0 )   	%  MILD  MOD
	  ( 0 0.8756 0.1237 0.0007 0 0 )   	%  MILD  SEV
	  ( 1 0 0 0 0 0 ))  	%  MILD  TOTAL
	 (( 0 0 0.0051 0.994 0.0009 0 )   	%  MOD  NO
	  ( 0 0 0.9599 0.0401 0 0 )   	%  MOD  MILD
	  ( 0 0.0001 0.9994 0.0005 0 0 )   	%  MOD  MOD
	  ( 0 0.9969 0.0031 0 0 0 )   	%  MOD  SEV
	  ( 1 0 0 0 0 0 ))  	%  MOD  TOTAL
	 (( 0 0 0.9945 0.0055 0 0 )   	%  SEV  NO
	  ( 0 0 0.9999 0.0001 0 0 )   	%  SEV  MILD
	  ( 0 0.7508 0.2492 0 0 0 )   	%  SEV  MOD
	  ( 0 0.9999 0.0001 0 0 0 )   	%  SEV  SEV
	  ( 1 0 0 0 0 0 )));	%  SEV  TOTAL
}

potential (R_ULND5_CV_WD | R_ULND5_ALLCV_WD)
{
    data =
	(( 0 0 0 0 0 0 0 0 0 0 0 0.0009 0.0233 0.1332 0.3196 0.3196 0.157 0.0398 0.0067 )  	%  M/S60
	 ( 0 0 0 0 0 0 0 0 0 0.0005 0.016 0.1024 0.296 0.31 0.1808 0.0753 0.0162 0.0024 0.0003 )  	%  M/S52
	 ( 0 0 0 0 0 0 0 0.0005 0.0215 0.1362 0.2994 0.29579 0.039 0.0043 0.0005 0 0 0 0 0 0 0 )  	%  M/S28
	 ( 0 0 0 0.0206 0.3368 0.4519 0.1606 0.0272 0.0026 0.0003 0 0 0 0 0 0 0 0 0 )  	%  M/S20
	 ( 0 0 0.0379 0.5886 0.3243 0.0451 0.0038 0.0002 0 0 0 OW_WD R_ULND5_DSLOW_WD)
{
    data =
	((( 1 0 0 0 0 0 0 0 0 )   	%  NO  M/S60
	  ( 0.0305 0.9673 0.0023 0 0 0 0 0 0 )   	%  NO  M/S52
	  ( 0.0004 0.0619 0.8882 0.0496 0 0 0 0 0 )   	%  NO  M/S44
	  ( 0 0.00010.0001 0 0 0 0 )   	%  MILD  M/S60
	  ( 0.0017 0.0421 0.4597 0.4852 0.0113 0 0 0 0 )   	%  MILD  M/S52
	  ( 0 0.0019 0.0749 0.5694 0.3532 0.0005 0 0 0 )   	%  MILD  M/S44
	  ( 0 0 0.0022 0.1051 0.8251 0.0675 0 0 0 )   	%  MILD  M/S36
	  ( 0 0 0 0.0022 0.17 0.8062 0.0215 0 0 )   	%  MILD  M/S28
	  ( 0 0 0 0 0.0022 0.2338 0.7621 0.002 0 )   	%  MILD  M/S20
	  ( 0 0 0 0 0 0.0101 0.4895	%  MOD  M/S36
	  ( 0 0 0 0 0.0034 0.4375 0.5591 0 0 )   	%  MOD  M/S28
	  ( 0 0 0 0 0 0.0208 0.8094 0.1697 0 )   	%  MOD  M/S20
	  ( 0 0 0 0 0 0.0001 0.0392 0.9606 0 )   	%  MOD  M/S14
	  ( 0 0.0001 0.0002 0.0009 0.0051 0.0329 0.1636 0.7972 0 )   	%  MOD  M/S08
	  ( 0 0 0 0 0 0 0 0 1 ))  	%  MOD  M/S00
	 (( 0.0003 0.0011 0.005 0.0205 0.087 0.2822 0.4514 0.1525 0 )   	%  SEV  M/S60
	  ( 0.0001R_LNLE_ULN_BLOCK)
{
    data =
	((( 1 0 0 0 0 )   	%  NO  NO
	  ( 0.0077 0.9923 0 0 0 )   	%  NO  MILD
	  ( 0.0007 0.0234 0.9759 0 0 )   	%  NO  MOD
	  ( 0.0019 0.006 0.0588 0.9333 0 )   	%  NO  SEV
	  ( 0 0 0 0 1 ))  	%  NO  TOTAL
	 (( 0.0077 0.9923 0 0 0 )   	%  MILD  NO
	  ( 0.0001 0.498 0.5019 0 0 )   	%  MILD  MILD
	  ( 0 0.0032 0.9968 0 0 )   	%  MILD  MOD
	  ( 0.001 0.0033 0.0376 0.9581 0 )   	%  MILD  SEV
	  ( 0 0 0 0 1 ))  	%  MILD  TOTAL
	 (( 0.0007 0.0234 0.9759 0 0 )   	%  MOD  NO
	  ( 0 0.0032 0.9968 0 0 )   	%  MOD  MILD
	  ( 0 0.0007 0.4328 0.5665 0 )   	%  MOD  MOD
	  ( 0.0003 0.0011 0.0159 0.9827 0 )   	%  MOD  SEV
	  ( 0 0 0 0 1 ))  	%  MOD  TOTAL
	 (( 0.0019 0.006 0.0588 0.9333 0 )   	%  SEV  NO
	  ( 0.001 0.0033 0.0376 0.9581 0 )   	%  SEV  MILD
	  ( 0.0003 0.0011 0.0159 0.9827 0 )   	%  SEV  MOD
	  ( 0.0003 0.0011 0.0125 0.986 0 )   	%  SEV  SEV
	  ( 0 0 0 0 1 ))  	%  SEV  TOTAL
	 (( 0 0 0 0 1 )   	%  TOTAL  NO
	  ( 0 0 0 0 1 )   	%  TOTAL  MILD
	  ( 0 0 0 0 1 )   	%  TOTAL  MOD
	  ( 0 0 0 0 1 )   	%  TOTAL  SEV
	  ( 0 0 0 0 1 )));	%  TOTAL  TOTAL
}

potential (R_ULN_CV_E | R_ULN_ALLCV_E)
{
    data =
	(( 0 0 0 0 0 0 0 0 0 0 0.0002 0.0039 0.0277 0.0975 0.1948 0.2479 0.2184 0.139 0.0707 )  	%  M/S60
	 ( 0 0 0 0 0 0 0 0 0 0.003 0.01 0.0587 0.1638 0.2511 0.2403 0.1583 0.0769 0.0289 0.009 )  	%  M/S52
	 ( 0 0 0 0 0 0 0 0.0015 0.0194 0.15 0.1921 0.2364 0.1957 0.1178 0.0555 0.0216 0.0072 0.0021 0.0006 )  	%  M/S44
	 ( 0 0 0 0 0 0.0001 0.0071 0.0718 0.2193 0.2934 0.2297 0.1165 0.0443 0.0134 0.0034 /S07
	 (( 0.0009 0.0896 0.8261 0.0835 0 0 0 0 0 )   	%  M/S44  M/S60
	  ( 0 0.0036 0.2468 0.734 0.0156 0 0 0 0 )   	%  M/S44  M/S52
	  ( 0 0 0.0113 0.5711 0.4175 0 0 0 0 )   	%  M/S44  M/S44
	  ( 0 0 0 0 0.0026 0.9935 0.004 0 0 )   	%  M/S44  M/S27
	  ( 0 0 0 0 0 0.007 0.3517 0.6413 0 )   	%  M/S44  M/S15
	  ( 0 0 0 0 0 0 0.0042 0.9958 0 ))  	%  M/S44  M/S07
	 (( 0 0.0005 0.1011 0.8478 0.0506 0 0 0 0 )   	%  M/S36  M/S60
	  ( 0 0 0.005 0.3134 0.6811 0.0005 0 0 0 )   	%  M/S36  M/S52
	  ( 0 0 0 0.0214 0.9354 0.0432 0 0 0 )   	%  M/S36  M/S44
	  ( 0 0 0 0 0 0.2469 0.7531 0 0 )   	%  M/S36  M/S27
	  ( 0 0 0 0 0 0.0003 0.0581 0.9416 0 )   	%  M/S36  M/S15
	  ( 0 0 0 0 0 0 0.0011 0.9989 0 ))  	%  M/S36  M/S07
	 (( 0 0 0.0005 0.0791 0.9001 0.0202 0 0 0 )   	%  M/S28  M/S60
	  ( 0 0 0 0.0071 0.5493 0.4433 0.0002 0 0 )   	%  M/S28  M/S52
	  ( 0 0 0 0.0001 0.0565 0.9324 0.0111 0 0 )   	%  M/S28  M/S44
	  ( 0 0 0 0 0 0.002 0.9939 0.0041 0 )   	%  M/S28  M/S27
	  ( 0 0 0 0 0 0 0.006 0.994 0 )   	%  M/S28  M/S15
	  ( 0 0 0 0 0 0 0.0003 0.9997 0 ))  	%  M/S28  M/S07
	 (( 0 0 0 0.0006 0.0734 0.8393 0.0867 0 0 )   	%  M/S20  M/S60
	  ( 0 0 0 0 0.0091 0.5283 0.4625 0 0 )   	%  M/S20  M/S52
	  ( 0 0 0 0 0.0004 0.143 0.8551 0.0015 0 )   	%  M/S20  M/S44
	  ( 0 0 0 0 0 0 0.0314 0.9686 0 )   	%  M/S20  M/S27
	  ( 0 0 0 0 0 0 0.0008 0.9992 0 )   	%  M/S20  M/S15
	  ( 0 0 0 0 0 0 0.0001 0.9999 0 ))  	%  M/S20  M/S07
	 (( 0 0 0 0 0.0003 0.0947 0.8945 0.0104 0 )   	%  M/S14  M/S60
	  ( 0 0 0 0 0 0.0216 0.8359 0.1425 0 )   	%  M/S14  M/S52
	  	%  M/S00  M/S60
	  ( 0 0 0 0 0 0 0 0.0001 0.9999 )   	%  M/S00  M/S52
	  ( 0 0 0 0 0 0 0 0.0001 0.9999 )   	%  M/S00  M/S44
	  ( 0 0 0 0 0 0 0 0 1 )   	%  M/S00  M/S27
	  ( 0 0 0 0 0 0 0 0 1 )   	%  M/S00  M/S15
	  ( 0 0 0 0 0 0 0 0 1 )));	%  M/S00  M/S07
}

potential (R_ULN_AMPR_EW | R_ULN_BLOCK_EW)
{
    data =
	(( 0.0289 0.2833 0.517 0.1684 0.0024 0 0 0 0 0 0 0 )  	%  NO
	 ( 0.0004 0.0135 0.1503 0.5078 0.3123 0.0157 0 0 0 0 0 0 )  	%  MILD
	 ( 0 0.0005 0.004 0.0246 0.1274 0.34 0.4 0.1017 0.0016 0 0 0 )  	%  MOD
	 ( 0.0008 0.0014 0.0022 0.0042 0.0082 0.0155 0.0312 0.07080 0 0 0 0 0 0.0001 0.0008 0.0208 0.1388 0.3169 0.3115 0.1564 0.0453 0.0084 0.0011 )  	%  M/S52
	 ( 0 0 0 0 0 0 0 0.0002 0.0074 0.1341 0.1975 0.2755 0.2191 0.1116 0.0404 0.0112 0.0025 0.0005 0.0001 )  	%  M/S44
	 ( 0 0 0 0 0 0 0.002 0.0467 0.2191 0.3382 0.2525 0.105 0.0294 0.006 0.001 0.0001 0 0 0 )  	%  M/S36
	 ( 0 0 0 0 0.0002 0.0261 0.2225 0.4086 0.2726 0.0468 0.0197 0.0031 0.0004 0 0 0 0 0 0 )  	%  M/S28
	 ( 0 0 0 0.0095 0.2235 0.4483 0.2397 0.0663 0.0119 0.0006 0.0002 0 0 0 0 0 0 0 0 )  	%  M/S20
	 ( 0 0 0.0149 0.4662 0.4182 0.0903 0.0095 0.0008 0.0001 0 0 0 06 0.9544 ));	%  A8.00
}

potential (R_ADM_ALLAMP_WA | R_ADM_EFFMUS R_ADM_MULOSS)
{
    data =
	((( 0.0026 0.3687 0.6075 0.0208 0.0003 0 0 0 0 )   	%  V.SMALL  NO
	  ( 0.0409 0.8924 0.0661 0.0006 0 0 0 0 0 )   	%  V.SMALL  MILD
	  ( 0.2926 0.7043 0.0031 0 0 0 0 0 0 )   	%  V.SMALL  MOD
	  ( 0.781 0.2189 0.0001 0 0 0 0 0 0 )   	%  V.SMALL  SEV
	  ( 0.9907 0.0093 0 0 0 0 0 0 0 )   	%  V.SMALL  TOTAL
	  ( 0.3596 0.5148 0.0941 0.024 0.0046 0.002 0.0008 0.0002 0 ))  	%  V.SMALL  OTHER
	 (( 0 0.0002 0.4149 0.4809 0.0802 0.0218 0.002 0 0 )   	%  SMALL  NO
	  ( 0 0.01 0.77 0.2049 0.0128 0.0022 0.0001 0 0 )   	%  SMALL  MILD
	  ( 0.0091 0.4203 0.5312 0.038 0.0012 0.0002 0 0 0 )   	%  SMALL  MOD
	  ( 0.2669 0.7161 0.0166 0.0003 0 0 0 0 0 )   	%  SMALL  SEV
	  ( 0.9858 0.0142 0 0 0 0 0 0 0 )   	%  SMALL  TOTAL
	  ( 0.1336 0.3855 0.2698 0.1308 0.0401 0.0219 0.0127 0.0044 0.0013 ))  	%  SMALL  OTHER
	 (( 0 0 0 0 0.0215 0.9785 0 0 0 )   	%  NORMAL  NO
	  ( 0 0 0 0.2489 0.7398 0.0113 0 0 0 )   	%  NORMAL  MILD
	  ( 0 0 0.3095 0.6808 0.0095 0.0003 0 0 0 )   	%  NORMAL  MOD
	  ( 0.0001 0.1028 0.8793 0.0178 0.0001 0 0 0 0 )   	%  NORMAL  SEV
	  ( 0.9865 0.0135 0 0 0 0 0 0 0 )   	%  NORMAL  TOTAL
	  ( 0.0096 0.0788 0.2992 0.2816 0.1319 0.0873 0.0689 0.0313 0.0114 ))  	%  NORMAL  OTHER
	 (( 0 0 0 0 0.0018 0.0536 0.8696 0.075 0 )   	%  INCR  NO
	  ( 0 0 0 0.0042 0.3468 0.5348 0.1137 0.0004 0 )   	%  INCR  MILD
	  ( 0 0 0.018 0.6298 0.2744 0.0746 0.0032 0 0 )   	%  INCR  MOD
	  ( 0 0.0044 0.8111 0.1762 0.0073 0.0009 0 0 0 )   	%  INCR  SEV 0 0 0 )  	%  MS0.0
	 ( 0.0378 0.2396 0.4434 0.2396 0.0378 0.0017 0 0 0 0 0 0 0 0 0 0 0 0 0 )  	%  MS0.4
	 ( 0.0017 0.0377 0.2391 0.4424 0.2391 0.0377 0.0022 0 0 0 0 0 0 0 0 0 0 0 0 )  	%  MS0.8
	 ( 0.0001 0.0019 0.0176 0.0873 0.2279 0.3138 0.2849 0.0637 0.0028 0 0 0 0 0 0 0 0 0 0 )  	%  MS1.6
	 ( 0.0004 0.0015 0.0044 0.0114 0.0255 0.0495 0.1033 0.2035 0.24 0.2035 0.0989 0.0529 0.0049 0.0003 0 0 0 0 0 )  	%  MS3.2
