%%%%%%%%%%%%%%%%%%%%%%%%  M U N I N 1  %%%%%%%%%%%%%%%%%%%%%%%%%
%% Subset of the Munin network.
%%
%% @InCollection{andreassen:jensen:andersen:etal:89,
%%   author = 	"Andreassen, S. and Jensen, F.~V. and Andersen, S.~K. and
%%                  Falck, B. and Kj{\ae}rulff, U. and Woldbye, M. and
%%                  S{\o}rensen, A.~R. and Rosenfalck, A. and Jensen, F.",
%%   title = 	"{MUNIN} --- An Expert {EMG} Assistant",
%%   booktitle = "Computer-Aided Electromyography and Expert Systems",
%%   publisher = "Elsevier Science Publishers",
%%   address =	"Amsterdam",
%%   year =         1989,
%%   editor = 	"John E. Desmedt",
%%   chapter =      21
%% }



net
{
    node_size = (150 20);
    label = "r.lnlw.med_r.lnlbe.med_diffn__r.med-apb_r.medd2";
    name = "r.lnlw.med_r.lnlbe.med_diffn__r.med-apb_r.medd2";
}

node DIFFN_TYPE
{
    label = "DIFFN.TYPE";
    position = (10 1030);
    states = ("MOTOR" "MIXED" "SENS");
}

node DIFFN_SEV
{
    label = "DIFFN.SEV";
    position = (10 980);
    states = ("NO" "MILD" "MOD" "SEV");
}

node DIFFN_DISTR
{
    label = "DIFFN.DISTR";
    position = (10 1080);
    states = ("DIST" "PROX" "RANDOM");
}

node DIFFN_SENS_SEV
{
    label = "DIFFN.SENS-SEV";
    position = (160 1030);
    states = ("NO" "MILD" "MOD" "SEV");
}

node DIFFN_PATHO
{
    label = "DIFFN.PATHO";
    position = (10 930);
    states = ("DEMY" "BLOCK" "AXONAL" "V.E.REIN" "E.REIN");
}

node DIFFN_S_SEV_DIST
{
    label = "DIFFN.S-SEV-DIST";
    position = (310 1080);
    states = ("NO" "MILD" "MOD" "SEV");
}

node R_LNLW_MEDD2_DISP_WD
{
    label = "R.LNLW.MEDD2.DISP-WD";
    position = (610 790);
    states = ("NO" "MILD" "MOD" "SEV");
}

node R_LNLW_MED_SEV
{
    label = "R.LNLW.MED.SEV";
    position = (10 780);
    states = ("NO" "MILD" "MOD" "SEV" "TOTAL");
}

node R_LNLW_MED_PATHO
{
    label = "R.LNLW.MED.PATHO";
    position = (10 680);
    states = ("DEMY" "BLOCK" "AXONAL" "V.E.REIN" "E.REIN");
}

node R_LNLBE_MED_SEV
{
    label = "R.LNLBE.MED.SEV";
    position = (10 1400);
    states = ("NO" "MILD" "MOD" "SEV" "TOTAL");
}

node R_LNLBE_MED_PATHO
{
    label = "R.LNLBE.MED.PATHO";
    position = (10 1300);
    states = ("DEMY" "BLOCK" "AXONAL" "V.E.REIN" "E.REIN");
}

node R_DIFFN_LNLW_MEDD2_DISP_WD
{
    label = "R.DIFFN/LNLW.MEDD2.DISP-WD";
    position = (910 1090);
    states = ("NO" "MILD" "MOD" "SEV");
}

node R_LNLBE_MEDD2_BLOCK_EW
{
    label = "R.LNLBE.MEDD2.BLOCK-EW";
    position = (610 1450);
    states = ("NO" "MILD" "MOD" "SEV" "TOTAL");
}

node R_DIFFN_MEDD2_BLOCK
{
    label = "R.DIFFN.MEDD2.BLOCK";
    position = (610 1110);
    states = ("NO" "MILD" "MOD" "SEV" "TOTAL");
}

node R_LNLBE_MEDD2_DISP_EW
{
    label = "R.LNLBE.MEDD2.DISP-EW";
    position = (610 1430);
    states = ("NO" "MILD" "MOD" "SEV");
}

node R_DIFFN_MEDD2_DISP
{
    label = "R.DIFFN.MEDD2.DISP";
    position = (610 1090);
    states = ("NO" "MILD" "MOD" "SEV");
}

node R_MEDD2_DISP_EW
{
    label = "R.MEDD2.DISP-EW";
    position = (1410 1310);
    states = ("NO" "MILD" "MOD" "SEV");
}

node R_MEDD2_DISP_WD
{
    label = "R.MEDD2.DISP-WD";
    position = (1410 1070);
    states = ("NO" "MILD" "MOD" "SEV");
}

node R_MEDD2_BLOCK_EW
{
    label = "R.MEDD2.BLOCK-EW";
    position = (1410 1270);
    states = ("NO" "MILD" "MOD" "SEV" "TOTAL");
}

node R_MEDD2_DISP_EWD
{
    label = "R.MEDD2.DISP-EWD";
    position = (1810 1310);
    states = ("R0.15" "R0.25" "R0.35" "R0.45" "R0.55" "R0.65" "R0.75" "R0.85" "R0.95");
}

node R_MEDD2_AMPR_EW
{
    label = "R.MEDD2.AMPR-EW";
    position = (2010 1270);
    states = ("R0.0" "R0.1" "R0.2" "R0.3" "R0.4" "R0.5" "R0.6" "R0.7" "R0.8" "R0.9" "R1.0" "R>1.1");
}

potential (R_LNLT1_APB_NEUR_ACT |)
{
 data = ( 1 0 0 0 0 potential (R_LNLT1_APB_DE_REGEN |)
{
 data = ( 1 0 );
}

potentiatential (R_LNLT1_APB_MALOSS |)
{
 data = ( 1 0 0 0 0 );
} DIFFN_TIME)
{
 data = (((( 1 )	%  NO  DEMY  ACUTE
	   ( 1 ))	%  NO  DEMY  OLD
	  (( 1 )	%  NO  BLOCK  ACUTE
	   ( 1 )	% ))	%  NO  BLOCK  OLD
	  (( 1 )	%  NO  AXONAL  ACUTE
	   ( 1 )	%  NO  AXONAL  SUBACUTE
	   ( 1 )	%  NO  AXONAL  CHRONIC
	   ( 1 ))	%  NO  AXONAL  OLD
	  (( 1 )	%  NO  V.E.REIN  ACUTE
	   ( 1 )	%  NO  V.E.REIN  SUBACUTE
	   ( 1 )	%  NO  V.E.REIN  CHRONIC
	   ( 1 ))	%  NO  V.E.REIN  OLD
	  (( 1 )	%  NO  E.REIN  ACUTE
	   ( 1 )	%  NO  E.REIN  SUBACUTE
	   ( 1 )	%  NO  E.REIN  CHRONIC
	   ( 1 )))	%  NO  E.REIN  OLD
	 ((( 1 )	%  MILD  DEMY  ACUTE
	   ( 1 )	%  MILD  DEMY  SUBACUTE
	   ( 1 )	%  MILD  DEMY  CHRONIC
	   ( 1 ))	%  MILD  DEMY  OLD
	  (( 1 )	%  MILD  BLOCK  ACUTE
	   ( 1 )	%  MILD  BLOCK  SUBACUTE
	   ( 1 )	%  MILD  BLOCK  CHRONIC
	   ( 1 ))	%  MILD  BLOCK  OLD
	  (( 1 )	%  MILD  AXONAL  ACUTE
	   ( 1 )	%  MILD  AXONAL  SUBACUTE
	   ( 1 )	%  MILD  AXONAL  CHRONIC
	   ( 1 ))	%  MILD  AXONAL  OLD
	  (( 1 )	%  MILD  V.E.REIN  ACUTE
	   ( 1 )	%  MILD  V.E.REIN  SUBACUTE
	   ( 1 )	%  MILD  V.E.REIN  CHRONIC
	   ( 1 ))	%  MILD  V.E.REIN  OLD
	  (( 1 )	%  MILD  E.REIN  ACUTE
	   ( 1 )	%  MILD  E.REIN  SUBACUTE
	   ( 1 )	%  MILD  E.REIN  CHRONIC
	   ( 1 )))	%  MILD  E.REIN  OLD
	 ((( 1 )	%  MOD  DEMY  ACUTE
	   ( 1 )	%  MOD  DEMY  SUBACUTE
	   ( 1 )	%  MOD  DEMY  CHRONIC
	   ( 1 ))	%  MOD  DEMY  OLD
	  (( 1 )	%  MOD  BLOCK  ACUTE
	   ( 1 )	%  MOD  BLOCK  SUBACUTE
	   ( 1 )	%  MOD  BLOCK  CHRONIC
	   ( 1 ))	%  MOD  BLOCK  OLD
	  (( 1 )	%  MOD  AXONAL  ACUTE
	   ( 1 )	%  MOD  AXONAL  SUBACUTE
	   ( 1 )	%  MOD  AXONAL  CHRONIC
	   ( 1 ))	%  MOD  AXONAL  OLD
	  (( 1 )	%  MOD  V.E.REIN  ACUTE
	   ( 1 )	%  MOD  V.E.REIN  SUBACUTE
	   ( 1 )	%  MOD  V.E.REIN  CHRONIC
	   ( 1 ))	%  MOD  V.E.REIN  OLD
	  (( 1 )	%  MOD  E.REIN  ACUTE
	   ( 1 )	%  MOD  E.REIN  SUBACUTE
	   ( 1 )	%  MOD  E.REIN  CHRONIC
	   ( 1 )))	%  MOD  E.REIN  OLD
	 ((( 1 )	%  SEV  DEMY  ACUTE
	   ( 1 )	%  SEV  DEMY  SUBACUTE
	   ( 1 )	%  SEV  DEMY  CHRONIC
	   ( 1 ))	%  SEV  DEMY  OLD
	  (( 1 )	%  SEV  BLOCK  ACUTE
	   ( 1 )	%  SEV  BLOCK  SUBACUTE
	   ( 1 )	%  SEV  BLOCK  CHRONIC
	   ( 1 ))	%  SEV  BLOCK  OLD
	  (( 1 )	%  SEV  AXONAL  ACUTE
	   ( 1 )	%  SEV  AXONAL  SUBACUTE
	   ( 1 )	%  SEV  AXONAL  CHRONIC
	   ( 1 ))	%  SEV  AXONAL  OLD
	  (( 1 )	%  SEV  V.E.REIN  ACUTE
	   ( 1 )	%  SEV  V.E.REIN  SUBACUTE
	   ( 1 )	%  SEV  V.E.REIN  CHRONIC
	   ( 1 ))	%  SEV  V.E.REIN  OLD
	  (( 1 )	%  SEV  E.REIN  ACUTE
	   ( 1 )	%  SEV  E.REIN  SUBACUTE
	   ( 1 )	%  SEV  E.REIN  CHRONIC
	   ( 1 ))));	%  SEV  E.REIN  OLD
}

potential (DIFFN_M_SEV_PROX | DIFFN_MOT_SEV DIFFN_DISTR)
{
 data = ((( 100 0 0 0 )	%  NO  DIST
	  ( 100 0 0 0 )	%  NO  PROX
	  ( 100 0 0 0 ))	%  NO  RANDOM
	 (( 0 100 0 0 )	%  MILD  DIST
	  ( 0 100 0 0 )	%  MILD  PROX
	  ( 25 45 25 5 ))	%  MILD  RANDOM
	 (( 0 0 100 0 )	%  MOD  DIST
	  ( 0 0 100 0 )	%  MOD  PROX
	  ( 10 40 40 10 ))	%  MOD  RANDOM
	 (( 0 50 50.REIN  SUBACUTE
	   ( 1 )	%  SEV  E.REIN  CHRONIC
	   ( 1 ))));	%  SEV  E.REIN  OLD
}

potential (DIFFN_TYPE |)
{
 data = ( 6 93.5 0.5 );
}

potential (DIFFN_SEV |)
{
 data = ( 78 10 7 5 );
}

potential (DIFFN_MOT_SEV | DIFFN_SEV DIFFN_TYPE)
{
 data = ((( 100 0 0 0 )	%  NO  MOTOR
	  ( 100 0 0 0 )	%  NO  MIXED
	  ( 100 0 0 0 ))	%  NO  SENS
	 (( 0 100 0 0 )	%  MILD  MOTOR
	  ( 0 100 0 0 )	%  MILD  MIXED
	  ( 100 0 0 0 ))	%  MILD  SENS
	 (( 0 0 100 0 )	%  MOD  MOTOR
	  ( 0 0 100 0 )	%  MOD  MIXED
	  ( 100 0 0 0 ))	%  MOD  SENS
	 (( 0 0 0 100 )	%  SEV  MOTOR
	  ( 0 0 0 100 )	%  SEV  MIXED
	  ( 100 0 0 0 )));	%  SEV  SENS
}

potential (DIFFN_DISTR |)
{
 data = ( 93 2 5 );
}

potential (DIFFN_SENS_SEV | DIFFN_SEV DIFFN_TYPE)
{
 data = ((( 100 0 0 0 )	%  NO  MOTOR
	  ( 100 0 0 0 )	%  NO  MIXED
	  ( 100 0 0 0 ))	%  NO  SENS
	 (( 100 0 0 0 )	%  MILD  MOTOR
	  ( 0 100 0 0 )	%  MILD  MIXED
	  ( 0 100 0 0 ))	%  MILD  SENS
	 (( 100 0 0 0 )	%  MOD  MOTOR
	  ( 0 0 100 0 )	%  MOD  MIXED
	  ( 0 0 100 0 ))	%  MOD  SENS
	 (( 100 0 0 0 )	%  SEV  MOTOR
	  ( 0 0 0 100 )	%  SEV  MIXED
	  ( 0 0 0 100 )));	%  SEV  SENS
}

potential (R_LNLLP_APB_DENERV |)
{
 data = ( 1 0 0 0 );
}

potential (R_LNLLP_APB_NEUR_ACT |)
{
 data = ( 1 0 0 0 0 0 );
}

potential (R_LNLLP_APB_MUDENS |)
{
 data = ( 1 0 0 );
}

potential (R_LNLLP_APB_DE_REGEN |)
{
 data = ( 1 0 );
}

potential (R_LNLW_MED_TIME |)
{
 data = ( 5 33 60 2 );
}

potential (DIFFN_TIME |)
{
 data = ( 1 25 65 9 );
}

potential (DIFFN_M_SEV_DIST | DIFFN_MOT_SEV DIFFN_DISTR)
{
 data = ((( 100 0 0 0 )	%  NO  DIST
	  ( 100 0 0 0 )	%  NO  PROX
	  ( 100 0 0 0 ))	%  NO  RANDOM
	 (( 0 100 0 0 )	%  MILD  DIST
	  ( 100 0 0 0 )	%  MILD  PROX
	  ( 25 45 25 5 ))	%  MILD  RANDOM
	 (( 0 0 100 0 )	%  MOD  DIST
	  ( 50 50 0 0 )	%  MOD  PROX
	  ( 10 40 40 10 ))	%  MOD  RANDOM
	 (( 0 0 0 100 )	%  SEV  DIST
	  ( 0 50 50 0 )	%  SEV  PROX
	  ( 5 15 40 40 )));	%  SEV  RANDOM
}

potential (R_LNLBE_MED_TIME |)
{
 data = ( 5 60 30 5 );
}

potential (R_LNLLP_APB_MUSIZE |)
{
 data = ( 0 0 1 0 0 0 );
}

potential (R_LNLLP_APB_MALOSS |)
{
 data = ( 1 0 0 0 0 );
}

potential (DIFFN_PATHO |)
{
 data = ( 8.6 1 90 0.2 0.2 );
}

potential (DIFFN_S_SEV_DIST | DIFFN_SENS_SEV DIFFN_DISTR)
{
 data = ((( 100 0 0 0 )	%  NO  DIST
	  ( 100 0 0 0 )	%  NO  PROX
	  ( 100 0 0 0 ))	%  NO  RANDOM
	 (( 0 100 0 0 )	%  MILD  DIST
	  ( 100 0 0 0 )	%  MILD  PROX
	  ( 25 45 25 5 ))	%  MILD  RANDOM
	 (( 0 0 100 0 )	%  MOD  DIST
	  ( 50 50 0 0 )	%  MOD  PROX
	  ( 10 40 40 10 ))	%  MOD  RANDOM
	 (( 0 0 0 100 )	%  SEV  DIST
	  ( 0 50 50 0 )	%  SEV  PROX
	  ( 5 15 40 40 )));	%  SEV  RANDOM
}

potential (R_MYDY_APB_DENERV |)
{
 data = ( 1 0 0 0 );
}

potential (R_MYOP_APB_DENERV |)
{
 data = ( 1 0 0TE  V.E.REIN
	   ( 100 0 0 0 ))	%  NO  SUBACUTE  E.REIN
	  (( 100 0 0 0 )	%  NO  CHRONIC  DEMY
	   ( 100 0 0 0 )	%  NO  CHRONIC  BLOCK
	   ( 100 0 0 0 )	%  NO  CHRONIC  AXONAL
	   ( 100 0 0 0 )	%  NO  CHRONIC  V.E.REIN
	   ( 100 0 0 0 ))	%  NO  CHRONIC  E.REIN
	  (( 100 0 0 0 )	%  NO  OLD  DEMY
	   ( 100 0 0 0 )	%  NO  OLD  BLOCK
	   ( 100 0 0 0 )	%  NO  OLD  AXONAL
	   ( 100 0 0 0 )	%  NO  OLD  V.E.REIN
	   ( 100 0 0 0 )))	%  NO  OLD  E.REIN
TAL  SUBACUTE  DEMY
	   ( 30 40 30 0 )	%  TOTAL  SUBACUTE  BLOCK
	   ( 0 0 0 100 )	%  TOTAL  SUBACUTE  AXONAL
	   ( 0 0 50 50 )	%  TOTAL  SUBACUTE  V.E.REIN
	   ( 5 40 50 5 ))	%  TOTAL  SUBACUTE  E.REIN
	  (( 0 40 40 20 )	%  TOTAL  CHRONIC  DEMY
	   ( 30 40 30 0 )	%  TOTAL  CHRONIC  BLOCK
	   ( 0 0 0 100 )	%  TOTAL  CHRONIC  AXONAL
	   ( 0 0 50 50 )	%  TOTAL  CHRONIC  V.E.REIN
	   ( 5 40 50 5 ))	%  TOTAL  CHRONIC  E.REIN
	  (( 10 60 25 5 )	%  TOTAL  OLD  DEMY
	   ( 50 50 0 0 )	%  TOTAL  OLD  BLOCK
	   ( 45 45 10 0 )	%  TOTAL  OLD  AXONAL
	   ( 0 0 50 50 )	%  TOTAL  OLD  V.E.REIN
	   ( 5 40 50 5 ))));	%  TOTAL  OLD  E.REIN
}

potential (R_DIFFN_APB_DENERV | DIFFN_M_SEV_DIST DIFFN_TIME DIFFN_PATHO)
{
 data = (((( 100 0 0 0 )	%  NO  ACUTE  DEMY
	   ( 100 0 0 0 )	%  NO  ACUTE  BLOCK
	   ( 100 0 0 0 )	%  NO  ACUTE  AXONAL
	   ( 100 0 0 0 )	%  NO  ACUTE  V.E.REIN
	   ( 100 0 0 0 ))	%  NO  ACUTE  E.REIN
	  (( 100 0 0 0 )	%  NO  SUBACUTE  DEMY
	   ( 100 0 0 0 )	%  NO  SUBACUTE  BLOCK
	   ( 100 0 0 0 )	%  NO  SUBACUTE  AXONAL
	   ( 100 0 0 0 )	%  NO  SUBACUTE  V.E.REIN
	   ( 100 0 0 0 ))	%  NO  SUBACUTE  E.REIN
	  (( 100 0 0 0 )	%  NO  CHRONIC  DEMY
	   ( 100 0 0 0 )	%  NO  CHRONIC  BLOCK
	   ( 100 0 0 0 )	%  NO  CHRONIC  AXONAL
	   ( 100 0 0 0 )	%  NO  CHRONIC  V.E.REIN
	   ( 100 0 0 0 ))	%  NO  CHRONIC  E.REIN
	  (( 100 0 0 0 )	%  NO  OLD  DEMY
	   ( 100 0 0 0 )	%  NO  OLD  BLOCK
	   ( 100 0 0 0 )	%  NO  OLD  AXONAL
	   ( 100 0 0 0 )	%  NO  OLD  V.E.REIN
	   ( 100 0 0 0 )))	%  NO  OLD  E.REIN
	 ((( 80 20 0 0 )	%  MILD  ACUTE  DEMY
	   ( 80 20 0 0 )	%  MILD  ACUTE  BLOCK
	   ( 80 20 0 0 )	%  MILD  ACUTE  AXONAL
	   ( 0 0 50 50 )	%  MILD  ACUTE  V.E.REIN
	   ( 5 40 50 5 ))	%  MILD  ACUTE  E.REIN
	  (( 80 20 0 0 )	%  MILD  SUBACUTE  DEMY
	   ( 90 10 0 0 )	%  MILD  SUBACUTE  BLOCK
	   ( 0 100 0 0 )	%  MILD  SUBACUTE  AXONAL
	   ( 0 0 50 50 )	%  MILD  SUBACUTE  V.E.REIN
	   ( 5 40 50 5 ))	%  MILD  SUBACUTE  E.REIN
	  (( 80 20 0 0 )	%  MILD  CHRONIC  DEMY
	   ( 90 10 0 0 )	%  MILD  CHRONIC  BLOCK
	   ( 0 100 0 0 )	%  MILD  CHRONIC  AXONAL
	   ( 0 0 50 50 )	%  MILD  CHRONIC  V.E.REIN
	   ( 5 40 50 5 ))	%  MILD  CHRONIC  E.REIN
	  (( 100 0 0 0 )	%  MILD  OLD  DEMY
	   ( 100 0 0 0 )	%  MILD  OLD  BLOCK
	   ( 100 0 0 0 )	%  MILD  OLD  AXONAL
	   ( 0 0 50 50 )	%  MILD  OLD  V.E.REIN
	   ( 5 40 50 5 )))	%  MILD  OLD  E.REIN
	 ((( 80 20 0 0 )	%  MOD  ACUTE  DEMY
	   ( 80 20 0 0 )	%  MOD  ACUTE  BLOCK
	   ( 80 20 0 0 )	%  MOD  ACUTE  AXONAL
	   ( 0 0 50 50 )	%  MOD  ACUTE  V.E.REIN
	   ( 5 40 50 5 ))	%  MOD  ACUTE  E.REIN
	  (( 30 50 20 0 )	%  MOD  SUBACUTE  DEMY
	   ( 60 40 0 0 )	%  MOD  SUBACUTE  BLOCK
	   ( 0 0 100 0 )	%  MOD  SUBACUTE  AXONAL
	   ( 0 0 50 50 )	%  MOD  SUBACUTE  V.E.REIN
	   ( 5 40 50 5 ))	%  MOD  SUBACUTE  E.REIN
	  (( 30 50 20 0 )	%  MOD  CHRONIC  DEMY
	   ( 60 40 20 0 0 )	%  SEV  ACUTE  AXONAL
	   ( 0 0 50 50 )	%  SEV  ACUTE  V.E.REIN
	   ( 5 40 50 5 ))	%  SEV  ACUTE  E.REIN
	  (( 10 50 40 0 )	%  SEV  SUBACUTE  DEMY
	   ( 40 50 10 0 )	%  SEV  SUBACUTE  BLOCK
	   ( 0 0 50 50 )	%  SEV  SUBACUTE  AXONAL
	   ( 0 0 50 50 )	%  SEV  SUBACUTE  V.E.REIN
	   ( 5 40 50 5 ))	%  SEV  SUBACUTE  E.REIN
	  (( 10 50 40 0 )	%  SEV  CHRONIC  DEMY
	   ( 40 50 10 0 )	%  SEV  CHRONIC  BLOCK
	   ( 0 0 50 50 )	%  SEV  CHRONIC  AXONAL
	   ( 0 0 50 50 )	%  SEV  CHRONIC  V.E.REIN
	   ( 5 40 50 5 ))	%  SEV  CHRONIC  E.REIN
	  (( 50 40 10 0 )	%  SEV  OLD  DEMY
	   ( 50 50 0 0 )	%  SEV  OLD  BLOCK
	   ( 60 30 10 0 )	%  SEV  OLD  AXONAL
	   ( 0 0 50 50 )	%  SEV  OLD  V.E.REIN
	   ( 5 40 50 5 ))));	%  SEV  OLD  E.REIN
}

potential (R_LNLBE_APB_DENERV | R_LNLBE_MED_SEV R_LNLBE_MED_TIME R_LNLBE_MED_PATHO)
{
 data = (((( 100 0 0 0 )	%  NO  ACUTE  DEMY
	   ( 100 0 0 0 )	%  NO  ACUTE  BLOCK
	   ( 100 0 0.E.REIN
	   ( 100 0 0 0 ))	%  NO  ACUTE  E.REIN
	  (( 100 0LOCK
	   ( 100 0 0 0 )	%  NO  SUBACUTE  AXONAL
	   ( 100 0 0 0 )	UTE  E.REIN
	  (( 100 0 0 0 )	%  NO  CHRONIC  DEMY
	   (   CHRONIC  AXONAL
	   ( 100 0 0 0 )	%  NO  CHRONIC  V.E.R0 0 )	%  NO  OLD  DEMY
	   ( 100 0 0 0 )	%  NO  OLD  BLOCK )	%  NO  OLD  V.E.REIN
	   ( 100 0 0 0 )))	%  NO  OL0 0 )	%  MILD  CHRONIC  DEMY
	   ( 90 10 0 0 )	%  MILD  CHRONIC  BLOCK
	   ( 0 100 0 0 )	%  MILD  CHRONIC  AXONAL
	   ( 0 0 50 50 )	%  MILD  CHRONIC  V.E.REIN
	   ( 5 40 50 5 ))	%  MILD  CHRONIC  E.REIN
	  (( 100 0 0 0 )	%  MILD  OLD  DEMY
	   ( 100 0 0 0 )	%  MILD  OLD  BLOCK
	   ( 100 0 0 0 )	%  MILD  OLD  AXONAL
	   ( 0 0 50 50 )	%  MILD  OLD  V.E.REIN
	   ( 5 40 50 5 )))	%  MILD  OLD  E.REIN
	 ((( 80 20 0 0 )	%  MOD  ACUTE  DEMY
	   ( 80 2E  AXONAL
	   ( 0 0 50 50 )	%  MOD  ACUTE  V.E.REIN
	   ( 5BACUTE  DEMY
	   ( 60 40 0 0 )	%  MOD  SUBACUTE  BLOCK
	   ( 0 SUBACUTE  V.E.REIN
	   ( 5 40 50 5 ))	%  MOD  SUBACUTE  E.REIN
	  (( 30 50 20 0 )	%  MOD  CHRONIC  DEMY
	   ( 60 40 0 0 )	%  MOD  CHRONIC  BLOCK
	   ( 0 0 100 0 )	%  MOD  CHRONIC  AXONAL
	   ( 0 0 50 50 )	%  MOD  CHRONIC  V.E.REIN
	   ( 5 40 50 5 ))	%  MOD  CHRONIC  E.REIN
	  (( 100 0 0 0 )	%  MOD  OLD  DEMY
	   ( 100 0 0 0 )	%  MOD  OLD  BLOCK
	   ( 90 10 0 0 )	%  MOD  OLD  AXONAL
	   ( 0 0 50 50 )	%  MOD  OLD  V.E.REIN
	   ( 5 40 50 5 )))	%  MOD  OLD  E.REIN
	 ((( 80 20 0 0 )	%  SEV  ACUTE  DEMY
	   ( 80 20 0 0 )	%  SEV  ACUTE  BLOCK
	   ( 80 20 0 0 )	%  SEV  AC( 5 40 50 5 ))	%  SEV  ACUTE  E.REIN
	  (( 10 50 40 0 )	% BLOCK
	   ( 0 0 50 50 )	%  SEV  SUBACUTE  AXONAL
	   ( 0 0 data = ((( 1 0 0 0 0 0 )	%  NO  NO
	  ( 0 1 0 0 0 0 )	%  NO  FASCIC
	  ( 0 0 1 0 0 0 )	%  NO  NEUROMYO
	  ( 0 0 0 1 0 0 )	%  NO  MYOKYMIA
	  ( 0 0 0 0 1 0 )	%  NO  TETANUS
	  ( 0 0 0 0 0 1 ))	%  NO  OTHER
	 (( 0 1 0 0 0 0 )	%  FASCIC  NO
	  ( 0 1 0 0 0 0 )	%  FASCIC  FASCIC
	  ( 0 0 1 0 0 0 )	%  FASCIC  NEUROMYO
	  ( 0 0 0 1 0 0 )	%  FASCIC  MYOKYMIA
	  ( 0 0 0 0 1 0 )	%  FASCIC  TETANUS
	  ( 0 0 0 0 0 1 ))	%  FASCIC  OTHER
	 (( 0 0 1 0 0 0 )	%  NEUROMYO  NO
	  ( 0 0 1 0 0 0 )	%  NEUROMYO  FASCIC
	  ( 0 0 1 0 0 0 )	%  NEUROMYO  NEUROMYO
	  ( 0 0 0 1 0 0 )	%  NEUROMYO  MYOKYMIA
	  ( 0 0 0 0 1 0 )	%  NEUROMYO  TETANUS
	  ( 0 0 0 0 0 1 ))	%  NEUROMYO  OTHER
	 (( 0 0 0 1 0 0 )	%  MYOKYMIA  NO
	  ( 0 0 0 1 0 0 )	%  MYOKYMIA  FASCIC
	  ( 0 0 0 1 0 0 )	%  MYOKYMIA  NEUROMYO
	  ( 0 0 0 1 0 0 )	%  MYOKYMIA  MYOKYMIA
	  ( 0 0 0 0 1 0 )	%  MYOKYMIA  TETANUS
	  ( 0 0 0 0 0 1 ))	%  MYOKYMIA  OTHER
	 (( 0 0 0 0 1 0 )	%  TETANUS  NO
	  ( 0 0 0 0 1 0 )	%  TETANUS  FASCIC
	  ( 0 0 0 0 1 0 )	%  TETANUS  NEUROMYO
	  ( 0 0 0 0 1 0 )	%  TETANUS  MYOKYMIA
	  ( 0 0 0 0 1 0 )	%  TETANUS  TETANUS
	  ( 0 0 0 0 0 1 ))	%  TETANUS  OTHER
	 (( 0 0 0 0 0 1 )	%  OTHER  NO
	  ( 0 0 0 0 0 1 )	%  OTHER  FASCIC
	  ( 0 0 0 0 0 1 )	%  OTHER  NEUROMYO
	  ( 0 0 0 0 0 1 )	%  OTHER  MYOKYMIA
	  ( 0 0 0 0 0 1 )	%  OTHER  TETANUS
	  ( 0 0 0 0 0 1 )));	%  OTHER  OTHER
}

potential (R_MYDY_APB_MUDENS |)
{
 data = ( 1 0 0 );
}

potential (R_MYOP_APB_MUDENS |)
{
 data = ( 1 0 0 );
}

potential (R_LNLW_APB_MUDENS | R_LNLW_MED_SEV R_LNLW_MED_TIME R_LNLW_MED_PATHO)
{
 data = (((( 100 0 0 )	%  NO  ACUTE  DEMY
	   ( 100 0 0 )	%  NO  ACUTE  BLOCK
	   ( 100 0 0 )	%  NO  ACUTE  AXONAL
	   ( 100 0 0 )	%  NO  ACUTE  V.E.REIN
	   ( 100 0 0 ))	%  NO  ACUTE  E.REIN
	  (( 100 0 0 )	%  NO  SUBACUTE  DEMY
	   ( 100 0 0 )	%  NO  SUBACUTE  BLOCK
	   ( 100 0 0 )	%  NO  SUBACUTE  AXONAL
	   ( 100 0 0 )	%  NO  SUBACUTE  V.E.REIN
	   ( 100 0 0 ))	%  NO  SUBACUTE  E.REIN
	  (( 100 0 0 )	%  NO  CHRONIC  DEMY
	   ( 100 0 0 )	%  NO  CHRONIC  BLOCK
	   ( 100 0 0 )	%  NO  CHRONIC  AXONAL
	   ( 100 0 0 )	%  NO  CHRONIC  V.E.REIN
	   ( 100 0 0 ))	%  NO  CHRONIC  E.REIN
	  (( 100 0 0 )	%  NO  OLD  DEMY
	   ( 100 0 0 )	%  NO  OLD  BLOCK
	   ( 100 0 0 )	%  NO  OLD  AXONAL
	   ( 100 0 0 )	%  NO  OLD  V.E.REIN
	   ( 100 0 0 )))	%  NO  OLD  E.REIN
	 ((( 100 0 0 )	%  MILD  ACUTE  DEMY
	   ( 100 0 0 )	%  MILD  ACUTE  BLOCK
	   ( 100 0 0 )	%  MILD  ACUTE  AXONAL
	   ( 100 0 0 )	%  MILD  ACUTE  V.E.REIN
	   ( 100 0 0 ))	%  MILD  ACUTE  E.REIN
	  (( 90 10 0 )	%  MILD  SUBACUTE  DEMY
	   ( 90 10 0 )	%  MILD  SUBACUTE  BLOCK
	   ( 60 40 0 )	%  MILD  SUBACUTE  AXONAL
	   ( 5 50 45 )	%  MILD  SUBACUTE  V.E.REIN
	   ( 20 50 30 ))	%  MILD  SUBACUTE  E.REIN
	  (( 80 20 0 )	%  MILD  CHRONIC  DEMY
	   ( 80 20 0 )	%  MILD  CHRONIC  BLOCK
	   ( 70 30 0 )	%  MILD  CHRONIC  AXONAL
	   ( 5 50 45 )	%  MILD  CHRONIC  V.E.REIN
	   ( 20 50 30 ))	%  MILD  CHRONIC  E.REIN
	  (( 80 20 0 )	%  MILD  OLD  DEMY
	   ( 80 20 0 )	%  MILD  OLD  BLOCK
	   ( 50 50 0 )	%  MILD  OLD  AXONAL
	   ( 5 50 45 )	%  MILD  OLD  V.E.REIN
	   ( 20 50 30 )))	%  MILD  OLD  E.REIN
	 ((( 100 0 0 )	%  MOD  ACUTE  DEMY
	   ( 100 0 0 )	%  MOD  ACUTE  BLOCK
	   ( 100 0 0 )	%  MOD  ACUTE  AXONAL
	   ( 100 0 0 )	%  MOD  ACUTE  V.E.REIN
	   ( 100 0 0 ))	%  MOD  ACUTE  E.REIN
	  (( 80 20 0 )	%  MOD  SUBACUTE  DEMY
	   ( 80 20 0 )	%  MOD  SUBACUTE  BLOCK
	   ( 50 50 0 )	%  MOD  SUBACUTE  AXONAL
	   ( 5 50 45 )	%  MOD  SUBACUTE  V.E.REIN
	   ( 20 50 30 ))	%  MOD  SUBACUTE  E.REIN
	  (( 70 30 0 )	%  MOD  CHRONIC  DEMY
	   ( 70 30 0 )	%  MOD  CHRONIC  BLOCK
	   ( 10 60 30 )	%  MOD  CHRONIC  AXONAL
	   ( 5 50 45 )	%  MOD  CHRONIC  V.E.REIN
	   ( 20 50 30 ))	%  MOD  CHRONIC  E.REIN
	  (( 70 30 0 )	%  MOD  OLD  DEMY
	   ( 70 30 0 )	%  MOD  OLD  BLOCK
	   ( 15 70 15 )	%  MOD  OLD  AXONAL
	   ( 5 50 45 )	%  MOD  OLD  V.E.REIN
	   ( 20 50 30 )))	%  MOD  OLD  E.REIN
	 ((( 100 0 0 )	%  SEV  ACUTE  DEMY
	   ( 100 0 0 )	%  SEV  ACUTE  BLOCK
	   ( 100 0 0 )	%  SEV  ACUTE  AXONAL
	   ( 100 0 0 )	%  SEV  ACUTE  V.E.REIN
	   ( 100 0 0 ))	%  SEV  ACUTE  E.REIN
	  (( 60 40 0 )	%  SEV  SUBACUTE  DEMY
	   ( 60 40 0 )	%  SEV  SUBACUTE  BLOCK
	   ( 50 40 10 )	%  SEV  SUBACUTE  AXONAL
	   ( 5 50 45 )	%  SEV  SUBACUCHRONIC  BLOCK
	   ( 10 60 30 )	%  MOD  CHRONIC  AXONAL
	   ( 5 50 45 )	%  MOD  CHRONIC  V.E.REIN
	   ( 20 50 30 ))	%  MOD  CHRONIC  E.REIN
	  (( 70 30 0 )	%  MOD  OLD  DEMY
	   ( 70 30 0 )	%  MOD  OLD  BLOCK
	   ( 15 70 15 )	%  MOD  OLD  AXONAL
	   ( 5 50 45 )	%  MOD  OLD  V.E.REIN
	   ( 20 50 30 )))	%  MOD  OLD  E.REIN
	 ((( 100 0 0 )	%  SEV  ACUTE  DEMY
	   ( 100 0 0 )	%  SEV  ACUTE  BLOCK
	   ( 100 0 0 )	%  SEV  ACUTE  AXONAL
	   ( 100 0 0 )	%  SEV  ACUTE  V.E.REIN
	   ( 100 0 0 ))	%  SEV  ACUTE  E.REIN
	  (( 60 40 0 )	%  SEV  SUBACUTE  DEMY
	   ( 60 40 0 )	%  SEV  SUBACUTE  BLOCK
	   ( 50 40 10 )	%  SEV  SUBACUTE  AXONAL
	   ( 5 50 45 )	%  SEV  SUBACUTE  V.E.REIN
	   ( 20 50 30 ))	%  SEV  SUBACUTE  E.REIN
	  (( 60 40 0 )	%  SEV  CHRONIC  DEMY
	   ( 60 40 0 )	%  SEV  CHRONIC  BLOCK
	   ( 0 50 50 )	%  SEV  CHRONIC  AXONAL
	   ( 5 50 45 )	%  SEV  CHRONIC  V.E.REIN
	   ( 20 50 30 ))	%  SEV  CHRONIC  E.REIN
	  (( 60 40 0 )	%  SEV  OLD  DEMY
	   ( 60 40 0 )	%  SEV  OLD  BLOCK
	   ( 0 50 50 )	%  SEV  OLD  AXONAL
	   ( 5 50 45 )	%  SEV  OLD  V.E.REIN
	   ( 20 50 30 ))));	%  SEV  OLD  E.REIN
}

potential (R_LNLBE_APB_MUDENS | R_LNLBE_MED_SEV R_LNLBE_MED_TIME R_LNLBE_MED_PATHO)
{
 data = (((( 100 0 0 )	%  NO  ACUTE  DEMY
	   ( 100 0 0 )	%  NO  ACUTE  BLOCK
	   ( 100 0 0 )	%  NO  ACUTE  AXONAL
	   ( 100 0 0 )	%  NO  ACUTE  V.E.REIN
	   ( 100 0 0 ))	%  NO  ACUTE  E.REIN
	  (( 100 0 0 )	%  NO  SUBACUTE  DEMY
	   ( 100 0 0 )	%  NO  SUBACUTE  BLOCK
	   ( 100 0 0 )	%  NO  SUBACUTE  AXONAL
	   ( 100 0 0 )	%  NO  SUBACUTE  V.E.REIN
	   ( 100 0 0 ))	%  NO  SUBACUTE  E.REIN
	  (( 100 0 0 )	%  NO  CHRONIC  DEMY
	   ( 100 0 0 )	%  NO  CHRONIC  BLOCK
	   ( 100 0 0 )	%  NO  CHRONIC  AXONAL
	   ( 100 0 0 )	%  NO  CHRONIC  V.E.REIN
	   ( 100 0 0 ))	%  NO  CHRONIC  E.REIN
	  (( 100 0 0 )	%  NO  OLD  DEMY
	   ( 100 0 0 )	%  NO  OLD  BLOCK
	   ( 100 0 0 )	%  NO  OLD  AXONAL
	   ( 100 0 0 )	%  NO  OLD  V.E.REIN
	   ( 100 0 0 )))	%  NO  OLD  E.REIN
	 ((( 100 0 0 )	%  MILD  ACUTE  DEMY
	   ( 100 0 0 )	%  MILD  ACUTE  BLOCK
	   ( 100 0 0 )	%  MILD  ACUTE  AXONAL
	   ( 100 0 0 )	%  MILD  ACUTE  V.E.REIN
	   ( 100 0 0 ))	%  MILD  ACUTE  E.REIN
	  (( 90 10 0 )	%  MILD  SUBACUTE  DEMY
	   ( 90 10 0 )	%  MILD  SUBACUTE  BLOCK
	   ( 60 40 0 )	%  MILD  SUBACUTE  AXONAL
	   ( 5 50 45 )	%  MILD  SUBACUTE  V.E.REIN
	   ( 20 50 30 ))	%  MILD  SUBACUTE  E.REIN
	  (( 80 20 0 )	%  MILD  CHRONIC  DEMY
	   ( 80 20 0 )	%  MILD  CHRONIC  BLOCK
	   ( 70 30 0 )	%  MILD  CHRONIC  AXONAL
	   ( 5 50 45 )	%  MILD  CHRONIC  V.E.REIN
	   ( 20 50 30 ))	%  MILD  CHRONIC  E.REIN
	  (( 80 20 0 )	%  MILD  OLD  DEMY
	   ( 80 20 0 )	%  MILD  OLD  BLOCK
	   ( 50 50 0 )	%  MILD  OLD  AXONAL
	   ( 5 50 45 )	%  MILD  OLD  V.E.REIN
	   ( 20 50 30 )))	%  MILD  OLD  E.REIN
	 ((( 100 0 0 )	%  MOD  ACUTE  DEMY
	   ( 100 0 0 )	%  MOD  ACUTE  BLOCK
	   ( 100 0 0 )	%  MOD  ACUTE  AXONAL
	   ( 100 0 0 )	%  MOD  ACUTE  V.E.REIN
	   ( 100 0 0 ))	%  MOD  ACUTE  E.REIN
	  (( 80 20 0 )	%  MOD  SUBACUTE  DEMY
	   ( 80 20 0 )	%  MOD  SUBACUTE  BLOCK
	   ( 50 50 0 )	%  MOD  SUBACUTE  AXONAL
	   ( 5 50 45 )	%  MOD  SUBACUTE  V.E.REIN
	   ( 20 50 30 ))	%  MOD  SUBACUTE  E.REIN
	  (( 70 30 0 )	%  MOD  CHRONIC  DEMY
	   ( 70 30 0 )	%  MOD  CHRONIC  BLOCK
	   ( 10 60 30 )	%  MOD  CHRONIC  AXONAL
	   ( 5 50 45 )	%  MOD  CHRONIC  V.E.REIN
	   ( 20 50 30 ))	%  MOD  CHRONIC  E.REIN
	  (( 20 80 )	%  MOD  CHRONIC  BLOCK
	   ( 20 80 )	%  MOD  CHRONIC  AXONAL
	   ( 0 100 )	%  MOD  CHRONIC  V.E.REIN
	   ( 0 100 ))	%  MOD  CHRONIC  E.REIN
	  (( 80 20 )	%  MOD  OLD  DEMY
	   ( 80 20 )	%  MOD  OLD  BLOCK
	   ( 80 20 )	%  MOD  OLD  AXONAL
	   ( 0 100 )	%  MOD  OLD  V.E.REIN
	   ( 0 100 )))	%  MOD  OLD  E.REIN
	 ((( 100 0 )	%  SEV  ACUTE  DEMY
	   ( 100 0 )	%  SEV  ACUTE  BLOCK
	   ( 100 0 )	%  SEV  ACUTE  AXONAL
	   ( 0 100 )	%  SEV  ACUTE  V.E.REIN
	   ( 0 100 ))	%  SEV  ACUTE  E.REIN
	  (( 40 60 )	%  SEV  SUBACUTE  DEMY
	   ( 40 60 )	%  SEV  SUBACUTE  BLOCK
	   ( 10 90 )	%  SEV  SUBACUTE  AXONAL
	   ( 0 100 )	%  SEV  SUBACUTE  V.E.REIN
	   ( 0 100 ))	%  SEV  SUBACUTE  E.REIN
	  (( 40 60 )	%  SEV  CHRONIC  DEMY
	   ( 40 60 )	%  SEV  CHRONIC  BLOCK
	   ( 10 90 )	%  SEV  CHRONIC  AXONAL
	   ( 0 100 )	%  SEV  CHRONIC  V.E.REIN
	   ( 0 100 ))	%  SEV  CHRONIC  E.REIN
	  (( 40 60 )	%  SEV  OLD  DEMY
	   ( 40 60 )	%  SEV  OLD  BLOCK
	   ( 40 60 )	%  SEV  OLD  AXONAL
	   ( 0 100 )	%  SEV  OLD  V.E.REIN
	   ( 0 100 )))	%  SEV  OLD  E.REIN
	 ((( 100 0 )	%  TOTAL  ACUTE  DEMY
	   ( 100 0 )	%  TOTAL  ACUTE  BLOCK
	   ( 100 0 )	%  TOTAL  ACUTE  AXONAL
	   ( 0 100 )	%  TOTAL  ACUTE  V.E.REIN
	   ( 0 100 ))	%  TOTAL  ACUTE  E.REIN
	  (( 100 0 )	%  TOTAL  SUBACUTE  DEMY
	   ( 100 0 )	%  TOTAL  SUBACUTE  BLOCK
	   ( 100 0 )	%  TOTAL  SUBACUTE  AXONAL
	   ( 0 100 )	%  TOTAL  SUBACUTE  V.E.REIN
	   ( 0 100 ))	%  TOTAL  SUBACUTE  E.REIN
	  (( 100 0 )	%  TOTAL  CHRONIC  DEMY
	   ( 100 0 )	%  TOTAL  CHRONIC  BLOCK
	   ( 100 0 )	%  TOTAL  CHRONIC  AXONAL
	   ( 0 100 )	%  TOTAL  CHRONIC  V.E.REIN
	   ( 0 100 ))	%  TOTAL  CHRONIC  E.REIN
	  (( 100 0 )	%  TOTAL  OLD  DEMY
	   ( 100 0 )	%  TOTAL  OLD  BLOCK
	   ( 100 0 )	%  TOTAL  OLD  AXONAL
	   ( 0 100 )	%  TOTAL  OLD  V.E.REIN
	   ( 0 100 ))));	%  TOTAL  OLD  E.REIN
}

potential (R_DIFFN_APB_DE_REGEN | DIFFN_M_SEV_DIST DIFFN_TIME DIFFN_PATHO)
{
 data = (((( 100 0 )	%  NO  ACUTE  DEMY
	   ( 100 0 )	%  NO  ACUTE  BLOCK
	   ( 100 0 )	%  NO  ACUTE  AXONAL
	   ( 0 100 )	%  NO  ACUTE  V.E.REIN
	   ( 0 100 ))	%  NO  ACUTE  E.REIN
	  (( 100 0 )	%  NO  SUBACUTE  DEMY
	   ( 100 0 )	%  NO  SUBACUTE  BLOCK
	   ( 100 0 )	%  NO  SUBACUTE  AXONAL
	   ( 0 100 )	%  NO  SUBACUTE  V.E.REIN
	   ( 0 100 ))	%  NO  SUBACUTE  E.REIN
	  (( 100 0 )	%  NO  CHRONIC  DEMY
	   ( 100 0 )	%  NO  CHRONIC  BLOCK
	   ( 100 0 )	%  NO  CHRONIC  AXONAL
	   ( 0 100 )	%  NO  CHRONIC  V.E.REIN
	   ( 0 100 ))	%  NO  CHRONIC  E.REIN
	  (( 100 0 )	%  NO  OLD  DEMY
	   ( 100 0 )	%  NO  OLD  BLOCK
	   ( 100 0 )	%  NO  OLD  AXONAL
	   ( 0 100 )	%  NO  OLD  V.E.REIN
	   ( 0 100 )))	%  NO  OLD  E.REIN
	 ((( 100 0 )	%  MILD  ACUTE  DEMY
	   ( 100 0 )	%  MILD  ACUTE  BLOCK
	   ( 100 0 )	%  MILD  ACUTE  AXONAL
	   ( 0 100 )	%  MILD  ACUTE  V.E.REIN
	   ( 0 100 ))	%  MILD  ACUTE  E.REIN
	  (( 80 20 )	%  MILD  SUBACUTE  DEMY
	   ( 80 20 )	%  MILD  SUBACUTE  BLOCK
	   ( 50 50 )	%  MILD  SUBACUTE  AXONAL
	   ( 0 100 )	%  MILD  SUBACUTE  V.E.REIN
	   ( 0 100 ))	%  MILD  SUBACUTE  E.REIN
	  (( 80 20 )	%  MILD  CHRONIC  DEMY
	   ( 80 20 )	%  MILD  CHRONIC  BLOCK
	   ( 50 50 )	%  MILD  CHRONIC  AXONAL
	   ( 0 100 )	%  MILD  CHRONIC  V.E.REIN
	   ( 0 100 ))	%  MILD  CHRONIC  E.REIN
	  (( 100 0 )	%  MILD  OLD  DEMY
	   ( 100 0 )	%  MILD  OLD  BLOCK
	   ( 100 0 )	%  MILD  OLD  AXONAL
	   ( 0 100 )	%  MILD  OLD  V.E.REIN
	   ( 0 100 )))	%  MILD  OLD  E.REIN
	 ((( 100 0 )	%  MOD  ACUTE  DEMY
	   ( 100 0 )	%  MOD  ACUTE  BLOCK
	   ( 100 0 )	%  MOD  ACUTE  AXONAL
	   ( 0 100 )	%  MOD  ACUTE  V.E.REIN
	   ( 0 100 ))	%  MOD  ACUTE  E.REIN
	  (( 20 80 )	%  MOD  SUBACUTE  DEMY
	   ( 20 80 )	%  MOD  SUBACUTE  BLOCK
	   ( 20 80 )	%  MOD  SUBACUTE  AXONAL
	   ( 0 100 )	%  MOD  SUBACUTE  V.E.REIN
	   ( 0 100 ))	%  MOD  SUBACUTE  E.REIN
	  (( 20 80 )	%  MOD  CHRONIC  DEMY
	   ( 20 80 )	%  MOD  CHRONIC  BLOCK
	   ( 20 80 )	%  MOD  CHRONIC  AXONAL
	   ( 0 100 )	%  MOD  CHRONIC  V.E.REIN
	   ( 0 100 ))	%  MOD  CHRONIC  E.REIN
	  (( 80 20 )	%  MOD  OLD  DEMY
	   ( 80 20 )	%  MOD  OLD  BLOCK
	   ( 80 20 )	%  MOD  OLD  AXONAL
	   ( 0 100 )	%  MOD  OLD  V.E.REIN
	   ( 0 100 )))	%  MOD  OLD  E.REIN
	 ((( 100 0 )	%  SEV  ACUTE  DEMY
	   ( 100 0 )	%  SEV  ACUTE  BLOCK
	   ( 100 0 )	%  SEV  ACUTE  AXONACK
	   ( 40 60 )	%  SEV  OLD  AXONAL
	   ( 0 100 )	%  SEV  OLD  V.E.REIN
	   ( 0 100 ))));	%  SEV  OLD  E.REIN
}

potential (R_LNLBE_APB_DE_REGEN | R_LNLBE_MED_SEV R_LNLBE_MED_TIME R_LNLBE_MED_PATHO)
{
 data = (((( 100 0 )	%  NO  ACUTE  DEMY
	   ( 100 0 )	%  NO  ACUTE  BLOCK
	   ( 100 0 )	%  NO  ACUTE  AXONAL
	   ( 0 100 )	%  NO  ACUTE  V.E.REIN
	   ( 0 100 ))	%  NO  ACUTE  E.REIN
	  (( 100 0 )	%  NO  SUBACUTE  DEMY
	   ( 100 0 )	%  NO  SUBACUTE  BLOCK
	   ( 100 0 )	%  NO  SUBACUTE  AXONAL
	   ( 0 100 )	%  NO  SUBACUTE  CHRONIC  DEMY
	   ( 80 20 )	%  MILD  CHRONIC  BLOCK
	   ( 50 50 )	%  MILD  CHRONIC  AXONAL
	   ( 0 100 )	%  MILD  CHRONIC  V.E.REIN
	   ( 0 100 ))	%  MILD  CHRONIC  E.REIN
	  (( 100 0 )	%  MILD  OLD  DEMY
	   ( 100 0 )	%  MILD  OLD  BLOCK
	   ( 100 0 )	%  MILD  OLD  AXONAL
	   ( 0 100 )	%  MILD  OLD  V.E.REIN
	   ( 0 100 )))	%  MILD  OLD  E.REIN
	 ((( 100 0 )	%  MOD  ACUTE  DEMY
	   ( 100 0 )	%  MOD  ACUTE  BLOCK
	   ( 100 0 )	%  MOD  ACUTE  AXONAL
	   ( 0 100 )	%  MOD  ACUTE  V.E.REIN
	   ( 0 100 ))	%  MOD  ACUTE  E.REIN
	  (( 20 80 )	%  MOD  SUBACUTE  DEMY
	   ( 20 80 )	%  MOD  SUBACUTE  BLOCK
	   ( 20 80 )	%  MOD  SUBACUTE  AXONAL
	   ( 0 100 )	%  MOD  SUBACUTE  V.E.REIN
	   ( 0 100 ))	%  MOD  SUBACUTE  E.REIN
	  (( 20 80 )	%  MOD  CHRONIC  DEMY
	   ( 20 80 )	%  MOD  CHRONIC  BLOCK
	   ( 20 
	  (( 40 60 )	%  SEV  CHRONIC  DEMY
	   ( 40 60 )	%  SEV  CHRONIC  BLOCK
	   ( 10 90 )	%  SEV  CHRONIC  AXONAL
	   ( 0 100 )	%  SEV  CHRONIC  V.E.REIN
	   ( 0 100 ))	%  SEV  CHRONIC  E.REIN
	  (( 40 60 )	%  SEV  OLD  DEMY
	   ( 40 60 )	%  SEV  OLD  BLOCK
	   ( 40 60 )	%  SEV  OLD  AXONAL
	   ( 0 100 )	%  SEV  OLD  V.E.REIN
	   ( 0 100 )))	%  SEV  OLD  E.REIN
	 ((( 100 0 )	%  TOTAL  ACUTE  DEMY
	   ( 100 0 )	%  TOTAL  ACUTE  BLOCK
	   ( 100 0 )	%  TOTAL  ACUTE  AXONAL
	   ( 0 100 )	%  TOTAL  ACUTE  V.E.REIN
	   ( 0 100 ))	%  TOTAL  ACUTE  E.REIN
	  (( 100 0 )	%  TOTAL  SUBACUTE  DEMY
	   ( 100 0 )	%  TOTAL  SUBACUTE  BLOCK
	   ( 100 0 )	%  TOTAL_LNLW_MEDD2_DISP_WD | R_LNLW_MED_SEV R_LNLW_MED_PATHO)
{
 data = ((( 100 0 0 0 )	%  NO  DEMY
	  ( 100 0 0 0 )	%  NO  BLOCK
	  ( 100 0 0 0 )	%  NO  AXONAL
	  ( 0 0 0 100 )	%  NO  V.E.REIN
	  ( 0 0 0 100 ))	%  NO  E.REIN
	 (( 0 100 0 0 )	%  MILD  DEMY
	  ( 50 50 0 0 )	%  MILD  BLOCK
	  ( 100 0 0 0 )	%  MILD  AXONAL
	  ( 0 0 0 100 )	%  MILD  V.E.REIN
	  ( 0 0 0 100 ))	%  MILD  E.REIN
	 (( 0 0 100 0 )	%  MOD  DEMY
	  ( 0 50 50 0 )	%  MOD  BLOCK
	  ( 50 50 0 0 )	%  MOD  AXONAL
	  ( 0 0 0 100 )	%  MOD  V.E.REIN
	  ( 0 0 0 100 ))	%  MOD  E.REIN
	 (( 0 0 0 100 )	%  SEV  DEMY
	  ( 0 10 50 40 )	%  SEV  BLOCK
	  ( 30 50 20 0 )	%  SEV  AXONAL
	  ( 0 0 0 100 )	%  SEV  V.E.REIN
	  ( 0 0 0 100 ))	%  SEV  E.REIN
	 (( 0 0 0 100 )	%  TOTAL  DEMY
	  ( 0 0 50 50 )	%  TOTAL  BLOCK
	  ( 0 50 50 0 )	%  TOTAL  AXONAL
	  ( 50 0 )	%  SEV  DEMY
	  ( 0 20 50 30 0 )	%  SEV  BLOCK
	  ( 0 0 0 100 0 )	%  SEV  AXONAL
	  ( 0 0 0 100 0 )	%  SEV  V.E.REIN
	  ( 0 0 50 50 0 ))	%  SEV  E.REIN
	 (( 0 0 0 40 60 )	%  TOTAL  DEMY
	  ( 0 10 40 40 10 )	%  TOTAL  BLOCK
	  ( 0 0 0 0 100 )	%  TOTAL  AXONAL
	  ( 0 0 0 100 0 )	%  TOTAL  V.E.REIN
	  ( 0 0 50 50 0 )));	%  TOTAL  E.REIN
}

potential (R_NMT_APB_DENERV | R_APB_NMT)
{
 data = (( 100 0 0 0 )	%  NO
	 ( 40 45 15 0 )	%  MOD.PRE
	 ( 15 35 35 15 )	%  SEV.PRE
	 ( 85 15 0 0 )	%  MLD.POST
	 ( 30 45 20 5 )	%  MOD.POST
	 ( 15 35 35 15 )	%  SEV.POST
	 ( 25 25 25 25 ));	%  MIXED
}

potential (R_MYOP_MYDY_APB_DENERV | R_MYOP_APB_DENERV R_MYDY_APB_DENERV)
{
 data = ((( 1 0 0 0 )	%  NO  NO
	  ( 0 1 0 0 )	%  NO  MILD
	  ( 0 0 1 0 )	%  NO  MOD
	  ( 0 0 0 1 ))	%  NO  SEV
	 (( 0 1 0 0 )	%  MILD  NO
	  ( 0 0 1 0 )	%  MILD  MILD
	  ( 0 0 0 1 )	%  MILD  MOD
	  ( 0 0 0 1 ))	%  MILD  SEV
	 (( 0 0 1 0 )	%  MOD  NO
	  ( 0 0 0 1 )	%  MOD  MILD
	  ( 0 0 0 1 )	%  MOD  MOD
	  ( 0 0 0 1 ))	%  MOD  SEV
	 (( 0 0 0 1 )	%  SEV  NO
	  ( 0 0 0 1 )	%  SEV  MILD
	  ( 0 0 0 1 )	%  SEV  MOD
	  ( 0 0 0 1 )));	%  SEV  SEV
}

potential (R_DIFFN_LNLW_APB_DENERV | R_DIFFN_APB_DENERV R_LNLW_APB_DENERV)
{
 data = ((( 1 0 0 0 )	%  NO  NO
	  ( 0 1 0 0 )	%  NO  MILD
	  ( 0 0 1 0 )	%  NO  MOD
	  ( 0 0 0 1 ))	%  NO  SEV
	 (( 0 1 0 0 )	%  MILD  NO
	  ( 0 0 1 0 )	%  MILD  MILD
	  ( 0 0 0 1 )	%  MILD  MOD
	  ( 0 0 0 1 ))	%  MILD  SEV
	 (( 0 0 1 0 %  MOD  MOD
	  ( 0 0 0 1 ))	%  MOD  SEV
	 (( 0 0 0 1 )	%SEV  MOD
	  ( 0 0 0 1 )));	%  SEV  SEV
}

potential (R_L	   ( 100 0 0 0 0 0 )	%  MOD  ACUTE  V.E.REIN
	   ( 0 100 0 0 0 0 ))	%  MOD  ACUTE  E.REIN
	  (( 0 0 100 0 0 0 )	%  MOD  SUBACUTE  DEMY
	   ( 0 0 100 0 0 0 )	%  MOD  SUBACUTE  BLOCK
	   ( 0 0 100 0 0 0 )	%  MOD  SUBACUTE  AXONAL
	   ( 100 0 0 0 0 0 )	%  MOD  SUBACUTE  V.E.REIN
	   ( 0 100 0 0 0 0 ))	%  MOD  SUBACUTE  E.REIN
	  (( 0 0 0 80 20 0 )	%  MOD  CHRONIC  DEMY
	   ( 0 0 70 20 10 0 )	%  MOD  CHRONIC  BLOCK
	   ( 0 0 0 70 30 0 )	%  MOD  CHRONIC  AXONAL
	   ( 100 0 0 0 0 0 )	%  MOD  CHRONIC  V.E.REIN
	   ( 0 100 0 0 0 0 ))	%  MOD  CHRONIC  E.REIN
	  (( 0 0 0 80 20 0 )	%  MOD  OLD  DEMY
	   ( 0 0 70 20 10 0 )	%  MOD  OLD  BLOCK
	   ( 0 0 0 70 30 0 )	%  MOD  OLD  AXONAL
	   ( 100 0 0 0 0 0 )	%  MOD  OLD  V.E.REIN
	   ( 0 100 0 0 0 0 )))	%  MOD  OLD  E.REIN
	 ((( 0 0 100 0 0 0 )	%  SEV  ACUTE  DEMY
	   ( 0 0 100 0 0 0 )	%  SEV  ACUTE  BLOCK
	   ( 0 0 100 0 0 0 )	%  SEV  ACUTE  AXONAL
	   ( 100 0 0 0 0 0 )	%  SEV  ACUTE  V.E.REIN
	   ( 0 100 0 0 0 0 ))	%  SEV  ACUTE  E.REIN
	  (( 0 0 100 0 0 0 )	%  SEV  SUBACUTE  DEMY
	   ( 0 0 100 0 0 0 )	%  SEV  SUBACUTE  BLOCK
	   ( 0 0 100 0 0 0 )	%  SEV  SUBACUTE  AXONAL
	   ( 100 0 0 0 0 0 )	%  SEV  SUBACUTE  V.E.REIN
	   ( 0 100 0 0 0 0 ))	%  SEV  SUBACUTE  E.REIN
	  (( 0 0 0 0 50 50 )	%  SEV  CHRONIC  DEMY
	   ( 0 0 0 25 50 25 )	%  SEV  CHRONIC  BLOCK
	   ( 0 0 0 0 50 50 )	%  SEV  CHRONIC  AXONAL
	   ( 100 0 0 0 0 0 )	%  SEV  CHRONIC  V.E.REIN
	   ( 0 100 0 0 0 0 ))	%  SEV  CHRONIC  E.REIN
	  (( 0 0 0 0 50 50 )	%  SEV  OLD  DEMY
	   ( 0 0 0 25 50 25 )	%  SEV  OLD  BLOCK
	   ( 0 0 0 0 50 50 )	%  SEV  OLD  AXONAL
	   ( 100 0 0 0 0 0 )	%  SEV  OLD  V.E.REIN
	   ( 0 100 0 0 0 0 ))));	%  SEV  OLD  E.REIN
}

potential (R_LNLW_APB_MUSIZE | R_LNLW_MED_SEV R_LNLW_MED_TIME R_LNLW_MED_PATHO)
{
 data = (((( 0 0 100 0 0 0 )	%  NO  ACUTE  DEMY
	   ( 0 0 100 0 0 0 )	%  NO  ACUTE  BLOCK
	   ( 0 0 100 0 0 0 )	%  NO  ACUTE  AXONAL
	   ( 100 0 0 0 0 0 )	%  NO  ACUTE  V.E.REIN
	   ( 0 100 0 0 0 0 ))	%  NO  ACUTE  E.REIN
	  (( 0 0 100 0 0 0 )	%  NO  SUBACUTE  DEMY
	   ( 0 0 100 0 0 0 )	%  NO  SUBACUTE  BLOCK
	   ( 0 0 100 0 0 0 )	%  NO  SUBACUTE  AXONAL
	   ( 100 0 0 0 0 0 )	%  NO  SUBACUTE  V.E.REIN
	   ( 0 100 0 0 0 0 ))	%  NO  SUBACUTE  E.REIN
	  (( 0 0 100 0 0 0 )	%  NO  CHRONIC  DEMY
	   ( 0 0 100 0 0 0 )	%  NO  CHRONIC  BLOCK
	   ( 0 0 100 0 0 0 )	%  NO  CHRONIC  AXONAL
	   ( 100 0 0 0 0 0 )	%  NO  CHRONIC  V.E.REIN
	   ( 0 100 0 0 0 0 ))	%  NO  CHRONIC  E.REIN
	  (( 0 0 100 0 0 0 )	%  NO  OLD  DEMY
	   ( 0 0 100 0 0 0 )	%  NO  OLD  BLOCK
	   ( 0 0 100 0 0 0 )	%  NO  OLD  AXONAL
	   ( 100 0 0 0 0 0 )	%  NO  OLD  V.E.REIN
	   ( 0 100 0 0 0 0 )))	%  NO  OLD  E.REIN
	 ((( 0 0 100 0 0 0 )	%  MILD  ACUTE  DEMY
	   ( 0 0 100 0 0 0 )	%  MILD  ACUTE  BLOCK
	   ( 0 0 100 0 0 0 )	%  MILD  ACUTE  AXONAL
	   ( 100 0 0 0 0 0 )	%  MILD  ACUTE  V.E.REIN
	   ( 0 100 0 0 0 0 ))	%  MILD  ACUTE  E.REIN
	  (( 0 0 100 0 0 0 )	%  MILD  SUBACUTE  DEMY
	   ( 0 0 100 0 0 0 )	%  MILD  SUBACUTE  BLOCK
	   ( 0 0 100 0 0 0 )	%  MILD  SUBACUTE  AXONAL
	   ( 100 0 0 0 0 0 )	%  MILD  SUBACUTE  V.E.REIN
	   ( 0 100 0 0 0 0 ))	%  MILD  SUBACUTE  E.REIN
	  (( 0 0 90 10 0 0 )	%  MILD  CHRONIC  DEMY
	   ( 0 0 95 5 0 0 )	%  MILD  CHRONIC  BLOCK
	   ( 0 0 80 20 0 0 )	%  MILD  CHRONIC  AXONAL
	   ( 100 0 0 0 0 0 )	%  MILD  CHRONIC  V.E.REIN
	   ( 0 100 0 0 0 0 ))	%  MILD  CHRONIC  E.REIN
	  (( 0 0 90 10 0 0 )	%  MILD  OLD  DEMY
	   ( 0 0 95 5 0 0 )	%  MILD  OLD  BLOCK
	   ( 0 0 80 20 0 0 )	%  MILD  OLD  AXONAL
	   ( 100 0 0 0 0 0 )	%  MILD  OLD  V.E.REIN
	   ( 0 100 0 0 0 0 )))	%  MILD  OLD  E.REIN
	 ((( 0 0 100 0 0 0 )	%  MOD  ACUTE  DEMY
	   ( 0 0 100 0 0 0 )	%  MOD  ACUTE  BLOCK
	   ( 0 0 100 0 0 0 )	%  MOD  ACUTE  AXONAL
	   ( 100 0 0 0 0 0 )	%  MOD  ACUTE  V.E.REIN
	   ( 0 100 0 0 0 0 ))	%  MOD  ACUTE  E.REIN
	  (( 0 0 100 0 0 0 )	%  MOD  SUBACUTE  DEMY
	   ( 0 0 100 0 0 0 )	%  MOD  SUBACUTE  BLOCK
	   ( 0 0 100 0 0 0 )	%  MOD  SUBACUTE  AXONAL
	   ( 100 0 0 0 0 0 )	%  MOD  SUBACUTE  V.E.REIN
	   ( 0 100 0 0 0 0 ))	%  MOD  SUBACUTE  E.REIN
	  (( 0 0 20 70 10 0 )	%0 0 )	%  NO  V.E.REIN
	  ( 0 0 50 50 0 ))	%  NO  E.REIN
	 (( 50 50 0 0 0 )	%  MILD  DEMY
	  ( 50 50 0 0 0 )	%  MILD  BLOCK
	  ( 0 100 0 0 0 )	%  MILD  AXONAL
	  ( 0 0 0 100 0 )	%  MILD  V.E.REIN
	  ( 0 0 50 50 0 ))	%  MILD  E.REIN
	 (( 0 50 50 0 0 )	%  MOD  DEMY
	  ( 40 30 30 0 0 )	%  MOD  BLOCK
	  ( 0 0 100 0 0 )	%  MOD  AXONAL
	  ( 0 0 0 100 0 )	%  MOD  V.E.REIN
	  ( 0 0 50 50 0 ))	%  MOD  E.REIN
	 (( 0 0 50 50 0 )	%  SEV  DEMY
	  ( 0 0 50 50 0 )	%  SEV  BLOCK
	  ( 0 0 0 100 0 )	%  SEV  AXONAL
	  ( 0 0 0 100 0 )	%  SEV  V.E.REIN
	  ( 0 0 50 50 0 ))	%  SEV  E.REIN
	 (( 0 0 0 10 90 )	%  TOTAL  DEMY
	  ( 25 25 25 25 0 )	%  TOTAL  BLOCK
	  ( 0 0 0 0 100 )	%  TOTAL  AXONAL
	  ( 0 0 0 100 0 )	%  TOTAL  V.E.REIN
	  ( 0 0 50 50 0 )));	%  TOTAL  E.REIN
}

potential (R_LNLT1_LP_APB_MUSIZE | R_LNLLP_APB_MUSIZE R_LNLT1_APB_MUSIZE)
{
 data = ((( 1 0 0 0 0 0 )	%  V.SMALL  V.SMALL
	  ( 1 0 0 0 0 0 )	%  V.SMALL  SMALL
	  ( 1 0 0 0 0 0 )	%  V.SMALL  NORMAL
	  ( 1 0 0 0 0 0 )	%  V.SMALL  INCR
	  ( 1 0 0 0 0 0 )	%  V.SMALL  LARGE
	  ( 1 0 0 0 0 0 ))	%  V.SMALL  V.LARGE
	 (( 1 0 0 0 0 0 )	%  SMALL  V.SMALL
	  ( 0 1 0 0 0 0 )	%  SMALL  SMALL
	  ( 0 1 0 0 0 0 )	%  SMALL  NORMAL
	  ( 0 1 0 0 0 0 )	%  SMALL  INCR
	  ( 0 1 0 0 0 0 )	%  SMALL  LARGE
	  ( 0 0.9993 0.0005 0.0001 0 0 ))	%  SMALL  V.LARGE
	 (( 1 0 0 0 0 0 )	%  NORMAL  V.SMALL
	  ( 0 1 0 0 0 0 )	%  NORMAL  SMALL
	  ( 0 0 1 0 0 0 )	%  NORMAL  NORMAL
	  ( 0 0 0 1 0 0 )	%  NORMAL  INCR
	  ( 0 0 0 0 1 0 )	%  NORMAL  LARGE
	  ( 0 0 0 0 0 1 ))	%  NORMAL  V.LARGE
	 (( 1 0 0 0 0 0 )	%  INCR  V.SMALL
	  ( 0 1 0 0 0 0 )	%  INCR  SMALL
	  ( 0 0 0 1 0 0 )	%  INCR  NORMAL
	  ( 0 0 0 1 0 0 )	%  INCR  INCR
	  ( 0 0 0 0 1 0 )	%  INCR  LARGE
	  ( 0 0 0 0 0 1 ))	%  INCR  V.LARGE
	 (( 1 0 0 0 0 0 )	%  LARGE  V.SMALL
	  ( 0 1 0 0 0 0 )	%  LARGE  SMALL
	  ( 0 0 0 0 1 0 )	%  LARGE  NORMAL
	  ( 0 0 0 0 1 0 )	%  LARGE  INCR
	  ( 0 0 0 0 1 0 )	%  LARGE  LARGE
	  ( 0 0 0 0 0 1 ))	%  LARGE  V.LARGE
	 (( 1 0 0 0 0 0 )	%  V.LARGE  V.SMALL
	  ( 0 0.9993 0.0005 0.0001 0 0 )	%  V.LARGE  SMALL
	  ( 0 0 0 0 0 1 )	%  V.LARGE  NORMAL
	  ( 0 0 0 0 0 1 )	%  V.LARGE  INCR
	  ( 0 0 0 0 0 1 )	%  V.LARGE  LARGE
	  ( 0 0 0 0 0 1 )));	%  V.LARGE  V.LARGE
}

potential (R_LNLBE_APB_MUSIZE | R_LNLBE_MED_SEV R_LNLBE_MED_TIME R_LNLBE_MED_PATHO)
{
 data = (((( 0 0 100 0 0 0 )	%  NO  ACUTE  DEMY
	   ( 0 0 100 0 0 0 )	%  NO  ACUTE  BLOCK
	   ( 0 0 100 0 0 0 )	%  NO  ACUTE  AXONAL
	   ( 100 0 0 0 0 0 )	%  NO  ACUTE  V.E.REIN
	   ( 0 100 0 0 0 0 ))	%  NO  ACUTE  E.REIN
	  (( 0 0 100 0 0 0 )	%  NO  SUBACUTE  DEMY
	   ( 0 0 100 0 0 0 )	%  NO  SUBACUTE  BLOCK
	   ( 0 0 100 0 0 0 )	%  NO  SUBACUTE  AXONAL
	   ( 100 0 0 0 0 0 )	%  NO  SUBACUTE  V.E.REIN
	   ( 0 100 0 0 0 0 ))	%  NO  SUBACUTE  E.REIN
	  (( 0 0 100 0 0 0 )	%  NO  CHRONIC  DEMY
	   ( 0 0 100 0 0 0 )	%  NO  CHRONIC  BLOCK
	   ( 0 0 100 0 0 0 )	%  NO  CHRONIC  AXONAL
	   ( 100 0 0 0 0 0 )	%  NO  CHRONIC  V.E.REIN
	   ( 0 100 0 0 0 0 ))	%  NO  CHRONIC  E.REIN
	  (( 0 0 100 0 0 0 )	%  NO  OLD  DEMY
	   ( 0 0 100 0 0 0 )	%  NO  OLD  BLOCK
	   ( 0 0 100 0 0 0 )	%  NO  OLD  AXONAL
	   ( 100 0 0 0 0 0 )	%  NO  OLD  V.E.REIN
	   ( 0 100 0 0 0 0 )))	%  NO  OLD  E.REIN
	 ((( 0 0 100 0 0 0 )	%  MILD  ACUTE  DEMY
 0 50 50 0 0 )	%  MOD  DEMY
	  ( 40 30 30 0 0 )	%  MOD  BLOCK
	  ( 0 0 100 0 0 )	%  MOD  AXONAL
	  ( 0 0 0 100 0 )	%  MOD  V.E.REIN
	  ( 0 0 50 50 0 ))	%  MOD  E.REIN
	 (( 0 0 50 50 0 )	%  SEV  DEMY
	  ( 0 0 50 50 0 )	%  SEV  BLOCK
	  ( 0 0 0 100 0 )	%  SEV  AXONAL
	  ( 0 0 0 100 0 )	%  SEV  V.E.REIN
	  ( 0 0 50 50 0 ))	%  SEV  E.REIN
	 (( 0 0 0 10 90 )	%  TOTAL  DEMY
	  ( 25 25 25 25 0 )	%  TOTAL  BLOCK
	  ( 0 0 0 0 100 )	%  TOTAL  AXONAL
	  ( 0 0 0 100 0 )	%  TOTAL  V.E.REIN
	  ( 0 0 50 50 0 )));	%  TOTAL  E.REIN
}

potential (R_LNLT1_LP_APB_MALOSS | R_LNLT1_APB_MALOSS R_LNLLP_APB_MALOSS)
{
 data = ((( 1 0 0 0 0 )	%  NO  NO
	  ( 0.0022 0.9977 0.0001 0 0 )	%  NO  MILD
	  ( 0.0002 0.0369 0.9589 0.0041 0 )	%  NO  MOD
	  ( 0 0.0002 0.0329 0.9669 0 )	%  NO  SEV
	  ( 0 0 0 0 1 ))	%  NO  TOTAL
	 (( 0.0022 0.9977 0.0001 0 0 )	%  MILD  NO
	  ( 0 0.0282 0.9718 0 0 )	%  MILD  MILD
	  ( 0 0.0009 0.3409 0.6582 0 )	%  MILD  MOD
	  ( 0 0 0.0038 0.9962 0 )	%  MILD  SEV
	  ( 0 0 0 0 1 ))	%  MILD  TOTAL
	 (( 0.0002 0.0369 0.9589 0.0041 0 )	%  MOD  NO
	  ( 0 0.0009 0.3409 0.6582 0 )	%  MOD  MILD
	  ( 0 0 0.01 0.99 0 )	%  MOD  MOD
	  ( 0 0 0.0011 0.9989 0 )	%  MOD  SEV
	  ( 0 0 0 0 1 ))	%  MOD  TOTAL
	 (( 0 0.0002 0.0329 0.9669 0 )	%  SEV  NO
	  ( 0 0 0.0038 0.9962 0 )	%  SEV  MILD
	  ( 0 0 0.0011 0.9989 0 )	%  SEV  MOD
	  ( 0 0 0.0004 0.9996 0 )	%  SEV  SEV
	  ( 0 0 0 0 1 ))	%  SEV  TOTAL
	 (( 0 0 0 0 1 )	%  TOTAL  NO
	  ( 0 0 0 0 1 )	%  TOTAL  MILD
	  ( 0 0 0 0 1 )	%  TOTAL  MOD
	  ( 0 0 0 0 1 )	%  TOTAL  SEV
	  ( 0 0 0 0 1 )));	%  TOTAL  TOTAL
}

potential (R_LNLT1_LP_BE_APB_MUSIZE | R_LNLBE_APB_MUSIZE R_LNLT1_LP_APB_MUSIZE)
{
 data = ((( 1 0 0 0 0 0 )	%  V.SMALL  V.SMALL
	  ( 1 0 0 0 0 0 )	%  V.SMALL  SMALL
	  ( 1 0 0 0 0 0 )	%  V.SMALL  NORMAL
	  ( 1 0 0 0 0 0 )	%  V.SMALL  INCR
	  ( 1 0 0 0 0 0 )	%  V.SMALL  LARGE
	  ( 1 0 0 0 0 0 ))	%  V.SMALL  V.LARGE
	 (( 1 0 0 0 0 0 )	%  SMALL  V.SMALL
	  ( 0 1 0 0 0 0 )	%  SMALL  SMALL
	  ( 0 1 0 0 0 0 )	%  SMALL  NORMAL
	  ( 0 1 0 0 0 0 )	%  SMALL  INCR
	  ( 0 1 0 0 0 0 )	%  SMALL  LARGE
	  ( 0 0.9993 0.0005 0.0001 0 0 ))	%  SMALL  V.LARGE
	 (( 1 0 0 0 0 0 )	%  NORMAL  V.SMALL
	  ( 0 1 0 0 0 0 )	%  NORMAL  SMALL
	  ( 0 0 1 0 0 0 )	%  NORMAL  NORMAL
	  ( 0 0 0 1 0 0 )	%  NORMAL  INCR
	  ( 0 0 0 0 1 0 )	%  NORMAL  LARGE
	  ( 0 0 0 0 0 1 ))	%  NORMAL  V.LARGE
	 (( 1 0 0 0 0 0 )	%  INCR  V.SMALL
	  ( 0 1 0 0 0 0 )	%  INCR  SMALL
	  ( 0 0 0 1 0 0 )	%  INCR  NORMAL
	  ( 0 0 0 1 0 0 )	%  INCR  INCR
	  ( 0 0 0 0 1 0 )	%  INCR  LARGE
	  ( 0 0 0 0 0 1 ))	%  INCR  V.LARGE
	 (( 1 0 0 0 0 0 )	%  LARGE  V.SMALL
	  ( 0 1 0 0 0 0 )	%  LARGE  SMALL
	  ( 0 0 0 0 1 0 )	%  LARGE  NORMAL
	  ( 0 0 0 0 1 0 )	%  LARGE  INCR
	  ( 0 0 0 0 1 0 )	%  LARGE  LARGE
	  ( 0 0 0 0 0 1 ))	%  LARGE  V.LARGE
	 (( 1 0 0 0 0 0 )	%  V.LARGE  V.SMALL
	  ( 0 0.9993 0.0005 0.0001 0 0 )	%  V.LARGE  SMALL
	  ( 0 0 0 0 0 1 )	%  V.LARGE  NORMAL
	  ( 0 0 0 0 0 1 )	%  V.LARGE  INCR
	  ( 0 0 0 0 0 1 )	%  V.LARGE  LARGE
	  ( 0 0 0 0 0 1 )));	%  V.LARGE  V.LARGE
}

potential (R_DIFFN_LNLW_APB_MUSIZE | R_LNLW_APB_MUSIZE R_DIFFN_APB_MUSIZE)
{
 data = ((( 1 0 0 0 0 0 )	%  V.SMALL  V.SMALL
	  ( 1 0 0 0 0 0 )	%  V.SMALL  SMALL
	  ( 1 0 0 0 0 0 )	%  V.SMALL  NORMAL
	  ( 1 0 0 0 0 0 )	%  V.SMALL  INCR
	  ( 1 0 0 0 0 0 )	%  V.SMALL  LARGE
	  ( 1 0 0 0 0 0 ))	%  V.SMALL  V.LARGE
	 (( 1 0 0 0 0 0 )	%  SMALL  V.SMALL
	  ( 0 1 0 0 0 0 )	%  SMALL  SMALL
	  ( 0 1 0 0 0 0 )	%  SMALL  NORMAL
	  ( 0 1 0 0 0 0 )	%  SMALL  INCR
	  ( 0 1 0 0 0 0 )	%  SMALL  LARGE
	  ( 0 0.9993 0.0005 0.0001 0 0 ))	%  SMALL  V.LARGE
	 (( 1 0 0 0 0 0 )	%  NORMAL  V.SMALL
	  ( 0 1 0 0 0 0 )	%  NORMAL  SMALL
	  ( 0 0 0.9981 0.0019 0 0 )	%  NORMAL  NORMAL
	  ( 0 0 0.0019 0.9981 0 0 )	%  NORMAL  INCR
	  ( 0 0 0 0 1 0 )	%  NORMAL  LARGE
	  ( 0 0 0 0 0 1 ))	%  NORMAL  V.LARGE
	 (( 1 0 0 0 0 0 )	%  INCR  V.SMALL
	  ( 0 1 0 0 0 0 )	%  INCR  SMALL
	  ( 0 0 0.0019 0.9981 0 0 )	%  INCR  NORMAL
	  ( 0 0 0 1 0 0 )	%  INCR  INCR
	  ( 0 0 0 0 1 0 )	%  INCR  LARGE
	  ( 0 0 0 0 0 1 ))	%  INCR  V.LARGE
	 (( 1 0 0 0 0 0 )	%  LARGE  V.SMALL
1 )	%  V.LARGE  LARGE
	  ( 0 0 0 0 0 1 )));	%  V.LARGE  V.LARGE
}

potential (R_LNL_DIFFN_APB_DENERV | R_LNLT1_LP_BE_APB_DENERV R_DIFFN_LNLW_APB_DENERV)
{
 data = ((( 1 0 0 0 )	%  NO  NO
	  ( 0 1 0 0 )	%  NO  MILD
	  ( 0 0 1 0 )	%  NO  MOD
	  ( 0 0 0 1 ))	%  NO  SEV
	 (( 0 1 0 0 )	%  MILD  NO
	  ( 0 0 1 0 )	%  MILD  MILD
	  ( 0 0 0 1 )	%  MILD  MOD
	  ( 0  0 1 )	%  MOD  MILD
	  ( 0 0 0 1 )	%  MOD  MOD
	  ( 0 0 1 )	%  SEV  MILD
	  ( 0 0 0 1 )	%  SEV  MOD
	  ( 0 0 0 1T1_LP_BE_APB_MUDENS R_DIFFN_LNLW_APB_MUDENS)
{
 data = ((( 1 0 0 )	%  NORMAL  NORMAL
	  ( 0 1 0 )	%  NORMAL  INCR
	  ( 0 0 1 ))	%  NORMAL  V.INCR
	 (( 0 1 0 )	%  INCR  NORMAL
	  ( 0 0 1 )	%  INCR  INCR
	  ( 0 0 1 ))	%  INCR  V.INCR
	 (( 0 0 1 )	%  V.INCR  NORMAL
	  ( 0 0 1 )	%  V.INCR  INCR
	  ( 0 0 1 )));	%  V.INCR  V.INCR
}

potential (R_MYOP_MYDY_APB_DE_REGEN | R_MYOP_APB_DE_REGEN R_MYDY_APB_DE_REGEN)
{
 data = ((( 1 0 )	%  NO  NO
	  ( 0 1 ))	%  NO  YES
	 (( 0 1 )	%  YES  NO
	  ( 0 1 )));	%  YES  YES
}

potential (R_LNL_DIFFN_APB_DE_REGEN | R_LNLT1_LP_BE_APB_DE_REGEN R_DIFFN_LNLW_APB_DE_REGEN)
{
 data = ((( 1 0 )	%  NO  NO
	  ( 0 1 ))	%  NO  YES
	 (( 0 1 )	%  YES  NO
	  ( 0 1 )));	%  YES  YES
}

potential (R_LNLW_MED_SEV |)
{
 data = ( 73 16 7 3 1 );
}

potential (R_LNLW_MED_PATHO |)
{
 data = ( 80 12 7 0.5 0.5 );
}

potential (R_LNLBE_MED_DIFSLOW | R_LNLBE_MED_PATHO)
{
 data = (( 100 0 0 0 )	%  DEMY
	 ( 100 0 0 0 )	%  BLOCK
	 ( 100 0 0 0 )	%  AXONAL
	 ( 0 0 0 100 )	%  V.E.REIN
	 ( 0 0 100 0 ));	%  E.REIN
}

potential (R_LNLW_MED_BLOCK | R_LNLW_MED_SEV R_LNLW_MED_PATHO)
{
 data = ((( 100 0 0 0 0 )	%  NO  DEMY
	  ( 100 0 0 0 0 )	%  NO  BLOCK
	  ( 100 0 0 0 0 )	%  NO  AXONAL
	  ( 100 0 0 0 0 )	%  NO  V.E.REIN
	  ( 100 0 0 0 0 ))	%  NO  E.REIN
	 (( 100 0 0 0 0 )	%  MILD  DEMY
	  ( 0 50 50 0 0 )	%  MILD  BLOCK
	  ( 100 0 0 0 0 )	%  MILD  AXONAL
	  ( 100 0 0 0 0 )	%  MILD  V.E.REIN
	  ( 100 0 0 0 0 ))	%  MILD  E.REIN
	 (( 60 40 0 0 0 )	%  MOD  DEMY
	  ( 0 50 50 0 0 )	%  MOD  BLOCK
	  ( 100 0 0 0 0 )	%  MOD  AXONAL
	  ( 100 0 0 0 0 )	%  MOD  V.E.REIN
	  ( 100 0 0 0 0 ))	%  MOD  E.REIN
	 (( 25 50 25 0 0 )	%  SEV  DEMY
	  ( 0 0 40 50 10 )	%  SEV  BLOCK
	  ( 100 0 0 0 0 )	%  SEV  AXONAL
	  ( 100 0 0 0 0 )	%  SEV  V.E.REIN
	  ( 100 0 0 0 0 ))	%  SEV  E.REIN
	 (( 20 20 20 20 20 )	%  TOTAL  DEMY
	  ( 0 0 0 0 100 )	%  TOTAL  BLOCK
	  ( 20 20 20 20 20 )	%  TOTAL  AXONAL
	  ( 100 0 0 0 0 )	%  TOTAL  V.E.REIN
	  ( 100 0 0 0 0 )));	%  TOTAL  E.REIN
}

potential (R_MYAS_APB_NMT |)
{
 data = ( 1 0 0 0 0 0 0 );
}

potential (R_DE_REGEN_APB_NMT | R_APB_DE_REGEN)
{
 data = (( 100 0 0 0 0 0 0 )	%  NO
	 ( 65 2 1 27 2 1 2 ));	%  YES
}

potential (R_LNL_DIFFN_APB_MUSIZE | R_DIFFN_LNLW_APB_MUSIZE R_LNLT1_LP_BE_APB_MUSIZE)
{
 data = ((( 1 0 0 0 0 0 )	%  V.SMALL  V.SMALL
	  ( 1 0 0 0 0 0 )	%  V.SMALL  SMALL
	  ( 1 0 0 0 0 0 )	%  V.SMALL  NORMAL
	  ( 1 0 0 0 0 0 )	%  V.SMALL  INCR
	  ( 1 0 0 0 0 0 )	%  V.SMALL  LARGE
	  ( 1 0 0 0 0 0 ))	%  V.SMALL  V.LARGE
	 (( 1 0 0 0 0 0 )	%  SMALL  V.SMALL
	  ( 0 1 0 0 0 0 )	%  SMALL  SMALL
	  ( 0 1 0 0 0 0 )	%  SMALL  NORMAL
	  ( 0 1 0 0 0 0 )	%  SMALL  INCR
	  ( 0 1 0 0 0 0 )	%  SMALL  LARGE
	  ( 0 0.9993 0.0005 0.0001 0 0 ))	%  SMALL  V.LARGE
	 (( 1 0 0 0 0 0 )	%  NORMAL  V.SMALL
	  ( 0 1 0 0 0 0 )	%  NORMAL  SMALL
	  ( 0 0 0.9981 0.0019 0 0 )	%  NORMAL  NORMAL
	  ( 0 0 0.0019 0.9981 0 0 )	%  NORMAL  INCR
	  ( 0 0 0 0 1 0 )	%  NORMAL  LARGE
	  ( 0 0 0 0 0 1 ))	%  NORMAL  V.LARGE
	 (( 1 0 0 0 0 0 )	%  INCR  V.SMALL
	  ( 0 1 0 0 0 0 )	%  INCR  SMALL
	  ( 0 0 0.0019 0.9981 0 0 )	%  INCR  NORMAL
	  ( 0 0 0 1 0 0 )	%  INCR  INCR
	  ( 0 0 0 0 1 0 )	%  INCR  LARGE
	  ( 0 0 0 0 0 1 ))	%  INCR  V.LARGE
	 (( 1 0 0 0 0 0 )	%  LARGE  V.SMALL
	  ( 0 1 0 0 0 0 )	%  LARGE  SMALL
	  ( 0 0 0 0 1 0 )	%  LARGE  NORMAL
	  ( 0 0 0 0 1 0 )	%  LARGE  INCR
	  ( 0 0 0 0 1 0 )	%  LARGE  LARGE
	  ( 0 0 0 0 0 1 ))	%  LARGE  V.LARGE
	 (( 1 0 0 0 0 0 )	%  V.LARGE  V.SMALL
	  ( 0 0.9993 0.0005 0.0001 0 0 )	%  V.LARGE  SMALL
	  ( 0 0 0 0 0 1 )	%  V.LARGE  NORMAL
	  ( 0 0 0 0 0 1 )	%  V.LARGE  INCR
	  ( 0 0 0 0 0 1 )	%  V.LARGE  LARGE
	  ( 0 0 0 0 0 1 )));	%  V.LARGE  V.LARGE
}

potential (R_MYOP_MYDY_APB_MUSIZE | R_MYDY_APB_MUSIZE R_MYOP_APB_MUSIZE)
{
 data = ((( 1 0 0 0 0 0 )	%  V.SMALL  V.SMALL
	  ( 0.9983 0.0017 0 0 0 0 )	%  V.SMALL  SMALL
	  ( 0.9857 0.0143 0 0  TOTAL
	 (( 0.0022 0.9977 0.0001 0 0 )	%  MILD  NO
	  ( 0 0.0282 0.9718 0 0 )	%  MILD  MILD
	  ( 0 0.0009 0.3409 0.6582 0 )	%  MILD  MOD
	  ( 0 0 0.0038 0.9962 0 )	%  MILD  SEV
	  ( 0 0 0 0 1 ))	%  MILD  TOTAL
	 (( 0.0002 0.0369 0.9589 0.0041 0 )	%  MOD  NO
	  ( 0 0.0009 0.3409 0.6582 0 )	%  MOD  MILD
	  ( 0 0 0.01 0.99 0 )	%  MOD  MOD
	  ( 0 0 0.0011 0.9989 0 )	%  MOD  SEV
	  ( 0 0 0 0 1 ))	%  MOD  TOTAL
	 (( 0 0.0002 0.0329 0.9669 0 )	%  SEV  NO
	  ( 0 0 0.0038 0.9962 0 )	%  SEV  MILD
	  ( 0 0 0.0011 0.9989 0 )	%  SEV  MOD
	  ( 0 0 0.0004 0.9996 0 )	%  SEV  SEV
	  ( 0 0 0 0 1 ))	%  SEV  TOTAL
	 (( 0 0 0 0 1 )	%  TOTAL  NO
	  ( 0 0 0 0 1 )	%  TOTAL  MILD
	  ( 0 0 0 0 1 )	%  TOTAL  MOD
	  ( 0 0 0 0 1 )	%  TOTAL  SEV
	  ( 0 0 0 0 1 )));	%  TOTAL  TOTAL
}

potential (R_DIFFN_MED_DIFSLOW | DIFFN_M_SEV_DIST DIFFN_PATHO)
{
 data = ((( 100 0 0 0 )	%  NO  DEMY
	  ( 100 0 0 0 )	%  NO  BLOCK
	  ( 100 0 0 0 )	%  NO  AXONAL
	  ( 0 0 0 100 )	%  NO  V.E.REIN
	  ( 0 0 70 30 ))	%  NO  E.REIN
	 (( 0 50 50 0 )	%  MILD  DEMY
	  ( 40 50 10 0 )	%  MILD  BLOCK
	  ( 100 0 0 0 )	%  MILD  AXONAL
	  ( 0 0 0 100 )	%  MILD  V.E.REIN
	  ( 0 0 70 30 ))	%  MILD  E.REIN
	 (( 0 20 60 20 )	%  MOD  DEMY
	  ( 20 40 30 10 )	%  MOD  BLOCK
	  ( 100 0 0 0 )	%  MOD  AXONAL
	  ( 0 0 0 100 )	%  MOD  V.E.REIN
	  ( 0 0 70 30 ))	%  MOD  E.REIN
	 (( 0 20 60 20 )	%  SEV  DEMY
	  ( 20 40 30 10 )	%  SEV  BLOCK
	  ( 100 0 0 0 )	%  SEV  AXONAL
	  ( 0 0 0 100 )	%  SEV  V.E.REIN
	  ( 0 0 70 30 )));	%  SEV  E.REIN
}

potential (R_LNLBE_MED_SEV |)
{
 data = ( 98.1 1 0.5 0.3 0.1 );
}

potential (R_LNLBE_MED_PATHO |)
{
 data = ( 60 19 20 0.5 0.5 );
}

potential (R_LNLBE_MED_BLOCK | R_LNLBE_MED_SEV R_LNLBE_MED_PATHO)
{
 data = ((( 100 0 0 0 0 )	%  NO  DEMY
	  ( 100 0 0 0 0 )	%  NO  BLOCK
	  ( 100 0 0 0 0 )	%  NO  AXONAL
	  ( 100 0 0 0 0 )	%  NO  V.E.REIN
	  ( 100 0 0 0 0 ))	%  NO  E.REIN
	 (( 100 0 0 0 0 )	%  MILD  DEMY
	  ( 0 50 50 0 0 )	%  MILD  BLOCK
	  ( 100 0 0 0 0 )	%  MILD  AXONAL
	  ( 100 0 0 0 0 )	%  MILD  V.E.REIN
	  ( 100 0 0 0 0 ))	%  MILD  E.REIN
	 (( 60 40 0 0 0 )	%  MOD  DEMY
	  ( 0 50 50 0 0 )	%  MOD  BLOCK
	  ( 100 0 0 0 0 )	%  MOD  AXONAL
	  ( 100 0 0 0 0 )	%  MOD  V.E.REIN
	  ( 100 0 0 0 0 ))	%  MOD  E.REIN
	 (( 25 50 25 0 0 )	%  SEV  DEMY
	  ( 0 0 40 50 10 )	%  SEV  BLOCK
	  ( 100 0 0 0 0 )	%  SEV  AXONAL
	  ( 100 0 0 0 0 )	%  SEV  V.E.REIN
	  ( 100 0 0 0 0 ))	%  SEV  E.REIN
	 (( 20 20 20 20 20 )	%  TOTAL  DEMY
	  ( 0 0 0 0 100 )	%  TOTAL  BLOCK
	  ( 20 20 20 20 20 )	%  TOTAL  AXONAL
	  ( 100 0 0 0 0 )	%  TOTAL  V.E.REIN
	  ( 100 0 0 0 0 )));	%  TOTAL  E.REIN
}

potential (R_DIFFN_MED_BLOCK | DIFFN_M_SEV_DIST DIFFN_PATHO)
{
 data = ((( 100 0 0 0 0 )	%  NO  DEMY
	  ( 100 0 0 0 0 )	%  NO  BLOCK
	  ( 100 0 0 0 0 )	%  NO  AXONAL
	  ( 100 0 0 0 0 )	%  NO  V.E.REIN
	  ( 100 0 0 0 0 ))	%  NO  E.REIN
	 (( 100 0 0 0 0 )	%  MILD  DEMY
	  ( 0 50 50 0 0 )	%  MILD  BLOCK
	  ( 100 0 0 0 0 )	%  MILD  AXONAL
	  ( 100 0 0 0 0 )	%  MILD  V.E.REIN
	  ( 100 0 0 0 0 ))	%  MILD  E.REIN
	 (( 60 40 0 0 0 )	%  MOD  DEMY
	  ( 0 50 50 0 0 )	 0 0 0 100 0 )	%  SEV  AXONAL
	  ( 0 0 0 100 0 )	%  SEV  V.E.REIN
	  ( 0 0 50 50 0 ))	%  SEV  E.REIN
	 (( 0 0 0 40 60 )	%  TOTAL  DEMY
	  ( 0 10 40 40 10 )	%  TOTAL  BLOCK
	  ( 0 0 0 0 100 )	%  TOTAL  AXONAL
	  ( 0 0 0 100 0 )	%  TOTAL  V.E.REIN
	  ( 0 0 50 50 0 )));	%  TOTAL  E.REIN
}

potential (R_DIFFN_LNLW_MEDD2_SALOSS | R_LNLW_MEDD2_SALOSS_WD R_DIFFN_MEDD2_SALOSS)
{
 data = ((( 1 0 0 0 0 )	%  NO  NO
	  ( 0.0073 0.9812 0.0115 0 0 )	%  NO  MILD
	  ( 0.0017 0.1306 0.867 0.0007 0 )	%  NO  MOD
	  ( 0 0.0003 0.0212 0.9785 0 )	%  NO  SEV
	  ( 0 0 0 0 1 ))	%  NO  TOTAL
	 (( 0.0073 0.9812 0.0115 0 0 )	%  MILD  NO
	  ( 0 0.0289 0.9711 0 0 )	%  MILD  MILD
	  ( 0 0.0097 0.5989 0.3914 0 )	%  MILD  MOD
	  ( 0 0 0.0017 0.9983 0 )	%  MILD  SEV
	  ( 0 0 0 0 1 ))	%  MILD  TOTAL
	 (( 0.0017 0.1306 0.867 0.0007 0 )	%  MOD  NO
	  ( 0 0.0097 0.5989 0.3914 0 )	%  MOD  MILD
	  ( 0 0.0005 0.0331 0.9665 0 )	%  MOD  MOD
	  ( 0 0 0.0008 0.9992 0 )	%  MOD  SEV
	  ( 0 0 0 0 1 ))	%  MOD  TOTAL
	 (( 0 0.0003 0.0212 0.9785 0 )	%  SEV  NO
	  ( 0 0 0.0017 0.9983 0 )	%  SEV  MILD
	  ( 0 0 0.0008 0.9992 0 )	%  SEV  MOD
	  ( 0 0 0.0001 0.9999 0 )	%  SEV  SEV
	  ( 0 0 0 0 1 ))	%  SEV  TOTAL
	 (( 0 0 0 0 1 )	%  TOTAL  NO
	  ( 0 0 0 0 1 )	%  TOTAL  MILD
	  ( 0 0 0 0 1 )	%  TOTAL  MOD
	  ( 0 0 0 0 1 )	%  TOTAL  SEV
	  ( 0 0 0 0 1 )));	%  TOTAL  TOTAL
}

potential (R_DIFFN_MEDD2_DIFSLOW | DIFFN_S_SEV_DIST DIFFN_PATHO)
{
 data = ((( 100 0 0 0 )	%  NO  DEMY
	  ( 100 0 0 0 )	%  NO  BLOCK
	  ( 100 0 0 0 )	%  NO  AXONAL
	  ( 0 0 0 100 )	%  NO  V.E.REIN
	  ( 0 0 70 30 ))	%  NO  E.REIN
	 (( 0 50 50 0 )	%  MILD  DEMY
	  ( 50 50 0 0 )	%  MILD  BLOCK
	  ( 100 0 0 0 )	%  MILD  AXONAL
	  ( 0 0 0 100 )	%  MILD  V.E.REIN
	  ( 0 0 70 30 ))	%  MILD  E.REIN
	 (( 0 20 60 20 )	%  MOD  DEMY
	  ( 20 40 30 10 )	%  MOD  BLOCK
	  ( 100 0 0 0 )	%  MOD  AXONAL
	  ( 0 0 0 100 )	%  MOD  V.E.REIN
	  ( 0 0 70 30 ))	%  MOD  E.REIN
	 (( 0 10 60 30 )	%  SEV  DEMY
	  ( 20 40 30 10 )	%  SEV  BLOCK
	  ( 100 0 0 0 )	%  SEV  AXONAL
	  ( 0 0 0 100 )	%  SEV  V.E.REIN
	  ( 0 0 70 30 )));	%  SEV  E.REIN
}

potential (R_LNLBE_MEDD2_RD_EW | R_LNLBE_MED_PATHO)
{
 data = (( 100 0 0 )	%  DEMY
	 ( 100 0 0 )	%  BLOCK
	 ( 100 0 0 )	%  AXONAL
	 ( 0 0 100 )	%  V.E.REIN
	 ( 0 100 0 ));	%  E.REIN
}

potential (R_LNLBE_MEDD2_LD_EW | R_LNLBE_MED_SEV R_LNLBE_MED_PATHO)
{
 data = ((( 100 0 0 0 )	%  NO  DEMY
	  ( 100 0 0 0 )	%  NO  BLOCK
	  ( 100 0 0 0 )	%  NO  AXONAL
	  ( 100 0 0 0 )	%  NO  V.E.REIN
	  ( 100 0 0 0 ))	%  NO  E.REIN
	 (( 0 100 0 0 )	%  MILD  DEMY
	  ( 50 50 0 0 )	%  MILD  BLOCK
	  ( 100 0 0 0 )	%  MILD  AXONAL
	  ( 100 0 0 0 )	%  MILD  V.E.REIN
	  ( 100 0 0 0 ))	%  MILD  E.REIN
	 (( 0 0 100 0 )	%  MOD  DEMY
	  ( 25 50 25 0 )	%  MOD  BLOCK
	  ( 50 50 0 0 )	%  MOD  AXONAL
	  ( 100 0 0 0 )	%  MOD  V.E.REIN
	  ( 100 0 0 0 ))	%  MOD  E.REIN
	 (( 0 0 0 100 )	%  SEV  DEMY
	  ( 5 30 50 15 )	%  SEV  BLOCK
	  ( 0 100 0 0 )	%  SEV  AXONAL
	  ( 100 0 0 0 )	%  SEV  V.E.REIN
	  ( 100 0 0 0 ))	%  SEV  E.REIN
	 (( 0 0 0 100 )	%  TOTAL  DEMY
	  ( 25 25 25 25 )	%  TOTAL  BLOCK
	  ( 0 50 50 0 )	%  TOTAL  AXONAL
	  ( 100 0 0 0 )	%  TOTAL  V.E.REIN
	  ( 100 0 0 0 )));	%  TOTAL  E.REIN
}

potential (R_LNLBE_MEDD2_BLOCK_EW | R_LNLBE_MED_SEV R_LNLBE_MED_PATHO)
{
 data = ((( 100 0 0 0 0 )	%  NO  DEMY
	  ( 100 0 0 0 0 )	%  NO  BLOCK
	  ( 100 0 0 0 0 )	%  NO  AXONAL
	  ( 100 0 0 0 0 )	%  NO  V.E.REIN
	  ( 100 0 0 0 0 ))	%  NO  E.REIN
	 (( 80 20 0 0 0 )	%  MILD  DEMY
	  ( 0 50 50 0 0 )	%  MILD  BLOCK
	  ( 100 0 0 0 0 )	%  MILD  AXONAL
	  ( 100 0 0 0 0 )	%  MILD  V.E.REIN
	  ( 100 0 0 0 0 ))	%  MILD  E.REIN
	 (( 30 60 10 0 0 )	%  MOD  DEMY
	  ( 0 0 50 50 0 )	%  MOD  BLOCK
	  ( 100 0 0 0 0 )	%  MOD  AXONAL
	  ( 100 0 0 0 0 )	%  MOD  V.E.REIN
	  ( 100 0 0 0 0 ))	%  MOD  E.REIN
	 (( 10 50 30 10 0 )	%  SEV  DEMY
	  ( 0 0 20 60 20 )	%  SEV  BLOCK
	  ( 100 0 0 0 0AL  AXONAL
	  ( 100 0 0 0 0 )	%  TOTAL  V.E.REIN
	  ( 100 0 0 0 0 )));	%  TOTAL  E.REIN
}

potential (R_DIFFN_MEDD2_BLOCK | DIFFN_S_SEV_DIST DIFFN_PATHO)
{
 data = ((( 100 0 0 0 0 )	%   NO  AXONAL
	  ( 100 0 0 0 0 )	%  NO  V.E.REIN
	  ( 100 0 0 00 30 0 0 )	%  MILD  BLOCK
	  ( 100 0 0 0 0 )	%  MILD  AXONAL
	  ( 100 0 0 0 0 )	%  MILD  V.E.REIN
	  ( 100 0 0 0 0 ))	%  MILD  E.REIN
	 (( 60 40 0 0 0 )	%  MOD  DEMY
	  ( 0 20 50 30 0 )	%  MOD  BLOCK
	  ( 100 0 0 0 0 )	%  MOD  AXONAL
	  ( 100 0 0 0 0 )	%  MOD  V.E.REIN
	  ( 100 0 0 0 0 ))	%  MOD  E.REIN
	 (( 25 50 25 0 0 )	%  SEV  DEMY
	  ( 0 0 40 50 10 )	%  SEV  BLOCK
	  ( 100 0 0 0 0 )	%  SEV  AXONAL
	  ( 100 0 0 0 0 )	%  SEV  V.E.REIN
	  ( 100 0 0 0 0 )));	%  SEV  E.REIN
}

potential (R_LNLBE_MEDD2_DISP_EW | R_LNLBE_MED_SEV R_LNLBE_MED_PATHO)
{
 data = ((( 100 0 0 0 )	%  NO  DEMY
	  ( 100 0 0 0 )	%  NO  BLOCK
	  ( 100 0 0 0 )	%  NO  AXONAL
	  ( 0 0 0 100 )	%  NO  V.E.REIN
	  ( 0 0 0 100 ))	%  NO  E.REIN
	 (( 0 100 0 0 )	%  MILD  DEMY
	  ( 50 50 0 0 )	%  MILD  BLOCK
	  ( 100 0 0 0 )	%  MILD  AXONAL
	  ( 0 0 0 100 )	%  MILD  V.E.REIN
	  ( 0 0 0 100 ))	%  MILD  E.REIN
	 (( 0 0 100 0 )	%  MOD  DEMY
	  ( 0 50 50 0 )	%  MOD  BLOCK
	  ( 50 50 0 )	%  MILD  V.E.REIN
	  ( 0 0 0 100 ))	%  MILD  E.REIN
	 (( 0 0 100 0 )	%  MOD  DEMY
	  ( 0 50 50 0 )	%  MOD  BLOCK
	  ( 50 50 0 0 )	%  MOD  AXONAL
	  ( 0 0 0 100 )	%  MOD  V.E.REIN
	  ( 0 0 0 100 ))	%  MOD  E.REIN
	 (( 0 0 0 100 )	%  SEV  DEMY
	  ( 0 10 50 40 )	%  SEV  BLOCK
	  ( 0 50 50 0 )	%  SEV  AXONAL
	  ( 0 0 0 100 )	%  SEV  V.E.REIN
	  ( 0 0 0 100 )));	%  SEV  E.REIN
}

potential (R_MED_RD_WA | R_LNLW_MED_PATHO)
{
 data = (( 100 0 0 )	%  DEMY
	 ( 100 0 0 )	%  BLOCK
	 ( 100 0 0 )	%  AXONAL
	 ( 0 0 100 )	%  V.E.REIN
	 ( 0 100 0 ));	%  E.REIN
}

potential (R_MED_LD_WA | R_LNLW_MED_SEV R_LNLW_MED_PATHO)
{
 data = ((( 100 0 0 0 )	%  NO  DEMY
	  ( 100 0 0 0 )	%  NO  BLOCK
	  ( 100 0 0 0 )	%  NO  AXONAL
	  ( 100 0 0 0 )	%  NO  V.E.REIN
	  ( 100 0 0 0 MILD  NO
	  ( 0.0001 0.0952 0.9047 0 )	%  MILD  MILD
	  ( 0 0.0009 0.588 0.4111 )	%  MILD  MOD
	  ( 0 0 0.0044 0.9955 ))	%  MILD  SEV
	 (( 0 0.0181 0.9818 0 )	%  MOD  NO
	  ( 0 0.0009 0.588 0.4111 )	%  MOD  MILD
	  ( 0 0 0.002 0.998 )	%  MOD  MOD
	  ( 0 0 0.0006 0.9994 ))	%  MOD  SEV
	 (( 0 0.0003 0.0252 0.9745 )	%  SEV  NO
	  ( 0 0 0.0044 0.9955 )	%  SEV  MILD
	  ( 0 0 0.0006 0.9994 )	%  SEV  MOD
	  ( 0 0 0.0005 0.9995 )));	%  SEV  SEV
}

potential (R_MED_BLOCK_WA | R_DIFFN_MED_BLOCK R_LNLW_MED_BLOCK)
{
 data = ((( 1 0 0 0 0 )	%  NO  NO
	  ( 0.0077 0.9923 0 0 0 )	%  NO  MILD
	  ( 0.0007 0.0234 0.9759 0 0 )	%  NO  MOD
	  ( 0.0019 0.006 0.0588 0.9333 0 )	%  NO  SEV
	  ( 0 0 0 0 1 ))	%  NO  TOTAL
	 (( 0.0077 0.9923 0 0 0 )	%  MILD  NO
	  ( 0.0001 0.498 0.5019 0 0 )	%  MILD  MILD
	  ( 0 0.0032 0.9968 0 0 )	%  MILD  MOD
	  ( 0.001 0.0033 0.0376 0.9581 0 )	%  MILD  SEV
	  ( 0 0 0 0 1 ))	%  MILD  TOTAL
	 (( 0.0007 0.0234 0.9759 0 0 )	%  M81 0 )	%  SEV  MILD
	  ( 0.0003 0.0011 0.0159 0.9827 0 )	%  SEV  MOD
	  ( 0.0003 0.0011 0.0125 0.986 0 )	%  SEV  SEV
	  ( 0 0 0 0 1 ))	%  SEV  TOTAL
	 (( 0 0 0 0 1 )	%  TOTAL  NO
	  ( 0 0 0 0 1 )	%  TOTAL  MILD
	  ( 0 0 0 0 1 )	%  TOTAL  MOD
	  ( 0DEMY
	  ( 100 0 0 0 )	%  NO  BLOCK
	  ( 100 0 0 0 )	%  NO  AXONAL
	  ( 100 0 0 0 )	%  NO  V.E.REIN
	  ( 100 0 0 0 ))	%  NO  E.REIN
	 (( 0 100 0 0 )	%  MILD  DEMY
	  ( 50 50 0 0 )	%  MILD  BLOCK
	  ( 100 0 0 0 )	%  MILD  AXONAL
	  ( 100 0 0 0 )	%  MILD  V.E.REIN
	  ( 100 0 0 0 ))	%  MILD  E.REIN
	 (( 0 0 100 0 )	%  MOD  DEMY
	  ( 25 50 25 0 )	%  MOD  BLOCK
	  ( 50 50 0 0 )	%  MOD  AXONAL
	  ( 100 0 0 0 )	%  MOD  V.E.REIN
	  ( 100 0 0 0 ))	%  MOD  E.REIN
	 (( 0 0 0 100 )	%  SEV  DEMY
	  ( 5 30 50 15 )	%  SEV  BLOCK
	  ( 1 ));	%  SEV
}

potential (R_MEDD2_DIFSLOW_WD | R_LNLBE_MEDD2_DIFSLOW_WD R_DIFFN_MEDD2_DIFSLOW)
{
 data = ((( 1 0 0 0 )	%  NO  NO
	  ( 0.0127 0.9867 0.0006 0 )	%  NO  MILD
	  ( 0 0.0181 0.9818 0 )	%  NO  MOD
	  ( 0 0.0006 0.0492 0.9502 ))	%  NO  SEV
	 (( 0.0127 0.9867 0.0006 0 )	%  MILD  NO
	  ( 0.0001 0.0952 0.9047 0 )	%  MILD  MILD
	  ( 0 0.0011 0.7402 0.2587 )	%  MILD  MOD
	  ( 0 0 0.0088 0.9911 ))	%  MILD  SEV
	 (( 0 0.0181 0.9818 0 )	%  MOD  NO
	  ( 0 0.0011 0.7402 0.2587 )	%  MOD  MILD
	  ( 0 0 0.004 0.996 )	%  M 0.5019 0 0 )	%  MILD  MILD
	  ( 0 0.0032 0.9968 0 0 )	%  MILD  MOD
	  ( 0.001 0.0033 0.0376 0.9581 0 )	%  MILD  SEV
	  ( 0 0 0 0 1 ))	%  MILD  TOTAL
	 (( 0.0007 0.0234 0.9759 0 0 )	%  MOD  NO
	  ( 0 0.0032 0.9968 0 0 )	%  MOD  MILD
	  ( 0 0.0007 0.4328 0.5665 0 )	%  MOD  MOD
	  ( 0.0003 0.0011 0.0159 0.9827 0 )	%  MOD  SEV
	  ( 0 0 0 0 1 ))	%  MOD  TOTAL
	 (( 0.0019 0.006 0.0588 0.9333 0 )	%  SEV  NO
	  ( 0.001 0.0033 0.0376 0.9581 0 )	%  SEV  MILD
	  ( 0.0003 0.0011 0.0159 0.9827 0 )	%  SEV  MOD
	  ( 0.0003 0.0011 0.0125 0( 0 0 0 0 1 )	%  TOTAL  NO
	  ( 0 0 0 0 1 )	%  TOTAL  MI 0 )	%  NO  NO
	  ( 0.0073 0.9812 0.0115 0 0 )	%  NO  MILD
	  ( 0.0017 0.1306 0.867 0.0007 0 )	%  NO  MOD
	  ( 0 0.0003 0.0212 0.9785 0 )	%  NO  SEV
	  ( 0 0 0 0 1 ))	%  NO  TOTAL
	 (( 0.0073 0.9812 0.0115 0 0 )	%  MILD  NO
	  ( 0 0.0289 0.9711 0 0 )	%  MILD  MILD
	  ( 0 0.0097 0.5989 0.3914 0 )	%  MILD  MOD
	  ( 0 0 0.0017 0.9983 0 )	%  MILD  SEV
	  ( 0  0 0 0.0001 0.9999 0 )	%  SEV  SEV
	  ( 0 0 0 0 1 ))	%  SEV  TOTAL
	 (( 0 0 0 0 1 )	%  TOTAL  NO
	  ( 0 0 0 0 1 )	%  TOTAL  MILD
	  ( 0 0 0 0 1 )	%  TOTAL  MOD
	  ( 0 0 0 0 1 )	%  TOTAL  SEV
	  ( 0 0 0 0 1 )));	%  TOTAL  TOTAL
}

potential (R_MEDD2_RD_EW | R_LNLBE_MEDD2_RD_EW)
{
 data = (( 1 0 0 )	%  NO
	 ( 0 1 0 )	%  MOD
	 ( 0 0 1 ));	%  SEV
}

potential ( ( 0.0001 0.0003 0.0018 0.011 0.067 0.2945 0.5047 0.1206 0 ))	%  NO  SEV
	 (( 0.1136 0.8864 0 0 0 0 0 0 0 )	%  MILD  NO
	  ( 0.0009 0.0368 0.5577 0.4025 0.0022 0 0 0 0 )	%  MILD  MILD
	  ( 0.0002 0.0018 0.0263 0.1887 0.5884 0.1916 0.003 0 0 )	%  MILD  MOD
	  ( 0 0.0001 0.0009 0.0059 0.0422 0.2356 0.5225 0.1927 0 ))	%  MILD  SEV
	 (( 0.0006 0.0764 0.8866 0.0364 031 0.4415 0.432 0 ))	%  MOD  SEV
	 (( 0 0 0.0655 0.9299 0.0046 0 0 0 0 )	%  SEV  NO
	  ( 0 0 0.0007 0.0745 0.8859 0.0389 0 0 0 )	%  SEV  MILD
	  ( 0 0 0.0001 0.0032 0.0781 0.5947 0.3236%  TOTAL  MOD
	  ( 0 0 0 0 0 0 0 0 1 ))	%  TOTAL  SEV
	 (( 0.1523 0.2904 0.3678 0.1726 0.0169 0 0 0 0 )	%  OTHER  NO
	  ( 0.0168 0.0618 0.2223 0.4015 0.2803 0.0172 0.0001 0 0 )	%  OTHER  MIL0 0 0 0 0 )	%  MOD  NO
	  ( 0.0048 0.0476 0.3148 0.5311 0.1016 0.0001 0 0 0 )	%  MOD  MILD
	  ( 0 0.0006 0.0114 0.1147 0.5445 0.3196 0.0091 0 0 )	%  MOD  MOD
	  ( 0.0001 0.0003 0.0017 0.0083 0.0447 0.2031 0.4632 0.2785 0 ))	%  MOD  SEV
	 (( 0.0001 0.0629 0.9278 0.0092 0 0 0 0 0 )	%  SEV  NO
	  ( 0.0006 0.0092 0.116 0.4857 0.3835 0.0049 0 0 0 )	%  SEV  MILD
	  ( 0 0.0001 0.0024 0.0374 0.3327 0.567 0.0603 0 0 )	%  SEV  MOD
	  ( 0 0.0001 0.0007 0.0038 0.0243 0.1416 0.424 0.4054 0 ))	%  SEV  SEV
	 (( 0 0 0 0 0 0 0 0 1 )	%  TOTAL  NO
	  ( 0 0 0 0 0 0 0 0 1 )	%  TOTAL  MILD
	  ( 0 0 0 0 0 0 0 0 1 )	%  TOTAL  MOD
	  ( 0 0 0 0 0 0 0 0 1 )));	%  TOTAL  SEV
}

potential (R_MEDD2_LSLOW_EW | R_MEDD2_LD_EW R_MEDD2_RD_EW)
{
 data = ((( 1 0 0 0 0 )	%  NO  NO
	  ( 0.0084 0.0119 0.0619 0.9173 0.0004 )	%  NO  MOD
	  ( 0.0053 0.0062 0.0264 0.2082 0.754 ))	%  NO  SEV
	 (( 0.0185 0.9561 0.0254 0 0 )	%  MILD  NO
	  ( 0.0069 0.01 0.0535 0.9286 0.0009 )	%  MILD  MOD
	  ( 0.0049 0.0057 0.0244 0.1966 0.7684 ))	%  MILD  SEV
	 (( 0 0.0166 0.9834 0 0 )	%  MOD  NO
	  ( 0.0056 0.0083 0.0452 0.939 0.002 )	%  MOD  MOD
	  ( 0.0044 0.0052 0.0224 0.1839 0.784 ))	%  MOD  SEV
	 (( 0.0007 0.002 0.0219 0.9754 0 )	%  SEV  NO
	  ( 0.0023 0.0036 0.0217 0.8326 0.1398 )	%  SEV  MOD
	  ( 0.0028 0.0033 0.0145 0.1304 0.849 )));	%  SEV  SEV
}

potential (R_MEDD2_DSLOW_WD | R_MEDD2_SALOSS R_MEDD2_DIFSLOW_WD)
{
 data = ((( 1 0 0 0 0 0 0 0 0 )	%  NO  NO
	  ( 0.0532 0.2387 0.495 0.2072 0.0059 0 0 0 0 )	%  NO  MILD
	  ( 0.0007 0.0063 0.0614 0.3006 0.5524 0.0781 0.0005 0 0 )	%  NO  MOD
	  ( 0.0003 0.0011 0.005 0.0205 0.087 0.2822 0.4514 0.1525 0 ))	%  NO  SEV
	 (( 0.1036 0.8964 0 0 0 0 0 0 0 )	%  MILD  NO
	  ( 0.0178 0.119 0.4481 0.3854 0.0296 0 0 0 0 )	%  MILD  MILD
	  ( 0.0002 0.0021 0.0283 0.1995 0.5939 0.1737 0.0023 0 0 )	%  MILD  MOD
	  ( 0.0002 0.0006 0.0029 0.0133 0.0634 0.2436 0.4657 0.2103 0 ))	%  MILD  SEV
	 (( 0.0006 0.9974 0.0021 0 0 0 0 0 0 )	%  MOD  NO
	  ( 0.0048 0.0476 0.3148 0.5311 0.1016 0.0001 0 0 0 )	%  MOD  MILD
	  ( 0 0.0006 0.0114 0.1147 0.5445 0.3196 0.0091 0 0 )	%  MOD  MOD
	  ( 0.0001 0.0003 0.0017 0.0083 0.0447 0.2031 0.4632 0.2785 0 ))	%  MOD  SEV
	 (( 0.0001 0.0629 0.9278 0.0092 0 0 0 0 0 )	%  SEV  NO
	  ( 0.0006 0.0092 0.116 0.4857 0.3835 0.0049 0 0 0 )	%  SEV  MILD
	  ( 0 0.0001 0.0024 0.0374 0.3327 0.567 0.0603 0 0 )	%  SEV  MOD
	  ( 0 0.0001 0.0007 0.0038 0.0243 0.1416 0.424 0.4054 0 ))	%  SEV  SEV
	 (( 0 0 0 0 0 0 0 0 1 )	%  TOTAL  NO
	  ( 0 0 0 0 0 0 0 0 1 )	%  TOTAL  MILD
	  ( 0 0 0 0 0 0 0 0 1 )	%  TOTAL  MOD
	  ( 0 0 0 0 0 0 0 0 1 )));	%  TOTAL  SEV
}

potential (R_MEDD2_LSLOW_WD | R_MEDD2_LD_WD R_MEDD2_RD_WD)
{
 data = ((( 1 0 0 0 0 )	%  NO  NO
	  ( 0.0021 0.0042 0.0295 0.9642 0 )	%  NO  MOD
	  ( 0.0001 0.0002 0.0014 0.083 0.9153 ))	%  NO  SEV
	 (( 0.0185 0.9561 0.0254 0 0 )	%  MILD  NO
	  ( 0.0012 0.0025 0.0194 0.9769 0 )	%  MILD  MOD
	  ( 0.0001 0.0001 0.0008 0.0533 0.9457 ))	%  MILD  SEV
	 (( 0 0.0166 0.9834 0 0 )	%  MOD  NO
	  ( 0.0007 0.0015 0.012 0.9859 0 )	%  MOD  MOD
	  ( 0 0.0001 0.0004 0.0319 0.9676 ))	%  MOD  SEV
	 (( 0.0007 0.002 0.0219 0.9754 0 )	%  SEV  NO
	  ( 0.0002 0.0005 0.0046 0.9944 0.0002 )	%  SEV  MOD
	  ( 0 0 0 0.0035 0.9964 )));	%  SEV  SEV
}

potential (R_MEDD2_EFFAXLOSS | R_MEDD2_BLOCK_WD R_MEDD2_SALOSS)
{
 data = ((( 1 0 0 0 0 )	%  NO  NO
	  ( 0.0073 0.9812 0.0115 0 0 )	%  NO  MILD
	  ( 0.0017 0.1306 0.867 0.0007 0 )	%  NO  MOD
	  ( 0 0.0003 0.0212 0.9785 0 )	%  NO  SEV
	  ( 0 0 0 0 1 ))	%  NO  TOTAL
	 (( 0.0073 0.9812 0.0115 0 0 )	%  MILD  NO
	  ( 0 0.0289 0.9711 0 0 )	%  MILD  MILD
	  ( 0 0.0097 0.5989 0.3914 0 )	%  MILD  MOD
	  ( 0 0 0.0017 0.9983 0 )	%  MILD  SEV
	  ( 0 0 0 0 1 ))	%  MILD  TOTSEV.PRE
	 ( 5 70 20 5 )	%  MLD.POST
	 ( 1 19 70 10 )	%  MOD.POST
	 ( 0 10 40 50 )	%  SEV.POST
	 ( 10 30 30 30 ));	%  MIXED
}

potential (R_APB_REPSTIM_POST_DECR | R_APB_NMT)
{
 data = (( 94.9 2 1 0.1 2 )	%  NO
	 ( 2 10 80 6 2 )	%  MOD.PRE
	 ( 0.1 1 2 94.9 2 )	%  SEV.PRE
	 ( 25 61 10 2 2 )	%  MLD.POST
	 ( 1 10 80 7 2 )	%  MOD.POST
	 ( 0.1 1 2 94.9 2 )	%  SEV.POST
	 ( 23 23 22 22 10 ));	%  MIXED
}

potential (R_APB_REPSTIM_FACILI | R_APB_NMT)
{
 data = (( 95 2 1 2 )	%  NO
	 ( 1 88.9 10 0.1 )	%  MOD.PRE
	 ( 1 8 90.9 0.1 )	%  SEV.PRE
	 ( 89 8 1 2 )	%  MLD.POST
	 ( 48 50 1 1 )	%  MOD.POST
	 ( 2 94.9 3 0.1 )	%  SEV.POST
	 ( 25 25 25 25 ));	%  MIXED
}

potential (R_APB_REPSTIM_DECR | R_APB_NMT)
{
 data = (( 94.9 2 1 0.1 2 )	%  NO
	 ( 4 20 70 4 2 )	%  MOD.PRE
	 ( 0.1 1 4 92.9 2 )	%  SEV.PRE
	 ( 35 57 5 1 2 )	%  MLD.POST
	 ( 2 10 80 6 2 )	%  MOD.POST
	 ( 0.1 1 4 92.9 2 )	%  SEV.POST
	 ( 24.5 24.5 24.5 24.5 2 ));	%  MIXED
}

potential (R_APB_REPSTIM_CMAPAMP | R_APB_ALLAMP_WA)
{
 data = (( 1 0 0 0 0 0 0 0 0 0 0 0 0 0 0 0 0 0 0 0 0 )	%  ZERO
	 ( 0.0013 0.1159 0.128 0.133 0.13 0.1194 0.1031 0.0838 0.0639 0.0459 0.031 0.0197 0.0117 0.0066 0.0035 0.0017 0.0008 0.0004 0.0001 0.0001 0 )	%  A0.01
	 ( 0 0.0003 0.0013 0.0041 0.0112 0.0261 0.0516 0.0868 0.1247 0.1525 0.1589 0.1411 0.1068 0.0688 0.0378 0.0177 0.0071 0.0024 0.0007 0.0002 0 )	%  A0.10
	 ( 0 0 0 0 0 0.0001 0.0007 0.0031 0.0111 0.0313 0.0704 0.1248 0.1748 0.1935 0.1693 0.117 0.064 0.0276 0.0094 0.0025 0.0005 )	%  A0.30
	 ( 0 0 0 0 0 0 0 0 0 0.0003 0.0021 0.0107 0.0386 0.099 0.1796 0.2316 0.2119 0.1375 0.0632 0.0207 0.0047 )	%  A0.70
	 ( 0 0 0 0 0 0 0 0 0 0 0 0.0003 0.0031 0.019 0.0723 0.1736 0.2622 0.2497 0.1497 0.0567 0.0133 )	%  A1.00
	 ( 0 0 0 0 0 0 0 0 0 0 0 0.0001 0.0007 0.0037 0.0151 0.0464 0.1065 0.1843 0.2393 0.2335 0.1704 )	%  A2.00
	 ( 0 0 0 0 0 0 0 0 0 0 0 0 0 0.0002 0.0011 0.0061 0.0249 0.0768 0.1779 0.3089 0.404 )	%  A4.00
	 ( 0 0 0 0 0 0 0 0 0 0 0 0 0 0 0.0001 0.0005 0.0038 0.0208 0.086 0.2659 0.6229 ));	%  A8.00
}

potential (R_APB_NMT | R_DE_REGEN_APB_NMT R_MYAS_APB_NMT)
{
 data = ((( 1 0 0 0 0 0 0 )	%  NO  NO
	  ( 0 1 0 0 0 0 0 )	%  NO  MOD.PRE
	  ( 0 0 1 0 0 0 0 )	%  NO  SEV.PRE
	  ( 0 0 0 1 0 0 0 )	%  NO  MLD.POST
	  ( 0 0 0 0 1 0 0 )	%  NO  MOD.POST
	  ( 0 0 0 0 0 1 0 )	%  NO  SEV.POST
	  ( 0 0 0 0 0 0 1 ))	%  NO  MIXED
	 (( 0 1 0 0 0 0 0 )	%  MOD.PRE  NO
	  ( 0 0 1 0 0 0 0 )	%  MOD.PRE  MOD.PRE
	  ( 0 0 1 0 0 0 0 )	%  MOD.PRE  SEV.PRE
	  ( 0 0 0 0 0 0 1 )	%  MOD.PRE  MLD.POST
	  ( 0 0 0 0 0 0 1 )	%  MOD.PRE  MOD.POST
	  ( 0 0 0 0 0 0 1 )	%  MOD.PRE  SEV.POST
	  ( 0 0 0 0 0 0 1 ))	%  MOD.PRE  MIXED
	 (( 0 0 1 0 0 0 0 )	%  SEV.PRE  NO
	  ( 0 0 1 0 0 0 0 )	%  SEV.PRE  MOD.PRE
	  ( 0 0 1 0 0 0 0 )	%  SEV.PRE  SEV.PRE
	  ( 0 0 0 0 0 0 1 )	%  SEV.PRE  MLD.POST
	  ( 0 0 0 0 0 0 1 )	%  SEV.PRE  MOD.POST
	  ( 0 0 0 0 0 0 1 )	%  SEV.PRE  SEV.POST
	  ( 0 0 0 0 0 0 1 ))	%  SEV.PRE  MIXED
	 (( 0 0 0 1 0 0 0 )	%  MLD.POST  NO
	  ( 0 0 0 0 0 0 1 )	%  MLD.POST  MOD.PRE
	  ( 0 0 0 0 0 0 1 )	%  MLD.POST  SEV.PRE
	  ( 0 0 0 0 1 0 0 )	%  MLD.POST  MLD.POST
	  ( 0 0 0 0 1 0 0 )	%  MLD.POST  MOD.POST
	  ( 0 0 0 0 0 1 0 )	%  MLD.POST  SEV.POST
	  ( 0 0 0 0 0 0 1 ))	%  MLD.POST  MIXED
	 (( 0 0 0 0 1 0 0 )	%  MOD.POST  NO
	  ( 0 0 0 0 0 0 1 )	%  MOD.POST  MOD.PRE
	  ( 0 0 0 0 0 0 1 )	%  MOD.POST  SEV.PRE
	  ( 0 0 0 0 1 0 0 )	%  MOD.POST  MLD.POST
	  ( 0 0 0 0 0 1 0 )	%  MOD.POST  MOD.POST
	  ( 0 0 0 0 0 1 0 )	%  MOD.POST  SEV.POST
	  ( 0 0 0 0 0 0 1 ))	%  MOD.POST  MIXED
	 (( 0 0 0 0 0 1 0 )	%  SEV.POST  NO
	  ( 0 0 0 0 0 0 1 )	%  SEV.POST  MOD.PRE
	  ( 0 0 0 0 0 0 1 )	%  SEV.POST  SEV.PRE
	  ( 0 0 0 0 0 1 0 )	%  SEV.POST  MLD.POST
	  ( 0 0 0 0 0 1 0 )	%  SEV.POST  MOD.POST
	  ( 0 0 0 0 0 1 0 )	%  SEV.POST  SEV.POST
	  ( 0 0 0 0 0 0 1 ))	%  SEV.POST  MIXED
	 (( 0 0 0 0 0 0 1 )	%  MIXED  NO
	  ( 0 0 0 0 0 0 1 )	%  MIXED  MOD.PRE
	  ( 0 0 0 0 0 0 1 )	%  MIXED  SEV.PRE
	  ( 0 0 0 0 0 0 1 )	%  MIXED  MLD.POST
	  ( 0 0 0 0 0 0 1 )	%  MIXED  MOD.POST
	  ( 0 0 0 0 0 0 1 )	%  MIXED  SEV.POST
	  ( 0 0 0 0 0 0 1 )));	%  MIXED  MIXED
}

potential (R_APB_MUPINSTAB | R_APB_NMT)
{
 data = (( 95 5 )	%  NO
	 ( 10 90 )	%  MOD.PRE
	 ( 3 97 )	%  SEV.PRE
	 ( 20 80 )	%  MLD.POST
	 ( 10 90 )	%  MOD.POST
	 ( 3 97 )	%  SEV.POST
	 ( 10 90 ));	%  MIXED
}

potential (R_APB_DE_REGEN | R_LNL_DIFFN_APB_DE_REGEN R_MYOP_MYDY_APB_DE_REGEN)
{
 data = ((( 1 0 )	%  NO  NO
	  ( 0 1 ))	%  NO  YES
	 (( 0 1 )	%  YES  NO
	  ( 0 1 )));	%  YES  YES
}

potential (R_APB_MUPSATEL | R_APB_DE_REGEN)
{
 data = (( 95 5 )	%  NO
	 ( 20 80 ));	%  YES
}

potential (R_APB_QUAN_MUPPOLY | R_APB_DE_REGEN R_APB_EFFMUS)
{
 data = ((( 10.9 54.8 34.3 )	%  NO  9 0.49 )	%  INCR
	 ( 0.0014 0.1677 0.8309 )	%  LARGE
	 ( 0.0001 0.0392 0.9607 )	%  V.LARGE
	 ( 0.2597 0.4806 0.2597 ));	%  OTHER
}

potential (R_APB_MUPDUR | R_APB_EFFMUS)
{
 data = (( 0.9388 0.0412 0 0 0 0 0.02 )	%  V.SMALL
	 ( 0.0396 0.9008 0.0396 0 0 0 0.02 )	%  SMALL
	 ( 0 0 0.98 0 0 0 0.02 )	%  NORMAL
	 ( 0 0 0.0396 0.9008 0.0396 0 0.02 )	%  INCR
	 ( 0 0 0 0.0412 0.938 0.0008 0.02 )	%  LARGE
	 ( 0 0 0 0.0039 0.2546 0.7215 0.02 )	%  V.LARGE
	 ( 0.09 0.235 0.3236 0.235 0.09 0.0064 0.02 ));	%  OTHER
}

potential (R_APB_QUAN_MUPDUR | R_APB_MUPDUR)
{
 data = (( 0.0998 0.1833 0.2402 0.2245 0.1497 0.0712 0.0242 0.0058 0.001 0.0001 0 0 0 0 0 0 0 0 0 )	%  V.SMALL
	 ( 0.0102 0.0369 0.0951 0.1747 0.2289 0.214 0.1426 0.0678 0.023 0.0056 0.001 0.0001 0 0 8 0.9202 )	%  V.LARGE
	 ( 0.096 0.1884 0.283 0.3014 0.1312 ));	%  OTHER
}

potential (R_APB_MUPAMP | R_APB_EFFMUS)
{
 data = (( 0.782 0.195 0.003 0 0 0 0.02 )	%  V.SMALL
	 ( 0.1043 0.771 0.1043 0.0003 0 0 0.02 )	%  SMALL
	 ( 0 0 0.98 0 0 0 0.02 )	%  NORMAL
	 ( 0 0.0003 0.1011 0.7472 0.1315 0 0.02 )	%  INCR
	 ( 0 0 0.0024 0.1528 0.7968 0.028 0.02 )	%  LARGE
	 ( 0 0 0 0.0028 0.0968 0.8804 0.02 )	%  V.LARGE
	 ( 0.1328 0.1932 0.2189 0.1932 0.1726 0.0693 0.02 ));	%  OTHER
}

potential (R_APB_QUAN_MUPAMP | R_APB_MUPAMP)
{
 data = (( 0.0008 0.0037 0.0135 0.0381 0.0835 0.1425 0.1895 0.1963 0.1583 0.0994 0.0486 0.0185 0.0055 0.0013 0.0002 0 0 0 0 0 )	%  V.SMALL
	 ( 0 0.0001 0.0008 0.0037 0.0135 0.0381 0.0835 0.1425 0.1895 0.1963 0.1583 0.0994 0.0486 0.0185 0.0055 0.0013 0.0002 0 0 0 )	%  SMALL
	 ( 0 0 0 0 0 0.0005 0.0037 0.0187 0.0639 0.1475 0.2302 0.2431 0.1737 0.084 0.0275 0.0061 0.0009 0.0001 0 0 )	%  NORMAL
	 ( 0 0 0 0 0 0.0001 0.000.2677 0.6008 0.1065 0.0021 0.02 )	%  MOD.PRE  LARGE
	  ( 0 0 0.0164 0.3337 0.535 0.0948 0.02 )	%  MOD.PRE  V.LARGE
	  ( 0.2639 0.3276 0.1396 0.1359 0.0772 0.0357 0.02 ))	%  MOD.PRE  OTHER
	 (( 0.978 0.002 0 0 0 0 0.02 )	%  SEV.PRE  V.SMALL
	  ( 0.9451 0.0348 0.0001 0 0 0 0.02 )	%  SEV.PRE  SMALL
	  ( 0.7359 0.2437 0.0004 0 0 0 0.02 )	%  SEV.PRE  NORMAL
	  ( 0.1403 0.7975 0.0405 0.0018 0 0 0.02 )	%  SEV.PRE  INCR
	  ( 0.0068 0.5644 0.3365 0.0702 0.0022 0 0.02 )	%  SEV.PRE  LARGE
	  ( 0 0.0609 0.4266 0.4268 0.0636 0.002 0.02 )	%  SEV.PRE  V.LARGE
	  ( 0.4425 0.335 0.0925 0.069 0.0302 0.0109 0.02 ))	%  SEV.PRE  OTHER
	 (( 0.9487 0.0313 0 0 0 0 0.02 )	%  MLD.POST  V.SMALL
	  ( 0.1016 0.8507 0.0272 0.0006 0 0 0.02 )	%  MLD.POST  SMALL
	  ( 0 0 0.98 0 0 0 0.02 )	%  MLD.POST  NORMAL
	  ( 0 0 0.0582 0.91 0.0118 0 0.02 )	%  MLD.POST  INCR
	  ( 0 0 0 0.0795 0.8889 0.0115 0.02 )	%  MLD.POST  LARGE
	  ( 0 0 0 0 0.0805 0.8995 0.02 )	%  MLD.POST  V.LARGE
	  ( 0.135 0.2632 0.1638 0.1995 0.1397 0.0788 0.02 ))	%  MLD.POST  OTHER
	 (( 0.9715 0.0085 0 0 0 0 0.02 )	%  MOD.POST  V.SMALL
	  ( 0.4313 0.5436 0.0051 0.0001 0 0 0.02 )	%  MOD.POST  SMALL
	  ( 0 0.3917 0.5883 0 0 0 0.02 )	%  MOD.POST  NORMAL
	  ( 0 0.0004 0.6513 0.3273 0.001 0 0.02 )	%  MOD.POST  INCR
	  ( 0 0 0.0119 0.7118 0.2555 0.0008 0.02 )	%  MOD.POST  LARGE
	  ( 0 0 0 0.0166 0.7089 0.2545 0.02 )	%  MOD.POST  V.LARGE
	  ( 0.1946 0.3041 0.1558 0.1682 0.1047 0.0526   TOTAL
	 (( 0 0 0 0 0.98 0.02 )	%  TOTAL  NO
	  ( 0 0 0 0 0.98 0.02 )	%  TOTAL  MILD
	  ( 0 0 0 0 0.98 0.02 )	%  TOTAL  MOD
	  ( 0 0 0 0 0.98 0.02 )	%  TOTAL  SEV
	  ( 0 0 0 0 0.98 0.02 )));	%  TOTAL  TOTAL
}

potential (R_APB_MUSIZE | R_MYOP_MYDY_APB_MUSIZE R_LNL_DIFFN_APB_MUSIZE)
{
 data = ((( 0.9791 0.0009 0 0 0 0 0.02 )	%  V.SMALL  V.SMALL
	  ( 0.9637 0.0163 0 0 0 0 0.02 )	%  V.SMALL  SMALL
	  ( 0.9221 0.0578 0 0 0 0 0.02 )	%  V.SMALL  NORMAL
	  ( 0.3979 0.5663 0.0155 0.0002 0 0 0.02 )	%  V.SMALL  INCR
	  ( 0.0435 0.7319 0.193 0.0114 0.0002 0 0.02 )	%  V.SMALL  LARGE
	  ( 0.0012 0.2317 0.5882 0.1474 0.0112 0.0002 0.02 ))	%  V.SMALL  V.LARGE
	 (( 0.9637 0.0163 0 0 0 0 0.02 )	%  SMALL  V.SMALL
	  ( 0.7493 0.2257 0.0049 0.0001 0 0 0.02 )	%  SMALL  SMALL
	  ( 0.0537 0.8568 0.0684 0.0011 0 0 0.02 )	%  SMALL  NORMAL
	  ( 0.0039 0.3811 0.5066 0.0841 0.0043 0.0001 0.02 )	%  SMALL  INCR
	  ( 0 0.0395 0.5059 0.355 0.0758 0.0038 0.02 )	%  SMALL  LARGE
	  ( 0 0.0011 0.1357 0.4025 0.3631 0.0775 0.02 ))	%  SMALL  V.LARGE
	 (( 0.9221 0.0578 0 0 0 0 0.02 )	%  NORMAL  V.SMALL
	  ( 0.0537 0.8568 0.0684 0.0011 0 0 0.02 )	%  NORMAL  SMALL
	  ( 0 0 0.98 0 0 0 0.02 )	%  NORMAL  NORMAL
	  ( 0 0 0.0908 0.8185 0.0706 0 0.02 )	%  NORMAL  INCR
	  ( 0 0 0.0001 0.0721 0.8357 0.0721 0.02 )	%  NORMAL  LARGE
	  ( 0 0 0 0.0001 0.0778 0.9021 0.02 ))	%  NORMAL  V.LARGE
	 (( 0.3979 0.5663 0.0155 0.0002 0 0 0.02 )	%  INCR  V.SMALL
	  ( 0.0039 0.3811 0.5066 0.0841 0.0043 0.0001 0.02 )	%  INCR  SMALL
	  ( 0 0 0.0908 0.8185 0.0706 0 0.02 )	%  INCR  NORMAL
	  ( 0 0 0.0036 0.1655 0.6455 0.1655 0.02 )	%  INCR  INCR
	  ( 0 0 0 0.0034 0.1993 0.7773 0.02 )	%  INCR  LARGE
	  ( 0 0 0 0 0.0162 0.9637 0.02 ))	%  INCR  V.LARGE
	 (( 0.0435 0.7319 0.193 0.0114 0.0002 0 0.02 )	%  LARGE  V.SMALL
	  ( 0 0.0395 0.5059 0.355 0.0758 0.0038 0.02 )	%  LARGE  SMALL
	  ( 0 0 0.0001 0.0721 0.8357 0.0721 0.02 )	%  LARGE  NORMAL
	  ( 0 0 0 0.0034 0.1993 0.7773 0.02 )	%  LARGE  INCR
	  ( 0 0 0 0 0.0162 0.9637 0.02 )	%  LARGE  LARGE
	  ( 0 0 0 0 0.0011 0.9789 0.02 ))	%  LARGE  V.LARGE
	 (( 0.0012 0.2317 0.5882 0.1474 0.0112 0.0002 0.02 )	%  V.LARGE  V.SMALL
	  ( 0 0.0011 0.1357 0.4025 0.3631 0.0775 0.02 )	%  V.LARGE  SMALL
	  ( 0 0 0 0.0001 0.0778 0.9021 0.02 )	%  V.LARGE  NORMAL
	  ( 0 0 0 0 0.0162 0.9637 0.02 )	%  V.LARGE  INCR
	  ( 0 0 0 0 0.0011 0.9789 0.02 )	%  V.LARGE  LARGE
	  ( 0 0 0 0 0.0001 0.9799 0.02 )));	%  V.LARGE  V.LARGE
}

potential (R_APB_MUSCLE_VOL | R_APB_MUSIZE R_APB_MALOSS)
{
 data = ((( 0.9896 0.0104 )	%  V.SMALL  NO
	  ( 0.9976 0.0024 )	%  V.SMALL  MILD
	  ( 0.999 0.001 )	%  V.SMALL  MOD
	  ( 0.9995 0.0005 )	%  V.SMALL  SEV
	  ( 0.9989 0.0011 )	%  V.SMALL  TOTAL
	  ( 0.9363 0.0637 ))	%  V.SMALL  OTHER
	 (( 0.8137 0.1863 )	%  SMALL  NO
	  ( 0.9603 0.0397 )	%  SMALL  MILD
	  ( 0.9893 0.0107 )	%  SMALL  MOD
	  ( 0.9969 0.0031 )	%  SMALL  SEV
	  ( 0.9984 0.0016 )	%  SMALL  TOTAL
	  ( 0.8403 0.1597 ))	%  SMALL  OTHER
	 (( 0.0209 0.9791 )	%  NORMAL  NO
	  ( 0.5185 0.4815 )	%  NORMAL  MILD
	  ( 0.9588 0.0412 )	%  NORMAL  MOD
	  ( 0.9953 0.0047 )	%  NORMAL  SEV
	  ( 0.9984 0.0016 )	%  NORMAL  TOTAL
	  ( 0.6534 0.3466 ))	%  NORMAL  OTHER
	 (( 0.009 0.991 )	%  INCR  NO
	  ( 0.1087 0.8913 )	%  INCR  MILD
	  ( 0.6377 0.3623 )	%  INCR  MOD
	  ( 0.9518 0.0482 )	%  INCR  SEV
	  ( 0.9975 0.0025 )	%  INCR  TOTAL
	  ( 0.4689 0.5311 ))	%  INCR  OTHER
	 (( 0.003 0.997 )	%  LARGE  NO
	  ( 0.0278 0.9722 )	%  LARGE  MILD
	  ( 0.2716 0.7284 )	%  LARGE  MOD
	  ( 0.8234 0.1766 )	%  LARGE  SEV
	  ( 0.9965 0.0035 )	%  LARGE  TOTAL
	  ( 0.3174 0.6826 ))	%  LARGE  OTHER
	 (( 0.0004 0.9996 )	%  V.LARGE  NO
	  ( 0.0046 0.9954 )	%  V.LARGE  MILD
	  ( 0.0779 0.9221 )	%  V.LARGE  MOD
	  ( 0.5986 0.4014 )	%  V.LARGE  SEV
	  ( 0.9956 0.0044 )	%  V.LARGE  TOTAL
	  ( 0.1948 0.8052 ))	%  V.LARGE  OTHER
	 (( 0.4212 0.5788 )	%  OTHER  NO
	  ( 0.5185 0.4815 )	%  OTHER  MILD
	  ( 0.6336 0.3664 )	%  OTHER  MOD
	  ( 0.7685 0.2315 )	%  OTHER  SEV
	  ( 0.9857 0.0143 )	%  OTHER  TOTAL
	  ( 0.5681 0.4319 )));	%  OTHER  OTHER
}

potential (R_APB_VOL_ACT |)
{
 data = ( 1 0 0 0 );
}

potential (R_APB_FORCE | R_APB_VOL_ACT R_APB_ALLAMP_WA)
{
 data = ((( 0 0 0 0.0041 0.1908 0.8052 )	%  NORMAL  ZERO
	  ( 0.0016 0.0186 0.0936 0.2679 0.3659 0.2525 )	%  NORMAL  A0.01
	  ( 0.0149 0.2354 0.5331 0.2015 0.0149 0.0001 )	%  NORMAL  A0.10
	  ( 0.1538 0.6493 0.1936 0.0033 0 0 )	%  NORMAL  A0.30
	  ( 0.6667 0.3291 0.0042 0 0 0 )	%  NORMAL  A0.70
	  ( 0.9468 0.0531 0 0 0 0 )	%  NORMAL  A1.00
	  ( 0.9782 0.0218 0 0 0 0 )	%  NORMAL  A2.00
	  ( 0.9971 0.0029 0 0 0 0 )	%  NORMAL  A4.00
	  ( 0.9996 0.0004 0 0 0 0 ))	%  NORMAL  A8.00
	 (( 0 0 0 0.001 0	  ( 0.1171 0.4443 0.3699 0.0654 0.0033 0 )	%  V.RED  A4.00
	  ( 0.3271 0.488 0.1727 0.012 0.0003 0 ))	%  V.RED  A8.00
	 (( 0 0 0 0 0.0059 0.994 )	%  ABSENT  ZERO
	  ( 0 0 0.0005 0.0098 0.1058 0.8839 )	%  ABSENT  A0.01
	  ( 0 0 0.0003 0.0091 0.1181 0.8725 )	%  ABSENT  A0.10
	  ( 0 0 0.0008 0.0215 0.1873 0.7904 )	%  ABSENT  A0.30
	  ( 0 0.0001 0.0025 0.0472 0.2756 0.6747 )	%  ABSENT  A0.70
	  ( 0 0.0001 0.0044 0.0713 0.3326 0.5916 )	%  ABSENT  A1.00
	  ( 0 0.002 0.0279 0.1812 0.4112 0.3776 )	%  ABSENT  A2.00
	  ( 0.0004 0.0107 0.0847 0.3035 0.3988 0.2019 )	%  ABSENT  A4.00
	  ( 0.003 0.0426 0.1948 0.3849 0.2929 0.0817 )));	%  ABSENT  A8.00
}

potential (R_MED_ALLDEL_WA | R_MED_RDLDDEL R_MED_DCV_WA)
{
 data = ((( 0.9996 0.0004 0 0 0 0 0 0 0 )	%  MS3.1  M/S60
	  ( 0.5607 0.4393 0 0 0 0 0 0 0 )	%  MS3.1  M/S52
	  ( 0.0069 0.7963 0.1968 0 0 0 0 0 0 )	%  MS3.1  M/S44
	  ( 0 0.0184 0.9806 0.001 0 0 0 0 0 )	%  MS3.1  M/S36
	  ( 0 0.0001 0 0 0 0 0.0032 0.9968 0 0 0 0 )	%  MS4.7  M/S28
	  ( 0 0 0 0.0015 0.9313 0.0671 0 0 0 )	%  MS4.7  M/S20
	  ( 0 0 0 0 0.001 0.999 0 0 0 )	%  MS4.7  M/S14
	  ( 0 0 0 0 0.0007 0.1112 0.8881 0 0 )	%  MS4.7  M/S08
	  ( 0 0 0 0 0 0 0 0 1 ))	%  MS4.7  M/S00
	 (( 0.0013 0.002 0.0044 0.0187 0.1213 0.748 0.1044 0 0 )	%  MS10.1  M/S60
	  ( 0.001 0.0016 0.0037 0.0161 0.1093 0.7421 0.1261 0 0 )	%  MS10.1  M/S52
	  ( 0.0008 0.0012 0.0028 0.0125 0.0916 0.7236 0.1676 0 0 )	%  MS10.1  M/S44
	  ( 0.0005 0.0008 0.0018 0.0087 0.0703 0.6803 0.2377 0 0 )	%  MS10.1  M/S36
	  ( 0.0002 0.0004 0.0009 0.0047 0.044 0.5737 0.3761 0 0 )	%  MS10.1  M/S28
	  ( 0.0001 0.0001 0.0002 0.0013 0.015 0.3152 0.6681 0 0 )	%  MS10.1  M/S20
	  ( 0 0 0 0.0001 0.0017 0.0786 0.9196 0 0 )	%  MS10.1  M/S14
	  ( 0 0 0 0 0.0001 0.0094 0.9593 0.0311 0 )	%  MS10.1  M/S08
	  ( 0 0 0 0 0 0 0 0 1 ))	%  MS10.1  M/S00
	 (( 0.0001 0.0001 0.0003 0.0009 0.0045 0.0434 0.5767 0.3739 0 )	%  MS20.1  M/S60
	  ( 0.0001 0.0001 0.0002 0.0008 0.0041 0.0399 0.5568 0.398 0 )	%  MS20.1  M/S 0 0 0 0 0 0 0 0 0 0 1 ));	%  INFIN
}

potential (R_APB_ALLAMP_WA | R_APB_EFFMUS R_APB_MULOSS)
{
 data = ((( 0.0026 0.3687 0.6075 0.0208 0.0003 0 0 0 0 )	%  V.SMALL  NO
	  ( 0.0409 0.8924 0.0661 0.0006 0 0 0 0 0 )	%  V.SMALL  MILD
	  ( 0.2926 0.7043 0.0031 0 0 0 0 0 0 )	%  V.SMALL  MOD
	  ( 0.781 0.2189 0.0001 0 0 0 0 0 0 )	%  V.SMALL  SEV
	  ( 0.9907 0.0093 0 0 0 0 0 0 0 )	%  V.SMALL  TOTAL
	  ( 0.3596 0.5148 0.0941 0.024 0.0046 0.002 0.0008 0.0002 0 ))	%  V.SMALL  OTHER
	 (( 0 0.0002 0.4149 0.4809 0.0802 0.0218 0.002 0 0 )	%  SMALL  NO
	  ( 0 0.01 0.77 0.2049 0.0128 0.0022 0.0001 0 0 )	%  SMALL  MILD
	  ( 0.0091 0.4203 0.5312 0.038 0.0012 0.0002 0 0 0 )	%  SMALL  MOD
	  ( 0.2669 0.7161 0.0166 0.0003 0 0 0 0 0 )	%  SMALL  SEV
	  ( 0.9858 0.0142 0 0 0 0 0 0 0 )	%  SMALL  TOTAL
	  ( 0.1336 0.3855 0.2698 0.1308 0.0401 0.0219 0.0127 0.0044 0.0013 ))	%  SMALL  OTHER
	 (( 0 0 0 0 0.0215 0.9785 0 0 0 )	%  NORMAL  NO
	  ( 0 0 0 0.2489 0.7398 0.0113 0 0 0 )	%  NORMAL  MILD
	  ( 0 0 0.3095 0.6808 0.0095 0.0003 0 0 0 )	%  NORMAL  MOD
	  ( 0.0001 0.1028 0.8793 0.0178 0.0001 0 0 0 0 )	%  NORMAL  SEV
	  ( 0.9865 0.0135 0 0 0 0 0 0 0 )	%  NORMAL  TOTAL
	  ( 0.0096 0.0788 0.2992 0.2816 0.1319 0.0873 0.0689 0.0313 0.0114 ))	%  NORMAL  OTHER
	 (( 0 0 0 0 0.0018 0.0536 0.8696 0.075 0 )	%  INCR  NO
	  ( 0 0 0 0.0042 0.3468 0.5348 0.1137 0.0004 0 )	%  INCR  MILD
	  ( 0 0 0.018 0.6298 0.2744 0.0746 0.0032 0 0 )	%  INCR  MOD
	  ( 0 0.00D_AMP_WA | R_APB_ALLAMP_WA)
{
 data = (( 1 0 0 0 0 0 0 0 0 0 0 0 0 0 0 0 0 )	%  ZERO
	 ( 0.0003 0.285 0.2346 0.1781 0.1245 0.0803 0.0476 0.0261 0.0132 0.0061 0.0026 0.001 0.0004 0.0001 0 0 0 )	%  A0.01
	 ( 0 0.0135 0.0369 0.0794 0.1353 0.1818 0.1932 0.1622 0.1077 0.0564 0.0234 0.0076 0.002 0.0004 0.0001 0 0 )	%  A0.10
	 ( 0 0 0.0001 0.0006 0.0036 0.0165 0.0535 0.1233 0.2013 0.2335 0.1922 0.1121 0.0465 0.0137 0.0028 0.0004 0 )	%  A0.30
	 ( 0 0 0 0 0 0.0001 0.001 0.0069 0.0309 0.0926 0.1855 0.2496 0.225 0.1358 0.0549 0.0149 0.0027 )	%  A0.70
	 ( 0 0 0 0 0 0 0 0.0003 0.0031 0.019 0.0723 0.1736 0.2622 0.2497 0.1497 0.0567 0.0133 )	%  A1.00
	 ( 0 0 0 0 0 0 0 0 0.0002 0.0017 0.0093 0.0355 0.0964 0.186 0.2545 0.2471 0.1693 )	%  A2.00
	 ( 0 0 0 0 0 0 0 0 0 0 0.0004 0.0029 0.0155 0.0599 0.1641 0.3182 0.439 )	%  A4.00
	 ( 0 0 0 0 0 0 0 0 0 0 0 0.0001 0.0015 0.0115 0.0631 0.2445 0.6792 ));	%  A8.00
}

potential (R_MED_ALLCV_EW | R_MED_DCV_EW R_MED_RDLDCV_EW)
{
 data = ((( 1 0 0 0 0 0 0 0 0 0 )	%  M/S60  M/S60
	  ( 0.0066 0.1455 0.838 0.0098 0 0 0 0 0 0 )	%  M/S60  M/S52
	  ( 0 0 0.0047 0.9951 0.0002 0 0 0 0 0 )	%  M/S60  M/S44
	  ( 0 0 0 0 0 1 0 0 0 0 )	%  M/S60  M/S27
	  ( 0 0 0 0 0 0.0012 0.1305 0.8445 0.0238 0 )	%  M/S60  M/S15
	  ( 0 0 0 0 0 0 0.0002 0.0321 0.9677 0 ))	%  M/S60  M/S07
	 (( 0.0699 0.8102 0.1199 0 0 0 0 0 0 0 )	%  M/S56  M/S60
	  ( 0.0005 0.0239 0.4369 0.5387 0 0 0 0 0 0 )	%  M/S56  M/S52
	  ( 0 0 0.0004 0.9005 0.0991 0 0 0 0 0 )	%0.009 0.0888 0.8187 0.0827 0 0 0 0 0 )	%  M/S44  M/S60
	  ( 0 0.0002 0.0036 0.2467 0.7339 0.0156 0 0 0 0 )	%  M/S44  M/S52
	  ( 0 0 0 0.0113 0.5711 0.4175 0 0 0 0 )	%  M/S44  M/S44
	  ( 0 0 0 0 0 0.0026 0.9935 0.004 0 0 )	%  M/S44  M/S27
	  ( 0 0 0 0 0 0 0.007 0.3517 0.6413 0 )	%  M/S44  M/S15
	  ( 0 0 0 0 0 0 0 0.0042 0.9958 0 ))	%  M/S44  M/S07
	 (( 0 0 0.0005 0.1011 0.8477 0.0506 0 0 0 0 )	%  M/S36  M/S60
	  ( 0 0 0 0.005 0.3134 0.6811 0.0005 0 0 0 )	%  M/S36  M/S52
	  ( 0 0 0 0 0.0214 0.9354 0.0432 0 0 0 )	%  M/S36  M/S44
	  ( 0.0006 0.0734 0.8393 0.0867 0 0 )	%  M/S20  M/S60
	  ( 0 0 0 0 0 0.0091 0.5283 0.4625 0 0 )	%  M/S20  M/S52
	  ( 0 0 0 0 0 0.0004 0.143 0.8551 0.0015 0 )	%  M/S20  M/S44
	  ( 0 0 0 0 0 0 0 0.0314 0.9686 0 )	%  M/S20  M/S27
	  ( 0 0 0 0 0 0 0 0.0008 0.9992 0 )	%  M/S20  M/S15
	  ( 0 0 0 0 0 0 0 0.0001 0.9999 0 ))	%  M/S20  M/S07
	 (( 0 0 0 0 0 0.0003 0.0947 0.8945 0.0104 0 )	%  M/S14  M/S60
	  ( 0 0 0 0 0 0 0.0216 0.8359 0.1425 0 )	%  M/S14  M/S52
	  ( 0 0 0 0 0 0 0.002 0.3549 0.6432 0 )	%  M/S14  M/S44
	  ( 0 0 0 0 0 0.447 0.1902 0.0434 0.0066 0.0003 0.0001 0 0 0 0 0 0 0 0 )	%  M/S20
	 ( 0 0 0.0265 0.5431 0.3624 0.0622 0.0054 0.0004 0 0 0 0 0 0 0 0 0 0 0 )	%  M/S14
	 ( 0 0.1265 0.7654 0.1006 0.007 0.0004 0 0 0 0 0 0 0 0 0 0 0 0 0 )	%  M/S08
	 ( 0.9999 0.0001 0 0 0 0 0 0 0 0 0 0 0 0 0 0 0 0 0 ));	%  M/S00
}

potential (R_MED_BLOCK_EW | R_DIFFN_MED_BLOCK R_LNLBE_MED_BLOCK)
{
 data = ((( 1 0 0 0 0 )	%  NO  NO
	  ( 0.0077 0.9923 0 0 0 )	%  NO  MILD
	  ( 0.0007 0.0234 0.9759 0 0 )	%  NO  MOD
	  ( 0.0019 0.006 0.0588 0.9333 0 )	%  NO  SEV
	  ( 0 0 0 0 1 ))	%  NO  TOTAL
	 (( 0.0077 0.9923 0 0 0 )	%  MILD  NO
	  ( 0.0001 0.498 0.5019 0 0 )	%  MILD  MILD
	  ( 0 0.0032 0.9968 0 0 )	%  MILD  MOD
	  ( 0.001 0.0033 0.0376 0.9581 0 )	%  MILD  SEV
	  ( 0 0 0 0 1 ))	%  MILD  TOTAL
	 (( 0.0007 0.0234 0.9759 0 0 )	%  MOD  NO
	  ( 0 0.0032 0.9968 0 0 )	%  MOD  MILD
	  ( 0 0.0007 0.4328 0.5665 0 )	%  MOD  MOD
	  ( 0.0003 0.0011 0.0159 0.9827 0 )	%  MOD  SEV
	  ( 0 0 0 0 1 ))	%  MOD  TOTAL
	 (( 0.0019 0.006 0.0588 0.9333 0 )	%  SEV  NO
	  ( 0.001 0.0033 0.0376 0.9581 0 )	%  SEV  MILD
	  ( 0.0003 0.0011 0.0159 0.9827 0 )	%  SEV  MOD
	  ( 0.0003 0.0011 0.0125 0.986 0 )	%  SEV  SEV
	  ( 0 0 0 0 1 ))	%  SEV  TOTAL
	 (( 0 0 0 0 1 )	%  TOTAL  NO
	  ( 0 0 0 0 1 )	%  TOTAL  MILD
	  ( 0 0 0 0 1 )	%  TOTAL  MOD
	  ( 0 0 0 0 1 )	%  TOTAL  SEV
	  ( 0 0 0 0 1 )));	%  TOTAL  TOTAL
}

potential (R_MED_AMPR_EW | R_MED_BLOCK_EW)
{
 data = (( 0.0879 0.4192 0.42
	 (( 0 0.0021 0.1149 0.7277 0.1553 0 0 0 0 )	%  MOD  M/S60
	  ( 0 0.0001 0.0146 0.3403 0.6424 0.0026 0 0 0 )	%  MOD  M/S52
	  ( 0 0 0.0007 0.0498 0.764 0.1854 0.0001 0 0 )	%  MOD  M/S44
	  ( 0 0 0 0.0012 0.137 0.8421 0.0197 0 0 )	%  MOD  M/S36
	  ( 0 0 0 0 0.0034 0.4375 0.5591 0 0 )	%  MOD  M/S28
	  ( 0 0 0 0 0 0.0208 0.8094 0.1697 0 )	%  MOD  M/S20
	  ( 0 0 0 0 0 0.0001 0.0392 0.9606 0 )	%  MOD  M/S14
	  ( 0 0.0001 0.0002 0.0009 0.0051 0.0329 0.1636 0.7972 0 )	%  MOD  M/S08
	  ( 0 0 0 0 0 0 0 0 1 ))	%  MOD  M/S00
	 (( 0.0003 0.0011 0.005 0.0205 0.087 0.2822 0.4514 0.1525 0 )	%  SEV  M/S60
	  ( 0.0001 0.0004 0.0021 0.0101 0.0516 0.2184 0.4646 0.2525 0 )	%  SEV  M/S52
	  ( 0 0.0001 0.0006 0.0034 0.0223 0.1336 0.4145 0.4254 0 )	%  SEV  M/S44
	  ( 0 0 0.0001 0.0008 0.0073 0.0649 0.3063 0.6206 0 )	%  SEV  M/S36
	  ( 0 0 0 0.0001 0.0016 0.0226 0.1747 0.8009 0 )	%  SEV  M/S28
	  ( 0 0 0 0 0.0002 0.0052 0.0726 0.9219 0 )	%  SEV  M/S20
	  ( 0 0 0 0 0 0.0012 0.0296 0.9691 0 )	%  SEV  M/S14
	  ( 0 0 0.0001 0.0004 0.0022 0.0159 0.0994 0.882 0 )	%  SEV  M/S08
	  ( 0 0 0 0 0 0 0 0 1 ))	%  SEV  M/S00
	 (( 0 0 0.0001 0.0003 0.0022 0.0192 0.1252 0.8531 0 )	%  V.SEV  M/S60
	  ( 0 0 0 0.0002 0.0014 0.0137 0.1029 0.8819 0 )	%  V.SEV  M/S52
	  ( 0 0 0 0.0001 0.0007 0.0086 0.0782 0.9123 0 )	%  V.SEV  M/S44
	  ( 0 0 0 0 0.0003 0.005 0.0564 0.9382 0 )	%  V.SEV  M/S36
	  ( 0 0 0 0 0.0001 0.0026 0.0379 0.9594 0 )	%  V.SEV  M/S28
	  ( 0 0 0
	 ( 0 0 0 0 0 0 0 0 0 0.0002 0.0085 0.0768 0.2811 0.3323 0.2012 0.0816 0.0161 0.0021 0.0002 )	%  M/S52
	 ( 0 0 0 0 0 0 0 0.0002 0.0139 0.112 0.2918 0.3134 0.1915 0.061 0.013 0.0028 0.0003 0 0 )	%  M/S44
	 ( 0 0 0 0 0 0 0.0029 0.0706 0.3151 0.3836 0.1709 0.0476 0.0082 0.0009 0.0001 0 0 0 0 )	%  M/S36
	 ( 0 0 0 0 0.0002 0.0394 0.3185 0.4195 0.1756 0.0419 0.D | R_MEDD2_DISP_WD R_MEDD2_EFFAXLOSS)
{
 data = ((( 0 0 0 0 0.0215 0.9785 )	%  NO  NO
	  ( 0 0 0 0.3443 0.6228 0.0329 )	%  NO  MILD
	  ( 0 0 0.0248 0.9704 0.0048 0 )	%  NO  MOD
	  ( 0 0.1028 0.8793 0.0178 0.0001 0 )	%  NO  SEV
	  ( 1 0 0 0 0 0 ))	%  NO  TOTAL
	 (( 0 0 0 0.3192 0.6448 0.036 )	%  MILD  NO
	  ( 0 0 0.0474 0.9394 0.0129 0.0002 )	%  MILD  MILD
	  ( 0 0 0.)	%  MOD  MILD
	  ( 0 0.0001 0.9994 0.0005 0 0 )	%  MOD  MOD
	  ( 0 0.9969 0.0031 0 0 0 )	%  MOD  SEV
	  ( 1 0 0 0 0 0 ))	%  MOD  TOTAL
	 (( 0 0 0.9945 0.0055 0 0 )	%  SEV  NO
	  ( 0 MP_WD)
{
 data = (( 0.75 0.1878 0.0476 0.0112 0.0026 0.0006 0.0001 0 0 0 0 0 0 0 0 )	%  ZERO
	 ( 0.3184 0.2478 0.178 0.1158 0.0688 0.038 0.0189 0.0086 0.0036 0.0014 0.0005 0.0002 0 0 0 )	%  A0.01
	 ( 0.0117 0.0392 0.0935 0.1676 0.2189 0.2095 0.1465 0.0747 0.0287 0.0078 0.0016 0.0002 0 0 0 )	%  A0.10
	 ( 0 0 0.0001 0.000 0 0.0004 0.0072 0.0656 0.2449 0.3735 0.2388 0.0624 0.0072 ));	%  A1.00
}

potential (R_MEDD2_ALLCV_EW | R_MEDD2_LSLOW_EW R_MEDD2_DSLOW_EW)
{
 data = ((( 1 0 0 0 0 0 0 0 0 )	%  NO  M/S60
	  ( 0.0 0 0 1 ))	%  MILD  M/S00
	 (( 0 0.0218 0.9469 0.0313 0 0 0 0 0 )	%  MOD  M/S60
	  ( 0 0.0007 0.2183 0.779 0.002 0 0 0 0 )	%  MOD  M/S52
	  ( 0 0 0.0077 0.4577 0.5345 0.0001 0 0 0 )	%  MOD  M/S44
	  ( 0 0 0 0.0166 0.9182 0.0652 0 0 0 )	%  MOD  M/S36
	  ( 0 0 0 0 0.0398 0.946 0.0142 0 0 )	%  MOD  M/S28
	  ( 0 0 0 0 0.0002 0.1104 0.8881 0.0013 0 )	%  MOD  M/S20
	  ( 0 0 0 0 0 0.002 0.3203 0.6777 0 )	%  MOD  M/S14
	  ( 0 0.0001 0.0005 0.0019 0.0093 0.0504 0.2072 0.7305 0 )	%  MOD  M/S08
	  ( 0 0 0 0 0 0 0 0 1 ))	%  MOD  M/S00
	 (( 0.0003 0.0019 0.014 0.0788 0.3238 0.4596 0.1212 0.0003 0 )	%  SEV  M/S60
	  ( 0.0001 0.0004 0.0043 0.0321 0.1956 0.5049 0.2604 0.0023 0 )	%  SEV  M/S52
	  ( 0 0.0001 0.0007 0.0074 0.0735 0.4044 0.4938 0.0201 0 )	%  SEV  M/S44
	  ( 0 0 0.0001 0.001 0.0172 0.2179 0.6479 0.1159 0 )	%  SEV  M/S36
	  ( 0 0 0 0.0001 0.0018 0.0559 0.4601 0.4822 0 )	%  SEV  M/S28
	  ( 0 0 0 0 0.0001 0.0041 0.1033 0.8925 0 )	%  SEV    ( 0 0 0.0001 0.0004 0.0026 0.019 0.1153 0.8626 0 )	%  SEV   ( 0 0 0 0.0002 0.0021 0.0239 0.1648 0.8089 0 )	%  V.SEV  M/S52
	  ( 0 0 0 0.0001 0.0008 0.0123 0.1119 0.8749 0 )	%  V.	%  NO  SEV
	  ( 0 0 0 0 1 ))	%  NO  TOTAL
	 (( 0.0077 0.9923 0 0 0 )	%  MILD  NO
	  ( 0.0001 0.498 0.5019 0 0 )	%  MILD  MILD
	  ( 0 0.0032 0.9968 0 0 )	%  MILD  MOD
	  ( 0.001 0.0033 0.0376 0.9581 0 )	%  MILD  SEV
	  ( 0 0 0 0 1 ))	%  MILD  TOTAL
	 (( 0.0007 0.0234 0.9759 0 0 )	%  MOD  NO
	  ( 0 0.0032 0.9968 0 0 )	%  MOD  MILD
	  ( 0 0.0007 0.4328 0.5665 0 )	%  MOD  MOD
	  ( 0.0003 0.0011 0.0159 0.9827 0 )	%  MOD  SEV
	  ( 0 0 0 0 1 ))	%  MOD  TOTAL
	 (( 0.0019 0.006 0.0588 0.9333 0 )	%  SEV  NO
	  ( 0.001 0.0033 0.0376 0.9581 0 )	%  SEV  MILD
	  ( 0.0003 0.0011 0.0159 0.9827 0 )	%  SEV  MOD
	  ( 0.0003 0.0011 0.0125 0.986 0 )	%  SEV  SEV
	  ( 0 0 0 0 1 ))	%  SEV  TOTAL
	 (( 0 0 0 0 1 )	%  TOTAL  NO
	  ( 0 0 0 0 1 )	%  TOTAL  MILD
	  ( 0 0 0 0 1 )	%  TOTAL  MOD
	  ( 0 0 0 0 1 )	%  TOTAL  SEV
	  ( 0 0 0 0 1 )));	%  TOTAL  TOTAL
}

potential (R_MEDD2_DISP_EWD | R_MEDD2_DISP_WD R_MEDD2_DISP_EW)
{
 data = ((( 0 0 0.0742 0.9045 0.0213 0 0 0 0 )	%  NO  NO
	  ( 0.0001 0.2215 0.7732 0.0052 0 0 0 0 0 )	%  NO  MILD
	  ( 0.1315 0.8577 0.0108 0 0 0 0 0 0 )	%  NO  MOD
	  ( 0.9933 0.0067 0 0 0 0 0 0 0 ))	%  NO  SEV
	 (( 0 0 0 0 0.0742 0.9045 0.0213 0 0 )	%  MILD  NO
	  ( 0 0 0 0.1315 0.8576 0.0108 0 0 0 )	%  MILD  MILD
	  ( 0 0 0.0742 0.9045 0.0213 0 0 0 0 )	%  MILD  MOD
	  ( 0.0404 0.9192 0.0404 0 0 0 0 0 0 ))	%  MILD  SEV
	 (( 0 0 0 0 0 0 0 0.133 0.867 )	%  MOD  NO
	  ( 0 0 0 0 0 0 0.0108 0.8577 0.1315 )	%  MOD  MILD
	  ( 0 0 0 0 0 0.0052 0.7732 0.2215 0.0001 0 0 0 )	%  R0.55  MOD
	  ( 0 0.5789 0.2957 0.082 0.027 0.0096 0.0037 0.0017 0.0007 0.0004 0.0002 0.0001 )	%  R0.55  SEV
	  ( 1 0 0 0 0 0 0 0 0 0 0 0 ))	%  R0.55  TOTAL
	 (( 0 0 0 0.0001 0.0136 0.1578 0.3285 0.2966 0.1404 0.0483 0.0135 0.0012 )	%  R0.65  NO
	  ( 0 0 0 0.0035 0.1122 0.3738 0.3186 0.1444 0.0376 0.0083 0.0015 0.0001 )	%  R0.65  MILD
	  ( 0 0 0.015 0.3069 0.4204 0.1929 0.0512 0.0114 0.0019 0.0003 0.0001 0 )	%  R0.65  MOD
	  ( 0 0.485 0.334 0.1106 0.0411 0.0162 0.0068 0.0033 0.0015 0.0008 0.0004 0.0003 )	%  R0.65  SEV
	  ( 1 0 0 0 0 0 0 0 0 0 0 0 ))	%  R0.65  TOTAL
	 (( 0 0 0 0 0.0012 0.0385 0.1746 0.3015 0.2613 0.1447 0.0651 0.0129 )	%  R0.75  NO
	  ( 0 0 0 0.0002 0.0226 0.189 0.3317 0.2744 0.1252 0.0431 0.0124 0.0013 )	%  R0.75  MILD
	  ( 0 0 0.0023 0.1333 0.3728 0.3075 0.1292 0.0421 0.0099 0.0024 0.0005 0 )	%  R0.75  MOD
	  ( 0 0.4048 0.3566 0.1367 0.0562 0.024 0.0108 0.0054 0.0027 0.0014 0.0008 0.0005 )	%  R0.75  SEV
	  ( 1 0 0 0 0 0 0 0 0 0 0 0 ))	%  R0.75  TOTAL
	 (( 0 0 0 0 0.0001 0.0062 0.058 0.1828 0.2779 0.2392 0.1675 0.0683 )	%  R0.85  NO
	  ( 0 0 0 0 0.0031 0.0615 0.2109 0.3051 0.2344 0.1217 0.0528 0.0104 )	%  R0.85  MILD
	  ( 0 0 0.0003 0.0444 0.2413 0.3431 0.2208 0.1025 0.0337 0.0104 0.003 0.0004 )	%  R0.85  MOD
	  ( 0 0.3317 0.3672 0.1613 0.0727 0.0335 0.016 0.0085 0.0044 0.0024 0.0015 0.001 )	%  R0.85  SEV
	  ( 1 0 0 0 0 0 0 0 0 0 0 0 ))	%  R0.85  TOTAL
	 (( 0 0 0 0 0 0.0009 0.0157 0.0823 0.2012 0.2516 0.2559 0.1924 )	%  R0.95  NO
	  ( 0 0 0 0 0.0004 0.0166 0.1002 0.2325 0.2777 0.2039 0.1251 0.0436 )	%  R0.95  MILD
	  ( 0 0 0 0.0138 0.1311 0.2956 0.2729 0.1711 0.0745 0.0286 0.0104 0.002 )	%  R0.95  MOD
	  ( 0 0.2731 0.3669 0.1808 0.0881 0.0434 0.0217 0.012 0.0064 0.0036 0.0023 0.0017 )	%  R0.95  SEV
	  ( 1 0 0 0 0 0 0 0 0 0 0 0 )));	%  R0.95  TOTAL
}
