%%%%%%%%%%%%%%%%%%%%%%%%  M U N I N 1  %%%%%%%%%%%%%%%%%%%%%%%%%
%% Subset of the Munin network.
%%
%% @InCollection{andreassen:jensen:andersen:etal:89,
%%   author = 	"Andreassen, S. and Jensen, F.~V. and Andersen, S.~K. and
%%                  Falck, B. and Kj{\ae}rulff, U. and Woldbye, M. and
%%                  S{\o}rensen, A.~R. and Rosenfalck, A. and Jensen, F.",
%%   title = 	"{MUNIN} --- An Expert {EMG} Assistant",
%%   booktitle = "Computer-Aided Electromyography and Expert Systems",
%%   publisher = "Elsevier Science Publishers",
%%   address =	"Amsterdam",
%%   year =         1989,
%%   editor = 	"John E. Desmedt",
%%   chapter =      21
%% }



net
{
    node_size = (150 20);
    label = "r.lnlw.med_r.lnlbe.med_diffn__r.med-apb_r.medd2";
    name = "r.lnlw.med_r.lnlbe.med_diffn__r.med-apb_r.medd2";
}

node DIFFN_TYPE
{
    label = "DIFFN.TYPE";
    position = (10 1030);
    states = ("MOTOR" "MIXED" "SENS");
}

node DIFFN_SEV
{
    label = "DIFFN.SEV";
    position = (10 980);
    states = ("NO" "MILD" "MOD" "SEV");
}

node DIFFN_DISTR
{
    label = "DIFFN.DISTR";
    position = (10 1080);
    states = ("DIST" "PROX" "RANDOM");
}

node DIFFN_SENS_SEV
{
    label = "DIFFN.SENS-SEV";
    position = (160 1030);
    states = ("NO" "MILD" "MOD" "SEV");
}

node DIFFN_PATHO
{
    label = "DIFFN.PATHO";
    position = (10 930);
    states = ("DEMY" "BLOCK" "AXONAL" "V.E.REIN" "E.REIN");
}

node DIFFN_S_SEV_DIST
{
    label = "DIFFN.S-SEV-DIST";
    position = (310 1080);
    states = ("NO" "MILD" "MOD" "SEV");
}

node R_LNLW_MEDD2_DISP_WD
{
    label = "R.LNLW.MEDD2.DISP-WD";
    position = (610 790);
    states = ("NO" "MILD" "MOD" "SEV");
}

node R_LNLW_MED_SEV
{
    label = "R.LNLW.MED.SEV";
    position = (10 780);
    states = ("NO" "MILD" "MOD" "SEV" "TOTAL");
}

node R_LNLW_MED_PATHO
{
    label = "R.LNLW.MED.PATHO";
    position = (10 680);
    states = ("DEMY" "BLOCK" "AXONAL" "V.E.REIN" "E.REIN");
}

node R_LNLBE_MED_SEV
{
    label = "R.LNLBE.MED.SEV";
    position = (10 1400);
    states = ("NO" "MILD" "MOD" "SEV" "TOTAL");
}

node R_LNLBE_MED_PATHO
{
    label = "R.LNLBE.MED.PATHO";
    position = (10 1300);
    states = ("DEMY" "BLOCK" "AXONAL" "V.E.REIN" "E.REIN");
}

node R_DIFFN_LNLW_MEDD2_DISP_WD
{
    label = "R.DIFFN/LNLW.MEDD2.DISP-WD";
    position = (910 1090);
    states = ("NO" "MILD" "MOD" "SEV");
}

node R_LNLBE_MEDD2_BLOCK_EW
{
    label = "R.LNLBE.MEDD2.BLOCK-EW";
    position = (610 1450);
    states = ("NO" "MILD" "MOD" "SEV" "TOTAL");
}

node R_DIFFN_MEDD2_BLOCK
{
    label = "R.DIFFN.MEDD2.BLOCK";
    position = (610 1110);
    states = ("NO" "MILD" "MOD" "SEV" "TOTAL");
}

node R_LNLBE_MEDD2_DISP_EW
{
    label = "R.LNLBE.MEDD2.DISP-EW";
    position = (610 1430);
    states = ("NO" "MILD" "MOD" "SEV");
}

node R_DIFFN_MEDD2_DISP
{
    label = "R.DIFFN.MEDD2.DISP";
    position = (610 1090);
    states = ("NO" "MILD" "MOD" "SEV");
}

node R_MEDD2_DISP_EW
{
    label = "R.MEDD2.DISP-EW";
    position = (1410 1310);
    states = ("NO" "MILD" "MOD" "SEV");
}

node R_MEDD2_DISP_WD
{
    label = "R.MEDD2.DISP-WD";
    position = (1410 1070);
    states = ("NO" "MILD" "MOD" "SEV");
}

node R_MEDD2_BLOCK_EW
{
    label = "R.MEDD2.BLOCK-EW";
    position = (1410 1270);
    states = ("NO" "MILD" "MOD" "SEV" "TOTAL");
}

node R_MEDD2_DISP_EWD
{
    label = "R.MEDD2.DISP-EWD";
    position = (1810 1310);
    states = ("R0.15" "R0.25" "R0.35" "R0.45" "R0.55" "R0.65" "R0.75" "R0.85" "R0.95");
}

node R_MEDD2_AMPR_EW
{
    label = "R.MEDD2.AMPR-EW";
    position = (2010 1270);
    states = ("R0.0" "R0.1" "R0.2" "R0.3" "R0.4" "R0.5" "R0.6" "R0.7" "R0.8" "R0.9" "R1.0" "R>1.1");
}

potential (DIFFN_TYPE |)
{
 data = ( 6 93.5 0.5 );
}

potential (DIFFN_SEV |)
{
 data = ( 78 10 7 5 );
}

potential (DIFFN_DISTR |)
{
 data = ( 93 2 5 );
}

potential (DIFFN_SENS_SEV | DIFFN_SEV DIFFN_TYPE)
{
 data = ((( 100 0 0 0 )	%  NO  MOTOR
	  ( 100 0 0 0 )	%  NO  MIXED
	  ( 100 0 0 0 ))	%  NO  SENS
	 (( 100 0 0 0 )	%  MILD  MOTOR
	  ( 0 100 0 0 )	%  MILD  MIXED
	  ( 0 100 0 0 ))	%  MILD  SENS
	 (( 100 0 0 0 )	%  MOD  MOTOR
	  ( 0 0 100 0 )	%  MOD  MIXED
	  ( 0 0 100 0 ))	%  MOD  SENS
	 (( 100 0 0 0 )	%  SEV  MOTOR
	  ( 0 0 0 100 )	%  SEV  MIXED
	  ( 0 0 0 100 )));	%  SEV  SENS
}

potential (DIFFN_PATHO |)
{
 data = ( 8.6 1 90 0.2 0.2 );
}

potential (DIFFN_S_SEV_DIST | DIFFN_SENS_SEV DIFFN_DISTR)
{
 data = ((( 100 0 0 0 )	%  NO  DIST
	  ( 100 0 0 0 )	%  NO  PROX
	  ( 100 0 0 0 ))	%  NO  RANDOM
	 (( 0 100 0 0 )	%  MILD  DIST
	  ( 100 0 0 0 )	%  MILD  PROX
	  ( 25 45 25 5 ))	%  MILD  RANDOM
	 (( 0 0 100 0 )	%  MOD  DIST
	  ( 50 50 0 0 )	%  MOD  PROX
	  ( 10 40 40 10 ))	%  MOD  RANDOM
	 (( 0 0 0 100 )	%  SEV  DIST
	  ( 0 50 50 0 )	%  SEV  PROX
	  ( 5 15 40 40 )));	%  SEV  RANDOM
}

potential (R_LNLW_MEDD2_DISP_WD | R_LNLW_MED_SEV R_LNLW_MED_PATHO)
{
 data = ((( 100 0 0 0 )	%  NO  DEMY
	  ( 100 0 0 0 )	%  NO  BLOCK
	  ( 100 0 0 0 )	%  NO  AXONAL
	  ( 0 0 0 100 )	%  NO  V.E.REIN
	  ( 0 0 0 100 ))	%  NO  E.REIN
	 (( 0 100 0 0 )	%  MILD  DEMY
	  ( 50 50 0 0 )	%  MILD  BLOCK
	  ( 100 0 0 0 )	%  MILD  AXONAL
	  ( 0 0 0 100 )	%  MILD  V.E.REIN
	  ( 0 0 0 100 ))	%  MILD  E.REIN
	 (( 0 0 100 0 )	%  MOD  DEMY
	  ( 0 50 50 0 )	%  MOD  BLOCK
	  ( 50 50 0 0 )	%  MOD  AXONAL
	  ( 0 0 0 100 )	%  MOD  V.E.REIN
	  ( 0 0 0 100 ))	%  MOD  E.REIN
	 (( 0 0 0 100 )	%  SEV  DEMY
	  ( 0 10 50 40 )	%  SEV  BLOCK
	  ( 30 50 20 0 )	%  SEV  AXONAL
	  ( 0 0 0 100 )	%  SEV  V.E.REIN
	  ( 0 0 0 100 ))	%  SEV  E.REIN
	 (( 0 0 0 100 )	%  TOTAL  DEMY
	  ( 0 0 50 50 )	%  TOTAL  BLOCK
	  ( 0 50 50 0 )	%  TOTAL  AXONAL
	  ( 0 0 0 100 )	%  TOTAL  V.E.REIN
	  ( 0 0 0 100 )));	%  TOTAL  E.REIN
}

potential (R_LNLW_MED_SEV |)
{
 data = ( 73 16 7 3 1 );
}

potential (R_LNLW_MED_PATHO |)
{
 data = ( 80 12 7 0.5 0.5 );
}

potential (R_LNLBE_MED_SEV |)
{
 data = ( 98.1 1 0.5 0.3 0.1 );
}

potential (R_LNLBE_MED_PATHO |)
{
 data = ( 60 19 20 0.5 0.5 );
}

potential (R_DIFFN_LNLW_MEDD2_DISP_WD | R_LNLW_MEDD2_DISP_WD R_DIFFN_MEDD2_DISP)
{
 data = ((( 1 0 0 0 )	%  NO  NO
	  ( 0.0749 0.8229 0.1022 0 )	%  NO  MILD
	  ( 0 0.0626 0.9373 0 )	%  NO  MOD
	  ( 0 0 0 1 ))	%  NO  SEV
	 (( 0.0749 0.8229 0.1022 0 )	%  MILD  NO
	  ( 0.0047 0.1786 0.8167 0 )	%  MILD  MILD
	  ( 0 0.019 0.9795 0.0015 )	%  MILD  MOD
	  ( 0 0 0 1 ))	%  MILD  SEV
	 (( 0 0.0626 0.9373 0 )	%  MOD  NO
	  ( 0 0.019 0.9795 0.0015 )	%  MOD  MILD
	  ( 0 0.0001 0.0833 0.9166 )	%  MOD  MOD
	  ( 0 0 0 1 ))	%  MOD  SEV
	 (( 0 0 0 1 )	%  SEV  NO
	  ( 0 0 0 1 )	%  SEV  MILD
	  ( 0 0 0 1 )	%  SEV  MOD
	  ( 0 0 0 1 )));	%  SEV  SEV
}

potential (R_LNLBE_MEDD2_BLOCK_EW | R_LNLBE_MED_SEV R_LNLBE_MED_PATHO)
{
 data = ((( 100 0 0 0 0 )	%  NO  DEMY
	  ( 100 0 0 0 0 )	%  NO  BLOCK
	  ( 100 0 0 0 0 )	%  NO  AXONAL
	  ( 100 0 0 0 0 )	%  NO  V.E.REIN
	  ( 100 0 0 0 0 ))	%  NO  E.REIN
	 (( 80 20 0 0 0 )	%  MILD  DEMY
	  ( 0 50 50 0 0 )	%  MILD  BLOCK
	  ( 100 0 0 0 0 )	%  MILD  AXONAL
	  ( 100 0 0 0 0 )	%  MILD  V.E.REIN
	  ( 100 0 0 0 0 ))	%  MILD  E.REIN
	 (( 30 60 10 0 0 )	%  MOD  DEMY
	  ( 0 0 50 50 0 )	%  MOD  BLOCK
	  ( 100 0 0 0 0 )	%  MOD  AXONAL
	  ( 100 0 0 0 0 )	%  MOD  V.E.REIN
	  ( 100 0 0 0 0 ))	%  MOD  E.REIN
	 (( 10 50 30 10 0 )	%  SEV  DEMY
	  ( 0 0 20 60 20 )	%  SEV  BLOCK
	  ( 100 0 0 0 0 )	%  SEV  AXONAL
	  ( 100 0 0 0 0 )	%  SEV  V.E.REIN
	  ( 100 0 0 0 0 ))	%  SEV  E.REIN
	 (( 0 5 20 55 20 )	%  TOTAL  DEMY
	  ( 0 0 0 0 100 )	%  TOTAL  BLOCK
	  ( 100 0 0 0 0 )	%  TOTAL  AXONAL
	  ( 100 0 0 0 0 )	%  TOTAL  V.E.REIN
	  ( 100 0 0 0 0 )));	%  TOTAL  E.REIN
}

potential (R_DIFFN_MEDD2_BLOCK | DIFFN_S_SEV_DIST DIFFN_PATHO)
{
 data = ((( 100 0 0 0 0 )	%  NO  DEMY
	  ( 100 0 0 0 0 )	%  NO  BLOCK
	  ( 100 0 0 0 0 )	%  NO  AXONAL
	  ( 100 0 0 0 0 )	%  NO  V.E.REIN
	  ( 100 0 0 0 0 ))	%  NO  E.REIN
	 (( 80 20 0 0 0 )	%  MILD  DEMY
	  ( 20 50 30 0 0 )	%  MILD  BLOCK
	  ( 100 0 0 0 0 )	%  MILD  AXONAL
	  ( 100 0 0 0 0 )	%  MILD  V.E.REIN
	  ( 100 0 0 0 0 ))	%  MILD  E.REIN
	 (( 60 40 0 0 0 )	%  MOD  DEMY
	  ( 0 20 50 30 0 )	%  MOD  BLOCK
	  ( 100 0 0 0 0 )	%  MOD  AXONAL
	  ( 100 0 0 0 0 )	%  MOD  V.E.REIN
	  ( 100 0 0 0 0 ))	%  MOD  E.REIN
	 (( 25 50 25 0 0 )	%  SEV  DEMY
	  ( 0 0 40 50 10 )	%  SEV  BLOCK
	  ( 100 0 0 0 0 )	%  SEV  AXONAL
	  ( 100 0 0 0 0 )	%  SEV  V.E.REIN
	  ( 100 0 0 0 0 )));	%  SEV  E.REIN
}

potential (R_LNLBE_MEDD2_DISP_EW | R_LNLBE_MED_SEV R_LNLBE_MED_PATHO)
{
 data = ((( 100 0 0 0 )	%  NO  DEMY
	  ( 100 0 0 0 )	%  NO  BLOCK
	  ( 100 0 0 0 )	%  NO  AXONAL
	  ( 0 0 0 100 )	%  NO  V.E.REIN
	  ( 0 0 0 100 ))	%  NO  E.REIN
	 (( 0 100 0 0 )	%  MILD  DEMY
	  ( 50 50 0 0 )	%  MILD  BLOCK
	  ( 100 0 0 0 )	%  MILD  AXONAL
	  ( 0 0 0 100 )	%  MILD  V.E.REIN
	  ( 0 0 0 100 ))	%  MILD  E.REIN
	 (( 0 0 100 0 )	%  MOD  DEMY
	  ( 0 50 50 0 )	%  MOD  BLOCK
	  ( 50 50 0 0 )	%  MOD  AXONAL
	  ( 0 0 0 100 )	%  MOD  V.E.REIN
	  ( 0 0 0 100 ))	%  MOD  E.REIN
	 (( 0 0 0 100 )	%  SEV  DEMY
	  ( 0 10 50 40 )	%  SEV  BLOCK
	  ( 30 50 20 0 )	%  SEV  AXONAL
	  ( 0 0 0 100 )	%  SEV  V.E.REIN
	  ( 0 0 0 100 ))	%  SEV  E.REIN
	 (( 0 0 0 100 )	%  TOTAL  DEMY
	  ( 0 0 50 50 )	%  TOTAL  BLOCK
	  ( 0 50 50 0 )	%  TOTAL  AXONAL
	  ( 0 0 0 100 )	%  TOTAL  V.E.REIN
	  ( 0 0 0 100 )));	%  TOTAL  E.REIN
}

potential (R_DIFFN_MEDD2_DISP | DIFFN_S_SEV_DIST DIFFN_PATHO)
{
 data = ((( 100 0 0 0 )	%  NO  DEMY
	  ( 100 0 0 0 )	%  NO  BLOCK
	  ( 100 0 0 0 )	%  NO  AXONAL
	  ( 0 0 0 100 )	%  NO  V.E.REIN
	  ( 0 0 0 100 ))	%  NO  E.REIN
	 (( 0 100 0 0 )	%  MILD  DEMY
	  ( 50 50 0 0 )	%  MILD  BLOCK
	  ( 100 0 0 0 )	%  MILD  AXONAL
	  ( 0 0 0 100 )	%  MILD  V.E.REIN
	  ( 0 0 0 100 ))	%  MILD  E.REIN
	 (( 0 0 100 0 )	%  MOD  DEMY
	  ( 0 50 50 0 )	%  MOD  BLOCK
	  ( 50 50 0 0 )	%  MOD  AXONAL
	  ( 0 0 0 100 )	%  MOD  V.E.REIN
	  ( 0 0 0 100 ))	%  MOD  E.REIN
	 (( 0 0 0 100 )	%  SEV  DEMY
	  ( 0 10 50 40 )	%  SEV  BLOCK
	  ( 0 50 50 0 )	%  SEV  AXONAL
	  ( 0 0 0 100 )	%  SEV  V.E.REIN
	  ( 0 0 0 100 )));	%  SEV  E.REIN
}

potential (R_MEDD2_DISP_EW | R_DIFFN_MEDD2_DISP R_LNLBE_MEDD2_DISP_EW)
{
 data = ((( 1 0 0 0 )	%  NO  NO
	  ( 0.0749 0.8229 0.1022 0 )	%  NO  MILD
	  ( 0 0.0626 0.9373 0 )	%  NO  MOD
	  ( 0 0.0079 0.6028 0.3892 ))	%  NO  SEV
	 (( 0.0749 0.8229 0.1022 0 )	%  MILD  NO
	  ( 0.0047 0.1786 0.8167 0 )	%  MILD  MILD
	  ( 0 0.019 0.9795 0.0015 )	%  MILD  MOD
	  ( 0 0.0001 0.0069 0.993 ))	%  MILD  SEV
	 (( 0 0.0626 0.9373 0 )	%  MOD  NO
	  ( 0 0.019 0.9795 0.0015 )	%  MOD  MILD
	  ( 0 0.0001 0.0833 0.9166 )	%  MOD  MOD
	  ( 0 0 0 1 ))	%  MOD  SEV
	 (( 0 0.0079 0.6028 0.3892 )	%  SEV  NO
	  ( 0 0.0001 0.0069 0.993 )	%  SEV  MILD
	  ( 0 0 0 1 )	%  SEV  MOD
	  ( 0 0 0 1 )));	%  SEV  SEV
}

potential (R_MEDD2_DISP_WD | R_DIFFN_LNLW_MEDD2_DISP_WD)
{
 data = (( 1 0 0 0 )	%  NO
	 ( 0 1 0 0 )	%  MILD
	 ( 0 0 1 0 )	%  MOD
	 ( 0 0 0 1 ));	%  SEV
}

potential (R_MEDD2_BLOCK_EW | R_DIFFN_MEDD2_BLOCK R_LNLBE_MEDD2_BLOCK_EW)
{
 data = ((( 1 0 0 0 0 )	%  NO  NO
	  ( 0.0077 0.9923 0 0 0 )	%  NO  MILD
	  ( 0.0007 0.0234 0.9759 0 0 )	%  NO  MOD
	  ( 0.0019 0.006 0.0588 0.9333 0 )	%  NO  SEV
	  ( 0 0 0 0 1 ))	%  NO  TOTAL
	 (( 0.0077 0.9923 0 0 0 )	%  MILD  NO
	  ( 0.0001 0.498 0.5019 0 0 )	%  MILD  MILD
	  ( 0 0.0032 0.9968 0 0 )	%  MILD  MOD
	  ( 0.001 0.0033 0.0376 0.9581 0 )	%  MILD  SEV
	  ( 0 0 0 0 1 ))	%  MILD  TOTAL
	 (( 0.0007 0.0234 0.9759 0 0 )	%  MOD  NO
	  ( 0 0.0032 0.9968 0 0 )	%  MOD  MILD
	  ( 0 0.0007 0.4328 0.5665 0 )	%  MOD  MOD
	  ( 0.0003 0.0011 0.0159 0.9827 0 )	%  MOD  SEV
	  ( 0 0 0 0 1 ))	%  MOD  TOTAL
	 (( 0.0019 0.006 0.0588 0.9333 0 )	%  SEV  NO
	  ( 0.001 0.0033 0.0376 0.9581 0 )	%  SEV  MILD
	  ( 0.0003 0.0011 0.0159 0.9827 0 )	%  SEV  MOD
	  ( 0.0003 0.0011 0.0125 0.986 0 )	%  SEV  SEV
	  ( 0 0 0 0 1 ))	%  SEV  TOTAL
	 (( 0 0 0 0 1 )	%  TOTAL  NO
	  ( 0 0 0 0 1 )	%  TOTAL  MILD
	  ( 0 0 0 0 1 )	%  TOTAL  MOD
	  ( 0 0 0 0 1 )	%  TOTAL  SEV
	  ( 0 0 0 0 1 )));	%  TOTAL  TOTAL
}

potential (R_MEDD2_DISP_EWD | R_MEDD2_DISP_WD R_MEDD2_DISP_EW)
{
 data = ((( 0 0 0.0742 0.9045 0.0213 0 0 0 0 )	%  NO  NO
	  ( 0.0001 0.2215 0.7732 0.0052 0 0 0 0 0 )	%  NO  MILD
	  ( 0.1315 0.8577 0.0108 0 0 0 0 0 0 )	%  NO  MOD
	  ( 0.9933 0.0067 0 0 0 0 0 0 0 ))	%  NO  SEV
	 (( 0 0 0 0 0.0742 0.9045 0.0213 0 0 )	%  MILD  NO
	  ( 0 0 0 0.1315 0.8576 0.0108 0 0 0 )	%  MILD  MILD
	  ( 0 0 0.0742 0.9045 0.0213 0 0 0 0 )	%  MILD  MOD
	  ( 0.0404 0.9192 0.0404 0 0 0 0 0 0 ))	%  MILD  SEV
	 (( 0 0 0 0 0 0 0 0.133 0.867 )	%  MOD  NO
	  ( 0 0 0 0 0 0 0.0108 0.8577 0.1315 )	%  MOD  MILD
	  ( 0 0 0 0 0 0.0052 0.7732 0.2215 0.0001 )	%  MOD  MOD
	  ( 0 0 0.0213 0.9045 0.0742 0 0 0 0 ))	%  MOD  SEV
	 (( 0 0 0 0 0 0 0 0.133 0.867 )	%  SEV  NO
	  ( 0 0 0 0 0 0 0.0108 0.8577 0.1315 )	%  SEV  MILD
	  ( 0 0 0 0 0 0.0052 0.7732 0.2215 0.0001 )	%  SEV  MOD
	  ( 0 0 0.0213 0.9045 0.0742 0 0 0 0 )));	%  SEV  SEV
}

potential (R_MEDD2_AMPR_EW | R_MEDD2_DISP_EWD R_MEDD2_BLOCK_EW)
{
 data = ((( 0 0.2827 0.7165 0.0009 0 0 0 0 0 0 0 0 )	%  R0.15  NO
	  ( 0 0.9103 0.0897 0 0 0 0 0 0 0 0 0 )	%  R0.15  MILD
	  ( 0 0.9974 0.0026 0 0 0 0 0 0 0 0 0 )	%  R0.15  MOD
	  ( 0 0.9468 0.0492 0.0035 0.0005 0.0001 0 0 0 0 0 0 )	%  R0.15  SEV
	  ( 1 0 0 0 0 0 0 0 0 0 0 0 ))	%  R0.15  TOTAL
	 (( 0 0 0.5547 0.4268 0.0183 0.0002 0 0 0 0 0 0 )	%  R0.25  NO
	  ( 0 0.0004 0.8945 0.1036 0.0015 0 0 0 0 0 0 0 )	%  R0.25  MILD
	  ( 0 0.3856 0.6048 0.0095 0.0001 0 0 0 0 0 0 0 )	%  R0.25  MOD
	  ( 0 0.8722 0.111 0.0135 0.0025 0.0006 0.0002 0.0001 0 0 0 0 )	%  R0.25  SEV
	  ( 1 0 0 0 0 0 0 0 0 0 0 0 ))	%  R0.25  TOTAL
	 (( 0 0 0.009 0.5127 0.4152 0.0589 0.0039 0.0002 0 0 0 0 )	%  R0.35  NO
	  ( 0 0 0.114 0.7169 0.1598 0.0089 0.0003 0 0 0 0 0 )	%  R0.35  MILD
	  ( 0 0.0073 0.8191 0.1638 0.0095 0.0003 0 0 0 0 0 0 )	%  R0.35  MOD
	  ( 0 0.7781 0.1801 0.0312 0.0075 0.002 0.0006 0.0002 0.0001 0 0 0 )	%  R0.35  SEV
	  ( 1 0 0 0 0 0 0 0 0 0 0 0 ))	%  R0.35  TOTAL
	 (( 0 0 0 0.0635 0.4459 0.3732 0.0995 0.0162 0.0015 0.0002 0 0 )	%  R0.45  NO
	  ( 0 0 0.0026 0.3111 0.5155 0.1499 0.019 0.0018 0.0001 0 0 0 )	%  R0.45  MILD
	  ( 0 0.0001 0.386 0.4993 0.1036 0.0101 0.0008 0.0001 0 0 0 0 )	%  R0.45  MOD
	  ( 0 0.678 0.2436 0.0548 0.0156 0.005 0.0018 0.0007 0.0003 0.0001 0.0001 0 )	%  R0.45  SEV
	  ( 1 0 0 0 0 0 0 0 0 0 0 0 ))	%  R0.45  TOTAL
	 (( 0 0 0 0.0029 0.1141 0.3951 0.3198 0.1315 0.0298 0.0058 0.0009 0 )	%  R0.55  NO
	  ( 0 0 0 0.0451 0.3717 0.4039 0.1433 0.0313 0.0041 0.0005 0.0001 0 )	%  R0.55  MILD
	  ( 0 0 0.0913 0.5259 0.3027 0.0681 0.0104 0.0014 0.0002 0 0 0 )	%  R0.55  MOD
	  ( 0 0.5789 0.2957 0.082 0.027 0.0096 0.0037 0.0017 0.0007 0.0004 0.0002 0.0001 )	%  R0.55  SEV
	  ( 1 0 0 0 0 0 0 0 0 0 0 0 ))	%  R0.55  TOTAL
	 (( 0 0 0 0.0001 0.0136 0.1578 0.3285 0.2966 0.1404 0.0483 0.0135 0.0012 )	%  R0.65  NO
	  ( 0 0 0 0.0035 0.1122 0.3738 0.3186 0.1444 0.0376 0.0083 0.0015 0.0001 )	%  R0.65  MILD
	  ( 0 0 0.015 0.3069 0.4204 0.1929 0.0512 0.0114 0.0019 0.0003 0.0001 0 )	%  R0.65  MOD
	  ( 0 0.485 0.334 0.1106 0.0411 0.0162 0.0068 0.0033 0.0015 0.0008 0.0004 0.0003 )	%  R0.65  SEV
	  ( 1 0 0 0 0 0 0 0 0 0 0 0 ))	%  R0.65  TOTAL
	 (( 0 0 0 0 0.0012 0.0385 0.1746 0.3015 0.2613 0.1447 0.0651 0.0129 )	%  R0.75  NO
	  ( 0 0 0 0.0002 0.0226 0.189 0.3317 0.2744 0.1252 0.0431 0.0124 0.0013 )	%  R0.75  MILD
	  ( 0 0 0.0023 0.1333 0.3728 0.3075 0.1292 0.0421 0.0099 0.0024 0.0005 0 )	%  R0.75  MOD
	  ( 0 0.4048 0.3566 0.1367 0.0562 0.024 0.0108 0.0054 0.0027 0.0014 0.0008 0.0005 )	%  R0.75  SEV
	  ( 1 0 0 0 0 0 0 0 0 0 0 0 ))	%  R0.75  TOTAL
	 (( 0 0 0 0 0.0001 0.0062 0.058 0.1828 0.2779 0.2392 0.1675 0.0683 )	%  R0.85  NO
	  ( 0 0 0 0 0.0031 0.0615 0.2109 0.3051 0.2344 0.1217 0.0528 0.0104 )	%  R0.85  MILD
	  ( 0 0 0.0003 0.0444 0.2413 0.3431 0.2208 0.1025 0.0337 0.0104 0.003 0.0004 )	%  R0.85  MOD
	  ( 0 0.3317 0.3672 0.1613 0.0727 0.0335 0.016 0.0085 0.0044 0.0024 0.0015 0.001 )	%  R0.85  SEV
	  ( 1 0 0 0 0 0 0 0 0 0 0 0 ))	%  R0.85  TOTAL
	 (( 0 0 0 0 0 0.0009 0.0157 0.0823 0.2012 0.2516 0.2559 0.1924 )	%  R0.95  NO
	  ( 0 0 0 0 0.0004 0.0166 0.1002 0.2325 0.2777 0.2039 0.1251 0.0436 )	%  R0.95  MILD
	  ( 0 0 0 0.0138 0.1311 0.2956 0.2729 0.1711 0.0745 0.0286 0.0104 0.002 )	%  R0.95  MOD
	  ( 0 0.2731 0.3669 0.1808 0.0881 0.0434 0.0217 0.012 0.0064 0.0036 0.0023 0.0017 )	%  R0.95  SEV
	  ( 1 0 0 0 0 0 0 0 0 0 0 0 )));	%  R0.95  TOTAL
}
