net 
{
    node_size = (76 36);
}

node Fault
{
    label = "Fault";
    position = (58 332);
    states = ("AIDS_early"  "AILD"  "ALIP"  "Cat_scratch_disease" 
     "Dermatopathic_laden"  "Florid_follic_hyperp" 
     "GLH_hyaline_vacular"  "GLH_plasma_cell_type" 
     "Granulomatous_laden"  "Histiocytosis_x"  "Infectious_mono" 
     "Leprosy"  "Lymphangiographic"  "Mantle_zone_hyperl" 
     "Necrotizing_kikuchi"  "Necrotiz_nonKikuchi" 
     "Rheumatoid_arthritis"  "Sarcoidosis"  "SHML"  "Sinus_hyperplasia"
      "Syphilis"  "Toxoplasmosis"  "Tuberculosis"  "Viral_NOS" 
     "Whipple_s_disease"  "L_H_nodular_HD"  "L_H_diffuse_HD" 
     "Nodular_sclerosis"  "Cellular_phase_NSHD"  "Syncytial_NSHD" 
     "Mixed_cellularity_HD"  "Interfollicular_HD" 
     "Diffuse_fibrosis_HD"  "Reticular_type_HD"  "Small_cleaved__fol" 
     "Mixed__fol"  "Large_cell__fol"  "Small_noncleaved_fol" 
     "Small_lymphocytic"  "Plasmacytoid_lyctic"  "Mantle_zone" 
     "Small_cleaved__dif"  "Mixed__fcc_dif"  "Large_cell__dif" 
     "B_immunoblastic"  "T_immunob_mix"  "IBL_like_T_cell_lym" 
     "Japanese_ATL"  "Lymphoblastic"  "Small_noncleaved_dif" 
     "True_histiocytic"  "Malig_histiocytosis"  "Multiple_myeloma" 
     "Mycosis_fungoides"  "AML"  "Hairy_cell_leukemia"  "Carcinoma" 
     "Melanoma"  "Em_plasmacytoma"  "Kaposis_sarcoma" 
     "Mast_cell_disease"  "AIDS_involutionary"  "T_immunob_lrg");
}

node F97
{
    label = "Follicles";
    position = (4958 262);
    states = ("Absent"  "Present");
}

node F4
{
    label = "F polarity";
    position = (158 192);
    states = ("NA"  "No"  "Yes");
}

node F53
{
    label = "Mottling hist";
    position = (2658 262);
    states = ("Absent"  "Focal__non_extensive_" 
     "Multifocal__non_extensive_"  "Extensive");
}

node F41
{
    label = "Lrg lmph cells";
    position = (2058 262);
    states = ("Absent"  "Present");
}

node F44
{
    label = "Med lymph cells";
    position = (2258 262);
    states = ("Absent"  "Present");
}

node F20
{
    label = "Extravasc clus clr c";
    position = (658 192);
    states = ("Absent"  "Rare__1_10__"  "Present__11_50__" 
     "Many__51_70__");
}

node F90
{
    label = "Cap thickening";
    position = (4658 262);
    states = ("Absent"  "Slight___10_"  "Moderate__10_20_" 
     "Marked___20_");
}

node F21
{
    label = "FCB";
    position = (758 192);
    states = ("Absent"  "Present"  "Prominent");
}

node F59
{
    label = "PAS stain";
    position = (3158 262);
    states = ("Absent"  "Present");
}

node F72
{
    label = "Sml lymph cells";
    position = (3958 262);
    states = ("Absent"  "Present");
}

node F77
{
    label = "Vasc prolif slit";
    position = (4358 262);
    states = ("Absent"  "Present");
}

node F100
{
    label = "F ss pattern";
    position = (1258 122);
    states = ("NA"  "Absent"  "Slight__1_15_"  "Moderate__16_30_" 
     "Marked___30_");
}

node F105
{
    label = "F mantle zones";
    position = (2258 192);
    states = ("NA"  "Absent"  "Present");
}

potential (Fault |)
{
    data = (0.02075119 0.00103756 0.01037560 0.00363146 0.01037560 
        0.03112679 0.00435775 0.00207512 0.01556339 0.00415024 
        0.00726292 0.00622536 0.01037560 0.01296950 0.00830048 
        0.01328076 0.00207512 0.00207512 0.00124507 0.01556339 
        0.00259390 0.00726292 0.00830048 0.01037560 0.00207512 
        0.01037560 0.00415024 0.08300477 0.00518780 0.00415024 
        0.05187798 0.00415024 0.00518780 0.00518780 0.10375597 
        0.05706578 0.03112679 0.00518780 0.02075119 0.01037560 
        0.01037560 0.00415024 0.01037560 0.13488276 0.01556339 
        0.02075119 0.01556339 0.00103756 0.01037560 0.06225358 
        0.00166010 0.00166010 0.00207512 0.00622536 0.00259390 
        0.00020751 0.02075119 0.00830048 0.00332019 0.00830048 
        0.00311268 0.02075119 0.02075119);
}

potential (F97 | Fault)
{
    data = ((0.00000000 1.00000000)
        (0.99000000 0.01000000)
        (0.90000000 0.10000000)
        (0.01000000 0.99000000)
        (0.01000000 0.99000000)
        (0.00000000 1.00000000)
        (0.00000000 1.00000000)
        (0.00000000 1.00000000)
        (0.01000000 0.99000000)
        (0.01000000 0.99000000)
        (0.01000000 0.99000000)
        (0.90000000 0.10000000)
        (0.01000000 0.99000000)
        (0.00000000 1.00000000)
        (0.01000000 0.99000000)
        (0.01000000 0.99000000)
        (0.00000000 1.00000000)
        (0.90000000 0.10000000)
        (0.01000000 0.99000000)
        (0.01000000 0.99000000)
        (0.00000000 1.00000000)
        (0.00000000 1.00000000)
        (0.90000000 0.10000000)
        (0.01000000 0.99000000)
        (0.01000000 0.99000000)
        (0.99000000 0.01000000)
        (0.99000000 0.01000000)
        (0.80000000 0.20000000)
        (0.80000000 0.20000000)
        (0.80000000 0.20000000)
        (0.80000000 0.20000000)
        (0.00000000 1.00000000)
        (0.99900000 0.00100000)
        (0.99900000 0.00100000)
        (0.00000000 1.00000000)
        (0.00000000 1.00000000)
        (0.00000000 1.00000000)
        (0.00000000 1.00000000)
        (0.95000000 0.05000000)
        (0.99900000 0.00100000)
        (0.01000000 0.99000000)
        (0.99900000 0.00100000)
        (0.99900000 0.00100000)
        (0.99900000 0.00100000)
        (0.99900000 0.00100000)
        (0.80000000 0.20000000)
        (0.99900000 0.00100000)
        (0.99900000 0.00100000)
        (0.95000000 0.05000000)
        (0.99900000 0.00100000)
        (0.99900000 0.00100000)
        (0.99900000 0.00100000)
        (0.20000000 0.80000000)
        (0.20000000 0.80000000)
        (0.20000000 0.80000000)
        (0.20000000 0.80000000)
        (0.20000000 0.80000000)
        (0.20000000 0.80000000)
        (0.99000000 0.01000000)
        (0.99000000 0.01000000)
        (0.99000000 0.01000000)
        (0.05000000 0.95000000)
        (0.99900000 0.00100000));
}

potential (F4 | Fault F97)
{
    data = (((1.00000000 0.00000000 0.00000000)
        (0.00000000 0.01000000 0.99000000))
        ((1.00000000 0.00000000 0.00000000)
        (0.00000000 0.99900000 0.00100000))
        ((1.00000000 0.00000000 0.00000000)
        (0.00000000 0.99900000 0.00100000))
        ((1.00000000 0.00000000 0.00000000)
        (0.00000000 0.90000000 0.10000000))
        ((1.00000000 0.00000000 0.00000000)
        (0.00000000 0.99000000 0.01000000))
        ((1.00000000 0.00000000 0.00000000)
        (0.00000000 0.95000000 0.05000000))
        ((1.00000000 0.00000000 0.00000000)
        (0.00000000 1.00000000 0.00000000))
        ((1.00000000 0.00000000 0.00000000)
        (0.00000000 0.80000000 0.20000000))
        ((1.00000000 0.00000000 0.00000000)
        (0.00000000 0.99000000 0.01000000))
        ((1.00000000 0.00000000 0.00000000)
        (0.00000000 0.99900000 0.00100000))
        ((1.00000000 0.00000000 0.00000000)
        (0.00000000 0.90000000 0.10000000))
        ((1.00000000 0.00000000 0.00000000)
        (0.00000000 0.99900000 0.00100000))
        ((1.00000000 0.00000000 0.00000000)
        (0.00000000 0.99900000 0.00100000))
        ((1.00000000 0.00000000 0.00000000)
        (0.00000000 0.98000000 0.02000000))
        ((1.00000000 0.00000000 0.00000000)
        (0.00000000 0.90000000 0.10000000))
        ((1.00000000 0.00000000 0.00000000)
        (0.00000000 0.90000000 0.10000000))
        ((1.00000000 0.00000000 0.00000000)
        (0.00000000 0.80000000 0.20000000))
        ((1.00000000 0.00000000 0.00000000)
        (0.00000000 0.99900000 0.00100000))
        ((1.00000000 0.00000000 0.00000000)
        (0.00000000 0.99900000 0.00100000))
        ((1.00000000 0.00000000 0.00000000)
        (0.00000000 0.99900000 0.00100000))
        ((1.00000000 0.00000000 0.00000000)
        (0.00000000 0.99000000 0.01000000))
        ((1.00000000 0.00000000 0.00000000)
        (0.00000000 0.99000000 0.01000000))
        ((1.00000000 0.00000000 0.00000000)
        (0.00000000 0.99900000 0.00100000))
        ((1.00000000 0.00000000 0.00000000)
        (0.00000000 0.90000000 0.10000000))
        ((1.00000000 0.00000000 0.00000000)
        (0.00000000 0.99900000 0.00100000))
        ((1.00000000 0.00000000 0.00000000)
        (0.00000000 0.99900000 0.00100000))
        ((1.00000000 0.00000000 0.00000000)
        (0.00000000 0.99900000 0.00100000))
        ((1.00000000 0.00000000 0.00000000)
        (0.00000000 0.99000000 0.01000000))
        ((1.00000000 0.00000000 0.00000000)
        (0.00000000 0.99000000 0.01000000))
        ((1.00000000 0.00000000 0.00000000)
        (0.00000000 0.99000000 0.01000000))
        ((1.00000000 0.00000000 0.00000000)
        (0.00000000 0.99000000 0.01000000))
        ((1.00000000 0.00000000 0.00000000)
        (0.00000000 0.99000000 0.01000000))
        ((1.00000000 0.00000000 0.00000000)
        (0.00000000 0.99900000 0.00100000))
        ((1.00000000 0.00000000 0.00000000)
        (0.00000000 0.99900000 0.00100000))
        ((1.00000000 0.00000000 0.00000000)
        (0.00000000 1.00000000 0.00000000))
        ((1.00000000 0.00000000 0.00000000)
        (0.00000000 1.00000000 0.00000000))
        ((1.00000000 0.00000000 0.00000000)
        (0.00000000 1.00000000 0.00000000))
        ((1.00000000 0.00000000 0.00000000)
        (0.00000000 1.00000000 0.00000000))
        ((1.00000000 0.00000000 0.00000000)
        (0.00000000 0.99999000 0.00001000))
        ((1.00000000 0.00000000 0.00000000)
        (0.00000000 0.99999000 0.00001000))
        ((1.00000000 0.00000000 0.00000000)
        (0.00000000 0.90000000 0.10000000))
        ((1.00000000 0.00000000 0.00000000)
        (0.00000000 0.99999000 0.00001000))
        ((1.00000000 0.00000000 0.00000000)
        (0.00000000 0.99999000 0.00001000))
        ((1.00000000 0.00000000 0.00000000)
        (0.00000000 0.99999000 0.00001000))
        ((1.00000000 0.00000000 0.00000000)
        (0.00000000 0.99999000 0.00001000))
        ((1.00000000 0.00000000 0.00000000)
        (0.00000000 0.99999000 0.00001000))
        ((1.00000000 0.00000000 0.00000000)
        (0.00000000 0.99999000 0.00001000))
        ((1.00000000 0.00000000 0.00000000)
        (0.00000000 0.99999000 0.00001000))
        ((1.00000000 0.00000000 0.00000000)
        (0.00000000 0.99999000 0.00001000))
        ((1.00000000 0.00000000 0.00000000)
        (0.00000000 0.99999000 0.00001000))
        ((1.00000000 0.00000000 0.00000000)
        (0.00000000 0.99999000 0.00001000))
        ((1.00000000 0.00000000 0.00000000)
        (0.00000000 0.99999000 0.00001000))
        ((1.00000000 0.00000000 0.00000000)
        (0.00000000 0.99900000 0.00100000))
        ((1.00000000 0.00000000 0.00000000)
        (0.00000000 0.99900000 0.00100000))
        ((1.00000000 0.00000000 0.00000000)
        (0.00000000 0.99900000 0.00100000))
        ((1.00000000 0.00000000 0.00000000)
        (0.00000000 0.99900000 0.00100000))
        ((1.00000000 0.00000000 0.00000000)
        (0.00000000 0.99900000 0.00100000))
        ((1.00000000 0.00000000 0.00000000)
        (0.00000000 0.99900000 0.00100000))
        ((1.00000000 0.00000000 0.00000000)
        (0.00000000 0.99900000 0.00100000))
        ((1.00000000 0.00000000 0.00000000)
        (0.00000000 0.80000000 0.20000000))
        ((1.00000000 0.00000000 0.00000000)
        (0.00000000 0.99900000 0.00100000))
        ((1.00000000 0.00000000 0.00000000)
        (0.00000000 0.90000000 0.10000000))
        ((1.00000000 0.00000000 0.00000000)
        (0.00000000 0.99999000 0.00001000)));
}

potential (F53 | Fault)
{
    data = ((0.30000000 0.40000000 0.29000000 0.01000000)
        (0.69993001 0.28997100 0.00999900 0.00009999)
        (0.69993001 0.28997100 0.00999900 0.00009999)
        (0.30000000 0.40000000 0.29000000 0.01000000)
        (0.05000000 0.30000000 0.55000000 0.10000000)
        (0.69993001 0.28997100 0.00999900 0.00009999)
        (0.94108421 0.04901480 0.00980296 0.00009803)
        (0.94108421 0.04901480 0.00980296 0.00009803)
        (0.50000000 0.45000000 0.04000000 0.01000000)
        (0.94108421 0.04901480 0.00980296 0.00009803)
        (0.30000000 0.40000000 0.29000000 0.01000000)
        (0.30000000 0.40000000 0.29000000 0.01000000)
        (0.94108421 0.04901480 0.00980296 0.00009803)
        (0.94108421 0.04901480 0.00980296 0.00009803)
        (0.50000000 0.45000000 0.04000000 0.01000000)
        (0.50000000 0.45000000 0.04000000 0.01000000)
        (0.94108421 0.04901480 0.00980296 0.00009803)
        (0.94108421 0.04901480 0.00980296 0.00009803)
        (0.94108421 0.04901480 0.00980296 0.00009803)
        (0.94108421 0.04901480 0.00980296 0.00009803)
        (0.69993001 0.28997100 0.00999900 0.00009999)
        (0.94108421 0.04901480 0.00980296 0.00009803)
        (0.94108421 0.04901480 0.00980296 0.00009803)
        (0.30000000 0.40000000 0.29000000 0.01000000)
        (0.94108421 0.04901480 0.00980296 0.00009803)
        (0.94108421 0.04901480 0.00980296 0.00009803)
        (0.94108421 0.04901480 0.00980296 0.00009803)
        (0.94108421 0.04901480 0.00980296 0.00009803)
        (0.94108421 0.04901480 0.00980296 0.00009803)
        (0.94108421 0.04901480 0.00980296 0.00009803)
        (0.94108421 0.04901480 0.00980296 0.00009803)
        (0.94108421 0.04901480 0.00980296 0.00009803)
        (0.94108421 0.04901480 0.00980296 0.00009803)
        (0.94108421 0.04901480 0.00980296 0.00009803)
        (0.94108421 0.04901480 0.00980296 0.00009803)
        (0.94108421 0.04901480 0.00980296 0.00009803)
        (0.94108421 0.04901480 0.00980296 0.00009803)
        (0.94108421 0.04901480 0.00980296 0.00009803)
        (0.94108421 0.04901480 0.00980296 0.00009803)
        (0.94108421 0.04901480 0.00980296 0.00009803)
        (0.94108421 0.04901480 0.00980296 0.00009803)
        (0.94108421 0.04901480 0.00980296 0.00009803)
        (0.94108421 0.04901480 0.00980296 0.00009803)
        (0.94108421 0.04901480 0.00980296 0.00009803)
        (0.94108421 0.04901480 0.00980296 0.00009803)
        (0.94108421 0.04901480 0.00980296 0.00009803)
        (0.50000000 0.45000000 0.04000000 0.01000000)
        (0.50000000 0.45000000 0.04000000 0.01000000)
        (0.94108421 0.04901480 0.00980296 0.00009803)
        (0.94108421 0.04901480 0.00980296 0.00009803)
        (0.94108421 0.04901480 0.00980296 0.00009803)
        (0.94108421 0.04901480 0.00980296 0.00009803)
        (0.94108421 0.04901480 0.00980296 0.00009803)
        (0.01000000 0.05000000 0.69000000 0.25000000)
        (0.94108421 0.04901480 0.00980296 0.00009803)
        (0.94108421 0.04901480 0.00980296 0.00009803)
        (0.94108421 0.04901480 0.00980296 0.00009803)
        (0.30000000 0.40000000 0.29000000 0.01000000)
        (0.94108421 0.04901480 0.00980296 0.00009803)
        (0.30000000 0.40000000 0.29000000 0.01000000)
        (0.94108421 0.04901480 0.00980296 0.00009803)
        (0.30000000 0.40000000 0.29000000 0.01000000)
        (0.94108421 0.04901480 0.00980296 0.00009803));
}

potential (F41 | Fault)
{
    data = ((0.99000000 0.01000000)
        (0.00000000 1.00000000)
        (0.00000000 1.00000000)
        (0.02000000 0.98000000)
        (0.99000000 0.01000000)
        (0.99000000 0.01000000)
        (0.99000000 0.01000000)
        (0.55000000 0.45000000)
        (0.30000000 0.70000000)
        (0.99000000 0.01000000)
        (0.00000000 1.00000000)
        (0.99000000 0.01000000)
        (0.99000000 0.01000000)
        (0.99000000 0.01000000)
        (0.10000000 0.90000000)
        (0.02000000 0.98000000)
        (0.99000000 0.01000000)
        (0.99000000 0.01000000)
        (0.99000000 0.01000000)
        (0.99000000 0.01000000)
        (0.99000000 0.01000000)
        (0.99000000 0.01000000)
        (0.99000000 0.01000000)
        (0.00000000 1.00000000)
        (0.99000000 0.01000000)
        (0.30000000 0.70000000)
        (0.30000000 0.70000000)
        (0.30000000 0.70000000)
        (0.30000000 0.70000000)
        (0.30000000 0.70000000)
        (0.30000000 0.70000000)
        (0.30000000 0.70000000)
        (0.30000000 0.70000000)
        (0.30000000 0.70000000)
        (0.12000000 0.88000000)
        (0.10000000 0.90000000)
        (0.05000000 0.95000000)
        (0.80000000 0.20000000)
        (0.05000000 0.95000000)
        (0.90000000 0.10000000)
        (0.99000000 0.01000000)
        (0.30000000 0.70000000)
        (0.00000000 1.00000000)
        (0.00000000 1.00000000)
        (0.00000000 1.00000000)
        (0.00000000 1.00000000)
        (0.00000000 1.00000000)
        (0.00000000 1.00000000)
        (0.99900000 0.00100000)
        (0.80000000 0.20000000)
        (0.00000000 1.00000000)
        (0.00000000 1.00000000)
        (0.00000000 1.00000000)
        (0.65000000 0.35000000)
        (0.20000000 0.80000000)
        (0.99000000 0.01000000)
        (0.99000000 0.01000000)
        (0.99000000 0.01000000)
        (0.95000000 0.05000000)
        (0.99000000 0.01000000)
        (0.99000000 0.01000000)
        (0.99000000 0.01000000)
        (0.00000000 1.00000000));
}

potential (F44 | Fault)
{
    data = ((0.95000000 0.05000000)
        (0.00000000 1.00000000)
        (0.00000000 1.00000000)
        (0.05000000 0.95000000)
        (0.95000000 0.05000000)
        (0.95000000 0.05000000)
        (0.95000000 0.05000000)
        (0.10000000 0.90000000)
        (0.10000000 0.90000000)
        (0.95000000 0.05000000)
        (0.01000000 0.99000000)
        (0.95000000 0.05000000)
        (0.95000000 0.05000000)
        (0.95000000 0.05000000)
        (0.10000000 0.90000000)
        (0.10000000 0.90000000)
        (0.95000000 0.05000000)
        (0.95000000 0.05000000)
        (0.95000000 0.05000000)
        (0.95000000 0.05000000)
        (0.95000000 0.05000000)
        (0.95000000 0.05000000)
        (0.95000000 0.05000000)
        (0.01000000 0.99000000)
        (0.95000000 0.05000000)
        (0.20000000 0.80000000)
        (0.20000000 0.80000000)
        (0.20000000 0.80000000)
        (0.20000000 0.80000000)
        (0.20000000 0.80000000)
        (0.20000000 0.80000000)
        (0.20000000 0.80000000)
        (0.20000000 0.80000000)
        (0.20000000 0.80000000)
        (0.20000000 0.80000000)
        (0.10000000 0.90000000)
        (0.10000000 0.90000000)
        (0.00000000 1.00000000)
        (0.10000000 0.90000000)
        (0.70000000 0.30000000)
        (0.95000000 0.05000000)
        (0.20000000 0.80000000)
        (0.30000000 0.70000000)
        (0.70000000 0.30000000)
        (0.80000000 0.20000000)
        (0.10000000 0.90000000)
        (0.10000000 0.90000000)
        (0.10000000 0.90000000)
        (0.00000000 1.00000000)
        (0.00000000 1.00000000)
        (0.95000000 0.05000000)
        (0.90000000 0.10000000)
        (0.30000000 0.70000000)
        (0.05000000 0.95000000)
        (0.25000000 0.75000000)
        (0.95000000 0.05000000)
        (0.95000000 0.05000000)
        (0.95000000 0.05000000)
        (0.20000000 0.80000000)
        (0.95000000 0.05000000)
        (0.95000000 0.05000000)
        (0.95000000 0.05000000)
        (0.10000000 0.90000000));
}

potential (F20 | Fault F41 F44)
{
    data = ((((1.00000000 0.00000000 0.00000000 0.00000000)
        (1.00000000 0.00000000 0.00000000 0.00000000))
        ((0.99990000 0.00010000 0.00000000 0.00000000)
        (0.99950000 0.00050000 0.00000000 0.00000000)))
        (((1.00000000 0.00000000 0.00000000 0.00000000)
        (1.00000000 0.00000000 0.00000000 0.00000000))
        ((0.99990000 0.00010000 0.00000000 0.00000000)
        (0.99950000 0.00050000 0.00000000 0.00000000)))
        (((1.00000000 0.00000000 0.00000000 0.00000000)
        (1.00000000 0.00000000 0.00000000 0.00000000))
        ((0.99990000 0.00010000 0.00000000 0.00000000)
        (0.99950000 0.00050000 0.00000000 0.00000000)))
        (((1.00000000 0.00000000 0.00000000 0.00000000)
        (1.00000000 0.00000000 0.00000000 0.00000000))
        ((0.99000000 0.01000000 0.00000000 0.00000000)
        (0.99000000 0.01000000 0.00000000 0.00000000)))
        (((1.00000000 0.00000000 0.00000000 0.00000000)
        (1.00000000 0.00000000 0.00000000 0.00000000))
        ((0.99990000 0.00010000 0.00000000 0.00000000)
        (0.99950000 0.00050000 0.00000000 0.00000000)))
        (((1.00000000 0.00000000 0.00000000 0.00000000)
        (1.00000000 0.00000000 0.00000000 0.00000000))
        ((0.99990000 0.00010000 0.00000000 0.00000000)
        (0.99950000 0.00050000 0.00000000 0.00000000)))
        (((1.00000000 0.00000000 0.00000000 0.00000000)
        (1.00000000 0.00000000 0.00000000 0.00000000))
        ((0.99990000 0.00010000 0.00000000 0.00000000)
        (0.99950000 0.00050000 0.00000000 0.00000000)))
        (((1.00000000 0.00000000 0.00000000 0.00000000)
        (1.00000000 0.00000000 0.00000000 0.00000000))
        ((0.99990000 0.00010000 0.00000000 0.00000000)
        (0.99950000 0.00050000 0.00000000 0.00000000)))
        (((1.00000000 0.00000000 0.00000000 0.00000000)
        (1.00000000 0.00000000 0.00000000 0.00000000))
        ((0.99990000 0.00010000 0.00000000 0.00000000)
        (0.99950000 0.00050000 0.00000000 0.00000000)))
        (((1.00000000 0.00000000 0.00000000 0.00000000)
        (1.00000000 0.00000000 0.00000000 0.00000000))
        ((0.99990000 0.00010000 0.00000000 0.00000000)
        (0.99950000 0.00050000 0.00000000 0.00000000)))
        (((0.25000000 0.25000000 0.25000000 0.25000000)
        (0.25000000 0.25000000 0.25000000 0.25000000))
        ((0.99000000 0.01000000 0.00000000 0.00000000)
        (0.99000000 0.01000000 0.00000000 0.00000000)))
        (((1.00000000 0.00000000 0.00000000 0.00000000)
        (1.00000000 0.00000000 0.00000000 0.00000000))
        ((0.99990000 0.00010000 0.00000000 0.00000000)
        (0.99950000 0.00050000 0.00000000 0.00000000)))
        (((1.00000000 0.00000000 0.00000000 0.00000000)
        (1.00000000 0.00000000 0.00000000 0.00000000))
        ((0.99990000 0.00010000 0.00000000 0.00000000)
        (0.99950000 0.00050000 0.00000000 0.00000000)))
        (((1.00000000 0.00000000 0.00000000 0.00000000)
        (1.00000000 0.00000000 0.00000000 0.00000000))
        ((0.99990000 0.00010000 0.00000000 0.00000000)
        (0.99950000 0.00050000 0.00000000 0.00000000)))
        (((1.00000000 0.00000000 0.00000000 0.00000000)
        (1.00000000 0.00000000 0.00000000 0.00000000))
        ((0.99000000 0.01000000 0.00000000 0.00000000)
        (0.99000000 0.01000000 0.00000000 0.00000000)))
        (((1.00000000 0.00000000 0.00000000 0.00000000)
        (1.00000000 0.00000000 0.00000000 0.00000000))
        ((0.99000000 0.01000000 0.00000000 0.00000000)
        (0.99000000 0.01000000 0.00000000 0.00000000)))
        (((1.00000000 0.00000000 0.00000000 0.00000000)
        (1.00000000 0.00000000 0.00000000 0.00000000))
        ((0.99990000 0.00010000 0.00000000 0.00000000)
        (0.99950000 0.00050000 0.00000000 0.00000000)))
        (((1.00000000 0.00000000 0.00000000 0.00000000)
        (1.00000000 0.00000000 0.00000000 0.00000000))
        ((0.99990000 0.00010000 0.00000000 0.00000000)
        (0.99950000 0.00050000 0.00000000 0.00000000)))
        (((1.00000000 0.00000000 0.00000000 0.00000000)
        (1.00000000 0.00000000 0.00000000 0.00000000))
        ((0.99990000 0.00010000 0.00000000 0.00000000)
        (0.99950000 0.00050000 0.00000000 0.00000000)))
        (((1.00000000 0.00000000 0.00000000 0.00000000)
        (1.00000000 0.00000000 0.00000000 0.00000000))
        ((0.99990000 0.00010000 0.00000000 0.00000000)
        (0.99950000 0.00050000 0.00000000 0.00000000)))
        (((1.00000000 0.00000000 0.00000000 0.00000000)
        (1.00000000 0.00000000 0.00000000 0.00000000))
        ((0.99990000 0.00010000 0.00000000 0.00000000)
        (0.99950000 0.00050000 0.00000000 0.00000000)))
        (((1.00000000 0.00000000 0.00000000 0.00000000)
        (1.00000000 0.00000000 0.00000000 0.00000000))
        ((0.99990000 0.00010000 0.00000000 0.00000000)
        (0.99950000 0.00050000 0.00000000 0.00000000)))
        (((1.00000000 0.00000000 0.00000000 0.00000000)
        (1.00000000 0.00000000 0.00000000 0.00000000))
        ((0.99990000 0.00010000 0.00000000 0.00000000)
        (0.99950000 0.00050000 0.00000000 0.00000000)))
        (((0.25000000 0.25000000 0.25000000 0.25000000)
        (0.25000000 0.25000000 0.25000000 0.25000000))
        ((0.99000000 0.01000000 0.00000000 0.00000000)
        (0.99000000 0.01000000 0.00000000 0.00000000)))
        (((1.00000000 0.00000000 0.00000000 0.00000000)
        (1.00000000 0.00000000 0.00000000 0.00000000))
        ((0.99990000 0.00010000 0.00000000 0.00000000)
        (0.99950000 0.00050000 0.00000000 0.00000000)))
        (((1.00000000 0.00000000 0.00000000 0.00000000)
        (1.00000000 0.00000000 0.00000000 0.00000000))
        ((0.99990000 0.00010000 0.00000000 0.00000000)
        (0.99950000 0.00050000 0.00000000 0.00000000)))
        (((1.00000000 0.00000000 0.00000000 0.00000000)
        (1.00000000 0.00000000 0.00000000 0.00000000))
        ((0.99990000 0.00010000 0.00000000 0.00000000)
        (0.99950000 0.00050000 0.00000000 0.00000000)))
        (((1.00000000 0.00000000 0.00000000 0.00000000)
        (1.00000000 0.00000000 0.00000000 0.00000000))
        ((0.99990000 0.00010000 0.00000000 0.00000000)
        (0.99950000 0.00050000 0.00000000 0.00000000)))
        (((1.00000000 0.00000000 0.00000000 0.00000000)
        (1.00000000 0.00000000 0.00000000 0.00000000))
        ((0.99990000 0.00010000 0.00000000 0.00000000)
        (0.99950000 0.00050000 0.00000000 0.00000000)))
        (((1.00000000 0.00000000 0.00000000 0.00000000)
        (1.00000000 0.00000000 0.00000000 0.00000000))
        ((0.99990000 0.00010000 0.00000000 0.00000000)
        (0.99950000 0.00050000 0.00000000 0.00000000)))
        (((1.00000000 0.00000000 0.00000000 0.00000000)
        (1.00000000 0.00000000 0.00000000 0.00000000))
        ((0.99990000 0.00010000 0.00000000 0.00000000)
        (0.99950000 0.00050000 0.00000000 0.00000000)))
        (((1.00000000 0.00000000 0.00000000 0.00000000)
        (1.00000000 0.00000000 0.00000000 0.00000000))
        ((0.99990000 0.00010000 0.00000000 0.00000000)
        (0.99950000 0.00050000 0.00000000 0.00000000)))
        (((1.00000000 0.00000000 0.00000000 0.00000000)
        (1.00000000 0.00000000 0.00000000 0.00000000))
        ((0.99990000 0.00010000 0.00000000 0.00000000)
        (0.99950000 0.00050000 0.00000000 0.00000000)))
        (((1.00000000 0.00000000 0.00000000 0.00000000)
        (1.00000000 0.00000000 0.00000000 0.00000000))
        ((0.99990000 0.00010000 0.00000000 0.00000000)
        (0.99950000 0.00050000 0.00000000 0.00000000)))
        (((1.00000000 0.00000000 0.00000000 0.00000000)
        (1.00000000 0.00000000 0.00000000 0.00000000))
        ((0.99990000 0.00010000 0.00000000 0.00000000)
        (0.99950000 0.00050000 0.00000000 0.00000000)))
        (((1.00000000 0.00000000 0.00000000 0.00000000)
        (1.00000000 0.00000000 0.00000000 0.00000000))
        ((0.99990000 0.00010000 0.00000000 0.00000000)
        (0.99950000 0.00050000 0.00000000 0.00000000)))
        (((1.00000000 0.00000000 0.00000000 0.00000000)
        (1.00000000 0.00000000 0.00000000 0.00000000))
        ((0.99990000 0.00010000 0.00000000 0.00000000)
        (0.99950000 0.00050000 0.00000000 0.00000000)))
        (((1.00000000 0.00000000 0.00000000 0.00000000)
        (1.00000000 0.00000000 0.00000000 0.00000000))
        ((0.99990000 0.00010000 0.00000000 0.00000000)
        (0.99950000 0.00050000 0.00000000 0.00000000)))
        (((1.00000000 0.00000000 0.00000000 0.00000000)
        (1.00000000 0.00000000 0.00000000 0.00000000))
        ((0.99990000 0.00010000 0.00000000 0.00000000)
        (0.99950000 0.00050000 0.00000000 0.00000000)))
        (((1.00000000 0.00000000 0.00000000 0.00000000)
        (1.00000000 0.00000000 0.00000000 0.00000000))
        ((0.99990000 0.00010000 0.00000000 0.00000000)
        (0.99950000 0.00050000 0.00000000 0.00000000)))
        (((1.00000000 0.00000000 0.00000000 0.00000000)
        (1.00000000 0.00000000 0.00000000 0.00000000))
        ((0.99990000 0.00010000 0.00000000 0.00000000)
        (0.99950000 0.00050000 0.00000000 0.00000000)))
        (((1.00000000 0.00000000 0.00000000 0.00000000)
        (1.00000000 0.00000000 0.00000000 0.00000000))
        ((0.99990000 0.00010000 0.00000000 0.00000000)
        (0.99950000 0.00050000 0.00000000 0.00000000)))
        (((1.00000000 0.00000000 0.00000000 0.00000000)
        (1.00000000 0.00000000 0.00000000 0.00000000))
        ((0.99990000 0.00010000 0.00000000 0.00000000)
        (0.99950000 0.00050000 0.00000000 0.00000000)))
        (((0.25000000 0.25000000 0.25000000 0.25000000)
        (0.25000000 0.25000000 0.25000000 0.25000000))
        ((0.95000000 0.05000000 0.00000000 0.00000000)
        (0.95000000 0.05000000 0.00000000 0.00000000)))
        (((0.25000000 0.25000000 0.25000000 0.25000000)
        (0.25000000 0.25000000 0.25000000 0.25000000))
        ((0.99950000 0.00050000 0.00000000 0.00000000)
        (0.99950000 0.00050000 0.00000000 0.00000000)))
        (((0.25000000 0.25000000 0.25000000 0.25000000)
        (0.25000000 0.25000000 0.25000000 0.25000000))
        ((0.93532338 0.04975124 0.00995025 0.00497512)
        (0.91542289 0.05970149 0.01990050 0.00497512)))
        (((0.25000000 0.25000000 0.25000000 0.25000000)
        (0.25000000 0.25000000 0.25000000 0.25000000))
        ((0.00000000 0.05000000 0.50000000 0.45000000)
        (0.00000000 0.05000000 0.45000000 0.50000000)))
        (((1.00000000 0.00000000 0.00000000 0.00000000)
        (1.00000000 0.00000000 0.00000000 0.00000000))
        ((0.99990000 0.00010000 0.00000000 0.00000000)
        (0.99950000 0.00050000 0.00000000 0.00000000)))
        (((1.00000000 0.00000000 0.00000000 0.00000000)
        (1.00000000 0.00000000 0.00000000 0.00000000))
        ((0.99990000 0.00010000 0.00000000 0.00000000)
        (0.99950000 0.00050000 0.00000000 0.00000000)))
        (((1.00000000 0.00000000 0.00000000 0.00000000)
        (1.00000000 0.00000000 0.00000000 0.00000000))
        ((0.99990000 0.00010000 0.00000000 0.00000000)
        (0.99950000 0.00050000 0.00000000 0.00000000)))
        (((0.25000000 0.25000000 0.25000000 0.25000000)
        (0.25000000 0.25000000 0.25000000 0.25000000))
        ((0.93990601 0.04999500 0.00999900 0.00009999)
        (0.93990601 0.04999500 0.00999900 0.00009999)))
        (((0.25000000 0.25000000 0.25000000 0.25000000)
        (0.25000000 0.25000000 0.25000000 0.25000000))
        ((0.99950000 0.00050000 0.00000000 0.00000000)
        (0.99950000 0.00050000 0.00000000 0.00000000)))
        (((1.00000000 0.00000000 0.00000000 0.00000000)
        (1.00000000 0.00000000 0.00000000 0.00000000))
        ((0.99990000 0.00010000 0.00000000 0.00000000)
        (0.99950000 0.00050000 0.00000000 0.00000000)))
        (((1.00000000 0.00000000 0.00000000 0.00000000)
        (1.00000000 0.00000000 0.00000000 0.00000000))
        ((0.99990000 0.00010000 0.00000000 0.00000000)
        (0.99950000 0.00050000 0.00000000 0.00000000)))
        (((1.00000000 0.00000000 0.00000000 0.00000000)
        (1.00000000 0.00000000 0.00000000 0.00000000))
        ((0.99990000 0.00010000 0.00000000 0.00000000)
        (0.99950000 0.00050000 0.00000000 0.00000000)))
        (((1.00000000 0.00000000 0.00000000 0.00000000)
        (1.00000000 0.00000000 0.00000000 0.00000000))
        ((0.99990000 0.00010000 0.00000000 0.00000000)
        (0.99950000 0.00050000 0.00000000 0.00000000)))
        (((1.00000000 0.00000000 0.00000000 0.00000000)
        (1.00000000 0.00000000 0.00000000 0.00000000))
        ((0.99990000 0.00010000 0.00000000 0.00000000)
        (0.99950000 0.00050000 0.00000000 0.00000000)))
        (((1.00000000 0.00000000 0.00000000 0.00000000)
        (1.00000000 0.00000000 0.00000000 0.00000000))
        ((0.99990000 0.00010000 0.00000000 0.00000000)
        (0.99950000 0.00050000 0.00000000 0.00000000)))
        (((1.00000000 0.00000000 0.00000000 0.00000000)
        (1.00000000 0.00000000 0.00000000 0.00000000))
        ((0.99990000 0.00010000 0.00000000 0.00000000)
        (0.99950000 0.00050000 0.00000000 0.00000000)))
        (((1.00000000 0.00000000 0.00000000 0.00000000)
        (1.00000000 0.00000000 0.00000000 0.00000000))
        ((0.99990000 0.00010000 0.00000000 0.00000000)
        (0.99950000 0.00050000 0.00000000 0.00000000)))
        (((1.00000000 0.00000000 0.00000000 0.00000000)
        (1.00000000 0.00000000 0.00000000 0.00000000))
        ((0.99990000 0.00010000 0.00000000 0.00000000)
        (0.99950000 0.00050000 0.00000000 0.00000000)))
        (((1.00000000 0.00000000 0.00000000 0.00000000)
        (1.00000000 0.00000000 0.00000000 0.00000000))
        ((0.99990000 0.00010000 0.00000000 0.00000000)
        (0.99950000 0.00050000 0.00000000 0.00000000)))
        (((0.25000000 0.25000000 0.25000000 0.25000000)
        (0.25000000 0.25000000 0.25000000 0.25000000))
        ((0.92000000 0.05000000 0.01000000 0.02000000)
        (0.90000000 0.06000000 0.02000000 0.02000000))));
}

potential (F90 | Fault)
{
    data = ((0.79920080 0.18981019 0.00999001 0.00099900)
        (0.79920080 0.18981019 0.00999001 0.00099900)
        (0.79920080 0.18981019 0.00999001 0.00099900)
        (0.75000000 0.20000000 0.04000000 0.01000000)
        (0.79920080 0.18981019 0.00999001 0.00099900)
        (0.79920080 0.18981019 0.00999001 0.00099900)
        (0.01000000 0.25000000 0.65000000 0.09000000)
        (0.79920080 0.18981019 0.00999001 0.00099900)
        (0.01000000 0.25000000 0.65000000 0.09000000)
        (0.79920080 0.18981019 0.00999001 0.00099900)
        (0.79920080 0.18981019 0.00999001 0.00099900)
        (0.20000000 0.60000000 0.15000000 0.05000000)
        (0.79920080 0.18981019 0.00999001 0.00099900)
        (0.79920080 0.18981019 0.00999001 0.00099900)
        (0.79920080 0.18981019 0.00999001 0.00099900)
        (0.79920080 0.18981019 0.00999001 0.00099900)
        (0.01000000 0.25000000 0.65000000 0.09000000)
        (0.01000000 0.25000000 0.65000000 0.09000000)
        (0.01000000 0.25000000 0.65000000 0.09000000)
        (0.79920080 0.18981019 0.00999001 0.00099900)
        (0.01000000 0.25000000 0.65000000 0.09000000)
        (0.01000000 0.25000000 0.65000000 0.09000000)
        (0.20000000 0.60000000 0.15000000 0.05000000)
        (0.79920080 0.18981019 0.00999001 0.00099900)
        (0.79920080 0.18981019 0.00999001 0.00099900)
        (0.70000000 0.20000000 0.09000000 0.01000000)
        (0.70000000 0.20000000 0.09000000 0.01000000)
        (0.01000000 0.10000000 0.40000000 0.49000000)
        (0.01000000 0.30000000 0.40000000 0.29000000)
        (0.01000000 0.20000000 0.39000000 0.40000000)
        (0.70000000 0.20000000 0.09000000 0.01000000)
        (0.70000000 0.20000000 0.09000000 0.01000000)
        (0.70000000 0.20000000 0.09000000 0.01000000)
        (0.70000000 0.20000000 0.09000000 0.01000000)
        (0.79920080 0.18981019 0.00999001 0.00099900)
        (0.79920080 0.18981019 0.00999001 0.00099900)
        (0.79920080 0.18981019 0.00999001 0.00099900)
        (0.79920080 0.18981019 0.00999001 0.00099900)
        (0.79920080 0.18981019 0.00999001 0.00099900)
        (0.79920080 0.18981019 0.00999001 0.00099900)
        (0.79920080 0.18981019 0.00999001 0.00099900)
        (0.79920080 0.18981019 0.00999001 0.00099900)
        (0.79920080 0.18981019 0.00999001 0.00099900)
        (0.79920080 0.18981019 0.00999001 0.00099900)
        (0.79920080 0.18981019 0.00999001 0.00099900)
        (0.79920080 0.18981019 0.00999001 0.00099900)
        (0.79920080 0.18981019 0.00999001 0.00099900)
        (0.79920080 0.18981019 0.00999001 0.00099900)
        (0.79920080 0.18981019 0.00999001 0.00099900)
        (0.79920080 0.18981019 0.00999001 0.00099900)
        (0.79920080 0.18981019 0.00999001 0.00099900)
        (0.79920080 0.18981019 0.00999001 0.00099900)
        (0.79920080 0.18981019 0.00999001 0.00099900)
        (0.79920080 0.18981019 0.00999001 0.00099900)
        (0.79920080 0.18981019 0.00999001 0.00099900)
        (0.79920080 0.18981019 0.00999001 0.00099900)
        (0.79920080 0.18981019 0.00999001 0.00099900)
        (0.79920080 0.18981019 0.00999001 0.00099900)
        (0.79920080 0.18981019 0.00999001 0.00099900)
        (0.79920080 0.18981019 0.00999001 0.00099900)
        (0.70000000 0.20000000 0.09000000 0.01000000)
        (0.79920080 0.18981019 0.00999001 0.00099900)
        (0.79920080 0.18981019 0.00999001 0.00099900));
}

potential (F21 | Fault F90)
{
    data = (((0.94905095 0.04995005 0.00099900)
        (0.94905095 0.04995005 0.00099900)
        (0.94905095 0.04995005 0.00099900)
        (0.94905095 0.04995005 0.00099900))
        ((0.80000000 0.15000000 0.05000000)
        (0.80000000 0.15000000 0.05000000)
        (0.80000000 0.15000000 0.05000000)
        (0.80000000 0.15000000 0.05000000))
        ((0.94905095 0.04995005 0.00099900)
        (0.94905095 0.04995005 0.00099900)
        (0.94905095 0.04995005 0.00099900)
        (0.94905095 0.04995005 0.00099900))
        ((0.94905095 0.04995005 0.00099900)
        (0.94905095 0.04995005 0.00099900)
        (0.94905095 0.04995005 0.00099900)
        (0.94905095 0.04995005 0.00099900))
        ((0.94905095 0.04995005 0.00099900)
        (0.94905095 0.04995005 0.00099900)
        (0.94905095 0.04995005 0.00099900)
        (0.94905095 0.04995005 0.00099900))
        ((0.94905095 0.04995005 0.00099900)
        (0.94905095 0.04995005 0.00099900)
        (0.94905095 0.04995005 0.00099900)
        (0.94905095 0.04995005 0.00099900))
        ((0.01000000 0.64000000 0.35000000)
        (0.01000000 0.64000000 0.35000000)
        (0.01000000 0.64000000 0.35000000)
        (0.01000000 0.64000000 0.35000000))
        ((0.94905095 0.04995005 0.00099900)
        (0.94905095 0.04995005 0.00099900)
        (0.94905095 0.04995005 0.00099900)
        (0.94905095 0.04995005 0.00099900))
        ((0.04761905 0.80952381 0.14285714)
        (0.04761905 0.80952381 0.14285714)
        (0.04761905 0.80952381 0.14285714)
        (0.04761905 0.80952381 0.14285714))
        ((0.94905095 0.04995005 0.00099900)
        (0.94905095 0.04995005 0.00099900)
        (0.94905095 0.04995005 0.00099900)
        (0.94905095 0.04995005 0.00099900))
        ((0.94905095 0.04995005 0.00099900)
        (0.94905095 0.04995005 0.00099900)
        (0.94905095 0.04995005 0.00099900)
        (0.94905095 0.04995005 0.00099900))
        ((0.94905095 0.04995005 0.00099900)
        (0.94905095 0.04995005 0.00099900)
        (0.94905095 0.04995005 0.00099900)
        (0.94905095 0.04995005 0.00099900))
        ((0.94905095 0.04995005 0.00099900)
        (0.94905095 0.04995005 0.00099900)
        (0.94905095 0.04995005 0.00099900)
        (0.94905095 0.04995005 0.00099900))
        ((0.94905095 0.04995005 0.00099900)
        (0.94905095 0.04995005 0.00099900)
        (0.94905095 0.04995005 0.00099900)
        (0.94905095 0.04995005 0.00099900))
        ((0.94905095 0.04995005 0.00099900)
        (0.94905095 0.04995005 0.00099900)
        (0.94905095 0.04995005 0.00099900)
        (0.94905095 0.04995005 0.00099900))
        ((0.94905095 0.04995005 0.00099900)
        (0.94905095 0.04995005 0.00099900)
        (0.94905095 0.04995005 0.00099900)
        (0.94905095 0.04995005 0.00099900))
        ((0.04761905 0.80952381 0.14285714)
        (0.04761905 0.80952381 0.14285714)
        (0.04761905 0.80952381 0.14285714)
        (0.04761905 0.80952381 0.14285714))
        ((0.40000000 0.55000000 0.05000000)
        (0.40000000 0.55000000 0.05000000)
        (0.40000000 0.55000000 0.05000000)
        (0.40000000 0.55000000 0.05000000))
        ((0.01000000 0.64000000 0.35000000)
        (0.01000000 0.64000000 0.35000000)
        (0.01000000 0.64000000 0.35000000)
        (0.01000000 0.64000000 0.35000000))
        ((0.94905095 0.04995005 0.00099900)
        (0.94905095 0.04995005 0.00099900)
        (0.94905095 0.04995005 0.00099900)
        (0.94905095 0.04995005 0.00099900))
        ((0.04761905 0.80952381 0.14285714)
        (0.04761905 0.80952381 0.14285714)
        (0.04761905 0.80952381 0.14285714)
        (0.04761905 0.80952381 0.14285714))
        ((0.94905095 0.04995005 0.00099900)
        (0.94905095 0.04995005 0.00099900)
        (0.94905095 0.04995005 0.00099900)
        (0.94905095 0.04995005 0.00099900))
        ((0.94905095 0.04995005 0.00099900)
        (0.94905095 0.04995005 0.00099900)
        (0.94905095 0.04995005 0.00099900)
        (0.94905095 0.04995005 0.00099900))
        ((0.94905095 0.04995005 0.00099900)
        (0.94905095 0.04995005 0.00099900)
        (0.94905095 0.04995005 0.00099900)
        (0.94905095 0.04995005 0.00099900))
        ((0.94905095 0.04995005 0.00099900)
        (0.94905095 0.04995005 0.00099900)
        (0.94905095 0.04995005 0.00099900)
        (0.94905095 0.04995005 0.00099900))
        ((0.94905095 0.04995005 0.00099900)
        (0.94905095 0.04995005 0.00099900)
        (0.94905095 0.04995005 0.00099900)
        (0.94905095 0.04995005 0.00099900))
        ((0.94905095 0.04995005 0.00099900)
        (0.94905095 0.04995005 0.00099900)
        (0.94905095 0.04995005 0.00099900)
        (0.94905095 0.04995005 0.00099900))
        ((0.00000000 0.95000000 0.05000000)
        (0.00000000 0.70000000 0.30000000)
        (0.00000000 0.60000000 0.40000000)
        (0.00000000 0.45000000 0.55000000))
        ((0.95000000 0.05000000 0.00000000)
        (0.95000000 0.05000000 0.00000000)
        (0.95000000 0.05000000 0.00000000)
        (0.95000000 0.05000000 0.00000000))
        ((0.00000000 0.98000000 0.02000000)
        (0.00000000 0.85000000 0.15000000)
        (0.00000000 0.65000000 0.35000000)
        (0.00000000 0.60000000 0.40000000))
        ((0.85000000 0.14000000 0.01000000)
        (0.85000000 0.14000000 0.01000000)
        (0.85000000 0.14000000 0.01000000)
        (0.85000000 0.14000000 0.01000000))
        ((0.94905095 0.04995005 0.00099900)
        (0.94905095 0.04995005 0.00099900)
        (0.94905095 0.04995005 0.00099900)
        (0.94905095 0.04995005 0.00099900))
        ((0.10000000 0.70000000 0.20000000)
        (0.10000000 0.70000000 0.20000000)
        (0.10000000 0.70000000 0.20000000)
        (0.10000000 0.70000000 0.20000000))
        ((0.94905095 0.04995005 0.00099900)
        (0.94905095 0.04995005 0.00099900)
        (0.94905095 0.04995005 0.00099900)
        (0.94905095 0.04995005 0.00099900))
        ((0.94905095 0.04995005 0.00099900)
        (0.94905095 0.04995005 0.00099900)
        (0.94905095 0.04995005 0.00099900)
        (0.94905095 0.04995005 0.00099900))
        ((0.94905095 0.04995005 0.00099900)
        (0.94905095 0.04995005 0.00099900)
        (0.94905095 0.04995005 0.00099900)
        (0.94905095 0.04995005 0.00099900))
        ((0.94905095 0.04995005 0.00099900)
        (0.94905095 0.04995005 0.00099900)
        (0.94905095 0.04995005 0.00099900)
        (0.94905095 0.04995005 0.00099900))
        ((0.94905095 0.04995005 0.00099900)
        (0.94905095 0.04995005 0.00099900)
        (0.94905095 0.04995005 0.00099900)
        (0.94905095 0.04995005 0.00099900))
        ((0.94905095 0.04995005 0.00099900)
        (0.94905095 0.04995005 0.00099900)
        (0.94905095 0.04995005 0.00099900)
        (0.94905095 0.04995005 0.00099900))
        ((0.94905095 0.04995005 0.00099900)
        (0.94905095 0.04995005 0.00099900)
        (0.94905095 0.04995005 0.00099900)
        (0.94905095 0.04995005 0.00099900))
        ((0.94905095 0.04995005 0.00099900)
        (0.94905095 0.04995005 0.00099900)
        (0.94905095 0.04995005 0.00099900)
        (0.94905095 0.04995005 0.00099900))
        ((0.80000000 0.15000000 0.05000000)
        (0.80000000 0.15000000 0.05000000)
        (0.80000000 0.15000000 0.05000000)
        (0.80000000 0.15000000 0.05000000))
        ((0.80000000 0.15000000 0.05000000)
        (0.80000000 0.15000000 0.05000000)
        (0.80000000 0.15000000 0.05000000)
        (0.80000000 0.15000000 0.05000000))
        ((0.80000000 0.15000000 0.05000000)
        (0.80000000 0.15000000 0.05000000)
        (0.80000000 0.15000000 0.05000000)
        (0.80000000 0.15000000 0.05000000))
        ((0.94905095 0.04995005 0.00099900)
        (0.94905095 0.04995005 0.00099900)
        (0.94905095 0.04995005 0.00099900)
        (0.94905095 0.04995005 0.00099900))
        ((0.15000000 0.75000000 0.10000000)
        (0.15000000 0.75000000 0.10000000)
        (0.15000000 0.75000000 0.10000000)
        (0.15000000 0.75000000 0.10000000))
        ((0.94905095 0.04995005 0.00099900)
        (0.94905095 0.04995005 0.00099900)
        (0.94905095 0.04995005 0.00099900)
        (0.94905095 0.04995005 0.00099900))
        ((0.94905095 0.04995005 0.00099900)
        (0.94905095 0.04995005 0.00099900)
        (0.94905095 0.04995005 0.00099900)
        (0.94905095 0.04995005 0.00099900))
        ((0.94905095 0.04995005 0.00099900)
        (0.94905095 0.04995005 0.00099900)
        (0.94905095 0.04995005 0.00099900)
        (0.94905095 0.04995005 0.00099900))
        ((0.94905095 0.04995005 0.00099900)
        (0.94905095 0.04995005 0.00099900)
        (0.94905095 0.04995005 0.00099900)
        (0.94905095 0.04995005 0.00099900))
        ((0.94905095 0.04995005 0.00099900)
        (0.94905095 0.04995005 0.00099900)
        (0.94905095 0.04995005 0.00099900)
        (0.94905095 0.04995005 0.00099900))
        ((0.94905095 0.04995005 0.00099900)
        (0.94905095 0.04995005 0.00099900)
        (0.94905095 0.04995005 0.00099900)
        (0.94905095 0.04995005 0.00099900))
        ((0.94905095 0.04995005 0.00099900)
        (0.94905095 0.04995005 0.00099900)
        (0.94905095 0.04995005 0.00099900)
        (0.94905095 0.04995005 0.00099900))
        ((0.94905095 0.04995005 0.00099900)
        (0.94905095 0.04995005 0.00099900)
        (0.94905095 0.04995005 0.00099900)
        (0.94905095 0.04995005 0.00099900))
        ((0.94905095 0.04995005 0.00099900)
        (0.94905095 0.04995005 0.00099900)
        (0.94905095 0.04995005 0.00099900)
        (0.94905095 0.04995005 0.00099900))
        ((0.94905095 0.04995005 0.00099900)
        (0.94905095 0.04995005 0.00099900)
        (0.94905095 0.04995005 0.00099900)
        (0.94905095 0.04995005 0.00099900))
        ((0.94905095 0.04995005 0.00099900)
        (0.94905095 0.04995005 0.00099900)
        (0.94905095 0.04995005 0.00099900)
        (0.94905095 0.04995005 0.00099900))
        ((0.94905095 0.04995005 0.00099900)
        (0.94905095 0.04995005 0.00099900)
        (0.94905095 0.04995005 0.00099900)
        (0.94905095 0.04995005 0.00099900))
        ((0.94905095 0.04995005 0.00099900)
        (0.94905095 0.04995005 0.00099900)
        (0.94905095 0.04995005 0.00099900)
        (0.94905095 0.04995005 0.00099900))
        ((0.94905095 0.04995005 0.00099900)
        (0.94905095 0.04995005 0.00099900)
        (0.94905095 0.04995005 0.00099900)
        (0.94905095 0.04995005 0.00099900))
        ((0.09523810 0.76190476 0.14285714)
        (0.09523810 0.76190476 0.14285714)
        (0.09523810 0.76190476 0.14285714)
        (0.09523810 0.76190476 0.14285714))
        ((0.94905095 0.04995005 0.00099900)
        (0.94905095 0.04995005 0.00099900)
        (0.94905095 0.04995005 0.00099900)
        (0.94905095 0.04995005 0.00099900))
        ((0.15000000 0.75000000 0.10000000)
        (0.15000000 0.75000000 0.10000000)
        (0.15000000 0.75000000 0.10000000)
        (0.15000000 0.75000000 0.10000000)));
}

potential (F59 | Fault)
{
    data = ((1.00000000 0.00000000)
        (1.00000000 0.00000000)
        (1.00000000 0.00000000)
        (1.00000000 0.00000000)
        (1.00000000 0.00000000)
        (1.00000000 0.00000000)
        (1.00000000 0.00000000)
        (1.00000000 0.00000000)
        (1.00000000 0.00000000)
        (1.00000000 0.00000000)
        (1.00000000 0.00000000)
        (1.00000000 0.00000000)
        (1.00000000 0.00000000)
        (1.00000000 0.00000000)
        (1.00000000 0.00000000)
        (1.00000000 0.00000000)
        (1.00000000 0.00000000)
        (1.00000000 0.00000000)
        (1.00000000 0.00000000)
        (1.00000000 0.00000000)
        (1.00000000 0.00000000)
        (1.00000000 0.00000000)
        (1.00000000 0.00000000)
        (1.00000000 0.00000000)
        (0.00000000 1.00000000)
        (1.00000000 0.00000000)
        (1.00000000 0.00000000)
        (1.00000000 0.00000000)
        (1.00000000 0.00000000)
        (1.00000000 0.00000000)
        (1.00000000 0.00000000)
        (1.00000000 0.00000000)
        (1.00000000 0.00000000)
        (1.00000000 0.00000000)
        (1.00000000 0.00000000)
        (1.00000000 0.00000000)
        (1.00000000 0.00000000)
        (1.00000000 0.00000000)
        (1.00000000 0.00000000)
        (1.00000000 0.00000000)
        (1.00000000 0.00000000)
        (1.00000000 0.00000000)
        (1.00000000 0.00000000)
        (1.00000000 0.00000000)
        (1.00000000 0.00000000)
        (1.00000000 0.00000000)
        (1.00000000 0.00000000)
        (1.00000000 0.00000000)
        (1.00000000 0.00000000)
        (1.00000000 0.00000000)
        (1.00000000 0.00000000)
        (1.00000000 0.00000000)
        (1.00000000 0.00000000)
        (1.00000000 0.00000000)
        (1.00000000 0.00000000)
        (1.00000000 0.00000000)
        (1.00000000 0.00000000)
        (1.00000000 0.00000000)
        (1.00000000 0.00000000)
        (1.00000000 0.00000000)
        (1.00000000 0.00000000)
        (1.00000000 0.00000000)
        (1.00000000 0.00000000));
}

potential (F72 | Fault)
{
    data = ((0.00000000 1.00000000)
        (0.00000000 1.00000000)
        (0.00000000 1.00000000)
        (0.00000000 1.00000000)
        (0.00000000 1.00000000)
        (0.00000000 1.00000000)
        (0.00000000 1.00000000)
        (0.00000000 1.00000000)
        (0.00000000 1.00000000)
        (0.00000000 1.00000000)
        (0.00000000 1.00000000)
        (0.00000000 1.00000000)
        (0.00000000 1.00000000)
        (0.00000000 1.00000000)
        (0.00000000 1.00000000)
        (0.00000000 1.00000000)
        (0.00000000 1.00000000)
        (0.00000000 1.00000000)
        (0.00000000 1.00000000)
        (0.00000000 1.00000000)
        (0.00000000 1.00000000)
        (0.00000000 1.00000000)
        (0.01000000 0.99000000)
        (0.00000000 1.00000000)
        (0.00000000 1.00000000)
        (0.00000000 1.00000000)
        (0.00000000 1.00000000)
        (0.00000000 1.00000000)
        (0.00000000 1.00000000)
        (0.00000000 1.00000000)
        (0.00000000 1.00000000)
        (0.00000000 1.00000000)
        (0.00000000 1.00000000)
        (0.00000000 1.00000000)
        (0.00000000 1.00000000)
        (0.00000000 1.00000000)
        (0.00000000 1.00000000)
        (0.00000000 1.00000000)
        (0.00000000 1.00000000)
        (0.00000000 1.00000000)
        (0.00000000 1.00000000)
        (0.00000000 1.00000000)
        (0.00000000 1.00000000)
        (0.00000000 1.00000000)
        (0.00000000 1.00000000)
        (0.00000000 1.00000000)
        (0.00000000 1.00000000)
        (0.00000000 1.00000000)
        (0.00000000 1.00000000)
        (0.00000000 1.00000000)
        (0.00000000 1.00000000)
        (0.00000000 1.00000000)
        (0.00000000 1.00000000)
        (0.00000000 1.00000000)
        (0.00000000 1.00000000)
        (0.00000000 1.00000000)
        (0.00000000 1.00000000)
        (0.00000000 1.00000000)
        (0.00000000 1.00000000)
        (0.01000000 0.99000000)
        (0.00000000 1.00000000)
        (0.00000000 1.00000000)
        (0.00000000 1.00000000));
}

potential (F77 | Fault)
{
    data = ((1.00000000 0.00000000)
        (1.00000000 0.00000000)
        (1.00000000 0.00000000)
        (1.00000000 0.00000000)
        (1.00000000 0.00000000)
        (1.00000000 0.00000000)
        (1.00000000 0.00000000)
        (1.00000000 0.00000000)
        (1.00000000 0.00000000)
        (1.00000000 0.00000000)
        (1.00000000 0.00000000)
        (1.00000000 0.00000000)
        (1.00000000 0.00000000)
        (1.00000000 0.00000000)
        (1.00000000 0.00000000)
        (1.00000000 0.00000000)
        (1.00000000 0.00000000)
        (1.00000000 0.00000000)
        (1.00000000 0.00000000)
        (1.00000000 0.00000000)
        (1.00000000 0.00000000)
        (1.00000000 0.00000000)
        (1.00000000 0.00000000)
        (1.00000000 0.00000000)
        (1.00000000 0.00000000)
        (1.00000000 0.00000000)
        (1.00000000 0.00000000)
        (1.00000000 0.00000000)
        (1.00000000 0.00000000)
        (1.00000000 0.00000000)
        (1.00000000 0.00000000)
        (1.00000000 0.00000000)
        (1.00000000 0.00000000)
        (1.00000000 0.00000000)
        (1.00000000 0.00000000)
        (1.00000000 0.00000000)
        (1.00000000 0.00000000)
        (1.00000000 0.00000000)
        (1.00000000 0.00000000)
        (1.00000000 0.00000000)
        (1.00000000 0.00000000)
        (1.00000000 0.00000000)
        (1.00000000 0.00000000)
        (1.00000000 0.00000000)
        (1.00000000 0.00000000)
        (1.00000000 0.00000000)
        (1.00000000 0.00000000)
        (1.00000000 0.00000000)
        (1.00000000 0.00000000)
        (1.00000000 0.00000000)
        (1.00000000 0.00000000)
        (1.00000000 0.00000000)
        (1.00000000 0.00000000)
        (1.00000000 0.00000000)
        (1.00000000 0.00000000)
        (1.00000000 0.00000000)
        (1.00000000 0.00000000)
        (1.00000000 0.00000000)
        (1.00000000 0.00000000)
        (0.10000000 0.90000000)
        (1.00000000 0.00000000)
        (1.00000000 0.00000000)
        (1.00000000 0.00000000));
}

potential (F100 | Fault F97 F4)
{
    data = ((((1.00000000 0.00000000 0.00000000 0.00000000 0.00000000)
        (1.00000000 0.00000000 0.00000000 0.00000000 0.00000000)
        (1.00000000 0.00000000 0.00000000 0.00000000 0.00000000))
        ((1.00000000 0.00000000 0.00000000 0.00000000 0.00000000)
        (0.00000000 0.94000000 0.03000000 0.02000000 0.01000000)
        (0.00000000 0.88000000 0.06000000 0.04000000 0.02000000)))
        (((1.00000000 0.00000000 0.00000000 0.00000000 0.00000000)
        (1.00000000 0.00000000 0.00000000 0.00000000 0.00000000)
        (1.00000000 0.00000000 0.00000000 0.00000000 0.00000000))
        ((1.00000000 0.00000000 0.00000000 0.00000000 0.00000000)
        (0.00000000 0.99890021 0.00099890 0.00009989 0.00000100)
        (0.00000000 0.99780284 0.00199561 0.00019956 0.00000200)))
        (((1.00000000 0.00000000 0.00000000 0.00000000 0.00000000)
        (1.00000000 0.00000000 0.00000000 0.00000000 0.00000000)
        (1.00000000 0.00000000 0.00000000 0.00000000 0.00000000))
        ((1.00000000 0.00000000 0.00000000 0.00000000 0.00000000)
        (0.00000000 0.96903097 0.01998002 0.00999001 0.00099900)
        (0.00000000 0.93812375 0.03992016 0.01996008 0.00199601)))
        (((1.00000000 0.00000000 0.00000000 0.00000000 0.00000000)
        (1.00000000 0.00000000 0.00000000 0.00000000 0.00000000)
        (1.00000000 0.00000000 0.00000000 0.00000000 0.00000000))
        ((1.00000000 0.00000000 0.00000000 0.00000000 0.00000000)
        (0.00000000 0.96517413 0.01990050 0.00995025 0.00497512)
        (0.00000000 0.93000000 0.04000000 0.02000000 0.01000000)))
        (((1.00000000 0.00000000 0.00000000 0.00000000 0.00000000)
        (1.00000000 0.00000000 0.00000000 0.00000000 0.00000000)
        (1.00000000 0.00000000 0.00000000 0.00000000 0.00000000))
        ((1.00000000 0.00000000 0.00000000 0.00000000 0.00000000)
        (0.00000000 0.96517413 0.01990050 0.00995025 0.00497512)
        (0.00000000 0.93000000 0.04000000 0.02000000 0.01000000)))
        (((1.00000000 0.00000000 0.00000000 0.00000000 0.00000000)
        (1.00000000 0.00000000 0.00000000 0.00000000 0.00000000)
        (1.00000000 0.00000000 0.00000000 0.00000000 0.00000000))
        ((1.00000000 0.00000000 0.00000000 0.00000000 0.00000000)
        (0.00000000 0.70000000 0.15000000 0.10000000 0.05000000)
        (0.00000000 0.40000000 0.30000000 0.20000000 0.10000000)))
        (((1.00000000 0.00000000 0.00000000 0.00000000 0.00000000)
        (1.00000000 0.00000000 0.00000000 0.00000000 0.00000000)
        (1.00000000 0.00000000 0.00000000 0.00000000 0.00000000))
        ((1.00000000 0.00000000 0.00000000 0.00000000 0.00000000)
        (0.00000000 0.99890021 0.00099890 0.00009989 0.00000100)
        (0.00000000 0.99780284 0.00199561 0.00019956 0.00000200)))
        (((1.00000000 0.00000000 0.00000000 0.00000000 0.00000000)
        (1.00000000 0.00000000 0.00000000 0.00000000 0.00000000)
        (1.00000000 0.00000000 0.00000000 0.00000000 0.00000000))
        ((1.00000000 0.00000000 0.00000000 0.00000000 0.00000000)
        (0.00000000 0.92000000 0.05000000 0.02000000 0.01000000)
        (0.00000000 0.84000000 0.10000000 0.04000000 0.02000000)))
        (((1.00000000 0.00000000 0.00000000 0.00000000 0.00000000)
        (1.00000000 0.00000000 0.00000000 0.00000000 0.00000000)
        (1.00000000 0.00000000 0.00000000 0.00000000 0.00000000))
        ((1.00000000 0.00000000 0.00000000 0.00000000 0.00000000)
        (0.00000000 0.96517413 0.01990050 0.00995025 0.00497512)
        (0.00000000 0.93000000 0.04000000 0.02000000 0.01000000)))
        (((1.00000000 0.00000000 0.00000000 0.00000000 0.00000000)
        (1.00000000 0.00000000 0.00000000 0.00000000 0.00000000)
        (1.00000000 0.00000000 0.00000000 0.00000000 0.00000000))
        ((1.00000000 0.00000000 0.00000000 0.00000000 0.00000000)
        (0.00000000 0.96903097 0.01998002 0.00999001 0.00099900)
        (0.00000000 0.93812375 0.03992016 0.01996008 0.00199601)))
        (((1.00000000 0.00000000 0.00000000 0.00000000 0.00000000)
        (1.00000000 0.00000000 0.00000000 0.00000000 0.00000000)
        (1.00000000 0.00000000 0.00000000 0.00000000 0.00000000))
        ((1.00000000 0.00000000 0.00000000 0.00000000 0.00000000)
        (0.00000000 0.96517413 0.01990050 0.00995025 0.00497512)
        (0.00000000 0.93000000 0.04000000 0.02000000 0.01000000)))
        (((1.00000000 0.00000000 0.00000000 0.00000000 0.00000000)
        (1.00000000 0.00000000 0.00000000 0.00000000 0.00000000)
        (1.00000000 0.00000000 0.00000000 0.00000000 0.00000000))
        ((1.00000000 0.00000000 0.00000000 0.00000000 0.00000000)
        (0.00000000 0.96903097 0.01998002 0.00999001 0.00099900)
        (0.00000000 0.93812375 0.03992016 0.01996008 0.00199601)))
        (((1.00000000 0.00000000 0.00000000 0.00000000 0.00000000)
        (1.00000000 0.00000000 0.00000000 0.00000000 0.00000000)
        (1.00000000 0.00000000 0.00000000 0.00000000 0.00000000))
        ((1.00000000 0.00000000 0.00000000 0.00000000 0.00000000)
        (0.00000000 0.96903097 0.01998002 0.00999001 0.00099900)
        (0.00000000 0.93812375 0.03992016 0.01996008 0.00199601)))
        (((1.00000000 0.00000000 0.00000000 0.00000000 0.00000000)
        (1.00000000 0.00000000 0.00000000 0.00000000 0.00000000)
        (1.00000000 0.00000000 0.00000000 0.00000000 0.00000000))
        ((1.00000000 0.00000000 0.00000000 0.00000000 0.00000000)
        (0.00000000 0.96903097 0.01998002 0.00999001 0.00099900)
        (0.00000000 0.93812375 0.03992016 0.01996008 0.00199601)))
        (((1.00000000 0.00000000 0.00000000 0.00000000 0.00000000)
        (1.00000000 0.00000000 0.00000000 0.00000000 0.00000000)
        (1.00000000 0.00000000 0.00000000 0.00000000 0.00000000))
        ((1.00000000 0.00000000 0.00000000 0.00000000 0.00000000)
        (0.00000000 0.96517413 0.01990050 0.00995025 0.00497512)
        (0.00000000 0.93000000 0.04000000 0.02000000 0.01000000)))
        (((1.00000000 0.00000000 0.00000000 0.00000000 0.00000000)
        (1.00000000 0.00000000 0.00000000 0.00000000 0.00000000)
        (1.00000000 0.00000000 0.00000000 0.00000000 0.00000000))
        ((1.00000000 0.00000000 0.00000000 0.00000000 0.00000000)
        (0.00000000 0.96517413 0.01990050 0.00995025 0.00497512)
        (0.00000000 0.93000000 0.04000000 0.02000000 0.01000000)))
        (((1.00000000 0.00000000 0.00000000 0.00000000 0.00000000)
        (1.00000000 0.00000000 0.00000000 0.00000000 0.00000000)
        (1.00000000 0.00000000 0.00000000 0.00000000 0.00000000))
        ((1.00000000 0.00000000 0.00000000 0.00000000 0.00000000)
        (0.00000000 0.92000000 0.05000000 0.02000000 0.01000000)
        (0.00000000 0.84000000 0.10000000 0.04000000 0.02000000)))
        (((1.00000000 0.00000000 0.00000000 0.00000000 0.00000000)
        (1.00000000 0.00000000 0.00000000 0.00000000 0.00000000)
        (1.00000000 0.00000000 0.00000000 0.00000000 0.00000000))
        ((1.00000000 0.00000000 0.00000000 0.00000000 0.00000000)
        (0.00000000 0.96903097 0.01998002 0.00999001 0.00099900)
        (0.00000000 0.93812375 0.03992016 0.01996008 0.00199601)))
        (((1.00000000 0.00000000 0.00000000 0.00000000 0.00000000)
        (1.00000000 0.00000000 0.00000000 0.00000000 0.00000000)
        (1.00000000 0.00000000 0.00000000 0.00000000 0.00000000))
        ((1.00000000 0.00000000 0.00000000 0.00000000 0.00000000)
        (0.00000000 0.96903097 0.01998002 0.00999001 0.00099900)
        (0.00000000 0.93812375 0.03992016 0.01996008 0.00199601)))
        (((1.00000000 0.00000000 0.00000000 0.00000000 0.00000000)
        (1.00000000 0.00000000 0.00000000 0.00000000 0.00000000)
        (1.00000000 0.00000000 0.00000000 0.00000000 0.00000000))
        ((1.00000000 0.00000000 0.00000000 0.00000000 0.00000000)
        (0.00000000 0.96903097 0.01998002 0.00999001 0.00099900)
        (0.00000000 0.93812375 0.03992016 0.01996008 0.00199601)))
        (((1.00000000 0.00000000 0.00000000 0.00000000 0.00000000)
        (1.00000000 0.00000000 0.00000000 0.00000000 0.00000000)
        (1.00000000 0.00000000 0.00000000 0.00000000 0.00000000))
        ((1.00000000 0.00000000 0.00000000 0.00000000 0.00000000)
        (0.00000000 0.99889123 0.00099889 0.00009989 0.00000999)
        (0.00000000 0.99778492 0.00199557 0.00019956 0.00001996)))
        (((1.00000000 0.00000000 0.00000000 0.00000000 0.00000000)
        (1.00000000 0.00000000 0.00000000 0.00000000 0.00000000)
        (1.00000000 0.00000000 0.00000000 0.00000000 0.00000000))
        ((1.00000000 0.00000000 0.00000000 0.00000000 0.00000000)
        (0.00000000 0.99889123 0.00099889 0.00009989 0.00000999)
        (0.00000000 0.99778492 0.00199557 0.00019956 0.00001996)))
        (((1.00000000 0.00000000 0.00000000 0.00000000 0.00000000)
        (1.00000000 0.00000000 0.00000000 0.00000000 0.00000000)
        (1.00000000 0.00000000 0.00000000 0.00000000 0.00000000))
        ((1.00000000 0.00000000 0.00000000 0.00000000 0.00000000)
        (0.00000000 0.96903097 0.01998002 0.00999001 0.00099900)
        (0.00000000 0.93812375 0.03992016 0.01996008 0.00199601)))
        (((1.00000000 0.00000000 0.00000000 0.00000000 0.00000000)
        (1.00000000 0.00000000 0.00000000 0.00000000 0.00000000)
        (1.00000000 0.00000000 0.00000000 0.00000000 0.00000000))
        ((1.00000000 0.00000000 0.00000000 0.00000000 0.00000000)
        (0.00000000 0.96517413 0.01990050 0.00995025 0.00497512)
        (0.00000000 0.93000000 0.04000000 0.02000000 0.01000000)))
        (((1.00000000 0.00000000 0.00000000 0.00000000 0.00000000)
        (1.00000000 0.00000000 0.00000000 0.00000000 0.00000000)
        (1.00000000 0.00000000 0.00000000 0.00000000 0.00000000))
        ((1.00000000 0.00000000 0.00000000 0.00000000 0.00000000)
        (0.00000000 0.96903097 0.01998002 0.00999001 0.00099900)
        (0.00000000 0.93812375 0.03992016 0.01996008 0.00199601)))
        (((1.00000000 0.00000000 0.00000000 0.00000000 0.00000000)
        (1.00000000 0.00000000 0.00000000 0.00000000 0.00000000)
        (1.00000000 0.00000000 0.00000000 0.00000000 0.00000000))
        ((1.00000000 0.00000000 0.00000000 0.00000000 0.00000000)
        (0.00000000 0.99890021 0.00099890 0.00009989 0.00000100)
        (0.00000000 0.99780284 0.00199561 0.00019956 0.00000200)))
        (((1.00000000 0.00000000 0.00000000 0.00000000 0.00000000)
        (1.00000000 0.00000000 0.00000000 0.00000000 0.00000000)
        (1.00000000 0.00000000 0.00000000 0.00000000 0.00000000))
        ((1.00000000 0.00000000 0.00000000 0.00000000 0.00000000)
        (0.00000000 0.99890021 0.00099890 0.00009989 0.00000100)
        (0.00000000 0.99780284 0.00199561 0.00019956 0.00000200)))
        (((1.00000000 0.00000000 0.00000000 0.00000000 0.00000000)
        (1.00000000 0.00000000 0.00000000 0.00000000 0.00000000)
        (1.00000000 0.00000000 0.00000000 0.00000000 0.00000000))
        ((1.00000000 0.00000000 0.00000000 0.00000000 0.00000000)
        (0.00000000 0.99890021 0.00099890 0.00009989 0.00000100)
        (0.00000000 0.99780284 0.00199561 0.00019956 0.00000200)))
        (((1.00000000 0.00000000 0.00000000 0.00000000 0.00000000)
        (1.00000000 0.00000000 0.00000000 0.00000000 0.00000000)
        (1.00000000 0.00000000 0.00000000 0.00000000 0.00000000))
        ((1.00000000 0.00000000 0.00000000 0.00000000 0.00000000)
        (0.00000000 0.99890021 0.00099890 0.00009989 0.00000100)
        (0.00000000 0.99780284 0.00199561 0.00019956 0.00000200)))
        (((1.00000000 0.00000000 0.00000000 0.00000000 0.00000000)
        (1.00000000 0.00000000 0.00000000 0.00000000 0.00000000)
        (1.00000000 0.00000000 0.00000000 0.00000000 0.00000000))
        ((1.00000000 0.00000000 0.00000000 0.00000000 0.00000000)
        (0.00000000 0.99890021 0.00099890 0.00009989 0.00000100)
        (0.00000000 0.99780284 0.00199561 0.00019956 0.00000200)))
        (((1.00000000 0.00000000 0.00000000 0.00000000 0.00000000)
        (1.00000000 0.00000000 0.00000000 0.00000000 0.00000000)
        (1.00000000 0.00000000 0.00000000 0.00000000 0.00000000))
        ((1.00000000 0.00000000 0.00000000 0.00000000 0.00000000)
        (0.00000000 0.99890021 0.00099890 0.00009989 0.00000100)
        (0.00000000 0.99780284 0.00199561 0.00019956 0.00000200)))
        (((1.00000000 0.00000000 0.00000000 0.00000000 0.00000000)
        (1.00000000 0.00000000 0.00000000 0.00000000 0.00000000)
        (1.00000000 0.00000000 0.00000000 0.00000000 0.00000000))
        ((1.00000000 0.00000000 0.00000000 0.00000000 0.00000000)
        (0.00000000 0.99890021 0.00099890 0.00009989 0.00000100)
        (0.00000000 0.99780284 0.00199561 0.00019956 0.00000200)))
        (((1.00000000 0.00000000 0.00000000 0.00000000 0.00000000)
        (1.00000000 0.00000000 0.00000000 0.00000000 0.00000000)
        (1.00000000 0.00000000 0.00000000 0.00000000 0.00000000))
        ((1.00000000 0.00000000 0.00000000 0.00000000 0.00000000)
        (0.00000000 0.99890021 0.00099890 0.00009989 0.00000100)
        (0.00000000 0.99780284 0.00199561 0.00019956 0.00000200)))
        (((1.00000000 0.00000000 0.00000000 0.00000000 0.00000000)
        (1.00000000 0.00000000 0.00000000 0.00000000 0.00000000)
        (1.00000000 0.00000000 0.00000000 0.00000000 0.00000000))
        ((1.00000000 0.00000000 0.00000000 0.00000000 0.00000000)
        (0.00000000 0.99890021 0.00099890 0.00009989 0.00000100)
        (0.00000000 0.99780284 0.00199561 0.00019956 0.00000200)))
        (((1.00000000 0.00000000 0.00000000 0.00000000 0.00000000)
        (1.00000000 0.00000000 0.00000000 0.00000000 0.00000000)
        (1.00000000 0.00000000 0.00000000 0.00000000 0.00000000))
        ((1.00000000 0.00000000 0.00000000 0.00000000 0.00000000)
        (0.00000000 0.98891220 0.00998901 0.00099890 0.00009989)
        (0.00000000 0.97784873 0.01995610 0.00199561 0.00019956)))
        (((1.00000000 0.00000000 0.00000000 0.00000000 0.00000000)
        (1.00000000 0.00000000 0.00000000 0.00000000 0.00000000)
        (1.00000000 0.00000000 0.00000000 0.00000000 0.00000000))
        ((1.00000000 0.00000000 0.00000000 0.00000000 0.00000000)
        (0.00000000 0.98891220 0.00998901 0.00099890 0.00009989)
        (0.00000000 0.97784873 0.01995610 0.00199561 0.00019956)))
        (((1.00000000 0.00000000 0.00000000 0.00000000 0.00000000)
        (1.00000000 0.00000000 0.00000000 0.00000000 0.00000000)
        (1.00000000 0.00000000 0.00000000 0.00000000 0.00000000))
        ((1.00000000 0.00000000 0.00000000 0.00000000 0.00000000)
        (0.00000000 0.96517413 0.01990050 0.00995025 0.00497512)
        (0.00000000 0.93000000 0.04000000 0.02000000 0.01000000)))
        (((1.00000000 0.00000000 0.00000000 0.00000000 0.00000000)
        (1.00000000 0.00000000 0.00000000 0.00000000 0.00000000)
        (1.00000000 0.00000000 0.00000000 0.00000000 0.00000000))
        ((1.00000000 0.00000000 0.00000000 0.00000000 0.00000000)
        (0.00000000 0.92000000 0.05000000 0.02000000 0.01000000)
        (0.00000000 0.84000000 0.10000000 0.04000000 0.02000000)))
        (((1.00000000 0.00000000 0.00000000 0.00000000 0.00000000)
        (1.00000000 0.00000000 0.00000000 0.00000000 0.00000000)
        (1.00000000 0.00000000 0.00000000 0.00000000 0.00000000))
        ((1.00000000 0.00000000 0.00000000 0.00000000 0.00000000)
        (0.00000000 0.99890021 0.00099890 0.00009989 0.00000100)
        (0.00000000 0.99780284 0.00199561 0.00019956 0.00000200)))
        (((1.00000000 0.00000000 0.00000000 0.00000000 0.00000000)
        (1.00000000 0.00000000 0.00000000 0.00000000 0.00000000)
        (1.00000000 0.00000000 0.00000000 0.00000000 0.00000000))
        ((1.00000000 0.00000000 0.00000000 0.00000000 0.00000000)
        (0.00000000 0.99890021 0.00099890 0.00009989 0.00000100)
        (0.00000000 0.99780284 0.00199561 0.00019956 0.00000200)))
        (((1.00000000 0.00000000 0.00000000 0.00000000 0.00000000)
        (1.00000000 0.00000000 0.00000000 0.00000000 0.00000000)
        (1.00000000 0.00000000 0.00000000 0.00000000 0.00000000))
        ((1.00000000 0.00000000 0.00000000 0.00000000 0.00000000)
        (0.00000000 0.96903097 0.01998002 0.00999001 0.00099900)
        (0.00000000 0.93812375 0.03992016 0.01996008 0.00199601)))
        (((1.00000000 0.00000000 0.00000000 0.00000000 0.00000000)
        (1.00000000 0.00000000 0.00000000 0.00000000 0.00000000)
        (1.00000000 0.00000000 0.00000000 0.00000000 0.00000000))
        ((1.00000000 0.00000000 0.00000000 0.00000000 0.00000000)
        (0.00000000 0.99890021 0.00099890 0.00009989 0.00000100)
        (0.00000000 0.99780284 0.00199561 0.00019956 0.00000200)))
        (((1.00000000 0.00000000 0.00000000 0.00000000 0.00000000)
        (1.00000000 0.00000000 0.00000000 0.00000000 0.00000000)
        (1.00000000 0.00000000 0.00000000 0.00000000 0.00000000))
        ((1.00000000 0.00000000 0.00000000 0.00000000 0.00000000)
        (0.00000000 0.99890021 0.00099890 0.00009989 0.00000100)
        (0.00000000 0.99780284 0.00199561 0.00019956 0.00000200)))
        (((1.00000000 0.00000000 0.00000000 0.00000000 0.00000000)
        (1.00000000 0.00000000 0.00000000 0.00000000 0.00000000)
        (1.00000000 0.00000000 0.00000000 0.00000000 0.00000000))
        ((1.00000000 0.00000000 0.00000000 0.00000000 0.00000000)
        (0.00000000 0.99890021 0.00099890 0.00009989 0.00000100)
        (0.00000000 0.99780284 0.00199561 0.00019956 0.00000200)))
        (((1.00000000 0.00000000 0.00000000 0.00000000 0.00000000)
        (1.00000000 0.00000000 0.00000000 0.00000000 0.00000000)
        (1.00000000 0.00000000 0.00000000 0.00000000 0.00000000))
        ((1.00000000 0.00000000 0.00000000 0.00000000 0.00000000)
        (0.00000000 0.99890021 0.00099890 0.00009989 0.00000100)
        (0.00000000 0.99780284 0.00199561 0.00019956 0.00000200)))
        (((1.00000000 0.00000000 0.00000000 0.00000000 0.00000000)
        (1.00000000 0.00000000 0.00000000 0.00000000 0.00000000)
        (1.00000000 0.00000000 0.00000000 0.00000000 0.00000000))
        ((1.00000000 0.00000000 0.00000000 0.00000000 0.00000000)
        (0.00000000 0.99890021 0.00099890 0.00009989 0.00000100)
        (0.00000000 0.99780284 0.00199561 0.00019956 0.00000200)))
        (((1.00000000 0.00000000 0.00000000 0.00000000 0.00000000)
        (1.00000000 0.00000000 0.00000000 0.00000000 0.00000000)
        (1.00000000 0.00000000 0.00000000 0.00000000 0.00000000))
        ((1.00000000 0.00000000 0.00000000 0.00000000 0.00000000)
        (0.00000000 0.99890021 0.00099890 0.00009989 0.00000100)
        (0.00000000 0.99780284 0.00199561 0.00019956 0.00000200)))
        (((1.00000000 0.00000000 0.00000000 0.00000000 0.00000000)
        (1.00000000 0.00000000 0.00000000 0.00000000 0.00000000)
        (1.00000000 0.00000000 0.00000000 0.00000000 0.00000000))
        ((1.00000000 0.00000000 0.00000000 0.00000000 0.00000000)
        (0.00000000 0.99890021 0.00099890 0.00009989 0.00000100)
        (0.00000000 0.99780284 0.00199561 0.00019956 0.00000200)))
        (((1.00000000 0.00000000 0.00000000 0.00000000 0.00000000)
        (1.00000000 0.00000000 0.00000000 0.00000000 0.00000000)
        (1.00000000 0.00000000 0.00000000 0.00000000 0.00000000))
        ((1.00000000 0.00000000 0.00000000 0.00000000 0.00000000)
        (0.00000000 0.99890021 0.00099890 0.00009989 0.00000100)
        (0.00000000 0.99780284 0.00199561 0.00019956 0.00000200)))
        (((1.00000000 0.00000000 0.00000000 0.00000000 0.00000000)
        (1.00000000 0.00000000 0.00000000 0.00000000 0.00000000)
        (1.00000000 0.00000000 0.00000000 0.00000000 0.00000000))
        ((1.00000000 0.00000000 0.00000000 0.00000000 0.00000000)
        (0.00000000 0.99890021 0.00099890 0.00009989 0.00000100)
        (0.00000000 0.99780284 0.00199561 0.00019956 0.00000200)))
        (((1.00000000 0.00000000 0.00000000 0.00000000 0.00000000)
        (1.00000000 0.00000000 0.00000000 0.00000000 0.00000000)
        (1.00000000 0.00000000 0.00000000 0.00000000 0.00000000))
        ((1.00000000 0.00000000 0.00000000 0.00000000 0.00000000)
        (0.00000000 0.99890021 0.00099890 0.00009989 0.00000100)
        (0.00000000 0.99780284 0.00199561 0.00019956 0.00000200)))
        (((1.00000000 0.00000000 0.00000000 0.00000000 0.00000000)
        (1.00000000 0.00000000 0.00000000 0.00000000 0.00000000)
        (1.00000000 0.00000000 0.00000000 0.00000000 0.00000000))
        ((1.00000000 0.00000000 0.00000000 0.00000000 0.00000000)
        (0.00000000 0.99890021 0.00099890 0.00009989 0.00000100)
        (0.00000000 0.99780284 0.00199561 0.00019956 0.00000200)))
        (((1.00000000 0.00000000 0.00000000 0.00000000 0.00000000)
        (1.00000000 0.00000000 0.00000000 0.00000000 0.00000000)
        (1.00000000 0.00000000 0.00000000 0.00000000 0.00000000))
        ((1.00000000 0.00000000 0.00000000 0.00000000 0.00000000)
        (0.00000000 0.99890021 0.00099890 0.00009989 0.00000100)
        (0.00000000 0.99780284 0.00199561 0.00019956 0.00000200)))
        (((1.00000000 0.00000000 0.00000000 0.00000000 0.00000000)
        (1.00000000 0.00000000 0.00000000 0.00000000 0.00000000)
        (1.00000000 0.00000000 0.00000000 0.00000000 0.00000000))
        ((1.00000000 0.00000000 0.00000000 0.00000000 0.00000000)
        (0.00000000 0.99890021 0.00099890 0.00009989 0.00000100)
        (0.00000000 0.99780284 0.00199561 0.00019956 0.00000200)))
        (((1.00000000 0.00000000 0.00000000 0.00000000 0.00000000)
        (1.00000000 0.00000000 0.00000000 0.00000000 0.00000000)
        (1.00000000 0.00000000 0.00000000 0.00000000 0.00000000))
        ((1.00000000 0.00000000 0.00000000 0.00000000 0.00000000)
        (0.00000000 0.99890021 0.00099890 0.00009989 0.00000100)
        (0.00000000 0.99780284 0.00199561 0.00019956 0.00000200)))
        (((1.00000000 0.00000000 0.00000000 0.00000000 0.00000000)
        (1.00000000 0.00000000 0.00000000 0.00000000 0.00000000)
        (1.00000000 0.00000000 0.00000000 0.00000000 0.00000000))
        ((1.00000000 0.00000000 0.00000000 0.00000000 0.00000000)
        (0.00000000 0.99890021 0.00099890 0.00009989 0.00000100)
        (0.00000000 0.99780284 0.00199561 0.00019956 0.00000200)))
        (((1.00000000 0.00000000 0.00000000 0.00000000 0.00000000)
        (1.00000000 0.00000000 0.00000000 0.00000000 0.00000000)
        (1.00000000 0.00000000 0.00000000 0.00000000 0.00000000))
        ((1.00000000 0.00000000 0.00000000 0.00000000 0.00000000)
        (0.00000000 0.99890021 0.00099890 0.00009989 0.00000100)
        (0.00000000 0.99780284 0.00199561 0.00019956 0.00000200)))
        (((1.00000000 0.00000000 0.00000000 0.00000000 0.00000000)
        (1.00000000 0.00000000 0.00000000 0.00000000 0.00000000)
        (1.00000000 0.00000000 0.00000000 0.00000000 0.00000000))
        ((1.00000000 0.00000000 0.00000000 0.00000000 0.00000000)
        (0.00000000 0.99890021 0.00099890 0.00009989 0.00000100)
        (0.00000000 0.99780284 0.00199561 0.00019956 0.00000200)))
        (((1.00000000 0.00000000 0.00000000 0.00000000 0.00000000)
        (1.00000000 0.00000000 0.00000000 0.00000000 0.00000000)
        (1.00000000 0.00000000 0.00000000 0.00000000 0.00000000))
        ((1.00000000 0.00000000 0.00000000 0.00000000 0.00000000)
        (0.00000000 0.99890021 0.00099890 0.00009989 0.00000100)
        (0.00000000 0.99780284 0.00199561 0.00019956 0.00000200)))
        (((1.00000000 0.00000000 0.00000000 0.00000000 0.00000000)
        (1.00000000 0.00000000 0.00000000 0.00000000 0.00000000)
        (1.00000000 0.00000000 0.00000000 0.00000000 0.00000000))
        ((1.00000000 0.00000000 0.00000000 0.00000000 0.00000000)
        (0.00000000 0.40000000 0.30000000 0.20000000 0.10000000)
        (0.00000000 0.40000000 0.30000000 0.20000000 0.10000000)))
        (((1.00000000 0.00000000 0.00000000 0.00000000 0.00000000)
        (1.00000000 0.00000000 0.00000000 0.00000000 0.00000000)
        (1.00000000 0.00000000 0.00000000 0.00000000 0.00000000))
        ((1.00000000 0.00000000 0.00000000 0.00000000 0.00000000)
        (0.00000000 0.99890021 0.00099890 0.00009989 0.00000100)
        (0.00000000 0.99780284 0.00199561 0.00019956 0.00000200)))
        (((1.00000000 0.00000000 0.00000000 0.00000000 0.00000000)
        (1.00000000 0.00000000 0.00000000 0.00000000 0.00000000)
        (1.00000000 0.00000000 0.00000000 0.00000000 0.00000000))
        ((1.00000000 0.00000000 0.00000000 0.00000000 0.00000000)
        (0.00000000 0.98990101 0.00999900 0.00009999 0.00000000)
        (0.00000000 0.97980404 0.01999600 0.00019996 0.00000000)))
        (((1.00000000 0.00000000 0.00000000 0.00000000 0.00000000)
        (1.00000000 0.00000000 0.00000000 0.00000000 0.00000000)
        (1.00000000 0.00000000 0.00000000 0.00000000 0.00000000))
        ((1.00000000 0.00000000 0.00000000 0.00000000 0.00000000)
        (0.00000000 0.99890021 0.00099890 0.00009989 0.00000100)
        (0.00000000 0.99780284 0.00199561 0.00019956 0.00000200))));
}

potential (F105 | Fault F97)
{
    data = (((1.00000000 0.00000000 0.00000000)
        (0.00000000 0.95000000 0.05000000))
        ((1.00000000 0.00000000 0.00000000)
        (0.00000000 0.10000000 0.90000000))
        ((1.00000000 0.00000000 0.00000000)
        (0.00000000 0.10000000 0.90000000))
        ((1.00000000 0.00000000 0.00000000)
        (0.00000000 0.10000000 0.90000000))
        ((1.00000000 0.00000000 0.00000000)
        (0.00000000 0.10000000 0.90000000))
        ((1.00000000 0.00000000 0.00000000)
        (0.00000000 0.50000000 0.50000000))
        ((1.00000000 0.00000000 0.00000000)
        (0.00000000 0.00000000 1.00000000))
        ((1.00000000 0.00000000 0.00000000)
        (0.00000000 0.10000000 0.90000000))
        ((1.00000000 0.00000000 0.00000000)
        (0.00000000 0.10000000 0.90000000))
        ((1.00000000 0.00000000 0.00000000)
        (0.00000000 0.10000000 0.90000000))
        ((1.00000000 0.00000000 0.00000000)
        (0.00000000 0.10000000 0.90000000))
        ((1.00000000 0.00000000 0.00000000)
        (0.00000000 0.10000000 0.90000000))
        ((1.00000000 0.00000000 0.00000000)
        (0.00000000 0.10000000 0.90000000))
        ((1.00000000 0.00000000 0.00000000)
        (0.00000000 0.00000000 1.00000000))
        ((1.00000000 0.00000000 0.00000000)
        (0.00000000 0.10000000 0.90000000))
        ((1.00000000 0.00000000 0.00000000)
        (0.00000000 0.10000000 0.90000000))
        ((1.00000000 0.00000000 0.00000000)
        (0.00000000 0.10000000 0.90000000))
        ((1.00000000 0.00000000 0.00000000)
        (0.00000000 0.10000000 0.90000000))
        ((1.00000000 0.00000000 0.00000000)
        (0.00000000 0.10000000 0.90000000))
        ((1.00000000 0.00000000 0.00000000)
        (0.00000000 0.10000000 0.90000000))
        ((1.00000000 0.00000000 0.00000000)
        (0.00000000 0.10000000 0.90000000))
        ((1.00000000 0.00000000 0.00000000)
        (0.00000000 0.10000000 0.90000000))
        ((1.00000000 0.00000000 0.00000000)
        (0.00000000 0.10000000 0.90000000))
        ((1.00000000 0.00000000 0.00000000)
        (0.00000000 0.10000000 0.90000000))
        ((1.00000000 0.00000000 0.00000000)
        (0.00000000 0.10000000 0.90000000))
        ((1.00000000 0.00000000 0.00000000)
        (0.00000000 0.10000000 0.90000000))
        ((1.00000000 0.00000000 0.00000000)
        (0.00000000 0.10000000 0.90000000))
        ((1.00000000 0.00000000 0.00000000)
        (0.00000000 0.10000000 0.90000000))
        ((1.00000000 0.00000000 0.00000000)
        (0.00000000 0.10000000 0.90000000))
        ((1.00000000 0.00000000 0.00000000)
        (0.00000000 0.10000000 0.90000000))
        ((1.00000000 0.00000000 0.00000000)
        (0.00000000 0.10000000 0.90000000))
        ((1.00000000 0.00000000 0.00000000)
        (0.00000000 0.10000000 0.90000000))
        ((1.00000000 0.00000000 0.00000000)
        (0.00000000 0.10000000 0.90000000))
        ((1.00000000 0.00000000 0.00000000)
        (0.00000000 0.10000000 0.90000000))
        ((1.00000000 0.00000000 0.00000000)
        (0.00000000 0.80000000 0.20000000))
        ((1.00000000 0.00000000 0.00000000)
        (0.00000000 0.80000000 0.20000000))
        ((1.00000000 0.00000000 0.00000000)
        (0.00000000 0.90000000 0.10000000))
        ((1.00000000 0.00000000 0.00000000)
        (0.00000000 0.95000000 0.05000000))
        ((1.00000000 0.00000000 0.00000000)
        (0.00000000 0.10000000 0.90000000))
        ((1.00000000 0.00000000 0.00000000)
        (0.00000000 0.10000000 0.90000000))
        ((1.00000000 0.00000000 0.00000000)
        (0.00000000 0.00000000 1.00000000))
        ((1.00000000 0.00000000 0.00000000)
        (0.00000000 0.10000000 0.90000000))
        ((1.00000000 0.00000000 0.00000000)
        (0.00000000 0.10000000 0.90000000))
        ((1.00000000 0.00000000 0.00000000)
        (0.00000000 0.10000000 0.90000000))
        ((1.00000000 0.00000000 0.00000000)
        (0.00000000 0.10000000 0.90000000))
        ((1.00000000 0.00000000 0.00000000)
        (0.00000000 0.10000000 0.90000000))
        ((1.00000000 0.00000000 0.00000000)
        (0.00000000 0.10000000 0.90000000))
        ((1.00000000 0.00000000 0.00000000)
        (0.00000000 0.10000000 0.90000000))
        ((1.00000000 0.00000000 0.00000000)
        (0.00000000 0.10000000 0.90000000))
        ((1.00000000 0.00000000 0.00000000)
        (0.00000000 0.10000000 0.90000000))
        ((1.00000000 0.00000000 0.00000000)
        (0.00000000 0.10000000 0.90000000))
        ((1.00000000 0.00000000 0.00000000)
        (0.00000000 0.10000000 0.90000000))
        ((1.00000000 0.00000000 0.00000000)
        (0.00000000 0.10000000 0.90000000))
        ((1.00000000 0.00000000 0.00000000)
        (0.00000000 0.10000000 0.90000000))
        ((1.00000000 0.00000000 0.00000000)
        (0.00000000 0.10000000 0.90000000))
        ((1.00000000 0.00000000 0.00000000)
        (0.00000000 0.10000000 0.90000000))
        ((1.00000000 0.00000000 0.00000000)
        (0.00000000 0.10000000 0.90000000))
        ((1.00000000 0.00000000 0.00000000)
        (0.00000000 0.10000000 0.90000000))
        ((1.00000000 0.00000000 0.00000000)
        (0.00000000 0.10000000 0.90000000))
        ((1.00000000 0.00000000 0.00000000)
        (0.00000000 0.10000000 0.90000000))
        ((1.00000000 0.00000000 0.00000000)
        (0.00000000 0.10000000 0.90000000))
        ((1.00000000 0.00000000 0.00000000)
        (0.00000000 0.90000000 0.10000000))
        ((1.00000000 0.00000000 0.00000000)
        (0.00000000 0.10000000 0.90000000)));
}
