net 
{
    node_size = (76 36);
}

node Fault
{
    label = "Fault";
    position = (58 332);
    states = ("AIDS_early"  "AILD"  "ALIP"  "Cat_scratch_disease" 
     "Dermatopathic_laden"  "Florid_follic_hyperp" 
     "GLH_hyaline_vacular"  "GLH_plasma_cell_type" 
     "Granulomatous_laden"  "Histiocytosis_x"  "Infectious_mono" 
     "Leprosy"  "Lymphangiographic"  "Mantle_zone_hyperl" 
     "Necrotizing_kikuchi"  "Necrotiz_nonKikuchi" 
     "Rheumatoid_arthritis"  "Sarcoidosis"  "SHML"  "Sinus_hyperplasia"
      "Syphilis"  "Toxoplasmosis"  "Tuberculosis"  "Viral_NOS" 
     "Whipple_s_disease"  "L_H_nodular_HD"  "L_H_diffuse_HD" 
     "Nodular_sclerosis"  "Cellular_phase_NSHD"  "Syncytial_NSHD" 
     "Mixed_cellularity_HD"  "Interfollicular_HD" 
     "Diffuse_fibrosis_HD"  "Reticular_type_HD"  "Small_cleaved__fol" 
     "Mixed__fol"  "Large_cell__fol"  "Small_noncleaved_fol" 
     "Small_lymphocytic"  "Plasmacytoid_lyctic"  "Mantle_zone" 
     "Small_cleaved__dif"  "Mixed__fcc_dif"  "Large_cell__dif" 
     "B_immunoblastic"  "T_immunob_mix"  "IBL_like_T_cell_lym" 
     "Japanese_ATL"  "Lymphoblastic"  "Small_noncleaved_dif" 
     "True_histiocytic"  "Malig_histiocytosis"  "Multiple_myeloma" 
     "Mycosis_fungoides"  "AML"  "Hairy_cell_leukemia"  "Carcinoma" 
     "Melanoma"  "Em_plasmacytoma"  "Kaposis_sarcoma" 
     "Mast_cell_disease"  "AIDS_involutionary"  "T_immunob_lrg");
}

node F97
{
    label = "Follicles";
    position = (4958 262);
    states = ("Absent"  "Present");
}

node F4
{
    label = "F polarity";
    position = (158 192);
    states = ("NA"  "No"  "Yes");
}

node F53
{
    label = "Mottling hist";
    position = (2658 262);
    states = ("Absent"  "Focal__non_extensive_" 
     "Multifocal__non_extensive_"  "Extensive");
}

node F41
{
    label = "Lrg lmph cells";
    position = (2058 262);
    states = ("Absent"  "Present");
}

node F44
{
    label = "Med lymph cells";
    position = (2258 262);
    states = ("Absent"  "Present");
}

node F20
{
    label = "Extravasc clus clr c";
    position = (658 192);
    states = ("Absent"  "Rare__1_10__"  "Present__11_50__" 
     "Many__51_70__");
}

node F90
{
    label = "Cap thickening";
    position = (4658 262);
    states = ("Absent"  "Slight___10_"  "Moderate__10_20_" 
     "Marked___20_");
}

node F21
{
    label = "FCB";
    position = (758 192);
    states = ("Absent"  "Present"  "Prominent");
}

node F59
{
    label = "PAS stain";
    position = (3158 262);
    states = ("Absent"  "Present");
}

node F72
{
    label = "Sml lymph cells";
    position = (3958 262);
    states = ("Absent"  "Present");
}

node F77
{
    label = "Vasc prolif slit";
    position = (4358 262);
    states = ("Absent"  "Present");
}

node F100
{
    label = "F ss pattern";
    position = (1258 122);
    states = ("NA"  "Absent"  "Slight__1_15_"  "Moderate__16_30_" 
     "Marked___30_");
}

node F105
{
    label = "F mantle zones";
    position = (2258 192);
    states = ("NA"  "Absent"  "Present");
}

potential (Fault |)
{
    data = (0.02075119 0.00103756 0.01037560 0.00363146 0.01037560 
        0.03112679 0.00435775 0.00207512 0.01556339 0.00415024 
        0.00726292 0.00622536 0.01037560 0.01296950 0.00830048 
        0.01328076 0.00207512 0.00207512 0.00124507 0.01556339 
        0.00259390 0.00726292 0.00830048 0.01037560 0.00207512 
        0.01037560 0.00415024 0.08300477 0.00518780 0.00415024 
        0.05187798 0.00415024 0.00518780 0.00518780 0.10375597 
        0.05706578 0.03112679 0.00518780 0.02075119 0.01037560 
        0.01037560 0.00415024 0.01037560 0.13488276 0.01556339 
        0.02075119 0.01556339 0.00103756 0.01037560 0.06225358 
        0.00166010 0.00166010 0.00207512 0.00622536 0.00259390 
        0.00020751 0.02075119 0.00830048 0.00332019 0.00830048 
        0.00311268 0.02075119 0.02075119);
}

potential (F97 | Fault)
{
    data = ((0.00000000 1.00000000)
        (0.99000000 0.01000000)
        (0.90000000 0.10000000)
        (0.01000000 0.99000000)
        (0.01000000 0.99000000)
        (0.00000000 1.00000000)
        (0.00000000 1.00000000)
        (0.00000000 1.00000000)
        (0.01000000 0.99000000)
        (0.01000000 0.99000000)
        (0.01000000 0.99000000)
        (0.90000000 0.10000000)
        (0.01000000 0.99000000)
        (0.00000000 1.00000000)
        (0.01000000 0.99000000)
        (0.01000000 0.99000000)
        (0.00000000 1.00000000)
        (0.90000000 0.10000000)
        (0.01000000 0.99000000)
        (0.01000000 0.99000000)
        (0.00000000 1.00000000)
        (0.00000000 1.00000000)
        (0.90000000 0.10000000)
        (0.01000000 0.99000000)
        (0.01000000 0.99000000)
        (0.99000000 0.01000000)
        (0.99000000 0.01000000)
        (0.80000000 0.20000000)
        (0.80000000 0.20000000)
        (0.80000000 0.20000000)
        (0.80000000 0.20000000)
        (0.00000000 1.00000000)
        (0.99900000 0.00100000)
        (0.99900000 0.00100000)
        (0.00000000 1.00000000)
        (0.00000000 1.00000000)
        (0.00000000 1.00000000)
        (0.00000000 1.00000000)
        (0.95000000 0.05000000)
        (0.99900000 0.00100000)
        (0.01000000 0.99000000)
        (0.99900000 0.00100000)
        (0.99900000 0.00100000)
        (0.99900000 0.00100000)
        (0.99900000 0.00100000)
        (0.80000000 0.20000000)
        (0.99900000 0.00100000)
        (0.99900000 0.00100000)
        (0.95000000 0.05000000)
        (0.99900000 0.00100000)
        (0.99900000 0.00100000)
        (0.99900000 0.00100000)
        (0.20000000 0.80000000)
        (0.20000000 0.80000000)
        (0.20000000 0.80000000)
        (0.20000000 0.80000000)
        (0.20000000 0.80000000)
        (0.20000000 0.80000000)
        (0.99000000 0.01000000)
        (0.99000000 0.01000000)
        (0.99000000 0.01000000)
        (0.05000000 0.95000000)
        (0.99900000 0.00100000));
}

potential (F2 | Fault F97)
{
    data = (((1.00000000 0.00000000 0.00000000)
        (0.00000000 0.99000000 0.01000000))
        ((1.00000000 0.00000000 0.00000000)
        (0.00000000 0.30000000 0.70000000))
        ((1.00000000 0.00000000 0.00000000)
        (0.00000000 0.99000000 0.01000000))
        ((1.00000000 0.00000000 0.00000000)
        (0.00000000 0.99000000 0.01000000))
        ((1.00000000 0.00000000 0.00000000)
        (0.00000000 0.99000000 0.01000000))
        ((1.00000000 0.00000000 0.00000000)
        (0.00000000 0.99000000 0.01000000))
        ((1.00000000 0.00000000 0.00000000)
        (0.00000000 0.00000000 1.00000000))
        ((1.00000000 0.00000000 0.00000000)
        (0.00000000 0.99000000 0.01000000))
        ((1.00000000 0.00000000 0.00000000)
        (0.00000000 0.99000000 0.01000000))
        ((1.00000000 0.00000000 0.00000000)
        (0.00000000 0.99000000 0.01000000))
        ((1.00000000 0.00000000 0.00000000)
        (0.00000000 0.99000000 0.01000000))
        ((1.00000000 0.00000000 0.00000000)
        (0.00000000 0.99000000 0.01000000))
        ((1.00000000 0.00000000 0.00000000)
        (0.00000000 0.99000000 0.01000000))
        ((1.00000000 0.00000000 0.00000000)
        (0.00000000 0.05000000 0.95000000))
        ((1.00000000 0.00000000 0.00000000)
        (0.00000000 0.99000000 0.01000000))
        ((1.00000000 0.00000000 0.00000000)
        (0.00000000 0.99000000 0.01000000))
        ((1.00000000 0.00000000 0.00000000)
        (0.00000000 0.99000000 0.01000000))
        ((1.00000000 0.00000000 0.00000000)
        (0.00000000 0.99000000 0.01000000))
        ((1.00000000 0.00000000 0.00000000)
        (0.00000000 0.99000000 0.01000000))
        ((1.00000000 0.00000000 0.00000000)
        (0.00000000 0.99000000 0.01000000))
        ((1.00000000 0.00000000 0.00000000)
        (0.00000000 0.99000000 0.01000000))
        ((1.00000000 0.00000000 0.00000000)
        (0.00000000 0.99000000 0.01000000))
        ((1.00000000 0.00000000 0.00000000)
        (0.00000000 0.99000000 0.010100000))
        ((1.00000000 0.00000000 0.00000000)
        (0.00000000 0.99900000 0.00100000))
        ((1.00000000 0.00000000 0.00000000)
        (0.00000000 0.99900000 0.00100000))
        ((1.00000000 0.00000000 0.00000000)
        (0.00000000 0.99900000 0.00100000))
        ((1.00000000 0.00000000 0.00000000)
        (0.00000000 0.99900000 0.00100000))
        ((1.00000000 0.00000000 0.00000000)
        (0.00000000 0.99900000 0.00100000))
        ((1.00000000 0.00000000 0.00000000)
        (0.00000000 0.99900000 0.00100000))
        ((1.00000000 0.00000000 0.00000000)
        (0.00000000 0.99900000 0.00100000))
        ((1.00000000 0.00000000 0.00000000)
        (0.00000000 0.99900000 0.00100000))
        ((1.00000000 0.00000000 0.00000000)
        (0.00000000 0.99900000 0.00100000))
        ((1.00000000 0.00000000 0.00000000)
        (0.00000000 0.99900000 0.00100000))
        ((1.00000000 0.00000000 0.00000000)
        (0.00000000 0.99900000 0.00100000))
        ((1.00000000 0.00000000 0.00000000)
        (0.00000000 0.99900000 0.00100000))
        ((1.00000000 0.00000000 0.00000000)
        (0.00000000 0.99900000 0.00100000))
        ((1.00000000 0.00000000 0.00000000)
        (0.00000000 0.99900000 0.00100000))
        ((1.00000000 0.00000000 0.00000000)
        (0.00000000 0.99900000 0.00100000))
        ((1.00000000 0.00000000 0.00000000)
        (0.00000000 0.99900000 0.00100000))
        ((1.00000000 0.00000000 0.00000000)
        (0.00000000 0.99900000 0.00100000))
        ((1.00000000 0.00000000 0.00000000)
        (0.00000000 0.99900000 0.00100000))
        ((1.00000000 0.00000000 0.00000000)
        (0.00000000 0.99900000 0.00100000))
        ((1.00000000 0.00000000 0.00000000)
        (0.00000000 0.99900000 0.00100000))
        ((1.00000000 0.00000000 0.00000000)
        (0.00000000 0.99900000 0.00100000))
        ((1.00000000 0.00000000 0.00000000)
        (0.00000000 0.99900000 0.00100000))
        ((1.00000000 0.00000000 0.00000000)
        (0.00000000 0.99900000 0.00100000))
        ((1.00000000 0.00000000 0.00000000)
        (0.00000000 0.99900000 0.00100000))
        ((1.00000000 0.00000000 0.00000000)
        (0.00000000 0.99900000 0.00100000))
        ((1.00000000 0.00000000 0.00000000)
        (0.00000000 0.99900000 0.00100000))
        ((1.00000000 0.00000000 0.00000000)
        (0.00000000 0.99900000 0.00100000))
        ((1.00000000 0.00000000 0.00000000)
        (0.00000000 0.99900000 0.00100000))
        ((1.00000000 0.00000000 0.00000000)
        (0.00000000 0.99900000 0.00100000))
        ((1.00000000 0.00000000 0.00000000)
        (0.00000000 0.99900000 0.00100000))
        ((1.00000000 0.00000000 0.00000000)
        (0.00000000 0.99900000 0.00100000))
        ((1.00000000 0.00000000 0.00000000)
        (0.00000000 0.99900000 0.00100000))
        ((1.00000000 0.00000000 0.00000000)
        (0.00000000 0.99900000 0.00100000))
        ((1.00000000 0.00000000 0.00000000)
        (0.00000000 0.99900000 0.00100000))
        ((1.00000000 0.00000000 0.00000000)
        (0.00000000 0.99900000 0.00100000))
        ((1.00000000 0.00000000 0.00000000)
        (0.00000000 0.99900000 0.00100000))
        ((1.00000000 0.00000000 0.00000000)
        (0.00000000 0.99900000 0.00100000))
        ((1.00000000 0.00000000 0.00000000)
        (0.00000000 0.99900000 0.00100000))
        ((1.00000000 0.00000000 0.00000000)
        (0.00000000 0.90000000 0.10000000))
        ((1.00000000 0.00000000 0.00000000)
        (0.00000000 0.99900000 0.00100000)));
}

potential (F3 | Fault F97 F78)
{
    data = ((((1.00000000 0.00000000 0.00000000)
        (1.00000000 0.00000000 0.00000000)
        (1.00000000 0.00000000 0.00000000))
        ((1.00000000 0.00000000 0.00000000)
        (0.00000000 0.80000000 0.20000000)
        (0.00000000 0.70000000 0.30000000)))
        (((1.00000000 0.00000000 0.00000000)
        (1.00000000 0.00000000 0.00000000)
        (1.00000000 0.00000000 0.00000000))
        ((1.00000000 0.00000000 0.00000000)
        (0.00000000 0.99990001 0.00009999)
        (0.00000000 0.99990001 0.00009999)))
        (((1.00000000 0.00000000 0.00000000)
        (1.00000000 0.00000000 0.00000000)
        (1.00000000 0.00000000 0.00000000))
        ((1.00000000 0.00000000 0.00000000)
        (0.00000000 0.99990001 0.00009999)
        (0.00000000 0.99990001 0.00009999)))
        (((1.00000000 0.00000000 0.00000000)
        (1.00000000 0.00000000 0.00000000)
        (1.00000000 0.00000000 0.00000000))
        ((1.00000000 0.00000000 0.00000000)
        (0.00000000 0.99990001 0.00009999)
        (0.00000000 0.99990001 0.00009999)))
        (((1.00000000 0.00000000 0.00000000)
        (1.00000000 0.00000000 0.00000000)
        (1.00000000 0.00000000 0.00000000))
        ((1.00000000 0.00000000 0.00000000)
        (0.00000000 0.99990001 0.00009999)
        (0.00000000 0.99990001 0.00009999)))
        (((1.00000000 0.00000000 0.00000000)
        (1.00000000 0.00000000 0.00000000)
        (1.00000000 0.00000000 0.00000000))
        ((1.00000000 0.00000000 0.00000000)
        (0.00000000 0.95000000 0.05000000)
        (0.00000000 0.90000000 0.10000000)))
        (((1.00000000 0.00000000 0.00000000)
        (1.00000000 0.00000000 0.00000000)
        (1.00000000 0.00000000 0.00000000))
        ((1.00000000 0.00000000 0.00000000)
        (0.00000000 0.99990001 0.00009999)
        (0.00000000 0.99990001 0.00009999)))
        (((1.00000000 0.00000000 0.00000000)
        (1.00000000 0.00000000 0.00000000)
        (1.00000000 0.00000000 0.00000000))
        ((1.00000000 0.000000090001 0.00009999)
        (0.00000000 0.99990001 0.00009999)))
        (((1.00000000 0.00000000 0.00000000)
        (1.00000000 0.00000000 0.00000000)
        (1.00000000 0.00000000 0.00000000))
        ((1.00000000 0.00000000 0.00000000)
        (0.00000000 0.99990001 0.00009999)
        (0.00000000 0.99990001 0.00009999)))
        (((1.00000000 0.00000000 0.00000000)
        (1.00000000 0.00000000 0.00000000)
        (1.00000000 0.00000000 0.00000000))
        ((1.00000000 0.00000000 0.00000000)
        (0.00000000 0.99990001 0.00009999)
        (0.00000000 0.99990001 0.00009999)))
        (((1.00000000 0.00000000 0.00000000)
        (1.00000000 0.00000000 0.00000000)
        (1.00000000 0.00000000 0.00000000))
        ((1.00000000 0.00000000 0.00000000)
        (0.00000000 0.99990001 0.00009999)
        (0.00000000 0.99990001 0.00009999)))
        (((1.00000000 0.00000000 0.00000000)
        (1.00000000 0.00000000 0.00000000)
        (1.00000000 0.00000000 0.00000000))
        ((1.00000000 0.00000000 0.00000000)
        (0.00000000 0.99990001 0.00009999)
        (0.00000000 0.99990001 0.00009999)))
        (((1.00000000 0.00000000 0.00000000)
        (1.00000000 0.00000000 0.00000000)
        (1.00000000 0.00000000 0.00000000))
        ((1.00000000 0.00000000 0.00000000)
        (0.00000000 0.99990001 0.00009999)
        (0.00000000 0.99990001 0.00009999)))
        (((1.00000000 0.00000000 0.00000000)
        (1.00000000 0.00000000 0.00000000)
        (1.00000000 0.00000000 0.00000000))
        ((1.00000000 0.00000000 0.00000000)
        (0.00000000 0.99990001 0.00009999)
        (0.00000000 0.99990001 0.00009999)))
        (((1.00000000 0.00000000 0.00000000)
        (1.00000000 0.00000000 0.00000000)
        (1.00000000 0.00000000 0.00000000))
        ((1.00000000 0.00000000 0.00000000)
        (0.00000000 0.99990001 0.00009999)
        (0.00000000 0.99990001 0.00009999)))
        (((1.00000000 0.00000000 0.00000000)
        (1.00000000 0.00000000 0.00000000)
        (1.00000000 0.00000000 0.00000000))
        ((1.00000000 0.00000000 0.00000000)
        (0.00000000 0.99990001 0.00009999)
        (0.00000000 0.99990001 0.00009999)))
        (((1.00000000 0.00000000 0.00000000)
        (1.00000000 0.00000000 0.00000000)
        (1.00000000 0.00000000 0.00000000))
        ((1.00000000 0.00000000 0.00000000)
        (0.00000000 0.99990001 0.00009999)
        (0.00000000 0.99990001 0.00009999)))
        (((1.00000000 0.00000000 0.00000000)
        (1.00000000 0.00000000 0.00000000)
        (1.00000000 0.00000000 0.00000000))
        ((1.00000000 0.00000000 0.00000000)
        (0.00000000 0.99990001 0.00009999)
        (0.00000000 0.99990001 0.00009999)))
        (((1.00000000 0.00000000 0.00000000)
        (1.00000000 0.00000000 0.00000000)
        (1.00000000 0.00000000 0.00000000))
        ((1.00000000 0.00000000 0.00000000)
        (0.00000000 0.99990001 0.00009999)
        (0.00000000 0.99990001 0.00009999)))
        (((1.00000000 0.00000000 0.00000000)
        (1.00000000 0.00000000 0.00000000)
        (1.00000000 0.00000000 0.00000000))
        ((1.00000000 0.00000000 0.00000000)
        (0.00000000 0.99990001 0.00009999)
        (0.00000000 0.99990001 0.00009999)))
        (((1.00000000 0.00000000 0.00000000)
        (1.00000000 0.00000000 0.00000000)
        (1.00000000 0.00000000 0.00000000))
        ((1.00000000 0.00000000 0.00000000)
        (0.00000000 0.99990001 0.00009999)
        (0.00000000 0.99990001 0.00009999)))
        (((1.00000000 0.00000000 0.00000000)
        (1.00000000 0.00000000 0.00000000)
        (1.00000000 0.00000000 0.00000000))
        ((1.00000000 0.00000000 0.00000000)
        (0.00000000 0.99990001 0.00009999)
        (0.00000000 0.99990001 0.00009999)))
        (((1.00000000 0.00000000 0.00000000)
        (1.00000000 0.00000000 0.00000000)
        (1.00000000 0.00000000 0.00000000))
        ((1.00000000 0.00000000 0.00000000)
        (0.00000000 0.99990001 0.00009999)
        (0.00000000 0.99990001 0.00009999)))
        (((1.00000000 0.00000000 0.00000000)
        (1.00000000 0.00000000 0.00000000)
        (1.00000000 0.00000000 0.00000000))
        ((1.00000000 0.00000000 0.00000000)
        (0.00000000 0.99990001 0.00009999)
        (0.00000000 0.99990001 0.00009999)))
        (((1.00000000 0.00000000 0.00000000)
        (1.00000000 0.00000000 0.00000000)
        (1.00000000 0.00000000 0.00000000))
        ((1.00000000 0.00000000 0.00000000)
        (0.00000000 0.99990001 0.00009999)
        (0.00000000 0.99990001 0.00009999)))
        (((1.00000000 0.00000000 0.00000000)
        (1.00000000 0.00000000 0.00000000)
        (1.00000000 0.00000000 0.00000000))
        ((1.00000000 0.00000000 0.00000000)
        (0.00000000 0.99990001 0.00009999)
        (0.00000000 0.99990001 0.00009999)))
        (((1.00000000 0.00000000 0.00000000)
        (1.00000000 0.00000000 0.00000000)
        (1.00000000 0.00000000 0.00000000))
        ((1.00000000 0.00000000 0.00000000)
        (0.00000000 0.99990001 0.00009999)
        (0.00000000 0.99990001 0.00009999)))
        (((1.00000000 0.00000000 0.00000000)
        (1.00000000 0.00000000 0.00000000)
        (1.00000000 0.00000000 0.00000000))
        ((1.00000000 0.00000000 0.00000000)
        (0.00000000 0.99990001 0.00009999)
        (0.00000000 0.99990001 0.00009999)))
        (((1.00000000 0.00000000 0.00000000)
        (1.00000000 0.00000000 0.00000000)
        (1.00000000 0.00000000 0.00000000))
        ((1.00000000 0.00000000 0.00000000)
        (0.00000000 0.99990001 0.00009999)
        (0.00000000 00000 0.98901099 0.00999001 0.00099900)))
        (((1.00000000 0.00000000 0.00000000 0.00000000)
        (1.00000000 0.00000000 0.00000000 0.00000000))
        ((1.00000000 0.00000000 0.00000000 0.00000000)
        (0.00000000 0.99890011 0.00099990 0.00009999))
        ((1.00000000 0.00000000 0.00000000 0.00000000)
        (0.00000000 0.98901099 0.00999001 0.00099900)))
        (((1.00000000 0.00000000 0.00000000 0.00000000)
        (1.00000000 0.00000000 0.00000000 0.00000000))
        ((1.00000000 0.00000000 0.00000000 0.00000000)
        (0.00000000 0.99890011 0.00099990 0.00009999))
        ((1.00000000 0.00000000 0.00000000 0.00000000)
        (0.00000000 0.98901099 0.00999001 0.00099900)))
        (((1.00000000 0.00000000 0.00000000 0.00000000)
        (1.00000000 0.00000000 0.00000000 0.00000000))
        ((1.00000000 0.00000000 0.00000000 0.00000000)
        (0.00000000 0.99890011 0.00099990 0.00009999))
        ((1.00000000 0.00000000 0.00000000 0.00000000)
        (0.00000000 0.98901099 0.00999001 0.00099900)))
        (((1.00000000 0.00000000 0.00000000 0.00000000)
        (1.00000000 0.00000000 0.00000000 0.00000000))
        ((1.00000000 0.00000000 0.00000000 0.00000000)
        (0.00000000 0.99890011 0.00099990 0.00009999))
        ((1.00000000 0.00000000 0.00000000 0.00000000)
        (0.00000000 0.98901099 0.00999001 0.00099900)))
        (((1.00000000 0.00000000 0.00000000 0.00000000)
        (1.00000000 0.00000000 0.00000000 0.00000000))
        ((1.00000000 0.00000000 0.00000000 0.00000000)
        (0.00000000 0.99890011 0.00099990 0.00009999))
        ((1.00000000 0.00000000 0.00000000 0.00000000)
        (0.00000000 0.98901099 0.00999001 0.00099900)))
        (((1.00000000 0.00000000 0.00000000 0.00000000)
        (1.00000000 0.00000000 0.00000000 0.00000000))
        ((1.00000000 0.00000000 0.00000000 0.00000000)
        (0.00000000 0.99890011 0.00099990 0.00009999))
        ((1.00000000 0.00000000 0.00000000 0.00000000)
        (0.00000000 0.98901099 0.00999001 0.00099900)))
        (((1.00000000 0.00000000 0.00000000 0.00000000)
        (1.00000000 0.00000000 0.00000000 0.00000000))
        ((1.00000000 0.00000000 0.00000000 0.00000000)
        (0.00000000 0.99890011 0.00099990 0.00009999))
        ((1.00000000 0.00000000 0.00000000 0.00000000)
        (0.00000000 0.98901099 0.00999001 0.00099900)))
        (((1.00000000 0.00000000 0.00000000 0.00000000)
        (1.00000000 0.00000000 0.00000000 0.00000000))
        ((1.00000000 0.00000000 0.00000000 0.00000000)
        (0.00000000 0.99890011 0.00099990 0.00009999))
        ((1.00000000 0.00000000 0.00000000 0.00000000)
        (0.00000000 0.98901099 0.00999001 0.00099900)))
        (((1.00000000 0.00000000 0.00000000 0.00000000)
        (1.00000000 0.00000000 0.00000000 0.00000000))
        ((1.00000000 0.00000000 0.00000000 0.00000000)
        (0.00000000 0.99890011 0.00099990 0.00009999))
        ((1.00000000 0.00000000 0.00000000 0.00000000)
        (0.00000000 0.98901099 0.00999001 0.00099900)))
        (((1.00000000 0.00000000 0.00000000 0.00000000)
        (1.00000000 0.00000000 0.00000000 0.00000000))
        ((1.00000000 0.00000000 0.00000000 0.00000000)
        (0.00000000 0.99890011 0.00099990 0.00009999))
        ((1.00000000 0.00000000 0.00000000 0.00000000)
        (0.00000000 0.98901099 0.00999001 0.00099900)))
        (((1.00000000 0.00000000 0.00000000 0.00000000)
        (1.00000000 0.00000000 0.00000000 0.00000000))
        ((1.00000000 0.00000000 0.00000000 0.00000000)
        (0.00000000 0.99890011 0.00099990 0.00009999))
        ((1.00000000 0.00000000 0.00000000 0.00000000)
        (0.00000000 0.98901099 0.00999001 0.00099900)))
        (((1.00000000 0.00000000 0.00000000 0.00000000)
        (1.00000000 0.00000000 0.00000000 0.00000000))
        ((1.00000000 0.00000000 0.00000000 0.00000000)
        (0.00000000 0.99990000 0.00010000 0.00000000))
        ((1.00000000 0.00000000 0.00000000 0.00000000)
        (0.00000000 0.99900000 0.00100000 0.00000000)))
        (((1.00000000 0.00000000 0.00000000 0.00000000)
        (1.00000000 0.00000000 0.00000000 0.00000000))
        ((1.00000000 0.00000000 0.00000000 0.00000000)
        (0.00000000 0.99990000 0.00010000 0.00000000))
        ((1.00000000 0.00000000 0.00000000 0.00000000)
        (0.00000000 0.99900000 0.00100000 0.00000000)))
        (((1.00000000 0.00000000 0.00000000 0.00000000)
        (1.00000000 0.00000000 0.00000000 0.00000000))
        ((1.00000000 0.00000000 0.00000000 0.00000000)
        (0.00000000 0.99990000 0.00010000 0.00000000))
        ((1.00000000 0.00000000 0.00000000 0.00000000)
        (0.00000000 0.99900000 0.00100000 0.00000000)))
        (((1.00000000 0.00000000 0.00000000 0.00000000)
        (1.00000000 0.00000000 0.00000000 0.00000000))
        ((1.00000000 0.00000000 0.00000000 0.00000000)
        (0.00000000 0.99990000 0.00010000 0.00000000))
        ((1.00000000 0.00000000 0.00000000 0.00000000)
        (0.00000000 0.99900000 0.00100000 0.00000000)))
        (((1.00000000 0.00000000 0.00000000 0.00000000)
        (1.00000000 0.00000000 0.00000000 0.00000000))
        ((1.00000000 0.00000000 0.00000000 0.00000000)
        (0.00000000 0.99890011 0.00099990 0.00009999))
        ((1.00000000 0.00000000 0.00000000 0.00000000)
        (0.00000000 0.98901099 0.00999001 0.00099900)))
        (((1.00000000 0.00000000 0.00000000 0.00000000)
        (1.00000000 0.00000000 0.00000000 0.00000000))
        ((1.00000000 0.00000000 0.00000000 0.00000000)
        (0.00000000 0.99890011 0.00099990 0.00009999))
        ((1.00000000 0.00000000 0.00000000 0.00000000)
        (0.00000000 0.98901099 0.00999001 0.00099900)))
        (((1.00000000 0.00000000 0.00000000 0.00000000)
        (1.00000000 0.00000000 0.00000000 0.00000000))
        ((1.00000000 0.00000000 0.00000000 0.00000000)
        (0.00000000 0.99890011 0.00099990 0.00009999))
        ((1.00000000 0.00000000 0.00000000 0.00000000)
        (0.00000000 0.98901099 0.00999001 0.00099900)))
        (((1.00000000 0.00000000 0.00000000 0.00000000)
        (1.00000000 0.00000000 0.00000000 0.00000000))
        ((1.00000000 0.00000000 0.00000000 0.00000000)
        (0.00000000 0.99890011 0.00099990 0.00009999))
        ((1.00000000 0.00000000 0.00000000 0.00000000)
        (0.00000000 0.98901099 0.00999001 0.00099900)))
        (((1.00000000 0.00000000 0.00000000 0.00000000)
        (1.00000000 0.00000000 0.00000000 0.00000000))
        ((1.00000000 0.00000000 0.00000000 0.00000000)
        (0.00000000 0.99890011 0.00099990 0.00009999))
        ((1.00000000 0.00000000 0.00000000 0.00000000)
        (0.00000000 0.98901099 0.00999001 0.00099900)))
        (((1.00000000 0.00000000 0.00000000 0.00000000)
        (1.00000000 0.00000000 0.00000000 0.00000000))
        ((1.00000000 0.00000000 0.00000000 0.00000000)
        (0.00000000 0.99890011 0.00099990 0.00009999))
        ((1.00000000 0.00000000 0.00000000 0.00000000)
        (0.00000000 0.98901099 0.00999001 0.00099900)))
        (((1.00000000 0.00000000 0.00000000 0.00000000)
        (1.00000000 0.00000000 0.00000000 0.00000000))
        ((1.00000000 0.00000000 0.00000000 0.00000000)
        (0.00000000 0.99890011 0.00099990 0.00009999))
        ((1.00000000 0.00000000 0.00000000 0.00000000)
        (0.00000000 0.98901099 0.00999001 0.00099900)))
        (((1.00000000 0.00000000 0.00000000 0.00000000)
        (1.00000000 0.00000000 0.00000000 0.00000000))
        ((1.00000000 0.00000000 0.00000000 0.00000000)
        (0.00000000 0.99890011 0.00099990 0.00009999))
        ((1.00000000 0.00000000 0.00000000 0.00000000)
        (0.00000000 0.98901099 0.00999001 0.00099900)))
        (((1.00000000 0.00000000 0.00000000 0.00000000)
        (1.00000000 0.00000000 0.00000000 0.00000000))
        ((1.00000000 0.00000000 0.00000000 0.00000000)
        (0.00000000 0.99890011 0.00099990 0.00009999))
        ((1.00000000 0.00000000 0.00000000 0.00000000)
        (0.00000000 0.98901099 0.00999001 0.00099900)))
        (((1.00000000 0.00000000 0.00000000 0.00000000)
        (1.00000000 0.00000000 0.00000000 0.00000000))
        ((1.00000000 0.00000000 0.00000000 0.00000000)
        (0.00000000 0.99890011 0.00099990 0.00009999))
        ((1.00000000 0.00000000 0.00000000 0.00000000)
        (0.00000000 0.98901099 0.00999001 0.00099900)))
        (((1.00000000 0.00000000 0.00000000 0.00000000)
        (1.00000000 0.00000000 0.00000000 0.00000000))
        ((1.00000000 0.00000000 0.00000000 0.00000000)
        (0.00000000 0.99890011 0.00099990 0.00009999))
        ((1.00000000 0.00000000 0.00000000 0.00000000)
        (0.00000000 0.98901099 0.00999001 0.00099900)))
        (((1.00000000 0.00000000 0.00000000 0.00000000)
        (1.00000000 0.00000000 0.00000000 0.00000000))
        ((1.00000000 0.00000000 0.00000000 0.00000000)
        (0.00000000 0.99890011 0.00099990 0.00009999))
        ((1.00000000 0.00000000 0.00000000 0.00000000)
        (0.00000000 0.98901099 0.00999001 0.00099900)))
        (((1.00000000 0.00000000 0.00000000 0.00000000)
        (1.00000000 0.00000000 0.00000000 0.00000000))
        ((1.00000000 0.00000000 0.00000000 0.00000000)
        (0.00000000 0.99890011 0.00099990 0.00009999))
        ((1.00000000 0.00000000 0.00000000 0.00000000)
        (0.00000000 0.98901099 0.00999001 0.00099900)))
        (((1.00000000 0.00000000 0.00000000 0.00000000)
        (1.00000000 0.00000000 0.00000000 0.00000000))
        ((1.00000000 0.00000000 0.00000000 0.00000000)
        (0.00000000 0.99890011 0.00099990 0.00009999))
        ((1.00000000 0.00000000 0.00000000 0.00000000)
        (0.00000000 0.98901099 0.00999001 0.00099900)))
        (((1.00000000 0.00000000 0.00000000 0.00000000)
        (1.00000000 0.00000000 0.00000000 0.00000000))
        ((1.00000000 0.00000000 0.00000000 0.00000000)
        (0.00000000 0.99890011 0.00099990 0.00009999))
        ((1.00000000 0.00000000 0.00000000 0.00000000)
        (0.00000000 0.98901099 0.00999001 0.00099900)))
        (((1.00000000 0.00000000 0.00000000 0.00000000)
        (1.00000000 0.00000000 0.00000000 0.00000000))
        ((1.00000000 0.00000000 0.00000000 0.00000000)
        (0.00000000 0.99890011 0.00099990 0.00009999))
        ((1.00000000 0.00000000 0.00000000 0.00000000)
        (0.00000000 0.98901099 0.00999001 0.00099900)))
        (((1.00000000 0.00000000 0.00000000 0.00000000)
        (1.00000000 0.00000000 0.00000000 0.00000000))
        ((1.00000000 0.00000000 0.00000000 0.00000000)
        (0.00000000 0.99890011 0.00099990 0.00009999))
        ((1.00000000 0.00000000 0.00000000 0.00000000)
        (0.00000000 0.98901099 0.00999001 0.00099900)))
        (((1.00000000 0.00000000 0.00000000 0.00000000)
        (1.00000000 0.00000000 0.00000000 0.00000000))
        ((1.00000000 0.00000000 0.00000000 0.00000000)
        (0.00000000 0.99890011 0.00099990 0.00009999))
        ((1.00000000 0.00000000 0.00000000 0.00000000)
        (0.00000000 0.98901099 0.00999001 0.00099900)))
        (((1.00000000 0.00000000 0.00000000 0.00000000)
        (1.00000000 0.00000000 0.00000000 0.00000000))
        ((1.00000000 0.00000000 0.00000000 0.00000000)
        (0.00000000 0.99890011 0.00099990 0.00009999))
        ((1.00000000 0.00000000 0.00000000 0.00000000)
        (0.00000000 0.98901099 0.00999001 0.00099900)))
        (((1.00000000 0.00000000 0.00000000 0.00000000)
        (1.00000000 0.00000000 0.00000000 0.00000000))
        ((1.00000000 0.00000000 0.00000000 0.00000000)
        (0.00000000 0.99890011 0.00099990 0.00009999))
        ((1.00000000 0.00000000 0.00000000 0.00000000)
        (0.00000000 0.98901099 0.00999001 0.00099900)))
        (((1.00000000 0.00000000 0.00000000 0.00000000)
        (1.00000000 0.00000000 0.00000000 0.00000000))
        ((1.00000000 0.00000000 0.00000000 0.00000000)
        (0.00000000 0.99890011 0.00099990 0.00009999))
        ((1.00000000 0.00000000 0.00000000 0.00000000)
        (0.00000000 0.98901099 0.00999001 0.00099900)))
        (((1.00000000 0.00000000 0.00000000 0.00000000)
        (1.00000000 0.00000000 0.00000000 0.00000000))
        ((1.00000000 0.00000000 0.00000000 0.00000000)
        (0.00000000 0.99304866 0.00496524 0.00198610))
        ((1.00000000 0.00000000 0.00000000 0.00000000)
        (0.00000000 0.93000000 0.05000000 0.02000000)))
        (((1.00000000 0.00000000 0.00000000 0.00000000)
        (1.00000000 0.00000000 0.00000000 0.00000000))
        ((1.00000000 0.00000000 0.00000000 0.00000000)
        (0.00000000 0.99890011 0.00099990 0.00009999))
        ((1.00000000 0.00000000 0.00000000 0.00000000)
        (0.00000000 0.98901099 0.00999001 0.00099900)))
        (((1.00000000 0.00000000 0.00000000 0.00000000)
        (1.00000000 0.00000000 0.00000000 0.00000000))
        ((1.00000000 0.00000000 0.00000000 0.00000000)
        (0.00000000 0.99304866 0.00496524 0.00198610))
        ((1.00000000 0.00000000 0.00000000 0.00000000)
        (0.00000000 0.93000000 0.05000000 0.02000000)))
        (((1.00000000 0.00000000 0.00000000 0.00000000)
        (1.00000000 0.00000000 0.00000000 0.00000000))
        ((1.00000000 0.00000000 0.00000000 0.00000000)
        (0.00000000 0.99890011 0.00099990 0.00009999))
        ((1.00000000 0.00000000 0.00000000 0.00000000)
        (0.00000000 0.98901099 0.00999001 0.00099900))));
}

potential (F53 | Fault)
{
    data = ((0.30000000 0.40000000 0.29000000 0.01000000)
        (0.69993001 0.28997100 0.00999900 0.00009999)
        (0.69993001 0.28997100 0.00999900 0.00009999)
        (0.30000000 0.40000000 0.29000000 0.01000000)
        (0.05000000 0.30000000 0.55000000 0.10000000)
        (0.69993001 0.28997100 0.00999900 0.00009999)
        (0.94108421 0.04901480 0.00980296 0.00009803)
        (0.94108421 0.04901480 0.00980296 0.00009803)
        (0.50000000 0.45000000 0.04000000 0.01000000)
        (0.94108421 0.04901480 0.00980296 0.00009803)
        (0.30000000 0.40000000 0.29000000 0.01000000)
        (0.30000000 0.40000000 0.29000000 0.01000000)
        (0.94108421 0.04901480 0.00980296 0.00009803)
        (0.94108421 0.04901480 0.00980296 0.00009803)
        (0.50000000 0.45000000 0.04000000 0.01000000)
        (0.50000000 0.45000000 0.04000000 0.01000000)
        (0.94108421 0.04901480 0.00980296 0.00009803)
        (0.94108421 0.04901480 0.00980296 0.00009803)
        (0.94108421 0.04901480 0.00980296 0.00009803)
        (0.94108421 0.04901480 0.00980296 0.00009803)
        (0.69993001 0.28997100 0.00999900 0.00009999)
        (0.94108421 0.04901480 0.00980296 0.00009803)
        (0.94108421 0.04901480 0.00980296 0.00009803)
        (0.30000000 0.40000000 0.29000000 0.01000000)
        (0.94108421 0.04901480 0.00980296 0.00009803)
        (0.94108421 0.04901480 0.00980296 0.00009803)
        (0.94108421 0.04901480 0.00980296 0.00009803)
        (0.94108421 0.04901480 0.00980296 0.00009803)
        (0.94108421 0.04901480 0.00980296 0.00009803)
        (0.94108421 0.04901480 0.00980296 0.00009803)
        (0.94108421 0.04901480 0.00980296 0.00009803)
        (0.94108421 0.04901480 0.00980296 0.00009803)
        (0.94108421 0.04901480 0.00980296 0.00009803)
        (0.94108421 0.04901480 0.00980296 0.00009803)
        (0.94108421 0.04901480 0.00980296 0.00009803)
        (0.94108421 0.04901480 0.00980296 0.00009803)
        (0.94108421 0.04901480 0.00980296 0.00009803)
        (0.94108421 0.04901480 0.00980296 0.00009803)
        (0.94108421 0.04901480 0.00980296 0.00009803)
        (0.94108421 0.04901480 0.00980296 0.00009803)
        (0.94108421 0.04901480 0.00980296 0.00009803)
        (0.94108421 0.04901480 0.00980296 0.00009803)
        (0.94108421 0.04901480 0.00980296 0.00009803)
        (0.94108421 0.04901480 0.00980296 0.00009803)
        (0.94108421 0.04901480 0.00980296 0.00009803)
        (0.94108421 0.04901480 0.00980296 0.00009803)
        (0.50000000 0.45000000 0.04000000 0.01000000)
        (0.50000000 0.45000000 0.04000000 0.01000000)
        (0.94108421 0.04901480 0.00980296 0.00009803)
        (0.94108421 0.04901480 0.00980296 0.00009803)
        (0.94108421 0.04901480 0.00980296 0.00009803)
        (0.94108421 0.04901480 0.00980296 0.00009803)
        (0.94108421 0.04901480 0.00980296 0.00009803)
        (0.01000000 0.05000000 0.69000000 0.25000000)
        (0.94108421 0.04901480 0.00980296 0.00009803)
        (0.94108421 0.04901480 0.00980296 0.00009803)
        (0.94108421 0.04901480 0.00980296 0.00009803)
        (0.30000000 0.40000000 0.29000000 0.01000000)
        (0.94108421 0.04901480 0.00980296 0.00009803)
        (0.30000000 0.40000000 0.29000000 0.01000000)
        (0.94108421 0.04901480 0.00980296 0.00009803)
        (0.30000000 0.40000000 0.29000000 0.01000000)
        (0.94108421 0.04901480 0.00980296 0.00009803));
}

potential (F6 | Fault F53)
{
    data = (((0.95000000 0.05000000 0.00000000 0.00000000)
        (0.75000000 0.25000000 0.00000000 0.00000000)
        (0.49950050 0.44955045 0.04995005 0.00099900)
        (0.00000000 0.05000000 0.40000000 0.55000000))
        ((0.95000000 0.05000000 0.00000000 0.00000000)
        (0.75000000 0.25000000 0.00000000 0.00000000)
        (0.49950050 0.44955045 0.04995005 0.00099900)
        (0.00000000 0.05000000 0.40000000 0.55000000))
        ((0.95000000 0.05000000 0.00000000 0.00000000)
        (0.75000000 0.25000000 0.00000000 0.00000000)
        (0.49950050 0.44955045 0.04995005 0.00099900)
        (0.00000000 0.05000000 0.40000000 0.55000000))
        ((0.95000000 0.05000000 0.00000000 0.00000000)
        (0.75000000 0.25000000 0.00000000 0.00000000)
        (0.49950050 0.44955045 0.04995005 0.00099900)
        (0.00000000 0.05000000 0.40000000 0.55000000))
        ((0.00000000 0.00099900 0.24975025 0.74925075)
        (0.25000000 0.75000000 0.00000000 0.00000000)
        (0.00000000 0.39960040 0.59940060 0.00099900)
        (0.00000000 0.01000000 0.40000000 0.59000000))
        ((0.95000000 0.05000000 0.00000000 0.00000000)
        (0.75000000 0.25000000 0.00000000 0.00000000)
        (0.49950050 0.44955045 0.04995005 0.00099900)
        (0.00000000 0.05000000 0.40000000 0.55000000))
        ((0.95000000 0.05000000 0.00000000 0.00000000)
        (0.75000000 0.25000000 0.00000000 0.00000000)
        (0.49950050 0.44955045 0.04995005 0.00099900)
        (0.00000000 0.05000000 0.40000000 0.55000000))
        ((0.95000000 0.05000000 0.00000000 0.00000000)
        (0.75000000 0.25000000 0.00000000 0.00000000)
        (0.49950050 0.44955045 0.04995005 0.00099900)
        (0.00000000 0.05000000 0.40000000 0.55000000))
        ((0.95000000 0.05000000 0.00000000 0.00000000)
        (0.75000000 0.25000000 0.00000000 0.00000000)
        (0.49950050 0.44955045 0.04995005 0.00099900)
        (0.00000000 0.05000000 0.40000000 0.55000000))
        ((0.00000000 0.05000000 0.35000000 0.60000000)
        (0.00000000 0.04000000 0.36000000 0.60000000)
        (0.00000000 0.01000000 0.40000000 0.59000000)
        (0.00000000 0.00537634 0.13440860 0.86021505))
        ((0.95000000 0.05000000 0.00000000 0.00000000)
        (0.75000000 0.25000000 0.00000000 0.00000000)
        (0.49950050 0.44955045 0.04995005 0.00099900)
        (0.00000000 0.05000000 0.40000000 0.55000000))
        ((0.95000000 0.05000000 0.00000000 0.00000000)
        (0.75000000 0.25000000 0.00000000 0.00000000)
        (0.49950050 0.44955045 0.04995005 0.00099900)
        (0.00000000 0.05000000 0.40000000 0.55000000))
        ((0.95000000 0.05000000 0.00000000 0.00000000)
        (0.75000000 0.25000000 0.00000000 0.00000000)
        (0.49950050 0.44955045 0.04995005 0.00099900)
        (0.00000000 0.05000000 0.40000000 0.55000000))
        ((0.95000000 0.05000000 0.00000000 0.00000000)
        (0.75000000 0.25000000 0.00000000 0.00000000)
        (0.49950050 0.44955045 0.04995005 0.00099900)
        (0.00000000 0.05000000 0.40000000 0.55000000))
        ((0.95000000 0.05000000 0.00000000 0.00000000)
        (0.75000000 0.25000000 0.00000000 0.00000000)
        (0.49950050 0.44955045 0.04995005 0.00099900)
        (0.00000000 0.05000000 0.40000000 0.55000000))
        ((0.95000000 0.05000000 0.00000000 0.00000000)
        (0.75000000 0.25000000 0.00000000 0.00000000)
        (0.49950050 0.44955045 0.04995005 0.00099900)
        (0.00000000 0.05000000 0.40000000 0.55000000))
        ((0.95000000 0.05000000 0.00000000 0.00000000)
        (0.75000000 0.25000000 0.00000000 0.00000000)
        (0.49950050 0.44955045 0.04995005 0.00099900)
        (0.00000000 0.05000000 0.40000000 0.55000000))
        ((0.95000000 0.05000000 0.00000000 0.00000000)
        (0.75000000 0.25000000 0.00000000 0.00000000)
        (0.49950050 0.44955045 0.04995005 0.00099900)
        (0.00000000 0.05000000 0.40000000 0.55000000))
        ((0.95000000 0.05000000 0.00000000 0.00000000)
        (0.75000000 0.25000000 0.00000000 0.00000000)
        (0.49950050 0.44955045 0.04995005 0.00099900)
        (0.00000000 0.05000000 0.40000000 0.55000000))
        ((0.95000000 0.05000000 0.00000000 0.00000000)
        (0.75000000 0.25000000 0.00000000 0.00000000)
        (0.49950050 0.44955045 0.04995005 0.00099900)
        (0.00000000 0.05000000 0.40000000 0.55000000))
        ((0.95000000 0.05000000 0.00000000 0.00000000)
        (0.75000000 0.25000000 0.00000000 0.00000000)
        (0.49950050 0.44955045 0.04995005 0.00099900)
        (0.00000000 0.05000000 0.40000000 0.55000000))
        ((0.95000000 0.05000000 0.00000000 0.00000000)
        (0.75000000 0.25000000 0.00000000 0.00000000)
        (0.49950050 0.44955045 0.04995005 0.00099900)
        (0.00000000 0.05000000 0.40000000 0.55000000))
        ((0.95000000 0.05000000 0.00000000 0.00000000)
        (0.75000000 0.25000000 0.00000000 0.00000000)
        (0.49950050 0.44955045 0.04995005 0.00099900)
        (0.00000000 0.05000000 0.40000000 0.55000000))
        ((0.95000000 0.05000000 0.00000000 0.00000000)
        (0.75000000 0.25000000 0.00000000 0.00000000)
        (0.49950050 0.44955045 0.04995005 0.00099900)
        (0.00000000 0.05000000 0.40000000 0.55000000))
        ((0.95000000 0.05000000 0.00000000 0.00000000)
        (0.75000000 0.25000000 0.00000000 0.00000000)
        (0.49950050 0.44955045 0.04995005 0.00099900)
        (0.00000000 0.05000000 0.40000000 0.55000000))
        ((000000 0.04000000 0.01000000)
        (0.91500000 0.07000000 0.01500000)
        (0.84000000 0.12000000 0.04000000)
        (0.95000000 0.04000000 0.01000000))
        ((0.80000000 0.15000000 0.05000000)
        (0.26500000 0.72000000 0.01500000)
        (0.69000000 0.23000000 0.08000000)
        (0.80000000 0.15000000 0.05000000))
        ((0.60000000 0.15000000 0.25000000)
        (0.57000000 0.18000000 0.25000000)
        (0.40000000 0.30000000 0.30000000)
        (0.00000000 0.10000000 0.90000000)))
        (((0.50000000 0.49000000 0.01000000)
        (0.49000000 0.49500000 0.01500000)
        (0.50000000 0.45000000 0.05000000)
        (0.50000000 0.45000000 0.05000000))
        ((0.48000000 0.50000000 0.02000000)
        (0.52500000 0.45000000 0.02500000)
        (0.50000000 0.45000000 0.05000000)
        (0.48000000 0.50000000 0.02000000))
        ((0.30000000 0.65000000 0.05000000)
        (0.27500000 0.67000000 0.05500000)
        (0.19000000 0.73000000 0.08000000)
        (0.34285714 0.61904762 0.03809524))
        ((0.05000000 0.65000000 0.30000000)
        (0.05000000 0.65000000 0.30000000)
        (0.04000000 0.61000000 0.35000000)
        (0.00000000 0.10000000 0.90000000)))
        (((0.99000000 0.01000000 0.00000000)
        (0.95454545 0.04040404 0.00505051)
        (0.99000000 0.01000000 0.00000000)
        (0.99000000 0.01000000 0.00000000))
        ((0.95000000 0.04000000 0.01000000)
        (0.91500000 0.07000000 0.01500000)
        (0.84000000 0.12000000 0.04000000)
        (0.95000000 0.04000000 0.01000000))
        ((0.80000000 0.15000000 0.05000000)
        (0.26500000 0.72000000 0.01500000)
        (0.69000000 0.23000000 0.08000000)
        (0.80000000 0.15000000 0.05000000))
        ((0.60000000 0.15000000 0.25000000)
        (0.57000000 0.18000000 0.25000000)
        (0.40000000 0.30000000 0.30000000)
        (0.00000000 0.10000000 0.90000000)))
        (((0.95000000 0.05000000 0.00000000)
        (0.91542289 0.07960199 0.00497512)
        (0.80000000 0.20000000 0.00000000)
        (0.80000000 0.20000000 0.00000000))
        ((0.90476190 0.08571429 0.00952381)
        (0.88500000 0.10000000 0.01500000)
        (0.79000000 0.17000000 0.04000000)
        (0.90476190 0.08571429 0.00952381))
        ((0.75000000 0.20000000 0.05000000)
        (0.75500000 0.23000000 0.01500000)
        (0.64000000 0.28000000 0.08000000)
        (0.75000000 0.20000000 0.05000000))
        ((0.55000000 0.20000000 0.25000000)
        (0.52000000 0.23000000 0.25000000)
        (0.35000000 0.35000000 0.30000000)
        (0.00000000 0.10000000 0.90000000)))
        (((0.79000000 0.20000000 0.01000000)
        (0.75500000 0.23000000 0.01500000)
        (0.79000000 0.20000000 0.01000000)
        (0.79000000 0.20000000 0.01000000))
        ((0.74000000 0.24000000 0.02000000)
        (0.72500000 0.25000000 0.02500000)
        (0.70000000 0.25000000 0.05000000)
        (0.74000000 0.24000000 0.02000000))
        ((0.60000000 0.34000000 0.06000000)
        (0.56500000 0.37000000 0.06500000)
        (0.49000000 0.42000000 0.09000000)
        (0.61000000 0.34000000 0.05000000))
        ((0.49000000 0.25000000 0.26000000)
        (0.46000000 0.28000000 0.26000000)
        (0.29000000 0.40000000 0.31000000)
        (0.00000000 0.10000000 0.90000000)))
        (((0.99000000 0.01000000 0.00000000)
        (0.95454545 0.04040404 0.00505051)
        (0.99000000 0.01000000 0.00000000)
        (0.99000000 0.01000000 0.00000000))
        ((0.95000000 0.04000000 0.01000000)
        (0.91500000 0.07000000 0.01500000)
        (0.84000000 0.12000000 0.04000000)
        (0.95000000 0.04000000 0.01000000))
        ((0.80000000 0.15000000 0.05000000)
        (0.26500000 0.72000000 0.01500000)
        (0.69000000 0.23000000 0.08000000)
        (0.80000000 0.15000000 0.05000000))
        ((0.60000000 0.15000000 0.25000000)
        (0.57000000 0.18000000 0.25000000)
        (0.40000000 0.30000000 0.30000000)
        (0.00000000 0.10000000 0.90000000)))
        (((0.99000000 0.01000000 0.00000000)
        (0.95454545 0.04040404 0.00505051)
        (0.99000000 0.01000000 0.00000000)
        (0.99000000 0.01000000 0.00000000))
        ((0.95000000 0.04000000 0.01000000)
        (0.91500000 0.07000000 0.01500000)
        (0.84000000 0.12000000 0.04000000)
        (0.95000000 0.04000000 0.01000000))
        ((0.80000000 0.15000000 0.05000000)
        (0.26500000 0.72000000 0.01500000)
        (0.69000000 0.23000000 0.08000000)
        (0.80000000 0.15000000 0.05000000))
        ((0.60000000 0.15000000 0.25000000)
        (0.57000000 0.18000000 0.25000000)
        (0.40000000 0.30000000 0.30000000)
        (0.00000000 0.10000000 0.90000000)))
        (((0.33333333 0.33333333 0.33333333)
        (0.20000000 0.75000000 0.05000000)
        (0.13000000 0.80000000 0.07000000)
        (0.38000000 0.60000000 0.02000000))
        ((0.33333333 0.33333333 0.33333333)
        (0.15000000 0.79000000 0.06000000)
        (0.05000000 0.87000000 0.08000000)
        (0.33000000 0.64000000 0.03000000))
        ((0.33333333 0.33333333 0.33333333)
        (0.05000000 0.85000000 0.10000000)
        (0.02000000 0.86000000 0.12000000)
        (0.18000000 0.75000000 0.07000000))
        ((0.33333333 0.33333333 0.33333333)
        (0.02000000 0.68000000 0.30000000)
        (0.01000000 0.67000000 0.32000000)
        (0.00497512 0.72636816 0.26865672)))
        (((0.33333333 0.33333333 0.33333333)
        (0.20000000 0.75000000 0.05000000)
        (0.13000000 0.80000000 0.07000000)
        (0.38000000 0.60000000 0.02000000))
        ((0.33333333 0.33333333 0.33333333)
        (0.15000000 0.79000000 0.06000000)
        (0.05000000 0.87000000 0.08000000)
        (0.33000000 0.64000000 0.03000000))
        ((0.33333333 0.33333333 0.33333333)
        (0.05000000 0.85000000 0.10000000)
        (0.02000000 0.86000000 0.12000000)
        (0.18000000 0.75000000 0.07000000))
        ((0.33333333 0.33333333 0.33333333)
        (0.02000000 0.68000000 0.30000000)
        (0.01000000 0.67000000 0.32000000)
        (0.00497512 0.72636816 0.26865672)))
        (((0.99000000 0.01000000 0.00000000)
        (0.95454545 0.04040404 0.00505051)
        (0.99000000 0.01000000 0.00000000)
        (0.99000000 0.01000000 0.00000000))
        ((0.95000000 0.04000000 0.01000000)
        (0.91500000 0.07000000 0.01500000)
        (0.84000000 0.12000000 0.04000000)
        (0.95000000 0.04000000 0.01000000))
        ((0.80000000 0.15000000 0.05000000)
        (0.26500000 0.72000000 0.01500000)
        (0.69000000 0.23000000 0.08000000)
        (0.80000000 0.15000000 0.05000000))
        ((0.60000000 0.15000000 0.25000000)
        (0.57000000 0.18000000 0.25000000)
        (0.40000000 0.30000000 0.30000000)
        (0.00000000 0.10000000 0.90000000)))
        (((0.99000000 0.01000000 0.00000000)
        (0.95454545 0.04040404 0.00505051)
        (0.99000000 0.01000000 0.00000000)
        (0.99000000 0.01000000 0.00000000))
        ((0.95000000 0.04000000 0.01000000)
        (0.91500000 0.07000000 0.01500000)
        (0.84000000 0.12000000 0.04000000)
        (0.95000000 0.04000000 0.01000000))
        ((0.80000000 0.15000000 0.05000000)
        (0.26500000 0.72000000 0.01500000)
        (0.69000000 0.23000000 0.08000000)
        (0.80000000 0.15000000 0.05000000))
        ((0.60000000 0.15000000 0.25000000)
        (0.57000000 0.18000000 0.25000000)
        (0.40000000 0.30000000 0.30000000)
        (0.00000000 0.10000000 0.90000000)))
        (((0.00000000 0.20000000 0.80000000)
        (0.00000000 0.20000000 0.80000000)
        (0.00000000 0.20000000 0.80000000)
        (0.00000000 0.20000000 0.80000000))
        ((0.00000000 0.20000000 0.80000000)
        (0.00000000 0.20000000 0.80000000)
        (0.00000000 0.20000000 0.80000000)
        (0.00000000 0.25000000 0.75000000))
        ((0.00000000 0.15000000 0.85000000)
        (0.00000000 0.15000000 0.85000000)
        (0.00000000 0.15000000 0.85000000)
        (0.00000000 0.20000000 0.80000000))
        ((0.00000000 0.10000000 0.90000000)
        (0.00000000 0.10000000 0.90000000)
        (0.00000000 0.05000000 0.95000000)
        (0.00000000 0.02000000 0.98000000)))
        (((0.01000000 0.50000000 0.49000000)
        (0.01000000 0.50000000 0.49000000)
        (0.01000000 0.50000000 0.49000000)
        (0.01000000 0.50000000 0.49000000))
        ((0.01000000 0.49000000 0.50000000)
        (0.01000000 0.49000000 0.50000000)
        (0.01000000 0.50000000 0.49000000)
        (0.01000000 0.54000000 0.45000000))
        ((0.00099900 0.44955045 0.54945055)
        (0.00099900 0.44955045 0.54945055)
        (0.00099900 0.44955045 0.54945055)
        (0.00099900 0.49950050 0.49950050))
        ((0.00009999 0.24997500 0.74992501)
        (0.00009999 0.24997500 0.74992501)
        (0.00009999 0.19998000 0.79992001)
        (0.01000000 0.05000000 0.94000000)))
        (((0.95000000 0.05000000 0.00000000)
        (0.91542289 0.07960199 0.00497512)
        (0.80000000 0.20000000 0.00000000)
        (0.80000000 0.20000000 0.00000000))
        ((0.90476190 0.08571429 0.00952381)
        (0.88500000 0.10000000 0.01500000)
        (0.79000000 0.17000000 0.04000000)
        (0.90476190 0.08571429 0.00952381))
        ((0.75000000 0.20000000 0.05000000)
        (0.75500000 0.23000000 0.01500000)
        (0.64000000 0.28000000 0.08000000)
        (0.75000000 0.20000000 0.05000000))
        ((0.55000000 0.20000000 0.25000000)
        (0.52000000 0.23000000 0.25000000)
        (0.35000000 0.35000000 0.30000000)
        (0.00000000 0.10000000 0.90000000)))
        (((0.99000000 0.01000000 0.00000000)
        (0.95454545 0.04040404 0.00505051)
        (0.99000000 0.01000000 0.00000000)
        (0.99000000 0.01000000 0.00000000))
        ((0.95000000 0.04000000 0.01000000)
        (0.91500000 0.07000000 0.01500000)
        (0.84000000 0.12000000 0.04000000)
        (0.95000000 0.04000000 0.01000000))
        ((0.80000000 0.15000000 0.05000000)
        (0.26500000 0.72000000 0.01500000)
        (0.69000000 0.23000000 0.08000000)
        (0.80000000 0.15000000 0.05000000))
        ((0.60000000 0.15000000 0.25000000)
        (0.57000000 0.18000000 0.25000000)
        (0.40000000 0.30000000 0.30000000)
        (0.00000000 0.10000000 0.90000000)))
        (((0.99000000 0.01000000 0.00000000)
        (0.95454545 0.04040404 0.00505051)
        (0.99000000 0.01000000 0.00000000)
        (0.99000000 0.01000000 0.00000000))
        ((0.95000000 0.04000000 0.01000000)
        (0.91500000 0.07000000 0.01500000)
        (0.84000000 0.12000000 0.04000000)
        (0.95000000 0.04000000 0.01000000))
        ((0.80000000 0.15000000 0.05000000)
        (0.26500000 0.72000000 0.01500000)
        (0.69000000 0.23000000 0.08000000)
        (0.80000000 0.15000000 0.05000000))
        ((0.60000000 0.15000000 0.25000000)
        (0.57000000 0.18000000 0.25000000)
        (0.40000000 0.30000000 0.30000000)
        (0.00000000 0.10000000 0.90000000)))
        (((0.95000000 0.05000000 0.00000000)
        (0.91542289 0.07960199 0.00497512)
        (0.80000000 0.20000000 0.00000000)
        (0.80000000 0.20000000 0.00000000))
        ((0.90476190 0.08571429 0.00952381)
        (0.88500000 0.10000000 0.01500000)
        (0.79000000 0.17000000 0.04000000)
        (0.90476190 0.08571429 0.00952381))
        ((0.75000000 0.20000000 0.05000000)
        (0.75500000 0.23000000 0.01500000)
        (0.64000000 0.28000000 0.08000000)
        (0.75000000 0.20000000 0.05000000))
        ((0.55000000 0.20000000 0.25000000)
        (0.52000000 0.23000000 0.25000000)
        (0.35000000 0.35000000 0.30000000)
        (0.00000000 0.10000000 0.90000000)))
        (((0.99000000 0.01000000 0.00000000)
        (0.95454545 0.04040404 0.00505051)
        (0.99000000 0.01000000 0.00000000)
        (0.99000000 0.01000000 0.00000000))
        ((0.95000000 0.04000000 0.01000000)
        (0.91500000 0.07000000 0.01500000)
        (0.84000000 0.12000000 0.04000000)
        (0.95000000 0.04000000 0.01000000))
        ((0.80000000 0.15000000 0.05000000)
        (0.26500000 0.72000000 0.01500000)
        (0.69000000 0.23000000 0.08000000)
        (0.80000000 0.15000000 0.05000000))
        ((0.60000000 0.15000000 0.25000000)
        (0.57000000 0.18000000 0.25000000)
        (0.40000000 0.30000000 0.30000000)
        (0.00000000 0.10000000 0.90000000)))
        (((0.99000000 0.01000000 0.00000000)
        (0.95454545 0.04040404 0.00505051)
        (0.99000000 0.01000000 0.00000000)
        (0.99000000 0.01000000 0.00000000))
        ((0.95000000 0.04000000 0.01000000)
        (0.91500000 0.07000000 0.01500000)
        (0.84000000 0.12000000 0.04000000)
        (0.95000000 0.04000000 0.01000000))
        ((0.80000000 0.15000000 0.05000000)
        (0.26500000 0.72000000 0.01500000)
        (0.69000000 0.23000000 0.08000000)
        (0.80000000 0.15000000 0.05000000))
        ((0.60000000 0.15000000 0.25000000)
        (0.57000000 0.18000000 0.25000000)
        (0.40000000 0.30000000 0.30000000)
        (0.00000000 0.10000000 0.90000000)))
        (((0.99000000 0.01000000 0.00000000)
        (0.95454545 0.04040404 0.00505051)
        (0.99000000 0.01000000 0.00000000)
        (0.99000000 0.01000000 0.00000000))
        ((0.95000000 0.04000000 0.01000000)
        (0.91500000 0.07000000 0.01500000)
        (0.84000000 0.12000000 0.04000000)
        (0.95000000 0.04000000 0.01000000))
        ((0.80000000 0.15000000 0.05000000)
        (0.26500000 0.72000000 0.01500000)
        (0.69000000 0.23000000 0.08000000)
        (0.80000000 0.15000000 0.05000000))
        ((0.60000000 0.15000000 0.25000000)
        (0.57000000 0.18000000 0.25000000)
        (0.40000000 0.30000000 0.30000000)
        (0.00000000 0.10000000 0.90000000)))
        (((0.99000000 0.01000000 0.00000000)
        (0.95454545 0.04040404 0.00505051)
        (0.99000000 0.01000000 0.00000000)
        (0.99000000 0.01000000 0.00000000))
        ((0.95000000 0.04000000 0.01000000)
        (0.91500000 0.07000000 0.01500000)
        (0.84000000 0.12000000 0.04000000)
        (0.95000000 0.04000000 0.01000000))
        ((0.80000000 0.15000000 0.05000000)
        (0.26500000 0.72000000 0.01500000)
        (0.69000000 0.23000000 0.08000000)
        (0.80000000 0.15000000 0.05000000))
        ((0.60000000 0.15000000 0.25000000)
        (0.57000000 0.18000000 0.25000000)
        (0.40000000 0.30000000 0.30000000)
        (0.00000000 0.10000000 0.90000000)))
        (((0.99000000 0.01000000 0.00000000)
        (0.95454545 0.04040404 0.00505051)
        (0.99000000 0.01000000 0.00000000)
        (0.99000000 0.01000000 0.00000000))
        ((0.95000000 0.04000000 0.01000000)
        (0.91500000 0.07000000 0.01500000)
        (0.84000000 0.12000000 0.04000000)
        (0.95000000 0.04000000 0.01000000))
        ((0.80000000 0.15000000 0.05000000)
        (0.26500000 0.72000000 0.01500000)
        (0.69000000 0.23000000 0.08000000)
        (0.80000000 0.15000000 0.05000000))
        ((0.60000000 0.15000000 0.25000000)
        (0.57000000 0.18000000 0.25000000)
        (0.40000000 0.30000000 0.30000000)
        (0.00000000 0.10000000 0.90000000)))
        (((0.99000000 0.01000000 0.00000000)
        (0.95454545 0.04040404 0.00505051)
        (0.99000000 0.01000000 0.00000000)
        (0.99000000 0.01000000 0.00000000))
        ((0.95000000 0.04000000 0.01000000)
        (0.91500000 0.07000000 0.01500000)
        (0.84000000 0.12000000 0.04000000)
        (0.95000000 0.04000000 0.01000000))
        ((0.80000000 0.15000000 0.05000000)
        (0.26500000 0.72000000 0.01500000)
        (0.69000000 0.23000000 0.08000000)
        (0.80000000 0.15000000 0.05000000))
        ((0.60000000 0.15000000 0.25000000)
        (0.57000000 0.18000000 0.25000000)
        (0.40000000 0.30000000 0.30000000)
        (0.00000000 0.10000000 0.90000000)))
        (((0.99000000 0.01000000 0.00000000)
        (0.95454545 0.04040404 0.00505051)
        (0.99000000 0.01000000 0.00000000)
        (0.99000000 0.01000000 0.00000000))
        ((0.95000000 0.04000000 0.01000000)
        (0.91500000 0.07000000 0.01500000)
        (0.84000000 0.12000000 0.04000000)
        (0.95000000 0.04000000 0.01000000))
        ((0.80000000 0.15000000 0.05000000)
        (0.26500000 0.72000000 0.01500000)
        (0.69000000 0.23000000 0.08000000)
        (0.80000000 0.15000000 0.05000000))
        ((0.60000000 0.15000000 0.25000000)
        (0.57000000 0.18000000 0.25000000)
        (0.40000000 0.30000000 0.30000000)
        (0.00000000 0.10000000 0.90000000)))
        (((0.99000000 0.01000000 0.00000000)
        (0.95454545 0.04040404 0.00505051)
        (0.99000000 0.01000000 0.00000000)
        (0.99000000 0.01000000 0.00000000))
        ((0.95000000 0.04000000 0.01000000)
        (0.91500000 0.07000000 0.01500000)
        (0.84000000 0.12000000 0.04000000)
        (0.95000000 0.04000000 0.01000000))
        ((0.80000000 0.15000000 0.05000000)
        (0.26500000 0.72000000 0.01500000)
        (0.69000000 0.23000000 0.08000000)
        (0.80000000 0.15000000 0.05000000))
        ((0.60000000 0.15000000 0.25000000)
        (0.57000000 0.18000000 0.25000000)
        (0.40000000 0.30000000 0.30000000)
        (0.00000000 0.10000000 0.90000000)))
        (((0.99000000 0.01000000 0.00000000)
        (0.95454545 0.04040404 0.00505051)
        (0.99000000 0.01000000 0.00000000)
        (0.99000000 0.01000000 0.00000000))
        ((0.95000000 0.04000000 0.01000000)
        (0.91500000 0.07000000 0.01500000)
        (0.84000000 0.12000000 0.04000000)
        (0.95000000 0.04000000 0.01000000))
        ((0.80000000 0.15000000 0.05000000)
        (0.26500000 0.72000000 0.01500000)
        (0.69000000 0.23000000 0.08000000)
        (0.80000000 0.15000000 0.05000000))
        ((0.60000000 0.15000000 0.25000000)
        (0.57000000 0.18000000 0.25000000)
        (0.40000000 0.30000000 0.30000000)
        (0.00000000 0.10000000 0.90000000)))
        (((0.99000000 0.01000000 0.00000000)
        (0.95454545 0.04040404 0.00505051)
        (0.99000000 0.01000000 0.00000000)
        (0.99000000 0.01000000 0.00000000))
        ((0.95000000 0.04000000 0.01000000)
        (0.91500000 0.07000000 0.01500000)
        (0.84000000 0.12000000 0.04000000)
        (0.95000000 0.04000000 0.01000000))
        ((0.80000000 0.15000000 0.05000000)
        (0.26500000 0.72000000 0.01500000)
        (0.69000000 0.23000000 0.08000000)
        (0.80000000 0.15000000 0.05000000))
        ((0.60000000 0.15000000 0.25000000)
        (0.57000000 0.18000000 0.25000000)
        (0.40000000 0.30000000 0.30000000)
        (0.00000000 0.10000000 0.90000000)))
        (((0.99000000 0.01000000 0.00000000)
        (0.95454545 0.04040404 0.00505051)
        (0.99000000 0.01000000 0.00000000)
        (0.99000000 0.01000000 0.00000000))
        ((0.95000000 0.04000000 0.01000000)
        (0.91500000 0.07000000 0.01500000)
        (0.84000000 0.12000000 0.04000000)
        (0.95000000 0.04000000 0.01000000))
        ((0.80000000 0.15000000 0.05000000)
        (0.26500000 0.72000000 0.01500000)
        (0.69000000 0.23000000 0.08000000)
        (0.80000000 0.15000000 0.05000000))
        ((0.60000000 0.15000000 0.25000000)
        (0.57000000 0.18000000 0.25000000)
        (0.40000000 0.30000000 0.30000000)
        (0.00000000 0.10000000 0.90000000)))
        (((0.99000000 0.01000000 0.00000000)
        (0.95454545 0.04040404 0.00505051)
        (0.99000000 0.01000000 0.00000000)
        (0.99000000 0.01000000 0.00000000))
        ((0.95000000 0.04000000 0.01000000)
        (0.91500000 0.07000000 0.01500000)
        (0.84000000 0.12000000 0.04000000)
        (0.95000000 0.04000000 0.01000000))
        ((0.80000000 0.15000000 0.05000000)
        (0.26500000 0.72000000 0.01500000)
        (0.69000000 0.23000000 0.08000000)
        (0.80000000 0.15000000 0.05000000))
        ((0.60000000 0.15000000 0.25000000)
        (0.57000000 0.18000000 0.25000000)
        (0.40000000 0.30000000 0.30000000)
        (0.00000000 0.10000000 0.90000000)))
        (((0.99000000 0.01000000 0.00000000)
        (0.95454545 0.04040404 0.00505051)
        (0.99000000 0.01000000 0.00000000)
        (0.99000000 0.01000000 0.00000000))
        ((0.95000000 0.04000000 0.01000000)
        (0.91500000 0.07000000 0.01500000)
        (0.84000000 0.12000000 0.04000000)
        (0.95000000 0.04000000 0.01000000))
        ((0.80000000 0.15000000 0.05000000)
        (0.26500000 0.72000000 0.01500000)
        (0.69000000 0.23000000 0.08000000)
        (0.80000000 0.15000000 0.05000000))
        ((0.60000000 0.15000000 0.25000000)
        (0.57000000 0.18000000 0.25000000)
        (0.40000000 0.30000000 0.30000000)
        (0.00000000 0.10000000 0.90000000)))
        (((0.99000000 0.01000000 0.00000000)
        (0.95454545 0.04040404 0.00505051)
        (0.99000000 0.01000000 0.00000000)
        (0.99000000 0.01000000 0.00000000))
        ((0.95000000 0.04000000 0.01000000)
        (0.91500000 0.07000000 0.01500000)
        (0.84000000 0.12000000 0.04000000)
        (0.95000000 0.04000000 0.01000000))
        ((0.80000000 0.15000000 0.05000000)
        (0.26500000 0.72000000 0.01500000)
        (0.69000000 0.23000000 0.08000000)
        (0.80000000 0.15000000 0.05000000))
        ((0.60000000 0.15000000 0.25000000)
        (0.57000000 0.18000000 0.25000000)
        (0.40000000 0.30000000 0.30000000)
        (0.00000000 0.10000000 0.90000000)))
        (((0.99000000 0.01000000 0.00000000)
        (0.95454545 0.04040404 0.00505051)
        (0.99000000 0.01000000 0.00000000)
        (0.99000000 0.01000000 0.00000000))
        ((0.95000000 0.04000000 0.01000000)
        (0.91500000 0.07000000 0.01500000)
        (0.84000000 0.12000000 0.04000000)
        (0.95000000 0.04000000 0.01000000))
        ((0.80000000 0.15000000 0.05000000)
        (0.26500000 0.72000000 0.01500000)
        (0.69000000 0.23000000 0.08000000)
        (0.80000000 0.15000000 0.05000000))
        ((0.60000000 0.15000000 0.25000000)
        (0.57000000 0.18000000 0.25000000)
        (0.40000000 0.30000000 0.30000000)
        (0.00000000 0.10000000 0.90000000)))
        (((0.99000000 0.01000000 0.00000000)
        (0.95454545 0.04040404 0.00505051)
        (0.99000000 0.01000000 0.00000000)
        (0.99000000 0.01000000 0.00000000))
        ((0.95000000 0.04000000 0.01000000)
        (0.91500000 0.07000000 0.01500000)
        (0.84000000 0.12000000 0.04000000)
        (0.95000000 0.04000000 0.01000000))
        ((0.80000000 0.15000000 0.05000000)
        (0.26500000 0.72000000 0.01500000)
        (0.69000000 0.23000000 0.08000000)
        (0.80000000 0.15000000 0.05000000))
        ((0.60000000 0.15000000 0.25000000)
        (0.57000000 0.18000000 0.25000000)
        (0.40000000 0.30000000 0.30000000)
        (0.00000000 0.10000000 0.90000000)))
        (((0.99000000 0.01000000 0.00000000)
        (0.95454545 0.04040404 0.00505051)
        (0.99000000 0.01000000 0.00000000)
        (0.99000000 0.01000000 0.00000000))
        ((0.95000000 0.04000000 0.01000000)
        (0.91500000 0.07000000 0.01500000)
        (0.84000000 0.12000000 0.04000000)
        (0.95000000 0.04000000 0.01000000))
        ((0.80000000 0.15000000 0.05000000)
        (0.26500000 0.72000000 0.01500000)
        (0.69000000 0.23000000 0.08000000)
        (0.80000000 0.15000000 0.05000000))
        ((0.60000000 0.15000000 0.25000000)
        (0.57000000 0.18000000 0.25000000)
        (0.40000000 0.30000000 0.30000000)
        (0.00000000 0.10000000 0.90000000)))
        (((0.99000000 0.01000000 0.00000000)
        (0.95454545 0.04040404 0.00505051)
        (0.99000000 0.01000000 0.00000000)
        (0.99000000 0.01000000 0.00000000))
        ((0.95000000 0.04000000 0.01000000)
        (0.91500000 0.07000000 0.01500000)
        (0.84000000 0.12000000 0.04000000)
        (0.95000000 0.04000000 0.01000000))
        ((0.80000000 0.15000000 0.05000000)
        (0.26500000 0.72000000 0.01500000)
        (0.69000000 0.23000000 0.08000000)
        (0.80000000 0.15000000 0.05000000))
        ((0.60000000 0.15000000 0.25000000)
        (0.57000000 0.18000000 0.25000000)
        (0.40000000 0.30000000 0.30000000)
        (0.00000000 0.10000000 0.90000000)))
        (((0.99000000 0.01000000 0.00000000)
        (0.95454545 0.04040404 0.00505051)
        (0.99000000 0.01000000 0.00000000)
        (0.99000000 0..00000000 0.10000000 0.90000000)))
        (((0.99000000 0.01000000 0.00000000)
        (0.95454545 0.04040404 0.00505051)
        (0.99000000 0.01000000 0.00000000)
        (0.99000000 0.01000000 0.00000000))
        ((0.95000000 0.04000000 0.01000000)
        (0.91500000 0.07000000 0.01500000)
        (0.84000000 0.12000000 0.04000000)
        (0.95000000 0.04000000 0.01000000))
        ((0.80000000 0.15000000 0.05000000)
        (0.26500000 0.72000000 0.01500000)
        (0.69000000 0.23000000 0.08000000)
        (0.80000000 0.15000000 0.05000000))
        ((0.60000000 0.15000000 0.25000000)
        (0.57000000 0.18000000 0.25000000)
        (0.40000000 0.30000000 0.30000000)
        (0.00000000 0.10000000 0.90000000))));
}

potential (F9 | Fault)
{
    data = ((0.89910090 0.09990010 0.00099900 0.00000000 0.00000000)
        (0.89910090 0.09990010 0.00099900 0.00000000 0.00000000)
        (0.89910090 0.09990010 0.00099900 0.00000000 0.00000000)
        (0.74183976 0.24727992 0.00989120 0.00098912 0.00000000)
        (0.89910090 0.09990010 0.00099900 0.00000000 0.00000000)
        (0.89910090 0.09990010 0.00099900 0.00000000 0.00000000)
        (0.89910090 0.09990010 0.00099900 0.00000000 0.00000000)
        (0.89910090 0.09990010 0.00099900 0.00000000 0.00000000)
        (0.89910090 0.09990010 0.00099900 0.00000000 0.00000000)
        (0.89910090 0.09990010 0.00099900 0.00000000 0.00000000)
        (0.68931069 0.24975025 0.04995005 0.00999001 0.00099900)
        (0.89910090 0.09990010 0.00099900 0.00000000 0.00000000)
        (0.89910090 0.09990010 0.00099900 0.00000000 0.00000000)
        (0.89910090 0.09990010 0.00099900 0.00000000 0.00000000)
        (0.74183976 0.24727992 0.00989120 0.00098912 0.00000000)
        (0.74183976 0.24727992 0.00989120 0.00098912 0.00000000)
        (0.89910090 0.09990010 0.00099900 0.00000000 0.00000000)
        (0.89910090 0.09990010 0.00099900 0.00000000 0.00000000)
        (0.89910090 0.09990010 0.00099900 0.00000000 0.00000000)
        (0.89910090 0.09990010 0.00099900 0.00000000 0.00000000)
        (0.89910090 0.09990010 0.00099900 0.00000000 0.00000000)
        (0.89910090 0.09990010 0.00099900 0.00000000 0.00000000)
        (0.89910090 0.09990010 0.00099900 0.00000000 0.00000000)
        (0.74183976 0.24727992 0.00989120 0.00098912 0.00000000)
        (0.89910090 0.09990010 0.00099900 0.00000000 0.00000000)
        (0.89910090 0.09990010 0.00099900 0.00000000 0.00000000)
        (0.89910090 0.09990010 0.00099900 0.00000000 0.00000000)
        (0.89910090 0.09990010 0.00099900 0.00000000 0.00000000)
        (0.89910090 0.09990010 0.00099900 0.00000000 0.00000000)
        (0.89910090 0.09990010 0.00099900 0.00000000 0.00000000)
        (0.89910090 0.09990010 0.00099900 0.00000000 0.00000000)
        (0.89910090 0.09990010 0.00099900 0.00000000 0.00000000)
        (0.89910090 0.09990010 0.00099900 0.00000000 0.00000000)
        (0.89910090 0.09990010 0.00099900 0.00000000 0.00000000)
        (0.89910090 0.09990010 0.00099900 0.00000000 0.00000000)
        (0.89910090 0.09990010 0.00099900 0.00000000 0.00000000)
        (0.89910090 0.09990010 0.00099900 0.00000000 0.00000000)
        (0.89910090 0.09990010 0.00099900 0.00000000 0.00000000)
        (0.89910090 0.09990010 0.00099900 0.00000000 0.00000000)
        (0.89910090 0.09990010 0.00099900 0.00000000 0.00000000)
        (0.89910090 0.09990010 0.00099900 0.00000000 0.00000000)
        (0.86820084 0.07322176 0.05230126 0.00523013 0.00104603)
        (0.89910090 0.09990010 0.00099900 0.00000000 0.00000000)
        (0.65000000 0.15000000 0.10000000 0.05000000 0.05000000)
        (0.59000000 0.15000000 0.12000000 0.07000000 0.07000000)
        (0.68000000 0.10000000 0.10000000 0.07000000 0.05000000)
        (0.89910090 0.09990010 0.00099900 0.00000000 0.00000000)
        (0.68000000 0.10000000 0.10000000 0.07000000 0.05000000)
        (0.70000000 0.05000000 0.05000000 0.10000000 0.10000000)
        (0.00099900 0.00999001 0.04995005 0.19980020 0.73926074)
        (0.68000000 0.10000000 0.10000000 0.07000000 0.05000000)
        (0.89910090 0.09990010 0.00099900 0.00000000 0.00000000)
        (0.89910090 0.09990010 0.00099900 0.00000000 0.00000000)
        (0.89910090 0.09990010 0.00099900 0.00000000 0.00000000)
        (0.68000000 0.10000000 0.10000000 0.07000000 0.05000000)
        (0.89910090 0.09990010 0.00099900 0.00000000 0.00000000)
        (0.89910090 0.09990010 0.00099900 0.00000000 0.00000000)
        (0.89910090 0.09990010 0.00099900 0.00000000 0.00000000)
        (0.89910090 0.09990010 0.00099900 0.00000000 0.00000000)
        (0.89910090 0.09990010 0.00099900 0.00000000 0.00000000)
        (0.89910090 0.09990010 0.00099900 0.00000000 0.00000000)
        (0.89910090 0.09990010 0.00099900 0.00000000 0.00000000)
        (0.68000000 0.10000000 0.10000000 0.07000000 0.05000000));
}

potential (F10 | Fault)
{
    data = ((1.00000000 0.00000000)
        (1.00000000 0.00000000)
        (1.00000000 0.00000000)
        (1.00000000 0.00000000)
        (1.00000000 0.00000000)
        (1.00000000 0.00000000)
        (1.00000000 0.00000000)
        (1.00000000 0.00000000)
        (1.00000000 0.00000000)
        (1.00000000 0.00000000)
        (1.00000000 0.00000000)
        (1.00000000 0.00000000)
        (1.00000000 0.00000000)
        (1.00000000 0.00000000)
        (1.00000000 0.00000000)
        (1.00000000 0.00000000)
        (1.00000000 0.00000000)
        (1.00000000 0.00000000)
        (1.00000000 0.00000000)
        (1.00000000 0.00000000)
        (1.00000000 0.00000000)
        (1.00000000 0.00000000)
        (1.00000000 0.00000000)
        (1.00000000 0.00000000)
        (1.00000000 0.00000000)
        (1.00000000 0.00000000)
        (1.00000000 0.00000000)
        (1.00000000 0.00000000)
        (1.00000000 0.00000000)
        (1.00000000 0.00000000)
        (1.00000000 0.00000000)
        (1.00000000 0.00000000)
        (1.00000000 0.00000000)
        (1.00000000 0.00000000)
        (1.00000000 0.00000000)
        (1.00000000 0.00000000)
        (1.00000000 0.00000000)
        (1.00000000 0.00000000)
        (1.00000000 0.00000000)
        (1.00000000 0.00000000)
        (1.00000000 0.00000000)
        (1.00000000 0.00000000)
        (1.00000000 0.00000000)
        (1.00000000 0.00000000)
        (1.00000000 0.00000000)
        (1.00000000 0.00000000)
        (1.00000000 0.00000000)
        (1.00000000 0.00000000)
        (1.00000000 0.00000000)
        (1.00000000 0.00000000)
        (1.00000000 0.00000000)
        (1.00000000 0.00000000)
        (1.00000000 0.00000000)
        (1.00000000 0.00000000)
        (1.00000000 0.00000000)
        (1.00000000 0.00000000)
        (0.00000000 1.00000000)
        (1.00000000 0.00000000)
        (1.00000000 0.00000000)
        (1.00000000 0.00000000)
        (1.00000000 0.00000000)
        (1.00000000 0.00000000)
        (1.00000000 0.00000000));
}

potential (F55 | Fault)
{
    data = ((0.99900000 0.00100000 0.00000000 0.00000000)
        (0.99900000 0.00100000 0.00000000 0.00000000)
        (0.99900000 0.00100000 0.00000000 0.00000000)
        (0.99900000 0.00100000 0.00000000 0.00000000)
        (0.99900000 0.00100000 0.00000000 0.00000000)
        (0.99900000 0.00100000 0.00000000 0.00000000)
        (0.99900000 0.00100000 0.00000000 0.00000000)
        (0.99900000 0.00100000 0.00000000 0.00000000)
        (0.99900000 0.00100000 0.00000000 0.00000000)
        (0.99900000 0.00100000 0.00000000 0.00000000)
        (0.98000000 0.02000000 0.00000000 0.00000000)
        (0.99900000 0.00100000 0.00000000 0.00000000)
        (0.99900000 0.00100000 0.00000000 0.00000000)
        (0.99900000 0.00100000 0.00000000 0.00000000)
        (0.99900000 0.00100000 0.00000000 0.00000000)
        (0.99900000 0.00100000 0.00000000 0.00000000)
        (0.99900000 0.00100000 0.00000000 0.00000000)
        (0.99900000 0.00100000 0.00000000 0.00000000)
        (0.99900000 0.00100000 0.00000000 0.00000000)
        (0.99900000 0.00100000 0.00000000 0.00000000)
        (0.99900000 0.00100000 0.00000000 0.00000000)
        (0.99900000 0.00100000 0.00000000 0.00000000)
        (0.99900000 0.00100000 0.00000000 0.00000000)
        (0.98000000 0.02000000 0.00000000 0.00000000)
        (0.99900000 0.00100000 0.00000000 0.00000000)
        (0.80000000 0.19000000 0.01000000 0.00000000)
        (0.80000000 0.19000000 0.01000000 0.00000000)
        (0.30000000 0.49000000 0.20000000 0.01000000)
        (0.30000000 0.49000000 0.20000000 0.01000000)
        (0.30000000 0.49000000 0.20000000 0.01000000)
        (0.39000000 0.50000000 0.10000000 0.01000000)
        (0.69930070 0.24975025 0.04995005 0.00099900)
        (0.70000000 0.15000000 0.10000000 0.05000000)
        (0.70000000 0.15000000 0.10000000 0.05000000)
        (0.99900000 0.00100000 0.00000000 0.00000000)
        (0.99900000 0.00100000 0.00000000 0.00000000)
        (0.99900000 0.00100000 0.00000000 0.00000000)
        (0.99900000 0.00100000 0.00000000 0.00000000)
        (0.99900000 0.00100000 0.00000000 0.00000000)
        (0.99900000 0.00100000 0.00000000 0.00000000)
        (0.99900000 0.00100000 0.00000000 0.00000000)
        (0.99900000 0.00100000 0.00000000 0.00000000)
        (0.99900000 0.00100000 0.00000000 0.00000000)
        (0.99900000 0.00100000 0.00000000 0.00000000)
        (0.90000000 0.09000000 0.01000000 0.00000000)
        (0.99900000 0.00100000 0.00000000 0.00000000)
        (0.99900000 0.00100000 0.00000000 0.00000000)
        (0.90000000 0.09000000 0.01000000 0.00000000)
        (0.99900000 0.00100000 0.00000000 0.00000000)
        (0.99900000 0.00100000 0.00000000 0.00000000)
        (0.99900000 0.00100000 0.00000000 0.00000000)
        (0.99900000 0.00100000 0.00000000 0.00000000)
        (0.79000000 0.15000000 0.05000000 0.01000000)
        (0.99900000 0.00100000 0.00000000 0.00000000)
        (0.99900000 0.00100000 0.00000000 0.00000000)
        (0.99900000 0.00100000 0.00000000 0.00000000)
        (0.99900000 0.00100000 0.00000000 0.00000000)
        (0.99900000 0.00100000 0.00000000 0.00000000)
        (0.99900000 0.00100000 0.00000000 0.00000000)
        (0.99900000 0.00100000 0.00000000 0.00000000)
        (0.99900000 0.00100000 0.00000000 0.00000000)
        (0.99900000 0.00100000 0.00000000 0.00000000)
        (0.99900000 0.00100000 0.00000000 0.00000000));
}

potential (F52 | Fault F55)
{
    data = (((0.99990000 0.00010000 0.00000000 0.00000000)
        (0.99990000 0.00010000 0.00000000 0.00000000)
        (0.25000000 0.25000000 0.25000000 0.25000000)
        (0.25000000 0.25000000 0.25000000 0.25000000))
        ((0.98000000 0.02000000 0.00000000 0.00000000)
        (0.98000000 0.02000000 0.00000000 0.00000000)
        (0.97000000 0.03000000 0.00000000 0.00000000)
        (0.25000000 0.25000000 0.25000000 0.25000000))
        ((0.99990000 0.00010000 0.00000000 0.00000000)
        (0.99990000 0.00010000 0.00000000 0.00000000)
        (0.25000000 0.25000000 0.25000000 0.25000000)
        (0.25000000 0.25000000 0.25000000 0.25000000))
        ((0.99990000 0.00010000 0.00000000 0.00000000)
        (0.99990000 0.00010000 0.00000000 0.00000000)
        (0.25000000 0.25000000 0.25000000 0.25000000)
        (0.25000000 0.25000000 0.25000000 0.25000000))
        ((0.99990000 0.00010000 0.00000000 0.00000000)
        (0.99990000 0.00010000 0.00000000 0.00000000)
        (0.25000000 0.25000000 0.25000000 0.25000000)
        (0.25000000 0.25000000 0.25000000 0.25000000))
        ((0.99990000 0.00010000 0.00000000 0.00000000)
        (0.99990000 0.00010000 0.00000000 0.00000000)
        (0.25000000 0.25000000 0.25000000 0.25000000)
        (0.25000000 0.25000000 0.25000000 0.25000000))
        ((0.98000000 0.02000000 0.00000000 0.00000000)
        (0.98000000 0.02000000 0.00000000 0.00000000)
        (0.25000000 0.25000000 0.25000000 0.25000000)
        (0.25000000 0.25000000 0.25000000 0.25000000))
        ((0.98000000 0.02000000 0.00000000 0.00000000)
        (0.98000000 0.02000000 0.00000000 0.00000000)
        (0.25000000 0.25000000 0.25000000 0.25000000)
        (0.25000000 0.25000000 0.25000000 0.25000000))
        ((0.99990000 0.00010000 0.00000000 0.00000000)
        (0.99990000 0.00010000 0.00000000 0.00000000)
        (0.25000000 0.25000000 0.25000000 0.25000000)
        (0.25000000 0.25000000 0.25000000 0.25000000))
        ((0.99990000 0.00010000 0.00000000 0.00000000)
        (0.99990000 0.00010000 0.00000000 0.00000000)
        (0.25000000 0.25000000 0.25000000 0.25000000)
        (0.25000000 0.25000000 0.25000000 0.25000000))
        ((0.94905095 0.04995005 0.00099900 0.00000000)
        (0.94905095 0.04995005 0.00099900 0.00000000)
        (0.25000000 0.25000000 0.25000000 0.25000000)
        (0.25000000 0.25000000 0.25000000 0.25000000))
        ((0.99990000 0.00010000 0.00000000 0.00000000)
        (0.99990000 0.00010000 0.00000000 0.00000000)
        (0.25000000 0.25000000 0.25000000 0.25000000)
        (0.25000000 0.25000000 0.25000000 0.25000000))
        ((0.99990000 0.00010000 0.00000000 0.00000000)
        (0.99990000 0.00010000 0.00000000 0.00000000)
        (0.25000000 0.25000000 0.25000000 0.25000000)
        (0.25000000 0.25000000 0.25000000 0.25000000))
        ((0.99990000 0.00010000 0.00000000 0.00000000)
        (0.99990000 0.00010000 0.00000000 0.00000000)
        (0.25000000 0.25000000 0.25000000 0.25000000)
        (0.25000000 0.25000000 0.25000000 0.25000000))
        ((0.99000000 0.01000000 0.00000000 0.00000000)
        (0.99000000 0.01000000 0.00000000 0.00000000)
        (0.25000000 0.25000000 0.25000000 0.25000000)
        (0.25000000 0.25000000 0.25000000 0.25000000))
        ((0.99000000 0.01000000 0.00000000 0.00000000)
        (0.99000000 0.01000000 0.00000000 0.00000000)
    0000000)
        (0.25000000 0.25000000 0.25000000 0.25000000)
        (0.25000000 0.25000000 0.25000000 0.25000000))
        ((0.99990000 0.00010000 0.00000000 0.00000000)
        (0.99990000 0.00010000 0.00000000 0.00000000)
        (0.25000000 0.25000000 0.25000000 0.25000000)
        (0.25000000 0.25000000 0.25000000 0.25000000))
        ((0.99990000 0.00010000 0.00000000 0.00000000)
        (0.99990000 0.00010000 0.00000000 0.00000000)
        (0.25000000 0.25000000 0.25000000 0.25000000)
        (0.25000000 0.25000000 0.25000000 0.25000000))
        ((0.99990000 0.00010000 0.00000000 0.00000000)
        (0.99990000 0.00010000 0.00000000 0.00000000)
        (0.25000000 0.25000000 0.25000000 0.25000000)
        (0.25000000 0.25000000 0.25000000 0.25000000))
        ((0.99990000 0.00010000 0.00000000 0.00000000)
        (0.99990000 0.00010000 0.00000000 0.00000000)
        (0.25000000 0.25000000 0.25000000 0.25000000)
        (0.25000000 0.25000000 0.25000000 0.25000000))
        ((0.99990000 0.00010000 0.00000000 0.00000000)
        (0.99990000 0.00010000 0.00000000 0.00000000)
        (0.25000000 0.25000000 0.25000000 0.25000000)
        (0.25000000 0.25000000 0.25000000 0.25000000))
        ((0.99990000 0.00010000 0.00000000 0.00000000)
        (0.99990000 0.00010000 0.00000000 0.00000000)
        (0.25000000 0.25000000 0.25000000 0.25000000)
        (0.25000000 0.25000000 0.25000000 0.25000000))
        ((0.99990000 0.00010000 0.00000000 0.00000000)
        (0.99990000 0.00010000 0.00000000 0.00000000)
        (0.25000000 0.25000000 0.25000000 0.25000000)
        (0.25000000 0.25000000 0.25000000 0.25000000))
        ((0.99990000 0.00010000 0.00000000 0.00000000)
        (0.99990000 0.00010000 0.00000000 0.00000000)
        (0.25000000 0.25000000 0.25000000 0.25000000)
        (0.25000000 0.25000000 0.25000000 0.25000000))
        ((0.98000000 0.02000000 0.00000000 0.00000000)
        (0.98000000 0.02000000 0.00000000 0.00000000)
        (0.97000000 0.03000000 0.00000000 0.00000000)
        (0.25000000 0.25000000 0.25000000 0.25000000))
        ((0.91000000 0.05000000 0.03000000 0.01000000)
        (0.91000000 0.05000000 0.03000000 0.01000000)
        (0.86000000 0.07000000 0.05000000 0.02000000)
        (0.25000000 0.25000000 0.25000000 0.25000000))
        ((0.98000000 0.02000000 0.00000000 0.00000000)
        (0.98000000 0.02000000 0.00000000 0.00000000)
        (0.97000000 0.03000000 0.00000000 0.00000000)
        (0.25000000 0.25000000 0.25000000 0.25000000))
        ((0.98000000 0.02000000 0.00000000 0.00000000)
        (0.98000000 0.02000000 0.00000000 0.00000000)
        (0.97000000 0.03000000 0.00000000 0.00000000)
        (0.25000000 0.25000000 0.25000000 0.25000000))
        ((0.98000000 0.02000000 0.00000000 0.00000000)
        (0.98000000 0.02000000 0.00000000 0.00000000)
        (0.97000000 0.03000000 0.00000000 0.00000000)
        (0.25000000 0.25000000 0.25000000 0.25000000))
        ((0.99990000 0.00010000 0.00000000 0.00000000)
        (0.99990000 0.00010000 0.00000000 0.00000000)
        (0.25000000 0.25000000 0.25000000 0.25000000)
        (0.25000000 0.25000000 0.25000000 0.25000000))
        ((0.99990000 0.00010000 0.00000000 0.00000000)
        (0.99990000 0.00010000 0.00000000 0.00000000)
        (0.25000000 0.25000000 0.25000000 0.25000000)
        (0.25000000 0.25000000 0.25000000 0.25000000))
        ((0.98000000 0.02000000 0.00000000 0.00000000)
        (0.98000000 0.02000000 0.00000000 0.00000000)
        (0.97000000 0.03000000 0.00000000 0.00000000)
        (0.25000000 0.25000000 0.25000000 0.25000000))
        ((0.98000000 0.02000000 0.00000000 0.00000000)
        (0.98000000 0.02000000 0.00000000 0.00000000)
        (0.97000000 0.03000000 0.00000000 0.00000000)
        (0.25000000 0.25000000 0.25000000 0.25000000))
        ((0.20000000 0.40000000 0.30000000 0.10000000)
        (0.20000000 0.40000000 0.30000000 0.10000000)
        (0.10000000 0.30000000 0.40000000 0.20000000)
        (0.00000000 0.00099900 0.59940060 0.39960040))
        ((0.99990000 0.00010000 0.00000000 0.00000000)
        (0.99990000 0.00010000 000))
        ((1.00000000 0.00000000 0.00000000 0.00000000 0.00000000)
        (1.00000000 0.00000000 0.00000000 0.00000000 0.00000000)
        (0.20000000 0.20000000 0.20000000 0.20000000 0.20000000)
        (0.20000000 0.20000000 0.20000000 0.20000000 0.20000000))
        ((1.00000000 0.00000000 0.00000000 0.00000000 0.00000000)
        (1.00000000 0.00000000 0.00000000 0.00000000 0.00000000)
        (0.99900000 0.00100000 0.00000000 0.00000000 0.00000000)
        (0.20000000 0.20000000 0.20000000 0.20000000 0.20000000))
        ((1.00000000 0.00000000 0.00000000 0.00000000 0.00000000)
        (1.00000000 0.00000000 0.00000000 0.00000000 0.00000000)
        (0.99900000 0.00100000 0.00000000 0.00000000 0.00000000)
        (0.20000000 0.20000000 0.20000000 0.20000000 0.20000000))
        ((1.00000000 0.00000000 0.00000000 0.00000000 0.00000000)
        (1.00000000 0.00000000 0.00000000 0.00000000 0.00000000)
        (0.20000000 0.20000000 0.20000000 0.20000000 0.20000000)
        (0.20000000 0.20000000 0.20000000 0.20000000 0.20000000))
        ((1.00000000 0.00000000 0.00000000 0.00000000 0.00000000)
        (1.00000000 0.00000000 0.00000000 0.00000000 0.00000000)
        (0.20000000 0.20000000 0.20000000 0.20000000 0.20000000)
        (0.20000000 0.20000000 0.20000000 0.20000000 0.20000000))
        ((0.99900000 0.00100000 0.00000000 0.00000000 0.00000000)
        (0.99900000 0.00100000 0.00000000 0.00000000 0.00000000)
        (0.98088279 0.01901712 0.00010009 0.00000000 0.00000000)
        (0.20000000 0.20000000 0.20000000 0.20000000 0.20000000))
        ((1.00000000 0.00000000 0.00000000 0.00000000 0.00000000)
        (1.00000000 0.00000000 0.00000000 0.00000000 0.00000000)
        (0.20000000 0.20000000 0.20000000 0.20000000 0.20000000)
        (0.20000000 0.20000000 0.20000000 0.20000000 0.20000000))
        ((1.00000000 0.00000000 0.00000000 0.00000000 0.00000000)
        (1.00000000 0.00000000 0.00000000 0.00000000 0.00000000)
        (0.20000000 0.20000000 0.20000000 0.20000000 0.20000000)
        (0.20000000 0.20000000 0.20000000 0.20000000 0.20000000))
        ((1.00000000 0.00000000 0.00000000 0.00000000 0.00000000)
        (1.00000000 0.00000000 0.00000000 0.00000000 0.00000000)
        (0.20000000 0.20000000 0.20000000 0.20000000 0.20000000)
        (0.20000000 0.20000000 0.20000000 0.20000000 0.20000000))
        ((1.00000000 0.00000000 0.00000000 0.00000000 0.00000000)
        (1.00000000 0.00000000 0.00000000 0.00000000 0.00000000)
        (0.20000000 0.20000000 0.20000000 0.20000000 0.20000000)
        (0.20000000 0.20000000 0.20000000 0.20000000 0.20000000))
        ((1.00000000 0.00000000 0.00000000 0.00000000 0.00000000)
        (1.00000000 0.00000000 0.00000000 0.00000000 0.00000000)
        (0.20000000 0.20000000 0.20000000 0.20000000 0.20000000)
        (0.20000000 0.20000000 0.20000000 0.20000000 0.20000000))
        ((1.00000000 0.00000000 0.00000000 0.00000000 0.00000000)
        (1.00000000 0.00000000 0.00000000 0.00000000 0.00000000)
        (0.20000000 0.20000000 0.20000000 0.20000000 0.20000000)
        (0.20000000 0.20000000 0.20000000 0.20000000 0.20000000))
        ((1.00000000 0.00000000 0.00000000 0.00000000 0.00000000)
        (1.00000000 0.00000000 0.00000000 0.00000000 0.00000000)
        (0.20000000 0.20000000 0.20000000 0.20000000 0.20000000)
        (0.20000000 0.20000000 0.20000000 0.20000000 0.20000000))
        ((1.00000000 0.000.00000000 0.00000000)
        (0.00000000 0.99900000 0.00100000 0.00000000)
        (0.00000000 0.99800000 0.00200000 0.00000000)))
        (((1.00000000 0.00000000 0.00000000 0.00000000)
        (1.00000000 0.00000000 0.00000000 0.00000000)
        (1.00000000 0.00000000 0.00000000 0.00000000))
        ((1.00000000 0.00000000 0.00000000 0.00000000)
        (0.00000000 0.99900000 0.00100000 0.00000000)
        (0.00000000 0.99800000 0.00200000 0.00000000)))
        (((1.00000000 0.00000000 0.00000000 0.00000000)
        (1.00000000 0.00000000 0.00000000 0.00000000)
        (1.00000000 0.00000000 0.00000000 0.00000000))
        ((1.00000000 0.00000000 0.00000000 0.00000000)
        (0.00000000 0.99000000 0.01000000 0.00000000)
        (0.00000000 0.98000000 0.02000000 0.00000000)))
        (((1.00000000 0.00000000 0.00000000 0.00000000)
        (1.00000000 0.00000000 0.00000000 0.00000000)
        (1.00000000 0.00000000 0.00000000 0.00000000))
        ((1.00000000 0.00000000 0.00000000 0.00000000)
        (0.00000000 0.99900000 0.00100000 0.00000000)
        (0.00000000 0.99800000 0.00200000 0.00000000)))
        (((1.00000000 0.00000000 0.00000000 0.00000000)
        (1.00000000 0.00000000 0.00000000 0.00000000)
        (1.00000000 0.00000000 0.00000000 0.00000000))
        ((1.00000000 0.00000000 0.00000000 0.00000000)
        (0.00000000 0.99900000 0.00100000 0.00000000)
        (0.25000000 0.25000000 0.25000000 0.25000000)))
        (((1.00000000 0.00000000 0.00000000 0.00000000)
        (1.00000000 0.00000000 0.00000000 0.00000000)
        (1.00000000 0.00000000 0.00000000 0.00000000))
        ((1.00000000 0.00000000 0.00000000 0.00000000)
        (0.00000000 0.99900000 0.00100000 0.00000000)
        (0.25000000 0.25000000 0.25000000 0.25000000)))
        (((1.00000000 0.00000000 0.00000000 0.00000000)
        (1.00000000 0.00000000 0.00000000 0.00000000)
        (1.00000000 0.00000000 0.00000000 0.00000000))
        ((1.00000000 0.00000000 0.00000000 0.00000000)
        (0.00000000 0.99900000 0.00100000 0.00000000)
        (0.25000000 0.25000000 0.25000000 0.25000000)))
        (((1.00000000 0.00000000 0.00000000 0.00000000)
        (1.00000000 0.00000000 0.00000000 0.00000000)
        (1.00000000 0.00000000 0.00000000 0.00000000))
        ((1.00000000 0.00000000 0.00000000 0.00000000)
        (0.00000000 0.99900000 0.00100000 0.00000000)
        (0.25000000 0.25000000 0.25000000 0.25000000)))
        (((1.00000000 0.00000000 0.00000000 0.00000000)
        (1.00000000 0.00000000 0.00000000 0.00000000)
        (1.00000000 0.00000000 0.00000000 0.00000000))
        ((1.00000000 0.00000000 0.00000000 0.00000000)
        (0.00000000 0.99900000 0.00100000 0.00000000)
        (0.25000000 0.25000000 0.25000000 0.25000000)))
        (((1.00000000 0.00000000 0.00000000 0.00000000)
        (1.00000000 0.00000000 0.00000000 0.00000000)
        (1.00000000 0.00000000 0.00000000 0.00000000))
        ((1.00000000 0.00000000 0.00000000 0.00000000)
        (0.00000000 0.99900000 0.00100000 0.00000000)
        (0.25000000 0.25000000 0.25000000 0.25000000)))
        (((1.00000000 0.00000000 0.00000000 0.00000000)
        (1.00000000 0.00000000 0.00000000 0.00000000)
        (1.00000000 0.00000000 0.00000000 0.00000000))
        ((1.00000000 0.00000000 0.00000000 0.00000000)
        (0.00000000 0.99900000 0.00100000 0.00000000)
        (0.25000000 0.25000000 0.25000000 0.25000000)))
        (((1.00000000 0.00000000 0.00000000 0.00000000)
        (1.00000000 0.00000000 0.00000000 0.00000000)
        (1.00000000 0.00000000 0.00000000 0.00000000))
        ((1.00000000 0.00000000 0.00000000 0.00000000)
        (0.00000000 0.99900000 0.00100000 0.00000000)
        (0.25000000 0.25000000 0.25000000 0.25000000)))
        (((1.00000000 0.00000000 0.00000000 0.00000000)
        (1.00000000 0.00000000 0.00000000 0.00000000)
        (1.00000000 0.00000000 0.00000000 0.00000000))
        ((1.00000000 0.00000000 0.00000000 0.00000000)
        (0.00000000 0.99900000 0.00100000 0.00000000)
        (0.25000000 0.25000000 0.25000000 0.25000000)))
        (((1.00000000 0.00000000 0.00000000 0.00000000)
        (1.00000000 0.00000000 0.00000000 0.00000000)
        (1.00000000 0.00000000 0.00000000 0.00000000))
        ((1.00000000 0.00000000 0.00000000 0.00000000)
        (0.00000000 0.99900000 0.00100000 0.00000000)
        (0.25000000 0.25000000 0.25000000 0.25000000)))
        (((1.00000000 0.00000000 0.00000000 0.00000000)
        (1.00000000 0.00000000 0.00000000 0.00000000)
        (1.00000000 0.00000000 0.00000000 0.00000000))
        ((1.00000000 0.00000000 0.00000000 0.00000000)
        (0.00000000 0.99900000 0.00100000 0.00000000)
        (0.25000000 0.25000000 0.25000000 0.25000000)))
        (((1.00000000 0.00000000 0.00000000 0.00000000)
        (1.00000000 0.00000000 0.00000000 0.00000000)
        (1.00000000 0.00000000 0.00000000 0.00000000))
        ((1.00000000 0.00000000 0.00000000 0.00000000)
        (0.00000000 0.99900000 0.00100000 0.00000000)
        (0.25000000 0.25000000 0.25000000 0.25000000)))
        (((1.00000000 0.00000000 0.00000000 0.00000000)
        (1.00000000 0.00000000 0.00000000 0.00000000)
        (1.00000000 0.00000000 0.00000000 0.00000000))
        ((1.00000000 0.00000000 0.00000000 0.00000000)
        (0.00000000 0.99900000 0.00100000 0.00000000)
        (0.25000000 0.25000000 0.25000000 0.25000000)))
        (((1.00000000 0.00000000 0.00000000 0.00000000)
        (1.00000000 0.00000000 0.00000000 0.00000000)
        (1.00000000 0.00000000 0.00000000 0.00000000))
        ((1.00000000 0.00000000 0.00000000 0.00000000)
        (0.00000000 0.99900000 0.00100000 0.00000000)
        (0.00000000 0.99800000 0.00200000 0.00000000)))
        (((1.00000000 0.00000000 0.00000000 0.00000000)
        (1.00000000 0.00000000 0.00000000 0.00000000)
        (1.00000000 0.00000000 0.00000000 0.00000000))
        ((1.00000000 0.00000000 0.00000000 0.00000000)
        (0.00000000 0.99900000 0.00100000 0.00000000)
        (0.00000000 0.99800000 0.00200000 0.00000000)))
        (((1.00000000 0.00000000 0.00000000 0.00000000)
        (1.00000000 0.00000000 0.00000000 0.00000000)
        (1.00000000 0.00000000 0.00000000 0.00000000))
        ((1.00000000 0.00000000 0.00000000 0.00000000)
        (0.00000000 0.99900000 0.00100000 0.00000000)
        (0.25000000 0.25000000 0.25000000 0.25000000)))
        (((1.00000000 0.00000000 0.00000000 0.00000000)
        (1.00000000 0.00000000 0.00000000 0.00000000)
        (1.00000000 0.00000000 0.00000000 0.00000000))
        ((1.00000000 0.00000000 0.00000000 0.00000000)
        (0.00000000 0.99900000 0.00100000 0.00000000)
        (0.25000000 0.25000000 0.25000000 0.25000000)))
        (((1.00000000 0.00000000 0.00000000 0.00000000)
        (1.00000000 0.00000000 0.00000000 0.00000000)
        (1.00000000 0.00000000 0.00000000 0.00000000))
        ((1.00000000 0.00000000 0.00000000 0.00000000)
        (0.00000000 0.99900000 0.00100000 0.00000000)
        (0.25000000 0.25000000 0.25000000 0.25000000)))
        (((1.00000000 0.00000000 0.00000000 0.00000000)
        (1.00000000 0.00000000 0.00000000 0.00000000)
        (1.00000000 0.00000000 0.00000000 0.00000000))
        ((1.00000000 0.00000000 0.00000000 0.00000000)
        (0.00000000 0.99900000 0.00100000 0.00000000)
        (0.25000000 0.25000000 0.25000000 0.25000000)))
        (((1.00000000 0.00000000 0.00000000 0.00000000)
        (1.00000000 0.00000000 0.00000000 0.00000000)
        (1.00000000 0.00000000 0.00000000 0.00000000))
        ((1.00000000 0.00000000 0.00000000 0.00000000)
        (0.00000000 0.99900000 0.00100000 0.00000000)
        (0.25000000 0.25000000 0.25000000 0.25000000)))
        (((1.00000000 0.00000000 0.00000000 0.00000000)
        (1.00000000 0.00000000 0.00000000 0.00000000)
        (1.00000000 0.00000000 0.00000000 0.00000000))
        ((1.00000000 0.00000000 0.00000000 0.00000000)
        (0.00000000 0.99900000 0.00100000 0.00000000)
        (0.25000000 0.25000000 0.25000000 0.25000000)))
        (((1.00000000 0.00000000 0.00000000 0.00000000)
        (1.00000000 0.00000000 0.00000000 0.00000000)
        (1.00000000 0.00000000 0.00000000 0.00000000))
        ((1.00000000 0.00000000 0.00000000 0.00000000)
        (0.00000000 0.99900000 0.00100000 0.00000000)
        (0.00000000 0.99800000 0.00200000 0.00000000)))
        (((1.00000000 0.00000000 0.00000000 0.00000000)
        (1.00000000 0.00000000 0.00000000 0.00000000)
        (1.00000000 0.00000000 0.00000000 0.00000000))
        ((1.00000000 0.00000000 0.00000000 0.00000000)
        (0.00000000 0.99900000 0.00100000 0.00000000)
        (0.25000000 0.25000000 0.25000000 0.25000000)))
        (((1.00000000 0.00000000 0.00000000 0.00000000)
        (1.00000000 0.00000000 0.00000000 0.00000000)
        (1.00000000 0.00000000 0.00000000 0.00000000))
        ((1.00000000 0.00000000 0.00000000 0.00000000)
        (0.00000000 0.99900000 0.00100000 0.00000000)
        (0.25000000 0.25000000 0.25000000 0.25000000)))
        (((1.00000000 0.00000000 0.00000000 0.00000000)
        (1.00000000 0.00000000 0.00000000 0.00000000)
        (1.00000000 0.00000000 0.00000000 0.00000000))
        ((1.00000000 0.00000000 0.00000000 0.00000000)
        (0.00000000 0.99900000 0.00100000 0.00000000)
        (0.25000000 0.25000000 0.25000000 0.25000000)))
        (((1.00000000 0.00000000 0.00000000 0.00000000)
        (1.00000000 0.00000000 0.00000000 0.00000000)
        (1.00000000 0.00000000 0.00000000 0.00000000))
        ((1.00000000 0.00000000 0.00000000 0.00000000)
        (0.00000000 0.99900000 0.00100000 0.00000000)
        (0.25000000 0.25000000 0.25000000 0.25000000)))
        (((1.00000000 0.00000000 0.00000000 0.00000000)
        (1.00000000 0.00000000 0.00000000 0.00000000)
        (1.00000000 0.00000000 0.00000000 0.00000000))
        ((1.00000000 0.00000000 0.00000000 0.00000000)
        (0.00000000 0.99900000 0.00100000 0.00000000)
        (0.25000000 0.25000000 0.25000000 0.25000000)))
        (((1.00000000 0.00000000 0.00000000 0.00000000)
        (1.00000000 0.00000000 0.00000000 0.00000000)
        (1.00000000 0.00000000 0.00000000 0.00000000))
        ((1.00000000 0.00000000 0.00000000 0.00000000)
        (0.00000000 0.99900000 0.00100000 0.00000000)
        (0.25000000 0.25000000 0.25000000 0.25000000)))
        (((1.00000000 0.00000000 0.00000000 0.00000000)
        (1.00000000 0.00000000 0.00000000 0.00000000)
        (1.00000000 0.00000000 0.00000000 0.00000000))
        ((1.00000000 0.00000000 0.00000000 0.00000000)
        (0.00000000 0.99900000 0.00100000 0.00000000)
        (0.00000000 0.99800000 0.00200000 0.00000000)))
        (((1.00000000 0.00000000 0.00000000 0.00000000)
        (1.00000000 0.00000000 0.00000000 0.00000000)
        (1.00000000 0.00000000 0.00000000 0.00000000))
        ((1.00000000 0.00000000 0.00000000 0.00000000)
        (0.00000000 0.99900000 0.00100000 0.00000000)
        (0.00000000 0.99800000 0.00200000 0.00000000)))
        (((1.00000000 0.00000000 0.00000000 0.00000000)
        (1.00000000 0.00000000 0.00000000 0.00000000)
        (1.00000000 0.00000000 0.00000000 0.00000000))
        ((1.00000000 0.00000000 0.00000000 0.00000000)
        (0.00000000 0.99900000 0.00100000 0.00000000)
        (0.25000000 0.25000000 0.25000000 0.25000000))));
}

potential (F19 | Fault)
{
    data = ((0.37500000 0.59375000 0.03125000)
        (0.02000000 0.85000000 0.13000000)
        (0.99000000 0.01000000 0.00000000)
        (0.02000000 0.93000000 0.05000000)
        (0.09090909 0.86363636 0.04545455)
        (0.99000000 0.01000000 0.00000000)
        (0.99000000 0.01000000 0.00000000)
        (0.99000000 0.01000000 0.00000000)
        (0.02000000 0.96000000 0.02000000)
        (0.99000000 0.01000000 0.00000000)
        (0.89910090 0.09990010 0.00099900)
        (0.01000000 0.89000000 0.10000000)
        (0.01000000 0.80000000 0.19000000)
        (0.99000000 0.01000000 0.00000000)
        (0.04761905 0.90476190 0.04761905)
        (0.04761905 0.90476190 0.04761905)
        (0.99000000 0.01000000 0.00000000)
        (0.99000000 0.01000000 0.00000000)
        (0.99000000 0.01000000 0.00000000)
        (0.99000000 0.01000000 0.00000000)
        (0.02000000 0.96000000 0.02000000)
        (0.89910090 0.09990010 0.00099900)
        (0.01000000 0.89000000 0.10000000)
        (0.89910090 0.09990010 0.00099900)
        (0.01000000 0.80000000 0.19000000)
        (0.02000000 0.70000000 0.28000000)
        (0.02000000 0.70000000 0.28000000)
        (0.79920080 0.19980020 0.00099900)
        (0.79920080 0.19980020 0.00099900)
        (0.79920080 0.19980020 0.00099900)
        (0.10000000 0.89000000 0.01000000)
        (0.20000000 0.79000000 0.01000000)
        (0.99000000 0.01000000 0.00000000)
        (0.99000000 0.01000000 0.00000000)
        (0.99000000 0.01000000 0.00000000)
