net 
{
    node_size = (76 36);
}

node Fault
{
    label = "Fault";
    position = (58 332);
    states = ("AIDS_early"  "AILD"  "ALIP"  "Cat_scratch_disease" 
     "Dermatopathic_laden"  "Florid_follic_hyperp" 
     "GLH_hyaline_vacular"  "GLH_plasma_cell_type" 
     "Granulomatous_laden"  "Histiocytosis_x"  "Infectious_mono" 
     "Leprosy"  "Lymphangiographic"  "Mantle_zone_hyperl" 
     "Necrotizing_kikuchi"  "Necrotiz_nonKikuchi" 
     "Rheumatoid_arthritis"  "Sarcoidosis"  "SHML"  "Sinus_hyperplasia"
      "Syphilis"  "Toxoplasmosis"  "Tuberculosis"  "Viral_NOS" 
     "Whipple_s_disease"  "L_H_nodular_HD"  "L_H_diffuse_HD" 
     "Nodular_sclerosis"  "Cellular_phase_NSHD"  "Syncytial_NSHD" 
     "Mixed_cellularity_HD"  "Interfollicular_HD" 
     "Diffuse_fibrosis_HD"  "Reticular_type_HD"  "Small_cleaved__fol" 
     "Mixed__fol"  "Large_cell__fol"  "Small_noncleaved_fol" 
     "Small_lymphocytic"  "Plasmacytoid_lyctic"  "Mantle_zone" 
     "Small_cleaved__dif"  "Mixed__fcc_dif"  "Large_cell__dif" 
     "B_immunoblastic"  "T_immunob_mix"  "IBL_like_T_cell_lym" 
     "Japanese_ATL"  "Lymphoblastic"  "Small_noncleaved_dif" 
     "True_histiocytic"  "Malig_histiocytosis"  "Multiple_myeloma" 
     "Mycosis_fungoides"  "AML"  "Hairy_cell_leukemia"  "Carcinoma" 
     "Melanoma"  "Em_plasmacytoma"  "Kaposis_sarcoma" 
     "Mast_cell_disease"  "AIDS_involutionary"  "T_immunob_lrg");
}

node F108
{
    label = "Main";
    position = (5058 262);
    states = ("Absent"  "Present");
}

potential (Fault |)
{
    data = (0.02075119 0.00103756 0.01037560 0.00363146 0.01037560 
        0.03112679 0.00435775 0.00207512 0.01556339 0.00415024 
        0.00726292 0.00622536 0.01037560 0.01296950 0.00830048 
        0.01328076 0.00207512 0.00207512 0.00124507 0.01556339 
        0.00259390 0.00726292 0.00830048 0.01037560 0.00207512 
        0.01037560 0.00415024 0.08300477 0.00518780 0.00415024 
        0.05187798 0.00415024 0.00518780 0.00518780 0.10375597 
        0.05706578 0.03112679 0.00518780 0.02075119 0.01037560 
        0.01037560 0.00415024 0.01037560 0.13488276 0.01556339 
        0.02075119 0.01556339 0.00103756 0.01037560 0.06225358 
        0.00166010 0.00166010 0.00207512 0.00622536 0.00259390 
        0.00020751 0.02075119 0.00830048 0.00332019 0.00830048 
        0.00311268 0.02075119 0.02075119);
}

potential (F108 | Fault)
{
    data = ((0.50000000 0.50000000)
        (0.50000000 0.50000000)
        (0.50000000 0.50000000)
        (0.50000000 0.50000000)
        (0.50000000 0.50000000)
        (0.50000000 0.50000000)
        (0.50000000 0.50000000)
        (0.50000000 0.50000000)
        (0.50000000 0.50000000)
        (0.50000000 0.50000000)
        (0.50000000 0.50000000)
        (0.50000000 0.50000000)
        (0.50000000 0.50000000)
        (0.50000000 0.50000000)
        (0.50000000 0.50000000)
        (0.50000000 0.50000000)
        (0.50000000 0.50000000)
        (0.50000000 0.50000000)
        (0.50000000 0.50000000)
        (0.50000000 0.50000000)
        (0.50000000 0.50000000)
        (0.50000000 0.50000000)
        (0.50000000 0.50000000)
        (0.50000000 0.50000000)
        (0.50000000 0.50000000)
        (0.50000000 0.50000000)
        (0.50000000 0.50000000)
        (0.50000000 0.50000000)
        (0.50000000 0.50000000)
        (0.50000000 0.50000000)
        (0.50000000 0.50000000)
        (0.50000000 0.50000000)
        (0.50000000 0.50000000)
        (0.50000000 0.50000000)
        (0.50000000 0.50000000)
        (0.50000000 0.50000000)
        (0.50000000 0.50000000)
        (0.50000000 0.50000000)
        (0.50000000 0.50000000)
        (0.50000000 0.50000000)
        (0.50000000 0.50000000)
        (0.50000000 0.50000000)
        (0.50000000 0.50000000)
        (0.50000000 0.50000000)
        (0.50000000 0.50000000)
        (0.50000000 0.50000000)
        (0.50000000 0.50000000)
        (0.50000000 0.50000000)
        (0.50000000 0.50000000)
        (0.50000000 0.50000000)
        (0.50000000 0.50000000)
        (0.50000000 0.50000000)
        (0.50000000 0.50000000)
        (0.50000000 0.50000000)
        (0.50000000 0.50000000)
        (0.50000000 0.50000000)
        (0.50000000 0.50000000)
        (0.50000000 0.50000000)
        (0.50000000 0.50000000)
        (0.50000000 0.50000000)
        (0.50000000 0.50000000)
        (0.50000000 0.50000000)
        (0.50000000 0.50000000));
}
