net 
{
    node_size = (76 36);
}

node n0
{
    label = "n0";
    position = (2517 1040);
    states = ("s0"  "s1");
    KI_SHORTNAME = "Power Supply 5V";
    KI_LONGNAME = "Power Supply 5V";
}

node n1
{
    label = "n1";
    position = (2732 1486);
    states = ("s0"  "s1");
    KI_SHORTNAME = "Serial Link Board (C003)";
    KI_LONGNAME = "Serial Link Board (C003)";
}

node n2
{
    label = "n2";
    position = (2168 569);
    states = ("s0"  "s1");
    KI_SHORTNAME = "Interface Boards (C075, C083)";
    KI_LONGNAME = "Interface Boards (C075, C083)";
}

node n3
{
    label = "n3";
    position = (1525 1060);
    states = ("s0"  "s1");
    KI_SHORTNAME = "Control Board (C011)";
    KI_LONGNAME = "Control Board (C011)";
}

node n4
{
    label = "n4";
    position = (1841 574);
    states = ("s0"  "s1");
    KI_SHORTNAME = "Input/output Boards (G059, G067)";
    KI_LONGNAME = "Input/output Boards (G059, G067)";
}

node n5
{
    label = "n5";
    position = (1296 1050);
    states = ("s0"  "s1");
    KI_SHORTNAME = "Monitoring Board (C043)";
    KI_LONGNAME = "Monitoring Board (C043)";
}

node n6
{
    label = "n6";
    position = (2444 1466);
    states = ("s0"  "s1");
    KI_SHORTNAME = "Memory/Processor Board (C035, C027)";
    KI_LONGNAME = "Memory/Processor Board (C035, C027)";
}

node n7
{
    label = "n7";
    position = (2231 1280);
    states = ("s0"  "s1");
    KI_SHORTNAME = "TCC 04 Power Supply - 5V";
    KI_LONGNAME = "TCC 04 Power Supply - 5V";
}

node n18
{
    label = "n18";
    position = (3732 1044);
    states = ("s0"  "s1");
    KI_SHORTNAME = "GTO Power Spl 24V";
    KI_LONGNAME = "GTO Power Spl 24V";
}

node n19
{
    label = "n19";
    position = (3325 833);
    states = ("s0"  "s1");
    KI_SHORTNAME = "TCC 04 Power Supply - GTO 24V";
    KI_LONGNAME = "TCC 04 Power Supply - GTO 24V";
}

node n20
{
    label = "n20";
    position = (2261 1047);
    states = ("s0"  "s1");
    KI_SHORTNAME = "Other TCC faults";
    KI_LONGNAME = "Other TCC faults";
}

node n21
{
    label = "n21";
    position = (3246 1035);
    states = ("s0"  "s1");
    KI_SHORTNAME = "Engine, Generators & VDCL Transducer ";
    KI_LONGNAME = "Engine, Generators & VDCL Transducer ";
}

node n22
{
    label = "n22";
    position = (3776 1294);
    states = ("s0"  "s1");
    KI_SHORTNAME = "TCC 05 Low Power Supply - GTO 24V";
    KI_LONGNAME = "TCC 05 Low Power Supply - GTO 24V";
}

node n24
{
    label = "n24";
    position = (1246 676);
    states = ("s0"  "s1");
    KI_SHORTNAME = "Gate Unit R";
    KI_LONGNAME = "Gate Unit R";
}

node n27
{
    label = "n27";
    position = (2177 1494);
    states = ("s0"  "s1");
    KI_SHORTNAME = "Gate Unit T";
    KI_LONGNAME = "Gate Unit T";
}

node n29
{
    label = "n29";
    position = (730 1047);
    states = ("s0"  "s1");
    KI_SHORTNAME = "Thyristor Control Board (A11, A12)";
    KI_LONGNAME = "Thyristor Control Board (A11, A12)";
}

node n30
{
    label = "n30";
    position = (1473 1264);
    states = ("s0"  "s1");
    KI_SHORTNAME = "TCC 10 Unjustified Crowbar Other TCC";
    KI_LONGNAME = "TCC 10 Unjustified Crowbar Other TCC";
}

node n31
{
    label = "n31";
    position = (2988 1034);
    states = ("s0"  "s1");
    KI_SHORTNAME = "DC Voltage Transducer (U1)";
    KI_LONGNAME = "DC Voltage Transducer (U1)";
}

node n32
{
    label = "n32";
    position = (3483 1037);
    states = ("s0"  "s1");
    KI_SHORTNAME = "EM2000 Computer, Communication & Radar";
    KI_LONGNAME = "EM2000 Computer, Communication & Radar";
}

node n35
{
    label = "n35";
    position = (3611 1536);
    states = ("s0"  "s1");
    KI_SHORTNAME = "Reactor (L456)";
    KI_LONGNAME = "Reactor (L456)";
}

node n37
{
    label = "n37";
    position = (3503 829);
    states = ("s0"  "s1");
    KI_SHORTNAME = "TCC 11 DC Link Undervoltage Both TCC";
    KI_LONGNAME = "TCC 11 DC Link Undervoltage Both TCC";
}

node n38
{
    label = "n38";
    position = (915 1053);
    states = ("s0"  "s1");
    KI_SHORTNAME = "Phase Module R";
    KI_LONGNAME = "Phase Module R";
}

node n40
{
    label = "n40";
    position = (486 1048);
    states = ("s0"  "s1");
    KI_SHORTNAME = "Phase Module S";
    KI_LONGNAME = "Phase Module S";
}

node n42
{
    label = "n42";
    position = (2003 1494);
    states = ("s0"  "s1");
    KI_SHORTNAME = "Phase Module T";
    KI_LONGNAME = "Phase Module T";
}

node n47
{
    label = "n47";
    position = (1567 573);
    states = ("s0"  "s1");
}

node n65
{
    label = "n65";
    position = (1003 1257);
    states = ("s0"  "s1");
    KI_SHORTNAME = "EM2K 791 Unexpected Crowbar";
    KI_LONGNAME = "EM2K 791 Unexpected Crowbar";
}

node n67
{
    label = "n67";
    position = (3314 1548);
    states = ("s0"  "s1");
    KI_SHORTNAME = "Crowbar Reactor (L12)";
    KI_LONGNAME = "Crowbar Reactor (L12)";
}

node n69
{
    label = "n69";
    position = (1095 785);
    states = ("s0"  "s1");
    KI_SHORTNAME = "Gate Unit R Green Light";
    KI_LONGNAME = "Gate Unit R Green Light";
}

node n86
{
    label = "n86";
    position = (160 1053);
    states = ("s0"  "s1");
    KI_SHORTNAME = "Phase Module S Resistance";
    KI_LONGNAME = "Phase Module S Resistance";
}

node n90
{
    label = "n90";
    position = (3975 1699);
    states = ("s0"  "s1");
    KI_SHORTNAME = "Reactor Ground Short";
    KI_LONGNAME = "Reactor Ground Short";
}

node n93
{
    label = "n93";
    position = (3248 1464);
    states = ("s0"  "s1");
    KI_SHORTNAME = "Reactor (L12) Ground Short";
    KI_LONGNAME = "Reactor (L12) Ground Short";
}

potential (n0 |)
{
    data = (0.00500000 0.99500000);
}

potential (n1 |)
{
    data = (0.02000000 0.98000000);
}

potential (n2 |)
{
    data = (0.01600000 0.98400000);
}

potential (n3 |)
{
    data = (0.01400000 0.98600000);
}

potential (n4 |)
{
    data = (0.01300000 0.98700000);
}

potential (n5 |)
{
    data = (0.01200000 0.98800000);
}

potential (n6 |)
{
    data = (0.01600000 0.98400000);
}

potential (n7 | n0 n1 n2 n3 n4 n5 n6)
{
    data = ((((((((0.98978251 0.01021740)
        (0.97958555 0.02041437))
        ((0.97958555 0.02041437)
        (0.95921203 0.04078790)))
        (((0.97958555 0.02041437)
        (0.95921203 0.04078790))
        ((0.95921203 0.04078790)
        (0.91850571 0.08149423))))
        ((((0.97958555 0.02041437)
        (0.95921203 0.04078790))
        ((0.95921203 0.04078790)
        (0.91850571 0.08149423)))
        (((0.95921203 0.04078790)
        (0.91850571 0.08149423))
        ((0.91850571 0.08149423)
        (0.83717447 0.16282548)))))
        (((((0.97958555 0.02041437)
        (0.95921203 0.04078790))
        ((0.95921203 0.04078790)
        (0.91850571 0.08149423)))
        (((0.95921203 0.04078790)
        (0.91850571 0.08149423))
        ((0.91850571 0.08149423)
        (0.83717447 0.16282548))))
        ((((0.95921203 0.04078790)
        (0.91850571 0.08149423))
        ((0.91850571 0.08149423)
        (0.83717447 0.16282548)))
        (((0.91850571 0.08149423)
        (0.83717447 0.16282548))
        ((0.83717447 0.16282548)
        (0.67467465 0.32532531))))))
        ((((((0.97958555 0.02041437)
        (0.95921203 0.04078790))
        ((0.95921203 0.04078790)
        (0.91850571 0.08149423)))
        (((0.95921203 0.04078790)
        (0.91850571 0.08149423))
        ((0.91850571 0.08149423)
        (0.83717447 0.16282548))))
        ((((0.95921203 0.04078790)
        (0.91850571 0.08149423))
        ((0.91850571 0.08149423)
        (0.83717447 0.16282548)))
        (((0.91850571 0.08149423)
        (0.83717447 0.16282548))
        ((0.83717447 0.16282548)
        (0.67467465 0.32532531)))))
        (((((0.95921203 0.04078790)
        (0.91850571 0.08149423))
        ((0.91850571 0.08149423)
        (0.83717447 0.16282548)))
        (((0.91850571 0.08149423)
        (0.83717447 0.16282548))
        ((0.83717447 0.16282548)
        (0.67467465 0.32532531))))
        ((((0.91850571 0.08149423)
        (0.83717447 0.16282548))
        ((0.83717447 0.16282548)
        (0.67467465 0.32532531)))
        (((0.83717447 0.16282548)
        (0.67467465 0.32532531))
        ((0.67467465 0.32532531)
        (0.34999999 0.64999998)))))))
        (((((((0.98429659 0.01570336)
        (0.96862465 0.03137531))
        ((0.96862465 0.03137531)
        (0.93731210 0.06268787)))
        (((0.96862465 0.03137531)
        (0.93731210 0.06268787))
        ((0.93731210 0.06268787)
        (0.87474961 0.12525037))))
        ((((0.96862465 0.03137531)
        (0.93731210 0.06268787))
        ((0.93731210 0.06268787)
        (0.87474961 0.12525037)))
        (((0.93731210 0.06268787)
        (0.87474961 0.12525037))
        ((0.87474961 0.12525037)
        (0.74974974 0.25025025)))))
        (((((0.96862465 0.03137531)
        (0.93731210 0.06268787))
        ((0.93731210 0.06268787)
        (0.87474961 0.12525037)))
        (((0.93731210 0.06268787)
        (0.87474961 0.12525037))
        ((0.87474961 0.12525037)
        (0.74974974 0.25025025))))
        ((((0.93731210 0.06268787)
        (0.87474961 0.12525037))
        ((0.87474961 0.12525037)
        (0.74974974 0.25025025)))
        (((0.87474961 0.12525037)
        (0.74974974 0.25025025))
        ((0.74974974 0.25025025)
        (0.50000000 0.50000000))))))
        ((((((0.96862465 0.03137531)
        (0.93731210 0.06268787))
        ((0.93731210 0.06268787)
        (0.87474961 0.12525037)))
        (((0.93731210 0.06268787)
        (0.87474961 0.12525037))
        ((0.87474961 0.12525037)
        (0.74974974 0.25025025))))
        ((((0.93731210 0.06268787)
        (0.87474961 0.12525037))
        ((0.87474961 0.12525037)
        (0.74974974 0.25025025)))
        (((0.87474961 0.12525037)
        (0.74974974 0.25025025))
        ((0.74974974 0.25025025)
        (0.50000000 0.50000000)))))
        (((((0.93731210 0.06268787)
        (0.87474961 0.12525037))
        ((0.87474961 0.12525037)
        (0.74974974 0.25025025)))
        (((0.87474961 0.12525037)
        (0.74974974 0.25025025))
        ((0.74974974 0.25025025)
        (0.50000000 0.50000000))))
        ((((0.87474961 0.12525037)
        (0.74974974 0.25025025))
        ((0.74974974 0.25025025)
        (0.50000000 0.50000000)))
        (((0.74974974 0.25025025)
        (0.50000000 0.50000000))
        ((0.50000000 0.50000000)
        (0.00100000 0.99900001))))))));
}

potential (n9 |)
{
    data = (0.01100000 0.98900000);
}}

potential (n11 |)
{
    data = (0.01100000 0.98900000);59279 0.00240721)
        (0.98797596 0.01202404))
                (((0.98797596 0.01202404)
        (0.93993994 0.060
}

potential (n17 | n13 n14 n15 n16)
{
    data = (((((0.99919758 0.00080240)
        (0.99599197 0.00400801))
        ((0.99599197 0.00400801)
        (0.97997996 0.02002002)))
        (((0.99599197 0.00400801)
        (0.97997996 0.02002002))
        ((0.97997996 0.02002002)
        (0.89999998 0.10000000))))
        ((((0.99198399 0.00801602)
        (0.95995997 0.04004004))
        ((0.95995997 0.04004004)
        (0.80000001 0.20000000)))
        (((0.95995997 0.04004004)
        (0.80000001 0.20000000))
        ((0.80000001 0.20000000)
        (0.00100000 0.99900001)))));
}

potential (n19 | n18)
{
    data = ((0.20000000 0.800|)
{
    data = (0.04600000 0.95400000);
}

potential (n21 | n20 n21 n18)
{
    data = ((((0.69539109 0.30460892)
    8)
        (0.05000000 0.94999999)))
        (((0.67967970 27 |)
{
    data = (0.03900000 0.96100000);
}

potential (n28 | n27)
{
    data = ((0.10000000 0.89999998)
        (0.00100000 0.99900001));
}

potential (n29 |)
{
    data = (0.00800000 0.99200000);
}

potential (n30 | n5 n20 n29)
{
    data = ((((0.60721483 0.39278516)
        (0.43943945 0.56056055))
        ((0.50950952 0.49049047)
        (0.30000001 0.69999999)))
        (((0.43943945 0.56056055)
        (0.20000000 0.80000001))
        ((0.30000001 0.69999999)
        (0.00100000 0.99900001))));
}

potential (n31 |)
{
    data = (0.00500000 0.99500000);
}

potential (n32 |)
{
    data = (0.00540000 0.99460000);
}

potential (n33 | n31 n21 n32 n4)
{
    data = (((((0.68545732 0.31454267)
        (0.60721483 0.39278516))
        ((0.55110266 0.44889734)
        (0.43943945 0.56056055)))
        (((0.60721483 0.39278516)
        (0.50950952 0.49049047))
        ((0.43943945 0.56056055)
        (0.30000001 0.69999999))))
        ((((0.55110266 0.44889734)
        (0.43943945 0.56056055))
        ((0.35935936 0.64064065)
        (0.20000000 0.80000001)))
        (((0.43943945 0.56056055)
        (0.30000001 0.69999999))
        ((0.20000000 0.800000.61811809)
        (0.05000000 0.94999999)))
        (((0.51201199 0.48798797)
        (0.25000000 0.75000000))
        ((0.34999999 0.64999998)
        (0.00100000 0.99900001))));
}

potential (n35 |)
{
    data = (0.01200000 a = (((((0.84766842 0.15233153)
        (0.83091197 0.1690827)
        (0.69999999 0.30000001))))
        ((((0.49273596 0.50726400)
        (0.43693693 0.56306306))
        ((0.32432432 0.67567565)
        (0.25000000 0.75000000)))
        (((0.32432432 0.67567565)
        (0.25000000 n37 | n31 n21 n32)
{
    data = ((((0.53356760 0.46643237)
        (0.33433434 0.66566564))
        ((0.33433434 0.66566564)
        (0.05000000 0.94999999)))
        (((0.50950952 0.49049047)
        (0.30000001 0.69999999))
        ((0.30000001 0.69999999)
        (0.00100000 0.99900001))));
}

potential (n38 |)
{
    data = (0.01500000 0.98500000);
}

potential (n39 | n24 n38)
{
    data = (((0.96746742 0.03253253)
        (0.34999999 0.64999998))
        ((0.94999999 0.05000000)
        (0.00100000 0.99900001)));
}

potential (n40 |)
{
    data = (0.01500000 0.98500000);
al (n47 |)
{
    data = (0.01000000 0.99000000);
}

potential (n48 | n24 n25 n27 n20 n44 n45 n46 n47)
{
    data = (((((((((0.97744257 0.02255743)
        (0.96780733 0.03219267))
        ((0.95493026 0.04506974)
        (0.93567904 0.06432096)))
        (((0.95493026 0.04506974)
        (0.93567904 0.06432096))
        ((0.90995065 0.09004935)
        (0.87148672 0.12851328))))
        ((((0.95493026 0.04506974)
        (0.93567904 0.06432096))
        ((0.90995065 0.09004935)
        (0.87148672 0.12851328)))
        (((0.90995065 0.09004935)
        (0.87148672 0.12851328))
    (0.74323046 0.25676954))))
        ((((0.90995065 0.09004935)
        (0.87148672 0.12851328))
        ((0.82008140 0.17991860)
        (0.74323046 0.25676954)))
        (((0.82008140 0.17991860)
        (0.74323046 0.25676954))
        ((0.64052265 0.35947735)
        (0.48697446 0.51302554))))))
        ((((((0.97183141 0.02816859)
        (0.95979940 0.040200   (0.83951904 0.16048096)))
        (((0.88755088 0.11244912)
        (0.83951904 0.16048096))
        ((0.77532665 0.22467335)
        (0.67935904 0.32064096))))
        ((((0.88755088 0.11244912)
        (0.83951904 0.16048096))
        ((0.77532665 0.22467335)
        (0.67935904 0.32064096)))
        (((0.77532665 0.22467335)
        (0.67935904 0.32064096))
        ((0.55110265 0.44889735)
        (0.35935936 0.64064064)))))))
        (((((((0.97183141 0.02816859)
        (0.95979940 0.04020060))
        ((0.94371916 0.05628084)
        (0.91967920 0.08032080)))
        (((0.94371916 0.05628084)
        (0.91967920 0.08032080))
        ((0.88755088 0.11244912)
        (0.83951904 0.16048096))))
        ((((0.94371916 0.05628084)
        (0.91967920 0.08032080))
        ((0.88755088 0.11244912)
        (0.83951904 0.16048096)))
        (((0.88755088 0.11244912)
        (0.83951904 0.16048096))
        ((0.77532665 0.22467335)
           (((0.88755088 0.11244912)
        (0.83951904 0.16048096))
        ((0.77532665 0.22467335)
        (0.67935904 0.32064096))))
        ((((0.88755088 0.11244912)
        (0.83951904 0.16048096))
        ((0.77532665 0.2246733))))
        ((((((0.96482447 0.03517553)
        (0.94979950 0.05020050))
        ((0.92971930 0.07028070)
        (0.89969940 0.10030060)))
        (((0.92971930 0.07028070)
        (0.89969940 0.10030060))
        ((0.8595791 0.20040060)))
        (((0.85957916 0.14042084)
        (0.79959940 0.20040060))
        ((0.71943916 0.28056084)
        (0.59959960 0.40040040)))))
        (((((0.929((0.85957916 0.14042084)
        (0.79959940 0.20040060)))
40060))
        ((0.71943916 0.28056084)
        (0.5995996 (0.79959940 0.20040060))
        ((0.71943916 0.28056084)
        (0.59959960 0.40040040)))
        (((0.71943916 0.24))))
        ((((0.22604293 0.77395699)
        (0.18612305 0.81387689))
        ((0.18612305 0.81387689)
        (0.14414414 0.85585582)))
        (((0.18612305 0.81387689)
        (0.14414414 0.85585582))
        ((0.14414414 0.85585582)
        (0.10000000 0.89999998))))))))
        ((((((((0.99989744 0.00010243)
        (0.99989218 0.00010771))
        ((0.99989218 0.00010771)
        (0.99988665 0.00011326)))
        (((0.99989218 0.00010771)
        (0.99988665 0.00011326))
        ((0.99988665 0.00011326)
        (0.99988082 0.00011911))))
        ((((0.99795341 0.00204648)
        (0.99784788 0.00215203))
        ((0.99784788 0.00215203)
        (0.99773690 0.00226303)))
        (((0.99784788 0.00215203)
        (0.99773690 0.00226303))
        ((0.99773690 0.00226303)
        (0.99762019 0.00237976)))))
        (((((0.99795341 0.00204648)
        (0.99784788 0.00215203))
        ((0.99784788 0.00215203)
        (0.99773690 0.00226303)))
        (((0.99784788 0.00215203)
        (0.99773690 0.00226303))
        ((0.99773690 0.00226303)
        (0.99762019 0.00237976))))
        ((((0.95911129 0.04088862)
        (0.95700232 0.04299761))
        ((0.95700232 0.04299761)
        (0.95478457 0.04521538)))
        (((0.95700232 0.04299761)
        (0.95478457 0.04521538))
        ((0.95478457 0.04521538)
        (0.95245242 0.04754755))))))
        ((((((0.99795341 0.00204648)
        (0.99784788 0.00215203))
        ((0.99784788 0.00215203)
        (0.99773690 0.00226303)))
        (((0.99784788 0.00215203)
        (0.99773690 0.00226303))
        ((0.99773690 0.00226303)
        (0.99762019 0.00237976))))
        ((((0.95911129 0.04088862)
        (0.95700232 0.04299761))
        ((0.95700232 0.04299761)
        (0.95478457 0.04521538)))
        (((0.95700232 0.04299761)
        (0.95478457 0.04521538))
        ((0.95478457 0.04521538)
        (0.95245242 0.04754755)))))
        (((((0.95911129 0.04088862)
        (0.95700232 0.04299761))
        ((0.95700232 0.04299761)
        (0.95478457 0.04521538)))
        (((0.95700232 0.04299761)
        (0.95478457 0.04521538))
        ((0.95478457 0.04521538)
        (0.95245242 0.04754755))))
        ((((0.18304532 0.81695461)
        (0.14090767 0.85909228))
        ((0.14090767 0.85909228)
        (0.09659659 0.90340338)))
        (((0.14090767 0.85909228)
        (0.09659659 0.90340338))
        ((0.09659659 0.90340338)
        (0.05000000 0.94999999)))))))
        (((((((0.99989218 0.00010771)
        (0.99988665 0.00011326))
        ((0.99988665 0.00011326)
        (0.99988082 0.00011911)))
        (((0.99988665 0.00011326)
        (0.99988082 0.00011911))
        ((0.99988082 0.00011911)
        (0.99987470 0.00012525))))
        ((((0.99784788 0.00215203)
        (0.99773690 0.00226303))
        ((0.99773690 0.00226303)
        (0.99762019 0.00237976)))
        (((0.99773690 0.00226303)
        (0.99762019 0.00237976))
        ((0.99762019 0.00237976)
        (0.99749747 0.00250250)))))
        (((((0.99784788 0.00215203)
        (0.99773690 0.00226303))
        ((0.99773690 0.00226303)
        (0.99762019 0.00237976)))
        (((0.99773690 0.00226303)
        (0.99762019 0.00237976))
        ((0.99762019 0.00237976)
        (0.99749747 0.00250250))))
        ((((0.95700232 0.04299761)
        (0.95478457 0.04521538))
        ((0.95478457 0.04521538)
        (0.95245242 0.04754755)))
        (((0.95478457 0.04521538)
        (0.95245242 0.04754755))
        ((0.95245242 0.04754755)
        (0.94999999 0.05000000))))))
        ((((((0.99784788 0.00215203)
        (0.99773690 0.00226303))
        ((0.99773690 0.00226303)
        (0.99762019 0.00237976)))
        (((0.99773690 0.00226303)
        (0.99762019 0.00237976))
        ((0.99762019 0.00237976)
        (0.99749747 0.00250250))))
        ((((0.95700232 0.04299761)
        (0.95478457 0.04521538))
        ((0.95478457 0.04521538)
        (0.95245242 0.04754755)))
        (((0.95478457 0.04521538)
        (0.95245242 0.04754755))
        ((0.95245242 0.04754755)
        (0.94999999 0.05000000)))))
        (((((0.95700232 0.04299761)
        (0.95478457 0.04521538))
        ((0.95478457 0.04521538)
        (0.95245242 0.04754755)))
        (((0.95478457 0.04521538)
        (0.95245242 0.04754755))
        ((0.95245242 0.04754755)
        (0.94999999 0.05000000))))
        ((((0.14090767 0.85909228)
        (0.09659659 0.90340338))
        ((0.09659659 0.90340338)
        (0.05000000 0.94999999)))
        (((0.09659659 0.90340338)
        (0.05000000 0.94999999))
        ((0.05000000 0.94999999)
        (0.00100000 0.99900001)))))))));
}

potential (n51 |)
{
    data = (0.01900000 0.98100000);
}

potential (n52 | n51)
{
    data = ((0.94999999 0.05000000)
        (0.00100000 0.99900001));
}

potential (n53 |)
{
    data = (0.00500000 0.99500000);
}

potential (n54 | n1 n6 n20 n32 n53)
{
    data = ((((((0.96737966 0.03262028)
        (0.96379145 0.03620852))
        ((0.83706163 0.16293831)
        (0.81913844 0.18086153)))
        (((0.96569716 0.03430280)
        (0.96192388 0.03807611))
        ((0.82865746 0.17134250)
        (0.80980980 0.19019019))))
        ((((0.96569716 0.03430280)
        (0.96192388 0.03807611))
        ((0.82865746 0.17134250)
        (0.80980980 0.19019019)))
        (((0.96392787 0.03607211)
        (0.95995997 0.04004004))
        ((0.81981981 0.18018017)
        (0.80000001 0.20000000)))))
        (((((0.83706163 0.16293831)
        (0.81913844 0.18086153))
        ((0.18612305 0.81387689)
        (0.09659659 0.90340338)))
        (((0.82865746 0.17134250)
        (0.80980980 0.19019019))
        ((0.14414414 0.85585582)
        (0.05000000 0.94999999))))
        ((((0.82865746 0.17134250)
        (0.80980980 0.19019019))
        ((0.14414414 0.85585582)
        (0.05000000 0.94999999)))
        (((0.81981981 0.18018017)
        (0.80000001 0.20000000))
        ((0.10000000 0.89999998)
        (0.00100000 0.99900001))))));
}

potential (n55 | n2 n4 n44 n14)
{
    data = (((((0.99598792 0.00401202)
        (0.95991985 0.04008012))
        ((0.99498993 0.00501001)
        (0.94994992 0.05005005)))
        (((0.99198393 0.00801602)
        (0.91991990 0.08008008))
        ((0.98998994 0.01001001)
        (0.89999998 0.10000000))))
        ((((0.95991985 0.04008012)
        (0.59959960 0.40040040))
        ((0.94994992 0.05005005)
        (0.50000000 0.50000000)))
        (((0.91991990 0.08008008)
        (0.20000000 0.80000001))
        ((0.89999998 0.10000000)
        (0.00100000 0.99900001)))));
}

potential (n56 | n2 n4 n45 n15)
{
    data = (((((0.99598792 0.00401202)
        (0.95991985 0.04008012))
        ((0.99498993 0.00501001)
        (0.94994992 0.05005005)))
        (((0.99198393 0.00801602)
        (0.91991990 0.08008008))
        ((0.98998994 0.01001001)
        (0.89999998 0.10000000))))
        ((((0.95991985 0.04008012)
        (0.59959960 0.40040040))
        ((0.94994992 0.05005005)
        (0.50000000 0.50000000)))
        (((0.91991990 0.08008008)
        (0.20000000 0.80000001))
        ((0.89999998 0.10000000)
        (0.00100000 0.99900001)))));
}

potential (n57 | n2 n4 n46 n16)
{
    data = (((((0.99598792 0.00401202)
        (0.95991985 0.04008012))
        ((0.99498993 0.00501001)
        (0.94994992 0.05005005)))
        (((0.99198393 0.00801602)
        (0.91991990 0.08008008))
        ((0.98998994 0.01001001)
        (0.89999998 0.10000000))))
        ((((0.95991985 0.04008012)
        (0.59959960 0.40040040))
        ((0.94994992 0.05005005)
        (0.50000000 0.50000000)))
        (((0.91991990 0.08008008)
        (0.20000000 0.80000001))
        ((0.89999998 0.10000000)
        (0.00100000 0.99900001)))));
}

potential (n58 |)
{
    data = (0.00400000 0.99600000);
}

potential (n59 | n44 n45 n46 n58)
{
    data = (((((0.95700232 0.04299761)
        (0.14090767 0.85909228))
        ((0.95478457 0.04521538)
        (0.09659659 0.90340338)))
        (((0.95478457 0.04521538)
        (0.09659659 0.90340338))
        ((0.95245242 0.04754755)
        (0.05000000 0.94999999))))
        ((((0.95478457 0.04521538)
        (0.09659659 0.90340338))
        ((0.95245242 0.04754755)
        (0.05000000 0.94999999)))
        (((0.95245242 0.04754755)
        (0.05000000 0.94999999))
        ((0.94999999 0.05000000)
        (0.00100000 0.99900001)))));
}

potential (n60 | n24 n9 n44 n45 n46)
{
    data = ((((((0.86093449 0.13906541)
        (0.84563732 0.15436261))
        ((0.84563732 0.15436261)
        (0.82865746 0.17134250)))
        (((0.84563732 0.15436261)
        (0.82865746 0.17134250))
        ((0.82865746 0.17134250)
        (0.80980980 0.19019019))))
        ((((0.85376166 0.14623826)
        (0.83767547 0.16232448))
      (0.80000001 0.20000000)))))
        (((((0.30536816 0.69463174)
        (0.22895868 0.77104125))
        ((0.22895868 0.77104125)
        (0.14414414 0.85585582)))
            (((((0.59405865 0.40594131)
        (0.42066371 0.57933626))
        ((0.49308075 0.50691921)
        (0.27655382 0.72344615)))
        (((0.57312063 0.42687935)
        (0.39078217 0.60921782))
        ((0.46693440 0.53306558)
        (0.23923924 0.76076075))))
        ((((0.57312063 0.42687935)
        (0.39078217 0.60921782))
        ((0.46693440 0.53306558)
        (0.23923924 0.76076075)))
        (((0.55110266 0.44889734)
        (0.35935936 0.64064065))
        ((0.43943945 0.56056055)
        (0.20000000 0.80000001)))))))
        (((((((0.56571587 0.43428404)
        (0.38021454 0.61978538))
        ((0.45768772 0.54231219)
        (0.22604293 0.77395699)))
        (((0.54331597 0.45668396)
        (0.34824667 0.65175327))
        ((0.42971584 0.57028409)
        (0.18612305 0.81387689))))
        ((((0.54331597 0.45668396)
        (0.34824667 0.65175327))
        ((0.42971584 0.57028409)
        (0.18612305 0.81387689)))
        (((0.51976070 0.48023925)
        (0.31462993 0.68537003))
        ((0.40030119 0.59969876)
        (0.14414414 0.85585582)))))
        (((((0.54331597 0.45668396)
        (0.34824667 0.65175327))
        ((0.42971584 0.57028409)
        (0.18612305 0.81387689)))
        (((0.51976070 0.48023925)
        (0.31462993 0.68537003))
        ((0.40030119 0.59969876)
        (0.14414414 0.85585582))))
        ((((0.51976070 0.48023925)
        (0.31462993 0.68537003))
        ((0.40030119 0.59969876)
        (0.14414414 0.85585582)))
        (((0.49499048 0.50500949)
        (0.27927927 0.72072071))
        ((0.36936937 0.63063060)
        (0.10000000 0.89999998))))))
        ((((((0.51794464 0.48205530)
        (0.31203816 0.68796179))
        ((0.39803339 0.60196655)
        (0.14090767 0.85909228)))
        (((0.49308075 0.50691921)
        (0.27655382 0.72344615))
        ((0.36698460 0.63301536)
        (0.09659659 0.90340338))))
        ((((0.49308075 0.50691921)
        (0.27655382 0.72344615))
        ((0.36698460 0.63301536)
        (0.09659659 0.90340338)))
        (((0.46693440 0.53306558)
        (0.23923924 0.76076075))
        ((0.33433434 0.66566564)
        (0.05000000 0.94999999)))))
        (((((0.49308075 0.50691921)
        (0.27655382 0.72344615))
        ((0.36698460 0.63301536)
        (0.09659659 0.90340338)))
        (((0.46693440 0.53306558)
        (0.23923924 0.76076075))
        ((0.33433434 0.66566564)
        (0.05000000 0.94999999))))
        ((((0.46693440 0.53306558)
        (0.23923924 0.76076075))
        ((0.33433434 0.66566564)
        (0.05000000 0.94999999)))
        (((0.43943945 0.56056055)
        (0.20000000 0.80000001))
        ((0.30000001 0.69999999)
        (0.00100000 0.99900001))))))));
}

potential (n65 | n5 n38 n40 n42 n20 n29)
{
    data = (((((((0.99909951 0.00090049)
        (0.99550204 0.00449796))
        ((0.99887551 0.00112449)
        (0.99438317 0.00561683)))
        (((0.99550204 0.00449796)
        (0.97753267 0.02246733))
        ((0.99438317 0.00561683)
        (0.97194392 0.02805608))))
        ((((0.99550204 0.00449796)
        (0.97753267 0.02246733))
        ((0.99438317 0.00561683)
        (0.97194392 0.02805608)))
        (((0.97753267 0.02246733)
        (0.88777567 0.11222433))
        ((0.97194392 0.02805608)
        (0.85985986 0.14014014)))))
        (((((0.99550204 0.00449796)
        (0.97753267 0.02246733))
        ((0.99438317 0.00561683)
        (0.97194392 0.02805608)))
        (((0.97753267 0.02246733)
        (0.88777567 0.11222433))
        ((0.97194392 0.02805608)
        (0.85985986 0.14014014))))
        ((((0.97753267 0.02246733)
        (0.88777567 0.11222433))
        ((0.97194392 0.02805608)
        (0.85985986 0.14014014)))
        (((0.88777567 0.11222433)
        (0.43943945 0.56056055))
        ((0.85985986 0.14014014)
        (0.30000001 0.69999999))))))
        ((((((0.99871488 0.00128513)
        (0.99358077 0.00641924))
        ((0.99839520 0.00160481)
        (0.99198399 0.00801602)))
        (((0.99358077 0.00641924)
        (0.96793591 0.03206410))
        ((0.99198399 0.00801602)
        (0.95995997 0.04004004))))
        ((((0.99358077 0.00641924)
        (0.96793591 0.03206410))
        ((0.99198399 0.00801602)
        (0.95995997 0.04004004)))
        (((0.96793591 0.03206410)
        (0.83983985 0.16016016))
        ((0.95995997 0.04004004)
        (0.80000001 0.20000000)))))
        (((((0.99358077 0.00641924)
        (0.96793591 0.03206410))
        ((0.99198399 0.00801602)
        (0.95995997 0.04004004)))
        (((0.96793591 0.03206410)
        (0.83983985 0.16016016))
        ((0.95995997 0.04004004)
        (0.80000001 0.20000000))))
        ((((0.96793591 0.03206410)
        (0.83983985 0.16016016))
        ((0.95995997 0.04004004)
        (0.80000001 0.20000000)))
        (((0.83983985 0.16016016)
        (0.20000000 0.80000001))
        ((0.80000001 0.20000000)
        (0.00100000 0.99900001)))))));
}

potential (n66 | n5 n38 n40 n42)
{
    data = (((((0.99438317 0.00561683)
        (0.97194392 0.02805608))
        ((0.97194392 0.02805608)
        (0.85985986 0.14014014)))
        (((0.97194392 0.02805608)
        (0.85985986 0.14014014))
        ((0.85985986 0.14014014)
        (0.30000001 0.69999999))))
        ((((0.99198399 0.00801602)
        (0.95995997 0.04004004))
        ((0.95995997 0.04004004)
        (0.80000001 0.20000000)))
        (((0.95995997 0.04004004)
        (0.80000001 0.20000000))
        ((0.80000001 0.20000000)
        (0.00100000 0.99900001)))));
}

potential (n67 |)
{
    data = (0.00600000 0.99400000);
}

potential (n68 | n35 n67)
{
    data = (((0.90990989 0.09009010)
        (0.69999999 0.30000001))
        ((0.69999999 0.30000001)
        (0.00100000 0.99900001)));
}

potential (n69 | n24 n38)
{
    data = (((0.59959960 0.40040040)
        (0.20000000 0.80000001))
        ((0.50000000 0.50000000)
        (0.00100000 0.99900001)));
}

potential (n70 | n25 n40)
{
    data = (((0.59959960 0.40040040)
        (0.20000000 0.80000001))
        ((0.50000000 0.50000000)
        (0.00100000 0.99900001)));
}

potential (n71 | n27 n42)
{
    data = (((0.59959960 0.40040040)
        (0.20000000 0.80000001))
        ((0.50000000 0.50000000)
        (0.00100000 0.99900001)));
}

potential (n72 | n24 n38)
{
    data = (((0.09659659 0.90340338)
        (0.05000000 0.94999999))
        ((0.05000000 0.94999999)
        (0.00100000 0.99900001)));
}

potential (n73 | n25 n40)
{
    data = (((0.09659659 0.90340338)
        (0.05000000 0.94999999))
        ((0.05000000 0.94999999)
        (0.00100000 0.99900001)));
}

potential (n74 | n27 n42)
{
    data = (((0.09659659 0.90340338)
        (0.05000000 0.94999999))
        ((0.05000000 0.94999999)
        (0.00100000 0.99900001)));
}

potential (n75 | n24 n38)
{
    data = (((0.83983988 0.16016017)
        (0.60000002 0.40000001))
        ((0.60000002 0.40000001)
        (0.00100000 0.99900001)));
}

potential (n76 | n25 n40)
{
    data = (((0.83983988 0.16016017)
        (0.60000002 0.40000001))
        ((0.60000002 0.40000001)
        (0.00100000 0.99900001)));
}

potential (n77 | n27 n42)
{
    data = (((0.83983988 0.16016017)
        (0.60000002 0.40000001))
        ((0.60000002 0.40000001)
        (0.00100000 0.99900001)));
}

potential (n78 | n1 n2 n3 n4 n5 n6 n0)
{
    data = ((((((((0.96302398 0.03697589)
        (0.26122157 0.73877832))
        ((0.96111682 0.03888307)
        (0.22311617 0.77688374)))
        (((0.96111682 0.03888307)
        (0.22311617 0.77688374))
        ((0.95911129 0.04088862)
        (0.18304532 0.81695461))))
        ((((0.96111682 0.03888307)
        (0.22311617 0.77688374))
        ((0.95911129 0.04088862)
        (0.18304532 0.81695461)))
        (((0.95911129 0.04088862)
        (0.18304532 0.81695461))
        ((0.95700232 0.04299761)
        (0.14090767 0.85909228)))))
        (((((0.96111682 0.03888307)
        (0.22311617 0.77688374))
        ((0.95911129 0.04088862)
        (0.18304532 0.81695461)))
        (((0.95911129 0.04088862)
        (0.18304532 0.81695461))
        ((0.95700232 0.04299761)
        (0.14090767 0.85909228))))
        ((((0.95911129 0.04088862)
        (0.18304532 0.81695461))
        ((0.95700232 0.04299761)
        (0.14090767 0.85909228)))
        (((0.95700232 0.04299761)
        (0.14090767 0.85909228))
        ((0.95478457 0.04521538)
        (0.09659659 0.90340338))))))
        ((((((0.96111682 0.03888307)
        (0.22311617 0.77688374))
        ((0.95911129 0.04088862)
        (0.18304532 0.81695461)))
        (((0.95911129 0.04088862)
        (0.18304532 0.81695461))
        ((0.95700232 0.04299761)
        (0.14090767 0.85909228))))
        ((((0.95911129 0.04088862)
        (0.18304532 0.81695461))
      )
        (((0.95700232 0.04299761)
        (0.14090767 0.811129 0.04088862)
        (0.18304532 0.81695461))
        ((0.95700232 0.04299761)
        (0.14    (0.14090767 0.85909228))
        ((0.95478457 0.0452153   ((((0.95700232 0.04299761)
        (0.14090767 0.85909228))
        ((0.95478457 0.04521538)
        (0.09659659 0.90340338)))
        (((0.95478457 0.04521538)
        (0.09659659 0.90340338))
        ((0.95245242 0.04754755)
        (0.05000000 0.94999999))))))
        ((((((0.95911129 0.04088862)
        (0.18304532 0.81695461))
        ((0.95700232 0.04299761)
        (0.14090767 0.85909228)))
        (((0.95700232 0.04299761)
        (0.14090767 0.85909228))
        ((0.95478457 0.04521538)
        (0.09659659 0.90340338))))
        ((((0.95700232 0.04299761)
        (0.14090767 0.85909228))
        ((0.95478457 0.04521538)
        (0.09659659 0.90340338)))
        (((0.95478457 0.04521538)
        (0.09659659 0.90340338))
        ((0.95245242 0.04754755)
        (0.05000000 0.94999999)))))
        (((((0.95700232 0.04299761)
        (0.14090767 0.85909228))
        ((0.95478457 0.04521538)
        (0.09659659 0.90340338)))
        (((0.95478457 0.04521538)
        (0.09659659 0.90340338))
        ((0.95245242 0.04754755)
        (0.05000000 0.94999999))))
        ((((0.95478457 0.04521538)
        (0.0965.43693693 0.56306306))
        ((0.43693693 0.56306306)
        (0.25000000 0.75000000)))
        (((0.43693693 0.56306306)
        (0.25000000 0.75000000))
        ((0.25000000 0.75000000)
        (0.00100000 0.99900001)))));
}

potential (n80 | n8 n9 n10 n11)
{
    data = (((((0.97884280 0.02115716)
        (0.97181864 0.02818133))
        ((0.97181864 0.02818133)
        (0.96246244 0.03753754)))
        (((0.97181864 0.02818133)
        (0.96246244 0.03753754))
        ((0.96246244 0.03753754)
        (0.94999999 0.05000000))))
        ((((0.57727997 0.42272001)
        (0001));
}

potential (n84 | n42)
{
    data = ((0.10000000 0.89999998)
        (0.00100000 0.99900001));
}

potential (n85 | n38)
{
    data = ((0.94999999 0.05000000)
        (0.00100000 0.99900001));
}

potential (n86 | n40)
{
    data = ((0.94999999 0.05000000)
        (0.00100000 0.99900001));
}

potential (n87 | n42)
{
    data = ((0.94999999 0.05000000)
        (0.00100000 0.99900001));
}

potential (n88 | n51)
{
    data = ((0.05000000 0.94999999)
        (0.00100000 0.99900001));
}

potential (n89 | n35)
{
    data = ((0.75000000 0.25000000)
        (0.00100000 0.999000125)
        (0.90990986 0.09009009))
        ((0.14414414 0.85585582)
        (0.10000000 0.89999998)))))
        (((((0.91400470 0.08599522)
        (0.90956917 0.09043077))
        ((0.14090767 0.85909228)
        (0.09659659 0.90340338)))
        (((0.90956917 0.09043077)
        (0.90490487 0.09509509))
        ((0.09659659 0.90340338)
        (0.05000000 0.94999999))))
        ((((0.90956917 0.09043077)
        (0.90490487 0.09509509))
        ((0.09659659 0.90340338)
        (0.05000000 0.94999999)))
        (((0.90490487 0.09509509)
        (0.89999998 0.10000000))
   1))))));
}

potential (n92 | n6 n0 n53)
{
    data = ((((0. ((0.94999999 0.05000000)
        (0.00100000 0.99900001));
}

potential (n97 | n1 n32)
{
    data = (((0.98998994 0.01001001)
        (0.89999998 0.10000000))
        ((0.89999998 0.10000000)
        (0.00100000 0.99900001)));
}

potential (n98 | n46)
{
    data = ((0.70000000 0.30000000)
        (0.00000000 1.00000000));
}

potential (n99 | n45)
{
    data = ((0.70000000 0.30000000)
        (0.00000000 1.00000000));
}

potential (n100 | n44)
{
    data = ((0.70000000 0.30000000)
        (0.00000000 1.00000000));
}

potential (n101 | n47)
{
    data = ((0.80000000 0.20000000)
 