%%%%%%%%%%%%%%%%%%%%%%%%  W A T E R  %%%%%%%%%%%%%%%%%%%%%%%%%%%%%%%%%%%%%%%
%% Preliminary model of the biological processes of a water purification
%% plant.  The network consists of four structurally identical subnetworks,
%% each representing a time slice of 15 minutes.  The network was developed
%% by Finn V. Jensen, Uffe Kjærulff, Kristian G. Olesen, and Jan Pedersen.
%% 
%% @TechReport{jensen:kjaerulff:olesen:etal:89,
%%   author = 	"Finn V. Jensen and Uffe Kj{\ae}rulff and Kristian G.
%% 		 Olesen and Jan Pedersen",
%%   title = 	"Et forprojekt til et ekspertsystem for drift af
%% 		 spildevandsrensning (An Expert System for Control of
%% 		 Waste Water Treatment --- A Pilot Project)",
%%   institution =	"Judex Datasystemer A/S, Aalborg, Denmark",
%%   year = 	 1989,
%%   note =	"In Danish"
%% }
%% 


net
{
    node_size = (100 30);
}

node C_NI_12_00
{
    label = "C/NI-12.00";
    position = (25 471);
    states = ("3" "4" "5" "6");
}

node CKNI_12_00
{
    label = "CKNI-12.00";
    position = (25 414);
    states = ("20_MG/L" "30_MG/L" "40_MG/L");
}

node CBODD_12_00
{
    label = "CBODD-12.00";
    position = (25 358);
    states = ("15_MG/L" "20_MG/L" "25_MG/L" "30_MG/L");
}

node CKND_12_00
{
    label = "CKND-12.00";
    position = (25 291);
    states = ("2_MG/L" "4_MG/L" "6_MG/L");
}

node CBODN_12_00
{
    label = "CBODN-12.00";
    position = (25 177);
    states = ("5_MG/L" "10_MG/L" "15_MG/L" "20_MG/L");
}

node CKNN_12_00
{
    label = "CKNN-12.00";
    position = (25 111);
    states = ("0.5_MG/L" "1_MG/L" "2_MG/L");
}

node CNON_12_00
{
    label = "CNON-12.00";
    position = (25 54);
    states = ("2_MG/L" "4_MG/L" "6_MG/L" "10_MG/L");
}

node C_NI_12_15
{
    label = "C/NI-12.15";
    position = (176 471);
    states = ("3" "4" "5" "6");
}

node CKNI_12_15
{
    label = "CKNI-12.15";
    position = (176 414);
    states = ("20_MG/L" "30_MG/L" "40_MG/L");
}

node CKND_12_15
{
    label = "CKND-12.15";
    position = (176 291);
    states = ("2_MG/L" "4_MG/L" "6_MG/L");
}

node CBODN_12_15
{
    label = "CBODN-12.15";
    position = (176 177);
    states = ("5_MG/L" "10_MG/L" "15_MG/L" "20_MG/L");
}

node CKNN_12_15
{
    label = "CKNN-12.15";
    position = (176 111);
    states = ("0.5_MG/L" "1_MG/L" "2_MG/L");
}

node CKNI_12_30
{
    label = "CKNI-12.30";
    position = (328 414);
    states = ("20_MG/L" "30_MG/L" "40_MG/L");
}

node CKNN_12_30
{
    label = "CKNN-12.30";
    position = (328 111);
    states = ("0.5_MG/L" "1_MG/L" "2_MG/L");
}

node CKNI_12_45
{
    label = "CKNI-12.45";
    position = (480 414);
    states = ("20_MG/L" "30_MG/L" "40_MG/L");
}

potential (C_NI_12_00)
{
    data =
	( 1 1 1 1 );
}

potential (CKNI_12_00)
{
    data =
	( 1 1 1 );
}

potential (CBODD_12_00)
{
    data =
	( 0 1 0 0 );
}

potential (CKND_12_00)
{
    data =
	( 0 1 0 );
}

potential (CBODN_12_00)
{
    data =
	( 0 1 0 0 );
}

potential (CKNN_12_00)
{
    data =
	( 0 1 0 );
}

potential (CNON_12_00)
{
    data =
	( 0 1 0 0 );
}

potential (C_NI_12_15 | C_NI_12_00)
{
    data =
	(( 50 40 10 0 )  	%  3
	 ( 20 55 20 5 )  	%  4
	 ( 10 30 50 10 )  	%  5
	 ( 0 15 25 60 ));	%  6
}

potential (CKNI_12_15 | CKNI_12_00)
{
    data =
	(( 48 48 4 )  	%  20_MG/L
	 ( 20 60 20 )  	%  30_MG/L
	 ( 4 48 48 ));	%  40_MG/L
}

potential (CKND_12_15 | CKNI_12_00 CKND_12_00 CKNN_12_00)
{
    data =
	(((( 0.9524 0.0476 0 ) %  20_MG/L  2_MG/L  0.5_MG/L
	   ( 0.9444 0.0556 0 ) %  20_MG/L  2_MG/L  1_MG/L
	   ( 0.9286 0.0714 0 )) %  20_MG/L  2_MG/L  2_MG/L
	  (( 0 0.9921 0.0079 ) %  20_MG/L  4_MG/L  0.5_MG/L
	   ( 0 0.9841 0.0159 ) %  20_MG/L  4_MG/L  1_MG/L
	   ( 0 0.9683 0.0317 )) %  20_MG/L  4_MG/L  2_MG/L
	  (( 0 0.0317 0.9683 ) %  20_MG/L  6_MG/L  0.5_MG/L
	   ( 0 0.0238 0.9762 ) %  20_MG/L  6_MG/L  1_MG/L
	   ( 0 0.0079 0.9921 ))) %  20_MG/L  6_MG/L  2_MG/L
	 ((( 0.9127 0.0873 0 ) %  30_MG/L  2_MG/L  0.5_MG/L
	   ( 0.9048 0.0952 0 ) %  30_MG/L  2_MG/L  1_MG/L
	   ( 0.8889 0.1111 0 )) %  30_MG/L  2_MG/L  2_MG/L
	  (( 0 0.9524 0.0476 ) %  30_MG/L  4_MG/L  0.5_MG/L
	   ( 0 0.9444 0.0556 ) %  30_MG/L  4_MG/L  1_MG/L
	   ( 0 0.9286 0.0714 )) %  30_MG/L  4_MG/L  2_MG/L
	  (( 0 0 1 ) %  30_MG/L  6_MG/L  0.5_MG/L
	   ( 0 0 1 ) %  30_MG/L  6_MG/L  1_MG/L
	   ( 0 0 1 ))) %  30_MG/L  6_MG/L  2_MG/L
	 ((( 0.873 0.127 0 ) %  40_MG/L  2_MG/L  0.5_MG/L
	   ( 0.8651 0.1349 0 ) %  40_MG/L  2_MG/L  1_MG/L
	   ( 0.8492 0.1508 0 )) %  40_MG/L  2_MG/L  2_MG/L
	  (( 0 0.9127 0.0873 ) %  40_MG/L  4_MG/L  0.5_MG/L
	   ( 0 0.9048 0.0952 ) %  40_MG/L  4_MG/L  1_MG/L
	   ( 0 0.8889 0.1111 )) %  40_MG/L  4_MG/L  2_MG/L
	  (( 0 0 1 ) %  40_MG/L  6_MG/L  0.5_MG/L
	   ( 0 0 1 ) %  40_MG/L  6_MG/L  1_MG/L
	   ( 0 0 1 )))); %  40_MG/L  6_MG/L  2_MG/L
}

potential (CBODN_12_15 | CBODD_12_00 CBODN_12_00 CNON_12_00)
{
    data =
	(((( 0.9557 0.0443 0 0 ) %  15_MG/L  5_MG/L  2_MG/L
	   ( 0.9561 0.0439 0 0 ) %  15_MG/L  5_MG/L  4_MG/L
	   ( 0.9562 0.0438 0 0 ) %  15_MG/L  5_MG/L  6_MG/L
	   ( 0.9564 0.0436 0 0 )) %  15_MG/L  5_MG/L  10_MG/L
	  (( 0.0406 0.9594 0 0 ) %  15_MG/L  10_MG/L  2_MG/L
	   ( 0.0412 0.9588 0 0 ) %  15_MG/L  10_MG/L  4_MG/L
	   ( 0.0414 0.9586 0 0 ) %  15_MG/L  10_MG/L  6_MG/L
	   ( 0.0416 0.9584 0 0 )) %  15_MG/L  10_MG/L  10_MG/L
	  (( 0 0.1152 0.8848 0 ) %  15_MG/L  15_MG/L  2_MG/L
	   ( 0 0.116 0.884 0 ) %  15_MG/L  15_MG/L  4_MG/L
	   ( 0 0.1163 0.8837 0 ) %  15_MG/L  15_MG/L  6_MG/L
	   ( 0 0.1166 0.8834 0 )) %  15_MG/L  15_MG/L  10_MG/L
	  (( 0 0 0.1835 0.8165 ) %  15_MG/L  20_MG/L  2_MG/L
	   ( 0 0 0.1844 0.8156 ) %  15_MG/L  20_MG/L  4_MG/L
	   ( 0 0 0.1847 0.8153 ) %  15_MG/L  20_MG/L  6_MG/L
	   ( 0 0 0.185 0.815 ))) %  15_MG/L  20_MG/L  10_MG/L
	 ((( 0.9067 0.0933 0 0 ) %  20_MG/L  5_MG/L  2_MG/L
	   ( 0.9071 0.0929 0 0 ) %  20_MG/L  5_MG/L  4_MG/L
	   ( 0.9072 0.0928 0 0 ) %  20_MG/L  5_MG/L  6_MG/L
	   ( 0.9073 0.0927 0 0 )) %  20_MG/L  5_MG/L  10_MG/L
	  (( 0 0.9916 0.0084 0 ) %  20_MG/L  10_MG/L  2_MG/L
	   ( 0 0.9922 0.0078 0 ) %  20_MG/L  10_MG/L  4_MG/L
	   ( 0 0.9924 0.0076 0 ) %  20_MG/L  10_MG/L  6_MG/L
	   ( 0 0.9926 0.0074 0 )) %  20_MG/L  10_MG/L  10_MG/L
	  (( 0 0.0662 0.9338 0 ) %  20_MG/L  15_MG/L  2_MG/L
	   ( 0 0.067 0.933 0 ) %  20_MG/L  15_MG/L  4_MG/L
	   ( 0 0.0673 0.9327 0 ) %  20_MG/L  15_MG/L  6_MG/L
	   ( 0 0.0676 0.9324 0 )) %  20_MG/L  15_MG/L  10_MG/L
	  (( 0 0 0.1344 0.8656 ) %  20_MG/L  20_MG/L  2_MG/L
	   ( 0 0 0.1354 0.8646 ) %  20_MG/L  20_MG/L  4_MG/L
	   ( 0 0 0.1357 0.8643 ) %  20_MG/L  20_MG/L  6_MG/L
	   ( 0 0 0.136 0.864 ))) %  20_MG/L  20_MG/L  10_MG/L
	 ((( 0.8577 0.1423 0 0 ) %  25_MG/L  5_MG/L  2_MG/L
	   ( 0.8581 0.1419 0 0 ) %  25_MG/L  5_MG/L  4_MG/L
	   ( 0.8582 0.1418 0 0 ) %  25_MG/L  5_MG/L  6_MG/L
	   ( 0.8583 0.1417 0 0 )) %  25_MG/L  5_MG/L  10_MG/L
	  (( 0 0.9426 0.0574 0 ) %  25_MG/L  10_MG/L  2_MG/L
	   ( 0 0.9432 0.0568 0 ) %  25_MG/L  10_MG/L  4_MG/L
	   ( 0 0.9434 0.0566 0 ) %  25_MG/L  10_MG/L  6_MG/L
	   ( 0 0.9436 0.0564 0 )) %  25_MG/L  10_MG/L  10_MG/L
	  (( 0 0.0172 0.9828 0 ) %  25_MG/L  15_MG/L  2_MG/L
	   ( 0 0.018 0.982 0 ) %  25_MG/L  15_MG/L  4_MG/L
	   ( 0 0.0183 0.9817 0 ) %  25_MG/L  15_MG/L  6_MG/L
	   ( 0 0.0185 0.9815 0 )) %  25_MG/L  15_MG/L  10_MG/L
	  (( 0 0 0.0854 0.9146 ) %  25_MG/L  20_MG/L  2_MG/L
	   ( 0 0 0.0863 0.9137 ) %  25_MG/L  20_MG/L  4_MG/L
	   ( 0 0 0.0867 0.9133 ) %  25_MG/L  20_MG/L  6_MG/L
	   ( 0 0 0.087 0.913 ))) %  25_MG/L  20_MG/L  10_MG/L
	 ((( 0.8087 0.1913 0 0 ) %  30_MG/L  5_MG/L  2_MG/L
	   ( 0.809 0.191 0 0 ) %  30_MG/L  5_MG/L  4_MG/L
	   ( 0.8092 0.1908 0 0 ) %  30_MG/L  5_MG/L  6_MG/L
	   ( 0.8093 0.1907 0 0 )) %  30_MG/L  5_MG/L  10_MG/L
	  (( 0 0.8936 0.1064 0 ) %  30_MG/L  10_MG/L  2_MG/L
	   ( 0 0.8942 0.1058 0 ) %  30_MG/L  10_MG/L  4_MG/L
	   ( 0 0.8944 0.1056 0 ) %  30_MG/L  10_MG/L  6_MG/L
	   ( 0 0.8946 0.1054 0 )) %  30_MG/L  10_MG/L  10_MG/L
	  (( 0 0 0.9682 0.0318 ) %  30_MG/L  15_MG/L  2_MG/L
	   ( 0 0 0.969 0.031 ) %  30_MG/L  15_MG/L  4_MG/L
	   ( 0 0 0.9693 0.0307 ) %  30_MG/L  15_MG/L  6_MG/L
	   ( 0 0 0.9695 0.0305 )) %  30_MG/L  15_MG/L  10_MG/L
	  (( 0 0 0.0364 0.9636 ) %  30_MG/L  20_MG/L  2_MG/L
	   ( 0 0 0.0373 0.9627 ) %  30_MG/L  20_MG/L  4_MG/L
	   ( 0 0 0.0377 0.9623 ) %  30_MG/L  20_MG/L  6_MG/L
	   ( 0 0 0.038 0.962 )))); %  30_MG/L  20_MG/L  10_MG/L
}

potential (CKNN_12_15 | CKND_12_00 CKNN_12_00)
{
    data =
	((( 1 0 0 ) %  2_MG/L  0.5_MG/L
	  ( 0.4459 0.5541 0 ) %  2_MG/L  1_MG/L
	  ( 0 0.3627 0.6373 )) %  2_MG/L  2_MG/L
	 (( 1 0 0 ) %  4_MG/L  0.5_MG/L
	  ( 0.2499 0.7501 0 ) %  4_MG/L  1_MG/L
	  ( 0 0.2646 0.7354 )) %  4_MG/L  2_MG/L
	 (( 0.8234 0.1766 0 ) %  6_MG/L  0.5_MG/L
	  ( 0.0538 0.9462 0 ) %  6_MG/L  1_MG/L
	  ( 0 0.1666 0.8334 ))); %  6_MG/L  2_MG/L
}

potential (CKNI_12_30 | CKNI_12_15)
{
    data =
	(( 48 48 4 ) %  20_MG/L
	 ( 20 60 20 ) %  30_MG/L
	 ( 4 48 48 )); %  40_MG/L
}

potential (CKNN_12_30 | CKND_12_15 CKNN_12_15)
{
    data =
	((( 1 0 0 ) %  2_MG/L  0.5_MG/L
	  ( 0.4459 0.5541 0 ) %  2_MG/L  1_MG/L
	  ( 0 0.3627 0.6373 )) %  2_MG/L  2_MG/L
	 (( 1 0 0 ) %  4_MG/L  0.5_MG/L
	  ( 0.2499 0.7501 0 ) %  4_MG/L  1_MG/L
	  ( 0 0.2646 0.7354 )) %  4_MG/L  2_MG/L
	 (( 0.8234 0.1766 0 ) %  6_MG/L  0.5_MG/L
	  ( 0.0538 0.9462 0 ) %  6_MG/L  1_MG/L
	  ( 0 0.1666 0.8334 ))); %  6_MG/L  2_MG/L
}

potential (CKNI_12_45 | CKNI_12_30)
{
    data =
	(( 48 48 4 ) %  20_MG/L
	 ( 20 60 20 ) %  30_MG/L
	 ( 4 48 48 )); %  40_MG/L
}
