net 
{
    node_size = (76 36);
}

node n0
{
    label = "n0";
    position = (2517 1040);
    states = ("s0"  "s1");
    KI_SHORTNAME = "Power Supply 5V";
    KI_LONGNAME = "Power Supply 5V";
}

node n1
{
    label = "n1";
    position = (2732 1486);
    states = ("s0"  "s1");
    KI_SHORTNAME = "Serial Link Board (C003)";
    KI_LONGNAME = "Serial Link Board (C003)";
}

node n2
{
    label = "n2";
    position = (2168 569);
    states = ("s0"  "s1");
    KI_SHORTNAME = "Interface Boards (C075, C083)";
    KI_LONGNAME = "Interface Boards (C075, C083)";
}

node n3
{
    label = "n3";
    position = (1525 1060);
    states = ("s0"  "s1");
    KI_SHORTNAME = "Control Board (C011)";
    KI_LONGNAME = "Control Board (C011)";
}

node n4
{
    label = "n4";
    position = (1841 574);
    states = ("s0"  "s1");
    KI_SHORTNAME = "Input/output Boards (G059, G067)";
    KI_LONGNAME = "Input/output Boards (G059, G067)";
}

node n5
{
    label = "n5";
    position = (1296 1050);
    states = ("s0"  "s1");
    KI_SHORTNAME = "Monitoring Board (C043)";
    KI_LONGNAME = "Monitoring Board (C043)";
}

node n6
{
    label = "n6";
    position = (2444 1466);
    states = ("s0"  "s1");
    KI_SHORTNAME = "Memory/Processor Board (C035, C027)";
    KI_LONGNAME = "Memory/Processor Board (C035, C027)";
}

node n7
{
    label = "n7";
    position = (2231 1280);
    states = ("s0"  "s1");
    KI_SHORTNAME = "TCC 04 Power Supply - 5V";
    KI_LONGNAME = "TCC 04 Power Supply - 5V";
}

node n18
{
    label = "n18";
    position = (3732 1044);
    states = ("s0"  "s1");
    KI_SHORTNAME = "GTO Power Spl 24V";
    KI_LONGNAME = "GTO Power Spl 24V";
}

node n19
{
    label = "n19";
    position = (3325 833);
    states = ("s0"  "s1");
    KI_SHORTNAME = "TCC 04 Power Supply - GTO 24V";
    KI_LONGNAME = "TCC 04 Power Supply - GTO 24V";
}

node n20
{
    label = "n20";
    position = (2261 1047);
    states = ("s0"  "s1");
    KI_SHORTNAME = "Other TCC faults";
    KI_LONGNAME = "Other TCC faults";
}

node n21
{
    label = "n21";
    position = (3246 1035);
    states = ("s0"  "s1");
    KI_SHORTNAME = "Engine, Generators & VDCL Transducer ";
    KI_LONGNAME = "Engine, Generators & VDCL Transducer ";
}

node n22
{
    label = "n22";
    position = (3776 1294);
    states = ("s0"  "s1");
    KI_SHORTNAME = "TCC 05 Low Power Supply - GTO 24V";
    KI_LONGNAME = "TCC 05 Low Power Supply - GTO 24V";
}

node n24
{
    label = "n24";
    position = (1246 676);
    states = ("s0"  "s1");
    KI_SHORTNAME = "Gate Unit R";
    KI_LONGNAME = "Gate Unit R";
}

node n27
{
    label = "n27";
    position = (2177 1494);
    states = ("s0"  "s1");
    KI_SHORTNAME = "Gate Unit T";
    KI_LONGNAME = "Gate Unit T";
}

node n29
{
    label = "n29";
    position = (730 1047);
    states = ("s0"  "s1");
    KI_SHORTNAME = "Thyristor Control Board (A11, A12)";
    KI_LONGNAME = "Thyristor Control Board (A11, A12)";
}

node n30
{
    label = "n30";
    position = (1473 1264);
    states = ("s0"  "s1");
    KI_SHORTNAME = "TCC 10 Unjustified Crowbar Other TCC";
    KI_LONGNAME = "TCC 10 Unjustified Crowbar Other TCC";
}

node n31
{
    label = "n31";
    position = (2988 1034);
    states = ("s0"  "s1");
    KI_SHORTNAME = "DC Voltage Transducer (U1)";
    KI_LONGNAME = "DC Voltage Transducer (U1)";
}

node n32
{
    label = "n32";
    position = (3483 1037);
    states = ("s0"  "s1");
    KI_SHORTNAME = "EM2000 Computer, Communication & Radar";
    KI_LONGNAME = "EM2000 Computer, Communication & Radar";
}

node n35
{
    label = "n35";
    position = (3611 1536);
    states = ("s0"  "s1");
    KI_SHORTNAME = "Reactor (L456)";
    KI_LONGNAME = "Reactor (L456)";
}

node n37
{
    label = "n37";
    position = (3503 829);
    states = ("s0"  "s1");
    KI_SHORTNAME = "TCC 11 DC Link Undervoltage Both TCC";
    KI_LONGNAME = "TCC 11 DC Link Undervoltage Both TCC";
}

node n38
{
    label = "n38";
    position = (915 1053);
    states = ("s0"  "s1");
    KI_SHORTNAME = "Phase Module R";
    KI_LONGNAME = "Phase Module R";
}

node n40
{
    label = "n40";
    position = (486 1048);
    states = ("s0"  "s1");
    KI_SHORTNAME = "Phase Module S";
    KI_LONGNAME = "Phase Module S";
}

node n42
{
    label = "n42";
    position = (2003 1494);
    states = ("s0"  "s1");
    KI_SHORTNAME = "Phase Module T";
    KI_LONGNAME = "Phase Module T";
}

node n47
{
    label = "n47";
    position = (1567 573);
    states = ("s0"  "s1");
}

node n65
{
    label = "n65";
    position = (1003 1257);
    states = ("s0"  "s1");
    KI_SHORTNAME = "EM2K 791 Unexpected Crowbar";
    KI_LONGNAME = "EM2K 791 Unexpected Crowbar";
}

node n67
{
    label = "n67";
    position = (3314 1548);
    states = ("s0"  "s1");
    KI_SHORTNAME = "Crowbar Reactor (L12)";
    KI_LONGNAME = "Crowbar Reactor (L12)";
}

node n69
{
    label = "n69";
    position = (1095 785);
    states = ("s0"  "s1");
    KI_SHORTNAME = "Gate Unit R Green Light";
    KI_LONGNAME = "Gate Unit R Green Light";
}

node n86
{
    label = "n86";
    position = (160 1053);
    states = ("s0"  "s1");
    KI_SHORTNAME = "Phase Module S Resistance";
    KI_LONGNAME = "Phase Module S Resistance";
}

node n90
{
    label = "n90";
    position = (3975 1699);
    states = ("s0"  "s1");
    KI_SHORTNAME = "Reactor Ground Short";
    KI_LONGNAME = "Reactor Ground Short";
}

node n93
{
    label = "n93";
    position = (3248 1464);
    states = ("s0"  "s1");
    KI_SHORTNAME = "Reactor (L12) Ground Short";
    KI_LONGNAME = "Reactor (L12) Ground Short";
}

potential (n0 |)
{
    data = (0.00500000 0.99500000);
}

potential (n1 |)
{
    data = (0.02000000 0.98000000);
}

potential (n2 |)
{
    data = (0.01600000 0.98400000);
}

potential (n3 |)
{
    data = (0.01400000 0.98600000);
}

potential (n4 |)
{
    data = (0.01300000 0.98700000);
}

potential (n5 |)
{
    data = (0.01200000 0.98800000);
}

potential (n6 |)
{
    data = (0.01600000 0.98400000);
}

potential (n7 | n0 n1 n2 n3 n4 n5 n6)
{
    data = ((((((((0.98978251 0.01021740)
        (0.97958555 0.02041437))
        ((0.97958555 0.02041437)
        (0.95921203 0.04078790)))
        (((0.97958555 0.02041437)
        (0.95921203 0.04078790))
        ((0.95921203 0.04078790)
        (0.91850571 0.08149423))))
        ((((0.97958555 0.02041437)
        (0.95921203 0.04078790))
        ((0.95921203 0.04078790)
        (0.91850571 0.08149423)))
        (((0.95921203 0.04078790)
        (0.91850571 0.08149423))
        ((0.91850571 0.08149423)
        (0.83717447 0.16282548)))))
        (((((0.97958555 0.02041437)
        (0.95921203 0.04078790))
        ((0.95921203 0.04078790)
        (0.91850571 0.08149423)))
        (((0.95921203 0.04078790)
        (0.91850571 0.08149423))
        ((0.91850571 0.08149423)
        (0.83717447 0.16282548))))
        ((((0.95921203 0.04078790)
        (0.91850571 0.08149423))
        ((0.91850571 0.08149423)
        (0.83717447 0.16282548)))
        (((0.91850571 0.08149423)
        (0.83717447 0.16282548))
        ((0.83717447 0.16282548)
        (0.67467465 0.32532531))))))
        ((((((0.97958555 0.02041437)
        (0.95921203 0.04078790))
        ((0.95921203 0.04078790)
        (0.91850571 0.08149423)))
        (((0.95921203 0.04078790)
        (0.91850571 0.08149423))
        ((0.91850571 0.08149423)
        (0.83717447 0.16282548))))
        ((((0.95921203 0.04078790)
        (0.91850571 0.08149423))
        ((0.91850571 0.08149423)
        (0.83717447 0.16282548)))
        (((0.91850571 0.08149423)
        (0.83717447 0.16282548))
        ((0.83717447 0.16282548)
        (0.67467465 0.32532531)))))
        (((((0.95921203 0.04078790)
        (0.91850571 0.08149423))
        ((0.91850571 0.08149423)
        (0.83717447 0.16282548)))
        (((0.91850571 0.08149423)
        (0.83717447 0.16282548))
        ((0.83717447 0.16282548)
        (0.67467465 0.32532531))))
        ((((0.91850571 0.08149423)
        (0.83717447 0.16282548))
        ((0.83717447 0.16282548)
        (0.67467465 0.32532531)))
        (((0.83717447 0.16282548)
        (0.67467465 0.32532531))
        ((0.67467465 0.32532531)
        (0.34999999 0.64999998)))))))
        (((((((0.98429659 0.01570336)
        (0.96862465 0.03137531))
        ((0.96862465 0.03137531)
        (0.93731210 0.06268787)))
        (((0.96862465 0.03137531)
        (0.93731210 0.06268787))
        ((0.93731210 0.06268787)
        (0.87474961 0.12525037))))
        ((((0.96862465 0.03137531)
        (0.93731210 0.06268787))
        ((0.93731210 0.06268787)
        (0.87474961 0.12525037)))
        (((0.93731210 0.06268787)
        (0.87474961 0.12525037))
        ((0.87474961 0.12525037)
        (0.74974974 0.25025025)))))
        (((((0.96862465 0.03137531)
        (0.93731210 0.06268787))
        ((0.93731210 0.06268787)
        (0.87474961 0.12525037)))
        (((0.93731210 0.06268787)
        (0.87474961 0.12525037))
        ((0.87474961 0.12525037)
        (0.74974974 0.25025025))))
        ((((0.93731210 0.06268787)
        (0.87474961 0.12525037))
        ((0.87474961 0.12525037)
        (0.74974974 0.25025025)))
        (((0.87474961 0.12525037)
        (0.74974974 0.25025025))
        ((0.74974974 0.25025025)
        (0.50000000 0.50000000))))))
        ((((((0.96862465 0.03137531)
        (0.93731210 0.06268787))
        ((0.93731210 0.06268787)
        (0.87474961 0.12525037)))
        (((0.93731210 0.06268787)
        (0.87474961 0.12525037))
        ((0.87474961 0.12525037)
        (0.74974974 0.25025025))))
        ((((0.93731210 0.06268787)
        (0.87474961 0.12525037))
        ((0.87474961 0.12525037)
        (0.74974974 0.25025025)))
        (((0.87474961 0.12525037)
        (0.74974974 0.25025025))
        ((0.74974974 0.25025025)
        (0.50000000 0.50000000)))))
        (((((0.93731210 0.06268787)
        (0.87474961 0.12525037))
        ((0.87474961 0.12525037)
        (0.74974974 0.25025025)))
        (((0.87474961 0.12525037)
        (0.74974974 0.25025025))
        ((0.74974974 0.25025025)
        (0.50000000 0.50000000))))
        ((((0.87474961 0.12525037)
        (0.74974974 0.25025025))
        ((0.74974974 0.25025025)
        (0.50000000 0.50000000)))
        (((0.74974974 0.25025025)
        (0.50000000 0.50000000))
        ((0.50000000 0.50000000)
        (0.00100000 0.99900001))))))));
}

potential (n18 |)
{
    data = (0.00400000 0.99600000);
}

potential (n19 | n18)
{
    data = ((0.20000000 0.80000001)
        (0.00100000 0.99900001));
}

potential (n20 |)
{
    data = (0.04600000 0.95400000);
}

potential (n21 |)
{
    data = (0.00540000 0.99460000);
}

potential (n22 | n20 n21 n18)
{
    data = ((((0.69539109 0.30460892)
        (0.23923924 0.76076075))
        ((0.61961963 0.38038038)
        (0.05000000 0.94999999)))
        (((0.67967970 0.32032033)
        (0.20000000 0.80000001))
        ((0.60000002 0.40000001)
        (0.00100000 0.99900001))));
}

potential (n24 |)
{
    data = (0.03900000 0.96100000);
}

potential (n27 |)
{
    data = (0.03900000 0.96100000);
}

potential (n29 |)
{
    data = (0.00800000 0.99200000);
}

potential (n30 | n5 n20 n29)
{
    data = ((((0.60721483 0.39278516)
        (0.43943945 0.56056055))
        ((0.50950952 0.49049047)
        (0.30000001 0.69999999)))
        (((0.43943945 0.56056055)
        (0.20000000 0.80000001))
        ((0.30000001 0.69999999)
        (0.00100000 0.99900001))));
}

potential (n31 |)
{
    data = (0.00500000 0.99500000);
}

potential (n32 |)
{
    data = (0.00540000 0.99460000);
}

potential (n35 |)
{
    data = (0.01200000 0.98800000);
}

potential (n37 | n31 n21 n32)
{
    data = ((((0.53356760 0.46643237)
        (0.33433434 0.66566564))
        ((0.33433434 0.66566564)
        (0.05000000 0.94999999)))
        (((0.50950952 0.49049047)
        (0.30000001 0.69999999))
        ((0.30000001 0.69999999)
        (0.00100000 0.99900001))));
}

potential (n38 |)
{
    data = (0.01500000 0.98500000);
}

potential (n40 |)
{
    data = (0.01500000 0.98500000);
}

potential (n42 |)
{
    data = (0.01500000 0.98500000);
}

potential (n47 |)
{
    data = (0.01000000 0.99000000);
}

potential (n65 | n5 n38 n40 n42 n20 n29)
{
    data = (((((((0.99909951 0.00090049)
        (0.99550204 0.00449796))
        ((0.99887551 0.00112449)
        (0.99438317 0.00561683)))
        (((0.99550204 0.00449796)
        (0.97753267 0.02246733))
        ((0.99438317 0.00561683)
        (0.97194392 0.02805608))))
        ((((0.99550204 0.00449796)
        (0.97753267 0.02246733))
        ((0.99438317 0.00561683)
        (0.97194392 0.02805608)))
        (((0.97753267 0.02246733)
        (0.88777567 0.11222433))
        ((0.97194392 0.02805608)
        (0.85985986 0.14014014)))))
        (((((0.99550204 0.00449796)
        (0.97753267 0.02246733))
        ((0.99438317 0.00561683)
        (0.97194392 0.02805608)))
        (((0.97753267 0.02246733)
        (0.88777567 0.11222433))
        ((0.97194392 0.02805608)
        (0.85985986 0.14014014))))
        ((((0.97753267 0.02246733)
        (0.88777567 0.11222433))
        ((0.97194392 0.02805608)
        (0.85985986 0.14014014)))
        (((0.88777567 0.11222433)
        (0.43943945 0.56056055))
        ((0.85985986 0.14014014)
        (0.30000001 0.69999999))))))
        ((((((0.99871488 0.00128513)
        (0.99358077 0.00641924))
        ((0.99839520 0.00160481)
        (0.99198399 0.00801602)))
        (((0.99358077 0.00641924)
        (0.96793591 0.03206410))
        ((0.99198399 0.00801602)
        (0.95995997 0.04004004))))
        ((((0.99358077 0.00641924)
        (0.96793591 0.03206410))
        ((0.99198399 0.00801602)
        (0.95995997 0.04004004)))
        (((0.96793591 0.03206410)
        (0.83983985 0.16016016))
        ((0.95995997 0.04004004)
        (0.80000001 0.20000000)))))
        (((((0.99358077 0.00641924)
        (0.96793591 0.03206410))
        ((0.99198399 0.00801602)
        (0.95995997 0.04004004)))
        (((0.96793591 0.03206410)
        (0.83983985 0.16016016))
        ((0.95995997 0.04004004)
        (0.80000001 0.20000000))))
        ((((0.96793591 0.03206410)
        (0.83983985 0.16016016))
        ((0.95995997 0.04004004)
        (0.80000001 0.20000000)))
        (((0.83983985 0.16016016)
        (0.20000000 0.80000001))
        ((0.80000001 0.20000000)
        (0.00100000 0.99900001)))))));
}

potential (n67 |)
{
    data = (0.00600000 0.99400000);
}

potential (n69 | n24 n38)
{
    data = (((0.59959960 0.40040040)
        (0.20000000 0.80000001))
        ((0.50000000 0.50000000)
        (0.00100000 0.99900001)));
}

potential (n86 | n40)
{
    data = ((0.94999999 0.05000000)
        (0.00100000 0.99900001));
}

potential (n90 | n35)
{
    data = ((0.75000000 0.25000000)
        (0.00100000 0.99900001));
}

potential (n93 | n67)
{
    data = ((0.30000001 0.69999999)
        (0.00100000 0.99900001));
}
