net
{
}

node friendsIo1po1I
{
	label = "friends(o1,o1)";
	position = (0 100);
	states = ("false" "true");
	subtype = boolean;
}

potential (friendsIo1po1I)
{
	data = (0.5 0.5 );
}

node wclause1Io1po1po1I
{
	label = "wclause1(o1,o1,o1)";
	position = (0 100);
	states = ("false" "true");
	subtype = boolean;
}

potential (wclause1Io1po1po1I | friendsIo1po1I )
{
	data = (0.0 1.0
	0.0 1.0 );
}

node friendsIo1po2I
{
	label = "friends(o1,o2)";
	position = (0 100);
	states = ("false" "true");
	subtype = boolean;
}

potential (friendsIo1po2I)
{
	data = (0.5 0.5 );
}

node or_friendsIo1po2I_wclause2Io1I_CC0_CC0_CC0
{
	label = "aux";
	position = (0 100);
	states = ("false" "true");
	subtype = boolean;
}

potential (or_friendsIo1po2I_wclause2Io1I_CC0_CC0_CC0 | friendsIo1po1I friendsIo1po2I )
{
	data = (1.0 0.0
	0.0 1.0
	0.0 1.0
	0.0 1.0 );
}

node friendsIo1po3I
{
	label = "friends(o1,o3)";
	position = (0 100);
	states = ("false" "true");
	subtype = boolean;
}

potential (friendsIo1po3I)
{
	data = (0.5 0.5 );
}

node or_friendsIo1po3I_wclause2Io1I_CC0_CC0_CC0
{
	label = "aux";
	position = (0 100);
	states = ("false" "true");
	subtype = boolean;
}

potential (or_friendsIo1po3I_wclause2Io1I_CC0_CC0_CC0 | or_friendsIo1po2I_wclause2Io1I_CC0_CC0_CC0 friendsIo1po3I )
{
	data = (1.0 0.0
	0.0 1.0
	0.0 1.0
	0.0 1.0 );
}

node friendsIo1po4I
{
	label = "friends(o1,o4)";
	position = (0 100);
	states = ("false" "true");
	subtype = boolean;
}

potential (friendsIo1po4I)
{
	data = (0.5 0.5 );
}

node or_friendsIo1po4I_wclause2Io1I_CC0_CC0_CC0
{
	label = "aux";
	position = (0 100);
	states = ("false" "true");
	subtype = boolean;
}

potential (or_friendsIo1po4I_wclause2Io1I_CC0_CC0_CC0 | or_friendsIo1po3I_wclause2Io1I_CC0_CC0_CC0 friendsIo1po4I )
{
	data = (1.0 0.0
	0.0 1.0
	0.0 1.0
	0.0 1.0 );
}

node friendsIo1po5I
{
	label = "friends(o1,o5)";
	position = (0 100);
	states = ("false" "true");
	subtype = boolean;
}

potential (friendsIo1po5I)
{
	data = (0.5 0.5 );
}

node or_friendsIo1po5I_wclause2Io1I_CC0_CC0_CC0
{
	label = "aux";
	position = (0 100);
	states = ("false" "true");
	subtype = boolean;
}

potential (or_friendsIo1po5I_wclause2Io1I_CC0_CC0_CC0 | or_friendsIo1po4I_wclause2Io1I_CC0_CC0_CC0 friendsIo1po5I )
{
	data = (1.0 0.0
	0.0 1.0
	0.0 1.0
	0.0 1.0 );
}

node friendsIo1po6I
{
	label = "friends(o1,o6)";
	position = (0 100);
	states = ("false" "true");
	subtype = boolean;
}

potential (friendsIo1po6I)
{
	data = (0.5 0.5 );
}

node or_friendsIo1po6I_wclause2Io1I_CC0_CC0_CC0
{
	label = "aux";
	position = (0 100);
	states = ("false" "true");
	subtype = boolean;
}

potential (or_friendsIo1po6I_wclause2Io1I_CC0_CC0_CC0 | or_friendsIo1po5I_wclause2Io1I_CC0_CC0_CC0 friendsIo1po6I )
{
	data = (1.0 0.0
	0.0 1.0
	0.0 1.0
	0.0 1.0 );
}

node friendsIo1po7I
{
	label = "friends(o1,o7)";
	position = (0 100);
	states = ("false" "true");
	subtype = boolean;
}

potential (friendsIo1po7I)
{
	data = (0.5 0.5 );
}

node or_friendsIo1po7I_wclause2Io1I_CC0_CC0_CC0
{
	label = "aux";
	position = (0 100);
	states = ("false" "true");
	subtype = boolean;
}

potential (or_friendsIo1po7I_wclause2Io1I_CC0_CC0_CC0 | or_friendsIo1po6I_wclause2Io1I_CC0_CC0_CC0 friendsIo1po7I )
{
	data = (1.0 0.0
	0.0 1.0
	0.0 1.0
	0.0 1.0 );
}

node friendsIo1po8I
{
	label = "friends(o1,o8)";
	position = (0 100);
	states = ("false" "true");
	subtype = boolean;
}

potential (friendsIo1po8I)
{
	data = (0.5 0.5 );
}

node or_friendsIo1po8I_wclause2Io1I_CC0_CC0_CC0
{
	label = "aux";
	position = (0 100);
	states = ("false" "true");
	subtype = boolean;
}

potential (or_friendsIo1po8I_wclause2Io1I_CC0_CC0_CC0 | or_friendsIo1po7I_wclause2Io1I_CC0_CC0_CC0 friendsIo1po8I )
{
	data = (1.0 0.0
	0.0 1.0
	0.0 1.0
	0.0 1.0 );
}

node friendsIo1po9I
{
	label = "friends(o1,o9)";
	position = (0 100);
	states = ("false" "true");
	subtype = boolean;
}

potential (friendsIo1po9I)
{
	data = (0.5 0.5 );
}

node or_friendsIo1po9I_wclause2Io1I_CC0_CC0_CC0
{
	label = "aux";
	position = (0 100);
	states = ("false" "true");
	subtype = boolean;
}

potential (or_friendsIo1po9I_wclause2Io1I_CC0_CC0_CC0 | or_friendsIo1po8I_wclause2Io1I_CC0_CC0_CC0 friendsIo1po9I )
{
	data = (1.0 0.0
	0.0 1.0
	0.0 1.0
	0.0 1.0 );
}

node friendsIo1po10I
{
	label = "friends(o1,o10)";
	position = (0 100);
	states = ("false" "true");
	subtype = boolean;
}

potential (friendsIo1po10I)
{
	data = (0.5 0.5 );
}

node or_friendsIo1po10I_wclause2Io1I_CC0_CC0_CC0
{
	label = "aux";
	position = (0 100);
	states = ("false" "true");
	subtype = boolean;
}

potential (or_friendsIo1po10I_wclause2Io1I_CC0_CC0_CC0 | or_friendsIo1po9I_wclause2Io1I_CC0_CC0_CC0 friendsIo1po10I )
{
	data = (1.0 0.0
	0.0 1.0
	0.0 1.0
	0.0 1.0 );
}

node friendsIo1po11I
{
	label = "friends(o1,o11)";
	position = (0 100);
	states = ("false" "true");
	subtype = boolean;
}

potential (friendsIo1po11I)
{
	data = (0.5 0.5 );
}

node or_friendsIo1po11I_wclause2Io1I_CC0_CC0_CC0
{
	label = "aux";
	position = (0 100);
	states = ("false" "true");
	subtype = boolean;
}

potential (or_friendsIo1po11I_wclause2Io1I_CC0_CC0_CC0 | or_friendsIo1po10I_wclause2Io1I_CC0_CC0_CC0 friendsIo1po11I )
{
	data = (1.0 0.0
	0.0 1.0
	0.0 1.0
	0.0 1.0 );
}

node friendsIo1po12I
{
	label = "friends(o1,o12)";
	position = (0 100);
	states = ("false" "true");
	subtype = boolean;
}

potential (friendsIo1po12I)
{
	data = (0.5 0.5 );
}

node or_friendsIo1po12I_wclause2Io1I_CC0_CC0_CC0
{
	label = "aux";
	position = (0 100);
	states = ("false" "true");
	subtype = boolean;
}

potential (or_friendsIo1po12I_wclause2Io1I_CC0_CC0_CC0 | or_friendsIo1po11I_wclause2Io1I_CC0_CC0_CC0 friendsIo1po12I )
{
	data = (1.0 0.0
	0.0 1.0
	0.0 1.0
	0.0 1.0 );
}

node friendsIo1po13I
{
	label = "friends(o1,o13)";
	position = (0 100);
	states = ("false" "true");
	subtype = boolean;
}

potential (friendsIo1po13I)
{
	data = (0.5 0.5 );
}

node or_friendsIo1po13I_wclause2Io1I_CC0_CC0_CC0
{
	label = "aux";
	position = (0 100);
	states = ("false" "true");
	subtype = boolean;
}

potential (or_friendsIo1po13I_wclause2Io1I_CC0_CC0_CC0 | or_friendsIo1po12I_wclause2Io1I_CC0_CC0_CC0 friendsIo1po13I )
{
	data = (1.0 0.0
	0.0 1.0
	0.0 1.0
	0.0 1.0 );
}

node friendsIo1po14I
{
	label = "friends(o1,o14)";
	position = (0 100);
	states = ("false" "true");
	subtype = boolean;
}

potential (friendsIo1po14I)
{
	data = (0.5 0.5 );
}

node or_friendsIo1po14I_wclause2Io1I_CC0_CC0_CC0
{
	label = "aux";
	position = (0 100);
	states = ("false" "true");
	subtype = boolean;
}

potential (or_friendsIo1po14I_wclause2Io1I_CC0_CC0_CC0 | or_friendsIo1po13I_wclause2Io1I_CC0_CC0_CC0 friendsIo1po14I )
{
	data = (1.0 0.0
	0.0 1.0
	0.0 1.0
	0.0 1.0 );
}

node friendsIo1po15I
{
	label = "friends(o1,o15)";
	position = (0 100);
	states = ("false" "true");
	subtype = boolean;
}

potential (friendsIo1po15I)
{
	data = (0.5 0.5 );
}

node or_friendsIo1po15I_wclause2Io1I_CC0_CC0_CC0
{
	label = "aux";
	position = (0 100);
	states = ("false" "true");
	subtype = boolean;
}

potential (or_friendsIo1po15I_wclause2Io1I_CC0_CC0_CC0 | or_friendsIo1po14I_wclause2Io1I_CC0_CC0_CC0 friendsIo1po15I )
{
	data = (1.0 0.0
	0.0 1.0
	0.0 1.0
	0.0 1.0 );
}

node friendsIo1po16I
{
	label = "friends(o1,o16)";
	position = (0 100);
	states = ("false" "true");
	subtype = boolean;
}

potential (friendsIo1po16I)
{
	data = (0.5 0.5 );
}

node or_friendsIo1po16I_wclause2Io1I_CC0_CC0_CC0
{
	label = "aux";
	position = (0 100);
	states = ("false" "true");
	subtype = boolean;
}

potential (or_friendsIo1po16I_wclause2Io1I_CC0_CC0_CC0 | or_friendsIo1po15I_wclause2Io1I_CC0_CC0_CC0 friendsIo1po16I )
{
	data = (1.0 0.0
	0.0 1.0
	0.0 1.0
	0.0 1.0 );
}

node smokesIo1I
{
	label = "smokes(o1)";
	position = (0 100);
	states = ("false" "true");
	subtype = boolean;
}

potential (smokesIo1I)
{
	data = (0.5 0.5 );
}

node wclause2Io1I_CC0
{
	label = "aux";
	position = (0 100);
	states = ("false" "true");
	subtype = boolean;
}

potential (wclause2Io1I_CC0 | or_friendsIo1po16I_wclause2Io1I_CC0_CC0_CC0 smokesIo1I )
{
	data = (1.0 0.0
	0.0 1.0
	0.0 1.0
	0.0 1.0 );
}

node wclause2Io1I
{
	label = "wclause2(o1)";
	position = (0 100);
	states = ("false" "true");
	subtype = boolean;
}

potential (wclause2Io1I | wclause2Io1I_CC0 )
{
	data = (0.8998 0.1002
	0.0 1.0 );
}

node wclause4Io1po1I_CC0
{
	label = "aux";
	position = (0 100);
	states = ("false" "true");
	subtype = boolean;
}

potential (wclause4Io1po1I_CC0 | friendsIo1po1I smokesIo1I )
{
	data = (0.0 1.0
	0.0 1.0
	0.0 1.0
	0.0 1.0 );
}

node wclause4Io1po1I
{
	label = "wclause4(o1,o1)";
	position = (0 100);
	states = ("false" "true");
	subtype = boolean;
}

potential (wclause4Io1po1I | wclause4Io1po1I_CC0 )
{
	data = (0.66713 0.33287
	0.0 1.0 );
}

node cancerIo1I
{
	label = "cancer(o1)";
	position = (0 100);
	states = ("false" "true");
	subtype = boolean;
}

potential (cancerIo1I)
{
	data = (0.5 0.5 );
}

node wclause3Io1I_CC0
{
	label = "aux";
	position = (0 100);
	states = ("false" "true");
	subtype = boolean;
}

potential (wclause3Io1I_CC0 | smokesIo1I cancerIo1I )
{
	data = (0.0 1.0
	0.0 1.0
	1.0 0.0
	0.0 1.0 );
}

node wclause3Io1I
{
	label = "wclause3(o1)";
	position = (0 100);
	states = ("false" "true");
	subtype = boolean;
}

potential (wclause3Io1I | wclause3Io1I_CC0 )
{
	data = (0.77687 0.22313
	0.0 1.0 );
}

node smokesIo2I
{
	label = "smokes(o2)";
	position = (0 100);
	states = ("false" "true");
	subtype = boolean;
}

potential (smokesIo2I)
{
	data = (0.5 0.5 );
}

node wclause4Io2po1I_CC0_CC1
{
	label = "aux";
	position = (0 100);
	states = ("false" "true");
	subtype = boolean;
}

potential (wclause4Io2po1I_CC0_CC1 | smokesIo2I smokesIo1I )
{
	data = (0.0 1.0
	1.0 0.0
	1.0 0.0
	0.0 1.0 );
}

node wclause4Io1po2I_CC0
{
	label = "aux";
	position = (0 100);
	states = ("false" "true");
	subtype = boolean;
}

potential (wclause4Io1po2I_CC0 | friendsIo1po2I wclause4Io2po1I_CC0_CC1 )
{
	data = (0.0 1.0
	0.0 1.0
	1.0 0.0
	0.0 1.0 );
}

node wclause4Io1po2I
{
	label = "wclause4(o1,o2)";
	position = (0 100);
	states = ("false" "true");
	subtype = boolean;
}

potential (wclause4Io1po2I | wclause4Io1po2I_CC0 )
{
	data = (0.66713 0.33287
	0.0 1.0 );
}

node friendsIo2po1I
{
	label = "friends(o2,o1)";
	position = (0 100);
	states = ("false" "true");
	subtype = boolean;
}

potential (friendsIo2po1I)
{
	data = (0.5 0.5 );
}

node wclause4Io2po1I_CC0
{
	label = "aux";
	position = (0 100);
	states = ("false" "true");
	subtype = boolean;
}

potential (wclause4Io2po1I_CC0 | friendsIo2po1I wclause4Io2po1I_CC0_CC1 )
{
	data = (0.0 1.0
	0.0 1.0
	1.0 0.0
	0.0 1.0 );
}

node wclause4Io2po1I
{
	label = "wclause4(o2,o1)";
	position = (0 100);
	states = ("false" "true");
	subtype = boolean;
}

potential (wclause4Io2po1I | wclause4Io2po1I_CC0 )
{
	data = (0.66713 0.33287
	0.0 1.0 );
}

node friendsIo2po2I
{
	label = "friends(o2,o2)";
	position = (0 100);
	states = ("false" "true");
	subtype = boolean;
}

potential (friendsIo2po2I)
{
	data = (0.5 0.5 );
}

node wclause1Io2po2po1I_CC0
{
	label = "aux";
	position = (0 100);
	states = ("false" "true");
	subtype = boolean;
}

potential (wclause1Io2po2po1I_CC0 | friendsIo2po2I friendsIo2po1I )
{
	data = (0.0 1.0
	0.0 1.0
	0.0 1.0
	0.0 1.0 );
}

node wclause1Io2po2po1I
{
	label = "wclause1(o2,o2,o1)";
	position = (0 100);
	states = ("false" "true");
	subtype = boolean;
}

potential (wclause1Io2po2po1I | wclause1Io2po2po1I_CC0 )
{
	data = (0.50342 0.49658
	0.0 1.0 );
}

node wclause1Io2po2po2I
{
	label = "wclause1(o2,o2,o2)";
	position = (0 100);
	states = ("false" "true");
	subtype = boolean;
}

potential (wclause1Io2po2po2I | friendsIo2po2I )
{
	data = (0.0 1.0
	0.0 1.0 );
}

node wclause1Io1po2po2I_CC0_CC1
{
	label = "aux";
	position = (0 100);
	states = ("false" "true");
	subtype = boolean;
}

potential (wclause1Io1po2po2I_CC0_CC1 | friendsIo2po2I friendsIo1po2I )
{
	data = (0.0 1.0
	0.0 1.0
	1.0 0.0
	0.0 1.0 );
}

node wclause1Io1po2po2I_CC0
{
	label = "aux";
	position = (0 100);
	states = ("false" "true");
	subtype = boolean;
}

potential (wclause1Io1po2po2I_CC0 | friendsIo1po2I wclause1Io1po2po2I_CC0_CC1 )
{
	data = (0.0 1.0
	0.0 1.0
	1.0 0.0
	0.0 1.0 );
}

node wclause1Io1po2po2I
{
	label = "wclause1(o1,o2,o2)";
	position = (0 100);
	states = ("false" "true");
	subtype = boolean;
}

potential (wclause1Io1po2po2I | wclause1Io1po2po2I_CC0 )
{
	data = (0.50342 0.49658
	0.0 1.0 );
}

node wclause1Io2po1po2I_CC0_CC1
{
	label = "aux";
	position = (0 100);
	states = ("false" "true");
	subtype = boolean;
}

potential (wclause1Io2po1po2I_CC0_CC1 | friendsIo1po2I friendsIo2po2I )
{
	data = (0.0 1.0
	0.0 1.0
	1.0 0.0
	0.0 1.0 );
}

node wclause1Io2po1po2I_CC0
{
	label = "aux";
	position = (0 100);
	states = ("false" "true");
	subtype = boolean;
}

potential (wclause1Io2po1po2I_CC0 | friendsIo2po1I wclause1Io2po1po2I_CC0_CC1 )
{
	data = (0.0 1.0
	0.0 1.0
	1.0 0.0
	0.0 1.0 );
}

node wclause1Io2po1po2I
{
	label = "wclause1(o2,o1,o2)";
	position = (0 100);
	states = ("false" "true");
	subtype = boolean;
}

potential (wclause1Io2po1po2I | wclause1Io2po1po2I_CC0 )
{
	data = (0.50342 0.49658
	0.0 1.0 );
}

node friendsIo2po3I
{
	label = "friends(o2,o3)";
	position = (0 100);
	states = ("false" "true");
	subtype = boolean;
}

potential (friendsIo2po3I)
{
	data = (0.5 0.5 );
}

node wclause1Io2po2po3I_CC0
{
	label = "aux";
	position = (0 100);
	states = ("false" "true");
	subtype = boolean;
}

potential (wclause1Io2po2po3I_CC0 | friendsIo2po2I friendsIo2po3I )
{
	data = (0.0 1.0
	0.0 1.0
	0.0 1.0
	0.0 1.0 );
}

node wclause1Io2po2po3I
{
	label = "wclause1(o2,o2,o3)";
	position = (0 100);
	states = ("false" "true");
	subtype = boolean;
}

potential (wclause1Io2po2po3I | wclause1Io2po2po3I_CC0 )
{
	data = (0.50342 0.49658
	0.0 1.0 );
}

node wclause1Io1po2po3I_CC0_CC1
{
	label = "aux";
	position = (0 100);
	states = ("false" "true");
	subtype = boolean;
}

potential (wclause1Io1po2po3I_CC0_CC1 | friendsIo2po3I friendsIo1po3I )
{
	data = (0.0 1.0
	0.0 1.0
	1.0 0.0
	0.0 1.0 );
}

node wclause1Io1po2po3I_CC0
{
	label = "aux";
	position = (0 100);
	states = ("false" "true");
	subtype = boolean;
}

potential (wclause1Io1po2po3I_CC0 | friendsIo1po2I wclause1Io1po2po3I_CC0_CC1 )
{
	data = (0.0 1.0
	0.0 1.0
	1.0 0.0
	0.0 1.0 );
}

node wclause1Io1po2po3I
{
	label = "wclause1(o1,o2,o3)";
	position = (0 100);
	states = ("false" "true");
	subtype = boolean;
}

potential (wclause1Io1po2po3I | wclause1Io1po2po3I_CC0 )
{
	data = (0.50342 0.49658
	0.0 1.0 );
}

node wclause1Io2po1po3I_CC0_CC1
{
	label = "aux";
	position = (0 100);
	states = ("false" "true");
	subtype = boolean;
}

potential (wclause1Io2po1po3I_CC0_CC1 | friendsIo1po3I friendsIo2po3I )
{
	data = (0.0 1.0
	0.0 1.0
	1.0 0.0
	0.0 1.0 );
}

node wclause1Io2po1po3I_CC0
{
	label = "aux";
	position = (0 100);
	states = ("false" "true");
	subtype = boolean;
}

potential (wclause1Io2po1po3I_CC0 | friendsIo2po1I wclause1Io2po1po3I_CC0_CC1 )
{
	data = (0.0 1.0
	0.0 1.0
	1.0 0.0
	0.0 1.0 );
}

node wclause1Io2po1po3I
{
	label = "wclause1(o2,o1,o3)";
	position = (0 100);
	states = ("false" "true");
	subtype = boolean;
}

potential (wclause1Io2po1po3I | wclause1Io2po1po3I_CC0 )
{
	data = (0.50342 0.49658
	0.0 1.0 );
}

node friendsIo3po1I
{
	label = "friends(o3,o1)";
	position = (0 100);
	states = ("false" "true");
	subtype = boolean;
}

potential (friendsIo3po1I)
{
	data = (0.5 0.5 );
}

node wclause1Io2po3po1I_CC0_CC1
{
	label = "aux";
	position = (0 100);
	states = ("false" "true");
	subtype = boolean;
}

potential (wclause1Io2po3po1I_CC0_CC1 | friendsIo3po1I friendsIo2po1I )
{
	data = (0.0 1.0
	0.0 1.0
	1.0 0.0
	0.0 1.0 );
}

node wclause1Io2po3po1I_CC0
{
	label = "aux";
	position = (0 100);
	states = ("false" "true");
	subtype = boolean;
}

potential (wclause1Io2po3po1I_CC0 | friendsIo2po3I wclause1Io2po3po1I_CC0_CC1 )
{
	data = (0.0 1.0
	0.0 1.0
	1.0 0.0
	0.0 1.0 );
}

node wclause1Io2po3po1I
{
	label = "wclause1(o2,o3,o1)";
	position = (0 100);
	states = ("false" "true");
	subtype = boolean;
}

potential (wclause1Io2po3po1I | wclause1Io2po3po1I_CC0 )
{
	data = (0.50342 0.49658
	0.0 1.0 );
}

node friendsIo3po3I
{
	label = "friends(o3,o3)";
	position = (0 100);
	states = ("false" "true");
	subtype = boolean;
}

potential (friendsIo3po3I)
{
	data = (0.5 0.5 );
}

node wclause1Io3po3po1I_CC0
{
	label = "aux";
	position = (0 100);
	states = ("false" "true");
	subtype = boolean;
}

potential (wclause1Io3po3po1I_CC0 | friendsIo3po3I friendsIo3po1I )
{
	data = (0.0 1.0
	0.0 1.0
	0.0 1.0
	0.0 1.0 );
}

node wclause1Io3po3po1I
{
	label = "wclause1(o3,o3,o1)";
	position = (0 100);
	states = ("false" "true");
	subtype = boolean;
}

potential (wclause1Io3po3po1I | wclause1Io3po3po1I_CC0 )
{
	data = (0.50342 0.49658
	0.0 1.0 );
}

node wclause1Io3po3po3I
{
	label = "wclause1(o3,o3,o3)";
	position = (0 100);
	states = ("false" "true");
	subtype = boolean;
}

potential (wclause1Io3po3po3I | friendsIo3po3I )
{
	data = (0.0 1.0
	0.0 1.0 );
}

node wclause1Io1po3po3I_CC0_CC1
{
	label = "aux";
	position = (0 100);
	states = ("false" "true");
	subtype = boolean;
}

potential (wclause1Io1po3po3I_CC0_CC1 | friendsIo3po3I friendsIo1po3I )
{
	data = (0.0 1.0
	0.0 1.0
	1.0 0.0
	0.0 1.0 );
}

node wclause1Io1po3po3I_CC0
{
	label = "aux";
	position = (0 100);
	states = ("false" "true");
	subtype = boolean;
}

potential (wclause1Io1po3po3I_CC0 | friendsIo1po3I wclause1Io1po3po3I_CC0_CC1 )
{
	data = (0.0 1.0
	0.0 1.0
	1.0 0.0
	0.0 1.0 );
}

node wclause1Io1po3po3I
{
	label = "wclause1(o1,o3,o3)";
	position = (0 100);
	states = ("false" "true");
	subtype = boolean;
}

potential (wclause1Io1po3po3I | wclause1Io1po3po3I_CC0 )
{
	data = (0.50342 0.49658
	0.0 1.0 );
}

node wclause1Io2po3po3I_CC0_CC1
{
	label = "aux";
	position = (0 100);
	states = ("false" "true");
	subtype = boolean;
}

potential (wclause1Io2po3po3I_CC0_CC1 | friendsIo3po3I friendsIo2po3I )
{
	data = (0.0 1.0
	0.0 1.0
	1.0 0.0
	0.0 1.0 );
}

node wclause1Io2po3po3I_CC0
{
	label = "aux";
	position = (0 100);
	states = ("false" "true");
	subtype = boolean;
}

potential (wclause1Io2po3po3I_CC0 | friendsIo2po3I wclause1Io2po3po3I_CC0_CC1 )
{
	data = (0.0 1.0
	0.0 1.0
	1.0 0.0
	0.0 1.0 );
}

node wclause1Io2po3po3I
{
	label = "wclause1(o2,o3,o3)";
	position = (0 100);
	states = ("false" "true");
	subtype = boolean;
}

potential (wclause1Io2po3po3I | wclause1Io2po3po3I_CC0 )
{
	data = (0.50342 0.49658
	0.0 1.0 );
}

node wclause1Io3po1po3I_CC0_CC1
{
	label = "aux";
	position = (0 100);
	states = ("false" "true");
	subtype = boolean;
}

potential (wclause1Io3po1po3I_CC0_CC1 | friendsIo1po3I friendsIo3po3I )
{
	data = (0.0 1.0
	0.0 1.0
	1.0 0.0
	0.0 1.0 );
}

node wclause1Io3po1po3I_CC0
{
	label = "aux";
	position = (0 100);
	states = ("false" "true");
	subtype = boolean;
}

potential (wclause1Io3po1po3I_CC0 | friendsIo3po1I wclause1Io3po1po3I_CC0_CC1 )
{
	data = (0.0 1.0
	0.0 1.0
	1.0 0.0
	0.0 1.0 );
}

node wclause1Io3po1po3I
{
	label = "wclause1(o3,o1,o3)";
	position = (0 100);
	states = ("false" "true");
	subtype = boolean;
}

potential (wclause1Io3po1po3I | wclause1Io3po1po3I_CC0 )
{
	data = (0.50342 0.49658
	0.0 1.0 );
}

node wclause1Io3po2po3I_CC0_CC1
{
	label = "aux";
	position = (0 100);
	states = ("false" "true");
	subtype = boolean;
}

potential (wclause1Io3po2po3I_CC0_CC1 | friendsIo2po3I friendsIo3po3I )
{
	data = (0.0 1.0
	0.0 1.0
	1.0 0.0
	0.0 1.0 );
}

node friendsIo3po2I
{
	label = "friends(o3,o2)";
	position = (0 100);
	states = ("false" "true");
	subtype = boolean;
}

potential (friendsIo3po2I)
{
	data = (0.5 0.5 );
}

node wclause1Io3po2po3I_CC0
{
	label = "aux";
	position = (0 100);
	states = ("false" "true");
	subtype = boolean;
}

potential (wclause1Io3po2po3I_CC0 | friendsIo3po2I wclause1Io3po2po3I_CC0_CC1 )
{
	data = (0.0 1.0
	0.0 1.0
	1.0 0.0
	0.0 1.0 );
}

node wclause1Io3po2po3I
{
	label = "wclause1(o3,o2,o3)";
	position = (0 100);
	states = ("false" "true");
	subtype = boolean;
}

potential (wclause1Io3po2po3I | wclause1Io3po2po3I_CC0 )
{
	data = (0.50342 0.49658
	0.0 1.0 );
}

node wclause1Io3po3po2I_CC0
{
	label = "aux";
	position = (0 100);
	states = ("false" "true");
	subtype = boolean;
}

potential (wclause1Io3po3po2I_CC0 | friendsIo3po3I friendsIo3po2I )
{
	data = (0.0 1.0
	0.0 1.0
	0.0 1.0
	0.0 1.0 );
}

node wclause1Io3po3po2I
{
	label = "wclause1(o3,o3,o2)";
	position = (0 100);
	states = ("false" "true");
	subtype = boolean;
}

potential (wclause1Io3po3po2I | wclause1Io3po3po2I_CC0 )
{
	data = (0.50342 0.49658
	0.0 1.0 );
}

node wclause1Io1po3po2I_CC0_CC1
{
	label = "aux";
	position = (0 100);
	states = ("false" "true");
	subtype = boolean;
}

potential (wclause1Io1po3po2I_CC0_CC1 | friendsIo3po2I friendsIo1po2I )
{
	data = (0.0 1.0
	0.0 1.0
	1.0 0.0
	0.0 1.0 );
}

node wclause1Io1po3po2I_CC0
{
	label = "aux";
	position = (0 100);
	states = ("false" "true");
	subtype = boolean;
}

potential (wclause1Io1po3po2I_CC0 | friendsIo1po3I wclause1Io1po3po2I_CC0_CC1 )
{
	data = (0.0 1.0
	0.0 1.0
	1.0 0.0
	0.0 1.0 );
}

node wclause1Io1po3po2I
{
	label = "wclause1(o1,o3,o2)";
	position = (0 100);
	states = ("false" "true");
	subtype = boolean;
}

potential (wclause1Io1po3po2I | wclause1Io1po3po2I_CC0 )
{
	data = (0.50342 0.49658
	0.0 1.0 );
}

node wclause1Io2po3po2I_CC0_CC1
{
	label = "aux";
	position = (0 100);
	states = ("false" "true");
	subtype = boolean;
}

potential (wclause1Io2po3po2I_CC0_CC1 | friendsIo3po2I friendsIo2po2I )
{
	data = (0.0 1.0
	0.0 1.0
	1.0 0.0
	0.0 1.0 );
}

node wclause1Io2po3po2I_CC0
{
	label = "aux";
	position = (0 100);
	states = ("false" "true");
	subtype = boolean;
}

potential (wclause1Io2po3po2I_CC0 | friendsIo2po3I wclause1Io2po3po2I_CC0_CC1 )
{
	data = (0.0 1.0
	0.0 1.0
	1.0 0.0
	0.0 1.0 );
}

node wclause1Io2po3po2I
{
	label = "wclause1(o2,o3,o2)";
	position = (0 100);
	states = ("false" "true");
	subtype = boolean;
}

potential (wclause1Io2po3po2I | wclause1Io2po3po2I_CC0 )
{
	data = (0.50342 0.49658
	0.0 1.0 );
}

node wclause1Io3po1po2I_CC0_CC1
{
	label = "aux";
	position = (0 100);
	states = ("false" "true");
	subtype = boolean;
}

potential (wclause1Io3po1po2I_CC0_CC1 | friendsIo1po2I friendsIo3po2I )
{
	data = (0.0 1.0
	0.0 1.0
	1.0 0.0
	0.0 1.0 );
}

node wclause1Io3po1po2I_CC0
{
	label = "aux";
	position = (0 100);
	states = ("false" "true");
	subtype = boolean;
}

potential (wclause1Io3po1po2I_CC0 | friendsIo3po1I wclause1Io3po1po2I_CC0_CC1 )
{
	data = (0.0 1.0
	0.0 1.0
	1.0 0.0
	0.0 1.0 );
}

node wclause1Io3po1po2I
{
	label = "wclause1(o3,o1,o2)";
	position = (0 100);
	states = ("false" "true");
	subtype = boolean;
}

potential (wclause1Io3po1po2I | wclause1Io3po1po2I_CC0 )
{
	data = (0.50342 0.49658
	0.0 1.0 );
}

node wclause1Io3po2po1I_CC0_CC1
{
	label = "aux";
	position = (0 100);
	states = ("false" "true");
	subtype = boolean;
}

potential (wclause1Io3po2po1I_CC0_CC1 | friendsIo2po1I friendsIo3po1I )
{
	data = (0.0 1.0
	0.0 1.0
	1.0 0.0
	0.0 1.0 );
}

node wclause1Io3po2po1I_CC0
{
	label = "aux";
	position = (0 100);
	states = ("false" "true");
	subtype = boolean;
}

potential (wclause1Io3po2po1I_CC0 | friendsIo3po2I wclause1Io3po2po1I_CC0_CC1 )
{
	data = (0.0 1.0
	0.0 1.0
	1.0 0.0
	0.0 1.0 );
}

node wclause1Io3po2po1I
{
	label = "wclause1(o3,o2,o1)";
	position = (0 100);
	states = ("false" "true");
	subtype = boolean;
}

potential (wclause1Io3po2po1I | wclause1Io3po2po1I_CC0 )
{
	data = (0.50342 0.49658
	0.0 1.0 );
}

node wclause1Io3po2po2I_CC0_CC1
{
	label = "aux";
	position = (0 100);
	states = ("false" "true");
	subtype = boolean;
}

potential (wclause1Io3po2po2I_CC0_CC1 | friendsIo2po2I friendsIo3po2I )
{
	data = (0.0 1.0
	0.0 1.0
	1.0 0.0
	0.0 1.0 );
}

node wclause1Io3po2po2I_CC0
{
	label = "aux";
	position = (0 100);
	states = ("false" "true");
	subtype = boolean;
}

potential (wclause1Io3po2po2I_CC0 | friendsIo3po2I wclause1Io3po2po2I_CC0_CC1 )
{
	data = (0.0 1.0
	0.0 1.0
	1.0 0.0
	0.0 1.0 );
}

node wclause1Io3po2po2I
{
	label = "wclause1(o3,o2,o2)";
	position = (0 100);
	states = ("false" "true");
	subtype = boolean;
}

potential (wclause1Io3po2po2I | wclause1Io3po2po2I_CC0 )
{
	data = (0.50342 0.49658
	0.0 1.0 );
}

node friendsIo2po4I
{
	label = "friends(o2,o4)";
	position = (0 100);
	states = ("false" "true");
	subtype = boolean;
}

potential (friendsIo2po4I)
{
	data = (0.5 0.5 );
}

node friendsIo3po4I
{
	label = "friends(o3,o4)";
	position = (0 100);
	states = ("false" "true");
	subtype = boolean;
}

potential (friendsIo3po4I)
{
	data = (0.5 0.5 );
}

node wclause1Io3po2po4I_CC0_CC1
{
	label = "aux";
	position = (0 100);
	states = ("false" "true");
	subtype = boolean;
}

potential (wclause1Io3po2po4I_CC0_CC1 | friendsIo2po4I friendsIo3po4I )
{
	data = (0.0 1.0
	0.0 1.0
	1.0 0.0
	0.0 1.0 );
}

node wclause1Io3po2po4I_CC0
{
	label = "aux";
	position = (0 100);
	states = ("false" "true");
	subtype = boolean;
}

potential (wclause1Io3po2po4I_CC0 | friendsIo3po2I wclause1Io3po2po4I_CC0_CC1 )
{
	data = (0.0 1.0
	0.0 1.0
	1.0 0.0
	0.0 1.0 );
}

node wclause1Io3po2po4I
{
	label = "wclause1(o3,o2,o4)";
	position = (0 100);
	states = ("false" "true");
	subtype = boolean;
}

potential (wclause1Io3po2po4I | wclause1Io3po2po4I_CC0 )
{
	data = (0.50342 0.49658
	0.0 1.0 );
}

node wclause1Io3po3po4I_CC0
{
	label = "aux";
	position = (0 100);
	states = ("false" "true");
	subtype = boolean;
}

potential (wclause1Io3po3po4I_CC0 | friendsIo3po3I friendsIo3po4I )
{
	data = (0.0 1.0
	0.0 1.0
	0.0 1.0
	0.0 1.0 );
}

node wclause1Io3po3po4I
{
	label = "wclause1(o3,o3,o4)";
	position = (0 100);
	states = ("false" "true");
	subtype = boolean;
}

potential (wclause1Io3po3po4I | wclause1Io3po3po4I_CC0 )
{
	data = (0.50342 0.49658
	0.0 1.0 );
}

node wclause1Io1po3po4I_CC0_CC1
{
	label = "aux";
	position = (0 100);
	states = ("false" "true");
	subtype = boolean;
}

potential (wclause1Io1po3po4I_CC0_CC1 | friendsIo3po4I friendsIo1po4I )
{
	data = (0.0 1.0
	0.0 1.0
	1.0 0.0
	0.0 1.0 );
}

node wclause1Io1po3po4I_CC0
{
	label = "aux";
	position = (0 100);
	states = ("false" "true");
	subtype = boolean;
}

potential (wclause1Io1po3po4I_CC0 | friendsIo1po3I wclause1Io1po3po4I_CC0_CC1 )
{
	data = (0.0 1.0
	0.0 1.0
	1.0 0.0
	0.0 1.0 );
}

node wclause1Io1po3po4I
{
	label = "wclause1(o1,o3,o4)";
	position = (0 100);
	states = ("false" "true");
	subtype = boolean;
}

potential (wclause1Io1po3po4I | wclause1Io1po3po4I_CC0 )
{
	data = (0.50342 0.49658
	0.0 1.0 );
}

node wclause1Io2po3po4I_CC0_CC1
{
	label = "aux";
	position = (0 100);
	states = ("false" "true");
	subtype = boolean;
}

potential (wclause1Io2po3po4I_CC0_CC1 | friendsIo3po4I friendsIo2po4I )
{
	data = (0.0 1.0
	0.0 1.0
	1.0 0.0
	0.0 1.0 );
}

node wclause1Io2po3po4I_CC0
{
	label = "aux";
	position = (0 100);
	states = ("false" "true");
	subtype = boolean;
}

potential (wclause1Io2po3po4I_CC0 | friendsIo2po3I wclause1Io2po3po4I_CC0_CC1 )
{
	data = (0.0 1.0
	0.0 1.0
	1.0 0.0
	0.0 1.0 );
}

node wclause1Io2po3po4I
{
	label = "wclause1(o2,o3,o4)";
	position = (0 100);
	states = ("false" "true");
	subtype = boolean;
}

potential (wclause1Io2po3po4I | wclause1Io2po3po4I_CC0 )
{
	data = (0.50342 0.49658
	0.0 1.0 );
}

node wclause1Io3po1po4I_CC0_CC1
{
	label = "aux";
	position = (0 100);
	states = ("false" "true");
	subtype = boolean;
}

potential (wclause1Io3po1po4I_CC0_CC1 | friendsIo1po4I friendsIo3po4I )
{
	data = (0.0 1.0
	0.0 1.0
	1.0 0.0
	0.0 1.0 );
}

node wclause1Io3po1po4I_CC0
{
	label = "aux";
	position = (0 100);
	states = ("false" "true");
	subtype = boolean;
}

potential (wclause1Io3po1po4I_CC0 | friendsIo3po1I wclause1Io3po1po4I_CC0_CC1 )
{
	data = (0.0 1.0
	0.0 1.0
	1.0 0.0
	0.0 1.0 );
}

node wclause1Io3po1po4I
{
	label = "wclause1(o3,o1,o4)";
	position = (0 100);
	states = ("false" "true");
	subtype = boolean;
}

potential (wclause1Io3po1po4I | wclause1Io3po1po4I_CC0 )
{
	data = (0.50342 0.49658
	0.0 1.0 );
}

node friendsIo4po1I
{
	label = "friends(o4,o1)";
	position = (0 100);
	states = ("false" "true");
	subtype = boolean;
}

potential (friendsIo4po1I)
{
	data = (0.5 0.5 );
}

node wclause1Io3po4po1I_CC0_CC1
{
	label = "aux";
	position = (0 100);
	states = ("false" "true");
	subtype = boolean;
}

potential (wclause1Io3po4po1I_CC0_CC1 | friendsIo4po1I friendsIo3po1I )
{
	data = (0.0 1.0
	0.0 1.0
	1.0 0.0
	0.0 1.0 );
}

node wclause1Io3po4po1I_CC0
{
	label = "aux";
	position = (0 100);
	states = ("false" "true");
	subtype = boolean;
}

potential (wclause1Io3po4po1I_CC0 | friendsIo3po4I wclause1Io3po4po1I_CC0_CC1 )
{
	data = (0.0 1.0
	0.0 1.0
	1.0 0.0
	0.0 1.0 );
}

node wclause1Io3po4po1I
{
	label = "wclause1(o3,o4,o1)";
	position = (0 100);
	states = ("false" "true");
	subtype = boolean;
}

potential (wclause1Io3po4po1I | wclause1Io3po4po1I_CC0 )
{
	data = (0.50342 0.49658
	0.0 1.0 );
}

node friendsIo4po4I
{
	label = "friends(o4,o4)";
	position = (0 100);
	states = ("false" "true");
	subtype = boolean;
}

potential (friendsIo4po4I)
{
	data = (0.5 0.5 );
}

node wclause1Io4po4po1I_CC0
{
	label = "aux";
	position = (0 100);
	states = ("false" "true");
	subtype = boolean;
}

potential (wclause1Io4po4po1I_CC0 | friendsIo4po4I friendsIo4po1I )
{
	data = (0.0 1.0
	0.0 1.0
	0.0 1.0
	0.0 1.0 );
}

node wclause1Io4po4po1I
{
	label = "wclause1(o4,o4,o1)";
	position = (0 100);
	states = ("false" "true");
	subtype = boolean;
}

potential (wclause1Io4po4po1I | wclause1Io4po4po1I_CC0 )
{
	data = (0.50342 0.49658
	0.0 1.0 );
}

node wclause1Io4po4po4I
{
	label = "wclause1(o4,o4,o4)";
	position = (0 100);
	states = ("false" "true");
	subtype = boolean;
}

potential (wclause1Io4po4po4I | friendsIo4po4I )
{
	data = (0.0 1.0
	0.0 1.0 );
}

node wclause1Io1po4po4I_CC0_CC1
{
	label = "aux";
	position = (0 100);
	states = ("false" "true");
	subtype = boolean;
}

potential (wclause1Io1po4po4I_CC0_CC1 | friendsIo4po4I friendsIo1po4I )
{
	data = (0.0 1.0
	0.0 1.0
	1.0 0.0
	0.0 1.0 );
}

node wclause1Io1po4po4I_CC0
{
	label = "aux";
	position = (0 100);
	states = ("false" "true");
	subtype = boolean;
}

potential (wclause1Io1po4po4I_CC0 | friendsIo1po4I wclause1Io1po4po4I_CC0_CC1 )
{
	data = (0.0 1.0
	0.0 1.0
	1.0 0.0
	0.0 1.0 );
}

node wclause1Io1po4po4I
{
	label = "wclause1(o1,o4,o4)";
	position = (0 100);
	states = ("false" "true");
	subtype = boolean;
}

potential (wclause1Io1po4po4I | wclause1Io1po4po4I_CC0 )
{
	data = (0.50342 0.49658
	0.0 1.0 );
}

node wclause1Io2po4po4I_CC0_CC1
{
	label = "aux";
	position = (0 100);
	states = ("false" "true");
	subtype = boolean;
}

potential (wclause1Io2po4po4I_CC0_CC1 | friendsIo4po4I friendsIo2po4I )
{
	data = (0.0 1.0
	0.0 1.0
	1.0 0.0
	0.0 1.0 );
}

node wclause1Io2po4po4I_CC0
{
	label = "aux";
	position = (0 100);
	states = ("false" "true");
	subtype = boolean;
}

potential (wclause1Io2po4po4I_CC0 | friendsIo2po4I wclause1Io2po4po4I_CC0_CC1 )
{
	data = (0.0 1.0
	0.0 1.0
	1.0 0.0
	0.0 1.0 );
}

node wclause1Io2po4po4I
{
	label = "wclause1(o2,o4,o4)";
	position = (0 100);
	states = ("false" "true");
	subtype = boolean;
}

potential (wclause1Io2po4po4I | wclause1Io2po4po4I_CC0 )
{
	data = (0.50342 0.49658
	0.0 1.0 );
}

node wclause1Io3po4po4I_CC0_CC1
{
	label = "aux";
	position = (0 100);
	states = ("false" "true");
	subtype = boolean;
}

potential (wclause1Io3po4po4I_CC0_CC1 | friendsIo4po4I friendsIo3po4I )
{
	data = (0.0 1.0
	0.0 1.0
	1.0 0.0
	0.0 1.0 );
}

node wclause1Io3po4po4I_CC0
{
	label = "aux";
	position = (0 100);
	states = ("false" "true");
	subtype = boolean;
}

potential (wclause1Io3po4po4I_CC0 | friendsIo3po4I wclause1Io3po4po4I_CC0_CC1 )
{
	data = (0.0 1.0
	0.0 1.0
	1.0 0.0
	0.0 1.0 );
}

node wclause1Io3po4po4I
{
	label = "wclause1(o3,o4,o4)";
	position = (0 100);
	states = ("false" "true");
	subtype = boolean;
}

potential (wclause1Io3po4po4I | wclause1Io3po4po4I_CC0 )
{
	data = (0.50342 0.49658
	0.0 1.0 );
}

node wclause1Io4po1po4I_CC0_CC1
{
	label = "aux";
	position = (0 100);
	states = ("false" "true");
	subtype = boolean;
}

potential (wclause1Io4po1po4I_CC0_CC1 | friendsIo1po4I friendsIo4po4I )
{
	data = (0.0 1.0
	0.0 1.0
	1.0 0.0
	0.0 1.0 );
}

node wclause1Io4po1po4I_CC0
{
	label = "aux";
	position = (0 100);
	states = ("false" "true");
	subtype = boolean;
}

potential (wclause1Io4po1po4I_CC0 | friendsIo4po1I wclause1Io4po1po4I_CC0_CC1 )
{
	data = (0.0 1.0
	0.0 1.0
	1.0 0.0
	0.0 1.0 );
}

node wclause1Io4po1po4I
{
	label = "wclause1(o4,o1,o4)";
	position = (0 100);
	states = ("false" "true");
	subtype = boolean;
}

potential (wclause1Io4po1po4I | wclause1Io4po1po4I_CC0 )
{
	data = (0.50342 0.49658
	0.0 1.0 );
}

node wclause1Io4po2po4I_CC0_CC1
{
	label = "aux";
	position = (0 100);
	states = ("false" "true");
	subtype = boolean;
}

potential (wclause1Io4po2po4I_CC0_CC1 | friendsIo2po4I friendsIo4po4I )
{
	data = (0.0 1.0
	0.0 1.0
	1.0 0.0
	0.0 1.0 );
}

node friendsIo4po2I
{
	label = "friends(o4,o2)";
	position = (0 100);
	states = ("false" "true");
	subtype = boolean;
}

potential (friendsIo4po2I)
{
	data = (0.5 0.5 );
}

node wclause1Io4po2po4I_CC0
{
	label = "aux";
	position = (0 100);
	states = ("false" "true");
	subtype = boolean;
}

potential (wclause1Io4po2po4I_CC0 | friendsIo4po2I wclause1Io4po2po4I_CC0_CC1 )
{
	data = (0.0 1.0
	0.0 1.0
	1.0 0.0
	0.0 1.0 );
}

node wclause1Io4po2po4I
{
	label = "wclause1(o4,o2,o4)";
	position = (0 100);
	states = ("false" "true");
	subtype = boolean;
}

potential (wclause1Io4po2po4I | wclause1Io4po2po4I_CC0 )
{
	data = (0.50342 0.49658
	0.0 1.0 );
}

node wclause1Io4po4po2I_CC0
{
	label = "aux";
	position = (0 100);
	states = ("false" "true");
	subtype = boolean;
}

potential (wclause1Io4po4po2I_CC0 | friendsIo4po4I friendsIo4po2I )
{
	data = (0.0 1.0
	0.0 1.0
	0.0 1.0
	0.0 1.0 );
}

node wclause1Io4po4po2I
{
	label = "wclause1(o4,o4,o2)";
	position = (0 100);
	states = ("false" "true");
	subtype = boolean;
}

potential (wclause1Io4po4po2I | wclause1Io4po4po2I_CC0 )
{
	data = (0.50342 0.49658
	0.0 1.0 );
}

node wclause1Io1po4po2I_CC0_CC1
{
	label = "aux";
	position = (0 100);
	states = ("false" "true");
	subtype = boolean;
}

potential (wclause1Io1po4po2I_CC0_CC1 | friendsIo4po2I friendsIo1po2I )
{
	data = (0.0 1.0
	0.0 1.0
	1.0 0.0
	0.0 1.0 );
}

node wclause1Io1po4po2I_CC0
{
	label = "aux";
	position = (0 100);
	states = ("false" "true");
	subtype = boolean;
}

potential (wclause1Io1po4po2I_CC0 | friendsIo1po4I wclause1Io1po4po2I_CC0_CC1 )
{
	data = (0.0 1.0
	0.0 1.0
	1.0 0.0
	0.0 1.0 );
}

node wclause1Io1po4po2I
{
	label = "wclause1(o1,o4,o2)";
	position = (0 100);
	states = ("false" "true");
	subtype = boolean;
}

potential (wclause1Io1po4po2I | wclause1Io1po4po2I_CC0 )
{
	data = (0.50342 0.49658
	0.0 1.0 );
}

node wclause1Io2po4po2I_CC0_CC1
{
	label = "aux";
	position = (0 100);
	states = ("false" "true");
	subtype = boolean;
}

potential (wclause1Io2po4po2I_CC0_CC1 | friendsIo4po2I friendsIo2po2I )
{
	data = (0.0 1.0
	0.0 1.0
	1.0 0.0
	0.0 1.0 );
}

node wclause1Io2po4po2I_CC0
{
	label = "aux";
	position = (0 100);
	states = ("false" "true");
	subtype = boolean;
}

potential (wclause1Io2po4po2I_CC0 | friendsIo2po4I wclause1Io2po4po2I_CC0_CC1 )
{
	data = (0.0 1.0
	0.0 1.0
	1.0 0.0
	0.0 1.0 );
}

node wclause1Io2po4po2I
{
	label = "wclause1(o2,o4,o2)";
	position = (0 100);
	states = ("false" "true");
	subtype = boolean;
}

potential (wclause1Io2po4po2I | wclause1Io2po4po2I_CC0 )
{
	data = (0.50342 0.49658
	0.0 1.0 );
}

node wclause1Io3po4po2I_CC0_CC1
{
	label = "aux";
	position = (0 100);
	states = ("false" "true");
	subtype = boolean;
}

potential (wclause1Io3po4po2I_CC0_CC1 | friendsIo4po2I friendsIo3po2I )
{
	data = (0.0 1.0
	0.0 1.0
	1.0 0.0
	0.0 1.0 );
}

node wclause1Io3po4po2I_CC0
{
	label = "aux";
	position = (0 100);
	states = ("false" "true");
	subtype = boolean;
}

potential (wclause1Io3po4po2I_CC0 | friendsIo3po4I wclause1Io3po4po2I_CC0_CC1 )
{
	data = (0.0 1.0
	0.0 1.0
	1.0 0.0
	0.0 1.0 );
}

node wclause1Io3po4po2I
{
	label = "wclause1(o3,o4,o2)";
	position = (0 100);
	states = ("false" "true");
	subtype = boolean;
}

potential (wclause1Io3po4po2I | wclause1Io3po4po2I_CC0 )
{
	data = (0.50342 0.49658
	0.0 1.0 );
}

node wclause1Io4po1po2I_CC0_CC1
{
	label = "aux";
	position = (0 100);
	states = ("false" "true");
	subtype = boolean;
}

potential (wclause1Io4po1po2I_CC0_CC1 | friendsIo1po2I friendsIo4po2I )
{
	data = (0.0 1.0
	0.0 1.0
	1.0 0.0
	0.0 1.0 );
}

node wclause1Io4po1po2I_CC0
{
	label = "aux";
	position = (0 100);
	states = ("false" "true");
	subtype = boolean;
}

potential (wclause1Io4po1po2I_CC0 | friendsIo4po1I wclause1Io4po1po2I_CC0_CC1 )
{
	data = (0.0 1.0
	0.0 1.0
	1.0 0.0
	0.0 1.0 );
}

node wclause1Io4po1po2I
{
	label = "wclause1(o4,o1,o2)";
	position = (0 100);
	states = ("false" "true");
	subtype = boolean;
}

potential (wclause1Io4po1po2I | wclause1Io4po1po2I_CC0 )
{
	data = (0.50342 0.49658
	0.0 1.0 );
}

node wclause1Io4po2po1I_CC0_CC1
{
	label = "aux";
	position = (0 100);
	states = ("false" "true");
	subtype = boolean;
}

potential (wclause1Io4po2po1I_CC0_CC1 | friendsIo2po1I friendsIo4po1I )
{
	data = (0.0 1.0
	0.0 1.0
	1.0 0.0
	0.0 1.0 );
}

node wclause1Io4po2po1I_CC0
{
	label = "aux";
	position = (0 100);
	states = ("false" "true");
	subtype = boolean;
}

potential (wclause1Io4po2po1I_CC0 | friendsIo4po2I wclause1Io4po2po1I_CC0_CC1 )
{
	data = (0.0 1.0
	0.0 1.0
	1.0 0.0
	0.0 1.0 );
}

node wclause1Io4po2po1I
{
	label = "wclause1(o4,o2,o1)";
	position = (0 100);
	states = ("false" "true");
	subtype = boolean;
}

potential (wclause1Io4po2po1I | wclause1Io4po2po1I_CC0 )
{
	data = (0.50342 0.49658
	0.0 1.0 );
}

node wclause1Io4po2po2I_CC0_CC1
{
	label = "aux";
	position = (0 100);
	states = ("false" "true");
	subtype = boolean;
}

potential (wclause1Io4po2po2I_CC0_CC1 | friendsIo2po2I friendsIo4po2I )
{
	data = (0.0 1.0
	0.0 1.0
	1.0 0.0
	0.0 1.0 );
}

node wclause1Io4po2po2I_CC0
{
	label = "aux";
	position = (0 100);
	states = ("false" "true");
	subtype = boolean;
}

potential (wclause1Io4po2po2I_CC0 | friendsIo4po2I wclause1Io4po2po2I_CC0_CC1 )
{
	data = (0.0 1.0
	0.0 1.0
	1.0 0.0
	0.0 1.0 );
}

node wclause1Io4po2po2I
{
	label = "wclause1(o4,o2,o2)";
	position = (0 100);
	states = ("false" "true");
	subtype = boolean;
}

potential (wclause1Io4po2po2I | wclause1Io4po2po2I_CC0 )
{
	data = (0.50342 0.49658
	0.0 1.0 );
}

node friendsIo4po3I
{
	label = "friends(o4,o3)";
	position = (0 100);
	states = ("false" "true");
	subtype = boolean;
}

potential (friendsIo4po3I)
{
	data = (0.5 0.5 );
}

node wclause1Io4po2po3I_CC0_CC1
{
	label = "aux";
	position = (0 100);
	states = ("false" "true");
	subtype = boolean;
}

potential (wclause1Io4po2po3I_CC0_CC1 | friendsIo2po3I friendsIo4po3I )
{
	data = (0.0 1.0
	0.0 1.0
	1.0 0.0
	0.0 1.0 );
}

node wclause1Io4po2po3I_CC0
{
	label = "aux";
	position = (0 100);
	states = ("false" "true");
	subtype = boolean;
}

potential (wclause1Io4po2po3I_CC0 | friendsIo4po2I wclause1Io4po2po3I_CC0_CC1 )
{
	data = (0.0 1.0
	0.0 1.0
	1.0 0.0
	0.0 1.0 );
}

node wclause1Io4po2po3I
{
	label = "wclause1(o4,o2,o3)";
	position = (0 100);
	states = ("false" "true");
	subtype = boolean;
}

potential (wclause1Io4po2po3I | wclause1Io4po2po3I_CC0 )
{
	data = (0.50342 0.49658
	0.0 1.0 );
}

node wclause1Io4po4po3I_CC0
{
	label = "aux";
	position = (0 100);
	states = ("false" "true");
	subtype = boolean;
}

potential (wclause1Io4po4po3I_CC0 | friendsIo4po4I friendsIo4po3I )
{
	data = (0.0 1.0
	0.0 1.0
	0.0 1.0
	0.0 1.0 );
}

node wclause1Io4po4po3I
{
	label = "wclause1(o4,o4,o3)";
	position = (0 100);
	states = ("false" "true");
	subtype = boolean;
}

potential (wclause1Io4po4po3I | wclause1Io4po4po3I_CC0 )
{
	data = (0.50342 0.49658
	0.0 1.0 );
}

node wclause1Io1po4po3I_CC0_CC1
{
	label = "aux";
	position = (0 100);
	states = ("false" "true");
	subtype = boolean;
}

potential (wclause1Io1po4po3I_CC0_CC1 | friendsIo4po3I friendsIo1po3I )
{
	data = (0.0 1.0
	0.0 1.0
	1.0 0.0
	0.0 1.0 );
}

node wclause1Io1po4po3I_CC0
{
	label = "aux";
	position = (0 100);
	states = ("false" "true");
	subtype = boolean;
}

potential (wclause1Io1po4po3I_CC0 | friendsIo1po4I wclause1Io1po4po3I_CC0_CC1 )
{
	data = (0.0 1.0
	0.0 1.0
	1.0 0.0
	0.0 1.0 );
}

node wclause1Io1po4po3I
{
	label = "wclause1(o1,o4,o3)";
	position = (0 100);
	states = ("false" "true");
	subtype = boolean;
}

potential (wclause1Io1po4po3I | wclause1Io1po4po3I_CC0 )
{
	data = (0.50342 0.49658
	0.0 1.0 );
}

node wclause1Io2po4po3I_CC0_CC1
{
	label = "aux";
	position = (0 100);
	states = ("false" "true");
	subtype = boolean;
}

potential (wclause1Io2po4po3I_CC0_CC1 | friendsIo4po3I friendsIo2po3I )
{
	data = (0.0 1.0
	0.0 1.0
	1.0 0.0
	0.0 1.0 );
}

node wclause1Io2po4po3I_CC0
{
	label = "aux";
	position = (0 100);
	states = ("false" "true");
	subtype = boolean;
}

potential (wclause1Io2po4po3I_CC0 | friendsIo2po4I wclause1Io2po4po3I_CC0_CC1 )
{
	data = (0.0 1.0
	0.0 1.0
	1.0 0.0
	0.0 1.0 );
}

node wclause1Io2po4po3I
{
	label = "wclause1(o2,o4,o3)";
	position = (0 100);
	states = ("false" "true");
	subtype = boolean;
}

potential (wclause1Io2po4po3I | wclause1Io2po4po3I_CC0 )
{
	data = (0.50342 0.49658
	0.0 1.0 );
}

node wclause1Io3po4po3I_CC0_CC1
{
	label = "aux";
	position = (0 100);
	states = ("false" "true");
	subtype = boolean;
}

potential (wclause1Io3po4po3I_CC0_CC1 | friendsIo4po3I friendsIo3po3I )
{
	data = (0.0 1.0
	0.0 1.0
	1.0 0.0
	0.0 1.0 );
}

node wclause1Io3po4po3I_CC0
{
	label = "aux";
	position = (0 100);
	states = ("false" "true");
	subtype = boolean;
}

potential (wclause1Io3po4po3I_CC0 | friendsIo3po4I wclause1Io3po4po3I_CC0_CC1 )
{
	data = (0.0 1.0
	0.0 1.0
	1.0 0.0
	0.0 1.0 );
}

node wclause1Io3po4po3I
{
	label = "wclause1(o3,o4,o3)";
	position = (0 100);
	states = ("false" "true");
	subtype = boolean;
}

potential (wclause1Io3po4po3I | wclause1Io3po4po3I_CC0 )
{
	data = (0.50342 0.49658
	0.0 1.0 );
}

node wclause1Io4po1po3I_CC0_CC1
{
	label = "aux";
	position = (0 100);
	states = ("false" "true");
	subtype = boolean;
}

potential (wclause1Io4po1po3I_CC0_CC1 | friendsIo1po3I friendsIo4po3I )
{
	data = (0.0 1.0
	0.0 1.0
	1.0 0.0
	0.0 1.0 );
}

node wclause1Io4po1po3I_CC0
{
	label = "aux";
	position = (0 100);
	states = ("false" "true");
	subtype = boolean;
}

potential (wclause1Io4po1po3I_CC0 | friendsIo4po1I wclause1Io4po1po3I_CC0_CC1 )
{
	data = (0.0 1.0
	0.0 1.0
	1.0 0.0
	0.0 1.0 );
}

node wclause1Io4po1po3I
{
	label = "wclause1(o4,o1,o3)";
	position = (0 100);
	states = ("false" "true");
	subtype = boolean;
}

potential (wclause1Io4po1po3I | wclause1Io4po1po3I_CC0 )
{
	data = (0.50342 0.49658
	0.0 1.0 );
}

node wclause1Io4po3po1I_CC0_CC1
{
	label = "aux";
	position = (0 100);
	states = ("false" "true");
	subtype = boolean;
}

potential (wclause1Io4po3po1I_CC0_CC1 | friendsIo3po1I friendsIo4po1I )
{
	data = (0.0 1.0
	0.0 1.0
	1.0 0.0
	0.0 1.0 );
}

node wclause1Io4po3po1I_CC0
{
	label = "aux";
	position = (0 100);
	states = ("false" "true");
	subtype = boolean;
}

potential (wclause1Io4po3po1I_CC0 | friendsIo4po3I wclause1Io4po3po1I_CC0_CC1 )
{
	data = (0.0 1.0
	0.0 1.0
	1.0 0.0
	0.0 1.0 );
}

node wclause1Io4po3po1I
{
	label = "wclause1(o4,o3,o1)";
	position = (0 100);
	states = ("false" "true");
	subtype = boolean;
}

potential (wclause1Io4po3po1I | wclause1Io4po3po1I_CC0 )
{
	data = (0.50342 0.49658
	0.0 1.0 );
}

node wclause1Io4po3po2I_CC0_CC1
{
	label = "aux";
	position = (0 100);
	states = ("false" "true");
	subtype = boolean;
}

potential (wclause1Io4po3po2I_CC0_CC1 | friendsIo3po2I friendsIo4po2I )
{
	data = (0.0 1.0
	0.0 1.0
	1.0 0.0
	0.0 1.0 );
}

node wclause1Io4po3po2I_CC0
{
	label = "aux";
	position = (0 100);
	states = ("false" "true");
	subtype = boolean;
}

potential (wclause1Io4po3po2I_CC0 | friendsIo4po3I wclause1Io4po3po2I_CC0_CC1 )
{
	data = (0.0 1.0
	0.0 1.0
	1.0 0.0
	0.0 1.0 );
}

node wclause1Io4po3po2I
{
	label = "wclause1(o4,o3,o2)";
	position = (0 100);
	states = ("false" "true");
	subtype = boolean;
}

potential (wclause1Io4po3po2I | wclause1Io4po3po2I_CC0 )
{
	data = (0.50342 0.49658
	0.0 1.0 );
}

node wclause1Io4po3po3I_CC0_CC1
{
	label = "aux";
	position = (0 100);
	states = ("false" "true");
	subtype = boolean;
}

potential (wclause1Io4po3po3I_CC0_CC1 | friendsIo3po3I friendsIo4po3I )
{
	data = (0.0 1.0
	0.0 1.0
	1.0 0.0
	0.0 1.0 );
}

node wclause1Io4po3po3I_CC0
{
	label = "aux";
	position = (0 100);
	states = ("false" "true");
	subtype = boolean;
}

potential (wclause1Io4po3po3I_CC0 | friendsIo4po3I wclause1Io4po3po3I_CC0_CC1 )
{
	data = (0.0 1.0
	0.0 1.0
	1.0 0.0
	0.0 1.0 );
}

node wclause1Io4po3po3I
{
	label = "wclause1(o4,o3,o3)";
	position = (0 100);
	states = ("false" "true");
	subtype = boolean;
}

potential (wclause1Io4po3po3I | wclause1Io4po3po3I_CC0 )
{
	data = (0.50342 0.49658
	0.0 1.0 );
}

node wclause1Io4po3po4I_CC0_CC1
{
	label = "aux";
	position = (0 100);
	states = ("false" "true");
	subtype = boolean;
}

potential (wclause1Io4po3po4I_CC0_CC1 | friendsIo3po4I friendsIo4po4I )
{
	data = (0.0 1.0
	0.0 1.0
	1.0 0.0
	0.0 1.0 );
}

node wclause1Io4po3po4I_CC0
{
	label = "aux";
	position = (0 100);
	states = ("false" "true");
	subtype = boolean;
}

potential (wclause1Io4po3po4I_CC0 | friendsIo4po3I wclause1Io4po3po4I_CC0_CC1 )
{
	data = (0.0 1.0
	0.0 1.0
	1.0 0.0
	0.0 1.0 );
}

node wclause1Io4po3po4I
{
	label = "wclause1(o4,o3,o4)";
	position = (0 100);
	states = ("false" "true");
	subtype = boolean;
}

potential (wclause1Io4po3po4I | wclause1Io4po3po4I_CC0 )
{
	data = (0.50342 0.49658
	0.0 1.0 );
}

node friendsIo3po5I
{
	label = "friends(o3,o5)";
	position = (0 100);
	states = ("false" "true");
	subtype = boolean;
}

potential (friendsIo3po5I)
{
	data = (0.5 0.5 );
}

node friendsIo4po5I
{
	label = "friends(o4,o5)";
	position = (0 100);
	states = ("false" "true");
	subtype = boolean;
}

potential (friendsIo4po5I)
{
	data = (0.5 0.5 );
}

node wclause1Io4po3po5I_CC0_CC1
{
	label = "aux";
	position = (0 100);
	states = ("false" "true");
	subtype = boolean;
}

potential (wclause1Io4po3po5I_CC0_CC1 | friendsIo3po5I friendsIo4po5I )
{
	data = (0.0 1.0
	0.0 1.0
	1.0 0.0
	0.0 1.0 );
}

node wclause1Io4po3po5I_CC0
{
	label = "aux";
	position = (0 100);
	states = ("false" "true");
	subtype = boolean;
}

potential (wclause1Io4po3po5I_CC0 | friendsIo4po3I wclause1Io4po3po5I_CC0_CC1 )
{
	data = (0.0 1.0
	0.0 1.0
	1.0 0.0
	0.0 1.0 );
}

node wclause1Io4po3po5I
{
	label = "wclause1(o4,o3,o5)";
	position = (0 100);
	states = ("false" "true");
	subtype = boolean;
}

potential (wclause1Io4po3po5I | wclause1Io4po3po5I_CC0 )
{
	data = (0.50342 0.49658
	0.0 1.0 );
}

node wclause1Io4po4po5I_CC0
{
	label = "aux";
	position = (0 100);
	states = ("false" "true");
	subtype = boolean;
}

potential (wclause1Io4po4po5I_CC0 | friendsIo4po4I friendsIo4po5I )
{
	data = (0.0 1.0
	0.0 1.0
	0.0 1.0
	0.0 1.0 );
}

node wclause1Io4po4po5I
{
	label = "wclause1(o4,o4,o5)";
	position = (0 100);
	states = ("false" "true");
	subtype = boolean;
}

potential (wclause1Io4po4po5I | wclause1Io4po4po5I_CC0 )
{
	data = (0.50342 0.49658
	0.0 1.0 );
}

node wclause1Io1po4po5I_CC0_CC1
{
	label = "aux";
	position = (0 100);
	states = ("false" "true");
	subtype = boolean;
}

potential (wclause1Io1po4po5I_CC0_CC1 | friendsIo4po5I friendsIo1po5I )
{
	data = (0.0 1.0
	0.0 1.0
	1.0 0.0
	0.0 1.0 );
}

node wclause1Io1po4po5I_CC0
{
	label = "aux";
	position = (0 100);
	states = ("false" "true");
	subtype = boolean;
}

potential (wclause1Io1po4po5I_CC0 | friendsIo1po4I wclause1Io1po4po5I_CC0_CC1 )
{
	data = (0.0 1.0
	0.0 1.0
	1.0 0.0
	0.0 1.0 );
}

node wclause1Io1po4po5I
{
	label = "wclause1(o1,o4,o5)";
	position = (0 100);
	states = ("false" "true");
	subtype = boolean;
}

potential (wclause1Io1po4po5I | wclause1Io1po4po5I_CC0 )
{
	data = (0.50342 0.49658
	0.0 1.0 );
}

node friendsIo2po5I
{
	label = "friends(o2,o5)";
	position = (0 100);
	states = ("false" "true");
	subtype = boolean;
}

potential (friendsIo2po5I)
{
	data = (0.5 0.5 );
}

node wclause1Io2po4po5I_CC0_CC1
{
	label = "aux";
	position = (0 100);
	states = ("false" "true");
	subtype = boolean;
}

potential (wclause1Io2po4po5I_CC0_CC1 | friendsIo4po5I friendsIo2po5I )
{
	data = (0.0 1.0
	0.0 1.0
	1.0 0.0
	0.0 1.0 );
}

node wclause1Io2po4po5I_CC0
{
	label = "aux";
	position = (0 100);
	states = ("false" "true");
	subtype = boolean;
}

potential (wclause1Io2po4po5I_CC0 | friendsIo2po4I wclause1Io2po4po5I_CC0_CC1 )
{
	data = (0.0 1.0
	0.0 1.0
	1.0 0.0
	0.0 1.0 );
}

node wclause1Io2po4po5I
{
	label = "wclause1(o2,o4,o5)";
	position = (0 100);
	states = ("false" "true");
	subtype = boolean;
}

potential (wclause1Io2po4po5I | wclause1Io2po4po5I_CC0 )
{
	data = (0.50342 0.49658
	0.0 1.0 );
}

node wclause1Io2po2po5I_CC0
{
	label = "aux";
	position = (0 100);
	states = ("false" "true");
	subtype = boolean;
}

potential (wclause1Io2po2po5I_CC0 | friendsIo2po2I friendsIo2po5I )
{
	data = (0.0 1.0
	0.0 1.0
	0.0 1.0
	0.0 1.0 );
}

node wclause1Io2po2po5I
{
	label = "wclause1(o2,o2,o5)";
	position = (0 100);
	states = ("false" "true");
	subtype = boolean;
}

potential (wclause1Io2po2po5I | wclause1Io2po2po5I_CC0 )
{
	data = (0.50342 0.49658
	0.0 1.0 );
}

node wclause1Io1po2po5I_CC0_CC1
{
	label = "aux";
	position = (0 100);
	states = ("false" "true");
	subtype = boolean;
}

potential (wclause1Io1po2po5I_CC0_CC1 | friendsIo2po5I friendsIo1po5I )
{
	data = (0.0 1.0
	0.0 1.0
	1.0 0.0
	0.0 1.0 );
}

node wclause1Io1po2po5I_CC0
{
	label = "aux";
	position = (0 100);
	states = ("false" "true");
	subtype = boolean;
}

potential (wclause1Io1po2po5I_CC0 | friendsIo1po2I wclause1Io1po2po5I_CC0_CC1 )
{
	data = (0.0 1.0
	0.0 1.0
	1.0 0.0
	0.0 1.0 );
}

node wclause1Io1po2po5I
{
	label = "wclause1(o1,o2,o5)";
	position = (0 100);
	states = ("false" "true");
	subtype = boolean;
}

potential (wclause1Io1po2po5I | wclause1Io1po2po5I_CC0 )
{
	data = (0.50342 0.49658
	0.0 1.0 );
}

node wclause1Io2po1po5I_CC0_CC1
{
	label = "aux";
	position = (0 100);
	states = ("false" "true");
	subtype = boolean;
}

potential (wclause1Io2po1po5I_CC0_CC1 | friendsIo1po5I friendsIo2po5I )
{
	data = (0.0 1.0
	0.0 1.0
	1.0 0.0
	0.0 1.0 );
}

node wclause1Io2po1po5I_CC0
{
	label = "aux";
	position = (0 100);
	states = ("false" "true");
	subtype = boolean;
}

potential (wclause1Io2po1po5I_CC0 | friendsIo2po1I wclause1Io2po1po5I_CC0_CC1 )
{
	data = (0.0 1.0
	0.0 1.0
	1.0 0.0
	0.0 1.0 );
}

node wclause1Io2po1po5I
{
	label = "wclause1(o2,o1,o5)";
	position = (0 100);
	states = ("false" "true");
	subtype = boolean;
}

potential (wclause1Io2po1po5I | wclause1Io2po1po5I_CC0 )
{
	data = (0.50342 0.49658
	0.0 1.0 );
}

node wclause1Io2po3po5I_CC0_CC1
{
	label = "aux";
	position = (0 100);
	states = ("false" "true");
	subtype = boolean;
}

potential (wclause1Io2po3po5I_CC0_CC1 | friendsIo3po5I friendsIo2po5I )
{
	data = (0.0 1.0
	0.0 1.0
	1.0 0.0
	0.0 1.0 );
}

node wclause1Io2po3po5I_CC0
{
	label = "aux";
	position = (0 100);
	states = ("false" "true");
	subtype = boolean;
}

potential (wclause1Io2po3po5I_CC0 | friendsIo2po3I wclause1Io2po3po5I_CC0_CC1 )
{
	data = (0.0 1.0
	0.0 1.0
	1.0 0.0
	0.0 1.0 );
}

node wclause1Io2po3po5I
{
	label = "wclause1(o2,o3,o5)";
	position = (0 100);
	states = ("false" "true");
	subtype = boolean;
}

potential (wclause1Io2po3po5I | wclause1Io2po3po5I_CC0 )
{
	data = (0.50342 0.49658
	0.0 1.0 );
}

node friendsIo5po1I
{
	label = "friends(o5,o1)";
	position = (0 100);
	states = ("false" "true");
	subtype = boolean;
}

potential (friendsIo5po1I)
{
	data = (0.5 0.5 );
}

node wclause1Io2po5po1I_CC0_CC1
{
	label = "aux";
	position = (0 100);
	states = ("false" "true");
	subtype = boolean;
}

potential (wclause1Io2po5po1I_CC0_CC1 | friendsIo5po1I friendsIo2po1I )
{
	data = (0.0 1.0
	0.0 1.0
	1.0 0.0
	0.0 1.0 );
}

node wclause1Io2po5po1I_CC0
{
	label = "aux";
	position = (0 100);
	states = ("false" "true");
	subtype = boolean;
}

potential (wclause1Io2po5po1I_CC0 | friendsIo2po5I wclause1Io2po5po1I_CC0_CC1 )
{
	data = (0.0 1.0
	0.0 1.0
	1.0 0.0
	0.0 1.0 );
}

node wclause1Io2po5po1I
{
	label = "wclause1(o2,o5,o1)";
	position = (0 100);
	states = ("false" "true");
	subtype = boolean;
}

potential (wclause1Io2po5po1I | wclause1Io2po5po1I_CC0 )
{
	data = (0.50342 0.49658
	0.0 1.0 );
}

node friendsIo5po5I
{
	label = "friends(o5,o5)";
	position = (0 100);
	states = ("false" "true");
	subtype = boolean;
}

potential (friendsIo5po5I)
{
	data = (0.5 0.5 );
}

node wclause1Io5po5po1I_CC0
{
	label = "aux";
	position = (0 100);
	states = ("false" "true");
	subtype = boolean;
}

potential (wclause1Io5po5po1I_CC0 | friendsIo5po5I friendsIo5po1I )
{
	data = (0.0 1.0
	0.0 1.0
	0.0 1.0
	0.0 1.0 );
}

node wclause1Io5po5po1I
{
	label = "wclause1(o5,o5,o1)";
	position = (0 100);
	states = ("false" "true");
	subtype = boolean;
}

potential (wclause1Io5po5po1I | wclause1Io5po5po1I_CC0 )
{
	data = (0.50342 0.49658
	0.0 1.0 );
}

node wclause1Io5po5po5I
{
	label = "wclause1(o5,o5,o5)";
	position = (0 100);
	states = ("false" "true");
	subtype = boolean;
}

potential (wclause1Io5po5po5I | friendsIo5po5I )
{
	data = (0.0 1.0
	0.0 1.0 );
}

node wclause1Io1po5po5I_CC0_CC1
{
	label = "aux";
	position = (0 100);
	states = ("false" "true");
	subtype = boolean;
}

potential (wclause1Io1po5po5I_CC0_CC1 | friendsIo5po5I friendsIo1po5I )
{
	data = (0.0 1.0
	0.0 1.0
	1.0 0.0
	0.0 1.0 );
}

node wclause1Io1po5po5I_CC0
{
	label = "aux";
	position = (0 100);
	states = ("false" "true");
	subtype = boolean;
}

potential (wclause1Io1po5po5I_CC0 | friendsIo1po5I wclause1Io1po5po5I_CC0_CC1 )
{
	data = (0.0 1.0
	0.0 1.0
	1.0 0.0
	0.0 1.0 );
}

node wclause1Io1po5po5I
{
	label = "wclause1(o1,o5,o5)";
	position = (0 100);
	states = ("false" "true");
	subtype = boolean;
}

potential (wclause1Io1po5po5I | wclause1Io1po5po5I_CC0 )
{
	data = (0.50342 0.49658
	0.0 1.0 );
}

node wclause1Io2po5po5I_CC0_CC1
{
	label = "aux";
	position = (0 100);
	states = ("false" "true");
	subtype = boolean;
}

potential (wclause1Io2po5po5I_CC0_CC1 | friendsIo5po5I friendsIo2po5I )
{
	data = (0.0 1.0
	0.0 1.0
	1.0 0.0
	0.0 1.0 );
}

node wclause1Io2po5po5I_CC0
{
	label = "aux";
	position = (0 100);
	states = ("false" "true");
	subtype = boolean;
}

potential (wclause1Io2po5po5I_CC0 | friendsIo2po5I wclause1Io2po5po5I_CC0_CC1 )
{
	data = (0.0 1.0
	0.0 1.0
	1.0 0.0
	0.0 1.0 );
}

node wclause1Io2po5po5I
{
	label = "wclause1(o2,o5,o5)";
	position = (0 100);
	states = ("false" "true");
	subtype = boolean;
}

potential (wclause1Io2po5po5I | wclause1Io2po5po5I_CC0 )
{
	data = (0.50342 0.49658
	0.0 1.0 );
}

node wclause1Io3po5po5I_CC0_CC1
{
	label = "aux";
	position = (0 100);
	states = ("false" "true");
	subtype = boolean;
}

potential (wclause1Io3po5po5I_CC0_CC1 | friendsIo5po5I friendsIo3po5I )
{
	data = (0.0 1.0
	0.0 1.0
	1.0 0.0
	0.0 1.0 );
}

node wclause1Io3po5po5I_CC0
{
	label = "aux";
	position = (0 100);
	states = ("false" "true");
	subtype = boolean;
}

potential (wclause1Io3po5po5I_CC0 | friendsIo3po5I wclause1Io3po5po5I_CC0_CC1 )
{
	data = (0.0 1.0
	0.0 1.0
	1.0 0.0
	0.0 1.0 );
}

node wclause1Io3po5po5I
{
	label = "wclause1(o3,o5,o5)";
	position = (0 100);
	states = ("false" "true");
	subtype = boolean;
}

potential (wclause1Io3po5po5I | wclause1Io3po5po5I_CC0 )
{
	data = (0.50342 0.49658
	0.0 1.0 );
}

node wclause1Io4po5po5I_CC0_CC1
{
	label = "aux";
	position = (0 100);
	states = ("false" "true");
	subtype = boolean;
}

potential (wclause1Io4po5po5I_CC0_CC1 | friendsIo5po5I friendsIo4po5I )
{
	data = (0.0 1.0
	0.0 1.0
	1.0 0.0
	0.0 1.0 );
}

node wclause1Io4po5po5I_CC0
{
	label = "aux";
	position = (0 100);
	states = ("false" "true");
	subtype = boolean;
}

potential (wclause1Io4po5po5I_CC0 | friendsIo4po5I wclause1Io4po5po5I_CC0_CC1 )
{
	data = (0.0 1.0
	0.0 1.0
	1.0 0.0
	0.0 1.0 );
}

node wclause1Io4po5po5I
{
	label = "wclause1(o4,o5,o5)";
	position = (0 100);
	states = ("false" "true");
	subtype = boolean;
}

potential (wclause1Io4po5po5I | wclause1Io4po5po5I_CC0 )
{
	data = (0.50342 0.49658
	0.0 1.0 );
}

node wclause1Io5po1po5I_CC0_CC1
{
	label = "aux";
	position = (0 100);
	states = ("false" "true");
	subtype = boolean;
}

potential (wclause1Io5po1po5I_CC0_CC1 | friendsIo1po5I friendsIo5po5I )
{
	data = (0.0 1.0
	0.0 1.0
	1.0 0.0
	0.0 1.0 );
}

node wclause1Io5po1po5I_CC0
{
	label = "aux";
	position = (0 100);
	states = ("false" "true");
	subtype = boolean;
}

potential (wclause1Io5po1po5I_CC0 | friendsIo5po1I wclause1Io5po1po5I_CC0_CC1 )
{
	data = (0.0 1.0
	0.0 1.0
	1.0 0.0
	0.0 1.0 );
}

node wclause1Io5po1po5I
{
	label = "wclause1(o5,o1,o5)";
	position = (0 100);
	states = ("false" "true");
	subtype = boolean;
}

potential (wclause1Io5po1po5I | wclause1Io5po1po5I_CC0 )
{
	data = (0.50342 0.49658
	0.0 1.0 );
}

node wclause1Io5po2po5I_CC0_CC1
{
	label = "aux";
	position = (0 100);
	states = ("false" "true");
	subtype = boolean;
}

potential (wclause1Io5po2po5I_CC0_CC1 | friendsIo2po5I friendsIo5po5I )
{
	data = (0.0 1.0
	0.0 1.0
	1.0 0.0
	0.0 1.0 );
}

node friendsIo5po2I
{
	label = "friends(o5,o2)";
	position = (0 100);
	states = ("false" "true");
	subtype = boolean;
}

potential (friendsIo5po2I)
{
	data = (0.5 0.5 );
}

node wclause1Io5po2po5I_CC0
{
	label = "aux";
	position = (0 100);
	states = ("false" "true");
	subtype = boolean;
}

potential (wclause1Io5po2po5I_CC0 | friendsIo5po2I wclause1Io5po2po5I_CC0_CC1 )
{
	data = (0.0 1.0
	0.0 1.0
	1.0 0.0
	0.0 1.0 );
}

node wclause1Io5po2po5I
{
	label = "wclause1(o5,o2,o5)";
	position = (0 100);
	states = ("false" "true");
	subtype = boolean;
}

potential (wclause1Io5po2po5I | wclause1Io5po2po5I_CC0 )
{
	data = (0.50342 0.49658
	0.0 1.0 );
}

node wclause1Io5po5po2I_CC0
{
	label = "aux";
	position = (0 100);
	states = ("false" "true");
	subtype = boolean;
}

potential (wclause1Io5po5po2I_CC0 | friendsIo5po5I friendsIo5po2I )
{
	data = (0.0 1.0
	0.0 1.0
	0.0 1.0
	0.0 1.0 );
}

node wclause1Io5po5po2I
{
	label = "wclause1(o5,o5,o2)";
	position = (0 100);
	states = ("false" "true");
	subtype = boolean;
}

potential (wclause1Io5po5po2I | wclause1Io5po5po2I_CC0 )
{
	data = (0.50342 0.49658
	0.0 1.0 );
}

node wclause1Io1po5po2I_CC0_CC1
{
	label = "aux";
	position = (0 100);
	states = ("false" "true");
	subtype = boolean;
}

potential (wclause1Io1po5po2I_CC0_CC1 | friendsIo5po2I friendsIo1po2I )
{
	data = (0.0 1.0
	0.0 1.0
	1.0 0.0
	0.0 1.0 );
}

node wclause1Io1po5po2I_CC0
{
	label = "aux";
	position = (0 100);
	states = ("false" "true");
	subtype = boolean;
}

potential (wclause1Io1po5po2I_CC0 | friendsIo1po5I wclause1Io1po5po2I_CC0_CC1 )
{
	data = (0.0 1.0
	0.0 1.0
	1.0 0.0
	0.0 1.0 );
}

node wclause1Io1po5po2I
{
	label = "wclause1(o1,o5,o2)";
	position = (0 100);
	states = ("false" "true");
	subtype = boolean;
}

potential (wclause1Io1po5po2I | wclause1Io1po5po2I_CC0 )
{
	data = (0.50342 0.49658
	0.0 1.0 );
}

node wclause1Io2po5po2I_CC0_CC1
{
	label = "aux";
	position = (0 100);
	states = ("false" "true");
	subtype = boolean;
}

potential (wclause1Io2po5po2I_CC0_CC1 | friendsIo5po2I friendsIo2po2I )
{
	data = (0.0 1.0
	0.0 1.0
	1.0 0.0
	0.0 1.0 );
}

node wclause1Io2po5po2I_CC0
{
	label = "aux";
	position = (0 100);
	states = ("false" "true");
	subtype = boolean;
}

potential (wclause1Io2po5po2I_CC0 | friendsIo2po5I wclause1Io2po5po2I_CC0_CC1 )
{
	data = (0.0 1.0
	0.0 1.0
	1.0 0.0
	0.0 1.0 );
}

node wclause1Io2po5po2I
{
	label = "wclause1(o2,o5,o2)";
	position = (0 100);
	states = ("false" "true");
	subtype = boolean;
}

potential (wclause1Io2po5po2I | wclause1Io2po5po2I_CC0 )
{
	data = (0.50342 0.49658
	0.0 1.0 );
}

node wclause1Io3po5po2I_CC0_CC1
{
	label = "aux";
	position = (0 100);
	states = ("false" "true");
	subtype = boolean;
}

potential (wclause1Io3po5po2I_CC0_CC1 | friendsIo5po2I friendsIo3po2I )
{
	data = (0.0 1.0
	0.0 1.0
	1.0 0.0
	0.0 1.0 );
}

node wclause1Io3po5po2I_CC0
{
	label = "aux";
	position = (0 100);
	states = ("false" "true");
	subtype = boolean;
}

potential (wclause1Io3po5po2I_CC0 | friendsIo3po5I wclause1Io3po5po2I_CC0_CC1 )
{
	data = (0.0 1.0
	0.0 1.0
	1.0 0.0
	0.0 1.0 );
}

node wclause1Io3po5po2I
{
	label = "wclause1(o3,o5,o2)";
	position = (0 100);
	states = ("false" "true");
	subtype = boolean;
}

potential (wclause1Io3po5po2I | wclause1Io3po5po2I_CC0 )
{
	data = (0.50342 0.49658
	0.0 1.0 );
}

node wclause1Io4po5po2I_CC0_CC1
{
	label = "aux";
	position = (0 100);
	states = ("false" "true");
	subtype = boolean;
}

potential (wclause1Io4po5po2I_CC0_CC1 | friendsIo5po2I friendsIo4po2I )
{
	data = (0.0 1.0
	0.0 1.0
	1.0 0.0
	0.0 1.0 );
}

node wclause1Io4po5po2I_CC0
{
	label = "aux";
	position = (0 100);
	states = ("false" "true");
	subtype = boolean;
}

potential (wclause1Io4po5po2I_CC0 | friendsIo4po5I wclause1Io4po5po2I_CC0_CC1 )
{
	data = (0.0 1.0
	0.0 1.0
	1.0 0.0
	0.0 1.0 );
}

node wclause1Io4po5po2I
{
	label = "wclause1(o4,o5,o2)";
	position = (0 100);
	states = ("false" "true");
	subtype = boolean;
}

potential (wclause1Io4po5po2I | wclause1Io4po5po2I_CC0 )
{
	data = (0.50342 0.49658
	0.0 1.0 );
}

node wclause1Io5po1po2I_CC0_CC1
{
	label = "aux";
	position = (0 100);
	states = ("false" "true");
	subtype = boolean;
}

potential (wclause1Io5po1po2I_CC0_CC1 | friendsIo1po2I friendsIo5po2I )
{
	data = (0.0 1.0
	0.0 1.0
	1.0 0.0
	0.0 1.0 );
}

node wclause1Io5po1po2I_CC0
{
	label = "aux";
	position = (0 100);
	states = ("false" "true");
	subtype = boolean;
}

potential (wclause1Io5po1po2I_CC0 | friendsIo5po1I wclause1Io5po1po2I_CC0_CC1 )
{
	data = (0.0 1.0
	0.0 1.0
	1.0 0.0
	0.0 1.0 );
}

node wclause1Io5po1po2I
{
	label = "wclause1(o5,o1,o2)";
	position = (0 100);
	states = ("false" "true");
	subtype = boolean;
}

potential (wclause1Io5po1po2I | wclause1Io5po1po2I_CC0 )
{
	data = (0.50342 0.49658
	0.0 1.0 );
}

node wclause1Io5po2po1I_CC0_CC1
{
	label = "aux";
	position = (0 100);
	states = ("false" "true");
	subtype = boolean;
}

potential (wclause1Io5po2po1I_CC0_CC1 | friendsIo2po1I friendsIo5po1I )
{
	data = (0.0 1.0
	0.0 1.0
	1.0 0.0
	0.0 1.0 );
}

node wclause1Io5po2po1I_CC0
{
	label = "aux";
	position = (0 100);
	states = ("false" "true");
	subtype = boolean;
}

potential (wclause1Io5po2po1I_CC0 | friendsIo5po2I wclause1Io5po2po1I_CC0_CC1 )
{
	data = (0.0 1.0
	0.0 1.0
	1.0 0.0
	0.0 1.0 );
}

node wclause1Io5po2po1I
{
	label = "wclause1(o5,o2,o1)";
	position = (0 100);
	states = ("false" "true");
	subtype = boolean;
}

potential (wclause1Io5po2po1I | wclause1Io5po2po1I_CC0 )
{
	data = (0.50342 0.49658
	0.0 1.0 );
}

node wclause1Io5po2po2I_CC0_CC1
{
	label = "aux";
	position = (0 100);
	states = ("false" "true");
	subtype = boolean;
}

potential (wclause1Io5po2po2I_CC0_CC1 | friendsIo2po2I friendsIo5po2I )
{
	data = (0.0 1.0
	0.0 1.0
	1.0 0.0
	0.0 1.0 );
}

node wclause1Io5po2po2I_CC0
{
	label = "aux";
	position = (0 100);
	states = ("false" "true");
	subtype = boolean;
}

potential (wclause1Io5po2po2I_CC0 | friendsIo5po2I wclause1Io5po2po2I_CC0_CC1 )
{
	data = (0.0 1.0
	0.0 1.0
	1.0 0.0
	0.0 1.0 );
}

node wclause1Io5po2po2I
{
	label = "wclause1(o5,o2,o2)";
	position = (0 100);
	states = ("false" "true");
	subtype = boolean;
}

potential (wclause1Io5po2po2I | wclause1Io5po2po2I_CC0 )
{
	data = (0.50342 0.49658
	0.0 1.0 );
}

node friendsIo5po3I
{
	label = "friends(o5,o3)";
	position = (0 100);
	states = ("false" "true");
	subtype = boolean;
}

potential (friendsIo5po3I)
{
	data = (0.5 0.5 );
}

node wclause1Io5po2po3I_CC0_CC1
{
	label = "aux";
	position = (0 100);
	states = ("false" "true");
	subtype = boolean;
}

potential (wclause1Io5po2po3I_CC0_CC1 | friendsIo2po3I friendsIo5po3I )
{
	data = (0.0 1.0
	0.0 1.0
	1.0 0.0
	0.0 1.0 );
}

node wclause1Io5po2po3I_CC0
{
	label = "aux";
	position = (0 100);
	states = ("false" "true");
	subtype = boolean;
}

potential (wclause1Io5po2po3I_CC0 | friendsIo5po2I wclause1Io5po2po3I_CC0_CC1 )
{
	data = (0.0 1.0
	0.0 1.0
	1.0 0.0
	0.0 1.0 );
}

node wclause1Io5po2po3I
{
	label = "wclause1(o5,o2,o3)";
	position = (0 100);
	states = ("false" "true");
	subtype = boolean;
}

potential (wclause1Io5po2po3I | wclause1Io5po2po3I_CC0 )
{
	data = (0.50342 0.49658
	0.0 1.0 );
}

node wclause1Io5po5po3I_CC0
{
	label = "aux";
	position = (0 100);
	states = ("false" "true");
	subtype = boolean;
}

potential (wclause1Io5po5po3I_CC0 | friendsIo5po5I friendsIo5po3I )
{
	data = (0.0 1.0
	0.0 1.0
	0.0 1.0
	0.0 1.0 );
}

node wclause1Io5po5po3I
{
	label = "wclause1(o5,o5,o3)";
	position = (0 100);
	states = ("false" "true");
	subtype = boolean;
}

potential (wclause1Io5po5po3I | wclause1Io5po5po3I_CC0 )
{
	data = (0.50342 0.49658
	0.0 1.0 );
}

node wclause1Io1po5po3I_CC0_CC1
{
	label = "aux";
	position = (0 100);
	states = ("false" "true");
	subtype = boolean;
}

potential (wclause1Io1po5po3I_CC0_CC1 | friendsIo5po3I friendsIo1po3I )
{
	data = (0.0 1.0
	0.0 1.0
	1.0 0.0
	0.0 1.0 );
}

node wclause1Io1po5po3I_CC0
{
	label = "aux";
	position = (0 100);
	states = ("false" "true");
	subtype = boolean;
}

potential (wclause1Io1po5po3I_CC0 | friendsIo1po5I wclause1Io1po5po3I_CC0_CC1 )
{
	data = (0.0 1.0
	0.0 1.0
	1.0 0.0
	0.0 1.0 );
}

node wclause1Io1po5po3I
{
	label = "wclause1(o1,o5,o3)";
	position = (0 100);
	states = ("false" "true");
	subtype = boolean;
}

potential (wclause1Io1po5po3I | wclause1Io1po5po3I_CC0 )
{
	data = (0.50342 0.49658
	0.0 1.0 );
}

node wclause1Io2po5po3I_CC0_CC1
{
	label = "aux";
	position = (0 100);
	states = ("false" "true");
	subtype = boolean;
}

potential (wclause1Io2po5po3I_CC0_CC1 | friendsIo5po3I friendsIo2po3I )
{
	data = (0.0 1.0
	0.0 1.0
	1.0 0.0
	0.0 1.0 );
}

node wclause1Io2po5po3I_CC0
{
	label = "aux";
	position = (0 100);
	states = ("false" "true");
	subtype = boolean;
}

potential (wclause1Io2po5po3I_CC0 | friendsIo2po5I wclause1Io2po5po3I_CC0_CC1 )
{
	data = (0.0 1.0
	0.0 1.0
	1.0 0.0
	0.0 1.0 );
}

node wclause1Io2po5po3I
{
	label = "wclause1(o2,o5,o3)";
	position = (0 100);
	states = ("false" "true");
	subtype = boolean;
}

potential (wclause1Io2po5po3I | wclause1Io2po5po3I_CC0 )
{
	data = (0.50342 0.49658
	0.0 1.0 );
}

node wclause1Io3po5po3I_CC0_CC1
{
	label = "aux";
	position = (0 100);
	states = ("false" "true");
	subtype = boolean;
}

potential (wclause1Io3po5po3I_CC0_CC1 | friendsIo5po3I friendsIo3po3I )
{
	data = (0.0 1.0
	0.0 1.0
	1.0 0.0
	0.0 1.0 );
}

node wclause1Io3po5po3I_CC0
{
	label = "aux";
	position = (0 100);
	states = ("false" "true");
	subtype = boolean;
}

potential (wclause1Io3po5po3I_CC0 | friendsIo3po5I wclause1Io3po5po3I_CC0_CC1 )
{
	data = (0.0 1.0
	0.0 1.0
	1.0 0.0
	0.0 1.0 );
}

node wclause1Io3po5po3I
{
	label = "wclause1(o3,o5,o3)";
	position = (0 100);
	states = ("false" "true");
	subtype = boolean;
}

potential (wclause1Io3po5po3I | wclause1Io3po5po3I_CC0 )
{
	data = (0.50342 0.49658
	0.0 1.0 );
}

node wclause1Io4po5po3I_CC0_CC1
{
	label = "aux";
	position = (0 100);
	states = ("false" "true");
	subtype = boolean;
}

potential (wclause1Io4po5po3I_CC0_CC1 | friendsIo5po3I friendsIo4po3I )
{
	data = (0.0 1.0
	0.0 1.0
	1.0 0.0
	0.0 1.0 );
}

node wclause1Io4po5po3I_CC0
{
	label = "aux";
	position = (0 100);
	states = ("false" "true");
	subtype = boolean;
}

potential (wclause1Io4po5po3I_CC0 | friendsIo4po5I wclause1Io4po5po3I_CC0_CC1 )
{
	data = (0.0 1.0
	0.0 1.0
	1.0 0.0
	0.0 1.0 );
}

node wclause1Io4po5po3I
{
	label = "wclause1(o4,o5,o3)";
	position = (0 100);
	states = ("false" "true");
	subtype = boolean;
}

potential (wclause1Io4po5po3I | wclause1Io4po5po3I_CC0 )
{
	data = (0.50342 0.49658
	0.0 1.0 );
}

node wclause1Io5po1po3I_CC0_CC1
{
	label = "aux";
	position = (0 100);
	states = ("false" "true");
	subtype = boolean;
}

potential (wclause1Io5po1po3I_CC0_CC1 | friendsIo1po3I friendsIo5po3I )
{
	data = (0.0 1.0
	0.0 1.0
	1.0 0.0
	0.0 1.0 );
}

node wclause1Io5po1po3I_CC0
{
	label = "aux";
	position = (0 100);
	states = ("false" "true");
	subtype = boolean;
}

potential (wclause1Io5po1po3I_CC0 | friendsIo5po1I wclause1Io5po1po3I_CC0_CC1 )
{
	data = (0.0 1.0
	0.0 1.0
	1.0 0.0
	0.0 1.0 );
}

node wclause1Io5po1po3I
{
	label = "wclause1(o5,o1,o3)";
	position = (0 100);
	states = ("false" "true");
	subtype = boolean;
}

potential (wclause1Io5po1po3I | wclause1Io5po1po3I_CC0 )
{
	data = (0.50342 0.49658
	0.0 1.0 );
}

node wclause1Io5po3po1I_CC0_CC1
{
	label = "aux";
	position = (0 100);
	states = ("false" "true");
	subtype = boolean;
}

potential (wclause1Io5po3po1I_CC0_CC1 | friendsIo3po1I friendsIo5po1I )
{
	data = (0.0 1.0
	0.0 1.0
	1.0 0.0
	0.0 1.0 );
}

node wclause1Io5po3po1I_CC0
{
	label = "aux";
	position = (0 100);
	states = ("false" "true");
	subtype = boolean;
}

potential (wclause1Io5po3po1I_CC0 | friendsIo5po3I wclause1Io5po3po1I_CC0_CC1 )
{
	data = (0.0 1.0
	0.0 1.0
	1.0 0.0
	0.0 1.0 );
}

node wclause1Io5po3po1I
{
	label = "wclause1(o5,o3,o1)";
	position = (0 100);
	states = ("false" "true");
	subtype = boolean;
}

potential (wclause1Io5po3po1I | wclause1Io5po3po1I_CC0 )
{
	data = (0.50342 0.49658
	0.0 1.0 );
}

node wclause1Io5po3po2I_CC0_CC1
{
	label = "aux";
	position = (0 100);
	states = ("false" "true");
	subtype = boolean;
}

potential (wclause1Io5po3po2I_CC0_CC1 | friendsIo3po2I friendsIo5po2I )
{
	data = (0.0 1.0
	0.0 1.0
	1.0 0.0
	0.0 1.0 );
}

node wclause1Io5po3po2I_CC0
{
	label = "aux";
	position = (0 100);
	states = ("false" "true");
	subtype = boolean;
}

potential (wclause1Io5po3po2I_CC0 | friendsIo5po3I wclause1Io5po3po2I_CC0_CC1 )
{
	data = (0.0 1.0
	0.0 1.0
	1.0 0.0
	0.0 1.0 );
}

node wclause1Io5po3po2I
{
	label = "wclause1(o5,o3,o2)";
	position = (0 100);
	states = ("false" "true");
	subtype = boolean;
}

potential (wclause1Io5po3po2I | wclause1Io5po3po2I_CC0 )
{
	data = (0.50342 0.49658
	0.0 1.0 );
}

node wclause1Io5po3po3I_CC0_CC1
{
	label = "aux";
	position = (0 100);
	states = ("false" "true");
	subtype = boolean;
}

potential (wclause1Io5po3po3I_CC0_CC1 | friendsIo3po3I friendsIo5po3I )
{
	data = (0.0 1.0
	0.0 1.0
	1.0 0.0
	0.0 1.0 );
}

node wclause1Io5po3po3I_CC0
{
	label = "aux";
	position = (0 100);
	states = ("false" "true");
	subtype = boolean;
}

potential (wclause1Io5po3po3I_CC0 | friendsIo5po3I wclause1Io5po3po3I_CC0_CC1 )
{
	data = (0.0 1.0
	0.0 1.0
	1.0 0.0
	0.0 1.0 );
}

node wclause1Io5po3po3I
{
	label = "wclause1(o5,o3,o3)";
	position = (0 100);
	states = ("false" "true");
	subtype = boolean;
}

potential (wclause1Io5po3po3I | wclause1Io5po3po3I_CC0 )
{
	data = (0.50342 0.49658
	0.0 1.0 );
}

node friendsIo5po4I
{
	label = "friends(o5,o4)";
	position = (0 100);
	states = ("false" "true");
	subtype = boolean;
}

potential (friendsIo5po4I)
{
	data = (0.5 0.5 );
}

node wclause1Io5po3po4I_CC0_CC1
{
	label = "aux";
	position = (0 100);
	states = ("false" "true");
	subtype = boolean;
}

potential (wclause1Io5po3po4I_CC0_CC1 | friendsIo3po4I friendsIo5po4I )
{
	data = (0.0 1.0
	0.0 1.0
	1.0 0.0
	0.0 1.0 );
}

node wclause1Io5po3po4I_CC0
{
	label = "aux";
	position = (0 100);
	states = ("false" "true");
	subtype = boolean;
}

potential (wclause1Io5po3po4I_CC0 | friendsIo5po3I wclause1Io5po3po4I_CC0_CC1 )
{
	data = (0.0 1.0
	0.0 1.0
	1.0 0.0
	0.0 1.0 );
}

node wclause1Io5po3po4I
{
	label = "wclause1(o5,o3,o4)";
	position = (0 100);
	states = ("false" "true");
	subtype = boolean;
}

potential (wclause1Io5po3po4I | wclause1Io5po3po4I_CC0 )
{
	data = (0.50342 0.49658
	0.0 1.0 );
}

node wclause1Io5po5po4I_CC0
{
	label = "aux";
	position = (0 100);
	states = ("false" "true");
	subtype = boolean;
}

potential (wclause1Io5po5po4I_CC0 | friendsIo5po5I friendsIo5po4I )
{
	data = (0.0 1.0
	0.0 1.0
	0.0 1.0
	0.0 1.0 );
}

node wclause1Io5po5po4I
{
	label = "wclause1(o5,o5,o4)";
	position = (0 100);
	states = ("false" "true");
	subtype = boolean;
}

potential (wclause1Io5po5po4I | wclause1Io5po5po4I_CC0 )
{
	data = (0.50342 0.49658
	0.0 1.0 );
}

node wclause1Io1po5po4I_CC0_CC1
{
	label = "aux";
	position = (0 100);
	states = ("false" "true");
	subtype = boolean;
}

potential (wclause1Io1po5po4I_CC0_CC1 | friendsIo5po4I friendsIo1po4I )
{
	data = (0.0 1.0
	0.0 1.0
	1.0 0.0
	0.0 1.0 );
}

node wclause1Io1po5po4I_CC0
{
	label = "aux";
	position = (0 100);
	states = ("false" "true");
	subtype = boolean;
}

potential (wclause1Io1po5po4I_CC0 | friendsIo1po5I wclause1Io1po5po4I_CC0_CC1 )
{
	data = (0.0 1.0
	0.0 1.0
	1.0 0.0
	0.0 1.0 );
}

node wclause1Io1po5po4I
{
	label = "wclause1(o1,o5,o4)";
	position = (0 100);
	states = ("false" "true");
	subtype = boolean;
}

potential (wclause1Io1po5po4I | wclause1Io1po5po4I_CC0 )
{
	data = (0.50342 0.49658
	0.0 1.0 );
}

node wclause1Io2po5po4I_CC0_CC1
{
	label = "aux";
	position = (0 100);
	states = ("false" "true");
	subtype = boolean;
}

potential (wclause1Io2po5po4I_CC0_CC1 | friendsIo5po4I friendsIo2po4I )
{
	data = (0.0 1.0
	0.0 1.0
	1.0 0.0
	0.0 1.0 );
}

node wclause1Io2po5po4I_CC0
{
	label = "aux";
	position = (0 100);
	states = ("false" "true");
	subtype = boolean;
}

potential (wclause1Io2po5po4I_CC0 | friendsIo2po5I wclause1Io2po5po4I_CC0_CC1 )
{
	data = (0.0 1.0
	0.0 1.0
	1.0 0.0
	0.0 1.0 );
}

node wclause1Io2po5po4I
{
	label = "wclause1(o2,o5,o4)";
	position = (0 100);
	states = ("false" "true");
	subtype = boolean;
}

potential (wclause1Io2po5po4I | wclause1Io2po5po4I_CC0 )
{
	data = (0.50342 0.49658
	0.0 1.0 );
}

node wclause1Io3po5po4I_CC0_CC1
{
	label = "aux";
	position = (0 100);
	states = ("false" "true");
	subtype = boolean;
}

potential (wclause1Io3po5po4I_CC0_CC1 | friendsIo5po4I friendsIo3po4I )
{
	data = (0.0 1.0
	0.0 1.0
	1.0 0.0
	0.0 1.0 );
}

node wclause1Io3po5po4I_CC0
{
	label = "aux";
	position = (0 100);
	states = ("false" "true");
	subtype = boolean;
}

potential (wclause1Io3po5po4I_CC0 | friendsIo3po5I wclause1Io3po5po4I_CC0_CC1 )
{
	data = (0.0 1.0
	0.0 1.0
	1.0 0.0
	0.0 1.0 );
}

node wclause1Io3po5po4I
{
	label = "wclause1(o3,o5,o4)";
	position = (0 100);
	states = ("false" "true");
	subtype = boolean;
}

potential (wclause1Io3po5po4I | wclause1Io3po5po4I_CC0 )
{
	data = (0.50342 0.49658
	0.0 1.0 );
}

node wclause1Io4po5po4I_CC0_CC1
{
	label = "aux";
	position = (0 100);
	states = ("false" "true");
	subtype = boolean;
}

potential (wclause1Io4po5po4I_CC0_CC1 | friendsIo5po4I friendsIo4po4I )
{
	data = (0.0 1.0
	0.0 1.0
	1.0 0.0
	0.0 1.0 );
}

node wclause1Io4po5po4I_CC0
{
	label = "aux";
	position = (0 100);
	states = ("false" "true");
	subtype = boolean;
}

potential (wclause1Io4po5po4I_CC0 | friendsIo4po5I wclause1Io4po5po4I_CC0_CC1 )
{
	data = (0.0 1.0
	0.0 1.0
	1.0 0.0
	0.0 1.0 );
}

node wclause1Io4po5po4I
{
	label = "wclause1(o4,o5,o4)";
	position = (0 100);
	states = ("false" "true");
	subtype = boolean;
}

potential (wclause1Io4po5po4I | wclause1Io4po5po4I_CC0 )
{
	data = (0.50342 0.49658
	0.0 1.0 );
}

node wclause1Io5po1po4I_CC0_CC1
{
	label = "aux";
	position = (0 100);
	states = ("false" "true");
	subtype = boolean;
}

potential (wclause1Io5po1po4I_CC0_CC1 | friendsIo1po4I friendsIo5po4I )
{
	data = (0.0 1.0
	0.0 1.0
	1.0 0.0
	0.0 1.0 );
}

node wclause1Io5po1po4I_CC0
{
	label = "aux";
	position = (0 100);
	states = ("false" "true");
	subtype = boolean;
}

potential (wclause1Io5po1po4I_CC0 | friendsIo5po1I wclause1Io5po1po4I_CC0_CC1 )
{
	data = (0.0 1.0
	0.0 1.0
	1.0 0.0
	0.0 1.0 );
}

node wclause1Io5po1po4I
{
	label = "wclause1(o5,o1,o4)";
	position = (0 100);
	states = ("false" "true");
	subtype = boolean;
}

potential (wclause1Io5po1po4I | wclause1Io5po1po4I_CC0 )
{
	data = (0.50342 0.49658
	0.0 1.0 );
}

node wclause1Io5po2po4I_CC0_CC1
{
	label = "aux";
	position = (0 100);
	states = ("false" "true");
	subtype = boolean;
}

potential (wclause1Io5po2po4I_CC0_CC1 | friendsIo2po4I friendsIo5po4I )
{
	data = (0.0 1.0
	0.0 1.0
	1.0 0.0
	0.0 1.0 );
}

node wclause1Io5po2po4I_CC0
{
	label = "aux";
	position = (0 100);
	states = ("false" "true");
	subtype = boolean;
}

potential (wclause1Io5po2po4I_CC0 | friendsIo5po2I wclause1Io5po2po4I_CC0_CC1 )
{
	data = (0.0 1.0
	0.0 1.0
	1.0 0.0
	0.0 1.0 );
}

node wclause1Io5po2po4I
{
	label = "wclause1(o5,o2,o4)";
	position = (0 100);
	states = ("false" "true");
	subtype = boolean;
}

potential (wclause1Io5po2po4I | wclause1Io5po2po4I_CC0 )
{
	data = (0.50342 0.49658
	0.0 1.0 );
}

node wclause1Io5po4po1I_CC0_CC1
{
	label = "aux";
	position = (0 100);
	states = ("false" "true");
	subtype = boolean;
}

potential (wclause1Io5po4po1I_CC0_CC1 | friendsIo4po1I friendsIo5po1I )
{
	data = (0.0 1.0
	0.0 1.0
	1.0 0.0
	0.0 1.0 );
}

node wclause1Io5po4po1I_CC0
{
	label = "aux";
	position = (0 100);
	states = ("false" "true");
	subtype = boolean;
}

potential (wclause1Io5po4po1I_CC0 | friendsIo5po4I wclause1Io5po4po1I_CC0_CC1 )
{
	data = (0.0 1.0
	0.0 1.0
	1.0 0.0
	0.0 1.0 );
}

node wclause1Io5po4po1I
{
	label = "wclause1(o5,o4,o1)";
	position = (0 100);
	states = ("false" "true");
	subtype = boolean;
}

potential (wclause1Io5po4po1I | wclause1Io5po4po1I_CC0 )
{
	data = (0.50342 0.49658
	0.0 1.0 );
}

node wclause1Io5po4po2I_CC0_CC1
{
	label = "aux";
	position = (0 100);
	states = ("false" "true");
	subtype = boolean;
}

potential (wclause1Io5po4po2I_CC0_CC1 | friendsIo4po2I friendsIo5po2I )
{
	data = (0.0 1.0
	0.0 1.0
	1.0 0.0
	0.0 1.0 );
}

node wclause1Io5po4po2I_CC0
{
	label = "aux";
	position = (0 100);
	states = ("false" "true");
	subtype = boolean;
}

potential (wclause1Io5po4po2I_CC0 | friendsIo5po4I wclause1Io5po4po2I_CC0_CC1 )
{
	data = (0.0 1.0
	0.0 1.0
	1.0 0.0
	0.0 1.0 );
}

node wclause1Io5po4po2I
{
	label = "wclause1(o5,o4,o2)";
	position = (0 100);
	states = ("false" "true");
	subtype = boolean;
}

potential (wclause1Io5po4po2I | wclause1Io5po4po2I_CC0 )
{
	data = (0.50342 0.49658
	0.0 1.0 );
}

node wclause1Io5po4po3I_CC0_CC1
{
	label = "aux";
	position = (0 100);
	states = ("false" "true");
	subtype = boolean;
}

potential (wclause1Io5po4po3I_CC0_CC1 | friendsIo4po3I friendsIo5po3I )
{
	data = (0.0 1.0
	0.0 1.0
	1.0 0.0
	0.0 1.0 );
}

node wclause1Io5po4po3I_CC0
{
	label = "aux";
	position = (0 100);
	states = ("false" "true");
	subtype = boolean;
}

potential (wclause1Io5po4po3I_CC0 | friendsIo5po4I wclause1Io5po4po3I_CC0_CC1 )
{
	data = (0.0 1.0
	0.0 1.0
	1.0 0.0
	0.0 1.0 );
}

node wclause1Io5po4po3I
{
	label = "wclause1(o5,o4,o3)";
	position = (0 100);
	states = ("false" "true");
	subtype = boolean;
}

potential (wclause1Io5po4po3I | wclause1Io5po4po3I_CC0 )
{
	data = (0.50342 0.49658
	0.0 1.0 );
}

node wclause1Io5po4po4I_CC0_CC1
{
	label = "aux";
	position = (0 100);
	states = ("false" "true");
	subtype = boolean;
}

potential (wclause1Io5po4po4I_CC0_CC1 | friendsIo4po4I friendsIo5po4I )
{
	data = (0.0 1.0
	0.0 1.0
	1.0 0.0
	0.0 1.0 );
}

node wclause1Io5po4po4I_CC0
{
	label = "aux";
	position = (0 100);
	states = ("false" "true");
	subtype = boolean;
}

potential (wclause1Io5po4po4I_CC0 | friendsIo5po4I wclause1Io5po4po4I_CC0_CC1 )
{
	data = (0.0 1.0
	0.0 1.0
	1.0 0.0
	0.0 1.0 );
}

node wclause1Io5po4po4I
{
	label = "wclause1(o5,o4,o4)";
	position = (0 100);
	states = ("false" "true");
	subtype = boolean;
}

potential (wclause1Io5po4po4I | wclause1Io5po4po4I_CC0 )
{
	data = (0.50342 0.49658
	0.0 1.0 );
}

node wclause1Io5po4po5I_CC0_CC1
{
	label = "aux";
	position = (0 100);
	states = ("false" "true");
	subtype = boolean;
}

potential (wclause1Io5po4po5I_CC0_CC1 | friendsIo4po5I friendsIo5po5I )
{
	data = (0.0 1.0
	0.0 1.0
	1.0 0.0
	0.0 1.0 );
}

node wclause1Io5po4po5I_CC0
{
	label = "aux";
	position = (0 100);
	states = ("false" "true");
	subtype = boolean;
}

potential (wclause1Io5po4po5I_CC0 | friendsIo5po4I wclause1Io5po4po5I_CC0_CC1 )
{
	data = (0.0 1.0
	0.0 1.0
	1.0 0.0
	0.0 1.0 );
}

node wclause1Io5po4po5I
{
	label = "wclause1(o5,o4,o5)";
	position = (0 100);
	states = ("false" "true");
	subtype = boolean;
}

potential (wclause1Io5po4po5I | wclause1Io5po4po5I_CC0 )
{
	data = (0.50342 0.49658
	0.0 1.0 );
}

node friendsIo4po6I
{
	label = "friends(o4,o6)";
	position = (0 100);
	states = ("false" "true");
	subtype = boolean;
}

potential (friendsIo4po6I)
{
	data = (0.5 0.5 );
}

node friendsIo5po6I
{
	label = "friends(o5,o6)";
	position = (0 100);
	states = ("false" "true");
	subtype = boolean;
}

potential (friendsIo5po6I)
{
	data = (0.5 0.5 );
}

node wclause1Io5po4po6I_CC0_CC1
{
	label = "aux";
	position = (0 100);
	states = ("false" "true");
	subtype = boolean;
}

potential (wclause1Io5po4po6I_CC0_CC1 | friendsIo4po6I friendsIo5po6I )
{
	data = (0.0 1.0
	0.0 1.0
	1.0 0.0
	0.0 1.0 );
}

node wclause1Io5po4po6I_CC0
{
	label = "aux";
	position = (0 100);
	states = ("false" "true");
	subtype = boolean;
}

potential (wclause1Io5po4po6I_CC0 | friendsIo5po4I wclause1Io5po4po6I_CC0_CC1 )
{
	data = (0.0 1.0
	0.0 1.0
	1.0 0.0
	0.0 1.0 );
}

node wclause1Io5po4po6I
{
	label = "wclause1(o5,o4,o6)";
	position = (0 100);
	states = ("false" "true");
	subtype = boolean;
}

potential (wclause1Io5po4po6I | wclause1Io5po4po6I_CC0 )
{
	data = (0.50342 0.49658
	0.0 1.0 );
}

node wclause1Io5po5po6I_CC0
{
	label = "aux";
	position = (0 100);
	states = ("false" "true");
	subtype = boolean;
}

potential (wclause1Io5po5po6I_CC0 | friendsIo5po5I friendsIo5po6I )
{
	data = (0.0 1.0
	0.0 1.0
	0.0 1.0
	0.0 1.0 );
}

node wclause1Io5po5po6I
{
	label = "wclause1(o5,o5,o6)";
	position = (0 100);
	states = ("false" "true");
	subtype = boolean;
}

potential (wclause1Io5po5po6I | wclause1Io5po5po6I_CC0 )
{
	data = (0.50342 0.49658
	0.0 1.0 );
}

node wclause1Io1po5po6I_CC0_CC1
{
	label = "aux";
	position = (0 100);
	states = ("false" "true");
	subtype = boolean;
}

potential (wclause1Io1po5po6I_CC0_CC1 | friendsIo5po6I friendsIo1po6I )
{
	data = (0.0 1.0
	0.0 1.0
	1.0 0.0
	0.0 1.0 );
}

node wclause1Io1po5po6I_CC0
{
	label = "aux";
	position = (0 100);
	states = ("false" "true");
	subtype = boolean;
}

potential (wclause1Io1po5po6I_CC0 | friendsIo1po5I wclause1Io1po5po6I_CC0_CC1 )
{
	data = (0.0 1.0
	0.0 1.0
	1.0 0.0
	0.0 1.0 );
}

node wclause1Io1po5po6I
{
	label = "wclause1(o1,o5,o6)";
	position = (0 100);
	states = ("false" "true");
	subtype = boolean;
}

potential (wclause1Io1po5po6I | wclause1Io1po5po6I_CC0 )
{
	data = (0.50342 0.49658
	0.0 1.0 );
}

node friendsIo2po6I
{
	label = "friends(o2,o6)";
	position = (0 100);
	states = ("false" "true");
	subtype = boolean;
}

potential (friendsIo2po6I)
{
	data = (0.5 0.5 );
}

node wclause1Io2po5po6I_CC0_CC1
{
	label = "aux";
	position = (0 100);
	states = ("false" "true");
	subtype = boolean;
}

potential (wclause1Io2po5po6I_CC0_CC1 | friendsIo5po6I friendsIo2po6I )
{
	data = (0.0 1.0
	0.0 1.0
	1.0 0.0
	0.0 1.0 );
}

node wclause1Io2po5po6I_CC0
{
	label = "aux";
	position = (0 100);
	states = ("false" "true");
	subtype = boolean;
}

potential (wclause1Io2po5po6I_CC0 | friendsIo2po5I wclause1Io2po5po6I_CC0_CC1 )
{
	data = (0.0 1.0
	0.0 1.0
	1.0 0.0
	0.0 1.0 );
}

node wclause1Io2po5po6I
{
	label = "wclause1(o2,o5,o6)";
	position = (0 100);
	states = ("false" "true");
	subtype = boolean;
}

potential (wclause1Io2po5po6I | wclause1Io2po5po6I_CC0 )
{
	data = (0.50342 0.49658
	0.0 1.0 );
}

node wclause1Io2po2po6I_CC0
{
	label = "aux";
	position = (0 100);
	states = ("false" "true");
	subtype = boolean;
}

potential (wclause1Io2po2po6I_CC0 | friendsIo2po2I friendsIo2po6I )
{
	data = (0.0 1.0
	0.0 1.0
	0.0 1.0
	0.0 1.0 );
}

node wclause1Io2po2po6I
{
	label = "wclause1(o2,o2,o6)";
	position = (0 100);
	states = ("false" "true");
	subtype = boolean;
}

potential (wclause1Io2po2po6I | wclause1Io2po2po6I_CC0 )
{
	data = (0.50342 0.49658
	0.0 1.0 );
}

node wclause1Io1po2po6I_CC0_CC1
{
	label = "aux";
	position = (0 100);
	states = ("false" "true");
	subtype = boolean;
}

potential (wclause1Io1po2po6I_CC0_CC1 | friendsIo2po6I friendsIo1po6I )
{
	data = (0.0 1.0
	0.0 1.0
	1.0 0.0
	0.0 1.0 );
}

node wclause1Io1po2po6I_CC0
{
	label = "aux";
	position = (0 100);
	states = ("false" "true");
	subtype = boolean;
}

potential (wclause1Io1po2po6I_CC0 | friendsIo1po2I wclause1Io1po2po6I_CC0_CC1 )
{
	data = (0.0 1.0
	0.0 1.0
	1.0 0.0
	0.0 1.0 );
}

node wclause1Io1po2po6I
{
	label = "wclause1(o1,o2,o6)";
	position = (0 100);
	states = ("false" "true");
	subtype = boolean;
}

potential (wclause1Io1po2po6I | wclause1Io1po2po6I_CC0 )
{
	data = (0.50342 0.49658
	0.0 1.0 );
}

node wclause1Io2po1po6I_CC0_CC1
{
	label = "aux";
	position = (0 100);
	states = ("false" "true");
	subtype = boolean;
}

potential (wclause1Io2po1po6I_CC0_CC1 | friendsIo1po6I friendsIo2po6I )
{
	data = (0.0 1.0
	0.0 1.0
	1.0 0.0
	0.0 1.0 );
}

node wclause1Io2po1po6I_CC0
{
	label = "aux";
	position = (0 100);
	states = ("false" "true");
	subtype = boolean;
}

potential (wclause1Io2po1po6I_CC0 | friendsIo2po1I wclause1Io2po1po6I_CC0_CC1 )
{
	data = (0.0 1.0
	0.0 1.0
	1.0 0.0
	0.0 1.0 );
}

node wclause1Io2po1po6I
{
	label = "wclause1(o2,o1,o6)";
	position = (0 100);
	states = ("false" "true");
	subtype = boolean;
}

potential (wclause1Io2po1po6I | wclause1Io2po1po6I_CC0 )
{
	data = (0.50342 0.49658
	0.0 1.0 );
}

node friendsIo3po6I
{
	label = "friends(o3,o6)";
	position = (0 100);
	states = ("false" "true");
	subtype = boolean;
}

potential (friendsIo3po6I)
{
	data = (0.5 0.5 );
}

node wclause1Io2po3po6I_CC0_CC1
{
	label = "aux";
	position = (0 100);
	states = ("false" "true");
	subtype = boolean;
}

potential (wclause1Io2po3po6I_CC0_CC1 | friendsIo3po6I friendsIo2po6I )
{
	data = (0.0 1.0
	0.0 1.0
	1.0 0.0
	0.0 1.0 );
}

node wclause1Io2po3po6I_CC0
{
	label = "aux";
	position = (0 100);
	states = ("false" "true");
	subtype = boolean;
}

potential (wclause1Io2po3po6I_CC0 | friendsIo2po3I wclause1Io2po3po6I_CC0_CC1 )
{
	data = (0.0 1.0
	0.0 1.0
	1.0 0.0
	0.0 1.0 );
}

node wclause1Io2po3po6I
{
	label = "wclause1(o2,o3,o6)";
	position = (0 100);
	states = ("false" "true");
	subtype = boolean;
}

potential (wclause1Io2po3po6I | wclause1Io2po3po6I_CC0 )
{
	data = (0.50342 0.49658
	0.0 1.0 );
}

node wclause1Io3po3po6I_CC0
{
	label = "aux";
	position = (0 100);
	states = ("false" "true");
	subtype = boolean;
}

potential (wclause1Io3po3po6I_CC0 | friendsIo3po3I friendsIo3po6I )
{
	data = (0.0 1.0
	0.0 1.0
	0.0 1.0
	0.0 1.0 );
}

node wclause1Io3po3po6I
{
	label = "wclause1(o3,o3,o6)";
	position = (0 100);
	states = ("false" "true");
	subtype = boolean;
}

potential (wclause1Io3po3po6I | wclause1Io3po3po6I_CC0 )
{
	data = (0.50342 0.49658
	0.0 1.0 );
}

node wclause1Io1po3po6I_CC0_CC1
{
	label = "aux";
	position = (0 100);
	states = ("false" "true");
	subtype = boolean;
}

potential (wclause1Io1po3po6I_CC0_CC1 | friendsIo3po6I friendsIo1po6I )
{
	data = (0.0 1.0
	0.0 1.0
	1.0 0.0
	0.0 1.0 );
}

node wclause1Io1po3po6I_CC0
{
	label = "aux";
	position = (0 100);
	states = ("false" "true");
	subtype = boolean;
}

potential (wclause1Io1po3po6I_CC0 | friendsIo1po3I wclause1Io1po3po6I_CC0_CC1 )
{
	data = (0.0 1.0
	0.0 1.0
	1.0 0.0
	0.0 1.0 );
}

node wclause1Io1po3po6I
{
	label = "wclause1(o1,o3,o6)";
	position = (0 100);
	states = ("false" "true");
	subtype = boolean;
}

potential (wclause1Io1po3po6I | wclause1Io1po3po6I_CC0 )
{
	data = (0.50342 0.49658
	0.0 1.0 );
}

node wclause1Io3po1po6I_CC0_CC1
{
	label = "aux";
	position = (0 100);
	states = ("false" "true");
	subtype = boolean;
}

potential (wclause1Io3po1po6I_CC0_CC1 | friendsIo1po6I friendsIo3po6I )
{
	data = (0.0 1.0
	0.0 1.0
	1.0 0.0
	0.0 1.0 );
}

node wclause1Io3po1po6I_CC0
{
	label = "aux";
	position = (0 100);
	states = ("false" "true");
	subtype = boolean;
}

potential (wclause1Io3po1po6I_CC0 | friendsIo3po1I wclause1Io3po1po6I_CC0_CC1 )
{
	data = (0.0 1.0
	0.0 1.0
	1.0 0.0
	0.0 1.0 );
}

node wclause1Io3po1po6I
{
	label = "wclause1(o3,o1,o6)";
	position = (0 100);
	states = ("false" "true");
	subtype = boolean;
}

potential (wclause1Io3po1po6I | wclause1Io3po1po6I_CC0 )
{
	data = (0.50342 0.49658
	0.0 1.0 );
}

node wclause1Io3po2po6I_CC0_CC1
{
	label = "aux";
	position = (0 100);
	states = ("false" "true");
	subtype = boolean;
}

potential (wclause1Io3po2po6I_CC0_CC1 | friendsIo2po6I friendsIo3po6I )
{
	data = (0.0 1.0
	0.0 1.0
	1.0 0.0
	0.0 1.0 );
}

node wclause1Io3po2po6I_CC0
{
	label = "aux";
	position = (0 100);
	states = ("false" "true");
	subtype = boolean;
}

potential (wclause1Io3po2po6I_CC0 | friendsIo3po2I wclause1Io3po2po6I_CC0_CC1 )
{
	data = (0.0 1.0
	0.0 1.0
	1.0 0.0
	0.0 1.0 );
}

node wclause1Io3po2po6I
{
	label = "wclause1(o3,o2,o6)";
	position = (0 100);
	states = ("false" "true");
	subtype = boolean;
}

potential (wclause1Io3po2po6I | wclause1Io3po2po6I_CC0 )
{
	data = (0.50342 0.49658
	0.0 1.0 );
}

node wclause1Io3po4po6I_CC0_CC1
{
	label = "aux";
	position = (0 100);
	states = ("false" "true");
	subtype = boolean;
}

potential (wclause1Io3po4po6I_CC0_CC1 | friendsIo4po6I friendsIo3po6I )
{
	data = (0.0 1.0
	0.0 1.0
	1.0 0.0
	0.0 1.0 );
}

node wclause1Io3po4po6I_CC0
{
	label = "aux";
	position = (0 100);
	states = ("false" "true");
	subtype = boolean;
}

potential (wclause1Io3po4po6I_CC0 | friendsIo3po4I wclause1Io3po4po6I_CC0_CC1 )
{
	data = (0.0 1.0
	0.0 1.0
	1.0 0.0
	0.0 1.0 );
}

node wclause1Io3po4po6I
{
	label = "wclause1(o3,o4,o6)";
	position = (0 100);
	states = ("false" "true");
	subtype = boolean;
}

potential (wclause1Io3po4po6I | wclause1Io3po4po6I_CC0 )
{
	data = (0.50342 0.49658
	0.0 1.0 );
}

node wclause1Io3po5po6I_CC0_CC1
{
	label = "aux";
	position = (0 100);
	states = ("false" "true");
	subtype = boolean;
}

potential (wclause1Io3po5po6I_CC0_CC1 | friendsIo5po6I friendsIo3po6I )
{
	data = (0.0 1.0
	0.0 1.0
	1.0 0.0
	0.0 1.0 );
}

node wclause1Io3po5po6I_CC0
{
	label = "aux";
	position = (0 100);
	states = ("false" "true");
	subtype = boolean;
}

potential (wclause1Io3po5po6I_CC0 | friendsIo3po5I wclause1Io3po5po6I_CC0_CC1 )
{
	data = (0.0 1.0
	0.0 1.0
	1.0 0.0
	0.0 1.0 );
}

node wclause1Io3po5po6I
{
	label = "wclause1(o3,o5,o6)";
	position = (0 100);
	states = ("false" "true");
	subtype = boolean;
}

potential (wclause1Io3po5po6I | wclause1Io3po5po6I_CC0 )
{
	data = (0.50342 0.49658
	0.0 1.0 );
}

node friendsIo6po1I
{
	label = "friends(o6,o1)";
	position = (0 100);
	states = ("false" "true");
	subtype = boolean;
}

potential (friendsIo6po1I)
{
	data = (0.5 0.5 );
}

node wclause1Io3po6po1I_CC0_CC1
{
	label = "aux";
	position = (0 100);
	states = ("false" "true");
	subtype = boolean;
}

potential (wclause1Io3po6po1I_CC0_CC1 | friendsIo6po1I friendsIo3po1I )
{
	data = (0.0 1.0
	0.0 1.0
	1.0 0.0
	0.0 1.0 );
}

node wclause1Io3po6po1I_CC0
{
	label = "aux";
	position = (0 100);
	states = ("false" "true");
	subtype = boolean;
}

potential (wclause1Io3po6po1I_CC0 | friendsIo3po6I wclause1Io3po6po1I_CC0_CC1 )
{
	data = (0.0 1.0
	0.0 1.0
	1.0 0.0
	0.0 1.0 );
}

node wclause1Io3po6po1I
{
	label = "wclause1(o3,o6,o1)";
	position = (0 100);
	states = ("false" "true");
	subtype = boolean;
}

potential (wclause1Io3po6po1I | wclause1Io3po6po1I_CC0 )
{
	data = (0.50342 0.49658
	0.0 1.0 );
}

node friendsIo6po6I
{
	label = "friends(o6,o6)";
	position = (0 100);
	states = ("false" "true");
	subtype = boolean;
}

potential (friendsIo6po6I)
{
	data = (0.5 0.5 );
}

node wclause1Io6po6po1I_CC0
{
	label = "aux";
	position = (0 100);
	states = ("false" "true");
	subtype = boolean;
}

potential (wclause1Io6po6po1I_CC0 | friendsIo6po6I friendsIo6po1I )
{
	data = (0.0 1.0
	0.0 1.0
	0.0 1.0
	0.0 1.0 );
}

node wclause1Io6po6po1I
{
	label = "wclause1(o6,o6,o1)";
	position = (0 100);
	states = ("false" "true");
	subtype = boolean;
}

potential (wclause1Io6po6po1I | wclause1Io6po6po1I_CC0 )
{
	data = (0.50342 0.49658
	0.0 1.0 );
}

node wclause1Io6po6po6I
{
	label = "wclause1(o6,o6,o6)";
	position = (0 100);
	states = ("false" "true");
	subtype = boolean;
}

potential (wclause1Io6po6po6I | friendsIo6po6I )
{
	data = (0.0 1.0
	0.0 1.0 );
}

node wclause1Io1po6po6I_CC0_CC1
{
	label = "aux";
	position = (0 100);
	states = ("false" "true");
	subtype = boolean;
}

potential (wclause1Io1po6po6I_CC0_CC1 | friendsIo6po6I friendsIo1po6I )
{
	data = (0.0 1.0
	0.0 1.0
	1.0 0.0
	0.0 1.0 );
}

node wclause1Io1po6po6I_CC0
{
	label = "aux";
	position = (0 100);
	states = ("false" "true");
	subtype = boolean;
}

potential (wclause1Io1po6po6I_CC0 | friendsIo1po6I wclause1Io1po6po6I_CC0_CC1 )
{
	data = (0.0 1.0
	0.0 1.0
	1.0 0.0
	0.0 1.0 );
}

node wclause1Io1po6po6I
{
	label = "wclause1(o1,o6,o6)";
	position = (0 100);
	states = ("false" "true");
	subtype = boolean;
}

potential (wclause1Io1po6po6I | wclause1Io1po6po6I_CC0 )
{
	data = (0.50342 0.49658
	0.0 1.0 );
}

node wclause1Io2po6po6I_CC0_CC1
{
	label = "aux";
	position = (0 100);
	states = ("false" "true");
	subtype = boolean;
}

potential (wclause1Io2po6po6I_CC0_CC1 | friendsIo6po6I friendsIo2po6I )
{
	data = (0.0 1.0
	0.0 1.0
	1.0 0.0
	0.0 1.0 );
}

node wclause1Io2po6po6I_CC0
{
	label = "aux";
	position = (0 100);
	states = ("false" "true");
	subtype = boolean;
}

potential (wclause1Io2po6po6I_CC0 | friendsIo2po6I wclause1Io2po6po6I_CC0_CC1 )
{
	data = (0.0 1.0
	0.0 1.0
	1.0 0.0
	0.0 1.0 );
}

node wclause1Io2po6po6I
{
	label = "wclause1(o2,o6,o6)";
	position = (0 100);
	states = ("false" "true");
	subtype = boolean;
}

potential (wclause1Io2po6po6I | wclause1Io2po6po6I_CC0 )
{
	data = (0.50342 0.49658
	0.0 1.0 );
}

node wclause1Io3po6po6I_CC0_CC1
{
	label = "aux";
	position = (0 100);
	states = ("false" "true");
	subtype = boolean;
}

potential (wclause1Io3po6po6I_CC0_CC1 | friendsIo6po6I friendsIo3po6I )
{
	data = (0.0 1.0
	0.0 1.0
	1.0 0.0
	0.0 1.0 );
}

node wclause1Io3po6po6I_CC0
{
	label = "aux";
	position = (0 100);
	states = ("false" "true");
	subtype = boolean;
}

potential (wclause1Io3po6po6I_CC0 | friendsIo3po6I wclause1Io3po6po6I_CC0_CC1 )
{
	data = (0.0 1.0
	0.0 1.0
	1.0 0.0
	0.0 1.0 );
}

node wclause1Io3po6po6I
{
	label = "wclause1(o3,o6,o6)";
	position = (0 100);
	states = ("false" "true");
	subtype = boolean;
}

potential (wclause1Io3po6po6I | wclause1Io3po6po6I_CC0 )
{
	data = (0.50342 0.49658
	0.0 1.0 );
}

node wclause1Io4po6po6I_CC0_CC1
{
	label = "aux";
	position = (0 100);
	states = ("false" "true");
	subtype = boolean;
}

potential (wclause1Io4po6po6I_CC0_CC1 | friendsIo6po6I friendsIo4po6I )
{
	data = (0.0 1.0
	0.0 1.0
	1.0 0.0
	0.0 1.0 );
}

node wclause1Io4po6po6I_CC0
{
	label = "aux";
	position = (0 100);
	states = ("false" "true");
	subtype = boolean;
}

potential (wclause1Io4po6po6I_CC0 | friendsIo4po6I wclause1Io4po6po6I_CC0_CC1 )
{
	data = (0.0 1.0
	0.0 1.0
	1.0 0.0
	0.0 1.0 );
}

node wclause1Io4po6po6I
{
	label = "wclause1(o4,o6,o6)";
	position = (0 100);
	states = ("false" "true");
	subtype = boolean;
}

potential (wclause1Io4po6po6I | wclause1Io4po6po6I_CC0 )
{
	data = (0.50342 0.49658
	0.0 1.0 );
}

node wclause1Io5po6po6I_CC0_CC1
{
	label = "aux";
	position = (0 100);
	states = ("false" "true");
	subtype = boolean;
}

potential (wclause1Io5po6po6I_CC0_CC1 | friendsIo6po6I friendsIo5po6I )
{
	data = (0.0 1.0
	0.0 1.0
	1.0 0.0
	0.0 1.0 );
}

node wclause1Io5po6po6I_CC0
{
	label = "aux";
	position = (0 100);
	states = ("false" "true");
	subtype = boolean;
}

potential (wclause1Io5po6po6I_CC0 | friendsIo5po6I wclause1Io5po6po6I_CC0_CC1 )
{
	data = (0.0 1.0
	0.0 1.0
	1.0 0.0
	0.0 1.0 );
}

node wclause1Io5po6po6I
{
	label = "wclause1(o5,o6,o6)";
	position = (0 100);
	states = ("false" "true");
	subtype = boolean;
}

potential (wclause1Io5po6po6I | wclause1Io5po6po6I_CC0 )
{
	data = (0.50342 0.49658
	0.0 1.0 );
}

node wclause1Io6po1po6I_CC0_CC1
{
	label = "aux";
	position = (0 100);
	states = ("false" "true");
	subtype = boolean;
}

potential (wclause1Io6po1po6I_CC0_CC1 | friendsIo1po6I friendsIo6po6I )
{
	data = (0.0 1.0
	0.0 1.0
	1.0 0.0
	0.0 1.0 );
}

node wclause1Io6po1po6I_CC0
{
	label = "aux";
	position = (0 100);
	states = ("false" "true");
	subtype = boolean;
}

potential (wclause1Io6po1po6I_CC0 | friendsIo6po1I wclause1Io6po1po6I_CC0_CC1 )
{
	data = (0.0 1.0
	0.0 1.0
	1.0 0.0
	0.0 1.0 );
}

node wclause1Io6po1po6I
{
	label = "wclause1(o6,o1,o6)";
	position = (0 100);
	states = ("false" "true");
	subtype = boolean;
}

potential (wclause1Io6po1po6I | wclause1Io6po1po6I_CC0 )
{
	data = (0.50342 0.49658
	0.0 1.0 );
}

node wclause1Io6po2po6I_CC0_CC1
{
	label = "aux";
	position = (0 100);
	states = ("false" "true");
	subtype = boolean;
}

potential (wclause1Io6po2po6I_CC0_CC1 | friendsIo2po6I friendsIo6po6I )
{
	data = (0.0 1.0
	0.0 1.0
	1.0 0.0
	0.0 1.0 );
}

node friendsIo6po2I
{
	label = "friends(o6,o2)";
	position = (0 100);
	states = ("false" "true");
	subtype = boolean;
}

potential (friendsIo6po2I)
{
	data = (0.5 0.5 );
}

node wclause1Io6po2po6I_CC0
{
	label = "aux";
	position = (0 100);
	states = ("false" "true");
	subtype = boolean;
}

potential (wclause1Io6po2po6I_CC0 | friendsIo6po2I wclause1Io6po2po6I_CC0_CC1 )
{
	data = (0.0 1.0
	0.0 1.0
	1.0 0.0
	0.0 1.0 );
}

node wclause1Io6po2po6I
{
	label = "wclause1(o6,o2,o6)";
	position = (0 100);
	states = ("false" "true");
	subtype = boolean;
}

potential (wclause1Io6po2po6I | wclause1Io6po2po6I_CC0 )
{
	data = (0.50342 0.49658
	0.0 1.0 );
}

node wclause1Io6po6po2I_CC0
{
	label = "aux";
	position = (0 100);
	states = ("false" "true");
	subtype = boolean;
}

potential (wclause1Io6po6po2I_CC0 | friendsIo6po6I friendsIo6po2I )
{
	data = (0.0 1.0
	0.0 1.0
	0.0 1.0
	0.0 1.0 );
}

node wclause1Io6po6po2I
{
	label = "wclause1(o6,o6,o2)";
	position = (0 100);
	states = ("false" "true");
	subtype = boolean;
}

potential (wclause1Io6po6po2I | wclause1Io6po6po2I_CC0 )
{
	data = (0.50342 0.49658
	0.0 1.0 );
}

node wclause1Io1po6po2I_CC0_CC1
{
	label = "aux";
	position = (0 100);
	states = ("false" "true");
	subtype = boolean;
}

potential (wclause1Io1po6po2I_CC0_CC1 | friendsIo6po2I friendsIo1po2I )
{
	data = (0.0 1.0
	0.0 1.0
	1.0 0.0
	0.0 1.0 );
}

node wclause1Io1po6po2I_CC0
{
	label = "aux";
	position = (0 100);
	states = ("false" "true");
	subtype = boolean;
}

potential (wclause1Io1po6po2I_CC0 | friendsIo1po6I wclause1Io1po6po2I_CC0_CC1 )
{
	data = (0.0 1.0
	0.0 1.0
	1.0 0.0
	0.0 1.0 );
}

node wclause1Io1po6po2I
{
	label = "wclause1(o1,o6,o2)";
	position = (0 100);
	states = ("false" "true");
	subtype = boolean;
}

potential (wclause1Io1po6po2I | wclause1Io1po6po2I_CC0 )
{
	data = (0.50342 0.49658
	0.0 1.0 );
}

node wclause1Io2po6po2I_CC0_CC1
{
	label = "aux";
	position = (0 100);
	states = ("false" "true");
	subtype = boolean;
}

potential (wclause1Io2po6po2I_CC0_CC1 | friendsIo6po2I friendsIo2po2I )
{
	data = (0.0 1.0
	0.0 1.0
	1.0 0.0
	0.0 1.0 );
}

node wclause1Io2po6po2I_CC0
{
	label = "aux";
	position = (0 100);
	states = ("false" "true");
	subtype = boolean;
}

potential (wclause1Io2po6po2I_CC0 | friendsIo2po6I wclause1Io2po6po2I_CC0_CC1 )
{
	data = (0.0 1.0
	0.0 1.0
	1.0 0.0
	0.0 1.0 );
}

node wclause1Io2po6po2I
{
	label = "wclause1(o2,o6,o2)";
	position = (0 100);
	states = ("false" "true");
	subtype = boolean;
}

potential (wclause1Io2po6po2I | wclause1Io2po6po2I_CC0 )
{
	data = (0.50342 0.49658
	0.0 1.0 );
}

node wclause1Io3po6po2I_CC0_CC1
{
	label = "aux";
	position = (0 100);
	states = ("false" "true");
	subtype = boolean;
}

potential (wclause1Io3po6po2I_CC0_CC1 | friendsIo6po2I friendsIo3po2I )
{
	data = (0.0 1.0
	0.0 1.0
	1.0 0.0
	0.0 1.0 );
}

node wclause1Io3po6po2I_CC0
{
	label = "aux";
	position = (0 100);
	states = ("false" "true");
	subtype = boolean;
}

potential (wclause1Io3po6po2I_CC0 | friendsIo3po6I wclause1Io3po6po2I_CC0_CC1 )
{
	data = (0.0 1.0
	0.0 1.0
	1.0 0.0
	0.0 1.0 );
}

node wclause1Io3po6po2I
{
	label = "wclause1(o3,o6,o2)";
	position = (0 100);
	states = ("false" "true");
	subtype = boolean;
}

potential (wclause1Io3po6po2I | wclause1Io3po6po2I_CC0 )
{
	data = (0.50342 0.49658
	0.0 1.0 );
}

node wclause1Io4po6po2I_CC0_CC1
{
	label = "aux";
	position = (0 100);
	states = ("false" "true");
	subtype = boolean;
}

potential (wclause1Io4po6po2I_CC0_CC1 | friendsIo6po2I friendsIo4po2I )
{
	data = (0.0 1.0
	0.0 1.0
	1.0 0.0
	0.0 1.0 );
}

node wclause1Io4po6po2I_CC0
{
	label = "aux";
	position = (0 100);
	states = ("false" "true");
	subtype = boolean;
}

potential (wclause1Io4po6po2I_CC0 | friendsIo4po6I wclause1Io4po6po2I_CC0_CC1 )
{
	data = (0.0 1.0
	0.0 1.0
	1.0 0.0
	0.0 1.0 );
}

node wclause1Io4po6po2I
{
	label = "wclause1(o4,o6,o2)";
	position = (0 100);
	states = ("false" "true");
	subtype = boolean;
}

potential (wclause1Io4po6po2I | wclause1Io4po6po2I_CC0 )
{
	data = (0.50342 0.49658
	0.0 1.0 );
}

node wclause1Io5po6po2I_CC0_CC1
{
	label = "aux";
	position = (0 100);
	states = ("false" "true");
	subtype = boolean;
}

potential (wclause1Io5po6po2I_CC0_CC1 | friendsIo6po2I friendsIo5po2I )
{
	data = (0.0 1.0
	0.0 1.0
	1.0 0.0
	0.0 1.0 );
}

node wclause1Io5po6po2I_CC0
{
	label = "aux";
