net
{
}
node true_colorIp3pc1I
{
	states = ("false" "true" );
	position = (0 0);
	label = "true_colorIp3pc1I";
}
node guess_colorIg1pp4pc1I
{
	states = ("false" "true" );
	position = (40 -40);
	label = "guess_colorIg1pp4pc1I";
}
node guess_colorIg3pp1pc1I
{
	states = ("false" "true" );
	position = (130 -130);
	label = "guess_colorIg3pp1pc1I";
}
node guess_colorIg4pp3pc1I
{
	states = ("false" "true" );
	position = (220 -220);
	label = "guess_colorIg4pp3pc1I";
}
node guess_colorIg1pp2pc1I
{
	states = ("false" "true" );
	position = (310 -310);
	label = "guess_colorIg1pp2pc1I";
}
node guess_colorIg5pp2pc1I
{
	states = ("false" "true" );
	position = (400 -400);
	label = "guess_colorIg5pp2pc1I";
}
node guess_colorIg7pp3pc1I
{
	states = ("false" "true" );
	position = (490 -490);
	label = "guess_colorIg7pp3pc1I";
}
node guess_colorIg2pp3pc1I
{
	states = ("false" "true" );
	position = (580 -580);
	label = "guess_colorIg2pp3pc1I";
}
node guess_colorIg4pp4pc1I
{
	states = ("false" "true" );
	position = (670 -670);
	label = "guess_colorIg4pp4pc1I";
}
node guess_colorIg4pp2pc1I
{
	states = ("false" "true" );
	position = (760 -760);
	label = "guess_colorIg4pp2pc1I";
}
node guess_colorIg4pp1pc1I
{
	states = ("false" "true" );
	position = (850 -850);
	label = "guess_colorIg4pp1pc1I";
}
node guess_colorIg6pp4pc1I
{
	states = ("false" "true" );
	position = (940 -940);
	label = "guess_colorIg6pp4pc1I";
}
node guess_colorIg5pp1pc1I
{
	states = ("false" "true" );
	position = (1030 -1030);
	label = "guess_colorIg5pp1pc1I";
}
node guess_colorIg2pp1pc1I
{
	states = ("false" "true" );
	position = (1120 -1120);
	label = "guess_colorIg2pp1pc1I";
}
node guess_colorIg6pp1pc1I
{
	states = ("false" "true" );
	position = (1210 -1210);
	label = "guess_colorIg6pp1pc1I";
}
node guess_colorIg6pp3pc1I
{
	states = ("false" "true" );
	position = (1300 -1300);
	label = "guess_colorIg6pp3pc1I";
}
node guess_colorIg2pp4pc1I
{
	states = ("false" "true" );
	position = (1390 -1390);
	label = "guess_colorIg2pp4pc1I";
}
node guess_colorIg8pp4pc1I
{
	states = ("false" "true" );
	position = (1480 -1480);
	label = "guess_colorIg8pp4pc1I";
}
node guess_colorIg5pp3pc1I
{
	states = ("false" "true" );
	position = (1570 -1570);
	label = "guess_colorIg5pp3pc1I";
}
node guess_colorIg3pp2pc1I
{
	states = ("false" "true" );
	position = (1660 -1660);
	label = "guess_colorIg3pp2pc1I";
}
node guess_colorIg8pp2pc1I
{
	states = ("false" "true" );
	position = (1750 -1750);
	label = "guess_colorIg8pp2pc1I";
}
node true_colorIp4pc1I
{
	states = ("false" "true" );
	position = (1840 -1840);
	label = "true_colorIp4pc1I";
}
node guess_colorIg6pp2pc1I
{
	states = ("false" "true" );
	position = (2880 -2880);
	label = "guess_colorIg6pp2pc1I";
}
node guess_colorIg5pp4pc1I
{
	states = ("false" "true" );
	position = (3020 -3020);
	label = "guess_colorIg5pp4pc1I";
}
node guess_colorIg2pp2pc1I
{
	states = ("false" "true" );
	position = (3160 -3160);
	label = "guess_colorIg2pp2pc1I";
}
node guess_colorIg8pp3pc1I
{
	states = ("false" "true" );
	position = (3300 -3300);
	label = "guess_colorIg8pp3pc1I";
}
node guess_colorIg3pp3pc1I
{
	states = ("false" "true" );
	position = (3440 -3440);
	label = "guess_colorIg3pp3pc1I";
}
node guess_colorIg1pp1pc1I
{
	states = ("false" "true" );
	position = (3580 -3580);
	label = "guess_colorIg1pp1pc1I";
}
node guess_colorIg7pp4pc1I
{
	states = ("false" "true" );
	position = (3720 -3720);
	label = "guess_colorIg7pp4pc1I";
}
node true_colorIp1pc1I
{
	states = ("false" "true" );
	position = (3860 -3860);
	label = "true_colorIp1pc1I";
}
node true_colorIp2pc1I
{
	states = ("false" "true" );
	position = (6260 -6260);
	label = "true_colorIp2pc1I";
}
node guess_colorIg8pp1pc1I
{
	states = ("false" "true" );
	position = (16300 -16300);
	label = "guess_colorIg8pp1pc1I";
}
node guess_colorIg3pp4pc1I
{
	states = ("false" "true" );
	position = (18420 -18420);
	label = "guess_colorIg3pp4pc1I";
}
node guess_colorIg1pp3pc1I
{
	states = ("false" "true" );
	position = (19200 -19200);
	label = "guess_colorIg1pp3pc1I";
}
node guess_colorIg7pp1pc1I
{
	states = ("false" "true" );
	position = (20520 -20520);
	label = "guess_colorIg7pp1pc1I";
}
node guess_colorIg7pp2pc1I
{
	states = ("false" "true" );
	position = (21040 -21040);
	label = "guess_colorIg7pp2pc1I";
}
potential ( guess_colorIg8pp4pc1I | )
{
	data = (	0.6666666666666667	0.3333333333333333	);
}
potential ( guess_colorIg8pp1pc1I | )
{
	data = (	0.6666666666666667	0.3333333333333333	);
}
potential ( guess_colorIg7pp1pc1I | )
{
	data = (	0.6666666666666667	0.3333333333333333	);
}
potential ( guess_colorIg3pp2pc1I | )
{
	data = (	0.6666666666666667	0.3333333333333333	);
}
potential ( guess_colorIg2pp1pc1I | )
{
	data = (	0.6666666666666667	0.3333333333333333	);
}
potential ( guess_colorIg4pp2pc1I | )
{
	data = (	0.6666666666666667	0.3333333333333333	);
}
potential ( guess_colorIg8pp2pc1I | )
{
	data = (	0.6666666666666667	0.3333333333333333	);
}
potential ( guess_colorIg2pp3pc1I | )
{
	data = (	0.6666666666666667	0.3333333333333333	);
}
potential ( guess_colorIg7pp2pc1I | )
{
	data = (	0.6666666666666667	0.3333333333333333	);
}
potential ( guess_colorIg1pp3pc1I | )
{
	data = (	0.6666666666666667	0.3333333333333333	);
}
potential ( guess_colorIg5pp2pc1I | )
{
	data = (	0.6666666666666667	0.3333333333333333	);
}
potential ( guess_colorIg1pp1pc1I | )
{
	data = (	0.6666666666666667	0.3333333333333333	);
}
potential ( guess_colorIg7pp3pc1I | )
{
	data = (	0.6666666666666667	0.3333333333333333	);
}
potential ( guess_colorIg1pp2pc1I | )
{
	data = (	0.6666666666666667	0.3333333333333333	);
}
potential ( guess_colorIg2pp4pc1I | )
{
	data = (	0.6666666666666667	0.3333333333333333	);
}
potential ( guess_colorIg6pp3pc1I | )
{
	data = (	0.6666666666666667	0.3333333333333333	);
}
potential ( guess_colorIg4pp1pc1I | )
{
	data = (	0.6666666666666667	0.3333333333333333	);
}
potential ( guess_colorIg6pp4pc1I | )
{
	data = (	0.6666666666666667	0.3333333333333333	);
}
potential ( guess_colorIg6pp2pc1I | )
{
	data = (	0.6666666666666667	0.3333333333333333	);
}
potential ( true_colorIp3pc1I | )
{
	data = (	0.6666666666666667	0.3333333333333333	);
}
potential ( guess_colorIg7pp4pc1I | )
{
	data = (	0.6666666666666667	0.3333333333333333	);
}
potential ( guess_colorIg4pp4pc1I | )
{
	data = (	0.6666666666666667	0.3333333333333333	);
}
potential ( guess_colorIg1pp4pc1I | )
{
	data = (	0.6666666666666667	0.3333333333333333	);
}
potential ( guess_colorIg4pp3pc1I | )
{
	data = (	0.6666666666666667	0.3333333333333333	);
}
potential ( guess_colorIg3pp3pc1I | )
{
	data = (	0.6666666666666667	0.3333333333333333	);
}
potential ( true_colorIp1pc1I | )
{
	data = (	0.6666666666666667	0.3333333333333333	);
}
potential ( guess_colorIg3pp1pc1I | )
{
	data = (	0.6666666666666667	0.3333333333333333	);
}
potential ( guess_colorIg5pp1pc1I | )
{
	data = (	0.6666666666666667	0.3333333333333333	);
}
potential ( true_colorIp4pc1I | )
{
	data = (	0.6666666666666667	0.3333333333333333	);
}
potential ( guess_colorIg5pp3pc1I | )
{
	data = (	0.6666666666666667	0.3333333333333333	);
}
potential ( guess_colorIg6pp1pc1I | )
{
	data = (	0.6666666666666667	0.3333333333333333	);
}
potential ( guess_colorIg8pp3pc1I | )
{
	data = (	0.6666666666666667	0.3333333333333333	);
}
potential ( guess_colorIg2pp2pc1I | )
{
	data = (	0.6666666666666667	0.3333333333333333	);
}
potential ( guess_colorIg5pp4pc1I | )
{
	data = (	0.6666666666666667	0.3333333333333333	);
}
potential ( true_colorIp2pc1I | )
{
	data = (	0.6666666666666667	0.3333333333333333	);
}
potential ( guess_colorIg3pp4pc1I | )
{
	data = (	0.6666666666666667	0.3333333333333333	);
}
