net
{
}
node guess_colorIg1pp1pc1I
{
	states = ("false" "true" );
	position = (0 0);
	label = "guess_colorIg1pp1pc1I";
}
node guess_colorIg8pp3pc1I
{
	states = ("false" "true" );
	position = (100 -100);
	label = "guess_colorIg8pp3pc1I";
}
node guess_colorIg4pp1pc1I
{
	states = ("false" "true" );
	position = (200 -200);
	label = "guess_colorIg4pp1pc1I";
}
node guess_colorIg3pp1pc1I
{
	states = ("false" "true" );
	position = (300 -300);
	label = "guess_colorIg3pp1pc1I";
}
node guess_colorIg3pp2pc1I
{
	states = ("false" "true" );
	position = (400 -400);
	label = "guess_colorIg3pp2pc1I";
}
node guess_colorIg1pp2pc1I
{
	states = ("false" "true" );
	position = (500 -500);
	label = "guess_colorIg1pp2pc1I";
}
node guess_colorIg5pp2pc1I
{
	states = ("false" "true" );
	position = (600 -600);
	label = "guess_colorIg5pp2pc1I";
}
node guess_colorIg7pp1pc1I
{
	states = ("false" "true" );
	position = (700 -700);
	label = "guess_colorIg7pp1pc1I";
}
node true_colorIp3pc1I
{
	states = ("false" "true" );
	position = (800 -800);
	label = "true_colorIp3pc1I";
}
node guess_colorIg7pp3pc1I
{
	states = ("false" "true" );
	position = (1780 -1780);
	label = "guess_colorIg7pp3pc1I";
}
node guess_colorIg7pp2pc1I
{
	states = ("false" "true" );
	position = (1990 -1990);
	label = "guess_colorIg7pp2pc1I";
}
node guess_colorIg5pp3pc1I
{
	states = ("false" "true" );
	position = (2200 -2200);
	label = "guess_colorIg5pp3pc1I";
}
node guess_colorIg6pp3pc1I
{
	states = ("false" "true" );
	position = (2410 -2410);
	label = "guess_colorIg6pp3pc1I";
}
node true_colorIp1pc1I
{
	states = ("false" "true" );
	position = (2620 -2620);
	label = "true_colorIp1pc1I";
}
node guess_colorIg5pp1pc1I
{
	states = ("false" "true" );
	position = (4430 -4430);
	label = "guess_colorIg5pp1pc1I";
}
node guess_colorIg2pp2pc1I
{
	states = ("false" "true" );
	position = (4870 -4870);
	label = "guess_colorIg2pp2pc1I";
}
node guess_colorIg2pp3pc1I
{
	states = ("false" "true" );
	position = (5190 -5190);
	label = "guess_colorIg2pp3pc1I";
}
node guess_colorIg1pp3pc1I
{
	states = ("false" "true" );
	position = (5510 -5510);
	label = "guess_colorIg1pp3pc1I";
}
node guess_colorIg6pp2pc1I
{
	states = ("false" "true" );
	position = (5850 -5850);
	label = "guess_colorIg6pp2pc1I";
}
node guess_colorIg8pp1pc1I
{
	states = ("false" "true" );
	position = (6170 -6170);
	label = "guess_colorIg8pp1pc1I";
}
node guess_colorIg4pp3pc1I
{
	states = ("false" "true" );
	position = (6560 -6560);
	label = "guess_colorIg4pp3pc1I";
}
node guess_colorIg2pp1pc1I
{
	states = ("false" "true" );
	position = (6880 -6880);
	label = "guess_colorIg2pp1pc1I";
}
node guess_colorIg6pp1pc1I
{
	states = ("false" "true" );
	position = (7320 -7320);
	label = "guess_colorIg6pp1pc1I";
}
node guess_colorIg4pp2pc1I
{
	states = ("false" "true" );
	position = (7760 -7760);
	label = "guess_colorIg4pp2pc1I";
}
node guess_colorIg3pp3pc1I
{
	states = ("false" "true" );
	position = (8130 -8130);
	label = "guess_colorIg3pp3pc1I";
}
node guess_colorIg8pp2pc1I
{
	states = ("false" "true" );
	position = (8470 -8470);
	label = "guess_colorIg8pp2pc1I";
}
node true_colorIp2pc1I
{
	states = ("false" "true" );
	position = (8840 -8840);
	label = "true_colorIp2pc1I";
}
potential ( guess_colorIg8pp2pc1I | )
{
	data = (	0.8333333333333334	0.16666666666666666	);
}
potential ( guess_colorIg7pp1pc1I | )
{
	data = (	0.8333333333333334	0.16666666666666666	);
}
potential ( guess_colorIg3pp2pc1I | )
{
	data = (	0.8333333333333334	0.16666666666666666	);
}
potential ( true_colorIp3pc1I | )
{
	data = (	0.8333333333333334	0.16666666666666666	);
}
potential ( guess_colorIg3pp3pc1I | )
{
	data = (	0.8333333333333334	0.16666666666666666	);
}
potential ( guess_colorIg7pp2pc1I | )
{
	data = (	0.8333333333333334	0.16666666666666666	);
}
potential ( guess_colorIg1pp1pc1I | )
{
	data = (	0.8333333333333334	0.16666666666666666	);
}
potential ( guess_colorIg5pp1pc1I | )
{
	data = (	0.8333333333333334	0.16666666666666666	);
}
potential ( guess_colorIg8pp3pc1I | )
{
	data = (	0.8333333333333334	0.16666666666666666	);
}
potential ( guess_colorIg2pp1pc1I | )
{
	data = (	0.8333333333333334	0.16666666666666666	);
}
potential ( guess_colorIg6pp3pc1I | )
{
	data = (	0.8333333333333334	0.16666666666666666	);
}
potential ( guess_colorIg2pp3pc1I | )
{
	data = (	0.8333333333333334	0.16666666666666666	);
}
potential ( guess_colorIg3pp1pc1I | )
{
	data = (	0.8333333333333334	0.16666666666666666	);
}
potential ( guess_colorIg8pp1pc1I | )
{
	data = (	0.8333333333333334	0.16666666666666666	);
}
potential ( guess_colorIg5pp3pc1I | )
{
	data = (	0.8333333333333334	0.16666666666666666	);
}
potential ( guess_colorIg2pp2pc1I | )
{
	data = (	0.8333333333333334	0.16666666666666666	);
}
potential ( guess_colorIg6pp1pc1I | )
{
	data = (	0.8333333333333334	0.16666666666666666	);
}
potential ( true_colorIp1pc1I | )
{
	data = (	0.8333333333333334	0.16666666666666666	);
}
potential ( guess_colorIg1pp2pc1I | )
{
	data = (	0.8333333333333334	0.16666666666666666	);
}
potential ( guess_colorIg4pp2pc1I | )
{
	data = (	0.8333333333333334	0.16666666666666666	);
}
potential ( guess_colorIg4pp1pc1I | )
{
	data = (	0.8333333333333334	0.16666666666666666	);
}
potential ( guess_colorIg7pp3pc1I | )
{
	data = (	0.8333333333333334	0.16666666666666666	);
}
potential ( guess_colorIg1pp3pc1I | )
{
	data = (	0.8333333333333334	0.16666666666666666	);
}
potential ( guess_colorIg4pp3pc1I | )
{
	data = (	0.8333333333333334	0.16666666666666666	);
}
potential ( guess_colorIg5pp2pc1I | )
{
	data = (	0.8333333333333334	0.16666666666666666	);
}
potential ( guess_colorIg6pp2pc1I | )
{
	data = (	0.8333333333333334	0.16666666666666666	);
}
potential ( true_colorIp2pc1I | )
{
	data = (	0.8333333333333334	0.16666666666666666	);
}
